// Neural Network File Format by Kyle Julian, Stanford 2016
6,3,5,25,
3,25,25,25,25,25,5,
0,
-56000.000000,-56000.000000,-3.141593
56000.000000,56000.000000,3.141593
-278.628049,0.000000,0.000000,-0.242819
112000.000000,112000.000000,6.283185,17.479225
1.34396e-01,1.09668e-01,5.41040e-02,
-6.66465e-01,1.59377e+00,1.41190e-02,
4.02067e-01,9.89098e-01,1.12151e-02,
-9.58012e-01,-1.77895e-01,1.27172e-01,
2.81974e-01,-1.50024e+00,9.39406e-02,
2.45400e-01,-3.63130e-02,8.45060e-02,
-3.45670e-01,-9.49712e-01,-1.08630e-01,
-7.90017e-02,2.50899e+00,4.07885e-01,
8.69624e-01,-1.75151e-01,-1.66166e-01,
1.06187e+00,1.91545e-01,-4.09928e-01,
-6.97271e-01,-1.04305e+00,-4.54711e-01,
-7.54241e-01,-5.63074e-01,4.94189e-01,
-3.18438e-01,4.87254e-01,1.90603e-01,
-7.56372e-02,-1.56830e-01,-1.66688e-01,
6.80073e-01,-1.44779e+00,-3.78229e-01,
-5.31740e-01,-5.74879e-01,-7.24730e-01,
7.17755e-01,-8.20594e-01,2.36960e-01,
-2.32996e+00,3.57582e-01,1.53956e-02,
-1.59450e+00,-1.13706e+00,2.41475e-01,
2.02197e-01,1.22473e+00,4.16202e-01,
-1.78121e-01,1.08242e-01,-1.68406e-01,
1.00918e-01,-6.85125e-01,-3.48411e-01,
-1.15530e-01,1.48299e+00,-1.36757e-01,
1.08546e+00,1.60881e-01,5.75574e-02,
4.08866e-01,-1.47531e-01,-5.71638e-01,
-1.96266e-01,
-5.04600e-02,
2.77524e-01,
-1.01336e-01,
-1.60226e-02,
-2.72326e-01,
1.74430e-01,
1.64174e-01,
7.57087e-02,
-1.83512e-01,
-3.75408e-02,
-1.07774e-01,
2.41386e-01,
9.08866e-02,
3.65689e-02,
1.46975e-01,
1.16412e-01,
7.65487e-02,
7.56485e-03,
-8.90480e-02,
-3.35227e-01,
2.33799e-01,
9.34277e-02,
-1.43397e-01,
7.01139e-02,
2.66967e-01,-1.22488e-01,-6.32317e-02,-7.44710e-01,-9.18177e-02,-1.13150e-01,-1.01862e-01,1.12684e-01,-8.32795e-02,-2.34334e-02,-6.25361e-01,6.47339e-02,-1.45018e-01,-3.33809e-01,1.35371e-02,1.58808e-01,6.39859e-02,-3.07989e-01,6.12437e-02,-4.98742e-02,-3.13732e-01,-1.58884e-01,1.80998e-01,1.84293e-01,3.23059e-01,
3.00878e-01,-7.66617e-02,-4.11794e-02,6.77412e-01,2.44138e-01,2.37912e-01,4.27340e-02,3.42866e-01,-6.64380e-02,-4.62869e-01,-1.12866e+00,1.46861e-01,2.58560e-01,1.48440e-01,2.35253e-01,2.08518e-01,3.53398e-01,5.41555e-02,1.39155e-01,1.37949e-01,-2.60456e-01,-5.17555e-02,-2.38073e-01,-4.24916e-01,2.78825e-01,
-1.32135e-01,5.00447e-01,-2.61696e-01,1.50973e-01,-1.61976e-01,-1.97729e-02,1.12655e-01,-2.03820e-01,-6.79779e-02,-1.63348e-01,-4.69023e-02,-3.69998e-01,2.10006e-01,1.38467e-01,9.10279e-02,1.93956e-02,2.26434e-01,-3.15504e-01,1.30497e-01,6.06154e-01,2.28303e-01,-1.63821e-01,-3.28638e-01,1.97904e-01,-1.86752e-01,
1.05427e-01,-1.00360e+00,3.80772e-01,-4.70847e-01,4.33285e-01,4.72020e-02,-2.84004e-01,4.77396e-01,8.64206e-02,4.75334e-01,2.64240e-01,-4.10384e-01,2.29601e-01,-4.28154e-04,-3.60857e-01,-3.28560e-02,-5.65507e-02,-3.34657e-02,-4.31522e-01,2.08734e-01,4.27217e-02,8.98509e-02,3.18367e-01,-3.98619e-01,3.33593e-01,
1.68589e-01,1.09296e-01,8.58715e-02,3.20035e-02,-1.17757e-02,1.90199e-01,-1.37926e-01,-3.25629e-01,1.65953e-01,4.76837e-03,7.77956e-02,-2.40814e-01,-7.03963e-02,4.22829e-02,-1.16549e-01,-2.07189e-01,-1.25581e-01,-6.57704e-02,1.85059e-01,2.77900e-01,3.22473e-01,1.04492e-01,-2.32216e-01,-2.80454e-01,-1.92283e-01,
1.98061e-01,3.87001e-01,2.56119e-01,-1.36059e+00,-2.75197e-01,-1.03999e-01,-2.48657e-01,4.03592e-01,-1.94139e-01,5.05350e-02,-4.48462e-01,4.55699e-01,3.68312e-01,-1.86325e-01,-4.77682e-01,-2.76481e-01,4.08515e-02,2.87731e-02,5.39158e-01,-6.91283e-01,-1.62145e-01,2.81938e-01,-3.09298e-01,4.38898e-01,-2.88336e-01,
8.49991e-02,-1.14396e+00,2.40592e-01,5.85255e-01,2.58279e-01,2.06716e-01,-1.18654e-03,1.83814e-01,-1.24948e-01,-1.44761e-01,4.62614e-02,-1.54892e-02,1.59885e-02,4.41195e-02,2.13059e-01,1.51270e-01,-1.66452e-01,7.31934e-02,3.69689e-01,-2.22938e-01,7.22198e-02,-1.89099e-01,-1.63990e-01,5.23697e-01,-1.59243e-01,
2.20256e-01,-9.47084e-01,1.19549e-01,-8.75199e-02,9.79779e-02,-2.19672e-02,1.83180e-01,4.72272e-01,-2.90921e-01,-3.65547e-01,5.64567e-01,-6.42414e-02,7.53607e-02,-2.61357e-01,-1.62875e+00,-1.16963e-01,-3.16855e-01,8.96581e-02,-3.78403e-01,-5.95043e-01,2.82611e-01,-3.37282e-01,-7.27742e-02,-2.52875e+00,-1.02962e-01,
-2.82484e-01,1.18887e-01,1.42396e-01,2.91533e-01,1.01381e-01,2.13496e-01,-8.75213e-02,-2.83331e-01,-6.84206e-02,-9.36141e-02,4.62742e-02,8.29369e-01,-9.68410e-02,2.13160e-02,-1.64687e-01,-3.53311e-01,-6.08067e-02,-3.55379e-01,-2.80028e-01,-4.52331e-03,-1.39215e-01,2.97569e-01,-1.72620e-01,4.12465e-02,2.26992e-01,
-1.37726e-01,-7.34648e-02,-2.04610e-01,-4.33349e-01,-6.40925e-01,-1.99138e-01,5.60435e-02,4.06696e-02,3.45852e-01,-8.11375e-01,3.94395e-02,6.03445e-01,-3.21514e-01,-1.90835e-01,1.34364e-01,-8.58444e-02,2.90052e-01,-3.69899e-01,2.08779e-01,-6.59253e-01,-1.26100e-01,3.52429e-01,-3.96551e-01,5.42768e-01,-1.36927e-01,
3.27108e-01,-1.34504e-01,-2.36647e-02,1.19066e-01,-3.71475e-01,-1.68591e-01,3.30016e-01,1.01081e-01,-2.67657e-03,5.16390e-03,2.59085e-01,-8.30042e-01,3.14955e-01,4.04653e-01,1.16467e-01,2.27466e-01,-3.64018e-02,3.58992e-01,-1.11255e-02,1.88435e-01,-3.37762e-01,4.20153e-01,-3.61700e-01,-4.32422e-01,2.35762e-01,
-2.21384e-01,-5.28666e-03,-5.03284e-02,-1.17873e-01,4.50959e-01,-1.42111e-02,3.78177e-01,-1.66756e-01,1.31250e-01,-3.72318e-01,-8.88148e-02,-3.12607e-01,2.11454e-01,1.08563e-01,-3.77935e-01,3.37188e-01,-2.87465e-01,9.68730e-02,6.36867e-01,4.74381e-01,9.18850e-02,1.50653e-01,2.61482e-02,2.78775e-01,2.78417e-01,
1.07045e-01,-4.89524e-01,1.26816e-01,5.84512e-02,-9.67612e-02,2.73401e-01,6.13720e-03,-4.92950e-01,2.11863e-01,-1.46567e+00,5.13653e-01,-6.66705e-01,-3.11008e-01,-8.62531e-02,-2.24626e-02,3.31089e-01,-6.86054e-02,3.35335e-01,1.73660e-01,-1.29768e+00,-1.43811e-02,4.54698e-02,4.35180e-01,3.14114e-01,-1.74332e-01,
1.20771e-02,-5.44551e-01,2.06105e-01,-3.04196e-01,2.77021e-01,3.95900e-02,1.72942e-02,-5.95847e-02,-3.70771e-01,-9.09968e-01,-3.42910e+00,-6.16102e-01,3.31574e-01,3.30847e-01,-2.81817e-01,-1.26758e-01,-1.07329e-01,8.58242e-02,-2.07134e-01,-4.31767e-02,-1.62462e-01,-1.24000e-01,2.47065e-01,2.22698e-01,-5.98984e-01,
1.62560e-01,-2.63985e-01,-1.78593e-01,2.29353e-02,-2.02980e-01,1.47111e-01,-8.80772e-02,-2.71488e-01,1.67736e-01,3.07486e-01,2.47031e-01,2.49818e-01,2.58624e-02,-1.82519e-01,2.71634e-03,6.59644e-02,-1.38121e-02,3.25782e-03,4.14380e-02,-3.15122e-01,2.30571e-01,6.51186e-02,-4.57251e-02,-1.30051e-01,-2.40298e-01,
6.18508e-02,-1.21341e+00,3.06779e-01,-1.78942e-01,8.00485e-01,-2.63125e-01,-4.54074e-02,1.00419e-01,-5.12289e-01,-1.97869e+00,9.43660e-02,5.13736e-01,3.03979e-01,-1.97061e-01,-2.48117e-01,-2.59266e-01,-1.80337e-01,4.64628e-01,1.74691e-01,-2.55822e-01,-3.01051e-01,-2.40922e-02,1.93183e-01,7.24412e-01,2.81817e-01,
-2.37604e-01,-7.39887e-01,2.16666e-01,2.72402e-01,-5.15252e-01,-1.01076e-01,1.91361e-01,3.50444e-01,2.43191e-01,5.25780e-02,-1.77164e-01,1.08608e+00,-3.16924e-01,2.62418e-02,1.51902e-01,1.77565e-01,-1.40153e-01,4.75294e-01,9.28705e-02,6.34730e-01,1.77094e-01,1.94232e-01,3.36136e-01,-5.66215e-01,2.07624e-01,
1.44232e-01,-2.33252e-01,-1.73017e-01,-1.85806e-01,-3.17497e-01,-1.26405e-01,-2.34395e-01,-4.79045e-02,-1.50396e-01,-1.39163e-02,2.66220e-01,-2.97008e-01,-2.13609e-01,-3.11123e-01,-2.27967e-01,-1.43333e-01,-2.66108e-01,1.77532e-01,-3.39666e-01,-2.98645e-01,-1.07627e-01,-3.26779e-01,-2.31085e-01,-3.35156e-01,-1.01373e-01,
3.35450e-01,2.18457e-01,-1.60879e-01,-3.27571e-01,-8.09096e-01,-9.32071e-02,-1.32444e-01,7.07125e-02,4.32859e-02,4.32670e-01,1.40413e+00,2.03752e-01,-1.47919e-01,-2.47864e-02,-3.63266e-01,-2.47227e-01,3.66855e-02,-4.62311e-01,-1.51184e+00,-2.17968e-01,3.07149e-02,-1.13924e-01,4.67721e-01,3.88285e-01,-3.26123e-01,
1.72964e-01,7.74265e-03,1.16331e-01,1.70712e-01,-4.98892e-01,-4.44657e-02,-3.18414e-01,2.02088e-01,1.83098e-01,-2.83253e-02,4.42388e-01,9.66008e-02,-3.46953e-02,1.27964e-01,3.03322e-01,-3.57229e-01,-1.31562e-02,-6.71681e-01,-9.49714e-01,7.26810e-02,2.53092e-01,-2.83010e-01,2.54505e-01,-7.38229e-01,1.60224e-01,
-4.38459e-02,6.57880e-01,-3.33654e-01,-2.37178e-01,-2.73158e-01,9.14623e-02,1.78943e-01,-4.35710e-01,-3.61671e-01,6.03406e-02,1.72168e-01,2.75912e-01,2.89606e-01,7.96227e-02,-1.36293e-01,2.75472e-01,3.37883e-01,-1.42486e-02,-8.35596e-02,3.43468e-01,3.28080e-01,3.50149e-01,-1.34354e-01,3.78179e-01,-3.33286e-01,
-2.47660e-01,2.02827e-01,-1.68140e-01,-2.89939e-01,3.01090e-01,-1.09122e-01,-9.01218e-02,3.12117e-01,-3.18628e-01,-1.86990e-01,-1.63298e-01,9.49464e-02,-3.10397e-01,1.34885e-02,1.64974e-01,4.46873e-02,-2.54921e-01,-1.95068e-01,6.81717e-02,-3.21326e-01,-1.90942e-01,1.22301e-01,-7.55180e-02,-1.08052e-01,5.98059e-02,
1.48875e-01,-2.72766e-01,-3.57994e-01,-8.89894e-01,5.99092e-01,2.68518e-01,7.67805e-02,-2.00294e-01,-3.52502e-01,2.79025e-01,1.87983e-01,4.93389e-02,8.37743e-02,2.63701e-01,-8.60374e-02,9.19059e-02,-2.13168e-01,2.91823e-01,3.24499e-01,2.14540e-01,-2.92871e-01,-3.46994e-01,3.33654e-01,9.17705e-02,3.04499e-01,
-3.34155e-01,4.40530e-01,-3.04077e-01,3.72081e-01,6.78458e-01,-2.50659e-01,2.67620e-01,-3.01513e-01,-2.27415e-01,-3.78398e-01,-9.03873e-01,-2.38984e-01,2.70354e-01,4.96193e-03,-5.70781e-01,3.66979e-01,-1.43490e-01,2.45786e-01,3.89863e-01,1.13234e-01,-2.23072e-01,1.98660e-01,3.83802e-02,9.89312e-01,-1.40887e-01,
2.46858e-01,-1.76587e-01,-2.49687e-01,-2.91201e-01,-3.18316e-01,-2.57446e-01,1.98767e-01,-2.44336e-01,-5.23956e-02,4.17914e-02,8.04267e-02,-3.80766e-02,-2.73477e-01,-3.41875e-01,-2.96552e-01,6.57174e-02,-1.98194e-01,-3.37894e-01,-7.89839e-03,-2.83527e-01,-3.07047e-03,1.42961e-01,-3.89826e-03,2.08879e-01,-1.12707e-02,
2.14446e-01,
-1.33954e-01,
2.85108e-01,
-2.52182e-01,
-2.20731e-03,
-9.09715e-02,
1.12926e-02,
2.44905e-02,
9.22425e-02,
7.20860e-02,
-1.20056e-01,
-1.63205e-01,
-4.04203e-02,
4.64285e-02,
-2.19816e-01,
-1.84157e-01,
-1.91827e-01,
-1.82045e-01,
1.22574e-01,
1.44020e-01,
-8.88569e-02,
-1.91550e-01,
1.93727e-01,
2.73215e-01,
-1.33873e-01,
2.65614e-01,-4.69792e-02,1.03707e-01,1.25254e-01,-1.36600e-02,-2.59665e-01,-1.69055e-01,-6.07728e-01,5.26837e-02,5.69305e-01,-3.80923e-02,3.97407e-01,2.85810e-01,-8.23522e-01,-5.78652e-02,5.32188e-01,-1.75258e-01,-2.79457e-01,1.94536e-01,4.61523e-01,-4.82128e-01,-2.99855e-01,7.71970e-02,7.16683e-02,-8.78016e-02,
-2.35673e-01,2.17079e-01,-2.80152e-01,1.60980e-01,2.32833e-01,2.75897e-02,7.68302e-02,1.54736e-01,-2.14834e-01,-1.24591e-01,-2.83009e-01,2.61943e-01,-1.12784e-02,2.17700e-01,5.71972e-03,2.98839e-01,-2.97386e-01,-1.94846e-01,5.03961e-02,3.88002e-02,-1.83000e-01,6.28159e-02,-2.22821e-01,-1.85856e-01,-5.33032e-02,
1.36115e-01,2.06151e-01,1.11983e-01,-2.43262e-01,-2.69552e-01,5.82737e-02,-3.81122e-02,-5.24817e-01,-1.48385e-01,-3.95463e-01,-1.55417e-01,1.31114e-01,1.85140e-02,-2.51783e-01,1.71664e-02,-2.89247e-01,-9.07916e-02,-2.20390e-02,-6.30199e-02,-8.78820e-02,2.44813e-02,-2.79023e-03,-6.19437e-03,2.95439e-02,-9.89499e-02,
8.74832e-02,-2.36785e-01,2.24455e-01,-2.38547e-01,-1.88169e-01,-3.03118e-01,-3.26891e-01,1.73700e-01,-2.25477e-01,2.81556e-01,1.28768e-02,-2.24858e-01,-1.39210e-01,7.97495e-02,1.47153e-01,-1.07466e-02,1.57100e-01,-6.75959e-02,-8.28893e-02,8.49279e-02,2.20134e-01,-3.41723e-01,5.63434e-02,2.33024e-01,-2.70075e-01,
7.69985e-02,-3.36353e-01,2.62787e-01,-3.00670e-01,2.55234e-01,-2.63865e-01,-1.17193e-01,-3.80490e-01,1.46700e-01,-1.78936e-01,-1.19641e-01,-7.33184e-02,-6.18393e-02,3.64387e-01,2.47499e-01,-2.53766e-01,4.55245e-01,5.38909e-02,-1.14176e-01,-2.81996e-02,-7.21560e-02,1.06107e-01,1.23637e-01,-1.83962e-02,2.23965e-01,
-3.02459e-01,8.47568e-02,-6.01252e-02,-7.29166e-02,-2.16151e-01,3.88412e-02,-2.42909e-01,2.97290e-02,7.30191e-02,-9.69002e-02,8.45442e-03,1.96260e-02,2.65876e-01,-6.75009e-02,-3.05953e-01,-5.14646e-02,2.36197e-01,8.27418e-02,2.42138e-01,1.74530e-01,-6.86339e-02,7.03900e-02,3.60736e-02,2.11307e-02,-7.69103e-02,
1.58711e-01,-3.35401e-01,9.18910e-03,-2.52358e-03,-9.51883e-02,1.05356e-01,-2.65390e-02,-3.19825e-01,5.06651e-01,2.38082e-01,-1.33947e+00,-5.17841e-01,-8.79820e-01,-1.39475e+00,2.17270e-01,-1.78700e-01,-6.69083e-01,6.86447e-02,1.75661e-01,1.15228e-01,-3.93808e-01,6.79587e-02,4.71448e-01,-2.00781e-01,1.11731e-01,
-2.13388e-01,1.35367e-01,1.65998e-01,1.75406e-01,-2.01676e-01,-2.53003e-02,1.15178e-01,5.64646e-01,4.02936e-01,2.38965e-01,-6.48433e-02,2.94216e-01,-3.17870e-01,-1.85940e-01,-5.66057e-02,-1.23097e-01,-1.36800e-01,-2.50004e-01,-1.34380e-01,1.16194e-01,-2.59277e-01,2.25467e-01,-3.36088e-01,-9.11530e-02,2.46835e-02,
-3.30740e-01,1.34341e-01,-3.33032e-01,1.12090e-02,2.86030e-02,3.14468e-01,2.93409e-01,-2.43021e-01,1.40652e-01,-1.33358e-01,-2.92492e-01,2.58817e-01,-4.82123e-02,1.40325e-02,-7.06679e-02,2.11044e-01,-1.44695e-02,-1.64258e-02,-1.35803e-01,1.44671e-01,-2.31685e-01,2.91272e-01,-2.28383e-01,-2.15866e-01,-2.16027e-02,
-2.16079e-01,-2.01167e-02,-4.61847e-02,5.76621e-01,3.01180e-01,-1.44522e-01,-1.26272e-01,-2.26788e-01,-3.17006e-02,7.42345e-01,-1.08912e-01,8.87399e-02,2.72551e-01,-2.54023e-02,5.38224e-03,3.82863e-01,-1.45365e-01,-2.88936e-01,-3.96322e-02,2.36235e-01,3.03821e-01,-2.64856e-01,5.59460e-02,-2.70299e-01,1.49722e-02,
-8.89931e-02,-3.21238e-01,5.36913e-02,1.97672e-01,-1.87858e-01,-1.59783e-01,-1.38356e-01,-2.95650e-01,1.58879e-01,-3.44481e-01,2.33857e-01,6.89690e-02,9.86753e-02,8.57657e-02,2.20292e-01,1.38894e-01,1.22181e-01,-3.31885e-01,-9.86143e-02,-1.08274e-01,-2.98536e-02,-4.93136e-02,-3.75624e-01,1.23110e-01,2.30593e-01,
-3.54308e-01,-1.21209e-01,-2.02838e-01,2.53260e-02,-2.48314e-01,9.00720e-02,-2.71687e-01,2.49332e-02,-4.28856e-01,-2.70257e-01,3.05034e-02,1.98766e-01,8.75937e-03,6.17619e-02,-5.97951e-02,6.40651e-01,-2.42747e-02,3.97491e-02,3.78544e-01,-1.23861e-01,-3.36800e-01,-1.99460e-01,-2.24022e-01,-1.16505e-01,-2.81431e-01,
1.47032e-01,1.03634e-01,-1.64737e-01,7.79480e-02,-3.35665e-01,1.87123e-01,2.77764e-01,3.57876e-01,1.51486e-01,-1.49108e-01,-2.60048e-01,4.59848e-03,-3.34375e-01,2.98923e-01,-1.86597e-01,4.23282e-02,-1.20508e-01,1.21736e-01,1.00640e-01,1.96424e-01,-7.48209e-02,-6.65069e-03,-1.90134e-01,1.39519e-01,1.04757e-01,
1.60424e-01,-2.65768e-02,-2.05212e-01,-6.80381e-01,-9.67113e-02,1.73229e-02,-9.16193e-03,3.07889e-01,6.09200e-02,-5.41430e-01,-1.05237e-01,3.98597e-01,-1.42659e-01,-2.32344e-01,-8.98956e-02,-5.55146e-01,1.35309e-01,-2.42879e-01,2.84812e-01,-2.01213e-01,4.84674e-02,-1.21429e-01,1.50404e-01,8.24893e-02,-2.81383e-02,
-3.02178e-01,-2.62912e-01,1.08574e-01,1.26978e-01,2.11759e-01,-1.70124e-01,-2.71833e-01,1.07555e-02,-4.59854e-02,9.97339e-02,1.96612e-01,-1.47612e-01,-3.22715e-01,-2.69465e-01,-1.43290e-01,-2.60425e-01,-2.28533e-01,-1.89366e-01,2.73558e-01,-1.76537e-01,-3.23873e-01,6.56614e-02,-2.63102e-01,-2.20056e-01,9.64077e-02,
2.02442e-01,4.01869e-02,2.99502e-01,1.47128e-01,2.63502e-01,-3.07520e-01,1.77065e-01,-6.34411e-01,-1.87156e-01,-1.87951e-01,-1.15800e-01,3.71687e-01,-5.03879e-01,7.25270e-02,7.02936e-02,-7.02980e-01,4.52685e-01,-2.62112e-01,-6.98901e-01,-1.79665e-01,-2.56185e-01,-2.49668e-01,2.81756e-01,2.18294e-02,2.63336e-01,
2.37531e-01,1.02268e-01,-2.05590e-01,1.93771e-01,-3.06225e-01,2.59516e-01,-2.90487e-01,-6.29551e-02,7.48440e-02,5.48752e-01,2.68357e-01,1.98488e-01,-1.78711e-01,-2.47278e-01,1.83298e-01,5.95814e-01,-3.63305e-01,3.25313e-01,1.18399e-01,9.27330e-02,1.56991e-01,6.63314e-02,1.44556e-01,-1.04985e-01,1.62766e-01,
1.91164e-01,3.07701e-01,1.23932e-01,-2.09365e-01,2.61092e-01,1.26323e-01,1.93216e-01,1.12204e-01,-1.02610e-02,-2.42586e-01,-2.18944e-01,2.06928e-02,-1.35613e-01,3.84996e-02,2.94154e-01,9.37517e-02,-2.03627e-01,1.59924e-01,1.89492e-01,-1.55905e-01,-1.36452e-01,-3.26278e-01,8.36653e-02,-1.37591e-01,-1.11696e-01,
-2.63181e-02,2.71565e-02,-3.77887e-01,-5.33217e-01,1.27604e-01,7.41274e-02,-1.96893e-01,1.00845e+00,-3.08813e-01,-2.78300e-01,-6.22895e-02,1.80498e-01,4.87789e-01,3.18583e-02,3.09462e-01,2.25800e-01,-2.76983e-01,1.75069e-01,6.99461e-01,-1.55661e-01,-1.30417e-01,5.92870e-03,-2.24388e-01,1.71421e-01,5.26623e-02,
-1.69669e-01,-1.31969e-02,2.45810e-01,-9.61477e-02,-1.94546e-01,3.43021e-01,-2.14009e-01,9.55340e-02,3.31776e-01,-8.37176e-02,7.64582e-03,-1.19169e-01,1.33367e-01,-1.74152e-01,-1.77783e-01,9.60669e-02,-1.67009e-01,-2.21889e-01,3.18722e-02,3.46406e-01,2.32792e-01,2.24974e-01,-2.03164e-01,-1.26008e-01,1.42414e-01,
2.53651e-01,-2.82219e-02,-1.51251e-01,-1.16561e-02,6.22575e-02,-5.60753e-01,4.58143e-02,-3.72879e-01,-1.57963e-01,7.73197e-02,2.75092e-01,-8.32738e-04,3.02808e-01,5.08643e-01,-3.24690e-01,6.45563e-01,-7.03046e-02,-2.17332e-01,3.24281e-01,8.00320e-02,-5.89565e-01,1.19648e-01,-2.30470e-02,-2.37544e-01,1.34280e-02,
-1.49606e-01,-4.60727e-01,-2.86546e-01,7.31725e-01,-3.35162e-01,5.94679e-01,9.34128e-02,7.56207e-01,-3.76816e-01,2.50495e-01,9.72644e-02,-1.12829e-03,2.18955e-01,-3.99700e-01,5.15184e-02,4.92997e-02,7.65062e-03,2.20854e-01,-4.27853e-01,-2.23439e-01,-1.41567e-01,3.35464e-02,2.63824e-01,2.24713e-01,-1.32662e-01,
1.96908e-01,2.64871e-01,7.27655e-02,1.95773e-04,-4.00802e-02,-2.86341e-01,-4.15697e-02,-3.04282e-01,-3.34921e-01,-1.57738e-01,-1.92459e-01,2.65749e-01,2.28098e-01,3.39997e-01,-9.15180e-02,-8.79944e-02,-2.83855e-01,-2.63424e-01,1.40174e-01,-8.67675e-03,-2.79238e-01,-2.07152e-01,-2.65428e-01,-1.25798e-01,3.31006e-01,
-1.07294e-01,-3.65420e-01,2.01223e-02,8.11539e-01,2.99915e-01,1.83299e-01,1.17190e-01,-1.41850e-01,-1.82780e-01,1.14419e-01,1.33067e-01,-6.00502e-01,6.45401e-02,8.94982e-02,2.89890e-01,-4.63403e-01,5.61752e-01,3.17760e-01,-5.33426e-01,-7.17202e-01,-8.69152e-02,3.19103e-01,4.58390e-01,3.19259e-01,-3.01895e-03,
-3.55541e-01,2.18576e-01,1.50995e-01,1.94538e-01,-2.14206e-01,-4.06973e-01,2.49680e-01,7.02219e-01,-2.65272e-01,-3.55906e-02,-2.86868e-01,3.02636e-01,-5.42639e-01,-2.50864e-01,1.14526e-01,-2.30886e-01,3.35268e-02,-3.13182e-01,2.53042e-01,-2.02855e-01,5.17584e-01,-2.87138e-01,-4.02177e-01,-2.88316e-01,-5.40666e-02,
-4.88942e-02,
-2.76732e-01,
2.12694e-01,
-2.25283e-01,
2.69122e-01,
-3.50946e-01,
-3.74613e-02,
1.82098e-01,
-3.43517e-01,
1.82828e-01,
-3.24839e-01,
8.78348e-02,
-2.24537e-01,
2.51128e-01,
-1.35183e-01,
-9.74489e-03,
-5.26096e-02,
-2.68175e-01,
2.28850e-01,
-3.43431e-01,
6.50142e-03,
-9.50585e-02,
-8.60815e-02,
-1.28605e-01,
2.66925e-01,
1.79813e-01,-3.10485e-02,1.42420e-01,-2.46058e-01,2.76731e-01,1.60162e-01,2.15350e-01,-2.42082e-01,2.42297e-01,-2.76152e-01,-3.04828e-01,-2.64276e-01,-2.70734e-01,3.82046e-01,1.83408e-01,-4.06877e-03,-5.33875e-01,-2.78607e-01,2.93752e-01,-2.20342e-01,2.19275e-02,2.91193e-02,2.44154e-01,-9.75856e-01,-2.43474e-01,
8.51824e-02,7.49723e-02,-8.21479e-02,-8.85761e-03,-2.78492e-01,-3.00568e-01,2.65666e-01,1.70197e-01,-2.08294e-03,-6.31286e-02,-2.47425e-01,1.06441e-01,1.76741e-01,1.64381e-01,-4.55596e-02,-8.86298e-02,1.13440e-01,2.67686e-01,-3.35251e-01,-2.81377e-01,1.67138e-02,1.41235e-01,-1.81728e-01,1.59368e-01,1.98210e-01,
1.51991e-01,-1.53589e-01,-5.43830e-02,-3.04975e-02,9.31745e-02,-4.41673e-02,4.20952e-02,-3.15287e-01,2.58499e-03,-2.44468e-01,-1.40651e-01,3.07464e-01,2.02122e-01,-2.16690e-01,1.86502e-01,-2.38574e-01,-2.53245e-01,1.07757e-01,5.13725e-02,-3.35764e-01,-1.04191e-01,1.25695e-01,-1.56705e-01,7.72804e-02,1.80040e-01,
-7.10464e-01,1.08885e-01,-2.62339e-01,2.84689e-01,2.55993e-01,-8.13289e-02,1.79798e-01,-3.95856e-01,-3.44605e-01,5.17008e-02,5.96716e-02,-2.36928e-01,2.84054e-01,-3.36368e-01,2.05508e-01,-4.19755e-01,4.24986e-02,-1.49653e-01,-2.91386e-03,1.14145e-01,-9.70041e-01,-2.19756e-01,1.05648e-01,1.61672e-01,2.80225e-01,
7.33011e-02,1.00044e-01,-1.15532e-01,-2.36578e-01,-9.02439e-02,2.60182e-01,-2.40837e-01,6.55212e-02,2.97504e-01,8.62749e-02,3.10790e-01,2.11654e-02,-1.84367e-02,2.65886e-01,3.25709e-01,-2.50568e-01,5.19759e-03,1.18653e-01,-8.52219e-02,3.31526e-01,1.13968e-01,-3.74767e-01,-2.25537e-01,2.74058e-01,2.65169e-01,
-4.53685e-02,-2.23756e-01,-2.72659e-01,-2.09214e-01,-3.15167e-01,1.58990e-01,-1.76196e-02,-1.15284e-01,2.95056e-01,5.25806e-02,3.20218e-02,-2.23711e-01,1.14776e-01,9.63629e-02,-3.75903e-03,-1.46781e-01,2.65848e-01,-3.15949e-01,-3.94198e-01,-1.45814e-01,6.48836e-02,2.07329e-01,1.90860e-01,-9.03497e-02,-2.67059e-02,
5.97916e-02,2.45227e-01,-1.85990e-01,9.26666e-02,-8.18943e-02,-1.16031e-01,-3.15319e-02,3.50945e-01,1.92358e-01,2.61436e-01,4.41028e-02,-8.47605e-02,-2.77478e-01,2.93107e-01,-1.64204e-01,-3.38313e-01,3.34699e-01,-1.11419e-01,3.42685e-01,1.84430e-01,-1.03914e-01,-4.72850e-01,-2.97690e-02,4.26701e-01,4.59515e-02,
-1.71244e-01,-3.41076e-01,-3.90618e-01,-7.68680e-02,-3.61882e-02,6.10626e-02,3.45765e-02,2.53910e-01,-6.66263e-02,2.22735e-01,2.19014e-01,7.63064e-02,-3.28104e-01,1.99904e-01,-1.82930e-01,1.84551e-02,2.90028e-01,2.66659e-02,1.80685e-01,-1.52935e-01,-2.00006e-01,-3.03761e-01,2.83880e-01,1.81775e-01,1.21264e-01,
2.80484e-01,-2.25840e-01,-6.29086e-02,2.61116e-01,-2.77082e-01,2.53922e-02,3.09828e-01,-4.04003e-01,-2.69653e-01,1.78455e-01,1.50463e-01,-3.41027e-02,-9.30173e-02,-5.86224e-02,-2.50793e-01,-2.68981e-01,2.08523e-01,-7.76560e-02,7.09084e-02,1.15264e-01,-2.30878e-01,4.64345e-04,-1.38176e-01,8.22934e-02,-2.03171e-01,
-2.07516e-01,1.53074e-02,2.42530e-01,2.22065e-02,-3.09104e-01,3.07864e-01,3.25465e-01,-4.65803e-02,-1.34166e-02,-2.43816e-03,-1.04072e-01,-2.55892e-01,3.89704e-02,-2.97358e-01,5.98558e-02,-1.41627e-01,-2.73430e-01,-8.50243e-02,-1.34396e-01,2.63493e-01,-3.70064e-02,-8.66950e-02,-1.41993e-01,-2.33272e-01,-1.97901e-01,
3.05062e-01,-2.01164e-01,-1.00400e-01,4.27035e-02,-5.26684e-02,-2.58869e-01,-2.29409e-01,3.57550e-03,-7.69699e-02,-3.44862e-01,-2.54186e-01,1.60473e-01,1.71822e-01,-3.19606e-01,-2.62553e-01,-4.70550e-02,2.99431e-01,-1.27570e-01,-4.30091e-02,1.53260e-01,2.81873e-01,3.43586e-02,-3.03288e-02,-1.91692e-01,-2.51854e-01,
1.12977e-01,9.72875e-02,-1.35272e-01,7.49987e-02,-2.55179e-01,3.65260e-03,-4.17528e-01,1.33165e-02,-3.09851e-01,-3.56128e-02,-1.59109e-02,2.17535e-01,-7.71055e-03,3.14121e-01,1.40781e-01,-2.72885e-01,-1.94000e-01,3.70605e-02,-9.96921e-02,8.62373e-02,1.96416e-01,-4.35675e-01,-1.42328e-01,1.54817e-01,1.64281e-01,
4.78103e-02,-1.87626e-01,-2.95401e-01,2.26884e-01,5.92087e-02,-1.24425e-01,-3.58030e-01,-1.52044e-01,1.56187e-01,-3.29830e-02,3.43273e-02,2.23834e-01,3.85321e-01,-5.49455e-02,1.05663e-01,1.20887e-01,-2.75517e-01,1.93029e-01,9.26041e-02,1.22153e-01,6.07636e-02,-5.33105e-01,1.19388e-01,9.09481e-02,3.29558e-01,
1.50839e-01,-1.48075e-01,-2.32324e-01,-2.70901e-01,-2.97762e-01,-1.51471e-01,-6.11232e-02,-2.67705e-01,2.84539e-01,4.90087e-02,1.70583e-01,-7.82585e-02,2.78037e-01,-1.12640e-01,6.73415e-02,1.61741e-02,-2.07351e-03,-3.23786e-01,-3.00380e-01,5.20237e-02,1.09936e-01,2.06152e-01,2.98006e-01,2.83624e-01,-1.74604e-02,
-3.15806e-01,-2.91123e-01,-2.18791e-01,-5.21079e-02,8.28305e-02,-2.20037e-01,-3.13980e-01,-3.28085e-01,3.30303e-01,-2.39929e-01,2.20803e-01,-3.48566e-02,3.07969e-01,-2.43895e-01,-2.46645e-01,1.63800e-02,8.87209e-02,2.09529e-01,-3.24527e-01,-3.09694e-01,-3.38869e-01,-2.36522e-01,-3.34188e-01,2.13608e-01,-2.26820e-03,
5.73715e-01,8.88014e-03,3.83505e-02,3.39542e-02,-2.04345e-01,1.89942e-01,-1.02088e-01,1.77649e-01,-2.39337e-01,-4.74995e-01,-1.89975e-01,2.43842e-01,1.90619e-01,-1.19327e-02,-9.75907e-02,4.44764e-02,-7.36286e-01,6.78905e-05,2.83733e-01,-1.97076e-01,-3.85896e-01,-2.59828e-01,1.90046e-01,-6.12004e-01,-1.27947e-02,
5.97278e-02,1.68503e-01,2.74444e-03,1.59556e-01,-2.67211e-01,-1.22523e-01,9.68894e-02,1.03500e-01,1.94749e-01,7.19997e-02,-2.78863e-01,-5.45948e-02,-1.06336e-02,-3.72418e-01,1.11449e-01,-2.93069e-01,2.47014e-01,6.77326e-02,1.46453e-01,-2.72796e-01,-3.34661e-01,-1.83772e-01,1.71010e-01,5.92151e-02,-2.18900e-03,
-7.45851e-02,-1.86777e-01,2.57008e-01,1.41607e-01,-1.11526e-01,6.86699e-03,-2.99943e-01,2.60544e-01,2.78243e-01,-1.07508e-01,-2.80253e-02,2.40702e-01,2.01630e-01,-3.25142e-01,-1.32924e-01,-7.09583e-02,-2.82174e-03,-3.05369e-01,-3.89906e-01,-9.24425e-02,2.63804e-01,2.54973e-01,-8.86077e-02,-2.91363e-01,7.78890e-02,
-1.89240e-01,-1.68678e-01,-2.55778e-01,-1.62238e-01,-2.90386e-02,-1.88254e-01,-2.84215e-01,1.72714e-01,-3.06175e-01,2.06894e-01,-1.11705e-01,-4.12690e-01,-1.76207e-01,1.76404e-01,-3.28948e-01,2.44810e-02,-1.87906e-01,1.83139e-01,6.97365e-02,-2.32499e-01,-1.11216e-01,-4.83153e-02,5.82332e-02,1.76624e-01,1.17350e-01,
1.80441e-01,2.87489e-01,3.75796e-01,1.89839e-01,-2.92114e-01,-1.98250e-01,1.18598e-01,5.84908e-02,-2.38164e-01,-2.02332e-01,-2.30645e-01,-1.87484e-01,2.47340e-01,3.00422e-01,-6.67583e-02,-3.38778e-01,1.97734e-02,4.60249e-04,-3.34438e-02,-4.93851e-02,1.65678e-01,-1.24840e-02,2.58680e-01,2.46954e-01,-1.79162e-01,
-2.36846e-01,-1.24719e-01,3.36297e-01,-2.95915e-01,-2.65455e-01,2.61716e-01,9.16675e-03,-3.45748e-01,2.46929e-01,1.52306e-01,-2.91341e-01,3.23254e-01,-1.18721e-01,6.79163e-02,2.07222e-01,1.11362e-01,2.85921e-01,-4.53399e-02,1.95714e-01,2.55329e-01,-3.01011e-01,-3.26884e-01,-1.46628e-01,-1.34716e-01,7.67947e-02,
-1.48478e-01,1.98670e-01,-1.68392e-01,-1.79291e-01,1.30897e-01,2.30296e-01,4.01632e-02,2.42193e-01,-2.03091e-01,-2.48056e-03,6.72283e-02,7.65011e-02,-1.53255e-01,-6.28402e-02,6.04951e-02,2.44549e-01,-6.99873e-03,-8.18562e-02,2.02923e-01,3.34253e-01,-9.95612e-02,-2.10388e-02,-3.13171e-01,-8.10934e-02,-5.58846e-02,
9.66553e-02,-2.61126e-01,-3.21082e-01,3.04295e-01,-6.67479e-02,-2.20549e-01,-4.80165e-01,-2.03936e-01,2.31561e-01,-2.72120e-01,1.65868e-01,2.77304e-01,5.09649e-02,-1.28069e-01,1.61355e-01,2.06563e-01,-2.58245e-01,4.60047e-02,2.52624e-01,1.07548e-01,7.12247e-02,-3.21552e-01,-3.16648e-01,-1.33812e-01,6.59818e-02,
3.88014e-01,2.47657e-03,-1.93969e-03,-2.00347e-01,9.94192e-02,2.50635e-01,5.40256e-01,3.14722e-02,2.87656e-01,1.70395e-01,-2.60174e-01,-2.48497e-01,2.91820e-01,2.00877e-01,2.37429e-01,6.21093e-02,-1.90779e-01,-1.99704e-01,-9.12328e-01,1.01312e-01,3.56635e-01,-3.85308e-01,-3.12672e-01,6.09621e-01,-6.54838e-01,
9.55507e-02,-2.80423e-01,2.08190e-02,-5.02784e-02,1.18713e-01,-1.72169e-01,1.74348e-01,6.33933e-02,-2.53454e-01,-2.34968e-01,2.39090e-01,1.12291e-01,2.11262e-01,-1.90757e-01,-3.07131e-01,-7.40128e-02,1.65055e-01,-8.64673e-02,1.35332e-01,-1.46198e-02,1.12732e-01,-2.84909e-01,-2.75970e-01,1.39752e-01,5.07396e-03,
-1.70751e-01,
-1.48116e-01,
-2.25506e-02,
1.41246e-01,
2.26169e-01,
2.42990e-01,
-9.90475e-02,
-7.80973e-04,
2.27767e-01,
-2.96024e-02,
-2.09350e-01,
1.46503e-01,
2.65414e-02,
-1.36886e-01,
-2.06330e-01,
1.43619e-02,
-1.42861e-01,
-7.46709e-02,
3.72985e-02,
5.74200e-02,
-3.00144e-01,
2.72346e-01,
1.57558e-01,
-1.62533e-01,
-3.30187e-01,
-5.32715e-01,-2.33701e-01,-2.56988e-01,2.85225e-01,3.64486e-02,2.71870e-01,-1.30549e-01,1.81041e-01,8.39857e-02,-2.42851e-01,2.80858e-01,-2.27897e-01,2.24874e-01,6.04130e-02,2.64697e-01,2.47252e-02,-1.18723e-01,1.17311e-01,2.12194e-01,-2.55652e-02,-4.85677e-02,1.55588e-01,2.14719e-01,1.44145e-01,-3.30563e-01,
-4.08483e-02,-2.91479e-01,-2.53881e-01,-3.35809e-01,-2.97120e-01,9.88763e-02,-2.29680e-01,-6.11269e-02,-2.68955e-01,-1.98940e-01,2.34801e-01,-2.92747e-01,-2.25236e-01,-5.71163e-02,-8.69094e-02,-4.52600e-02,-1.03635e-01,8.92738e-02,-2.70920e-01,-1.43779e-01,4.03128e-02,1.33361e-01,3.39485e-01,2.98700e-01,-3.04648e-01,
2.13573e-01,-1.78439e-01,9.96136e-03,6.80538e-02,2.41096e-01,-1.31590e-01,1.48848e-01,-2.29792e-01,9.04957e-02,-2.26719e-01,-2.19054e-01,-2.59383e-01,-2.95480e-01,4.06097e-02,1.68302e-01,-9.06655e-02,-2.76619e-01,7.69440e-02,-3.22652e-01,-9.22686e-02,-5.78716e-02,-6.62757e-02,2.16939e-01,-1.24533e-01,2.82588e-01,
-3.03507e-01,1.35513e-01,7.44648e-02,3.89596e-02,-1.36137e-02,1.50130e-01,9.52852e-02,-2.03758e-01,6.98906e-02,-2.76363e-01,4.86722e-02,-2.39688e-01,8.54729e-02,-7.94676e-02,-1.60676e-01,-4.57222e-01,3.17340e-01,1.67080e-01,-5.49832e-02,1.24747e-01,-3.25417e-01,3.11737e-01,-9.60979e-02,1.78328e-01,-9.07552e-02,
-2.09097e-01,3.34587e-01,-1.16690e-01,2.08594e-01,1.72323e-01,-1.54089e-01,1.77913e-01,-2.35327e-01,5.59260e-02,6.50439e-02,-3.13237e-01,-7.93000e-02,-7.00221e-02,1.37202e-01,2.58171e-01,2.74968e-01,-2.16766e-01,-3.15232e-01,-2.53734e-01,8.40878e-03,-6.70675e-02,-2.51423e-01,-1.81395e-02,7.92332e-02,-1.81468e-01,
2.97177e-01,1.55979e-01,2.80317e-01,-1.32508e-01,-3.08870e-02,-4.08469e-02,2.13316e-03,-2.31160e-01,-1.77016e-01,-6.72285e-02,1.94437e-01,-3.29009e-01,2.47335e-01,1.09395e-01,-1.34231e-01,-1.13530e-01,-1.12711e-01,2.20699e-02,-1.48289e-01,-7.49507e-02,8.17171e-02,-2.85404e-01,6.38798e-03,1.20776e-02,2.97934e-01,
-2.75877e-01,6.31487e-02,-2.51178e-01,8.46237e-04,-2.68408e-01,-2.41675e-02,-2.28107e-01,2.08948e-01,-2.64862e-01,7.78688e-02,-2.58966e-01,-7.36887e-02,1.86317e-01,-1.01682e-01,3.28211e-01,-1.91092e-01,4.22791e-03,-7.85452e-02,1.22660e-01,2.00240e-01,1.62628e-01,9.42007e-02,-7.48863e-02,7.69345e-02,-4.61148e-02,
-1.61840e-01,3.40659e-01,-1.22941e-01,-2.85858e-01,6.57386e-02,-1.92069e-01,-2.51754e-01,1.70458e-01,-1.72686e-01,-1.07191e-01,-1.42515e-01,-1.07554e-01,-2.73368e-01,-2.15269e-01,-1.75692e-01,-3.36888e-01,8.88720e-02,2.52875e-01,-1.89074e-01,8.27652e-02,2.80639e-01,1.91230e-01,-5.56183e-02,6.86923e-03,-1.17540e-01,
2.77735e-01,-2.09669e-02,3.34387e-01,-1.21818e-01,-3.19817e-01,-2.70484e-02,-1.81413e-01,-2.64037e-01,-3.01913e-01,2.92795e-01,-1.21678e-02,-2.71591e-02,2.42597e-01,3.00498e-01,-9.39681e-02,-4.68874e-02,-1.46955e-02,2.35269e-01,-2.88407e-01,-2.84118e-01,2.89344e-01,-3.31750e-01,8.30629e-02,-2.61996e-01,-8.06215e-02,
-2.19055e-01,-1.78483e-01,2.05415e-02,3.42097e-01,-1.81377e-01,-1.81473e-01,3.13304e-01,2.35155e-01,6.24271e-01,3.09322e-01,-3.53636e-02,-6.50279e-01,3.26744e-01,2.17931e-01,-8.18687e-02,-7.88191e-01,-2.21888e-01,2.21216e-01,-2.94676e-01,1.29128e-03,-9.28161e-02,-7.90184e-02,-4.80821e-01,1.07682e+00,-9.68720e-02,
2.27733e-02,-1.85892e-02,-1.10062e-02,2.90344e-01,-2.11946e-01,-3.30104e-01,2.29956e-01,-5.11874e-02,1.26180e-01,-2.06823e-01,-1.67838e-01,1.35621e-02,-2.06762e-01,2.03096e-01,-1.75385e-01,-3.41246e-01,8.55687e-03,-4.12090e-02,-7.84234e-02,-9.25046e-02,-1.09575e-01,2.14054e-01,1.29127e-01,-1.17370e-01,-2.44755e-01,
-2.07715e-01,1.81905e-01,-6.26829e-02,-1.40497e-01,-4.90783e-03,8.78269e-02,6.27796e-02,-1.18618e-01,1.54270e-01,-1.10372e-01,-2.63075e-02,3.21547e-01,2.33981e-01,-3.36730e-01,-1.74005e-01,1.36500e-01,1.09670e-01,-1.65740e-01,-2.66467e-01,1.95998e-01,1.36840e-02,2.85930e-01,-2.54241e-01,6.46306e-02,-4.66428e-02,
-1.33452e-01,-2.45243e-01,-2.46182e-01,-1.00909e-01,1.58504e-01,8.21903e-03,-1.54428e-01,-2.76091e-02,2.97587e-01,1.77255e-01,2.48719e-01,-1.49931e-01,-8.77761e-02,-2.39717e-01,2.98600e-01,-1.20442e-01,8.14632e-02,1.35409e-02,1.15288e-01,-3.20044e-01,-1.02972e-01,2.75225e-01,8.12264e-03,-5.04972e-02,-2.57677e-01,
3.16513e-01,-1.77845e-01,-1.07231e-01,-7.43703e-02,1.17308e-01,-1.24015e-01,1.08466e-01,-1.12311e-02,6.42257e-02,1.16941e-01,3.21436e-01,-9.23486e-03,9.05141e-02,-1.78321e-01,-1.49049e-01,-7.91260e-02,-4.25999e-03,-2.66656e-02,1.56517e-01,-3.75802e-01,-2.27702e-01,-1.05945e-01,2.43697e-01,-2.43419e-01,-1.48322e-01,
2.94464e-01,-9.61218e-02,-3.35266e-01,2.38244e-03,9.24818e-03,5.83964e-02,9.23969e-02,-1.12930e-01,-2.33461e-01,3.09435e-01,2.97261e-01,-4.44905e-02,2.01969e-01,9.46637e-03,2.86701e-01,3.68253e-01,5.92926e-02,-1.05500e-01,-1.71932e-01,1.35073e-01,1.06269e-01,1.41139e-01,8.67910e-02,-1.74496e-01,3.35412e-01,
1.94215e-01,-2.53907e-01,-1.32901e-01,2.30913e-02,2.18825e-01,-4.74551e-02,-1.35918e-01,-1.72778e-01,9.28859e-02,6.38245e-02,9.17231e-02,3.14754e-01,-3.06869e-02,-2.80093e-01,-1.34867e-01,-1.42396e-01,-1.52131e-01,9.16507e-02,-6.01535e-02,1.93032e-01,1.41695e-02,3.27334e-01,1.16988e-01,-2.55637e-01,1.18409e-01,
-5.35409e-02,2.69154e-01,6.17171e-02,-2.38868e-01,-2.95000e-01,-1.45466e-01,2.90197e-01,-1.85911e-01,-1.17083e-02,1.28132e-01,4.84686e-02,-1.75059e-01,3.08135e-01,-1.83921e-01,6.11766e-02,-2.40456e-01,2.64934e-01,2.38348e-01,-2.49939e-01,-1.48504e-02,-3.08421e-01,-1.27440e-01,6.81435e-02,-3.23155e-01,-3.41857e-01,
4.83022e-02,1.60845e-01,2.47341e-01,-3.10600e-01,-1.13961e-01,1.76845e-02,-2.95967e-02,3.09670e-01,-1.69371e-01,-2.13320e-01,1.57444e-01,2.97680e-02,1.14187e-01,3.03256e-01,-2.62864e-01,7.93811e-02,-3.37606e-01,2.33153e-01,-1.61745e-02,-1.61211e-01,7.42940e-02,4.64601e-02,-1.30893e-01,1.18435e-01,2.38643e-01,
-1.85868e-01,8.18464e-02,1.73335e-01,-5.45594e-02,-2.39846e-01,1.77054e-01,3.18270e-01,-2.84229e-01,-3.78121e-01,1.23711e-01,-3.93406e-02,2.37477e-01,-3.10653e-01,3.06813e-02,2.82266e-01,4.15768e-01,1.02061e-01,-2.56581e-01,-3.01678e-02,4.48691e-02,-2.32445e-01,-4.63477e-02,-2.65070e-01,4.34341e-02,2.73906e-01,
-1.85672e-01,7.24675e-02,-3.16168e-01,-2.25951e-01,2.72126e-01,-3.38892e-01,2.54803e-01,1.52953e-01,9.32051e-02,3.16278e-01,-1.09995e-01,-4.87025e-02,-7.85057e-02,3.25648e-02,-3.18133e-01,9.27508e-02,1.97099e-01,-1.69046e-01,-2.36726e-01,1.63957e-01,-2.47001e-01,4.26621e-03,-2.19392e-01,3.12633e-01,-3.29726e-01,
-1.65330e-01,-9.22133e-03,6.37055e-02,-2.59040e-01,-2.74634e-01,3.40963e-02,7.14958e-02,7.86426e-02,1.10491e-01,3.41320e-01,-4.37209e-02,2.17170e-01,2.10172e-01,1.32218e-01,2.28905e-01,-7.33768e-02,-2.43276e-01,1.17949e-01,2.20728e-01,-3.62773e-01,1.98142e-01,-8.28848e-02,-1.08545e-01,-1.08714e-01,1.84811e-02,
-1.71078e-01,-4.43701e-02,-5.45483e-02,-4.10543e-02,-1.98038e-01,1.68269e-01,-1.46384e-02,-4.53014e-02,-3.49637e-01,-2.47893e-01,2.88278e-01,-4.00456e-01,-3.34343e-01,-2.90688e-01,1.98001e-01,3.16119e-01,3.72357e-02,-2.41882e-02,2.09367e-01,-1.88848e-01,-3.45030e-01,-1.99925e-01,-1.26703e-01,9.58658e-02,-3.04565e-01,
7.51598e-02,1.55695e-02,7.23289e-02,-1.16019e-01,-3.09230e-01,-1.54337e-01,1.84473e-01,-6.29240e-02,3.41817e-01,-5.59408e-02,1.30214e-01,6.81023e-02,-9.33155e-02,2.74075e-01,1.52377e-01,2.78205e-01,2.45957e-01,1.42842e-01,-1.48700e-01,3.02631e-01,5.91023e-02,4.49616e-02,2.52302e-01,1.77334e-01,-2.76896e-01,
-4.27835e-01,-3.00155e-01,2.84638e-01,1.32382e-01,-2.27431e-02,2.46217e-01,4.77384e-02,-3.94631e-02,3.36548e-01,2.77253e-01,-7.64042e-04,8.29036e-03,-1.04513e-01,3.05439e-01,1.37695e-01,1.05079e-02,-9.10070e-02,-1.28280e-01,-2.02973e-01,-3.26528e-02,-1.88224e-01,9.98888e-03,3.75523e-01,-1.21431e-01,3.46152e-01,
-1.25818e-01,-3.29295e-01,-2.57203e-01,-2.21116e-01,2.45486e-01,-1.74035e-01,3.06846e-01,-5.88243e-02,1.74982e-02,-2.89595e-01,2.90034e-01,6.12481e-02,-2.83806e-01,-6.46007e-03,-3.88771e-03,-2.35852e-01,-2.26978e-01,-3.13859e-01,1.96836e-01,-1.67986e-01,-1.13327e-01,-2.40661e-01,9.36539e-02,2.85987e-01,3.19661e-01,
-7.62818e-02,
-8.90751e-02,
6.38184e-02,
9.04508e-02,
-2.17382e-01,
-6.27693e-02,
-2.42301e-01,
-3.10258e-01,
-2.29149e-01,
1.04512e-01,
-1.53855e-01,
6.74027e-02,
1.50744e-01,
1.28495e-01,
1.75051e-02,
2.83190e-01,
-1.33843e-02,
-1.93409e-01,
2.75323e-01,
1.26090e-01,
2.79411e-01,
2.36644e-01,
-1.88945e-01,
-6.66335e-03,
-1.81495e-01,
2.05284e-01,-4.26744e-01,-7.47733e-02,3.64110e-01,-1.64565e-01,3.00849e-02,2.41616e-01,-1.74315e-02,-2.17957e-01,-1.47933e-01,1.95616e-01,-5.34061e-03,3.73340e-01,-2.64249e-02,1.76266e-02,-3.37962e-02,-3.44443e-01,1.43807e-01,9.45853e-02,1.68697e-01,-1.67902e-01,-1.68129e-01,2.62871e-03,-3.45257e-02,-2.35828e-02,
9.94114e-02,1.53904e-01,-1.42644e-01,-1.06405e-01,-2.52056e-01,2.60090e-02,-1.68514e-01,-1.52885e-01,2.56203e-01,7.36991e-02,2.65175e-01,1.20458e-01,3.73061e-01,4.25554e-02,-2.17031e-03,4.33678e-01,-3.33217e-01,-3.91045e-01,1.32249e-01,4.40305e-02,-1.77023e-01,5.27994e-02,-2.59193e-01,-6.81019e-02,3.78544e-01,
1.03762e-01,5.88156e-02,1.44857e-01,-1.27666e-01,-1.43471e-01,-2.49776e-01,-2.67052e-01,-2.91509e-01,2.29040e-01,5.76755e-03,-2.35272e-01,-1.68995e-01,-3.80899e-02,-3.27643e-01,-1.40716e-02,1.22943e-01,-1.77037e-01,1.38056e-01,2.75036e-02,2.39715e-02,2.97663e-01,-7.61883e-02,-3.10387e-01,-3.79499e-02,1.99011e-01,
-5.81080e-02,-2.70600e-01,-1.10691e-01,2.79998e-01,1.70663e-01,1.96457e-01,-2.91428e-01,-3.84961e-01,-1.79591e-01,8.30240e-02,-3.84872e-01,-3.16918e-01,1.89304e-01,-9.28819e-02,3.21287e-01,4.16531e-01,-1.09928e-01,2.18935e-01,1.64009e-01,5.21122e-02,3.43353e-01,-6.36590e-02,-1.95106e-01,5.62670e-02,-2.93013e-01,
-1.38112e-01,8.30916e-02,-8.63998e-02,-7.97089e-02,3.01732e-01,-4.19856e-01,2.25779e-01,-7.86303e-02,3.08976e-01,-3.11097e-02,1.61048e-01,-1.58636e-01,1.40625e-01,-1.62527e-01,2.82493e-02,-3.50384e-01,3.29311e-01,-1.42392e-01,5.34137e-02,-1.00844e-01,-8.67322e-02,-3.27867e-01,-4.08795e-01,-3.18573e-03,-4.34801e-01,
-1.30545e-01,
-2.99034e-01,
-2.15375e-02,
-3.35446e-01,
2.52781e-01,
