// Neural Network File Format by Kyle Julian, Stanford 2016
6,3,5,25,
3,25,25,25,25,25,5,
0,
-56000.000000,-56000.000000,-3.141593
56000.000000,56000.000000,3.141593
-278.628049,0.000000,0.000000,-0.242819
112000.000000,112000.000000,6.283185,17.479225
7.12891e-01,8.58702e-01,-1.72673e-01,
5.99319e-01,-8.23453e-02,5.87296e-02,
1.38862e-01,-6.38966e-01,-5.32084e-01,
-2.27300e-01,1.12598e+00,3.34272e-01,
-3.66123e-01,2.58013e-01,1.64817e-01,
-8.21682e-01,-8.89342e-01,-4.17246e-01,
8.03455e-01,-2.77166e-01,-6.41952e-03,
7.03227e-02,1.93861e-01,-5.85914e-01,
-3.38175e-01,7.45601e-02,2.03708e-01,
-2.04863e-01,-4.91832e-01,3.45576e-02,
-1.11172e+00,9.34264e-01,-2.48447e-01,
-5.50889e-01,-7.68560e-02,7.37730e-02,
-1.05986e+00,6.85580e-02,-3.64071e-01,
-5.62291e-02,7.14478e-01,-3.64542e-02,
-1.46269e-01,-8.52010e-01,1.52326e-02,
-1.38821e+00,-1.80560e+00,-1.66711e-02,
5.59572e-02,-1.17033e+00,-1.75775e-01,
5.36348e-01,8.35579e-01,1.38228e-01,
-6.78801e-01,1.07463e+00,2.09887e-02,
-1.88517e-01,-6.15757e-01,-4.12965e-02,
1.30812e-01,9.81960e-01,7.04664e-01,
7.34946e-01,-1.02321e+00,-3.61094e-02,
2.06882e-01,-1.04773e+00,3.07065e-01,
1.56892e-01,-3.96525e-01,4.61939e-01,
4.16687e-01,-1.16987e+00,-7.49697e-02,
-4.23257e-03,
3.72211e-02,
-1.78020e-02,
-1.65438e-01,
2.16197e-01,
-8.68368e-02,
-1.48214e-01,
2.74051e-01,
2.23238e-01,
1.06749e-01,
1.16454e-01,
2.42970e-01,
2.07355e-01,
9.75814e-02,
1.67753e-01,
7.51268e-03,
9.54428e-02,
-6.73461e-02,
-2.98920e-02,
1.19923e-01,
-1.99315e-02,
1.12798e-01,
2.70958e-01,
2.37085e-01,
6.94729e-02,
6.93076e-01,-1.63190e-01,-1.43032e-02,-5.69860e-01,-8.75940e-03,1.23888e-01,-7.51931e-02,-2.77676e-01,3.03093e-01,-2.04980e-01,5.74298e-01,2.61078e-01,6.31279e-02,-2.10235e-02,-1.35646e-01,9.44726e-02,1.46573e-01,-2.43568e-01,-1.11995e-01,3.40066e-01,1.20639e-01,-2.00232e-01,3.15644e-01,1.83624e-01,3.97861e-01,
5.00019e-02,2.32980e-01,-1.66027e-02,-2.63064e+00,-4.87117e-01,-3.23426e-01,4.30860e-01,2.54588e-01,-3.37714e-01,-3.34409e-01,-4.48824e-02,-3.39416e-01,3.11354e-03,2.54157e-01,2.23472e-01,3.10036e-01,5.36938e-01,1.33655e-02,2.16280e-01,-2.26036e-01,-3.89778e-01,2.14730e-01,-2.34739e-01,-5.36471e-01,2.46035e-01,
1.39069e-01,-6.08945e-02,-6.12036e-01,-4.88760e-01,-3.95791e-02,3.87851e-01,1.81672e+00,-6.04507e-02,1.87807e-02,-1.97670e-02,6.32746e-03,4.20219e-01,3.20359e-01,5.72629e-02,3.26105e-01,7.32095e-01,2.91155e-01,2.61009e-01,1.81605e-01,-1.03304e-01,2.45867e-01,-6.03127e-01,-3.50506e-01,6.12191e-02,-7.98774e-01,
-3.77174e-01,3.51918e-01,-1.69386e+00,8.10902e-01,-2.87077e-02,1.05489e+00,-5.52634e-01,2.39728e-01,-1.26200e-01,2.42732e-01,-7.14473e-02,-3.64385e-01,4.03998e-02,-4.17650e-01,-1.04985e-01,3.78123e-01,1.36993e-01,3.66842e-01,2.18122e-01,4.73018e-02,-6.85961e-02,1.22871e-01,1.02607e-01,-7.74094e-02,2.64378e-01,
3.00691e-01,4.78334e-01,-1.22409e-01,-1.00591e-01,-1.70228e-01,1.57471e-01,-4.68581e-01,-1.61061e-03,1.53876e-01,-3.16336e-01,3.02578e-01,-4.01561e-01,-1.42615e-01,-1.14249e-01,-1.63885e-01,9.41050e-02,-2.79869e-01,1.47384e-01,-3.15183e-01,1.74683e-01,-8.92963e-01,5.42992e-02,2.13559e-01,-1.22515e-02,-1.89850e-01,
-1.34025e-02,-2.14828e-01,-8.78713e-02,-6.22544e-01,-3.45968e-03,-3.95595e-01,8.48873e-01,2.41885e-01,-2.80815e-01,2.18974e-01,4.06923e-01,1.44514e-01,4.17403e-01,1.31967e-01,1.04231e-01,7.00982e-01,-2.59074e-02,1.86427e-01,-2.01122e-01,3.49113e-01,6.90810e-01,8.70067e-02,-6.47251e-02,-1.82887e-01,-2.00393e-01,
4.07932e-01,2.07154e-01,3.68169e-01,-4.07759e-01,-4.05852e-01,-8.51185e-01,-8.46849e-01,2.61810e-01,-2.98796e-01,2.73669e-02,-2.93439e-01,-2.53926e-01,-4.52258e-02,-1.84334e-01,-1.69005e-01,-9.68897e-02,-1.25176e-01,-4.75428e-01,3.99687e-01,1.35772e-01,6.84957e-01,-3.13910e-01,-6.91999e-02,-4.98666e-01,-2.38722e-01,
3.40347e-01,-1.76962e-01,-3.18365e-01,3.62264e-02,9.66153e-02,4.34220e-02,1.97219e-01,-1.78353e-01,-5.15955e-02,-2.90840e-02,-3.09029e-01,2.14247e-01,7.85600e-02,-3.21561e-01,-2.04046e-01,-1.63990e-01,-3.45131e-01,-2.80344e-01,3.43184e-01,-2.02354e-01,2.14142e-01,-4.83189e-02,1.39111e-01,-2.90849e-01,-2.40756e-01,
7.40116e-02,3.18544e-02,5.36837e-02,2.94741e-01,7.27310e-02,-4.60087e-01,-2.59308e-01,-6.96727e-02,1.03727e-01,1.12883e-01,2.68549e-02,-1.05348e-02,5.25456e-02,2.08920e-01,-7.63436e-02,5.69072e-02,2.65803e-01,1.85778e-01,4.12435e-01,-1.15392e-01,7.58277e-02,6.52983e-02,6.03433e-02,-6.06439e-02,2.56832e-01,
5.02168e-01,2.75798e-01,4.37199e-01,5.91678e-01,3.67317e-01,2.13719e-01,-5.73506e-01,-2.12485e-01,-1.35505e-01,2.95081e-01,-9.85860e-03,5.61365e-02,3.33762e-02,-2.21620e-01,2.90539e-01,1.77632e-01,2.86688e-01,3.23240e-02,8.59888e-01,3.03873e-02,-3.84749e-01,3.20539e-01,1.09163e-01,2.63962e-01,2.75540e-01,
-2.35403e-01,1.54110e-01,4.27647e-01,-8.54318e-02,1.16487e-01,1.80796e-01,3.99953e-01,-2.02677e-01,1.68644e-01,2.45072e-02,-3.17972e-01,-2.23737e-01,-2.36609e-01,3.77415e-02,1.41443e-01,8.12165e-01,-2.22231e-01,4.35139e-02,5.57538e-01,-3.44811e-01,-3.12535e-01,-1.65685e-01,-1.63085e-01,-1.56688e-01,-3.60365e-02,
2.10090e-01,-1.79765e-01,-9.55366e-02,8.90701e-02,-2.26779e-02,-1.13090e-01,9.88925e-02,-2.06056e-01,-6.21019e-02,-2.86802e-01,9.35312e-02,-3.54863e-01,-2.28336e-01,-2.07639e-01,-7.82828e-02,1.50183e-01,2.88673e-01,-3.54677e-01,1.52197e-01,-2.06774e-02,4.78790e-02,1.86202e-03,-3.07012e-01,1.44706e-01,6.94692e-02,
-2.07705e-01,1.33350e-01,-2.51533e-01,2.89387e-01,2.74208e-01,6.50157e-02,-2.56718e-01,1.21206e-01,-7.13482e-02,1.69062e-01,2.92330e-01,-7.28084e-02,-9.31642e-02,-3.33963e-02,-3.52280e-01,-9.73731e-04,-2.37201e-02,-5.17883e-03,-1.95604e-02,-8.37592e-02,2.00066e-02,-3.44746e-02,2.48897e-02,-6.90709e-02,-7.98564e-02,
1.03998e-01,9.86892e-02,2.30470e-01,1.70934e-01,8.53104e-02,-2.44009e-01,6.16405e-01,2.73345e-01,3.65528e-01,2.33889e-01,2.48817e-01,1.94018e-01,3.18848e-01,1.91377e-01,2.91625e-01,-3.41559e-01,-1.24168e-01,-4.95255e-01,-4.11491e-01,-1.39891e-01,1.67412e-01,-3.48290e-02,-8.77659e-02,-2.17919e-01,-3.67200e-01,
2.81493e-01,-2.22275e-01,2.49832e-01,-2.50786e-01,-1.02595e-01,1.50890e-02,4.42402e-01,2.51739e-01,1.61342e-01,-3.00029e-01,5.79051e-02,2.06239e-01,4.66228e-02,1.15954e-01,-2.75657e-01,-2.25542e-01,2.98447e-01,7.92779e-02,3.30468e-01,-2.60854e-01,-1.26946e-01,-2.53565e-01,-6.07738e-01,-9.21129e-01,-9.83678e-02,
6.22833e-02,1.00546e-01,1.66236e-01,-1.39458e-01,-2.54341e-01,-1.61862e-01,-1.10403e-01,-1.61057e-01,5.11635e-02,3.01441e-01,3.15098e-01,-3.28439e-01,5.62877e-02,1.81071e-01,-2.29938e-01,-2.38725e-01,-1.30249e-01,-1.42080e-01,-1.20531e-01,-2.77025e-01,-1.18754e-01,-8.63284e-02,1.96347e-01,1.61265e-01,-9.71367e-02,
-1.09845e-01,-2.99232e-02,-1.89483e-01,-2.06213e-01,2.66697e-01,-5.82611e-02,7.09915e-01,1.53110e-01,3.34499e-01,1.86904e-01,2.94856e-01,1.42243e-01,-2.01407e-01,3.29871e-01,-1.11742e-01,9.18479e-01,9.21806e-02,1.90089e-01,-1.05862e+00,-1.03684e-01,1.30700e-02,4.77247e-02,-1.35532e-01,9.42383e-02,1.71636e-01,
-1.22461e-01,-1.38051e-01,-6.17625e-01,-4.33521e-01,1.18395e-01,-4.88271e-02,1.79175e-01,2.59052e-01,1.47526e-01,1.41003e-01,1.79725e-01,-1.29731e-01,-3.95454e-03,2.44966e-01,-1.61656e-01,7.59683e-01,2.14600e-01,-2.97763e-02,3.08991e-02,6.19570e-02,3.13797e-01,-6.41817e-02,-4.54697e-02,1.06771e-01,1.47022e-01,
-3.26603e-01,-1.61087e-01,-1.85627e-01,1.78910e-01,2.28465e-01,-2.06564e-01,6.66054e-02,-6.46813e-02,8.57156e-02,3.34070e-01,-2.17612e-01,-1.30295e-01,-1.52793e-01,-1.39133e-01,-3.04202e-02,-9.02476e-02,-9.02345e-02,-1.06717e-01,1.45661e-01,1.04259e-01,-3.13271e-01,-2.78488e-01,-3.02323e-01,-2.99577e-01,3.42305e-01,
-1.74315e-01,1.16473e-01,1.97632e-01,-5.61013e-01,-2.47433e-01,1.53132e-01,-1.62086e-01,1.55030e-01,-1.00388e-01,1.49978e-01,-1.52040e-01,1.23260e-02,-3.53998e-02,-1.37568e-01,1.64511e-02,4.79795e-01,-5.44789e-02,3.14343e-02,2.97740e-01,1.57913e-01,8.23906e-03,1.09303e-01,4.94911e-02,1.91591e-01,2.67457e-01,
6.77547e-02,-1.73625e-01,-1.00411e-01,5.54300e-01,1.15972e-01,1.14622e-01,-3.29812e-01,-6.35594e-02,-3.18669e-01,-3.47686e-02,6.28663e-02,-1.95793e-01,-1.53140e-02,-1.71704e-01,3.63772e-01,-7.90631e-01,3.97308e-01,-1.13677e-01,-4.43741e-01,1.13328e-01,3.26351e-01,2.68607e-01,1.03820e-01,-3.01119e-01,2.60435e-01,
3.83841e-01,-3.18302e-01,-4.60386e-02,-7.14416e-01,2.88857e-01,-4.19906e-01,5.82155e-01,1.93378e-01,-2.60085e-01,-2.47385e-01,4.13049e-01,-3.11693e-02,1.08815e-01,1.95331e-01,-2.49242e-01,-1.00033e+00,2.41068e-02,-1.95995e+00,-6.07335e-01,-1.35200e-01,8.01117e-01,-7.49669e-02,-2.72811e-01,-8.49918e-01,-3.17812e-01,
-2.02717e-01,-2.92339e-01,-3.07870e-02,4.81561e-01,6.37187e-03,1.41201e-01,3.25135e-01,-3.22607e-01,2.13866e-02,2.52555e-01,2.57436e-01,3.59646e-02,2.07132e-01,9.13813e-02,-2.31613e-01,-2.75484e-01,2.92029e-02,4.60348e-01,3.16185e-01,1.13824e-01,-1.99340e-01,-1.09243e-01,1.75166e-02,1.58384e-01,-1.94399e-01,
-1.66412e-01,1.36367e-01,2.12049e-01,4.38703e-01,2.47130e-03,-1.90876e-01,-1.87484e-01,-2.82145e-01,-4.42093e-02,-2.35607e-01,2.44597e-01,-7.30867e-02,-4.75015e-02,3.14997e-01,-2.43731e-01,3.60978e-01,2.66987e-02,-8.74168e-02,-7.17137e-01,-1.80125e-01,-2.36484e-01,2.48801e-02,-1.77534e-01,2.26116e-01,-1.44017e-01,
-1.98453e-01,-1.52807e-01,6.22971e-02,-2.57837e-02,-2.73433e-01,-4.94907e-01,1.36484e-02,-9.55260e-02,-1.96844e-01,-3.19873e-01,-1.39777e-01,-2.71593e-02,7.70790e-03,2.96299e-02,3.50355e-01,5.00827e-01,2.85182e-01,-3.17180e-01,8.68053e-03,-8.49206e-02,5.35505e-01,1.50876e-02,-1.99677e-01,2.12669e-01,-7.38290e-02,
-1.52253e-01,
-8.85956e-02,
-2.10448e-01,
5.18198e-03,
1.63987e-01,
-2.68813e-01,
1.92696e-01,
-2.83048e-01,
-1.98568e-01,
-1.80772e-01,
2.78042e-01,
5.24609e-02,
-3.67456e-01,
-1.96064e-01,
-1.64664e-01,
-3.27248e-01,
-1.90877e-01,
-9.94646e-03,
5.85076e-02,
2.50290e-01,
2.27473e-01,
-5.68378e-02,
2.88852e-01,
2.12912e-01,
-6.82098e-02,
1.69221e-01,1.95943e-01,-8.30442e-02,1.33908e-01,-1.10057e-01,2.33090e-01,2.20814e-01,-2.74000e-01,-2.99998e-01,-5.34982e-02,2.24582e-01,3.38580e-01,1.82590e-01,-8.54505e-02,1.96358e-01,1.16393e-01,-1.09912e-01,-3.18932e-01,-1.63072e-01,5.86710e-02,9.50833e-02,9.38886e-02,-3.24282e-01,-1.03239e-02,8.30351e-02,
-3.51809e-01,-2.90957e-01,1.49945e-01,-8.27420e-02,-1.76991e-01,-1.78118e-01,8.81778e-02,2.35258e-01,-1.46973e-01,-3.42257e-01,1.13540e-01,2.07942e-01,1.96634e-01,1.81358e-01,-1.05742e-01,2.52952e-01,-5.97009e-02,-1.85577e-01,-1.91733e-01,2.77160e-01,-8.06134e-02,-1.51395e-01,-5.92537e-04,2.66264e-01,-3.55769e-01,
-2.71196e-02,3.44963e-01,2.33707e-01,5.02753e-03,-2.18069e-01,-3.07514e-01,1.34804e-01,9.85000e-02,1.97809e-02,-1.61300e-01,-2.62862e-01,6.73769e-02,3.43497e-02,7.58511e-02,-2.08494e-01,5.24430e-02,-1.64859e-01,-2.15141e-01,-2.29201e-01,-2.05156e-01,-2.04691e-01,-1.27454e-01,-7.71523e-02,2.08581e-01,2.40999e-02,
-7.13430e-02,1.62306e-01,-4.56933e-02,1.26772e-01,1.19409e-01,1.18151e-01,-1.59953e-01,2.70892e-01,2.36207e-01,1.58878e-01,2.40910e-01,-2.87769e-01,4.73425e-03,-3.69854e-02,-9.16236e-02,2.18255e-01,-1.24203e-01,9.44063e-03,-3.20210e-01,-2.38893e-01,-1.98892e-01,2.15151e-01,1.16433e-01,-2.83701e-01,-4.67797e-02,
-3.24427e-01,-2.44283e-01,1.06782e-01,-5.89894e-01,7.10498e-02,-1.47439e-01,-3.62352e-01,-1.98628e-01,3.18394e-01,-8.97406e-03,1.58321e-01,-5.97802e-02,-1.81810e-01,-2.49521e-01,4.36094e-01,1.05712e-01,-1.68982e-01,9.86540e-02,7.47520e-02,3.56544e-01,-2.91181e-02,2.83951e-01,-3.43913e-01,-1.43425e-01,1.71397e-01,
-6.89036e-01,1.01519e-01,4.76361e-01,1.54940e-01,-1.63915e-01,-1.51967e+00,1.49236e-01,9.76622e-02,2.10613e-01,-2.18382e-01,3.44129e-01,3.09081e-01,3.13983e-01,-2.12274e-01,-6.23442e-01,3.49149e-02,-1.33442e+00,-4.60391e-01,2.23408e-01,9.37260e-02,-1.81623e-01,2.16181e-01,-1.35085e-01,-5.01836e-02,2.65658e-02,
-5.82019e-02,-1.31007e-01,-2.71223e-01,-5.57655e-01,3.55698e-01,1.17330e-01,-2.77839e-01,1.10669e-01,1.94282e-01,1.09017e-01,4.59119e-02,-5.48274e-02,-9.50585e-02,-8.70861e-02,2.74008e-01,-3.44367e-01,1.14365e-01,-2.85082e-01,-7.99277e-02,2.61476e-01,-2.35146e-01,3.72617e-03,-3.44756e-01,2.51175e-01,-2.53761e-01,
6.58341e-02,-2.00802e-02,-4.80260e-01,-1.43223e-01,-1.02480e-01,-1.64208e-01,-1.33281e-01,1.13510e-01,-3.26718e-01,-2.49114e-01,-2.03109e-01,3.02000e-01,2.52281e-01,2.45162e-01,-3.59340e-01,-6.21622e-02,2.61917e-01,4.51376e-01,-3.04924e-02,1.18389e-01,2.01715e-01,2.31829e-01,-3.27376e-01,2.08660e-01,-5.17874e-01,
6.12668e-01,-2.93457e+00,-2.26456e+00,-6.10062e-01,-9.18842e-01,-6.55633e-01,-3.10086e+00,1.82239e-01,-6.13921e-01,2.19328e-01,1.53594e-01,3.20768e-01,2.13556e-01,7.65488e-01,-1.42714e+00,-7.23049e-03,-7.11553e-03,2.43551e-01,3.44835e-01,2.38361e-01,-1.40252e-01,-1.59972e+00,2.02435e-01,-2.97360e-01,-1.08580e+00,
-2.19597e-01,2.90818e-01,-3.37801e-01,1.45676e-01,-1.65585e-01,6.51341e-01,4.33131e-01,-2.00930e-01,3.07459e-01,-2.97378e-01,2.56772e-01,-1.21800e-01,2.53817e-01,-1.63266e-01,-1.39455e-01,3.03695e-01,1.35603e-01,-7.56834e-02,2.62271e-01,7.45367e-02,-1.56906e-01,4.68885e-01,3.01400e-01,3.63506e-01,1.50363e-01,
-2.02028e-01,-2.03561e-01,-2.11868e-01,1.17753e-01,-5.55644e-02,-3.05179e-01,1.50157e-01,3.10106e-01,-3.30339e-01,-3.11010e-01,-2.41809e-01,2.54909e-01,-2.98704e-01,9.07857e-02,8.00565e-02,-2.30207e-01,2.14846e-01,2.21625e-02,-3.52474e-01,3.10880e-01,-2.63301e-01,-3.36188e-01,1.40210e-01,-3.51599e-02,-2.27902e-01,
-2.70936e-01,-1.51084e-01,2.23396e-01,-3.32427e-01,-4.57459e-03,-2.65970e-01,-1.28216e-01,3.42377e-01,1.73430e-01,-2.55266e-01,2.29054e-01,-2.31929e-01,9.00932e-02,-9.56685e-02,1.09660e-01,-1.98626e-02,6.34295e-02,-1.47053e-01,-3.12830e-01,3.13143e-01,-1.65124e-01,2.32685e-01,9.53842e-02,-1.51278e-01,1.97606e-01,
-1.38027e-01,4.70162e-02,4.38279e-02,-1.15520e-01,-1.48821e-02,1.02754e-01,6.19235e-02,-1.85833e-01,-5.93925e-02,4.63245e-02,9.15345e-02,-2.33950e-01,2.83109e-01,-6.45722e-02,-2.00864e-01,-3.03245e-02,2.03405e-01,-3.47072e-01,3.01091e-01,-6.53127e-02,-3.12370e-01,6.01108e-01,7.19833e-02,8.10046e-02,1.64161e-01,
1.77093e-01,-1.50714e-01,9.56252e-02,8.68964e-02,-3.48489e-01,-2.01536e-01,3.73893e-02,-8.61014e-02,-1.73746e-01,-1.24624e-01,2.12031e-01,2.37196e-02,1.50413e-01,1.40839e-01,-8.67387e-02,3.32479e-01,-1.95935e-01,1.96578e-01,1.99950e-01,1.41442e-01,2.21614e-04,5.79936e-02,4.86379e-03,2.62347e-01,-3.12212e-01,
-1.46514e-01,-7.79225e-02,1.59611e-01,-1.37340e-01,-1.27194e-01,4.72412e-02,-4.00457e-01,7.92141e-02,1.10125e-01,1.54825e-01,-1.38080e-01,2.04625e-01,1.33263e-01,5.63029e-03,3.58347e-02,-2.58445e-01,1.02801e-01,-2.78552e-04,7.00871e-02,6.13659e-02,1.41788e-02,5.75740e-01,-2.93614e-01,1.76803e-01,-1.67904e-01,
3.47816e-01,-1.07594e-01,-1.28845e-01,-2.49170e-02,1.96069e-01,2.81380e-02,1.23038e-01,2.92645e-01,9.62139e-03,2.95613e-01,1.90690e-01,2.56430e-01,-2.95900e-01,-2.23374e-02,-3.36618e-01,2.88986e-01,-7.64496e-02,-2.26825e-01,-3.27333e-01,-8.90656e-03,-9.46359e-04,2.42743e-01,3.21274e-01,6.94519e-02,-3.22315e-01,
-1.23351e-01,2.31472e-01,-8.97214e-02,1.81662e-01,-1.83879e-01,9.05559e-02,1.61689e-01,2.77534e-01,1.13348e-01,-1.70168e-01,2.57053e-02,-2.33628e-01,2.85623e-01,1.93287e-01,-5.62737e-02,-2.13609e-01,1.12823e-01,2.60706e-02,-1.59625e-01,1.09522e-01,1.84236e-01,-1.95501e-01,-3.42080e-01,2.87505e-01,6.21752e-02,
1.85472e-01,-2.36548e-01,8.39885e-02,-9.45199e-02,-1.09243e-01,-5.78533e-02,1.50980e-01,2.04922e-01,-3.16081e-01,-1.29556e-01,1.66115e-01,-1.48150e-02,-1.57844e-01,-2.98818e-01,3.13400e-01,-3.43584e-01,1.93801e-01,-2.62068e-01,-2.45030e-01,-7.57674e-02,-1.17721e-01,-2.56242e-01,-4.36957e-02,-3.39100e-01,-2.77944e-01,
-1.86655e-02,-7.96410e-04,-1.73507e+00,-1.32191e-01,4.04141e-01,6.40366e-02,-5.35933e-01,-8.95529e-02,-1.15900e-01,-2.39174e-02,-1.30785e-01,6.44100e-02,-2.15985e-01,-7.03616e-01,-1.19619e-01,-2.59552e-01,3.06685e-01,3.90564e-02,1.29708e-02,-2.03513e-01,1.67207e-01,-2.41077e-01,-2.10105e-01,-2.05238e-01,-1.32973e+00,
-6.78628e-02,-1.63279e-01,-1.08180e-01,-1.25069e-01,-2.46968e-01,-2.44095e-01,-3.65457e-01,1.15060e-01,-3.57958e-01,3.60085e-01,-3.70770e-02,1.06070e-01,1.98812e-01,3.23443e-02,5.48871e-01,-6.47196e-02,-6.74989e-03,-1.45192e-01,-1.60746e-01,-2.02140e-01,3.16667e-01,1.16160e-01,-1.05358e-01,3.08076e-01,3.40842e-01,
-1.76648e-01,5.28499e-01,-4.20810e-01,6.08152e-02,-2.10975e-01,6.09720e-01,1.86972e-01,-1.53329e-01,-1.99243e-02,-1.94391e-01,7.49840e-02,2.16916e-01,-2.59277e-01,-4.08216e-01,-1.15669e-01,9.20419e-02,7.66786e-02,1.23448e-01,2.05155e-01,-2.62842e-01,-3.21032e-01,7.54596e-01,3.32978e-01,3.95422e-01,1.82338e-01,
-2.10533e-01,1.04922e-01,-2.45080e-01,1.48717e-01,-3.00055e-01,3.64660e-01,3.58847e-01,3.26933e-01,4.33957e-01,-2.75643e-01,3.36273e-01,1.93986e-01,1.52983e-01,1.35144e-01,-2.98703e-01,3.61583e-03,2.39977e-01,-6.45312e-03,-2.89097e-01,3.71155e-02,-7.75984e-02,8.79675e-02,2.82562e-01,5.01293e-01,-2.41473e-02,
-1.48401e-01,2.60571e-01,-2.55683e-01,-4.34127e-02,1.75185e-01,-2.64338e-01,-7.38555e-02,-1.86169e-01,-2.76472e-01,2.30022e-02,-2.84459e-01,3.01910e-01,1.93723e-01,-2.63686e-01,2.61177e-01,-2.68786e-02,2.41953e-01,1.61134e-02,-3.03206e-01,-4.05132e-02,-1.52266e-01,-2.52754e-01,-2.71109e-01,-3.08032e-01,1.89903e-01,
-1.97031e-01,-8.52806e-02,-8.56240e-02,-1.60808e-01,6.43222e-02,1.60033e-01,6.87973e-02,-9.06349e-02,4.58238e-02,3.45846e-01,-1.30288e-01,-5.38457e-02,1.36958e-01,-1.68441e-01,-3.24330e-01,-7.73060e-02,-3.26800e-01,1.31383e-02,-7.29318e-02,2.77732e-01,-2.73176e-01,1.08764e-01,1.81380e-01,3.20974e-02,-2.43579e-02,
-8.40035e-02,3.71410e-02,1.21744e-02,-2.32456e-01,1.14872e-01,1.27751e-03,1.17170e-01,-2.14285e-01,-2.82155e-02,9.94467e-02,-1.01386e-01,1.54085e-01,-1.19543e-01,-1.79401e-01,-2.75375e-01,-2.37605e-01,7.52251e-02,2.35967e-01,-1.88591e-01,1.24948e-01,-1.69254e-01,1.56274e+00,4.94942e-02,-8.07625e-02,-2.38381e-01,
-3.12395e-01,
-2.28257e-01,
-3.40477e-01,
-3.24494e-01,
6.87439e-02,
1.09910e-01,
3.90783e-02,
-5.26476e-02,
-2.83376e-01,
-2.72254e-02,
-1.28248e-01,
3.72964e-01,
2.20137e-01,
-3.63204e-01,
1.42014e-01,
-9.68054e-02,
-3.40113e-01,
-2.81144e-01,
7.18947e-02,
6.88182e-02,
4.10748e-02,
-1.20316e-01,
-8.52683e-02,
2.12725e-01,
-2.00922e-02,
2.09943e-01,3.32165e-02,-1.95065e-01,8.15834e-02,7.93983e-02,-1.15000e-01,5.76930e-04,4.12557e-02,1.59394e-01,1.46350e-01,3.68740e-02,6.33435e-02,6.34936e-02,1.33611e-01,3.15745e-01,-5.72896e-02,-8.02990e-02,-2.99977e-01,2.44921e-01,-7.35192e-02,-1.66648e-01,-2.38821e-01,1.15772e-01,-1.37457e-01,1.77700e-02,
-2.61038e-01,-2.39345e-01,-7.61803e-02,3.47605e-01,-1.86187e-01,1.99289e-01,-2.74201e-01,-6.19971e-02,2.73123e-03,-1.49667e-01,-1.78876e-01,-1.59730e-01,9.95901e-02,-3.57197e-02,-1.83380e-01,1.31711e-01,2.84003e-01,1.12971e-01,3.26532e-01,-2.43379e-01,2.08182e-01,2.25618e-01,-3.11776e-02,-1.04612e-01,1.51756e-01,
5.08274e-02,-1.29633e-01,9.99972e-02,7.78744e-03,1.17349e-01,2.15950e-01,-9.69673e-02,-1.13595e-01,-2.86126e-02,-2.02191e-01,2.25323e-03,-2.61283e-01,-7.86870e-03,4.14414e-02,3.95275e-02,-6.68953e-02,2.40259e-01,-1.72331e-01,-3.56362e-01,1.61455e-01,-1.85113e-02,3.85568e-01,-1.22395e-02,4.70382e-02,-2.08138e-01,
-2.61340e-01,7.79477e-02,-9.65777e-02,-2.47955e-01,8.40781e-02,-1.43268e-01,1.38366e-01,-1.19148e-01,-3.92861e-01,-2.10377e-01,1.05057e-01,8.78132e-02,1.94546e-01,-2.12836e-01,2.19508e-01,8.05365e-02,9.16810e-02,-1.78072e-01,-2.23581e-01,1.43990e-01,-2.51139e-01,-1.58636e-01,2.78621e-01,-3.24530e-01,-8.36668e-02,
2.61805e-01,-3.14642e-01,-6.06388e-02,-1.90114e-01,-1.00910e-01,2.37045e-01,3.21328e-01,-3.91939e-02,2.54915e-01,1.92057e-01,1.34318e-01,6.36982e-02,2.20663e-01,7.92316e-02,-3.67812e-02,2.60041e-01,-2.55108e-01,-2.83467e-01,-4.39051e-03,1.12430e-01,-2.76379e-01,-1.71713e-01,-3.28915e-01,-3.41387e-01,-4.50110e-02,
-6.97794e-03,-2.57277e-01,1.10608e-01,-8.67182e-02,2.28549e-01,1.12798e-01,-2.79971e-01,3.38718e-01,-1.62790e-01,1.22637e-01,-2.28047e-01,-1.83634e-01,2.95732e-01,2.95777e-01,-3.34632e-01,2.56597e-01,1.64682e-01,3.41969e-01,6.69709e-02,-9.22367e-02,-4.45126e-02,-2.04671e-01,5.65533e-02,9.42509e-02,-1.52925e-01,
1.19585e-03,-1.52690e-01,-1.89733e-01,1.75529e-01,1.23316e-01,-7.19169e-02,-6.10658e-02,-8.23020e-03,9.31972e-02,-1.93045e-02,1.20340e-02,-3.80359e-01,1.66673e-01,-2.28634e-01,-6.77490e-02,-1.89458e-02,2.41906e-02,1.03737e-01,2.37115e-01,1.48250e-01,-6.58370e-02,9.19789e-02,3.19545e-02,-1.71327e-01,-1.59425e-02,
1.84938e-01,2.10375e-01,1.19727e-01,2.46039e-01,-4.51158e-02,4.88586e-02,9.18064e-03,-2.58152e-01,-3.48804e-02,-8.02690e-03,-9.30476e-02,-3.15707e-02,1.02321e-01,-2.01439e-01,-6.74988e-02,-2.56331e-01,-5.10039e-02,1.27039e-01,-2.54388e-01,-9.05387e-02,-3.95929e-01,1.72665e-01,-1.14737e-01,1.30256e-01,1.15961e-01,
-2.48980e-01,-2.44064e-01,5.31483e-02,1.77208e-01,6.43836e-02,7.72073e-02,-1.58036e-01,-5.01779e-02,-3.88557e-02,3.16556e-01,2.24903e-01,-1.28538e-01,-2.87682e-01,-8.70917e-02,8.87036e-02,2.14003e-01,-9.20519e-02,4.93166e-03,6.08847e-02,3.73922e-02,-3.23493e-01,-2.19475e-01,-1.21343e-01,-8.48151e-02,-6.53229e-02,
-1.42289e-01,-9.47178e-02,-7.71931e-02,-7.54387e-04,3.73821e-01,-1.05978e-01,3.54777e-01,-2.43240e-01,4.23136e-01,-1.01764e-01,3.27275e-01,-2.20603e-01,-3.94859e-01,-1.95843e-02,-1.32290e-01,-3.04919e-01,-1.32195e-02,-2.79469e-01,3.30623e-01,4.00887e-02,6.19863e-01,5.19625e-01,4.31707e-04,-1.44237e-01,7.53319e-02,
-3.42808e-01,-1.25310e-01,-2.03513e-01,-2.90329e-01,-2.46279e-01,-1.44957e-01,-2.15291e-02,-3.14889e-02,3.66386e-02,1.33167e-01,2.88419e-01,1.65870e-01,7.75308e-02,1.06012e-01,-2.76477e-01,6.76713e-02,2.94347e-01,7.31578e-02,-4.27400e-02,-2.42330e-01,-9.93264e-02,-1.37320e-01,-3.08866e-01,1.35094e-01,2.19434e-01,
1.77026e-01,1.40777e-01,2.36238e-01,2.67395e-01,9.67035e-02,1.38802e-01,1.64949e-01,-9.79527e-02,-2.57027e-01,-3.85790e-01,2.92700e-01,-3.01734e-01,1.98838e-01,-7.15813e-02,-3.14320e-02,-1.79028e-01,6.20290e-02,1.67095e-01,-2.73066e-02,2.17055e-01,1.97870e-01,2.18296e-01,2.96973e-01,3.23652e-02,-1.88730e-01,
-4.24230e-01,-2.07585e-01,-1.77787e-01,-3.35500e-01,7.95449e-01,-3.71413e-02,-6.27824e-01,-4.82551e-02,1.40091e-01,5.28761e-01,-3.11645e-01,-1.22442e-01,-3.77676e-01,-2.28423e-01,1.11291e-02,-5.01675e-01,1.00101e-01,-2.49870e-01,1.65975e-01,-2.84758e-01,7.93521e-02,-6.19630e-01,-2.90758e-01,-3.70090e-01,-2.81300e-01,
-9.68760e-03,-1.81202e-01,2.93763e-01,-2.61714e-02,4.21421e-01,-1.28412e-01,-1.87411e-01,3.14222e-01,4.05614e-01,4.52759e-01,-1.34526e-01,4.12020e-03,2.33286e-01,2.13857e-01,1.51831e-01,2.44236e-01,9.73152e-02,2.85122e-01,5.47279e-01,-1.76323e-01,8.95200e-02,1.70126e-01,2.65697e-01,2.63199e-01,-7.56366e-03,
-3.15124e-01,2.29280e-01,-7.64810e-02,2.31692e-01,1.03925e-01,-5.19377e-02,4.85638e-02,2.19138e-02,6.96902e-02,-1.41200e-01,-2.87020e-01,-2.94954e-01,-4.19499e-02,1.03602e-01,-6.67058e-02,1.22914e-01,1.82620e-01,1.11052e-01,-3.22525e-02,-2.78694e-01,3.44855e-01,-3.59548e-02,6.48776e-02,-2.50256e-01,-1.65705e-01,
-9.39004e-02,-1.77278e-01,-7.53987e-02,2.88526e-01,1.12990e-01,-8.10520e-02,2.47230e-01,-1.78197e-01,1.85339e-01,-6.11084e-02,-4.01544e-02,2.12902e-01,2.58717e-01,-3.94142e-02,2.04137e-01,-2.76543e-01,3.63851e-01,1.32792e-01,5.54288e-02,3.47894e-01,-1.39789e-02,1.50186e-01,-3.21137e-01,-6.12817e-02,-8.09950e-02,
2.57725e-01,-3.09224e-01,3.14779e-01,-3.38908e-01,5.69651e-01,-1.81844e-01,-5.08480e-01,2.76022e-01,6.61929e-01,1.81213e-01,-2.93966e-01,1.41912e-01,1.78089e-02,-3.07227e-01,2.70241e-01,2.03313e-01,-2.73099e-01,-1.34035e-01,8.18865e-01,1.37306e-02,5.51222e-01,1.82514e-02,5.18282e-02,-1.38910e-01,1.28135e-01,
-1.35190e-01,-1.20406e-01,-1.42221e-01,1.11589e-01,-5.43732e-02,-8.54122e-02,8.90890e-02,2.52803e-01,1.58571e-01,-1.52769e-01,-1.41127e-01,8.17758e-02,1.82587e-02,2.78912e-01,-2.22459e-01,6.58979e-03,5.23043e-02,-2.11521e-01,-1.11885e-01,-2.05791e-01,2.26996e-01,1.27771e-01,1.05646e-01,1.79318e-01,2.03241e-01,
-3.57849e-02,-2.62959e-01,3.24935e-01,2.22939e-01,2.35242e-02,-1.31111e-01,1.08625e-01,-2.62521e-01,8.65665e-03,1.59661e-01,3.38623e-01,2.26893e-01,2.04226e-01,-2.38001e-01,-5.02703e-02,-2.70532e-02,1.43324e-01,1.50221e-01,2.31992e-01,1.37510e-01,3.53477e-01,1.02851e-01,-2.47548e-01,3.02205e-01,-7.02017e-02,
3.03209e-01,-1.90115e-01,-1.79353e-01,1.24428e-01,2.48013e-01,-5.83189e-02,-2.97786e-01,2.82876e-01,-1.36490e-01,3.32250e-01,-2.27227e-01,-8.82737e-02,-1.03705e-01,2.55477e-01,3.10969e-02,-1.47187e-01,1.84675e-01,-1.75577e-01,-1.80969e-01,1.76994e-01,-6.19019e-02,-2.91017e-01,-9.68610e-02,1.09134e-01,2.61095e-01,
-1.48450e-01,-2.10941e-01,2.19396e-01,1.28855e-01,4.34712e-01,-7.10606e-01,-8.40782e-01,6.52260e-01,1.30541e+00,-1.59587e-01,1.91843e-01,-1.09937e-01,5.80202e-03,-1.66492e-01,3.45209e-01,3.71475e-02,1.77438e-01,2.32201e-01,8.78493e-02,9.23349e-02,5.59431e-01,2.22734e-02,-1.22093e-01,-4.74381e-02,2.94745e-01,
-2.15524e-01,1.49967e-01,2.59711e-02,5.64997e-02,-4.54741e-02,2.57026e-01,-7.58478e-02,7.59773e-02,2.22803e-01,-1.29263e-02,-3.07179e-01,5.37610e-02,9.64731e-04,-1.40145e-01,-6.95903e-02,-2.28740e-01,-4.07493e-02,2.30437e-02,-1.16771e-01,-2.22435e-01,8.85988e-02,-3.34067e-01,3.01195e-01,6.81266e-03,-9.57246e-02,
1.53415e-01,6.46270e-02,-2.32191e-01,1.06162e-01,1.35199e-03,-2.25861e-01,1.28152e-01,-2.94864e-02,-2.67686e-01,-1.80662e-01,-3.15558e-01,-1.38137e-01,-1.88503e-01,-2.81422e-01,2.77327e-01,-7.50512e-02,-2.35692e-01,2.12085e-01,-2.74683e-01,-3.27057e-01,7.88366e-02,-1.25820e-01,3.29588e-01,-3.03520e-01,1.76860e-01,
1.90227e-01,-3.14908e-01,3.32806e-01,1.88236e-02,2.07406e-01,2.42258e-01,1.91448e-01,2.25492e-01,-6.19302e-02,-1.81485e-01,-2.67094e-01,-2.94004e-01,-1.77165e-01,1.98586e-01,9.08110e-02,-9.58365e-03,-5.43459e-02,-2.56559e-01,1.53886e-01,1.65383e-01,-1.64099e-01,9.14581e-02,8.70333e-02,1.02856e-01,-1.93759e-01,
4.76363e-03,1.92911e-01,6.19731e-02,3.22609e-01,2.94173e-01,-1.31801e-01,5.86517e-02,5.19758e-01,4.17500e-01,-3.53684e-01,1.41312e-01,-2.54425e-01,2.63739e-02,4.54648e-02,2.59410e-01,-1.85952e-01,-1.52312e-01,-7.69696e-03,1.75498e-01,-7.13556e-02,6.12576e-01,2.74391e-01,-1.12269e-01,-9.41014e-02,-1.69378e-02,
3.43175e-01,
-1.28643e-01,
2.89879e-01,
2.15570e-01,
-9.22917e-02,
7.91031e-02,
1.75583e-01,
1.48851e-01,
-3.17700e-01,
1.85264e-01,
8.48576e-02,
2.57357e-01,
2.18670e-01,
-1.28663e-01,
2.12801e-01,
-9.68424e-02,
-1.12742e-01,
1.01157e-01,
-1.67980e-01,
-2.80065e-01,
-3.34296e-02,
-1.75685e-01,
3.87410e-02,
-1.66153e-01,
9.46619e-02,
-2.19799e-01,-2.63396e-02,3.84502e-02,3.29975e-01,-7.94098e-02,2.24446e-01,2.50910e-02,2.83681e-01,3.04233e-01,2.25665e-01,1.78735e-01,-3.18311e-01,-1.19322e-01,-1.00609e-01,2.11587e-01,1.99674e-01,-1.24293e-01,-1.83625e-01,5.24221e-02,-2.14607e-01,9.02508e-02,-9.08753e-03,-2.90906e-01,-5.55282e-02,3.46335e-01,
2.50828e-01,-3.41869e-01,-3.67061e-01,-3.33282e-01,2.87341e-01,-3.10418e-01,-2.56908e-01,-2.88751e-01,1.60155e-01,-2.14204e-01,-2.17462e-01,1.00427e-02,5.12922e-02,-6.82458e-02,9.38605e-02,1.65427e-01,-1.02015e-01,-2.38929e-01,-3.66700e-01,2.66140e-01,4.94392e-02,-5.17130e-02,3.01367e-01,-2.28419e-01,-7.12181e-03,
2.81791e-01,1.68069e-01,-7.86700e-02,2.66700e-01,2.47208e-01,2.46024e-01,1.46627e-01,7.23014e-03,-1.30262e-01,-5.56572e-02,-1.50522e-01,-1.48344e-01,2.68927e-01,3.35618e-01,1.86656e-01,2.33653e-01,9.32722e-02,9.66775e-02,3.61768e-02,-8.56584e-02,-2.41682e-01,-1.14535e-01,3.03872e-01,3.03026e-01,-2.76868e-01,
-1.96137e-01,-6.06165e-03,-2.44867e-01,-3.16186e-01,-4.64174e-02,-1.39987e-01,2.13051e-01,2.82215e-01,-1.94417e-01,1.29311e-01,-2.47606e-01,8.49393e-02,3.19817e-02,1.40328e-01,2.39566e-01,2.39870e-01,-1.12157e-02,2.60385e-01,2.78094e-01,-2.75404e-01,2.95323e-01,1.96983e-01,9.22458e-02,1.97481e-01,-1.99012e-01,
-1.35933e-01,-9.95745e-02,1.26954e-01,-9.92915e-02,1.17100e-01,2.76448e-01,1.28233e-01,5.62368e-02,-7.24971e-04,-9.88076e-02,1.56772e-01,1.49728e-01,-2.43163e-02,1.37502e-02,1.24684e-01,-2.47472e-01,2.52529e-01,4.75072e-02,1.55606e-01,-1.21079e-01,1.67688e-02,-1.88342e-01,3.13536e-01,6.58182e-02,2.95939e-01,
1.07331e-01,-4.08335e-01,-1.08940e-01,-1.66861e-01,-1.56441e-01,9.07711e-02,7.39214e-02,1.56978e-03,-1.93020e-01,-2.86262e-01,9.26684e-04,-2.04258e-01,-2.85917e-01,-1.34752e-01,-3.34292e-01,-4.60444e-02,-1.00951e-01,-2.84638e-01,3.35264e-01,3.44812e-02,-2.22687e-01,1.78945e-01,2.62216e-01,2.46628e-01,2.37441e-01,
-3.07042e-01,1.40535e-01,-1.12587e-01,2.13429e-01,-1.00642e-01,2.57305e-01,1.72562e-01,3.27676e-02,-1.93578e-01,2.23529e-01,-2.38648e-01,1.04762e-01,1.64723e-02,-5.51637e-02,2.54017e-01,2.40712e-01,-2.66777e-01,-1.41036e-01,-3.64630e-01,2.01139e-01,1.20801e-01,3.26944e-01,1.64034e-01,1.18326e-01,1.28713e-01,
4.83292e-02,-3.41731e-01,-2.53136e-01,-3.20847e-01,6.73260e-02,-9.29851e-02,-2.52116e-01,4.72155e-02,1.78577e-02,1.43203e-01,1.57584e-01,-2.75134e-01,2.03498e-01,-2.50102e-01,-1.90505e-01,1.97743e-01,-2.03385e-01,-6.62548e-02,4.17414e-03,2.00954e-01,-1.54501e-02,-1.54748e-01,6.42121e-02,-9.48866e-02,-9.48825e-02,
-3.47041e-01,-3.88033e-02,-3.76756e-01,2.10407e-01,1.21640e-01,1.58673e-01,1.55808e-01,1.44096e-01,2.59998e-01,9.74301e-02,1.47960e-02,7.34308e-03,8.93489e-02,2.90597e-01,3.12656e-01,1.04391e-01,-1.12971e-01,-5.02806e-02,-1.85055e-01,-1.79296e-01,-1.27121e-01,2.14932e-01,-2.39952e-01,1.20368e-01,3.14631e-01,
1.35809e-01,-3.30601e-01,-2.46434e-01,1.28051e-01,1.50196e-01,-1.16961e-01,1.90871e-01,1.91911e-01,2.22941e-01,-1.46095e-01,-3.19371e-01,-2.64741e-01,-1.49135e-01,-2.29563e-02,2.25940e-01,-1.68850e-01,1.75286e-03,3.04338e-01,1.60771e-01,1.29897e-01,-9.81754e-02,1.95238e-02,1.68099e-01,2.73821e-01,5.36993e-02,
-2.48768e-01,4.81549e-02,-2.47067e-02,2.31843e-02,1.65908e-01,-2.33002e-01,-1.10915e-01,1.11977e-01,8.88572e-02,-1.94206e-01,-1.95744e-01,2.07021e-01,1.93883e-01,-1.90588e-02,-4.13484e-02,-3.75735e-01,3.14359e-01,2.16565e-01,-8.36207e-02,-1.68150e-01,2.64893e-01,1.92624e-01,-8.18228e-02,4.95359e-02,-2.43745e-01,
2.06776e-01,-2.38057e-01,-2.31120e-01,1.71649e-01,-9.72544e-02,-2.01272e-01,7.97167e-02,-2.72384e-01,-2.21088e-01,8.54854e-03,-1.45775e-01,-3.57838e-01,1.32066e-01,-2.94059e-01,1.60384e-01,1.57524e-02,1.24446e-01,2.04753e-01,-3.68366e-01,-7.34452e-02,-9.52097e-02,1.05595e-01,4.91348e-02,-4.36628e-02,-4.06750e-01,
2.11802e-01,-7.86759e-02,4.84211e-02,-1.93990e-02,2.77030e-01,9.28218e-02,1.05502e-01,-7.01787e-02,1.56151e-01,3.33956e-01,2.37474e-01,1.73277e-01,-1.15957e-01,-2.55064e-01,-3.05898e-01,-1.28554e-01,-3.02870e-01,5.10880e-03,-1.63238e-01,-3.16202e-01,2.12523e-03,8.89015e-02,2.08125e-01,2.83619e-01,-2.60494e-01,
1.49813e-01,7.52228e-02,-2.83515e-01,-1.32659e-01,-2.85631e-02,-1.06300e-02,-2.01170e-01,-4.41362e-01,1.52321e-01,-1.01782e-01,-3.13349e-02,-2.19073e-01,-9.08801e-02,-3.44836e-02,-2.71523e-01,9.76340e-02,2.50593e-02,-3.79367e-01,4.32730e-02,-7.90362e-02,8.90114e-02,3.15208e-01,2.12450e-01,-1.13764e-01,2.50989e-02,
-3.28967e-01,6.51053e-03,1.34532e-01,-1.94984e-01,-1.36245e-01,-1.79120e-01,-2.03768e-01,1.59523e-01,1.67902e-01,2.90876e-01,-1.01436e-01,3.16896e-01,1.97423e-01,-1.64645e-01,2.80939e-01,4.03944e-02,1.86964e-01,2.45600e-01,2.58669e-01,-1.22660e-01,5.01879e-02,-1.96472e-01,6.90864e-02,4.35136e-02,-1.69082e-01,
-2.89414e-01,-4.48171e-02,1.63991e-01,8.83657e-02,2.87342e-01,1.98265e-01,2.48904e-01,-7.45397e-02,-1.58137e-01,8.79185e-02,-5.32282e-02,2.27958e-01,1.87189e-01,-7.04805e-02,-8.24448e-02,7.37137e-02,-2.69410e-01,3.21025e-01,-6.18642e-02,-3.16293e-01,4.54743e-02,-2.71459e-01,-2.94757e-01,-1.52608e-02,2.10683e-01,
-1.57021e-01,1.64321e-01,-2.90020e-01,1.01106e-01,-2.52461e-01,-1.57271e-01,1.34882e-01,-1.25284e-02,-2.33810e-01,2.10610e-01,-1.92727e-01,-7.13786e-02,1.98461e-01,2.33281e-01,3.04225e-01,-1.67058e-01,5.18072e-02,1.95539e-01,-1.75731e-01,-2.61413e-01,1.80296e-01,-2.31014e-01,4.14515e-02,1.31881e-01,-1.19857e-01,
-3.05715e-01,3.40984e-01,-1.07324e-02,-5.91448e-02,-2.88119e-01,2.29404e-01,-3.66710e-01,-3.74597e-01,1.26113e-02,2.55380e-01,-1.24978e-01,1.66466e-02,1.87494e-02,-9.39644e-02,-6.70401e-02,2.11218e-01,1.97312e-01,-2.91014e-01,-3.39672e-01,-1.20073e-01,-2.98056e-01,5.38081e-04,1.53090e-01,-3.17625e-01,8.18945e-02,
-2.48963e-01,-1.66378e-01,-6.88741e-02,2.95085e-01,-4.32615e-02,2.66608e-01,2.20168e-01,-1.14337e-01,2.75321e-01,-1.19395e-01,3.36418e-01,2.74620e-01,1.22354e-01,2.63787e-01,2.34029e-01,9.32670e-02,1.62879e-01,-2.81860e-01,5.86478e-02,3.44407e-01,1.18162e-01,-1.08167e-02,-2.59313e-01,-2.13927e-01,1.88756e-02,
8.40403e-02,1.63392e-02,-9.09642e-02,1.88804e-01,8.16011e-03,-3.36588e-01,-2.14605e-01,-1.70569e-01,5.23719e-02,2.42615e-01,-3.01746e-01,-4.33151e-02,2.53226e-01,-2.67521e-02,-2.88495e-01,-2.54288e-01,2.68129e-01,-1.14604e-01,3.35355e-01,-1.67542e-01,-6.78796e-03,-4.63545e-02,-2.23989e-01,2.15378e-01,-2.76699e-01,
1.74023e-01,1.75046e-01,-1.53765e-01,5.44988e-02,-1.85545e-01,1.77543e-01,8.44565e-02,-2.17042e-02,3.42546e-01,-1.29134e-01,-1.17516e-01,-3.25669e-01,1.75789e-01,1.54300e-01,-7.55116e-02,-1.06356e-01,-1.96712e-01,1.27732e-01,-9.42186e-03,-3.14181e-01,2.73540e-01,3.78000e-02,1.28040e-01,-3.06618e-01,-1.04892e-01,
-7.85026e-03,-1.55930e-01,1.47812e-01,-2.16889e-01,-1.02727e-01,-4.20398e-01,-4.12605e-01,-3.75542e-01,2.36868e-01,-1.92001e-01,6.93451e-02,1.85979e-01,-1.05029e-01,-1.10520e-01,2.47517e-01,1.50409e-01,-5.14997e-02,-2.82315e-01,1.04659e-01,2.01218e-01,2.08699e-01,2.26820e-01,-1.44353e-01,1.39391e-02,1.70674e-01,
-1.37030e-01,-2.97212e-02,-3.59161e-01,-2.15177e-01,5.37769e-02,-3.45843e-01,2.29703e-01,2.72463e-01,1.08688e-01,2.75731e-01,1.25914e-01,1.29388e-01,-2.72430e-01,1.80667e-01,1.14826e-01,3.07508e-01,-1.27237e-01,2.37643e-01,-1.47134e-01,2.70909e-01,1.22647e-01,-2.94087e-01,2.56781e-01,-1.78360e-01,1.25661e-01,
-2.08459e-01,-4.80767e-02,-2.47904e-01,-7.73811e-02,-2.95875e-01,-3.33779e-01,6.88838e-04,1.65435e-01,-3.03240e-01,1.11801e-01,-8.28135e-02,-2.89479e-01,-9.14392e-02,-5.82821e-02,1.23082e-01,2.54267e-01,9.51024e-02,2.34449e-01,1.55353e-01,2.95438e-01,-6.99056e-02,3.04966e-01,9.59466e-02,3.39031e-01,-1.93669e-01,
-3.18760e-01,2.49150e-02,2.47097e-02,-2.70403e-01,-2.40906e-01,2.05157e-01,-1.93714e-01,-1.15735e-01,-2.18938e-02,-1.49443e-01,-3.94893e-01,-1.29030e-01,-3.60026e-01,-1.44249e-01,-2.42133e-01,-3.37730e-01,2.27577e-01,8.27343e-02,2.00686e-01,-2.55548e-01,-2.00587e-01,1.87535e-01,-2.08439e-01,-3.17768e-01,-2.44035e-01,
1.25443e-01,
1.65584e-01,
2.09848e-01,
3.35417e-01,
3.15796e-01,
3.14183e-01,
2.97094e-01,
-2.27351e-01,
1.39781e-01,
1.99367e-01,
2.20898e-01,
2.76383e-02,
-1.85310e-01,
1.08383e-01,
-3.36237e-01,
1.12276e-01,
1.49116e-01,
1.57137e-01,
-9.66505e-03,
-3.08179e-01,
-2.89996e-01,
1.60059e-02,
1.12778e-01,
1.94037e-01,
1.62497e-01,
5.40103e-02,-2.59011e-01,4.04560e-02,1.67481e-01,-6.92023e-02,-9.16012e-02,-2.00874e-01,2.09755e-02,-3.29998e-01,2.80327e-01,-3.39366e-01,3.35538e-02,9.02825e-02,-7.76387e-02,-4.45288e-02,2.08039e-01,3.50977e-01,-2.34070e-01,-2.60131e-03,2.39972e-01,-4.38670e-01,-7.79246e-01,-2.18195e-01,-1.81083e-01,-1.88751e-01,
-3.57460e-01,1.96875e-01,7.03034e-02,-3.17951e-01,9.35057e-02,-3.03304e-01,-1.05340e-02,-2.69043e-03,-1.10716e-01,6.49486e-02,1.75144e-02,-2.07941e-01,2.18451e-01,3.24800e-02,2.17258e-01,1.62582e-01,-1.71141e-01,4.58513e-01,3.52809e-03,-4.35843e-01,1.72005e-01,9.07959e-01,3.07757e-01,1.87196e-01,-1.62235e-01,
3.16156e-01,-2.36824e-01,9.32506e-02,-4.28808e-02,3.61941e-01,-2.37916e-01,1.52190e-02,-1.45607e-01,-3.38243e-01,6.18268e-02,-2.36913e-01,-2.97145e-01,-2.70947e-02,-2.75144e-01,9.63464e-02,-2.77467e-01,-2.47285e-01,2.92317e-01,-2.79458e-02,-2.32809e-01,-1.12604e-01,3.00450e-02,-2.47041e-02,-1.60056e-01,2.16205e-01,
-9.34188e-02,2.26687e-01,-4.54523e-01,-1.31304e-05,-2.96673e-01,-5.53855e-01,-3.67116e-01,-3.05705e-01,3.84004e-01,-1.03144e-01,-3.19279e-01,2.44642e-01,-4.15358e-01,-2.89238e-01,2.07723e-01,-2.78793e-01,-3.39645e-01,3.35098e-01,2.46446e-01,-2.72068e-01,-2.34862e-01,1.45285e-01,-9.65987e-02,-2.19444e-01,3.42535e-01,
9.14016e-02,3.48853e-01,-2.06905e-01,-3.23623e-01,-1.64305e-01,-1.77566e-01,-3.93299e-01,3.08139e-01,-4.37686e-02,-3.58134e-01,-3.07938e-01,2.05733e-01,2.89610e-01,1.04098e-01,8.65120e-02,5.02342e-02,1.38806e-01,-7.18168e-02,2.20613e-01,-2.57675e-02,1.62468e-01,7.40714e-02,1.09091e-01,-8.98147e-02,2.23681e-01,
1.82502e-02,
8.35048e-02,
-4.16901e-02,
6.06900e-01,
4.19935e-01,
