// Neural Network File Format by Kyle Julian, Stanford 2016
6,3,5,25,
3,25,25,25,25,25,5,
0,
-56000.000000,-56000.000000,-3.141593
56000.000000,56000.000000,3.141593
-278.628049,0.000000,0.000000,-0.242819
112000.000000,112000.000000,6.283185,17.479225
-2.74356e-01,4.48551e-02,-5.49297e-02,
-3.50049e-02,1.61353e+00,1.02811e-01,
1.24580e-01,4.29856e-01,-5.52956e-01,
-2.40539e+00,-1.32164e+00,2.18825e-03,
2.93239e-01,2.45699e-01,-6.27354e-02,
1.46036e+00,1.83526e+00,5.98477e-03,
2.19541e-01,-1.35464e-01,2.94282e-01,
6.69703e-01,-1.85705e+00,-6.96600e-01,
2.09790e+00,-1.02203e+00,4.72435e-02,
-2.72159e+00,-2.69394e+00,-1.79807e-01,
1.59824e+00,1.03277e+00,-2.92101e-01,
-1.75535e+00,-1.24162e+00,-2.21781e-01,
1.34905e+00,-1.59753e+00,-5.42978e-01,
5.14338e-01,-1.43366e+00,5.32701e-01,
-6.77371e-02,-7.97579e-02,-2.30859e-01,
9.83126e-01,2.26134e+00,6.32131e-01,
-1.18266e+00,2.71808e+00,-1.99176e-01,
-2.45285e+00,2.17196e+00,2.15578e-01,
-9.53316e-01,-5.30425e-01,3.87716e-01,
-2.61177e-01,4.88038e-01,-4.31607e-01,
-4.81295e-02,4.10367e-01,2.81380e-01,
-2.33247e+00,-1.49133e-01,-6.83209e-01,
1.90494e+00,-5.15956e-01,-3.56245e-01,
1.48176e+00,-7.69157e-02,2.25239e-01,
-2.94917e+00,-1.10904e+00,6.72827e-01,
1.14010e-01,
2.49587e-01,
1.19374e-01,
1.66439e-02,
-3.44928e-01,
1.78235e-03,
-3.06519e-01,
3.18445e-02,
5.46365e-03,
-1.65387e-02,
1.30744e-01,
2.86322e-01,
2.00825e-01,
2.62853e-01,
-2.10311e-01,
4.45707e-03,
1.25365e-01,
1.07477e-01,
2.87173e-01,
2.74118e-01,
-3.47336e-01,
4.19577e-02,
2.40663e-02,
2.08111e-01,
-6.29951e-03,
3.07978e-01,3.22483e-01,1.79821e-01,8.18975e-01,-1.20654e-02,1.08933e+00,-5.84188e-02,-1.28859e-01,4.01739e-01,-1.93545e-01,2.90813e-01,-2.07013e-01,2.70776e-01,-1.92437e-01,1.89512e-01,1.41855e-01,-2.54914e-01,2.33661e-01,-4.73745e-01,-1.99968e-01,-2.12697e-01,-3.31093e-01,-3.59003e-02,-4.75563e-02,2.18913e-01,
7.63580e-02,-1.67637e-01,-7.61862e-02,1.19278e+00,1.86322e-01,1.17470e+00,-1.18769e-01,2.76330e-01,1.76397e-01,-4.05166e-02,2.81320e-04,-2.02191e-01,-3.31078e-01,-2.72460e-01,1.01041e-01,3.07559e-01,-1.16062e-01,-2.21920e-02,1.43607e-01,2.88587e-01,2.62634e-01,-1.81097e-02,6.10718e-01,1.05637e-01,9.07769e-02,
2.63567e-01,3.40996e-01,-2.33707e-01,-5.42441e-01,1.14410e-02,-1.19657e-01,7.10460e-02,8.83379e-02,6.30430e-03,4.55367e-01,2.32064e-01,-2.94363e-01,1.18286e-01,2.80109e-01,-6.72172e-02,3.49230e-02,-2.25338e-01,-7.58033e-02,1.32894e-01,2.99841e-01,3.87127e-02,2.77248e-01,-4.03779e-02,-2.43384e-01,-3.44708e-01,
1.84057e-01,-2.70253e-01,-1.36525e-01,9.56162e-01,1.63966e-01,1.39418e+00,-2.58051e-01,2.40958e-01,-7.03272e-02,3.38972e-02,2.62378e-01,-2.84770e-01,3.12104e-01,7.14703e-02,1.45781e-01,9.30552e-02,-2.62371e-01,3.62296e-01,-1.38499e-01,2.31969e-01,2.60381e-01,-3.29022e-02,1.93550e-02,1.31921e-01,-6.51678e-01,
2.74467e-01,-3.15512e-01,-1.79181e-02,-4.27390e-01,-3.01488e-01,-1.92123e+00,2.00326e-01,-2.43561e-01,-9.20572e-02,-1.97428e-01,-3.69021e-01,1.35039e-01,3.23761e-01,1.52216e-01,3.87295e-02,-6.59026e-01,-1.34588e-01,2.34693e-01,1.16222e-01,1.38116e-01,7.05165e-02,-8.90186e-02,-6.56843e-01,-8.79289e-02,-5.53700e-01,
1.66032e-01,-6.05912e-02,2.47809e-01,3.79022e-01,-1.80570e-01,-9.20032e-02,-1.06952e-01,3.68461e-01,-3.94681e-02,-8.86339e-01,-7.19915e-02,-2.42777e-01,1.51223e-02,-2.44551e-01,8.58886e-02,3.86850e-01,-1.00286e+00,1.38918e-01,3.69063e-01,-9.58488e-02,3.11718e-01,3.57198e-01,1.67689e-01,-2.12216e-01,-1.51488e-01,
1.66259e-01,-3.71016e-02,-1.51449e-02,-2.33838e-01,-1.74603e-02,-3.68533e-01,-5.31971e-04,-4.28059e-02,1.14670e-01,4.29155e-02,2.85135e-01,-2.87785e-01,-2.54928e-01,-2.63095e-01,2.15773e-01,-7.22900e-02,3.00132e-01,2.53768e-02,-1.36183e-01,-2.53700e-01,3.48744e-02,-3.40857e-01,1.44914e-01,1.65761e-01,-2.34897e-01,
3.07893e-01,4.02101e-01,-6.01802e-01,-5.93086e-01,2.92156e-01,6.25359e-01,-2.05529e-01,-2.20491e+00,-5.00064e-01,-7.86695e-01,1.67248e-01,-2.63050e-01,3.91680e-01,-3.82281e-02,-1.82957e-01,3.64252e-02,-9.90878e-02,4.57128e-01,2.33960e-01,2.92270e-01,-3.06126e-01,6.39594e-02,-9.22478e-01,4.78732e-02,-5.77256e-01,
-2.07290e-01,1.82773e-02,7.89193e-02,8.22815e-02,-3.15544e-01,-5.64132e-02,-2.41770e-01,-8.49914e-01,-3.90365e-01,1.63609e-01,3.15063e-02,2.33373e-01,6.91614e-01,3.31956e-02,-2.36898e-01,3.50133e-01,-6.50406e-01,3.71751e-01,-1.84404e-01,2.03402e-01,1.11890e-01,-7.57891e-01,3.54489e-02,-1.79302e-01,-6.45528e-01,
1.27023e-02,1.02429e-01,-8.43914e-02,-4.65359e-01,-1.68986e-01,-7.69337e-01,-1.04768e-01,-3.38550e-01,-1.08232e+00,-6.46812e-01,2.46726e-01,-1.38699e-01,3.64070e-01,-6.10042e-02,-2.66027e-01,-3.22337e-01,2.00596e-01,3.01825e-01,-9.26227e-03,2.30680e-01,6.09954e-02,-8.23513e-02,-4.42218e-01,-2.72098e-01,2.02865e-01,
1.65207e-01,-4.11859e-01,1.77653e-01,7.17462e-02,3.46186e-01,-6.05740e-01,1.36461e-01,3.54435e-01,6.27431e-01,1.65162e-01,-7.68593e-02,-1.76986e-01,-2.10312e-01,-2.47512e-01,-1.23818e-01,1.06058e-01,-2.58187e-01,-5.35558e-01,-1.21837e-02,7.13028e-02,-2.44993e-01,-4.15636e-01,1.90522e-01,3.01502e-01,-4.05191e-02,
-2.06317e-01,3.47328e-01,-1.93749e-03,5.64470e-01,-4.26804e-02,-1.04371e+00,2.86165e-01,-1.04530e+00,5.34983e-01,-4.44842e-01,-2.89497e-01,2.51419e-01,-2.12680e-01,4.81969e-01,-3.16390e-01,2.91590e-01,-5.74374e-02,4.25271e-01,1.10394e-01,3.35984e-01,-2.94674e-01,-7.35294e-01,-4.82444e-01,3.75552e-01,-2.16750e-01,
3.13583e-02,3.97030e-02,-5.93657e-02,-1.81677e-01,-1.48293e-01,1.55392e-01,1.95889e-01,2.07291e-02,9.74732e-03,2.66139e-02,-2.61686e-01,2.93207e-01,-8.79167e-02,-1.45142e-01,-1.13362e-01,2.06134e-01,-2.63626e-02,-2.93512e-02,1.38577e-02,-7.18804e-02,2.56566e-01,1.33944e-01,-2.29121e-01,-2.14994e-01,-2.78956e-02,
-1.49504e-01,1.98103e-01,4.17036e-01,-6.85895e-01,-2.33220e-01,1.25967e-01,9.61951e-02,-5.91502e-01,-8.18188e-02,4.41161e-01,2.65985e-01,3.97938e-02,4.62674e-02,2.68264e-01,-2.06989e-02,-1.64000e-01,2.48670e-01,2.19190e-01,2.62579e-01,-4.47500e-02,-9.83091e-02,-3.53169e-01,-2.20594e-01,4.60743e-01,-6.07419e-01,
-1.05404e-02,2.45318e-01,2.83581e-01,1.00303e+00,-3.30992e-01,1.36737e-01,2.34684e-01,1.70066e-02,-3.30595e-01,-5.78354e-02,9.62107e-02,-1.25746e-01,2.40858e-02,-3.92449e-01,-1.38975e-01,-9.37090e-02,3.16067e-01,8.80804e-02,-1.18363e-01,3.94920e-01,3.16851e-01,-1.70202e-01,-9.90838e-02,2.92398e-01,-1.32331e-01,
-1.61330e-01,-4.39841e-02,8.64353e-02,-1.03524e-01,1.82878e-01,-9.15576e-01,1.30788e-01,1.05367e-01,-6.87927e-01,-6.33609e-01,-1.34686e-01,-3.36808e-02,4.01119e-01,1.29038e-01,7.98196e-02,-1.34134e+00,6.78948e-02,-6.63223e-01,-1.24103e-01,3.49310e-01,-2.23440e-01,-2.51174e-01,6.66470e-02,1.84389e-01,2.10652e-01,
-1.31028e-02,3.98751e-01,3.34963e-01,-9.21190e-01,1.46844e-01,5.24463e-01,-1.72800e-01,-3.57116e-01,-1.18174e+00,-1.69428e+00,2.42703e-01,-4.98108e-02,2.05624e-01,-3.34359e-01,-2.52097e-01,1.76094e-01,1.44101e-01,4.70276e-01,8.58002e-02,3.66685e-01,1.22658e-03,7.44134e-02,-2.51671e-01,3.35172e-02,-2.98090e-02,
-8.93961e-02,-2.19737e-01,2.07746e-01,1.11728e+00,2.71351e-01,-2.14413e-02,1.00232e-01,2.48984e-01,3.45050e-01,-7.54038e-01,-3.99947e-01,4.26772e-01,-1.72159e-01,2.87266e-01,-3.00387e-01,-1.12388e-01,3.91165e-01,6.20580e-02,3.14487e-01,-1.31448e-01,9.37285e-02,5.59423e-01,7.51206e-02,-2.77044e-01,2.35167e-01,
1.26490e-02,1.81580e-01,1.22537e-01,-6.41906e-01,-1.57423e-01,3.09030e-01,1.37199e-01,-4.23977e-01,1.65849e-01,3.34128e-01,-1.84235e-01,-2.01673e-01,-2.63266e-01,5.45480e-02,-1.38265e-01,-4.54875e-02,-2.07186e-01,-1.05182e-01,4.34798e-01,-1.12368e-01,-2.86277e-01,-2.07169e+00,1.17087e+00,3.41992e-01,-7.86168e-01,
-2.42940e-01,6.83473e-02,2.74507e-01,2.56737e-02,2.96478e-02,-7.25521e-02,1.13196e-01,-1.16316e-01,1.56368e-01,1.41635e-01,-2.21279e-01,1.76066e-01,-2.84317e-01,-1.70195e-01,9.18060e-02,-2.76550e-01,1.93118e-01,5.67213e-02,-2.08825e-01,-1.99764e-01,5.88864e-02,-2.93012e-01,-1.36903e-01,6.89884e-02,-3.30786e-01,
2.67592e-01,8.92404e-03,3.51807e-01,-1.54746e+00,5.74243e-02,-1.15011e+00,2.53067e-01,-2.96218e-02,-8.41649e-01,-4.74219e-01,-5.44376e-02,1.39658e-01,-9.93691e-02,-1.93968e-01,8.37161e-02,2.99556e-01,2.94138e-01,4.83188e-01,-2.38151e-02,2.37142e-01,2.10439e-01,1.74094e-01,-2.44534e-01,-1.64011e-02,-9.25230e-02,
-2.75604e-01,4.56961e-02,9.39318e-02,-7.71495e-01,1.59017e-01,-1.25004e+00,3.02062e-02,-9.86472e-02,-6.84614e-01,-2.34796e-01,5.28334e-02,1.24145e-01,1.32618e-01,2.56230e-01,3.12906e-01,-3.29519e-01,-3.36128e-01,-3.50648e-01,5.98200e-02,1.48208e-02,-2.88433e-01,1.26569e-02,2.54516e-01,4.65495e-02,-1.01299e-01,
3.58623e-01,-1.94330e-01,8.61955e-02,-2.30258e-01,-1.38168e-01,4.66233e-02,1.21278e-01,4.08078e-01,5.79050e-01,-4.41310e-02,-3.92633e-01,1.12843e-01,-4.57924e-02,1.34869e-01,-8.69984e-02,-3.41413e-01,-4.06096e-01,-2.98542e-01,3.74083e-01,1.74185e-01,-2.67893e-01,2.93529e-01,-4.95813e-01,4.33150e-01,2.64983e-01,
-1.81262e-01,2.48717e-02,1.80628e-01,-6.19031e-01,-2.42875e-01,-1.41817e-01,-2.17253e-01,5.24354e-01,1.45671e-01,-1.19857e-01,-2.78826e-01,-2.16591e-01,1.04061e-01,3.56482e-01,-1.76080e-02,6.36672e-02,-3.01275e-01,-4.13926e-01,2.24419e-01,9.80844e-02,1.74314e-01,-3.80561e-01,6.67920e-01,2.24766e-01,-1.47821e-01,
4.66405e-02,-6.98631e-02,4.41449e-02,-6.74774e-03,1.30799e-01,4.28736e-01,4.44095e-02,-4.07657e-01,6.19282e-02,6.95054e-01,-1.00259e-01,4.78881e-02,-3.00853e-02,6.86152e-02,1.13003e-01,3.62064e-01,-1.11518e-01,4.55763e-01,-1.21459e-01,2.03360e-01,1.52018e-01,-2.04941e-01,-4.59234e-01,-2.12897e-01,-8.04274e-02,
-2.72508e-02,
2.85639e-01,
1.48932e-01,
2.37907e-01,
5.34153e-02,
6.40326e-03,
-1.49203e-01,
2.44690e-02,
2.78589e-01,
1.02835e-01,
2.99045e-01,
-2.19058e-01,
-3.19832e-01,
-1.20333e-02,
1.45729e-01,
9.59436e-03,
-2.25741e-01,
-1.72569e-01,
3.65871e-02,
-1.66869e-01,
-3.87110e-02,
1.14384e-01,
-1.93945e-01,
-4.51369e-02,
2.49217e-01,
-3.36912e-01,2.49213e-01,2.08548e-01,-1.24002e-01,3.99990e-01,2.26748e-01,1.39908e-01,-5.90435e-03,-4.59105e-01,4.48712e-01,-2.21801e-01,-1.68887e-01,-1.97379e-01,-5.14130e-02,-5.35020e-02,1.99676e-01,2.22213e-01,1.50733e-01,-7.32453e-02,2.77015e-01,-9.02154e-01,6.33090e-01,1.22414e-03,7.40422e-02,-1.77648e-01,
-6.11853e-01,1.68395e-01,-2.59175e-01,3.34335e-01,-2.00523e-01,-3.28352e-01,-2.47596e-01,-7.67727e-02,-1.97603e-01,-2.41277e-01,1.11961e-01,2.15552e-01,-1.86502e-01,4.46412e-02,6.48886e-02,2.84367e-01,1.28860e-01,2.33097e-02,3.55141e-03,1.94163e-01,-2.69484e-01,-2.97431e-02,1.93832e-01,3.01772e-01,1.42640e-01,
9.51442e-02,-3.65415e-01,2.95409e-01,2.23802e-01,4.43025e-02,1.48195e-01,-3.42606e-01,6.05296e-01,3.48850e-01,7.78301e-02,-8.72370e-02,-1.35432e-01,-3.41689e-01,7.33473e-02,1.70286e-01,-4.70916e-01,1.22330e+00,-1.11016e-01,1.04429e-01,-3.50145e-02,3.03587e-01,-4.93155e-02,-2.55249e-01,-1.29520e-01,6.05103e-02,
-7.50681e-01,3.63965e-01,2.93462e-01,3.12899e-01,-2.42783e-01,6.90142e-02,-1.31800e-02,-3.39271e-01,2.79785e-01,-4.42931e-01,3.30291e-01,-5.74877e-01,2.57939e-01,3.88206e-01,7.35912e-02,-3.88947e-02,-6.82615e-01,1.20298e+00,3.90502e-02,2.60713e-01,-4.32076e-01,1.38995e-01,-2.70188e-01,3.50987e-01,-8.20382e-02,
3.44310e-02,7.08245e-02,-7.80295e-02,1.48111e-01,-5.57115e-03,-7.29026e-01,-3.46125e-02,3.83046e-01,1.18941e-01,-3.38595e-01,-1.27282e-01,-1.50058e-01,-1.49808e-01,-4.56835e-01,1.94677e-02,1.28280e-01,-1.79031e-01,3.02651e-01,-2.10542e-01,2.94748e-01,-2.90948e-01,2.25922e-01,-3.26390e-01,1.33300e-01,6.20727e-03,
1.80127e-02,9.59890e-02,-1.75212e-01,2.22164e-01,-4.16067e-01,4.77822e-01,1.99779e-01,4.79608e-01,-4.41599e-02,-4.20958e-02,-1.85154e-01,5.43248e-04,1.26400e-01,-2.18200e-02,2.96078e-01,-3.00235e-01,4.51545e-01,4.64199e-01,-9.02541e-03,4.94810e-02,5.88795e-03,-5.00954e-01,-1.34031e-01,-4.51964e-01,2.35454e-01,
1.94609e-01,7.53700e-03,2.24871e-01,-3.70644e-01,5.80216e-01,-2.92113e-01,-3.08511e-01,-3.17887e-01,2.24495e-01,-2.17226e-01,5.90821e-02,-1.61833e-01,3.29567e-01,-8.13659e-02,4.39228e-02,-2.74807e-01,1.24711e-02,-2.59191e-01,1.10094e-01,1.17863e-01,4.86827e-01,-7.41388e-02,2.36726e-02,6.32006e-02,2.60414e-01,
-3.61651e-02,-2.09876e-01,-2.57657e-01,2.28837e-01,1.35799e+00,7.65167e-01,1.81038e-01,-7.40484e-02,-6.28070e-02,2.84992e-01,1.02584e-01,-3.48241e-01,3.34294e-01,2.13316e-01,2.26668e-01,3.43672e-01,-1.23431e-01,-8.14701e-01,-3.27512e-01,2.87625e-01,3.08190e-01,1.92079e-01,-2.78239e+00,-3.01915e-02,-2.29474e-01,
2.37122e-01,-3.56197e-01,-3.15323e-01,-1.31089e-01,4.14595e-01,-4.20825e-01,3.17066e-01,2.25928e-02,-1.62156e-01,3.04547e-01,-2.69745e-01,4.48956e-01,1.93700e-01,4.39711e-02,1.20694e-01,2.08845e-01,4.16794e-02,4.56737e-01,-5.92023e-01,2.29859e-01,4.87379e-01,5.03196e-02,-3.04600e-01,-7.46161e-01,-4.10749e-02,
-1.13975e-01,3.45568e-01,-6.53867e-02,1.01075e-01,7.00001e-01,-2.19474e-01,1.05214e-01,-3.72550e-01,1.55518e-01,-7.96269e-02,5.09943e-02,2.62021e-01,8.13481e-02,-2.56631e-01,3.66815e-01,6.37658e-02,-1.22339e-01,5.69337e-01,-2.63714e-01,2.36710e-01,7.07250e-02,-2.71039e-01,3.59380e-01,4.82272e-02,-4.09309e-02,
2.32054e-01,8.07512e-03,-2.17015e-01,-1.08421e-01,-1.42953e-01,2.77839e-02,4.61155e-02,3.25865e-02,-3.16135e-01,2.77711e-01,-3.09672e-01,1.14557e-01,1.85139e-01,-1.00322e-01,9.00063e-03,2.12243e-01,2.35339e-02,-2.15026e-01,4.72385e-03,1.49774e-01,-3.11416e-01,-2.99069e-01,-2.60619e-01,2.40114e-01,-2.87768e-01,
-1.85571e-02,-2.12753e-02,-1.47187e-01,-2.19491e-02,-6.07881e-01,1.51559e-01,1.82244e-01,-5.94855e-01,1.28619e-01,2.11782e-01,4.07170e-01,-2.90350e-01,-2.85827e-01,-4.80226e-01,-2.76395e-01,4.98795e-03,-3.30771e-02,7.02261e-01,3.50373e-01,-4.04074e-02,1.60209e-01,-2.06454e-02,-1.72438e-01,-1.87712e-01,-2.50074e-01,
-7.13709e-01,2.09104e-02,3.01732e-01,-1.65492e-01,-1.84617e-01,-8.20847e-01,1.64453e-01,5.29658e-01,3.94204e-01,-3.35686e-01,-9.23374e-01,1.58325e-01,-1.57754e-01,1.49715e-01,-6.43021e-02,-9.54414e-01,6.71216e-01,-4.55609e-01,5.62756e-01,1.57937e-01,5.24219e-02,-3.16922e-01,-3.95667e-01,-4.71929e-01,2.39494e-01,
1.25946e-01,-1.30218e-01,-2.77193e-01,-1.02932e-01,2.91660e-01,-7.97884e-02,-7.32571e-02,4.01187e-01,2.23751e-01,4.02870e-01,2.85307e-01,-2.67354e-01,2.17446e-02,4.15408e-01,1.10673e-01,-1.06515e-01,2.92769e-01,-2.78159e-01,-2.49212e-01,-2.97623e-01,-4.70765e-01,4.65727e-01,2.52948e-01,9.99205e-02,1.88226e-01,
3.21542e-02,-2.45029e-01,-2.93307e-02,-1.70091e-02,-8.49696e-02,2.05327e-01,-1.31885e-02,-1.67033e-01,-9.75423e-02,1.37850e-01,-1.80443e-01,5.05165e-02,2.28014e-01,2.43747e-01,-2.47435e-01,-8.00785e-02,2.95770e-01,-2.34162e-01,-2.68750e-01,2.66981e-01,-2.25561e-01,-2.12530e-01,-2.48211e-01,-2.29789e-01,2.33051e-01,
-6.29014e-01,2.64199e-01,4.26040e-01,1.99784e-01,1.51963e-01,-1.07403e-01,3.44508e-01,5.24148e-01,2.19757e-01,2.00228e-01,-4.64819e-01,-1.86481e-01,-3.47857e-01,-1.59869e-01,-2.40235e-01,1.82915e-01,-1.85779e-02,1.54354e-02,4.40893e-01,-4.20353e-03,-1.51905e-01,-6.15675e-01,4.25958e-01,-1.09325e-01,-1.31992e-01,
2.80370e-01,2.57339e-01,1.73127e-01,-1.27010e-01,8.02151e-02,2.34183e-01,6.77538e-02,-4.12754e-01,2.46549e-01,-3.00130e-02,6.05500e-02,-2.45030e-01,3.45501e-01,-3.57069e-01,2.97754e-01,2.13485e-01,2.06087e-01,1.26982e-01,-2.43012e-01,1.68779e-02,-4.93534e-02,-7.77450e-02,4.47667e-01,-4.55758e-03,-3.18188e-01,
-2.65893e-01,-3.66130e-01,-1.00439e-01,-3.84274e-01,-9.48140e-01,-1.63696e+00,2.46757e-01,-1.50850e-01,-2.83286e-01,6.97088e-01,-1.52074e-02,2.46695e-01,3.94545e-02,2.84875e-01,1.04717e-01,-1.91024e-01,3.77020e-01,6.76498e-01,-7.54619e-02,-3.29564e-01,-1.24037e+00,5.73927e-01,4.16251e-01,-1.96814e-01,-2.02295e-01,
2.12643e-01,-1.73676e-01,-2.09058e-01,-2.31924e-02,-1.53957e-01,-9.42768e-04,2.47028e-01,3.22189e-01,-1.57749e-02,1.97875e-01,6.57095e-02,-1.10356e-01,3.42971e-01,-3.93472e-01,-3.99834e-01,-3.50051e-02,-9.99668e-02,-1.46495e-01,2.22969e-01,-6.49492e-02,-1.84663e-01,1.67093e-01,-3.68138e-01,-7.56267e-03,-7.57593e-02,
-4.06757e-01,-8.70388e-02,-9.97167e-02,2.28593e-01,-6.41738e-01,1.41407e+00,2.41441e-01,-3.40571e-02,3.93448e-01,-2.75485e-01,1.09913e-01,-1.61736e-01,1.72287e-01,2.99873e-01,4.68690e-02,-6.48711e-02,-2.77348e-01,-9.02205e-01,-5.17510e-01,2.46069e-01,-2.32233e-01,5.82231e-01,-1.26721e-01,2.96088e-01,9.90419e-02,
-6.08894e-02,-1.40553e-01,-3.11122e-01,1.64619e-01,6.79734e-01,3.23582e-01,-1.34784e-01,1.24143e-02,-1.14432e-01,2.98884e-02,-2.24616e-01,1.41574e-01,-3.12003e-01,2.95099e-01,2.77043e-01,2.20957e-01,5.71154e-01,-1.92675e-01,-1.13560e-01,-1.12314e-01,-1.99587e-01,-1.63539e-01,1.09891e-02,1.60770e-01,1.59073e-01,
3.47738e-01,2.13869e-01,2.80646e-02,3.37350e-02,-2.77955e-01,7.02784e-01,2.98698e-02,1.74764e-01,-4.73144e-01,-5.89286e-01,2.74819e-01,2.02816e-01,-2.77143e-01,-1.20063e-01,1.31911e-01,-8.09402e-02,-6.28011e-01,4.25855e-01,-4.39022e-01,-6.50511e-02,-1.50996e-01,-1.30013e+00,-6.41367e-01,-9.84989e-01,2.27793e-01,
-4.33983e-01,2.28709e-01,2.98227e-01,3.32484e-01,-4.19215e-01,-2.78228e-01,-3.47088e-01,-3.98430e-02,1.90135e-01,1.67793e-01,4.73892e-02,-1.25286e-01,-2.87490e-01,-3.05948e-01,-4.00124e-02,2.45333e-01,3.46756e-01,4.73587e-01,9.97273e-02,1.66515e-01,-4.25887e-01,1.61222e-01,2.36652e-01,1.66772e-01,-1.87542e-01,
-1.93029e-01,-2.19554e-02,-3.35731e-01,2.81754e-01,3.71740e-01,8.65605e-01,-2.09231e-01,-1.51808e-01,4.17139e-01,3.56754e-01,-2.04653e-01,-1.07422e-01,1.36852e-02,1.51185e-01,1.05666e-01,5.86800e-02,6.78901e-02,-4.35856e-02,-3.24182e-01,4.11197e-02,-5.68579e-01,4.24753e-01,3.02660e-01,1.91512e-01,-1.31115e-01,
4.64867e-01,1.48937e-01,-3.36822e-02,-1.25758e-01,-2.09125e-01,-4.11063e-01,2.77440e-01,1.18564e-01,-1.08566e-01,1.48267e-01,-1.61383e-01,-1.17506e-01,-8.77344e-02,4.84037e-02,2.33144e-01,-3.39757e-01,2.65973e-01,6.23029e-01,-7.93114e-02,1.27560e-01,-3.94086e-01,-5.21875e-01,7.11112e-02,-5.99903e-01,-6.89680e-02,
-1.24435e-01,
2.85003e-02,
1.11946e-01,
-1.95844e-01,
2.45643e-01,
-6.67763e-02,
2.68413e-01,
7.84421e-02,
1.26898e-01,
-1.11453e-01,
-1.83221e-01,
1.96898e-01,
-1.46427e-01,
2.65335e-01,
-3.05002e-01,
1.58759e-01,
2.10013e-01,
9.23977e-02,
-1.31065e-01,
3.39915e-02,
1.80405e-01,
-7.76348e-02,
-2.04015e-01,
1.03849e-02,
4.67250e-02,
1.22209e-01,-1.75461e-02,2.84737e-02,-1.02663e-01,-1.73734e-01,-2.61609e-01,-2.77854e-01,-1.18854e-01,-3.18536e-02,-7.91085e-02,2.85412e-01,-3.84104e-02,-2.08533e-01,1.93539e-01,-5.38222e-02,-2.88443e-01,-3.06031e-03,-1.31183e-01,-1.62289e-01,-3.36593e-01,-1.06464e-01,2.35350e-01,-2.54080e-01,-2.97194e-01,-1.94726e-01,
-3.95461e-01,3.46896e-01,-2.98669e-03,3.35248e-01,7.78542e-02,6.00281e-01,-3.97610e-02,-6.05535e-01,5.78815e-01,-1.92313e-02,-1.68065e-01,8.83522e-02,2.25400e-01,-3.09863e-01,2.72098e-01,2.61426e-01,-1.91198e-01,-3.23363e-01,-3.08265e-01,-1.25740e-01,-3.31650e-01,-1.65454e-01,5.12839e-02,1.02176e-01,-4.90033e-02,
-1.75647e-01,-3.56496e-03,1.12992e-01,3.31381e-01,-4.37234e-01,3.45742e-01,-2.13982e-01,-1.67276e+00,-1.76575e-01,-1.90797e-01,3.26546e-01,-2.16509e-01,-4.50685e-01,2.10839e-02,-1.71014e-01,-1.17725e-02,-4.91450e-02,9.56923e-01,-2.00387e-01,-3.75563e-01,-3.05163e-01,3.35564e-01,2.97836e-02,7.84098e-01,-2.13191e-01,
-5.15007e-02,-3.19438e-01,3.44915e-03,4.73620e-01,3.62566e-01,1.44519e-01,-1.42006e-01,8.50817e-02,3.79289e-01,-1.42148e-02,-3.42066e-01,-4.16912e-02,-4.22901e-01,2.56823e-01,-1.56229e-01,-1.91013e-02,-1.28949e-01,5.02602e-01,-1.16811e-01,-1.94825e-01,1.87059e-01,-4.66098e-01,-3.59258e-02,1.63206e-01,2.16028e-01,
1.43573e-01,9.06210e-02,-1.76617e-01,7.75989e-01,1.98344e-01,3.62250e-01,-1.01945e-01,-6.57319e-01,1.12295e+00,-1.88111e-01,2.84151e-01,-3.11063e-02,4.95085e-01,-3.41491e-03,3.00837e-01,3.20490e-01,-2.18967e-01,9.27076e-02,-3.06009e-01,-2.27602e-02,8.73206e-02,-4.81136e-01,-3.93035e-01,-8.51961e-02,3.21574e-03,
-8.16706e-02,-1.69108e-01,-2.84516e-01,3.83628e-01,-3.23589e-02,4.75412e-01,2.95595e-01,2.11064e-01,-1.48042e-01,1.75275e-01,1.34445e-01,-3.32004e-01,1.67468e-01,-5.78983e-03,-3.51027e-03,2.82569e-01,3.76256e-01,3.72068e-01,-2.31095e-01,2.47643e-02,5.26430e-02,1.45511e-01,-9.56191e-02,-1.98246e-01,-1.79253e-01,
2.69093e-01,3.23562e-02,4.49810e-04,2.47608e-01,1.00762e-01,-3.32403e-01,-2.17371e-01,-6.36429e-04,1.02480e-01,-1.42838e-01,-9.42340e-02,9.31880e-02,3.03887e-02,-1.74206e-01,-2.89590e-01,-2.69609e-01,7.58582e-02,-3.22072e-01,-2.70209e-01,1.24543e-01,-7.67651e-02,7.62534e-03,-1.58428e-01,-2.26445e-01,-2.97386e-01,
1.67072e-01,1.11865e-01,1.10113e-01,2.03665e-01,-3.56381e-01,-1.03538e-01,-2.93696e-01,-1.23913e-01,6.01685e-01,-3.12498e-01,-5.61358e-02,1.15624e-01,-1.16082e+00,9.70788e-02,3.44808e-01,3.62765e-01,2.16159e-01,-7.29151e-02,-1.03279e-01,2.47404e-01,-2.73374e-02,1.41311e-01,1.34956e-01,2.00453e-01,-3.73111e-01,
3.16041e-01,-2.18031e-01,4.73564e-01,-8.94868e-01,-2.77251e-01,-2.99709e-01,2.06190e-01,4.18080e-01,-5.32009e-01,-2.23742e-01,2.73363e-01,3.81742e-01,2.54343e-01,5.03900e-02,-7.32380e-03,-1.95061e-01,-9.21802e-01,1.33654e-01,2.94789e-01,4.99322e-01,1.32050e-01,-2.42324e-01,9.16788e-01,1.59228e-01,3.70478e-01,
-2.75769e-01,-2.56441e-01,1.74138e-01,-3.66582e-01,-2.91850e-01,-1.70559e-01,2.93108e-01,3.59864e-01,-3.98743e-02,-1.55202e-01,1.60333e-01,2.93579e-01,-5.32242e-02,9.76069e-02,-2.23246e-01,1.69658e-01,-4.11314e-02,-4.86327e-01,-2.62999e-01,2.75627e-03,1.72756e-01,5.98186e-01,2.52767e-01,2.12574e-01,-3.96964e-01,
-4.63011e-01,3.00528e-01,3.27192e-01,-1.70930e-01,-8.21137e-02,-2.44680e-01,2.36036e-01,2.42207e-01,-1.89393e-01,1.14791e-01,-2.33162e-01,-4.42248e-01,8.08840e-01,-1.56886e-01,-2.21901e-01,4.09728e-02,2.96120e-03,8.02065e-01,1.76365e-01,-1.30618e-01,1.17488e-01,4.71573e-01,8.53888e-02,2.47005e-01,-1.65103e-01,
-2.33211e-01,1.81451e-01,3.10122e-01,-3.53979e-01,-3.10881e-01,-7.61225e-01,-2.08454e-01,2.29415e-01,1.43078e-01,1.84214e-01,1.28889e-02,-9.46740e-02,8.87071e-01,3.20278e-01,-2.93776e-02,3.44044e-01,3.25605e-01,-8.31243e-01,-3.01768e-01,3.33647e-01,-1.21470e-01,7.07902e-01,1.40873e-01,-4.48197e-01,-1.92323e-02,
3.67712e-01,1.34634e-01,3.38159e-02,-1.28092e-01,-2.37268e-01,-2.33154e-04,-1.13640e-01,5.27697e-01,1.57289e-01,2.65394e-01,-1.44486e-01,-5.18721e-01,5.34924e-01,-4.55579e-02,-1.91596e-01,-3.11453e-01,3.99641e-01,1.10492e-01,2.23940e-01,-3.41559e-01,-1.36927e-01,4.57968e-02,2.63210e-01,-1.28900e-01,3.38560e-01,
1.65055e+00,8.35372e-02,7.79416e-02,-5.27807e-01,3.58219e-01,6.03821e-01,-2.28052e-01,-5.51270e-02,7.25119e-01,5.50881e-02,1.02939e-01,-1.93903e-01,-2.86454e-01,-7.65290e-02,5.65646e-02,2.01655e-02,1.28660e-01,7.61418e-01,3.39725e-01,7.88475e-02,1.22309e-01,-3.65862e-02,3.44719e-01,-4.20088e-02,-8.64622e-01,
2.82510e-01,-2.88749e-01,-3.08834e-01,-1.13237e-01,-8.91938e-02,8.08221e-02,-2.11372e-01,-1.49086e-01,3.22380e-01,-1.89173e-01,2.21471e-01,7.06473e-03,1.96353e-01,9.02371e-02,9.42712e-02,-3.07337e-01,-2.51346e-01,-1.34767e-01,1.05858e-01,3.07822e-01,-2.20779e-01,-1.79813e-01,-2.40544e-01,-3.38532e-01,1.31578e-01,
1.50335e-01,-3.00240e-01,-1.84869e-01,-1.74553e-01,-6.78507e-02,-2.85271e-01,-1.87809e-01,1.47982e-02,3.04896e-01,7.88493e-02,-2.00795e-01,-6.84792e-03,2.52010e-01,-3.03715e-01,-2.77533e-01,-1.61207e-01,2.23751e-01,-3.30670e-01,1.30977e-01,3.28884e-01,5.83664e-02,-1.43583e-01,2.48287e-01,-1.51817e-01,-3.38278e-01,
-1.80913e-01,-1.20604e-01,-1.40727e-01,-1.13558e+00,2.07072e-01,-1.04502e+00,3.10310e-01,4.38590e-01,-3.53402e-01,-5.50832e-01,-1.66393e-01,1.28243e-01,-5.07740e-01,3.08560e-01,5.58411e-02,3.99975e-01,-4.53227e-01,-6.99297e-02,2.59835e-01,6.33137e-02,1.64144e-01,-3.09744e-01,8.50897e-01,2.21039e-01,7.70095e-01,
-4.32713e-01,-3.78111e-01,8.53461e-02,1.63289e-01,2.44720e-01,3.45854e-01,-2.04270e-01,-2.57926e-01,1.59814e-01,-1.97262e-01,2.06401e-01,-2.45409e-01,7.45317e-01,1.36272e-01,-3.21496e-01,2.28659e-01,-9.44528e-02,1.12623e+00,2.69101e-01,-2.62568e-01,-2.07942e-01,4.93673e-01,5.92044e-01,1.87483e-02,-4.02012e-01,
-3.94324e-01,3.93924e-01,-1.17916e-01,4.30612e-01,2.29553e-01,6.35230e-01,3.71889e-01,-2.47704e-01,3.38573e-01,1.24278e-01,-2.67841e-01,-1.42067e-01,-4.94282e-02,-1.63305e-01,2.60739e-01,2.37303e-01,7.83446e-02,2.16739e-01,-1.96298e-01,2.93129e-01,5.96823e-02,-2.70933e-01,-2.00710e-01,-1.97199e-02,1.69704e-01,
-3.37551e-01,-6.73488e-02,2.86851e-01,-1.87831e-01,-3.36364e-01,-5.25843e-01,1.76574e-01,-3.44227e-01,1.79531e-01,-1.07020e-01,4.12447e-02,-2.36759e-01,-7.89066e-01,-3.44717e-01,5.28780e-03,1.28069e-01,1.87656e-01,1.34868e-01,2.08482e-01,1.49100e-01,2.87053e-01,-3.41291e-01,9.37085e-02,1.22195e-01,-8.19753e-01,
4.50287e-01,2.91245e-01,5.73708e-02,1.75644e-02,-2.12673e-01,1.04854e-01,-1.37581e-02,2.51633e-01,3.19017e-01,3.12912e-02,-1.88044e-01,3.34060e-01,-6.37666e-01,2.64688e-01,-1.83301e-01,6.25197e-02,-1.92678e-01,2.10557e-01,1.90200e-01,-3.65841e-01,4.01989e-01,4.14068e-03,-3.04090e-01,4.10299e-01,-1.67271e-01,
-3.79303e+00,-9.77103e-02,3.45080e-01,-3.10413e-01,-2.37262e-01,1.73918e-01,-2.47830e-02,-6.18055e-02,3.87732e-01,5.13298e-01,-3.13682e-01,-2.00029e-01,5.18337e-01,-2.51834e-02,-1.22742e-01,2.05524e-01,3.40616e-01,-3.00025e-01,1.22891e-02,-5.41298e-01,-1.58513e-02,2.88809e-01,-9.05000e-02,-1.17513e-01,-4.74032e-01,
-2.60465e-01,1.50265e-01,-8.07874e-02,3.53500e-01,-1.24813e-01,2.08823e-01,1.23751e-01,-7.55119e-01,5.06366e-01,-2.42905e-01,-1.68101e-01,-5.68005e-02,-1.34283e+00,8.09315e-02,-1.45218e-01,2.07878e-01,6.74273e-02,-2.07584e-02,2.56349e-01,6.60883e-01,-1.52391e-01,-4.93117e-02,1.68301e-02,-8.44761e-02,-3.24267e-01,
-3.30376e-02,2.65564e-02,-2.56093e-01,4.82559e-01,-1.22972e-01,3.97219e-01,2.88693e-01,-1.02735e-01,2.24854e-01,-1.18270e-01,1.76942e-01,-2.38529e-01,-7.83195e-01,-1.50810e-01,2.62531e-01,2.57521e-01,4.02057e-01,2.81824e-02,-2.52123e-01,-2.86298e-01,-2.25706e-01,1.58675e-02,-2.39163e-01,3.70325e-01,-3.22284e-01,
1.60856e-01,3.61498e-01,-1.20350e-01,3.14269e-01,3.16765e-01,4.87031e-01,-9.92052e-02,-4.56929e-01,6.84519e-01,2.74625e-01,2.16211e-02,-2.36080e-01,-1.56049e-01,-1.04686e-01,-5.87561e-02,6.50986e-02,-9.71006e-02,4.56601e-01,-8.97034e-02,-3.54182e-01,1.54657e-01,-6.28983e-01,2.71259e-01,1.42884e-01,7.01102e-02,
-6.42423e-02,
1.99721e-01,
5.85712e-03,
1.22400e-01,
1.71187e-01,
-1.79056e-01,
-1.23934e-01,
2.18901e-01,
-1.53338e-01,
2.04735e-01,
4.21157e-02,
1.12367e-01,
-1.96335e-01,
-1.35680e-01,
-1.55722e-01,
-1.11871e-01,
-1.25065e-01,
2.78040e-01,
-1.71350e-01,
2.43055e-01,
-6.20336e-02,
-1.64507e-01,
-1.13305e-01,
1.52216e-01,
-9.33736e-02,
-3.15959e-02,-1.08669e-01,1.00486e-01,-2.10870e-01,4.95835e-01,1.15678e-01,-7.70605e-02,-2.09421e-01,5.41701e-01,-1.54498e-01,-2.03757e-01,-5.65625e-01,8.30433e-02,1.43712e-01,-3.09701e-01,1.67855e-01,7.09374e-01,-3.33666e-01,2.64344e-01,1.60239e-01,-1.58954e-01,6.48497e-01,-5.53110e-02,2.13390e-01,-3.32613e-01,
2.15240e-01,-2.51225e-01,1.12737e-01,-7.62225e-02,1.54322e-01,-2.24035e-01,1.75424e-01,-2.13730e-01,2.63683e-01,4.04730e-03,-1.78197e-01,1.50640e-01,5.70511e-02,-2.88589e-01,1.67100e-01,-2.30371e-01,2.98507e-01,-2.43216e-01,8.44938e-02,-1.39740e-01,-3.07028e-01,2.15283e-01,-1.29610e-01,4.55505e-02,1.18699e-01,
-4.85506e-02,8.50918e-03,3.44423e-01,2.85902e-01,-1.15716e-01,-5.23911e-02,-1.47599e-01,1.50543e-01,1.87985e-01,9.81052e-02,-2.81049e-01,1.35487e-01,-8.12022e-01,-3.73078e-01,4.61659e-02,2.80974e-01,5.21331e-01,-2.68092e-01,-4.39199e-01,3.98582e-01,1.09798e-01,-1.73639e-01,-6.54635e-02,-1.66027e-01,6.40439e-02,
2.64338e-02,-3.00065e-01,-1.19950e-01,-2.78301e-01,1.33914e-01,-1.47678e-01,2.67097e-01,-7.04184e-03,-1.89555e-01,-1.59229e-01,-1.86981e-01,-2.41824e-01,-3.19762e-01,2.96841e-01,1.47306e-01,6.15443e-02,1.32369e-01,-1.81215e-01,4.01022e-02,-2.45637e-01,2.59624e-01,3.28008e-01,3.10773e-01,3.28176e-01,-6.47270e-02,
4.82422e-02,-1.23871e-01,-1.38629e-01,2.76586e-01,-1.14335e-01,4.22824e-01,-3.15910e-01,1.29730e-01,1.55517e-01,4.76061e-01,2.64448e-01,3.15709e-01,-1.88380e-01,-2.96113e-02,2.85014e-01,1.21586e-01,1.12937e+00,3.26428e-01,-9.49082e-02,-1.24071e-01,1.06550e-01,-1.70835e-02,9.42739e-02,-4.10084e-01,1.00173e-01,
2.50994e-01,-1.00619e-01,1.62981e-01,1.82930e-01,1.17617e-01,3.75581e-02,-2.65046e-01,-3.50541e-02,4.44794e-01,1.52750e-01,-9.64744e-02,-9.00111e-02,2.31115e-01,2.22556e-01,2.42862e-01,-5.70896e-02,6.13255e-02,-2.60229e-01,-2.09625e-01,-2.77555e-02,-2.17200e-01,-4.15068e-01,2.04507e-01,2.82514e-01,-1.11993e-01,
-1.77414e-02,-4.75921e-01,-2.38436e-01,4.02379e-01,1.35550e-01,-2.73003e-01,-6.36035e-02,4.36236e-01,-1.00363e+00,-3.13862e-02,-2.07143e-01,-2.59205e-01,-4.81558e-01,-6.36204e-01,1.04187e-01,3.19882e-01,5.01547e-01,-8.74142e-02,-6.41454e-02,9.13366e-02,-3.11573e-01,1.76564e-01,-6.77389e-01,-1.53654e-01,-1.34523e-01,
3.49151e-02,5.50176e-01,-1.26839e+00,9.85969e-03,-3.17078e-01,-5.18064e-01,2.08397e-01,-1.44922e-01,3.04283e-01,-1.04239e-01,-2.35266e-01,-4.71734e-01,7.18807e-03,-1.35548e-02,-2.11086e-01,-4.55254e-02,6.74735e-01,2.54360e-01,-3.12100e-01,3.70145e-01,1.15727e-02,3.49269e-01,-7.01376e-01,2.00905e-01,-4.23613e-01,
-2.49476e-01,-2.34671e-02,1.49269e-01,3.53332e-01,1.84614e-01,1.44623e-02,2.54606e-01,-5.15556e-01,5.29480e-01,7.71680e-02,2.74467e-01,4.44686e-01,9.37696e-02,6.54278e-02,-2.53442e-01,-2.32593e-01,-8.08883e-01,1.32556e-01,-1.16234e-01,-3.35212e-01,-3.04319e-01,3.56114e-01,4.61488e-01,-1.88677e-01,2.19892e-01,
-1.30075e-01,-4.48517e-02,-1.30634e+00,1.65093e-01,-2.00227e-01,1.62292e-01,-7.57354e-02,1.52828e-01,3.55663e-01,1.62915e-01,2.31228e-01,-2.81410e-01,5.78525e-02,-3.55310e-01,1.73205e-01,2.85655e-02,-3.68117e-01,3.01328e-01,-3.70088e-02,-4.53977e-01,2.21260e-01,2.75116e-01,2.87199e-01,-1.21795e-01,-8.91690e-02,
2.72344e-01,1.56850e-01,-6.01686e-01,2.74030e-01,-3.84219e-01,1.23625e-02,1.05374e-01,8.55550e-02,1.11182e-01,5.63594e-03,1.47823e-01,-7.50278e-02,3.97104e-01,-5.01479e-01,1.55594e-01,-1.84505e-01,1.81959e-01,2.90435e-01,-3.43981e-01,1.11240e-01,2.39883e-01,2.37707e-01,3.93543e-01,8.63572e-02,1.66317e-01,
7.37869e-02,4.46177e-01,-8.35629e-01,-2.19774e-01,-7.82259e-01,4.57850e-01,1.19532e-01,-4.88711e-02,3.43142e-01,3.79070e-01,3.03303e-01,1.24068e-01,-8.19012e-01,-1.52139e+00,-7.27051e-02,-7.76901e-02,6.89196e-01,-8.06230e-02,-2.98575e-01,3.79150e-01,-1.27475e-01,-6.20567e-01,1.38663e-01,-2.01437e-01,5.07734e-01,
4.82455e-02,1.13300e-01,-2.72030e-02,5.60077e-02,-2.72341e-02,-2.91817e-01,3.61226e-02,8.04424e-02,5.20397e-02,9.51906e-04,1.03268e-01,-1.19146e-01,3.72800e-01,-6.59574e-01,-2.00845e-02,1.01761e-01,-1.00708e-01,1.77356e-02,2.28040e-02,-2.12714e-01,-2.62750e-02,2.91278e-01,9.31929e-02,1.08226e-01,-2.22091e-01,
-1.92207e-01,-1.25740e-01,1.28666e-02,1.52995e-01,-6.22271e-02,-2.14584e-01,-2.12513e-01,1.09186e-01,-6.39744e-02,2.24825e-01,2.46881e-01,-1.80013e-02,-1.39476e-01,-4.34637e-02,1.12009e-01,-2.30023e-01,1.83998e-01,1.08297e-01,2.62135e-01,-3.44908e-02,-2.22974e-01,5.29000e-02,-1.15903e-01,7.38031e-02,-6.89947e-02,
-1.12101e-01,-1.24773e-01,1.74459e-01,1.56622e-01,2.15848e-01,-5.11009e-01,-9.28430e-02,-2.07762e-01,1.97295e-01,9.21024e-02,1.43002e-01,4.84110e-01,1.20950e-01,1.20249e-01,2.67688e-01,2.80678e-01,-2.91368e-01,1.18501e-01,2.77056e-01,9.50723e-02,-3.24757e-01,5.67313e-02,2.52484e-02,8.24337e-02,2.40821e-01,
1.78437e-01,-7.01820e-02,3.17474e-01,1.24453e-01,2.14623e-01,-2.74200e-01,1.62977e-01,1.54816e-01,2.19268e-01,-1.82780e-01,-3.05520e-01,-1.41489e-01,1.13669e-01,9.44468e-02,4.51203e-02,-2.51185e-01,-1.82394e-01,1.98014e-01,-1.14873e-01,-3.86645e-01,8.86096e-03,-1.04190e-01,-2.70629e-01,-2.00784e-01,-1.01084e-01,
2.43696e-01,-1.90856e-01,2.38348e-01,-4.00220e-01,-2.09955e-01,2.05243e-01,1.40583e-01,-2.64264e-01,6.87118e-02,1.60781e-01,-1.20373e-02,-2.96749e-01,-2.06201e-02,-1.26670e-01,1.49759e-01,7.65359e-02,-2.24814e-01,1.80734e-01,-2.15536e-02,-1.62315e-01,9.37455e-02,-2.81537e-01,1.88271e-01,-1.46775e-01,1.12897e-01,
-1.89246e-01,1.40039e-01,1.34134e-01,-3.90727e-02,-4.71691e-02,-2.04934e-01,-1.84038e-01,7.14355e-02,-5.03319e-02,2.88674e-01,1.81419e-01,-2.79117e-01,2.15031e-01,-3.31218e-01,-2.73061e-01,1.53356e-01,-1.16737e-01,-1.00436e-01,2.23451e-01,1.40129e-01,-3.65001e-01,1.16617e-01,-2.77415e-02,-2.77843e-01,-2.76416e-02,
6.20179e-02,-3.16222e-01,-5.60115e-02,-1.91418e-01,-8.53795e-02,-4.25522e-01,3.25100e-01,3.00375e-01,7.76430e-01,-7.65052e-02,-3.74721e-02,-8.05627e-02,-4.05568e-01,-2.74493e-01,-5.75155e-02,-1.57216e-01,2.59316e-01,1.16544e-01,3.82628e-01,1.96135e-01,1.05569e-01,-1.59853e+00,-1.87908e-01,1.25859e-01,-9.39265e-02,
-4.28786e-02,-2.91006e-01,-1.75584e-01,8.52236e-02,-7.59822e-03,-3.75654e-01,-4.11264e-02,2.97202e-01,-3.95287e-01,-4.17306e-02,-1.27131e-01,1.31381e-01,7.28725e-02,-3.95232e-01,-2.12041e-01,1.89464e-01,-4.09841e-01,3.39995e-01,4.08617e-01,3.42470e-01,3.19226e-01,4.00541e-01,-4.08742e-01,4.16669e-01,-3.95288e-01,
-3.09686e-01,-2.64203e-01,1.17244e-02,-2.08915e-01,5.98590e-02,2.30244e-01,-1.11934e-01,2.10834e-01,3.17544e-01,-1.69078e-01,-3.44862e-01,7.41442e-02,8.38141e-02,-8.70779e-02,2.15032e-02,1.87842e-02,2.76629e-01,-1.35298e-01,-2.49261e-01,2.42953e-01,2.38375e-01,1.54857e-01,3.01364e-01,1.81544e-01,-3.49493e-01,
1.56113e-01,-1.86203e-02,-1.97387e-02,-3.83587e-01,9.05992e-02,-7.38077e-02,-1.66921e-01,-2.07659e-01,-8.93716e-02,-1.65512e-01,-3.01700e-01,-2.24946e-02,-2.50917e-02,9.00306e-02,1.32489e-01,8.02219e-02,2.27264e-01,2.11030e-01,1.27740e-01,3.30714e-02,-3.45368e-01,1.63890e-01,3.05341e-02,-3.03079e-01,1.49518e-01,
-2.85750e-01,-3.61683e-01,1.18951e-01,6.85546e-02,2.61305e-01,1.62731e-01,-2.31935e-02,-3.06347e-01,2.01542e-01,2.41776e-01,1.82055e-01,3.31080e-01,-1.00705e-01,-7.02080e-03,-1.09008e-01,-2.46782e-02,-7.51427e-01,3.13889e-01,8.71749e-02,-2.09694e-01,-2.06856e-01,3.81552e-01,2.68064e-01,-3.07271e-01,2.07697e-01,
-8.87460e-02,-1.51254e-04,7.25318e-02,-1.17486e-02,1.57761e-01,3.03020e-02,3.06563e-01,8.73188e-02,1.73125e-02,2.23948e-01,-1.44264e-02,9.63052e-02,-2.91908e-01,3.84654e-01,2.99692e-02,-1.10186e-01,7.89860e-02,-2.71268e-01,3.47197e-01,3.32582e-01,2.59048e-01,-8.94243e-02,-4.09974e-01,1.84551e-01,-1.54094e-01,
2.98885e-01,1.49765e-01,2.65241e-01,-3.08297e-01,-3.75655e-01,4.09147e-01,1.21321e-01,8.88743e-02,7.03582e-01,3.24950e-01,-3.62220e-01,1.29712e-01,-5.53000e-01,-2.29690e-01,1.44026e-01,5.87504e-02,6.97080e-01,-8.73414e-02,-4.18419e-01,3.26516e-02,1.95132e-01,-8.87851e-01,-5.32475e-02,-3.85378e-01,3.19315e-01,
1.80005e-01,
-1.78221e-01,
2.88461e-01,
-3.31995e-01,
-1.36913e-01,
1.63736e-01,
8.93672e-02,
2.39147e-01,
-1.23236e-01,
-1.07581e-01,
2.95427e-01,
-5.68683e-02,
7.46601e-02,
-2.38261e-04,
1.13677e-01,
-4.09221e-01,
7.86396e-02,
-4.01266e-01,
7.33951e-02,
-2.49995e-01,
-2.32711e-01,
-3.69280e-01,
2.52624e-01,
-6.13220e-02,
3.27418e-01,
7.43333e-02,2.32481e-01,-3.90087e-01,-1.36477e-01,3.56803e-02,-1.86866e-01,1.18617e-01,-9.09325e-02,-1.15987e-01,-9.66734e-02,1.81789e-02,-5.11121e-01,1.76886e-02,7.66426e-02,2.19817e-01,1.36263e-01,2.26351e-02,-3.99301e-01,1.27537e-01,3.51968e-01,2.42094e-01,-3.32662e-01,-8.35156e-02,-1.91163e-01,-5.66621e-01,
-1.68736e-01,1.95894e-01,-1.67872e-02,3.50255e-01,-4.19127e-01,1.12517e-01,7.37404e-02,2.23540e-01,-9.16343e-02,1.41909e-01,3.24565e-02,-3.93610e-01,3.14650e-03,5.21239e-02,-9.03975e-02,3.04788e-01,3.22285e-01,3.89389e-01,-4.42952e-02,9.34882e-02,1.47329e-01,-1.22056e-01,3.93328e-01,1.26455e-01,-5.10141e-01,
-4.33581e-02,6.87996e-02,-1.63111e-01,-6.58315e-02,-1.30024e-01,5.36542e-02,-9.42599e-02,-1.73530e-01,-6.50842e-02,2.20968e-01,-1.21513e-01,-5.45626e-01,-1.42413e-01,-1.92830e-01,6.65628e-02,-1.49892e-01,3.08740e-01,-1.50663e-03,1.01484e-01,3.11940e-01,-5.68805e-02,-7.13858e-02,9.20266e-02,-1.32029e-01,-4.15666e-01,
-2.09713e-01,-2.87919e-01,-1.22822e-02,-3.58036e-01,-2.48751e-01,-5.07149e-02,4.75478e-01,-3.81646e-02,7.51937e-01,8.77267e-02,-3.00542e-01,-5.90630e-01,-3.42546e-02,1.43344e-01,-2.30930e-01,-1.44501e-01,4.16671e-01,3.22446e-01,3.28756e-01,3.62527e-01,1.23332e-01,4.70190e-01,-5.35960e-01,1.65053e-02,-5.38113e-01,
5.40004e-02,3.61505e-02,-1.74921e-01,-1.80856e-01,-1.26763e-01,2.15746e-01,-6.42431e-01,-9.39597e-01,-7.68562e-01,5.14907e-01,6.91829e-03,-8.12254e-01,-5.50213e-02,4.06989e-01,4.29342e-01,6.25607e-01,-6.90508e-02,4.40789e-01,-6.11493e-02,-2.84302e-01,-3.36743e-01,5.13760e-01,4.72279e-01,1.50190e-01,-1.13315e-02,
-8.98463e-03,
-1.09810e-01,
4.92353e-02,
4.11271e-01,
-4.22456e-01,
