// Neural Network File Format by Kyle Julian, Stanford 2016
6,3,5,25,
3,25,25,25,25,25,5,
0,
-56000.000000,-56000.000000,-3.141593
56000.000000,56000.000000,3.141593
-278.628049,0.000000,0.000000,-0.242819
112000.000000,112000.000000,6.283185,17.479225
-1.07442e+00,-1.66917e+00,2.45137e-01,
-5.56433e-01,-8.57007e-02,-5.98857e-01,
-1.06426e+00,-1.15814e+00,2.02953e-03,
-4.50468e-01,-3.85294e-01,1.24659e-01,
3.26074e-01,1.04459e+00,7.43077e-02,
-1.04652e-01,-4.51600e-02,2.26367e-01,
4.17498e-01,-1.75624e-02,-3.12202e-02,
-2.26858e-01,4.45150e-01,-1.21302e-01,
1.19479e-01,6.42803e-02,-1.92253e-01,
6.09779e-02,4.65464e-01,2.68818e-02,
-9.33635e-01,-9.03821e-01,-1.44423e-01,
-4.14035e-01,8.09808e-01,-1.44433e-01,
-8.24091e-01,-1.89916e+00,8.16101e-02,
-1.66052e+00,1.31778e+00,-4.58673e-01,
-3.07269e-01,1.30461e-01,2.10032e-01,
5.10025e-01,-2.79221e-01,1.70024e-01,
7.42817e-01,-2.63784e-01,-4.29885e-01,
-2.18871e+00,8.31554e-01,-4.65743e-02,
-5.19515e-01,-2.48440e-01,4.80043e-01,
-2.38913e-01,7.92758e-01,5.27164e-01,
-1.83626e-01,-3.36075e-02,-2.46695e-01,
-9.77456e-02,4.77758e-02,-3.70536e-01,
-5.08242e-01,2.04760e-01,3.59607e-01,
-1.14211e+00,7.75609e-01,2.86984e-01,
6.01038e-01,3.53640e-01,7.27618e-01,
9.20550e-03,
1.04460e-01,
-5.57980e-02,
2.22593e-01,
7.92398e-02,
-2.85072e-01,
1.79484e-01,
-3.25795e-01,
1.67397e-01,
1.98698e-01,
7.08335e-02,
2.15288e-01,
1.16932e-01,
1.85882e-02,
-2.99887e-01,
1.22091e-01,
1.07867e-01,
-2.82873e-03,
-8.82678e-03,
8.64557e-02,
2.47356e-01,
1.98254e-01,
2.77038e-01,
-8.49375e-02,
-1.05493e-01,
-8.55130e-02,3.76716e-01,-5.33465e-01,5.26698e-02,4.29463e-02,3.05568e-01,-1.33185e-01,-6.31137e-02,6.42847e-02,7.85379e-02,-7.73806e-04,-1.44883e-01,2.51366e-01,2.06948e-01,-1.57439e-02,-2.04217e-01,2.36636e-02,1.36202e-01,7.92861e-02,-3.62400e-01,2.61795e-01,4.15635e-01,1.58214e-01,-2.38250e-01,6.46437e-01,
-2.65074e-01,2.08757e-01,-2.59261e-01,-2.06771e-01,1.22308e-01,-1.98951e-01,2.51184e-01,-1.35093e-01,-1.27595e-01,-1.26290e-01,1.63655e-01,2.32674e-01,1.72393e-01,1.51083e-01,-2.12492e-01,-2.39861e-01,-2.54315e-01,-2.99350e-01,-7.73346e-02,2.82081e-01,-3.40345e-01,-1.55716e-02,-3.25045e-02,-7.77100e-02,-1.52518e-01,
2.27028e-01,-1.59550e-01,9.27741e-02,1.32069e-01,-2.87163e-01,-3.88505e-02,2.17688e-01,1.41151e-01,-1.46691e-01,-4.37797e-03,-3.38009e-01,1.23307e-01,-1.14458e-01,-1.34135e-01,3.09855e-01,-3.27395e-02,-1.51499e-01,2.09641e-02,-2.83371e-01,3.45038e-01,2.12298e-01,-1.57459e-01,-6.94096e-02,-7.99607e-02,-1.79504e-01,
2.35877e-01,2.48416e-01,-2.69156e-01,-2.08217e-01,1.61410e-01,-2.39646e-01,-7.93764e-03,9.52676e-03,-4.16851e-01,8.88323e-02,1.84076e-01,2.41746e-01,7.56698e-02,3.03682e-01,-2.95847e-01,1.20461e-01,-1.79214e-01,-2.52936e-01,2.33279e-01,1.96952e-01,-2.96667e-01,9.18633e-02,9.41248e-02,-2.40165e-01,1.80173e-03,
1.43065e-01,2.14048e-01,-7.78528e-01,7.80958e-02,-3.61406e-01,-2.07193e-01,-1.58454e-01,-3.96416e-02,-1.45354e-01,-1.31240e-01,3.11367e-01,-2.61776e-01,8.99584e-02,-9.68396e-01,4.49810e-02,4.53718e-01,-2.07294e-01,1.56866e-01,-3.34570e-01,3.29881e-02,-1.14130e-01,-5.75445e-02,5.73562e-02,-3.64155e-01,2.80878e-01,
-1.82686e-01,6.43054e-01,-5.03946e-01,2.55380e-01,9.49269e-02,2.56648e-01,1.29861e-01,3.32061e-02,-3.15987e-01,-1.68407e-01,-8.01229e-03,1.43920e-01,-1.00030e+00,2.21470e-01,8.33146e-02,-2.97217e-01,-1.38986e-01,-1.49475e-01,3.77954e-01,-1.42372e-01,-1.15651e-01,4.12483e-02,3.02171e-01,-9.44232e-02,-1.89053e-01,
5.62537e-01,1.52256e-01,-3.61609e-01,1.68889e-01,1.57834e-01,2.42182e-01,-1.82567e-01,-3.24816e-01,2.59802e-01,-1.16677e-01,-5.79240e-01,4.09333e-01,3.86239e-01,5.83123e-01,-2.40689e-01,-3.77242e-01,1.44491e-01,5.27700e-01,2.62084e-01,1.15145e-01,-1.02713e-01,-1.42980e-01,9.90275e-02,-4.34514e-01,-4.18851e-01,
-2.94464e-01,5.69558e-01,-1.10054e-01,2.45795e-01,9.67220e-02,5.08279e-03,-2.66422e-01,2.86165e-01,1.87192e-01,-2.21916e-01,-4.31747e-01,-9.98425e-01,3.17264e-01,6.60157e-02,-3.23917e-01,5.13660e-01,-6.21290e-02,-2.20328e-01,6.83906e-01,-1.39595e-01,1.35985e-01,1.43224e-01,1.36200e-02,-1.06260e+00,2.48582e-01,
6.64929e-02,-3.95729e-02,4.47896e-02,1.59153e-01,2.33450e-01,-2.02541e-01,-3.50380e-01,-2.50843e-01,-1.52134e-02,-3.22433e-01,4.38781e-01,5.26989e-02,1.10458e-01,-1.61575e-01,1.72277e-01,9.40095e-02,8.64123e-02,2.66222e-01,2.66331e-01,2.20642e-01,2.28969e-01,8.22442e-02,1.12341e-01,5.43012e-01,-3.13331e-01,
-2.02438e-01,-2.29687e-01,3.08036e-01,1.99754e-01,-2.73440e-01,2.57003e-01,-2.03276e-01,-6.12416e-02,9.17985e-02,3.19510e-01,4.30231e-02,1.09636e-01,-9.23600e-02,-3.06509e-02,-3.30396e-02,3.32369e-02,-1.14807e-01,-1.07127e-02,2.73844e-01,3.12324e-01,-2.63458e-01,2.08565e-01,1.34328e-01,9.58095e-02,-2.69538e-01,
-1.50864e-01,5.08083e-02,3.64944e-01,2.89378e-01,-4.82940e-02,1.55891e-01,-1.24969e-01,3.45035e-01,-1.23920e-01,3.07962e-01,-3.10795e-01,-3.25114e-01,1.49649e-02,-1.68579e-01,3.14140e-01,8.70907e-03,4.32170e-02,2.15338e-01,9.94802e-02,-1.59748e-01,2.44666e-01,9.69256e-02,1.83274e-01,2.49378e-01,3.91770e-01,
4.79711e-01,4.88974e-02,6.29336e-01,3.11850e-01,8.20325e-02,9.09108e-02,1.62963e-01,-1.56664e-01,3.00407e-01,2.02320e-01,-4.49820e-02,-2.05436e-01,-6.35078e-01,-2.14899e-01,-3.97501e-02,1.27905e-01,2.15909e-01,-3.43607e-02,-2.28463e-01,1.93266e-01,2.36478e-01,1.21840e-01,1.78972e-01,-5.54129e-01,-3.69986e-02,
-3.99776e-01,3.83190e-03,-7.94445e-02,2.77532e-01,2.04146e-01,-1.27829e-01,2.12911e-01,3.11099e-01,8.09085e-02,-3.89844e-01,3.53014e-01,2.81454e-01,-2.68624e+00,4.02637e-01,2.71700e-01,-2.13290e-01,3.35705e-01,2.44945e-01,2.73632e-01,-4.66346e-01,-1.33216e-01,2.70740e-02,-1.35190e-01,-1.33396e-01,5.01815e-01,
1.16782e-01,2.14353e-01,-3.74533e-01,-1.95907e-01,3.22416e-01,-2.50316e-01,-9.93644e-02,1.65215e-01,-3.62722e-01,3.16941e-01,6.62632e-02,-1.16819e-02,2.55600e-01,1.37173e-01,-3.10712e-01,-1.58504e-02,1.17550e-01,-1.74843e-01,-3.91919e-01,-2.23287e-02,-3.93257e-02,1.28019e-01,9.43504e-03,-3.56427e-01,2.75521e-02,
-1.11878e+00,-6.72864e-01,-2.52071e-02,-2.23628e-01,3.42766e-01,-1.90363e-01,-1.77373e-01,-1.42782e-01,1.31614e-01,8.32637e-02,-4.83461e-01,3.68878e-02,-1.67757e-01,2.84884e-01,-3.11463e-01,7.02200e-03,-3.43194e-02,-3.28220e-01,3.15582e-01,1.47373e-01,6.10950e-02,-3.15880e-01,-9.90042e-02,-3.37832e-01,1.01331e-01,
1.22264e-01,6.76871e-01,-1.12307e+00,2.13407e-01,-3.82451e-01,-2.70788e-01,-1.73665e-01,7.59963e-02,-3.00073e-01,-1.99951e-01,1.90873e-01,-2.50571e-01,3.43360e-02,-7.65056e-01,-1.10351e-01,9.28060e-02,-2.63102e-01,2.12720e-02,-2.06059e-01,-3.31228e-01,1.43611e-01,2.82498e-01,2.07403e-01,-2.62555e-01,4.95779e-01,
-1.55826e-02,9.70297e-03,-6.27637e-01,-4.93503e-02,3.95999e-01,6.90626e-02,2.87188e-01,2.13663e-01,1.23486e-01,-1.93688e-01,-4.06735e-02,3.31905e-01,7.19060e-02,-1.18150e-01,-2.24420e-01,1.44670e-01,3.76622e-01,-2.19161e-01,1.94504e-01,3.23734e-01,1.57182e-02,-1.09655e-01,2.74299e-01,1.83325e-02,-5.44247e-02,
3.39390e-01,-7.98426e-02,3.24566e-01,-1.01401e-01,-1.26333e-01,-6.58906e-02,7.75683e-02,-1.39252e-01,-8.23017e-02,2.22948e-01,-1.50471e-01,-1.27176e-01,-3.33483e-01,-1.28628e-01,2.49684e-01,4.62109e-02,-3.28611e-01,-1.11266e-01,-4.23651e-01,1.36059e-01,7.11945e-02,-8.99275e-02,3.59496e-03,3.43203e-02,-2.57552e-01,
6.03166e-01,-2.07391e-01,1.84866e-01,3.58888e-01,-7.72702e-02,1.23441e-01,6.60643e-02,-1.51847e-01,-2.41756e-01,5.30990e-02,1.93205e-01,3.90789e-01,5.23615e-02,-3.89400e-01,-3.38937e-01,-8.75860e-02,1.83758e-01,7.90756e-01,-3.22792e-02,5.16832e-01,6.85001e-02,3.37303e-01,1.74844e-01,4.81655e-02,-8.02149e-01,
-1.34835e-01,-2.97535e-01,-1.33624e-01,-2.10632e-01,1.03861e-01,1.08022e-01,2.78629e-02,3.27362e-01,-2.73457e-01,-1.63930e-01,-2.51172e-01,2.81233e-01,-4.76540e-02,-8.79827e-02,-2.20044e-02,6.59147e-02,-9.09391e-02,-2.27461e-01,2.80447e-01,1.71928e-01,-4.34070e-02,-2.16382e-01,-1.28585e-01,-2.85513e-01,1.33148e-01,
-1.10104e+00,1.78511e-01,-7.39147e-01,2.12880e-01,-1.13732e-01,3.43839e-01,-1.42087e-01,-2.67876e-01,-3.36459e-01,-9.53325e-03,4.66484e-01,-2.37017e-01,3.16589e-01,5.05225e-01,-2.99362e-01,-3.38813e-01,-4.94289e-01,-2.18611e+00,9.14445e-01,-9.21926e-02,5.92653e-02,1.19889e-01,3.04810e-01,-7.66077e-01,-8.88412e-01,
4.07661e-02,-2.58547e-01,-2.64354e-01,-1.51359e-01,2.54997e-01,1.00275e-01,-3.37981e-01,-2.81991e-01,6.86382e-02,-2.10106e-01,-7.06494e-02,2.93064e-01,3.39119e-01,-6.40795e-03,3.27162e-01,-2.24493e-01,2.98160e-01,-2.12293e-02,-2.81261e-01,-1.56403e-01,-1.78891e-01,-2.41721e-01,5.34613e-02,8.21668e-03,-7.29422e-02,
9.94941e-02,-8.24287e-01,-1.20406e+00,1.02380e-01,-2.89777e-01,6.22722e-02,-3.41902e-01,-2.29910e-01,-2.30341e-01,-3.54300e-01,3.62340e-01,-2.33727e-01,1.86698e-01,4.61335e-01,4.42264e-02,8.62771e-02,-1.54014e+00,-7.74842e-01,4.08461e-01,2.14699e-01,1.17805e-01,1.24772e-01,1.38067e-01,-1.04766e+00,-3.99717e-02,
-1.48583e-01,-2.09101e-01,-1.09446e-01,-3.94273e-01,-5.86011e-02,1.90563e-01,1.66939e-01,2.15561e-02,-2.29774e-01,-2.03718e-01,2.72085e-01,-1.83261e-01,8.62716e-02,2.54710e-01,-5.90928e-02,1.63749e-02,1.79725e-01,-9.60805e-02,3.86332e-01,-3.82869e-01,1.95642e-01,2.32954e-01,-6.59638e-02,4.69807e-02,2.04078e-01,
-2.63180e-01,-1.40770e-01,-5.86449e-02,3.77783e-01,-5.65144e-02,2.18925e-01,2.50550e-01,2.79935e-02,2.58827e-01,-1.73275e-01,-9.26162e-02,-6.11698e-02,-1.16453e-01,4.05926e-01,-1.59796e-01,-1.13039e-01,5.46500e-02,-4.05871e-01,-2.93841e-01,-9.93381e-02,2.67011e-01,-2.47051e-01,4.28315e-01,-4.59902e-01,3.82802e-01,
-1.46911e-01,
-2.36872e-01,
1.86433e-01,
-3.91175e-01,
1.37464e-01,
-2.64402e-01,
-1.83965e-01,
-1.83619e-01,
-2.40734e-01,
1.19774e-01,
8.26278e-02,
-1.44959e-01,
-2.33042e-01,
1.27060e-01,
9.05782e-02,
-5.75385e-03,
-2.10256e-01,
2.44708e-01,
-2.61011e-01,
-2.03601e-01,
1.65745e-02,
-2.37053e-01,
-2.12008e-02,
2.25014e-01,
-1.65939e-01,
-1.68196e-01,-1.66079e-01,9.81514e-02,1.86771e-01,-1.86295e-02,-1.53774e-01,1.08449e-01,9.95973e-02,2.46802e-01,-3.27622e-01,8.82066e-02,6.46451e-02,-8.11278e-02,-2.55034e-01,-2.53205e-02,-7.68892e-02,1.53216e-01,-7.87151e-02,-2.23270e-03,-1.86898e-01,-1.14128e-01,-1.07289e-01,2.82979e-01,2.68652e-01,-2.99985e-01,
7.35114e-02,-2.69535e-02,-3.98591e-01,2.62289e-01,-2.82468e-01,-1.36391e-01,-2.66014e-02,3.28627e-01,1.52485e-01,9.49552e-02,2.37618e-01,1.63989e-01,1.03839e-01,4.11317e-02,-4.96849e-02,-1.80916e-01,-1.24587e-01,1.34146e-01,-2.41186e-01,3.30445e-01,3.37562e-01,-4.97451e-03,1.26429e-01,-2.85937e-01,-6.32271e-02,
2.98330e-01,2.53417e-01,1.71177e-02,7.82993e-02,-3.48999e-01,-9.38005e-02,1.80649e-02,1.35461e-01,2.09693e-01,9.69471e-02,2.96922e-01,-1.73572e-01,7.37341e-03,-6.74673e-02,2.77328e-01,7.06454e-01,-1.40288e-01,1.23210e-01,-1.38954e-01,-3.39741e-01,-1.26055e-01,1.50144e-01,2.42890e-01,2.86286e-01,-2.13683e-01,
-3.38962e-01,-4.60823e-02,8.08787e-02,-3.21524e-01,1.68376e-01,3.47353e-02,-2.10216e-01,-1.62772e-02,1.85518e-01,-1.19772e-01,2.33528e-01,-4.99638e-02,2.52536e-03,6.14337e-02,-6.08059e-02,-1.59499e-01,-2.19073e-02,2.58572e-01,2.57392e-02,2.28885e-01,1.49744e-01,-3.28195e-01,-1.18242e-01,-3.34116e-01,-9.97784e-02,
2.78966e-01,-7.89915e-02,-6.74377e-03,7.69023e-02,5.43152e-01,-3.41187e-01,-2.03405e-01,-3.38846e-01,-2.31355e-02,-2.66905e-01,1.86400e-01,-3.56613e-01,3.58518e-01,7.23992e-02,2.68653e-01,-3.31720e-01,-1.56133e-01,-2.72007e-01,1.86635e-02,-1.25789e-01,1.43778e-01,-3.40629e-01,4.67879e-01,-2.98934e-01,5.85011e-01,
-2.52801e-03,-3.44521e-01,1.09527e-01,1.91872e-01,-3.41515e-01,-1.40848e-01,-1.90855e-01,2.39565e-01,2.23099e-01,-3.84316e-02,1.18522e-01,1.83440e-01,2.87686e-01,-3.15531e-01,2.77698e-01,7.65055e-02,5.25647e-03,-2.21336e-01,-3.43040e-01,2.24848e-02,-1.62965e-01,-8.33501e-02,-8.24555e-02,-3.05543e-01,6.82065e-02,
-2.41291e-01,3.01186e-01,8.00787e-02,-1.98218e-01,-1.22119e-01,6.36190e-01,1.08437e-01,-5.66562e-02,3.44786e-01,9.55611e-02,-2.08414e-01,-3.59451e-01,-1.98651e-01,2.31668e-01,-2.39179e-02,-4.79294e-01,1.87593e-01,2.60831e-01,-9.71894e-02,-1.75247e-01,6.82831e-01,3.03495e-01,-5.14414e-01,1.54951e-02,3.93556e-01,
-3.07522e-01,-3.32433e-01,-2.53913e-01,2.26932e-01,-1.62820e-01,6.77548e-01,1.79324e-01,-7.78341e-02,-1.46177e-02,2.94881e-01,-1.25611e-01,-8.06191e-02,-2.95283e-01,3.09332e-01,-2.36556e-01,-3.78001e-01,9.50857e-02,-1.66174e-01,-9.00944e-02,-2.45700e-01,8.98549e-01,-4.44676e-02,-3.46697e-01,7.73042e-03,2.82882e-01,
-1.22964e-02,7.80863e-02,1.57355e-01,8.60073e-02,-3.41505e-01,4.69745e-02,1.13340e-01,2.07165e-01,-2.47355e-01,-8.44939e-02,6.29991e-03,2.80719e-02,-1.73201e-01,2.30981e-03,1.57508e-01,1.82261e-01,2.50601e-01,-2.77539e-01,1.82989e-01,2.11488e-02,-1.46143e-01,5.02391e-02,2.81620e-01,-1.63096e-01,2.53240e-01,
-7.44541e-02,7.64133e-02,-2.19797e-01,6.79166e-02,1.93165e-01,2.74031e-02,-5.52714e-03,-1.12670e-01,-2.01329e-01,-3.75710e-02,-3.00482e-02,-3.44278e-01,3.37738e-01,-1.28737e-01,1.67076e-01,3.31740e-01,3.16903e-01,5.46711e-02,-5.72059e-02,-1.49643e-01,2.89518e-01,-3.43560e-01,3.39184e-01,1.91279e-01,1.52354e-01,
2.89235e-01,-3.18139e-01,2.73721e-01,2.20378e-01,-9.14573e-02,3.50438e-01,3.18155e-03,-1.98449e-01,-1.57526e-01,3.05668e-01,-7.02638e-02,1.38223e-02,-2.11659e-01,-1.57029e-01,5.13247e-01,1.10397e-01,1.58913e-02,1.00653e-01,2.39001e-01,2.30878e-02,-6.14274e-02,-3.32160e-01,-1.43179e-02,2.13777e-01,6.82587e-02,
-2.09552e-01,3.19596e-01,8.56511e-02,3.30863e-01,-1.81451e-01,2.13807e-01,-3.28847e-01,-1.95190e-02,1.37442e-01,-9.43121e-02,8.96131e-02,-2.67607e-01,-1.07794e-01,-6.55798e-02,-3.07691e-01,-1.06806e-01,-8.40906e-02,-8.81157e-02,-2.49932e-01,1.56775e-01,-7.47644e-02,-2.72765e-01,2.81579e-01,-3.45986e-02,2.50277e-01,
-9.12746e-02,-1.61467e-01,1.86061e-01,3.12772e-01,2.47761e-01,-3.41009e-01,1.18989e-01,-3.19883e-01,-2.25974e-01,3.72202e-02,-1.25231e-01,1.53533e-01,2.41267e-02,2.41947e-01,-9.34601e-02,7.60551e-02,-1.03102e-01,-1.25262e-01,1.57387e-01,-5.01958e-02,-3.59099e-01,3.01968e-01,-2.92881e-01,1.48476e-01,-1.37153e-01,
2.74053e-01,4.79779e-02,6.63168e-02,2.53314e-01,-6.28427e-01,-1.96280e+00,-1.42135e-01,6.19980e-01,3.74972e-01,3.69881e-01,1.64135e-01,2.07355e-01,3.59441e-01,1.32683e-01,2.24833e-01,5.27423e-01,3.66637e-02,2.56733e-01,-2.75177e-01,1.55854e-01,-4.93993e-01,2.09466e-01,-2.46220e-01,2.48391e-01,2.02489e-01,
-4.35440e-01,4.12703e-02,-4.47665e-02,9.54709e-02,5.17813e-02,-7.20143e-01,2.79472e-01,-3.24634e-01,-5.16925e-01,-2.50299e-01,-9.15533e-02,2.16797e-02,4.08472e-01,-4.42918e-01,-2.98780e-01,-9.22016e-01,-1.46600e-01,-3.50124e-01,1.67348e-01,3.59750e-02,9.75904e-01,-2.34228e-01,6.29993e-02,1.36611e-01,-1.93195e-01,
2.06479e-02,-2.40646e-01,-2.46360e-02,-2.13350e-01,2.37663e-01,-5.56499e-01,1.55540e-01,2.37116e-01,-1.99508e-01,-8.54299e-02,1.28955e-01,-1.11820e-01,1.61279e-01,1.82091e-01,3.01971e-01,4.43586e-01,-1.92659e-01,3.04496e-01,2.06474e-01,-3.29867e-01,-1.14468e+00,-1.65358e-01,1.02734e-01,-9.76386e-02,-1.00805e-01,
-1.92734e-01,2.61222e-01,-3.86650e-01,-1.32770e-01,-2.69591e-01,-2.27859e-01,-1.15026e-01,6.48451e-03,1.80634e-01,6.39432e-02,9.13308e-02,-2.54465e-01,3.26663e-01,-4.96468e-02,2.50824e-01,2.01643e-01,-1.08590e-01,3.44440e-02,-2.02745e-02,1.45880e-01,-5.85335e-01,-3.37139e-01,7.16405e-02,8.40180e-02,1.21030e-01,
2.35617e-01,-7.16265e-02,2.16153e-01,7.23491e-02,3.47583e-01,3.07082e-01,-4.65027e-02,-1.33880e-01,-1.71052e-01,3.44745e-02,-6.79555e-02,1.79974e-01,-2.50841e-01,6.70011e-05,-2.99398e-01,-5.24125e-02,1.36258e-01,1.26143e-01,1.28358e-01,-8.59860e-02,3.42261e-01,-7.96265e-02,-2.19603e-02,5.56423e-02,-5.24052e-02,
-2.53313e-01,9.63434e-02,4.29171e-02,-8.87093e-02,-2.66854e-01,-5.17959e+00,6.33903e-03,8.60231e-02,-1.12716e+00,3.82727e-01,-1.01262e-01,2.40465e-03,7.78059e-01,-3.58572e-01,2.77756e-01,-1.98744e-01,3.61089e-01,1.07685e-01,4.88020e-01,-9.11583e-02,4.70795e-01,-3.31220e-01,-2.44224e-02,-2.30630e-01,-3.16375e-01,
1.22101e-01,-8.91795e-02,2.49437e-02,-8.27185e-02,3.10112e-01,6.72152e-01,-8.79185e-02,-3.13801e-01,-3.74785e-01,-4.06084e-02,3.36605e-01,-7.60922e-02,-3.99112e-01,-1.07339e-02,3.57645e-01,8.02331e-01,-2.21279e-01,1.44761e-01,3.45963e-01,1.64960e-01,-1.23949e+00,1.57214e-01,3.24744e-02,4.66858e-01,-6.87618e-01,
-3.42019e-01,-1.00626e-01,-1.39182e-01,2.11990e-01,1.10728e-01,-1.82648e-01,3.09867e-01,3.22924e-01,-2.63057e-01,-2.57655e-01,2.71611e-01,2.89670e-01,2.99413e-01,-1.09976e-01,2.63573e-01,-2.63319e-01,2.91802e-01,-2.13908e-01,-3.50047e-02,-3.07767e-01,7.52212e-02,-3.46152e-01,-2.10527e-01,-3.36017e-01,2.92843e-01,
2.35264e-01,-3.22170e-01,-2.01998e-01,-7.53912e-02,4.05466e-01,5.28690e-01,-2.57948e-01,-6.30578e-02,-1.00214e-01,-4.51907e-02,-2.32574e-01,-2.06212e-01,-1.39582e-01,-3.11951e-01,-1.85412e-01,4.96858e-01,1.26568e-01,2.19418e-01,3.63875e-01,2.86325e-01,9.74331e-01,3.28474e-01,6.76735e-01,1.84301e-01,1.07056e-01,
2.59186e-01,-2.68662e-01,4.70197e-02,-1.05583e-01,8.80405e-02,3.27988e-01,-5.81579e-01,-2.91818e-01,-2.92291e-01,3.23250e-01,4.13730e-02,-4.04284e-02,6.63261e-02,-1.94757e-01,-2.20164e-01,-1.89783e-01,8.08537e-02,-7.64378e-03,2.64138e-01,1.23389e-01,1.77107e-01,-2.11477e-01,2.70130e-01,-3.23624e-01,4.06507e-02,
3.54844e-01,2.04880e-01,-4.77818e-01,-2.71010e-01,-1.01497e-01,1.11238e+00,-1.07453e+00,-1.08858e+00,4.22807e-01,-7.23133e-02,-2.02804e-01,-3.44398e-01,1.39933e-01,-5.55626e-02,9.53311e-02,7.66741e-01,-1.74710e-01,-3.86262e-01,-3.11278e-01,-2.24582e-02,2.54663e-01,-3.14280e-01,4.72254e-01,2.58843e-01,1.13198e-01,
-1.37133e-01,2.25138e-01,-1.44092e-01,3.49101e-03,1.72845e-01,-1.01074e+00,-8.37786e-02,-1.13603e-01,-2.94943e-01,-3.42829e-01,9.84480e-02,-2.56771e-01,-6.07001e-01,1.45775e-01,1.52635e-01,1.07468e+00,2.37553e-01,8.95786e-02,4.56483e-01,-3.00119e-01,7.78490e-01,-1.27042e-01,8.23134e-01,1.87399e-01,3.04994e-01,
-3.39283e-01,
2.31013e-01,
-6.52594e-02,
-2.95072e-01,
5.05909e-03,
-9.68699e-02,
4.17068e-02,
3.30035e-01,
-2.09639e-01,
-2.79339e-01,
-3.09578e-01,
-1.88786e-01,
-5.61822e-02,
-1.72389e-01,
2.10780e-01,
5.84146e-02,
1.30544e-01,
2.61646e-01,
-1.24340e-01,
-1.47812e-01,
-3.10606e-01,
2.13176e-01,
-2.34308e-01,
1.56765e-01,
-1.02827e-02,
1.92096e-01,-2.68527e-01,2.58470e-02,-2.53487e-01,-1.17441e-01,-2.14172e-01,-1.16609e-01,-5.62744e-02,-2.01216e-01,-1.52740e-02,1.80422e-01,-3.29732e-01,-9.18160e-02,-1.02158e-02,2.91031e-01,-6.64201e-02,-3.23652e-01,2.88815e-01,3.22429e-01,3.12475e-02,3.31310e-01,9.97991e-02,-2.64738e-01,2.71723e-02,2.53848e-01,
-3.41207e-01,-1.52812e-01,3.16526e-01,-3.29397e-01,-2.14947e+00,1.69026e-01,-6.71404e-01,3.30241e-02,3.00353e-01,-1.97701e-01,-1.49184e+00,1.78315e-01,-6.22897e-02,-3.53225e-01,-3.40369e-01,-4.18767e-01,1.73749e-01,-3.29148e-01,3.71472e-02,3.78682e-01,2.53191e-01,7.76396e-02,2.71269e-01,1.92425e-01,3.69990e-01,
1.68472e-01,2.07095e-01,1.82848e-01,2.80661e-01,2.94003e-02,3.09314e-01,-9.15058e-02,-2.23973e-01,2.31115e-01,-2.79182e-01,2.54533e-01,2.80492e-01,1.46028e-01,7.04365e-02,5.34297e-02,-6.53746e-02,-1.48738e-01,4.76610e-02,4.04206e-01,-3.64504e-02,2.52680e-01,-1.90768e-01,-3.30117e-02,-3.12556e-01,1.55613e-01,
-2.82850e-01,3.44825e-01,-1.78644e-01,2.00496e-01,-1.22547e-02,-2.05275e-01,-1.13337e-01,2.13450e-01,-1.91394e-01,-3.00392e-01,-6.62375e-02,-1.37891e-01,1.15871e-01,4.24856e-02,1.23329e-01,-2.44710e-01,2.01093e-01,1.81702e-01,-2.25266e-02,1.75856e-01,1.93868e-01,3.16357e-01,-2.43409e-01,8.05022e-02,-1.88876e-02,
-2.65564e-01,-2.18894e-01,2.91489e-01,3.12204e-01,-5.96288e-02,-2.08671e-01,-1.44638e-01,-2.44454e-01,1.90054e-01,1.72506e-01,8.31405e-02,3.56274e-02,5.31131e-02,2.97089e-01,2.40434e-01,1.07792e-01,1.02876e-01,-2.34927e-01,1.22956e-01,1.19245e-01,1.46585e-02,1.80870e-01,-1.43860e-01,-5.20262e-03,-1.13782e-01,
1.95753e-01,-1.03718e-01,-1.63961e-01,-2.63167e-01,4.75525e-02,-5.25437e-02,9.26641e-02,2.04945e-01,-7.48686e-03,1.53686e-01,2.40926e-01,1.21917e-01,-2.01985e-01,-2.19273e-02,-1.92768e-01,1.15901e-01,3.62332e-02,-6.60260e-02,-2.07805e-01,1.97930e-01,2.10757e-01,-4.07547e-01,2.68246e-01,9.80078e-02,1.71851e-02,
6.93815e-02,7.75276e-03,-3.94813e-02,2.88577e-01,2.14761e-01,5.93841e-04,1.00934e-01,-9.35071e-02,2.46589e-01,-2.86190e-01,-1.06084e-01,2.02218e-01,-1.69452e-01,6.35115e-03,1.79871e-01,-4.41376e-02,2.55085e-01,2.43092e-01,-2.77348e-01,1.08521e-01,-2.73520e-01,-2.21024e-01,-2.45798e-01,-2.71060e-01,-1.33574e-01,
2.37090e-01,-4.23989e-01,-2.92900e-01,1.10943e-01,-2.64613e-01,-2.01877e-01,2.52155e-01,9.21034e-02,-1.38577e-01,-2.90841e-01,1.31126e-01,3.31409e-01,-9.64490e-02,-1.06927e-01,2.96421e-01,-1.45973e-01,1.88960e-01,-1.47780e-01,1.10193e-01,-7.12088e-03,-3.41420e-02,-3.24092e-01,9.12927e-02,1.75517e-01,-2.65331e-01,
1.18547e-01,1.26447e-01,-4.67237e-02,-7.59184e-02,-9.49469e-02,-3.93535e-02,3.95535e-02,-1.47406e-01,-2.89794e-01,2.62278e-01,-1.00044e+00,1.01546e-01,1.85117e-02,1.04652e-01,-8.30955e-02,-1.12254e-01,1.36694e-01,-2.90831e-01,3.42814e-01,6.27466e-01,1.12066e-01,-3.17908e-01,-2.20865e-01,-2.20108e-01,-3.90050e-01,
2.80956e-01,-2.63815e-01,-3.93437e-02,-6.33569e-02,-5.52565e-02,-2.88188e-01,2.06544e-01,-2.43205e-02,2.72261e-01,-2.68801e-01,3.22155e-01,1.76821e-01,1.86603e-01,1.03929e-01,-2.97200e-01,-8.40861e-02,-2.32490e-01,9.27623e-02,1.22288e-01,-2.76159e-01,3.37402e-01,-2.64823e-01,1.22878e-01,3.22659e-01,9.64922e-03,
3.11838e-01,-2.83049e-01,-2.38193e-02,-5.92591e-02,5.50530e-01,-3.11029e-01,-1.08663e-01,-1.34365e-01,1.59213e-01,-4.42430e-03,-4.69078e-03,-1.59783e-01,-1.37333e-02,-2.28247e-01,-2.70192e-01,3.47001e-01,-2.01733e-02,2.61938e-01,-3.33221e-01,-1.12723e-01,-2.50279e-01,-9.22955e-02,-2.40778e-01,3.86536e-01,-3.06748e-01,
3.47394e-02,-1.89497e-02,-7.64081e-02,-2.15095e-01,-1.02582e-01,3.30029e-01,1.94562e-01,-3.16725e-01,3.21180e-01,-2.78374e-01,1.18716e-01,1.40091e-01,1.36284e-01,2.21857e-01,1.32946e-01,-3.05585e-01,5.14964e-02,2.74837e-01,-3.21458e-02,-6.45184e-02,-2.17617e-02,6.20436e-02,-4.83415e-02,7.26023e-02,-1.85128e-01,
-1.37726e-01,-3.38643e-01,1.76099e-03,4.62824e-02,-2.26942e-01,-1.67237e-01,3.34781e-01,-4.63176e-02,-8.42234e-02,2.66568e-01,-3.43519e-03,-1.01146e-01,-2.89440e-01,3.57231e-02,1.88088e-01,-2.03912e-01,2.18305e-01,-6.09386e-02,-9.21734e-02,-1.48341e-01,5.99644e-02,2.04832e-01,2.77372e-01,-1.00811e-01,-1.13002e-01,
-8.26938e-02,-1.15520e-01,-2.35980e-01,-2.31088e-01,-3.37889e-01,-1.74048e-01,1.99918e-01,-3.15224e-01,2.07369e-01,2.60619e-01,1.78938e-01,4.75191e-02,3.31966e-01,-2.40053e-01,-1.72417e-01,1.69787e-01,1.70258e-01,1.15838e-01,-3.01490e-01,3.87058e-02,1.91409e-01,-2.60277e-01,-1.49907e-01,2.25005e-01,-1.30754e-01,
1.63090e-01,-2.10851e-02,2.81867e-01,-2.58631e-01,-9.36397e-02,-2.10176e-01,2.06602e-01,1.75554e-01,-3.29882e-01,4.04648e-02,2.50621e-01,2.65342e-01,1.43149e-01,1.19917e-01,-4.86356e-01,-3.00051e-01,-8.50728e-02,-1.66985e-01,-1.31291e-01,3.49736e-01,-2.67720e-01,-7.81404e-02,-2.69082e-01,-1.31942e-01,6.69983e-02,
2.37897e-01,-9.55088e-02,1.86664e-01,-5.27182e-02,-6.75674e-02,-3.16813e-02,-1.85923e-01,-2.81927e-01,2.74847e-01,2.26662e-02,3.80355e-02,2.25510e-01,-7.94808e-02,4.55214e-02,2.13678e-01,3.17857e-02,2.04054e-01,-1.53953e-01,4.33104e-01,1.16472e-01,-1.61282e-01,-3.16485e-01,-4.63914e-02,-2.51440e-01,-2.92798e-01,
-3.13175e-01,8.77671e-02,-9.13938e-02,-8.60085e-02,-3.16792e-01,-3.14675e-02,-2.57056e-01,3.18350e-01,-7.97207e-02,-1.58590e-01,1.04526e-01,-1.49768e-01,-9.58747e-02,1.18483e-01,-1.74093e-01,-3.31285e-01,2.88954e-01,1.39969e-01,-2.16086e-02,3.22564e-01,5.56358e-02,-2.50798e-01,-1.93490e-01,-3.45859e-01,-2.62033e-01,
-2.91821e-01,1.32485e-01,9.29280e-03,6.43592e-02,1.15522e-01,1.62113e-01,-3.64068e-03,3.47427e-02,-1.06483e-01,-1.78310e-01,-2.52645e-01,-1.86326e-01,-2.77752e-01,-2.71629e-01,2.25767e-01,5.73463e-03,2.05100e-01,2.54554e-01,8.12426e-02,-9.66990e-02,9.21589e-02,4.59279e-03,3.01287e-01,-3.81267e-01,-1.26957e-02,
-1.99417e-01,-4.23355e-02,1.10575e-01,2.73124e-01,-1.10155e-01,-1.68510e-02,-1.91975e-01,-9.37537e-02,2.88586e-01,-1.25274e-01,-1.73114e-01,-1.23540e-01,2.93434e-01,9.55625e-02,-2.28037e-01,1.18215e-01,2.42033e-01,1.80786e-02,-2.10643e-02,5.43187e-02,-8.00751e-02,-1.24116e-01,1.34562e-01,2.90567e-01,-1.00377e-01,
-1.67055e-01,4.25445e-01,8.17083e-01,-1.91071e-01,-4.30567e-02,1.07910e-01,2.99946e-01,-2.10019e-01,-1.37043e-02,1.30962e-01,-2.97909e-01,3.38098e-01,3.16155e-02,3.52960e-01,8.28844e-01,-2.28405e-01,1.00300e-01,2.86671e-01,1.69068e+00,5.07420e-01,-2.58209e-01,3.18748e-02,4.44507e-01,-5.64637e-01,3.66029e-01,
-2.46635e-01,-3.12629e-01,-2.13187e-01,1.29751e-01,-5.21722e-01,-2.90608e-01,2.98562e-01,-3.42146e-01,2.99950e-01,2.55320e-01,-5.52940e-01,-1.25076e-02,-1.07176e-01,-4.61402e-01,2.26959e-01,1.96363e-01,4.38880e-03,1.57154e-01,-8.20308e-01,-5.35980e-01,-1.97804e-01,-7.03067e-02,-7.46082e-03,7.79767e-01,7.52530e-02,
-1.67643e-01,-2.18421e-01,-3.30242e-02,-2.23802e-01,-3.88979e-01,1.06357e-01,5.41648e-02,4.96624e-02,2.73192e-01,2.98372e-01,-1.05420e-01,1.82654e-01,1.92079e-01,1.69346e-01,-1.07140e-02,7.91550e-02,4.47588e-02,2.01916e-01,3.69552e-02,-3.72560e-01,3.08744e-01,-8.85518e-02,-5.41399e-02,2.68891e-01,2.36194e-01,
1.09782e-01,-3.22541e-01,1.03916e-01,-2.43485e-01,5.81530e-02,-2.53664e-01,3.12538e-01,-2.97324e-01,-2.25939e-01,-2.17680e-01,-4.13525e-02,1.33320e-01,-1.66034e-01,2.48969e-01,-7.60173e-02,-5.27146e-02,2.45168e-01,-1.04785e-01,4.57962e-02,2.39942e-02,2.28138e-02,-6.38203e-02,-1.86828e-01,-8.64681e-02,-1.90879e-01,
3.00408e-01,2.63885e-01,-3.19594e-01,3.13475e-01,-1.69691e-01,-2.48362e-01,-8.51279e-02,5.49249e-02,-3.27213e-02,-2.22395e-01,2.85156e-01,2.08143e-01,2.35306e-01,-3.70378e-01,1.85471e-01,1.80751e-01,3.15660e-01,2.32347e-01,1.18901e-01,-3.13110e-01,9.31528e-02,-1.54579e-01,-5.27739e-02,6.67270e-01,2.95822e-01,
4.65534e-02,2.13631e-01,-3.16246e-01,6.98871e-02,-2.88953e-01,-3.37273e-01,1.90914e-01,-7.02212e-03,-5.08747e-02,-2.02790e-01,9.50513e-02,-1.74556e-01,-1.25148e-01,1.14944e-01,-1.16700e-04,-3.54215e-02,1.59011e-01,-2.81819e-01,-3.27990e-01,-1.74825e-02,-1.70585e-01,-3.27032e-02,-9.58170e-02,1.41039e-01,2.50847e-01,
-2.96254e-01,
1.20696e-01,
1.04539e-01,
1.45551e-01,
1.95676e-01,
1.04631e-01,
2.26369e-01,
-1.78419e-02,
2.05739e-01,
-8.63550e-02,
1.33232e-01,
-6.03104e-02,
-1.33154e-01,
-2.38282e-01,
8.99728e-02,
2.01348e-01,
-1.58179e-01,
4.30777e-02,
-2.06966e-01,
-2.45208e-01,
1.40931e-01,
2.04762e-01,
4.78404e-02,
-1.32111e-01,
-7.45367e-02,
1.46416e-01,-5.72532e-02,-9.98409e-02,1.47587e-02,1.28752e-01,5.76364e-02,-1.01255e-01,1.34065e-01,2.46891e-01,1.41018e-01,1.37222e-01,-3.30600e-01,-1.18736e-01,-2.34071e-01,-2.75441e-01,1.03127e-01,-1.78658e-01,-2.30200e-01,1.58058e-01,7.86123e-03,9.72893e-02,6.67031e-02,-1.67028e-01,5.32957e-03,7.89179e-02,
2.04425e-01,1.02726e-01,-8.42877e-02,-2.81999e-01,4.26036e-03,-2.70469e-01,-6.20913e-02,-7.59521e-02,-2.39053e-01,1.29056e-01,-3.88871e-02,-3.10805e-03,3.43283e-01,-1.71714e-01,6.30436e-02,2.71509e-01,3.44461e-01,1.51208e-01,-1.13108e-01,8.75157e-02,-1.03903e-01,-3.08436e-01,-1.71507e-01,-1.76408e-01,1.01869e-01,
3.36307e-01,-2.81059e-01,6.40934e-02,-1.84511e-01,2.07245e-01,-3.13187e-01,-1.66956e-01,7.41122e-02,3.35375e-01,3.45822e-01,2.91821e-01,-2.99992e-01,6.74552e-03,8.70779e-02,1.30363e-02,-6.88914e-02,-1.55667e-01,1.68150e-01,1.31444e-01,7.08228e-02,-2.33298e-01,-3.04530e-01,1.54966e-01,1.00555e-01,3.22055e-01,
7.95439e-02,2.49232e-01,-8.77580e-02,-3.29477e-01,-2.20376e-01,2.87333e-01,2.15543e-01,-2.74052e-01,-1.24824e-01,-9.52393e-03,-9.02867e-02,-2.17184e-01,-6.12123e-02,1.05659e-01,-2.10245e-01,2.00885e-01,2.80338e-01,2.99175e-01,-2.19807e-01,-5.15148e-02,2.77320e-01,1.35520e-01,1.31360e-01,-3.43724e-01,1.13046e-01,
8.38774e-03,-4.36353e-01,-2.49621e-01,-8.16331e-02,-1.27741e-01,4.93279e-02,9.57004e-02,-2.87612e-01,-2.02213e-01,1.27010e-01,2.00908e-01,-2.52311e-01,1.44100e-01,4.17596e-02,-5.23021e-03,1.98983e-01,-3.88119e-02,2.47490e-01,-2.52008e-01,-1.54331e-01,-9.06525e-02,-1.88315e-01,-2.48444e-01,-3.21772e-01,2.44529e-01,
3.43767e-01,-1.16463e-02,4.99516e-02,2.12685e-01,1.37839e-01,-1.62542e-02,-2.03928e-01,2.20824e-01,8.40279e-02,-1.47028e-02,1.98440e-01,-1.08042e-01,-3.07528e-01,2.34010e-01,-9.46753e-03,2.20371e-01,2.22970e-01,9.79252e-02,-2.06459e-01,-3.28418e-01,-3.04239e-01,-1.79185e-02,-4.93614e-02,2.46497e-01,7.70622e-02,
2.45691e-01,3.31738e-01,-1.27701e-01,8.23807e-02,2.20933e-01,3.05491e-01,-6.81982e-02,2.10684e-02,-1.62711e-01,-1.24612e-01,2.06701e-01,9.29470e-02,-1.81962e-01,-1.35120e-01,-1.32493e-01,-1.22715e-01,1.06303e-01,-1.53640e-01,-1.29252e-01,-2.86366e-01,1.28776e-01,-1.82058e-01,2.81218e-01,2.49936e-02,3.03451e-01,
-1.33997e-01,-1.03278e-01,9.41384e-02,6.68151e-02,1.07746e-01,-3.30753e-01,-3.18320e-01,2.24348e-01,1.63216e-01,-1.62056e-01,2.08617e-01,3.79189e-02,-2.67703e-01,-4.18417e-02,-2.18558e-01,-1.54303e-01,-2.14556e-01,-3.27446e-01,-7.42851e-02,-2.05487e-01,1.52570e-01,1.25286e-01,-2.10724e-01,1.12631e-01,-2.95021e-01,
-1.24170e-01,3.10477e-01,2.05098e-01,1.28364e-01,1.97312e-01,2.23807e-01,-3.10932e-01,-1.73896e-01,1.34821e-01,-1.28064e-01,-1.88889e-01,2.12362e-01,9.16169e-02,-4.22830e-02,-3.80267e-02,-2.83971e-01,3.84972e-02,2.65723e-01,7.39455e-02,-1.69831e-02,1.47547e-01,5.45440e-02,1.73600e-01,8.33549e-02,-2.41446e-01,
4.75687e-03,1.81279e-01,1.83954e-01,-1.38179e-01,5.93028e-02,-2.56402e-01,2.15262e-01,-2.38340e-01,2.69877e-02,2.72950e-01,-5.80791e-02,-1.48920e-01,1.43854e-01,8.03404e-02,1.96758e-01,2.31446e-02,-1.96988e-01,1.78761e-01,-2.95997e-01,-4.91094e-02,2.34303e-01,2.93126e-01,-2.90817e-01,6.68523e-02,-3.04860e-01,
-2.65132e-01,3.25597e-01,-2.74316e-02,-3.55546e-01,-3.62201e-01,-3.03105e-02,8.66275e-02,-1.75201e-01,2.10540e-01,1.29088e-01,-1.62470e-01,1.86768e-01,4.29478e-03,1.25095e-01,-1.64318e-01,-3.47377e-01,-6.12037e-03,-8.32665e-02,5.06414e-02,-7.47728e-03,7.63758e-02,-3.91456e-02,-7.57771e-02,-2.39718e-03,1.55808e-01,
8.07586e-02,-1.31364e-01,7.21904e-03,2.25995e-01,1.09638e-01,1.50178e-01,-2.86464e-02,-1.39868e-01,1.18410e-04,-5.49762e-02,2.34970e-01,8.62173e-02,-3.00082e-01,-3.20903e-01,1.52551e-01,-2.42286e-01,-1.56708e-02,3.17809e-01,5.67441e-02,3.19345e-02,-1.85596e-01,1.80797e-01,2.72085e-01,6.40332e-02,-2.02886e-01,
-2.68568e-01,2.13112e-01,2.32815e-01,2.49933e-02,2.00403e-01,-1.47137e-01,2.29657e-01,-2.87025e-01,1.71585e-01,9.27617e-02,-3.10786e-02,-6.95140e-02,-7.46302e-02,3.21323e-01,-3.37099e-01,-1.02680e-01,1.79173e-01,-2.29437e-01,1.09132e-01,-8.30557e-02,-1.92098e-01,-1.11725e-01,-2.43412e-01,1.44318e-01,2.10211e-01,
-3.09869e-01,-2.19645e-01,-2.11732e-01,7.69326e-02,7.92410e-02,1.99444e-01,-3.11942e-01,-1.09221e-01,-1.00141e-01,-1.39453e-01,1.90703e-01,-7.51769e-02,-1.61082e-01,1.77185e-01,1.56414e-01,9.71624e-02,1.21378e-01,-2.19128e-01,-2.52547e-01,1.18335e-01,2.23276e-02,-7.28469e-02,-3.08761e-01,1.31612e-01,1.33160e-01,
-1.42903e-01,-1.53948e-01,-2.99568e-01,-4.49807e-02,-2.71570e-01,1.31209e-01,1.79316e-01,-1.46306e-01,-1.02212e-01,-9.38874e-02,-1.83949e-01,-1.01230e-01,-3.22329e-02,-2.85478e-01,3.06306e-01,1.94392e-02,-1.81666e-01,9.13270e-02,-9.11951e-04,1.87210e-01,-2.20102e-01,5.83515e-02,1.67289e-01,2.45000e-01,8.38625e-02,
1.01142e-01,-4.04816e-02,-5.82232e-02,-1.11001e-01,1.59737e-01,-6.92236e-02,-2.00580e-01,1.28546e-01,-2.14605e-01,-3.44490e-01,-1.77091e-02,2.35906e-01,1.66896e-02,-4.61194e-02,3.32578e-01,6.76861e-02,2.75919e-01,1.85207e-01,-3.01197e-02,-1.26283e-02,1.31654e-01,2.03955e-01,-1.97801e-01,3.59561e-02,1.94460e-01,
-2.70669e-01,1.99460e-01,9.74450e-02,3.25522e-02,-2.52128e-02,-2.53032e-01,1.43441e-01,-3.38089e-01,7.11848e-02,-6.36854e-02,-3.10293e-01,3.22135e-01,-3.19749e-01,3.42528e-01,-7.70437e-02,3.26995e-01,2.09937e-01,2.52861e-01,2.69559e-01,-3.17035e-01,1.94552e-01,-2.40935e-01,4.52779e-02,-5.97332e-02,-8.37835e-02,
-1.64015e-01,1.01027e-01,-4.39053e-01,-2.20171e-02,2.07621e-01,-3.93004e-01,-3.00417e-01,-2.70723e-01,2.05573e-01,-3.32432e-02,-3.83035e-01,-1.53360e-01,2.83605e-02,7.01454e-02,-6.60060e-02,-8.63599e-02,2.79293e-02,1.82378e-01,2.55647e-02,2.36937e-01,-1.58332e-01,-1.76460e-01,3.29156e-01,-3.48142e-01,-2.64749e-01,
8.73617e-02,1.07873e-01,-1.95235e-01,-1.41541e-02,1.41813e-02,-1.02752e-01,-6.33391e-02,-1.92865e-01,3.71670e-01,-1.02434e-01,2.31405e-01,4.01072e-01,-2.09937e-01,-1.71368e-01,-3.31048e-01,-3.49303e-01,2.69235e-01,-2.51994e-01,-2.71367e-01,1.86217e-01,4.89174e-01,2.12328e-01,1.24354e-01,3.31570e-01,-1.20790e-01,
1.71111e-01,1.13432e-01,2.00580e-01,-3.41809e-01,-1.40529e-01,-2.42637e-01,-3.70039e-02,2.98101e-01,2.38547e-01,4.47094e-02,-7.79975e-02,3.27275e-01,3.04771e-02,-2.40832e-01,-4.44302e-01,4.50084e-02,1.14300e-01,-3.88718e-01,5.43901e-03,5.15448e-02,1.10824e-01,-1.34282e-02,3.02118e-01,-3.75948e-01,-9.61954e-02,
1.23827e-01,2.55412e-02,-3.80195e-04,2.37103e-01,-6.25818e-03,1.68939e-01,-1.35044e-01,-1.84386e-01,-1.23158e-01,3.95366e-02,1.46369e-01,1.46132e-01,-2.37631e-01,-2.05768e-01,1.10770e-01,7.27834e-02,-2.45842e-01,-1.12045e-01,2.68771e-01,1.90800e-01,3.11970e-01,2.35930e-01,2.23770e-01,1.45251e-01,-1.15583e-01,
-2.40460e-01,1.11862e-01,-4.19465e-01,9.41690e-02,-2.73329e-01,1.97034e-01,-4.07946e-01,1.31764e-01,-1.64641e-01,8.92026e-02,-4.46483e-01,2.54213e-01,3.06582e-01,-1.79716e-01,-8.19942e-02,-8.52663e-02,1.00670e-02,-3.26741e-01,2.99683e-01,-4.37673e-02,-2.42299e-01,-9.45061e-02,1.43498e-01,-1.02920e-01,2.38726e-01,
6.31664e-02,2.17607e-01,-4.11587e-01,-2.71635e-01,-5.42376e-02,8.15776e-02,-6.99174e-02,2.97375e-01,-1.30931e-01,9.43946e-02,-2.50350e-01,-3.23678e-01,2.29928e-01,7.17720e-03,3.86634e-01,2.97765e-01,3.79857e-02,-2.26747e-01,1.62087e-01,-7.04982e-02,3.45904e-01,-4.43870e-02,2.57072e-01,1.03836e-01,-2.54942e-01,
-2.69751e-01,-9.13150e-02,4.16153e-02,1.97891e-01,9.62241e-02,-3.37642e-01,2.01199e-01,2.15955e-01,-1.83553e-01,2.23321e-01,1.16706e-02,1.76708e-01,-1.33959e-02,2.98411e-04,-2.36881e-01,2.80142e-02,3.32344e-01,-3.09906e-01,5.05233e-03,2.26487e-01,1.36614e-01,-1.78423e-02,-2.07196e-01,-2.21454e-01,-2.79912e-01,
6.07845e-02,3.25204e-01,2.18643e-01,1.69706e-01,-3.46260e-02,1.03680e-01,1.58764e-01,1.20400e-01,1.88799e-01,2.91166e-01,-2.30237e-01,-7.97751e-02,-1.74784e-01,-1.55028e-02,-8.84013e-02,1.51265e-01,-1.69468e-01,-1.44650e-01,-1.94660e-01,-2.59704e-02,-2.08243e-01,-9.16545e-02,-8.81040e-02,-9.20006e-02,1.81788e-01,
2.85074e-01,
-2.88690e-01,
-7.94609e-04,
-2.15340e-01,
3.76881e-01,
-1.95817e-01,
-1.23767e-01,
-2.64798e-01,
7.44626e-02,
1.86889e-01,
2.08152e-01,
2.96521e-01,
-9.04020e-02,
7.74884e-02,
-2.36623e-01,
1.97596e-01,
-1.52192e-01,
4.52967e-02,
1.32175e-02,
1.74261e-01,
3.83671e-01,
1.50174e-01,
1.92720e-01,
-3.22090e-01,
-2.20836e-03,
4.62320e-01,-3.88344e-02,1.96125e-01,4.21380e-01,1.39948e-02,-3.13314e-01,-3.46094e-01,8.91143e-03,3.48658e-01,2.12898e-01,5.12239e-02,3.08803e-01,-3.95511e-01,7.38164e-03,3.93768e-01,1.71516e-01,-4.16777e-01,5.05234e-02,-4.54043e-02,8.32287e-02,-3.19758e-01,-2.85986e-01,2.29897e-02,4.28949e-01,5.42153e-02,
1.51109e-01,2.00457e-01,3.53785e-02,3.14078e-01,2.24172e-01,3.58613e-01,-1.44772e-01,2.29393e-01,3.32381e-01,6.82417e-02,-5.83790e-03,1.41897e-01,1.70072e-01,6.94948e-02,1.30371e-02,-1.06317e-01,2.58062e-01,4.48507e-01,-1.00736e-01,1.90102e-01,2.34606e-01,-2.19284e-01,-3.58727e-02,1.88773e-01,8.94822e-02,
4.79039e-02,3.12836e-01,1.58812e-01,1.56587e-01,1.13507e-01,-1.92207e-01,-1.55527e-01,-4.02324e-02,-6.41959e-02,2.50787e-01,5.62072e-05,3.13215e-01,1.76699e-01,6.85170e-03,-2.47125e-01,-1.57311e-01,6.88412e-02,-6.61943e-02,-1.00986e-01,-1.53560e-01,3.73128e-01,-1.00897e-01,-2.40828e-02,-2.46842e-02,5.14883e-02,
3.96570e-01,3.83818e-01,-1.26804e-01,3.29113e-01,2.00663e-01,3.99304e-01,3.94226e-01,1.15899e-01,1.45604e-01,-1.69699e-01,6.37072e-02,3.13050e-01,-3.74188e-01,-2.98567e-01,-4.32601e-01,3.17945e-01,4.00871e-01,-1.41171e-01,-1.07557e-01,3.23895e-01,3.86815e-01,-2.44534e-01,-5.05693e-02,1.08939e-01,2.02875e-01,
-1.15954e-01,4.23855e-01,-1.93892e-01,-1.73122e-01,4.28162e-02,-4.07886e-02,2.68147e-01,-1.10259e-01,-2.15454e-01,1.53765e-01,-2.18895e-02,3.51330e-01,8.89018e-02,2.23200e-02,2.66333e-02,2.37675e-01,-1.17958e-02,-4.16608e-01,2.44206e-01,-1.27134e-01,-1.56663e-01,4.69228e-01,-9.75380e-03,-2.76772e-01,3.04349e-01,
-2.47964e-01,
-3.48122e-01,
-4.37939e-01,
-5.67834e-01,
-1.63679e-01,
