// Neural Network File Format by Kyle Julian, Stanford 2016
6,3,5,25,
3,25,25,25,25,25,5,
0,
-56000.000000,-56000.000000,-3.141593
56000.000000,56000.000000,3.141593
-278.628049,0.000000,0.000000,-0.242819
112000.000000,112000.000000,6.283185,17.479225
-4.32604e-01,2.01606e+00,6.03930e-01,
-6.49820e-01,-1.02209e+00,-3.78404e-02,
3.64058e-01,1.46278e+00,-6.61060e-01,
-9.01074e-01,-6.66273e-01,1.78941e-01,
1.66676e-01,1.54341e+00,-3.44179e-01,
1.14151e-02,-5.95480e-01,-3.94300e-01,
1.84193e+00,-1.40412e+00,-4.20741e-01,
2.00753e-01,-1.41314e-01,6.61831e-02,
1.43249e+00,1.83563e+00,2.13757e-01,
2.11914e+00,-6.30886e-01,8.10141e-02,
-2.57787e-01,-3.42721e-03,5.95587e-02,
1.36328e+00,6.97405e-01,-1.79881e-01,
-8.59375e-01,-4.27831e-01,-7.47890e-01,
1.49358e+00,4.86970e-01,5.00510e-01,
1.85659e+00,-5.67359e-01,-1.20519e-01,
8.00009e-01,1.41022e+00,-2.05414e-01,
-5.27963e-01,1.92937e+00,-1.54650e-01,
-2.99003e-01,-3.31338e-01,1.86861e-01,
2.91176e-01,-1.18170e+00,-6.57342e-01,
-5.24810e-01,1.72682e+00,-1.70148e-01,
6.84262e-01,8.07138e-01,-6.69546e-02,
-2.23049e+00,-1.05912e+00,1.11979e-01,
9.14781e-01,-3.66744e-01,-6.24053e-01,
-2.14727e+00,-1.21758e+00,-1.94473e-01,
-3.59989e-01,1.74044e+00,-2.44015e-01,
2.47120e-02,
1.93188e-01,
-3.15759e-02,
2.14818e-01,
1.79336e-01,
8.34811e-02,
2.11708e-02,
-1.64358e-01,
1.72244e-01,
-2.03568e-03,
-2.24249e-01,
-3.72117e-02,
3.87466e-02,
1.76972e-01,
-4.67291e-03,
1.14334e-01,
2.24448e-02,
-3.38924e-01,
7.19686e-02,
2.10939e-01,
1.49505e-01,
-3.16400e-03,
-1.55461e-01,
7.88285e-03,
1.32472e-01,
-1.72658e+00,1.50215e-01,1.35696e-01,-1.50452e-01,-3.34399e-02,5.99991e-02,6.96189e-01,-3.34551e-01,-3.74211e-01,9.79454e-01,3.42951e-01,-2.20360e-01,-2.83908e-01,-4.82102e-01,5.65881e-01,3.51034e-01,-2.62609e-01,-1.95074e-01,4.21159e-01,6.23901e-02,-1.27928e-01,3.62897e-01,-5.44378e-01,8.39956e-01,-1.61697e-01,
4.49439e-01,-2.55774e-01,-4.49875e-01,-9.22425e-02,2.18729e-01,7.65385e-02,4.21879e-01,-9.20745e-02,-1.73927e-01,3.00397e-01,9.60088e-02,-3.03197e-01,-1.49615e-01,-3.20990e-02,4.51242e-01,3.21275e-01,-5.92660e-01,-3.29164e-01,-1.43846e-01,-6.93820e-02,-1.42806e-01,9.92740e-01,-4.66838e-01,1.34176e+00,1.98308e-01,
1.07610e-01,-3.92536e-01,2.84495e-01,-2.31722e-01,-1.86685e-01,-2.14028e-02,3.16690e-01,-1.70607e-01,1.98488e-01,7.01917e-01,-1.66295e-02,-3.05256e-01,-9.70516e-02,3.76742e-03,2.64340e-01,-1.83397e-01,4.69842e-01,9.83970e-02,-1.34785e-01,-1.49464e-01,3.76963e-01,3.82955e-01,-5.37376e-01,6.52517e-01,2.40170e-01,
-5.01626e-01,-3.25525e-01,2.81595e-01,1.69581e-01,1.00057e-01,5.33571e-01,-2.33375e-01,-3.01792e-01,2.26476e-01,2.35632e-01,1.68943e-01,3.15326e-01,-4.51465e-01,-1.75390e-01,-5.67789e-01,-3.01164e-02,-7.06872e-01,1.23597e-01,1.33532e-02,-2.00727e-01,-7.40484e-02,-9.29330e-01,-1.80539e-01,4.76470e-01,1.20575e-01,
-3.44975e-02,7.43039e-02,2.14109e-01,8.22811e-02,-2.92524e-01,-9.78361e-02,1.96773e-01,2.43493e-01,2.74625e-01,-5.81039e-02,-1.09767e-01,-3.20509e-01,-2.12642e-01,-9.18044e-02,-2.83210e-01,-9.95314e-02,-1.71172e-01,-1.76288e-01,4.62269e-02,-5.25869e-02,1.36385e-02,2.28477e-01,1.90181e-03,-6.64342e-02,2.77378e-01,
1.70149e-01,-1.62989e-01,2.21652e-01,4.72218e-01,6.40845e-02,4.31430e-02,1.28850e-01,2.31659e-01,-2.53161e-01,2.71847e-01,-3.26528e-01,-3.40481e-01,-5.39946e-01,3.55305e-01,3.57073e-01,-3.78846e-02,6.52147e-01,1.74553e-01,4.76337e-02,-1.40186e-01,-3.00046e-01,3.29398e-01,-2.15400e+00,4.24853e-01,9.20199e-01,
2.05185e-01,1.51579e-01,1.46335e-01,-5.03636e-01,2.49664e-01,1.31782e-01,5.68248e-02,1.43233e-01,1.36225e-01,2.13794e-01,-5.58437e-02,-3.76835e-01,-5.54317e-01,-1.50320e-01,-3.91058e-03,-1.82843e-01,-1.86147e-02,-2.72752e-01,1.10319e-01,-3.02385e-01,-2.23944e-01,5.44653e-01,7.37066e-02,2.26309e-01,1.32850e-01,
5.05474e-04,1.97130e-01,6.05531e-01,-2.87050e-01,2.59608e-01,-3.64450e-01,-1.98304e-02,-1.60858e-01,-6.30849e-03,-3.72622e-02,6.29884e-02,1.94167e-01,3.12348e-01,-1.19554e-01,-7.09711e-02,4.20294e-01,7.72684e-01,2.67232e-01,-1.98542e-01,-4.99054e-02,-3.34375e-01,1.10487e+00,8.67067e-02,-1.03250e+00,3.71546e-02,
2.73951e-02,2.41194e-01,7.51978e-01,2.00103e-01,8.26746e-02,-3.98199e-01,-4.49125e-01,1.32955e-01,1.15022e-02,3.55444e-01,3.24310e-01,-3.13258e-01,2.80527e-01,3.44920e-01,7.24879e-01,-1.22123e-01,9.78414e-01,-1.78461e-01,-5.42162e-01,1.70802e-01,-3.14854e-01,-1.85813e+00,2.59380e-01,-7.67682e-01,-2.52878e-01,
4.51729e-01,-2.56031e-02,-3.86165e-01,1.49140e-01,1.36516e-01,-9.90674e-01,4.53668e-01,9.07990e-02,-1.58281e-02,-4.09608e-01,-3.14849e-02,-1.74226e+00,5.31508e-01,1.00485e-01,2.39568e-01,-1.53130e+00,1.90249e-01,-1.91637e-02,-3.39774e-02,9.12327e-02,1.04137e-01,5.19327e-01,8.81269e-01,4.99906e-01,-1.10598e+00,
-5.19083e-01,-5.54704e-02,-1.45299e-01,-9.48018e-03,3.13526e-01,2.93646e-01,3.55291e-01,1.23715e-01,-1.81570e-01,9.36563e-01,2.58067e-01,-9.46357e-02,2.48501e-01,1.31804e-01,9.39456e-02,2.56658e-01,-1.34482e-01,2.12333e-02,-1.30698e-01,7.64539e-02,1.78723e-01,-1.51064e+00,-1.25167e-01,1.22458e+00,1.15987e-01,
-2.66952e-01,3.33043e-02,-9.58187e-02,-1.37121e-02,-3.92143e-02,1.44828e-01,2.89988e-01,-2.69489e-01,-2.93683e-01,-2.09620e-01,-1.63470e-01,2.91097e-02,-1.32694e-01,-1.97884e-01,-2.92359e-01,-1.77289e-01,1.79120e-01,-5.73983e-02,-3.15834e-01,1.20488e-01,-9.52338e-02,-2.39357e-01,-3.31073e-01,-1.65004e-01,-8.28361e-02,
-1.38991e-01,2.03995e-01,4.53577e-01,-2.08466e-01,-3.89217e-01,3.00558e-01,-2.92336e-01,9.31984e-03,-1.01392e-01,-1.29539e-01,2.89361e-01,1.39143e+00,1.59650e-01,1.97840e-02,-9.22285e-01,-2.50898e-01,-1.39284e-01,-1.99318e-01,4.40224e-01,9.46011e-03,-3.10682e-01,7.47458e-02,6.57016e-01,3.70282e-01,-4.04658e-01,
-1.54626e-01,-2.57226e-01,-6.60826e-02,2.18188e-01,2.09804e-01,-8.03269e-02,-3.52690e-01,-2.28764e-01,-1.90930e-01,-3.34300e-01,2.24346e-01,2.22017e-01,-6.91894e-02,-2.68606e-01,-2.06532e-01,-2.91669e-01,-7.11989e-02,1.04050e-01,7.33938e-02,-1.96435e-01,-3.56536e-01,-2.04599e-01,-6.16494e-02,-1.20930e-01,1.43566e-01,
-1.41171e-01,-1.77128e-01,1.73634e-01,-1.84521e-01,2.85053e-01,-1.74166e-01,-2.14693e-01,8.52463e-02,-1.78208e-01,8.92719e-02,-4.89879e-03,-2.91713e-02,-2.79515e-01,-1.14140e-01,2.36824e-02,-1.22337e-01,1.70493e-01,3.39121e-01,1.19086e-01,-2.17279e-01,2.29499e-01,1.25038e-01,-2.13701e-01,1.21275e-01,1.94373e-01,
8.05047e-01,-9.03663e-02,-1.60946e-01,-1.48814e-02,3.27498e-01,-7.91232e-02,-1.82563e-01,1.51952e-01,-4.40821e-02,1.22712e+00,-1.85705e-01,-4.94958e-01,-4.16143e-01,2.81557e-01,7.32500e-01,-1.07370e-01,5.36383e-01,2.13838e-01,-1.05315e-01,3.44705e-01,9.60534e-02,5.62058e-01,3.55105e-01,6.73976e-01,4.43945e-01,
-2.07013e-01,-1.01513e-01,-3.20576e-01,1.64357e-01,-4.29385e-01,1.58751e-01,1.04315e-01,-1.45992e-01,-1.90147e-01,6.09292e-02,-3.37651e-01,1.16242e+00,4.54221e-01,1.75344e-01,-1.05793e+00,-5.94456e-01,-1.42236e-01,3.02065e-02,7.75532e-01,-2.54573e-01,-3.09374e-01,-1.27765e-01,3.20286e-02,-6.54871e-02,-5.30121e-01,
4.11175e-02,-3.17825e-01,-1.39523e-02,-1.79250e-01,-1.66140e-01,-2.01217e-01,1.36150e-01,-1.03294e-01,-1.83743e-01,-2.84401e-01,-2.24688e-01,-2.73964e-01,-3.01059e-01,2.95809e-01,-2.96884e-01,2.62142e-01,1.45617e-01,-1.30645e-01,3.20088e-01,-1.36339e-01,-1.99205e-01,-8.50863e-02,-3.15778e-01,6.16871e-02,2.66695e-01,
-1.37520e-01,1.87140e-01,5.21504e-01,1.41292e-01,-1.82481e-02,2.96230e-01,-7.10786e-01,-1.47634e-01,-2.43361e-01,4.23236e-01,-4.19323e-02,7.40309e-01,-3.87724e-01,2.10315e-01,-3.08988e-01,-5.96049e-01,3.45201e-01,-2.13166e-01,3.86880e-01,-3.84276e-01,-1.27962e-01,6.91315e-01,2.14653e-01,-9.15750e-01,4.56549e-01,
6.33720e-01,7.72304e-02,1.10454e-01,3.23896e-01,2.16683e-01,-2.38358e-01,-7.18813e-01,-6.71667e-03,-1.69089e-01,1.39038e-01,-1.26531e-01,3.69686e-01,1.73745e-01,-2.81136e-01,-4.38318e-01,-9.09302e-02,1.67101e-01,2.06871e-01,-2.01570e-01,3.24610e-01,9.88964e-02,6.18471e-01,4.58523e-01,-4.54428e-02,6.17445e-01,
3.91716e-01,9.30961e-02,3.38629e-01,-3.47331e-03,1.96128e-01,-2.95143e-02,-6.40863e-02,1.25104e-01,-3.43175e-02,-2.21524e-01,-2.03315e-01,6.83372e-01,9.16908e-02,-3.78063e-01,2.99290e-01,-2.31629e-01,-3.88183e-01,3.99589e-02,4.63279e-02,-2.04146e-01,1.01578e-02,-2.84552e-01,-8.70200e-02,-3.62077e-01,-5.56517e-01,
3.68378e-01,-3.57161e-01,3.62466e-01,-8.84244e-02,-2.85948e-01,-2.58290e-01,-5.79673e-02,1.67835e-01,-1.90993e-01,5.82694e-01,-1.98140e-01,-5.85843e-01,1.34363e-01,7.09355e-02,-5.17704e-02,9.04294e-02,4.97655e-01,-1.65442e-02,2.42005e-01,1.42193e-01,6.60950e-02,-1.03798e+00,-2.86162e-02,1.08896e+00,2.49900e-02,
-2.22321e-02,3.18980e-01,-2.65938e-01,3.69276e-01,4.94428e-02,-1.61751e-01,7.76089e-01,-2.04347e-01,-3.28776e-01,-3.61547e-02,-2.25390e-01,4.38315e-01,-4.59562e-02,-1.96456e-01,3.50948e-01,-3.43174e-01,-4.93633e-01,1.64265e-01,2.70921e-01,-2.46225e-01,-2.47311e-01,8.40691e-01,-7.49519e-01,6.98830e-01,-6.84311e-02,
2.80089e-01,-1.95461e-01,1.44165e-01,7.19083e-02,2.07833e-01,-4.67029e-01,1.18394e-01,3.41449e-01,2.87054e-01,-9.50043e-02,-1.74227e-01,-2.50506e-01,-4.00823e-01,-2.79115e-01,3.92878e-01,-5.81362e-02,2.32956e-01,8.34338e-02,-4.54375e-01,-2.68816e-01,-5.72692e-02,1.79521e-01,-1.77817e-01,5.37193e-02,-2.57383e-02,
1.04574e-01,-1.77305e-01,-3.90574e-01,-2.83599e-01,-1.01729e-02,-3.25891e-01,2.42123e-02,-2.69601e-01,-1.86481e-02,2.18065e-01,2.76399e-01,8.88740e-02,1.88869e-01,-2.39484e-01,-1.94573e-01,4.48321e-02,1.05565e-01,-2.45795e-01,2.79165e-01,2.91523e-01,5.45443e-02,5.41563e-01,-3.31566e-01,5.68827e-01,-1.46654e-01,
1.71579e-01,
8.76582e-02,
-4.93034e-03,
2.19490e-01,
-3.19084e-01,
-2.61653e-01,
1.35863e-01,
1.54096e-01,
9.04149e-02,
-1.57306e-01,
-7.49266e-02,
1.77514e-02,
2.43478e-01,
1.12819e-01,
-3.63717e-01,
-9.01392e-02,
2.65424e-01,
-2.08976e-01,
-5.68902e-03,
-1.79297e-01,
1.67438e-01,
7.83416e-02,
6.62704e-02,
2.37139e-01,
1.61514e-01,
-2.79061e-01,-1.42826e-01,-4.16756e-02,5.90568e-02,-2.16895e-01,-2.87702e-02,-1.15268e-01,-3.35268e-01,-1.17566e-01,1.43087e-01,5.35579e-02,-2.66753e-01,-1.15280e-02,2.37027e-01,-1.17551e-01,-2.84740e-01,6.84386e-02,3.25198e-01,-1.90733e-01,3.40123e-01,-9.00415e-02,2.19596e-01,1.29001e-01,-1.99626e-01,1.08782e-01,
-6.33939e-01,-4.41497e-01,-8.05000e-01,-1.55604e-01,-2.39557e-01,-3.70863e+00,5.56111e-02,3.26256e-01,3.59357e-01,9.80683e-01,-4.85299e-02,-3.25839e-01,3.56491e-01,-3.29169e-01,2.88098e-01,2.31025e-02,-2.17904e-01,-2.56095e-01,-3.26103e+00,1.27832e-01,3.87300e-01,-1.32087e-01,-1.51763e+00,2.04996e-02,1.71531e-01,
-3.18724e-01,-9.63881e-01,6.01386e-02,1.73688e-01,-2.73745e-01,-1.56885e-01,-2.30358e-03,1.66805e-01,-2.80027e-01,-1.62536e-01,2.16818e-01,1.00066e-01,5.58368e-02,-5.40775e-02,1.18742e-02,-7.60963e-01,-3.43271e-01,-2.08216e-01,-1.53037e+00,-1.82575e+00,-9.16581e-02,-1.77658e-01,-3.87660e-01,-1.50574e-01,5.81074e-03,
3.39486e-01,-6.17879e-02,-2.09094e-01,2.97028e-01,6.93147e-02,-1.87343e-02,1.36242e-01,-1.92178e-01,7.13174e-02,-3.93656e-02,2.08394e-01,2.24398e-01,-2.59029e-03,-1.38235e-01,-3.64279e-02,1.66779e-01,-2.09474e-01,-3.15035e-01,9.38765e-01,7.45262e-01,1.90301e-02,-1.27300e-01,5.53501e-01,1.18243e-01,1.09736e-01,
-2.56314e-01,5.53298e-02,-1.08846e-01,-3.31186e-01,-1.01353e-01,7.56805e-01,-4.28324e-01,3.15174e-01,1.12610e-01,-5.32440e-01,5.26395e-02,1.42825e-01,-3.08158e-01,1.89518e-01,-2.22018e-01,-3.33634e-01,-8.34385e-02,1.10539e-01,-9.57778e-02,-8.91782e-01,3.59026e-01,-3.51232e-02,2.14689e-02,2.05241e-01,-6.90353e-02,
-4.78412e-01,-4.53400e-01,5.35743e-01,2.69741e-01,2.89788e-01,-2.18332e-01,-1.19251e-01,5.22309e-02,1.83165e-01,-3.00418e-02,-6.70526e-01,-2.14243e-02,1.92047e-01,-2.02420e-01,1.58044e-01,-3.25581e-01,-8.93887e-02,2.51818e-01,-1.05009e+00,-1.28647e+00,-2.75291e-02,8.38474e-02,-3.93316e-01,-1.80443e-01,-1.19261e-01,
5.25246e-01,-3.66990e-02,9.69281e-03,1.24780e-01,1.63767e-01,-1.69720e-01,-2.67335e-01,5.39008e-03,-1.51447e-01,-7.99239e-01,-3.56647e-01,-1.43861e-01,2.41999e-01,8.56436e-02,-2.81001e-01,-3.45688e-01,2.44550e-01,-1.04977e-01,4.29548e-01,-1.19899e+00,3.83447e-01,-2.49096e-01,-2.25767e-01,-1.18070e-01,3.26303e-01,
-4.88116e-02,-6.33926e-02,-3.46980e-01,-2.96267e-01,-7.46880e-02,6.49290e-01,3.99907e-03,4.40260e-01,-1.34587e-02,8.23050e-02,-1.87978e-01,-2.87415e-01,2.90564e-01,2.40627e-01,1.09761e-01,3.32167e-01,-3.05590e-01,1.81328e-01,7.58876e-01,-2.21231e-02,-1.39692e-01,2.97972e-02,1.11784e-01,2.14692e-01,1.60915e-01,
3.77703e-01,1.90654e-01,-1.34358e-01,-4.68135e-01,6.63350e-02,-8.26634e-01,2.47244e-02,4.32453e-01,3.15612e-01,-2.51828e-01,1.39827e-01,-1.28353e-01,-1.43014e-02,2.08132e-01,-2.24587e-01,-2.26571e-01,1.44411e-01,6.52956e-02,-7.11801e-01,3.41048e-01,-2.90814e-01,-7.11474e-02,-8.17349e-02,-3.33089e-01,1.41713e-01,
-1.42024e-01,-1.61568e-01,7.65489e-02,-1.77444e-01,3.14109e-01,-1.01227e-01,6.95617e-02,-1.95498e-01,2.96880e-01,-7.71277e-01,-2.49243e-01,-2.89203e-01,2.29972e-01,-3.24082e-01,-2.68122e-01,2.89588e-01,-1.29733e-01,-2.98444e-01,-4.99693e-01,3.52985e-01,2.48879e-02,2.84358e-01,6.16930e-01,2.90150e-01,2.68169e-02,
4.92458e-01,-5.04845e-01,-6.17597e-01,2.99404e-01,-1.91187e-01,4.43974e-02,2.96717e-01,1.86493e-01,-7.74857e-02,-8.94465e-01,-5.50742e-02,3.07092e-01,-2.27958e-03,3.48393e-02,-2.62779e-02,2.44897e-01,1.53627e-02,1.25592e-01,-2.57214e+00,-2.57643e+00,3.80678e-02,-2.48808e-01,-3.97593e-01,-8.51224e-02,-2.93714e-01,
2.96411e-02,-5.27897e-01,8.93329e-01,-3.14352e-01,1.96034e-01,1.00960e-01,-2.82395e-01,-1.04970e-01,3.63957e-01,7.19224e-01,-3.06529e-01,-2.01727e-01,7.59229e-02,-1.25461e-01,-1.02170e-01,-4.95010e-01,2.64376e-01,-7.31204e-02,-1.18977e+00,-9.70076e-01,7.04120e-02,-8.39064e-02,-4.81156e-01,-2.11788e-01,-2.37610e-01,
-8.41559e-01,-8.02016e-01,6.33449e-01,2.96731e-01,5.36098e-02,-3.02092e+00,-2.75144e-01,4.23783e-02,3.90315e-01,3.82152e-01,-2.17547e-01,-1.85386e-01,2.01653e-01,-1.87397e-02,-1.47115e-01,-1.23282e-01,-4.63809e-01,2.00227e-01,-2.57751e+00,-5.32515e-01,1.63888e-01,-1.08172e-01,6.61572e-01,-2.61952e-01,-2.94320e-01,
-7.66426e-01,-3.94127e-01,5.34948e-01,3.39200e-02,-1.48062e-01,9.51275e-02,-2.29161e-01,-7.52505e-02,-3.55258e-01,-1.15321e+00,-5.51958e-01,-2.14580e-01,3.96050e-01,1.61929e-01,-1.02391e-01,-2.20496e-01,-5.17451e-02,2.87097e-01,9.55082e-01,9.42414e-02,-7.40180e-02,-2.11011e-01,-1.02106e+00,1.28881e-01,-1.08679e-02,
-1.20451e+00,-3.96139e-01,3.80950e-01,3.85513e-01,-3.48547e-02,-4.73660e-01,1.78164e-01,3.20646e-01,-3.45285e-01,1.14779e-02,-4.56936e-01,-3.23298e-01,-1.36774e-03,1.54836e-01,-2.40781e-01,-2.86889e-01,-2.49084e-01,1.90985e-01,8.13307e-01,-6.03058e-01,-1.52770e-01,-4.62513e-01,-1.31023e+00,-3.37662e-01,3.67512e-01,
-9.12191e-02,2.87873e-01,-2.57154e-01,-2.39136e-01,2.98931e-01,4.71180e-02,-4.22161e-01,-3.95510e-01,1.42444e-01,-6.59285e-01,1.86869e-01,5.77151e-02,-1.86543e-01,-8.47685e-02,2.17654e-01,-6.86117e-02,2.00345e-01,6.24592e-02,-5.21363e-01,4.67767e-01,-2.25605e-01,-3.74730e-01,5.29192e-01,2.95494e-01,6.39174e-02,
1.44122e-01,3.57355e-01,-1.55282e-01,-2.22441e-01,2.74063e-01,1.80153e-01,1.86418e-01,4.12418e-01,-3.13302e-01,1.46509e-01,-2.01290e-02,-2.63548e-01,1.38858e-02,-2.95216e-01,-2.63332e-01,-5.78940e-02,-7.45390e-02,-1.34390e-01,6.93121e-02,-5.70178e-01,1.78002e-01,-3.12624e-01,-5.43640e-01,-1.25558e-01,-4.04867e-03,
-2.91890e-01,-3.78116e-01,4.83714e-01,-4.19264e-02,1.93678e-01,1.48827e-01,-2.29952e-01,2.61785e-01,-2.12139e-01,2.80693e-01,1.55498e-01,4.16524e-02,-2.30230e-01,-6.11580e-02,3.27711e-01,-6.45233e-02,-2.54471e-01,2.55948e-01,4.70321e-01,-6.00897e-01,-2.09661e-02,1.35321e-01,1.77609e-01,-5.04726e-02,3.46402e-01,
-3.52188e-01,2.97299e-01,-3.35471e-01,-2.21196e-02,1.44011e-01,9.28078e-02,3.09067e-02,3.00743e-01,2.34523e-01,-3.94927e-01,-2.32769e-01,-2.85451e-02,-4.14390e-01,-3.03010e-01,3.63777e-01,4.84813e-01,-1.11952e+00,2.55177e-01,4.27347e-01,-6.49935e-01,-3.91353e-02,-1.99877e-01,3.28060e-01,2.35031e-01,-2.06301e-01,
-3.31573e-01,2.74070e-01,1.75753e-01,2.43562e-01,-2.29358e-01,1.88874e-01,-2.03677e-01,-3.15416e-01,-1.46563e-01,-2.21381e-01,1.73140e-01,1.16031e-01,-5.30316e-02,4.65705e-02,-1.95241e-01,-1.33862e-01,3.03755e-01,-2.39483e-01,-1.18172e-01,-1.13357e-01,-1.24096e-01,-8.72316e-02,-2.61590e-01,1.27007e-01,2.19138e-01,
-8.06595e-02,2.89879e-01,-4.09929e-01,-1.78044e-01,-2.25308e-01,-5.35809e-01,-1.30909e-03,6.76645e-02,-1.43573e-01,-1.47003e-01,-7.69155e-02,2.98932e-02,-2.81200e-01,-2.92589e-01,-5.11735e-02,3.15250e-01,2.04501e-01,2.53290e-01,4.49032e-02,4.95788e-01,5.83589e-02,3.76848e-01,1.22697e-01,-1.12950e-01,-3.14035e-02,
1.96661e-01,3.91729e-01,-5.44915e-01,1.08774e-01,2.78292e-02,-4.24325e-01,-2.18838e-01,5.41585e-02,1.82207e-01,-6.88948e-01,-1.76736e-02,-1.21834e-01,-1.94950e-01,-1.06385e-01,1.21655e-01,2.03483e-01,-1.36381e-01,2.17679e-01,-2.12146e-01,5.27841e-02,2.94842e-01,2.98941e-01,5.94805e-01,1.18450e-01,-1.87115e-01,
1.75415e-01,8.21933e-02,8.36710e-02,-2.01928e-01,-5.36179e-02,-9.03508e-03,-8.28725e-02,-7.60807e-02,-1.19829e-01,-5.92417e-01,-4.71685e-01,-1.00299e-01,1.32914e-02,2.49856e-01,-1.98643e-01,1.04721e-01,-6.75074e-02,-8.29689e-02,1.57649e-01,-1.19817e+00,-2.07620e-01,-4.25137e-01,-1.86509e-01,6.91975e-02,-4.09764e-01,
-8.11844e-02,4.42373e-02,-1.69082e-01,-2.00320e-01,-1.23529e-01,1.03166e-01,4.72324e-02,-3.03540e-01,3.89096e-02,-7.36271e-02,-2.15773e-01,2.88750e-01,-2.72635e-01,2.87684e-01,-8.07431e-02,-2.49064e-01,3.10125e-02,9.63260e-02,-1.10812e-01,-2.67941e-01,5.37874e-02,2.99251e-01,-1.80165e-01,2.81380e-01,-3.25669e-01,
6.05227e-02,-1.70411e-01,-9.25557e-02,-1.01043e-01,-1.91464e-01,-2.93302e-01,-7.87236e-02,1.29573e-01,1.45916e-01,-2.73903e-01,-9.86803e-02,1.36262e-01,8.73807e-04,2.20247e-01,-3.07777e-01,1.86268e-01,-9.98287e-02,6.87861e-02,-5.06058e-02,-2.08415e-01,2.34370e-01,3.78868e-01,2.81732e-01,7.35739e-02,1.76825e-01,
-1.47126e-01,
7.42043e-02,
2.24417e-01,
-6.98354e-02,
2.05355e-01,
2.83715e-01,
1.53637e-01,
-1.94581e-01,
-1.70116e-01,
-5.16727e-02,
1.87088e-02,
2.56236e-01,
2.73349e-01,
1.36302e-01,
3.06497e-01,
3.00850e-01,
2.82461e-01,
2.59622e-01,
-4.44380e-02,
-2.41439e-01,
6.19686e-02,
-1.22045e-01,
2.85943e-01,
-1.60100e-01,
9.94248e-02,
-1.15467e-01,5.89925e-02,-8.28752e-01,4.68172e-01,3.73857e-02,-4.43670e-01,4.55200e-02,-1.14067e-01,1.62423e-01,-1.32535e-01,1.42318e-01,-7.05426e-01,-2.61816e-01,-3.90620e-01,-5.04609e-02,1.60926e-01,1.52260e-01,1.71825e-01,5.83611e-01,-1.07200e-01,3.30740e-01,-5.55919e-02,2.93179e-01,2.32471e-01,3.14604e-01,
-1.28784e-02,-1.62177e-01,6.48962e-01,2.21513e-01,7.88560e-02,5.57735e-01,8.75873e-02,-1.12617e-01,1.07210e-02,-2.02925e-01,-2.65834e-01,2.02372e-01,3.19633e-01,6.77767e-01,3.25768e-01,-1.85277e-01,1.83570e-01,3.36267e-03,3.94327e-01,1.77673e-01,1.08476e-01,1.07214e-02,3.13646e-01,3.28491e-01,2.21563e-01,
-6.03607e-02,-1.29271e-02,1.40688e-01,-2.40581e-01,9.12246e-02,-1.31367e-01,2.67437e-01,1.11265e-01,-2.48834e-01,-7.00098e-02,5.64146e-02,4.44541e-02,-2.53826e-02,2.01858e-01,2.18524e-01,1.74068e-01,4.95829e-02,-8.68627e-02,-1.34159e-01,-1.82790e-01,3.59358e-02,-3.24638e-01,2.36090e-01,2.05998e-01,1.57830e-01,
2.79447e-01,1.07121e-01,1.06351e+00,1.90095e-01,-2.44763e-01,-1.56657e-01,2.39875e-01,3.14210e-01,-7.48878e-02,-7.31185e-03,-6.53668e-02,2.09978e-01,-2.12029e-01,-1.04909e+00,-7.48470e-02,1.29705e-01,-3.12585e-02,2.73437e-01,3.46106e-01,-1.97412e-01,2.19351e-01,2.86088e-01,-3.54361e-01,1.36475e-01,2.45989e-01,
-5.23950e-02,-6.52406e-02,-2.42119e-01,2.02016e-01,-1.60843e-02,3.38840e-01,-2.11352e-01,-3.28151e-01,2.39147e-01,-1.31418e-01,-9.43336e-02,2.48595e-02,-1.46093e-01,1.99970e-01,1.86597e-01,-8.16940e-02,9.40942e-02,-1.55296e-01,3.16233e-01,-1.05078e-01,-5.54259e-02,-1.83627e-01,-3.14917e-01,5.39622e-03,1.90639e-02,
-2.86790e-01,4.26665e-01,6.79013e-01,-3.45572e-01,-2.46029e-01,1.75814e-01,1.08057e-01,1.73487e-01,2.66740e-01,-8.51607e-02,-7.92071e-01,3.41620e-01,5.55712e-01,-9.40748e-03,7.68270e-01,-6.16542e-02,1.68942e-01,3.65184e-01,-1.30790e-01,-1.13718e-01,-2.66173e-02,5.41404e-01,-2.21202e-01,3.07079e-01,1.04923e-02,
-1.99759e-01,8.59973e-01,1.09451e-01,-7.61660e-01,3.88734e-01,3.11682e-01,-1.38907e+00,-5.56010e-02,-3.15052e-01,-7.10706e-01,-5.91054e-01,1.87471e-01,8.02915e-01,9.74395e-02,1.01886e+00,-2.06397e-01,1.25066e-02,-1.36715e-01,6.34682e-01,3.13122e-01,2.78980e-01,4.81210e-02,-1.19936e-01,-1.20328e-01,-2.90188e-02,
-4.09310e-02,-1.03724e-01,-3.97684e+00,-9.12157e-02,-2.00298e-01,-4.09204e-01,-1.56406e-01,1.41115e-01,-3.72231e-01,2.12166e-01,6.55601e-01,-5.50279e-01,6.42227e-02,1.31892e+00,-2.05828e-01,2.77433e-01,-2.05466e-01,-1.30301e-01,-3.94425e-03,1.59560e-02,-1.17386e-01,4.02735e-01,6.55643e-02,-2.83409e-01,-3.11581e-02,
2.60605e-01,-1.44991e-01,2.83643e-01,-3.19674e-01,8.95645e-02,1.05206e-01,4.94693e-01,-2.58673e+00,-5.44361e-01,7.70406e-01,3.69737e-01,8.86104e-01,1.67336e-01,-2.05799e-01,5.88815e-01,-5.63767e-01,-2.91337e-01,-2.93421e-02,-6.23655e-01,-2.56896e-01,-3.37057e-01,4.02394e-01,1.48756e-01,-3.32926e-01,4.29056e-02,
5.34682e-02,4.44355e-02,-7.56496e-01,1.41894e-01,1.63517e-01,-1.96105e-01,-2.80873e-01,-5.48315e-02,1.36650e-01,-3.03834e-01,-1.28740e-01,-2.41391e-01,8.47869e-02,3.22127e-01,-4.56738e-01,2.22235e-01,-1.44966e-01,1.83983e-01,2.63668e-01,1.59335e-01,3.13571e-01,-4.80948e-01,-1.34531e-01,-8.64383e-02,2.42300e-01,
-1.79387e-01,1.49989e-01,5.38067e-01,-7.97208e-02,-2.03928e-02,6.06758e-01,1.46003e-01,-7.04093e-01,3.33349e-02,1.88167e-01,-8.79412e-02,3.66393e-01,-1.19421e-01,-2.32084e-01,2.42903e-01,-2.24945e-01,3.04304e-01,-9.29128e-02,-1.25792e+00,-3.01854e-01,-1.69047e-01,6.23760e-02,5.68416e-01,2.62883e-01,1.46050e-01,
-6.67594e-02,2.76130e-01,1.07267e+00,-2.24112e-01,-6.67011e-02,2.65997e-01,-2.69266e-01,1.99508e-01,4.44662e-01,-1.93247e-01,-2.71400e-02,-6.07916e-01,-3.26206e-02,-9.72960e-02,3.12780e-01,1.87715e-01,-2.29476e-02,-4.42353e-01,2.52943e-01,1.03345e-01,-4.53002e-02,-1.92991e-01,2.25614e-01,3.05210e-01,2.47860e-01,
3.10230e-01,8.62053e-02,1.82943e-01,-2.51451e-01,2.53875e-01,-5.77944e-01,-7.80607e-01,1.96709e-01,5.70225e-01,1.11103e-01,4.95989e-02,-1.69301e-01,3.66602e-01,-2.49641e-01,-3.47640e-01,-2.10452e-01,-2.19064e-01,1.70486e-01,1.23578e-01,1.27117e-01,-1.60987e-01,-1.12414e-02,-6.52060e-04,1.15047e-01,-1.59091e-01,
-2.04862e-01,1.13213e-01,4.50816e-01,-6.24743e-02,1.50409e-01,9.66366e-02,2.10856e-01,2.51416e-01,-1.79859e-02,1.72870e-01,-3.60188e-01,6.06973e-01,5.27830e-02,-1.11622e+00,1.25016e-01,-5.96584e-02,3.47349e-01,1.96950e-01,-5.73098e-01,3.18412e-01,-3.40640e-01,-3.73788e-02,1.69122e-01,3.33100e-01,3.07271e-02,
1.86253e-01,-4.32483e-01,-1.07384e+00,2.18204e-01,-2.71996e-01,-8.59400e-02,-3.90386e-02,-1.29722e+00,-1.47123e+00,9.47539e-02,-3.35001e-01,-2.75152e-02,2.17999e-01,-1.11161e+00,2.48017e-01,-1.29474e-01,-5.20212e-01,4.19821e-02,-1.43862e+00,-1.67188e-01,-5.72543e-02,-7.24057e-01,3.82730e-01,-2.47010e-01,-3.62836e-01,
2.93305e-01,-3.83198e-01,4.60921e-01,1.66060e-01,-1.34151e-01,-7.75753e-02,3.91330e-01,-1.35486e-02,1.81155e-02,5.20954e-02,-2.57744e-01,8.11177e-02,-5.29733e-01,3.10493e-01,2.66516e-01,-2.87838e-01,-8.28936e-02,-2.29992e-02,-5.70264e-02,-6.15159e-02,-1.76830e-02,-2.14384e-01,-1.16325e-01,2.43360e-01,7.62964e-02,
-2.71387e-01,3.29417e-01,-2.08306e-02,1.33923e-01,-1.81641e-01,-1.13061e-01,-3.09129e-01,-1.28605e-01,-3.10755e-01,3.08498e-02,1.67811e-01,-2.21416e-01,-6.02849e-02,-2.75312e-01,1.50484e-01,-2.41074e-01,-2.38435e-01,-2.29575e-01,1.05235e-01,-2.83981e-01,-8.94333e-02,-2.59729e-01,2.54602e-01,-1.67639e-01,1.30003e-01,
-2.80881e-01,-9.76169e-02,5.79166e-01,2.12539e-01,6.25964e-02,1.75485e-01,-1.53651e-01,-3.08584e-02,-5.11808e-02,-1.52522e-01,2.37010e-01,-6.11223e-01,-5.70763e-01,8.36521e-02,-1.42332e-01,-2.18476e-01,-2.07058e-01,-2.92724e-01,4.19694e-01,1.12526e-01,3.88837e-01,-3.93165e-01,2.47335e-01,-5.70548e-02,2.22854e-01,
-3.21188e-02,-4.08728e-02,1.19003e-01,-8.60109e-02,1.90251e-01,-5.43403e-02,-2.77468e-01,-2.28323e-01,-9.05581e-02,-1.24940e-01,1.41285e-01,-2.19299e-01,3.26745e-03,2.55474e-02,-2.44692e-01,4.12427e-02,-3.56650e-01,-2.84585e-02,1.61425e-01,2.90719e-01,-2.08198e-01,-2.25892e-01,1.89023e-01,-2.81175e-02,-3.74627e-01,
3.13968e-01,-2.72434e-01,-5.51624e-01,1.91527e-01,4.85022e-02,1.75381e-01,1.65987e-02,-2.16165e-01,-2.64882e-01,4.20033e-01,2.91283e-01,7.51860e-01,-1.41659e-01,6.26491e-01,5.42565e-01,6.74110e-02,1.55034e-01,-1.72249e-01,-1.17243e-01,2.30070e-01,1.74004e-01,1.35223e-01,4.20804e-03,2.17289e-01,-3.00003e-01,
9.53826e-02,6.07916e-01,-2.80422e-02,-2.41720e-01,2.13953e-01,1.10391e-01,-3.45222e-01,7.01829e-02,-7.13283e-02,-8.75805e-02,2.33700e-01,-2.17200e-01,-1.37128e-01,-6.29067e-01,1.83640e-01,9.96095e-02,2.04081e-01,-3.03519e-01,-1.23274e-02,2.40261e-01,1.45270e-01,9.53399e-02,-1.47215e-01,1.43662e-01,1.06288e-01,
1.08688e-01,2.93534e-01,-2.32320e-03,-1.46701e-01,1.74882e-01,-1.72302e-01,2.83268e-01,3.01043e-01,1.03308e-01,1.22965e-01,-1.36962e-02,-1.41391e-01,6.41465e-02,-1.85342e-01,3.04996e-01,-3.11587e-01,1.93389e-01,1.10746e-01,-2.99391e-01,-2.15789e-01,-2.10441e-01,-2.14107e-01,-2.87281e-01,2.22032e-01,2.87655e-02,
-1.96611e-01,7.25565e-01,5.46378e-01,1.09035e-01,-7.90953e-02,3.08459e-01,3.16360e-01,-1.22201e+00,1.97747e-01,-1.44391e+00,2.05681e-01,3.93458e-01,4.64140e-01,4.87774e-01,9.94758e-02,-4.76562e-01,3.76868e-01,1.32661e-01,8.66202e-01,-2.11749e-01,-4.23113e-01,-2.79725e-02,-4.60626e-01,-5.86136e-02,-9.13592e-04,
2.83995e-01,-3.08858e-01,2.00548e-01,-3.39312e-01,4.17071e-01,2.59518e-01,2.33419e-01,-4.38787e-01,-2.01556e-01,-1.16945e+00,-5.96718e-02,1.72538e-01,2.23547e-01,-1.15987e+00,6.86318e-01,-9.46840e-02,5.44306e-02,1.36618e-01,-1.26271e+00,2.32714e-01,-1.73127e-01,-3.37809e-01,-5.26233e-02,8.14237e-02,-2.13355e-01,
1.23178e-01,-2.80325e-01,3.18907e-01,1.75336e-01,-1.86292e-01,1.35095e-01,4.01697e-01,-1.43677e-01,-2.92591e-01,1.02752e-02,-8.03874e-01,-4.96415e-01,-3.35133e-01,5.51672e-01,2.33936e-01,-3.90957e-01,8.22405e-02,-2.11817e-02,1.02223e-01,3.31023e-01,8.96705e-02,-7.35246e-02,-1.55479e-01,2.29414e-01,6.65651e-02,
-1.68108e-02,
1.16080e-01,
-2.64046e-01,
6.05009e-02,
-2.45992e-01,
1.19358e-02,
-7.29313e-02,
1.18763e-01,
1.74296e-02,
1.22921e-01,
-1.10575e-01,
2.25478e-01,
2.54090e-02,
2.15737e-01,
2.38752e-01,
1.85691e-01,
-1.05978e-01,
2.17107e-01,
8.46227e-02,
2.69638e-02,
2.32723e-01,
-3.58905e-01,
-2.97670e-01,
8.07090e-02,
2.75950e-01,
1.90218e-01,-2.30258e-01,2.83622e-01,4.74669e-02,3.31927e-01,-1.52369e-02,-4.88034e-01,4.61183e-01,1.20491e+00,-1.00899e-01,5.42952e-01,1.87527e-01,-1.06499e-01,2.28682e-01,7.82532e-01,-1.59152e-01,1.98935e-01,1.36648e-01,-2.19260e-01,-9.08856e-02,9.86638e-02,-1.44724e-01,-8.28400e-01,-1.57126e-01,-2.39790e-01,
2.80284e-01,2.02718e-01,-4.91053e-02,4.15441e-01,-2.21751e-01,-8.65293e-02,-3.20209e-02,-2.57859e-01,-3.56568e-01,1.89217e-01,-1.79977e-01,1.20786e-01,-2.16946e-01,-4.23735e-02,-1.54547e-01,1.93368e-01,3.53189e-02,-5.55450e-02,-1.04439e-01,-2.61328e-01,-1.94314e-01,-1.61117e-01,3.08871e-01,-2.24924e-01,1.05392e-01,
2.75239e-02,-2.33519e-01,1.63350e-01,3.01526e-02,2.61038e-01,8.85178e-02,3.10375e-01,-3.30356e-01,-1.43415e-01,-2.27246e-01,1.46928e-02,-1.82557e-01,-1.59148e-01,2.72893e-01,-1.96170e-01,2.77656e-01,3.07742e-01,-2.12088e-01,-8.07390e-03,4.18271e-02,-2.19228e-01,-8.78363e-02,-1.24800e-01,2.53952e-01,9.63148e-02,
-2.19762e-01,2.09641e-01,-3.21360e-01,2.01326e-01,1.28276e-01,3.60262e-01,7.08652e-01,3.70731e-02,9.02044e-01,-8.81349e-02,3.85429e-01,1.29107e-01,5.53885e-02,-1.06071e-01,5.20572e-01,-5.58953e-02,1.22555e-01,-1.24574e-01,2.53317e-01,2.99038e-01,1.44642e-01,-3.98727e-02,4.88208e-01,5.34558e-01,-2.66304e-01,
3.08090e-01,1.56213e-01,-1.82109e-01,1.82938e-01,-2.72662e-01,-1.29918e-01,6.06573e-02,-2.91635e-01,-6.92951e-01,4.50825e-02,2.82526e-01,2.67628e-01,-2.14809e-01,-7.77883e-02,-1.06370e+00,-5.48063e-02,1.20150e-01,3.94703e-01,1.21599e-01,-4.41864e-01,-5.86503e-02,-2.74859e-01,4.93111e-01,-6.92597e-01,1.91546e-01,
2.23373e-01,2.25433e-02,5.93930e-02,-2.48459e-01,1.28431e-01,1.16606e-01,9.36774e-01,2.94849e-01,-1.03031e+00,1.17007e-01,-4.45633e-01,-1.78380e-03,1.56828e-01,-4.20455e-02,-8.61958e-01,3.97176e-01,-3.19512e-01,8.67902e-02,-3.19217e-01,5.50764e-02,3.18201e-01,-1.95825e-02,5.72458e-01,-7.51249e-01,3.19084e-02,
-1.09863e-01,-1.98448e-01,-3.84561e-02,2.16908e-01,-3.46591e-02,-1.77100e-02,-1.62723e-01,-1.70490e-01,1.04708e-01,-7.76089e-02,-3.22504e-01,2.08731e-01,1.07634e-01,9.64201e-02,-6.77343e-02,-3.86081e-02,-3.17746e-01,2.03102e-01,1.44793e-01,-3.43287e-01,-3.63984e-01,6.51156e-02,2.84872e-01,-2.68933e-02,-3.47624e-01,
-8.35559e-01,1.39335e-02,-2.04190e-01,-1.37061e-01,1.57570e-01,2.78969e-01,2.63047e-01,9.38374e-01,-5.75815e-01,-2.23142e-01,2.50440e-01,1.09527e-01,-1.97187e-01,1.51707e-01,-2.51425e+00,1.28470e-01,-2.75956e-01,-7.61307e-01,3.27479e-01,-4.61830e-01,-4.12762e-02,-1.73277e-01,-2.46902e-01,5.47743e-02,-1.98498e-01,
2.28562e-01,5.89556e-02,3.08478e-01,6.74069e-02,-1.59849e-01,1.35783e-01,3.60337e-01,3.33054e-01,6.08665e-01,-1.69917e-01,2.02590e-01,1.50664e-01,-3.47506e-01,2.57903e-01,3.05109e-01,8.10828e-02,1.79178e-01,1.02192e-02,-2.94388e-01,-2.98346e-02,8.07718e-02,-5.36532e-02,-6.26224e-01,2.90981e-01,-7.78111e-02,
-3.26816e-01,-8.25413e-02,-3.65976e-02,5.95562e-02,4.71616e-02,-3.54226e-01,-2.04840e+00,-1.01777e+00,-4.15954e-01,3.36368e-01,5.52622e-01,-9.09666e-02,-1.55321e-01,3.17178e-01,4.49899e-01,-9.21960e-02,-1.88595e-01,2.11437e-01,3.29116e-01,-4.74607e-01,-2.98168e-01,-3.82450e-02,9.52380e-01,5.08100e-01,-1.30655e-01,
-6.95517e-01,1.31973e-01,-2.22211e-01,-1.91313e-01,5.97554e-02,1.29766e-01,5.28990e-03,6.71587e-01,3.50258e-01,-2.06571e-01,-3.82718e-02,2.18968e-01,-4.80097e-03,3.72200e-01,-9.27165e-01,-4.49383e-01,1.53772e-01,-2.30318e-01,1.14166e-01,-1.29508e-01,-2.19353e-02,1.16415e-01,-1.05444e+00,3.28196e-01,1.18387e-01,
-1.10871e-01,-2.44108e-01,3.99179e-02,4.01716e-02,-1.11673e-01,6.32476e-02,8.22264e-02,-3.29597e-01,-3.31052e-01,-3.27256e-01,4.46906e-02,-2.35019e-02,1.44492e-01,1.02029e-01,-2.41525e-01,-1.31459e-01,-2.02169e-01,-2.56152e-01,1.14726e-01,3.22543e-01,-3.42422e-01,1.76753e-01,6.88907e-02,1.96834e-01,-2.62931e-02,
2.53634e-01,3.14078e-01,5.74178e-02,-3.03652e-02,3.16917e-01,-2.19052e-01,-2.71408e-01,-5.19809e-02,9.27069e-01,-1.12960e-01,-6.83696e-02,2.47958e-01,-4.65576e-01,-2.09040e-01,-1.69765e-01,1.83869e-01,6.77406e-02,3.69410e-01,-1.73016e-01,-1.97982e-01,-8.40139e-02,-1.51599e-02,-7.73799e-01,-3.77743e-02,2.77673e-01,
6.51931e-02,-3.94260e-01,4.15342e-02,-2.59918e-01,-3.38536e-01,-4.40253e-01,1.89003e-01,-5.74183e-01,1.61798e-01,9.71655e-02,1.78233e-01,2.33390e-02,-4.36007e-01,2.29249e-01,4.89221e-01,-4.66190e-01,2.35622e-02,1.85980e-01,1.17024e-01,-2.65957e-02,4.20966e-01,-2.06330e-01,2.52432e-01,3.91592e-01,-5.15217e-01,
-2.59128e-02,-3.81832e-01,1.12251e-01,-1.89459e-01,-5.45071e-02,-3.53922e-01,-3.41290e-01,2.20212e-01,-1.63067e-01,-3.19217e-01,9.56811e-02,1.88119e-01,1.89175e-01,-3.17909e-01,-2.64579e-01,4.69520e-02,-2.24593e-01,-6.17653e-02,-3.15540e-01,-1.88019e-01,1.50408e-01,-4.37772e-02,2.88922e-01,-2.60500e-01,-2.51014e-02,
1.00164e-01,1.34649e-01,2.96874e-01,-1.64861e-01,-9.26072e-02,2.78549e-01,5.41722e-01,1.84406e-01,-6.21312e-01,4.69333e-01,-1.24974e-01,3.76353e-01,-8.48356e-02,-6.58600e-02,-4.44737e-01,4.07868e-01,-2.75735e-01,-2.67549e-01,6.41382e-02,-2.21730e-02,6.89750e-02,-1.50493e-01,3.86412e-01,-3.33270e-01,-1.74802e-01,
-1.27529e-02,2.67834e-01,1.43675e-02,6.78359e-02,-2.38687e-01,-3.17666e-02,-2.37353e-01,-9.65765e-02,2.74911e-01,-1.72361e-01,-1.85075e-01,-4.00076e-02,4.26238e-01,-2.32710e-01,-3.86926e+00,4.09771e-01,2.70055e-01,1.79905e-01,1.75676e-01,1.88139e-01,-1.81073e-01,3.06274e-01,5.35826e-01,3.28405e-02,-4.59179e-01,
-1.18392e-01,9.79175e-02,-2.27140e-01,-2.46240e-01,-7.26404e-02,-3.24201e-01,2.99630e-01,-5.94871e-02,4.37555e-02,-2.21864e-01,3.01759e-01,-1.85390e-01,-3.36019e-01,-6.53895e-02,2.44379e-04,-7.01502e-02,9.33540e-02,-3.25892e-01,2.79248e-01,4.87002e-02,-3.29083e-01,-1.53512e-01,-2.34170e-01,-4.49038e-03,2.45222e-01,
4.01046e-01,1.40331e-01,-1.12458e-01,1.12344e-02,-1.73018e-01,-1.73909e-02,-1.33020e-01,5.08742e-02,-3.02410e-01,9.99339e-02,-1.65873e-01,2.40137e-01,-2.08404e-01,-7.11759e-02,-2.89613e-01,-2.58689e-02,3.05044e-01,1.12508e-01,-2.89834e-02,-1.99892e-01,9.46359e-03,1.71573e-01,8.41155e-02,-3.26212e-01,-1.78741e-01,
1.72269e-02,1.51083e-01,3.52525e-02,2.55159e-01,8.45799e-04,2.39147e-01,-1.45020e-02,-1.70360e-01,9.25799e-02,-3.59303e-02,3.24199e-01,2.63732e-01,-8.29736e-02,-1.74398e-01,4.01363e-01,-3.16379e-02,-2.77158e-01,-1.05954e-01,5.65136e-02,-1.41263e-01,1.89814e-01,-1.78055e-01,-4.93632e-01,-3.84432e-01,2.11256e-01,
-4.21446e-01,2.59159e-01,-3.10326e-02,7.34368e-02,1.61854e-01,7.26624e-03,1.07298e+00,2.08806e-01,-4.21304e-01,2.56336e-01,-4.25730e-01,9.34934e-02,-2.76698e-03,3.99184e-01,4.05318e-02,2.57968e-01,-1.39193e-01,-7.62153e-02,-2.54648e-01,-2.36371e-01,3.23531e-01,-8.52897e-02,6.48409e-01,1.36655e-01,-2.51884e-01,
-1.23027e-01,1.01240e-01,5.57057e-02,-1.40413e-01,-2.97321e-01,-3.10815e-01,-6.92597e-02,-3.26562e-01,-1.32940e-02,-1.35340e-01,-7.65271e-02,-7.49901e-02,-1.69607e-01,-1.41295e-01,8.68309e-03,7.12916e-02,4.79850e-02,-2.59207e-02,2.09268e-01,2.94590e-01,1.71678e-01,2.34030e-01,1.33604e-01,-2.15794e-01,-2.85380e-01,
3.14661e-01,-2.28655e-02,-3.09291e-01,-4.27905e-02,7.78918e-02,-2.04017e-01,-2.88657e-01,-2.11292e-01,-3.60339e-01,2.83428e-01,2.29093e-02,-2.51815e-01,1.38883e-01,-2.32848e-01,3.07462e-02,-7.67316e-02,-3.45665e-01,-1.08228e-01,-8.48327e-02,2.07682e-01,-5.60161e-01,-2.95705e-02,-5.01242e-01,-1.73749e-01,-1.35817e-01,
2.57554e-01,-3.36416e-01,3.23055e-01,-1.22995e-01,4.68305e-02,-3.26736e-01,-2.98755e-01,2.05495e-01,2.43599e-02,-1.47694e-02,-5.99124e-02,2.91910e-02,3.26220e-01,-2.87482e-01,-3.32500e-01,2.58453e-01,1.25225e-01,1.37142e-01,-1.50326e-01,-2.70789e-01,-1.70835e-01,-2.50828e-01,2.59781e-01,3.31214e-03,-3.17837e-01,
1.31731e-01,-1.48666e-01,-1.24785e-02,-6.39901e-02,-2.61786e-01,-2.47032e-02,-4.41059e-03,-4.98574e-02,-4.60222e-02,7.87413e-02,2.06229e-01,-2.22580e-01,1.43503e-01,-3.55437e-02,-2.02730e-01,1.61332e-01,-2.25801e-01,4.08879e-03,-5.00821e-02,-3.03977e-02,-8.37890e-02,-4.15278e-02,4.66073e-02,-2.97746e-01,-4.01081e-02,
-1.47522e-01,
1.27495e-01,
-2.63630e-01,
1.01894e-01,
6.88075e-02,
2.19448e-01,
-1.88304e-01,
5.68052e-02,
1.73145e-01,
6.59158e-02,
-3.84662e-02,
3.38899e-02,
-5.29370e-02,
4.47159e-02,
1.33409e-01,
-2.69922e-01,
4.76158e-02,
1.23352e-02,
3.03899e-01,
-7.66749e-02,
3.76269e-01,
4.86450e-02,
1.66261e-01,
-1.82874e-01,
-5.64974e-02,
-1.09888e-01,2.60738e-01,2.95099e-01,-1.71094e-01,-1.66818e-01,1.53388e-01,4.05613e-01,-4.16397e-01,4.31875e-02,-9.56421e-02,-3.98577e-01,3.54949e-01,-2.87243e-01,-4.62522e-01,-1.62084e-01,3.50065e-02,-1.74978e-01,-7.85163e-02,4.17621e-01,6.34724e-02,-5.00045e-02,3.64366e-01,-2.35957e-01,-3.48661e-01,-3.85806e-01,
4.11003e-02,-9.76943e-02,2.01178e-01,-4.11791e-01,-6.85675e-02,2.36537e-01,-2.77193e-01,-3.20946e-01,8.06815e-02,9.88499e-02,-4.68109e-01,2.41991e-01,-8.53534e-02,1.73794e-01,3.24707e-01,2.14890e-01,7.11908e-02,3.88509e-01,-2.99881e-03,2.32292e-01,-9.88359e-02,9.05566e-02,1.77294e-03,2.55339e-01,-5.22875e-02,
1.30898e-02,1.86051e-01,2.31531e-01,-2.17597e-01,-2.74771e-01,2.74685e-01,3.00459e-01,-2.20459e-01,-1.09965e-01,-3.11448e-02,-4.79325e-01,4.38681e-01,-1.92124e-02,1.54010e-01,-1.92780e-01,1.04441e-01,-3.11423e-02,-1.18977e-02,1.75212e-01,5.07017e-02,-3.61262e-02,2.26690e-01,-1.35162e-01,-9.56302e-02,4.29481e-01,
1.74612e-01,9.91956e-02,-2.47686e-01,-1.40607e-01,-7.18758e-02,-3.62993e-01,1.95072e-01,-6.26036e-01,-3.21084e-01,-4.43122e-01,-3.53926e-01,4.99093e-02,6.17197e-03,6.23765e-01,-1.93020e-01,1.55121e+00,1.35317e-01,1.17893e-01,1.73109e-01,-2.74387e-01,-3.31249e-01,-2.65544e-01,-3.48672e-01,1.78133e-01,9.69688e-02,
-7.22550e-02,5.32521e-01,4.18721e-01,-1.28190e-01,-7.58829e-01,6.33250e-01,-1.48928e-01,-1.69611e-01,-3.08052e-01,1.96425e-01,-2.19224e-01,3.62415e-02,2.45256e-01,2.68630e-01,1.74734e-01,-6.08917e-01,-5.20367e-02,2.25639e-02,3.55309e-01,-9.90435e-02,2.62747e-01,-2.59419e-01,-1.39557e-01,4.56217e-02,1.52490e-01,
-2.35357e-01,
2.82261e-02,
-9.89152e-02,
4.12396e-01,
-4.49555e-01,
