// Neural Network File Format by Kyle Julian, Stanford 2016
6,3,5,25,
3,25,25,25,25,25,5,
0,
-56000.000000,-56000.000000,-3.141593
56000.000000,56000.000000,3.141593
-278.628049,0.000000,0.000000,-0.242819
112000.000000,112000.000000,6.283185,17.479225
-1.90723e-01,-2.16354e-01,-1.07595e-01,
-4.79554e-01,1.65214e+00,-4.38501e-01,
1.53250e+00,-8.30472e-02,-2.45777e-01,
2.09307e-01,2.22153e+00,9.97891e-01,
-1.52787e-01,1.51170e+00,4.86683e-03,
-1.76958e+00,-9.10812e-01,1.66622e-01,
8.96500e-01,-1.13676e+00,2.99869e-01,
-2.98608e-01,-1.54357e+00,-4.65870e-01,
-3.57646e-01,3.05567e+00,5.63430e-01,
1.47365e+00,-2.58387e-01,5.38379e-01,
-1.51025e+00,1.52326e+00,3.36894e-01,
-9.35977e-03,2.32056e-01,6.92565e-01,
-7.84079e-01,-1.55075e+00,3.31411e-01,
6.46675e-01,1.50530e+00,2.54568e-01,
2.50486e-01,-2.09790e-02,-3.53366e-01,
1.18813e+00,1.59845e+00,1.20593e-02,
-1.13193e+00,-1.37647e+00,-4.40776e-03,
-1.35543e-01,1.57737e-01,-2.21412e-01,
-2.49459e-01,-2.07167e+00,-2.67424e-01,
-7.29872e-01,1.06405e+00,-7.63466e-01,
-3.26546e-01,6.35572e-01,-6.46517e-01,
-1.68518e-01,4.13231e-02,2.04197e-02,
-3.03989e+00,1.47462e+00,3.71977e-02,
1.68546e+00,2.56573e-01,-2.48460e-01,
-4.51761e-01,1.60504e+00,-2.83569e-01,
-2.48563e-01,
3.21693e-02,
2.61259e-02,
5.77332e-02,
1.93577e-01,
-7.15287e-02,
-1.92947e-01,
1.63288e-01,
8.93774e-03,
1.62020e-01,
-9.24175e-02,
-1.82540e-01,
4.92208e-02,
1.51907e-01,
1.98372e-01,
8.23127e-02,
2.57908e-01,
-2.55671e-01,
7.71387e-04,
-1.76798e-01,
-9.96895e-03,
-1.60130e-01,
1.21821e-01,
5.62894e-02,
-5.03034e-02,
3.35137e-01,2.05204e-01,2.06641e-01,4.62022e-01,-1.19277e-01,5.80804e-01,4.27128e-01,4.04178e-01,-3.38954e-01,-2.65281e-01,6.51473e-02,8.77167e-02,-3.73391e-02,1.61834e-01,2.10533e-01,1.08474e-01,1.22658e-02,1.38393e-02,-1.71528e-01,4.56086e-01,1.97856e-01,2.89651e-01,6.57687e-01,3.55400e-01,1.01653e-01,
1.20990e-01,4.60630e-01,2.37872e-01,2.90948e-01,1.78461e-01,-6.17022e-01,1.77239e-01,1.20851e-01,-1.23522e-01,5.35726e-01,-1.78376e-01,2.61690e-01,3.19061e-01,1.49259e-01,4.30198e-02,3.26629e-01,-1.38066e-01,2.10433e-01,9.19364e-01,-7.46965e-02,4.18484e-01,-1.49867e-01,-2.72223e-01,-3.35508e-03,-3.88420e-01,
-1.19069e-01,-1.70207e-01,-1.28514e-01,-8.92619e-01,-1.92690e-03,-3.86222e-01,-6.55066e-01,2.29922e-01,-3.57278e+00,-1.07182e-01,1.21654e+00,1.19935e+00,1.92285e-01,-2.84190e-01,3.13966e-01,-1.98222e-01,5.56314e-02,2.08544e-01,-2.34335e-01,-4.66133e-01,-8.26183e-02,-1.80024e-01,-3.16033e-01,2.30025e-01,9.97132e-02,
-2.38191e-01,1.91278e-01,-1.32550e-01,4.71239e-01,3.96542e-01,4.53980e-01,1.63575e+00,-3.83829e-01,1.73883e-01,-4.17450e-01,-9.83973e-02,-5.03974e-01,2.58420e-02,-1.06025e-01,-8.76238e-02,2.89500e-01,2.35148e-01,1.65171e-01,1.48450e-01,4.56736e-01,3.73709e-01,-1.59005e-01,6.38440e-01,-3.88127e-01,-4.05159e-02,
-1.76179e-02,-3.95921e-02,2.03832e-01,-6.85325e-01,4.75334e-01,9.66500e-01,1.76453e-02,-8.06243e-02,1.19725e+00,-2.91880e-01,-8.05817e-01,2.96315e-01,1.02081e-02,-9.66440e-02,2.99162e-01,-2.43028e-01,4.94193e-01,1.42447e-01,7.31207e-01,-2.25451e-01,-4.61420e-01,2.74054e-01,-8.53956e-01,7.06777e-02,-4.23621e-01,
1.06382e-01,-1.39567e-01,-3.36899e-01,1.02749e-01,-9.91798e-02,-2.45374e-01,-3.24939e-02,-7.84328e-02,1.63318e-01,-1.32078e-01,1.76686e-01,4.30967e-02,1.88273e-01,1.25153e-01,2.34704e-01,-1.23471e-01,1.73894e-01,-4.12506e-03,-6.30489e-02,-3.28699e-02,1.75736e-01,3.24213e-01,-2.41554e-01,2.46769e-01,-2.00122e-02,
2.38823e-01,-4.70386e-01,4.26082e-01,2.76514e-01,1.40760e-01,5.54287e-01,-3.07979e-01,2.23754e-01,6.43809e-01,6.08514e-02,7.90928e-01,-9.21759e-01,2.92397e-02,4.58113e-02,1.40712e-01,-1.65097e-01,-3.41362e-01,2.35720e-01,1.36713e+00,-8.73317e-01,-4.31481e-01,2.39225e-01,-3.76600e-01,-4.11664e-02,-6.33626e-01,
-1.64435e-01,-1.24855e-02,1.26192e-01,4.75377e-01,2.98472e-02,7.96427e-02,1.68682e-01,-1.39082e-01,1.57904e-01,-2.38571e-02,-5.36534e-01,-8.88619e-01,-9.02224e-03,8.09576e-02,-2.72886e-01,4.84848e-02,-3.21191e-01,-2.17033e-01,-4.77150e-01,-2.54959e-01,3.49562e-02,-1.62767e-01,1.87740e-01,1.01450e-02,3.84488e-02,
-1.07327e-01,-3.52341e-01,2.82214e-01,-2.42421e-01,4.75460e-02,1.00836e+00,-3.37863e-01,7.31113e-02,6.42132e-01,3.78923e-01,3.32532e-01,7.30598e-03,-4.18165e-01,1.02095e-01,-2.99270e-01,2.04380e-01,6.95682e-02,-2.31954e-02,6.26330e-01,-2.12879e-02,-1.53366e-01,3.26518e-01,-4.68537e-01,5.64525e-01,-4.46290e-02,
2.11943e-01,-1.22630e-01,-4.86924e-01,-8.26997e-01,-2.23079e-01,-1.56183e+00,6.69685e-01,3.91636e-01,-2.96032e+00,1.21181e-01,-1.99184e+00,4.52286e-02,4.68629e-01,-2.45514e-01,4.18588e-02,-3.26923e-02,7.47000e-02,-2.73191e-01,7.52114e-02,-3.13824e-01,-4.99236e-01,2.37010e-02,3.41055e-01,-3.74185e-01,4.53033e-01,
-1.58156e-01,2.42400e-01,-1.20444e-01,1.09501e-01,-9.90370e-02,-5.59281e-01,1.04991e+00,2.07888e-01,3.30763e-01,-3.76676e-01,-8.17253e-01,2.53115e-01,1.27907e-01,-2.97641e-01,-2.47352e-01,-4.41694e-01,3.79220e-01,-5.92884e-03,5.79356e-01,-6.47669e-01,3.41416e-01,9.15075e-02,1.79831e-01,-4.18277e-01,2.78384e-02,
2.23732e-01,4.22825e-02,4.92321e-01,2.44568e-01,-7.32806e-02,8.11405e-02,-8.03959e-02,1.87868e-01,-1.43320e-01,2.09987e-01,-4.94570e-02,3.00938e-01,-2.55667e-01,2.09349e-01,7.93625e-02,-3.13314e-01,-3.23576e-01,1.09931e-01,4.32930e-01,3.69546e-01,-5.03593e-02,-3.24224e-01,-2.58509e-01,2.40846e-01,8.93495e-02,
2.21194e-01,3.38152e-01,4.02814e-01,-1.01485e+00,-5.55941e-03,1.01769e+00,-1.16993e+00,3.86611e-01,-3.35472e-01,-3.00165e-01,1.52832e-01,9.61259e-01,7.26437e-01,-1.31047e-01,1.09783e-01,2.23984e-01,-2.75553e-01,-2.14409e-01,-2.91358e-01,-7.92076e-01,1.45430e-01,2.54787e-01,-5.91134e-01,3.44955e-02,4.41078e-02,
-3.20973e-01,2.25717e-02,-1.25439e+00,-3.01112e-02,-2.24819e-01,-1.59203e+00,1.52126e+00,4.85715e-02,-6.43959e-02,1.81776e-01,5.12914e-01,6.48296e-02,6.28216e-01,-4.87758e-02,-1.83448e-01,-8.14873e-01,4.99658e-01,-4.75442e-03,-8.90893e-01,2.81691e-03,5.08323e-01,2.21949e-01,-9.39705e-03,-7.79007e-01,-2.53156e+00,
-1.83916e-01,4.08592e-02,1.51934e-01,3.90638e-01,-9.53577e-03,-7.42052e-01,3.66989e-01,1.79659e-01,3.66622e-01,-1.97011e-01,-6.27459e-01,-1.68260e-01,5.98427e-01,2.48055e-01,1.10054e-02,-4.17819e-01,-2.57381e-01,3.17764e-01,3.73240e-01,-3.67626e-01,1.69602e-02,-1.71021e-01,3.03896e-01,1.63308e-01,-4.56881e-02,
-2.85261e-02,-4.18480e-01,3.42895e-01,-2.67430e-01,-1.09007e-01,9.41616e-01,-8.85254e-01,-2.11796e-01,-2.30796e-02,3.54342e-01,2.13164e-01,-7.50279e-01,-6.16365e-01,2.44079e-01,-2.16497e-01,-2.71235e-02,-1.66409e-01,-3.05882e-01,3.01728e-01,6.02446e-01,-2.88011e-01,2.47507e-01,2.27995e-01,4.54234e-01,-7.53278e-01,
-1.48400e-01,2.08086e-01,-1.69299e-01,5.61256e-02,2.58566e-01,1.03305e+00,6.16580e-01,1.96523e-01,-2.45582e-01,1.04834e-01,-1.12740e+00,1.38211e-01,3.79897e-01,-1.59422e-01,5.12692e-02,3.07459e-02,-3.17728e-01,-2.25578e-01,-7.34691e-01,-6.91856e-01,2.98655e-01,2.26593e-01,-1.16932e-01,-3.18973e-01,3.02875e-02,
-1.01542e-01,1.62257e-01,-1.52628e+00,2.11116e-01,1.38808e-02,-7.52992e-01,9.57608e-01,3.43526e-01,-5.75140e-01,-1.12400e-01,1.37312e-01,2.74870e-01,2.09832e-01,1.05609e-01,2.70013e-03,-2.45745e-01,3.10205e-02,-1.90312e-01,5.80961e-02,3.26636e-01,2.14960e-01,3.17262e-01,-6.88613e-01,-1.11951e-01,-4.99158e-01,
1.43950e-01,-2.04146e-01,1.67642e-01,-5.25511e-02,-1.43727e-01,5.34700e-01,-1.49793e-02,4.34101e-01,2.56517e-01,1.48895e-02,-6.17473e-01,3.54878e-01,3.60478e-01,-1.47530e-01,3.78119e-01,-2.80712e-01,2.07200e-01,-3.08214e-02,2.58752e-01,-7.44104e-01,-5.35625e-02,4.61249e-02,-4.15292e-01,1.62128e-01,-1.80854e-01,
-2.20335e-01,-4.34770e-01,-2.46682e-01,1.56725e-01,-2.72288e-01,3.89314e-01,2.12397e-01,-1.07638e-01,8.59439e-02,-2.14172e-01,1.17074e-01,1.01239e-01,-2.34136e-02,-6.24284e-01,8.11771e-02,1.62530e-01,2.84184e-01,3.19629e-02,2.32145e-01,2.25010e-01,-2.50122e-03,3.28342e-01,3.11712e-01,-1.70151e-01,1.29187e-01,
1.49598e-01,-3.13820e-02,-2.64277e-01,-4.17393e-01,1.41269e-01,1.45435e-01,-5.36659e-01,1.84853e-01,5.28626e-01,2.42253e-01,-4.71337e-02,3.56401e-01,-1.93054e-01,-4.33644e-01,-2.63015e-01,1.72728e-01,-1.36989e-01,-4.37601e-02,1.57216e+00,5.62913e-01,-2.71301e-01,2.48025e-01,-3.04122e-01,2.12469e-01,1.92339e-01,
-1.89722e-01,2.60004e-01,2.17772e-01,-2.31656e-01,-3.13455e-02,-1.18807e-01,-5.20749e-02,1.72532e-01,1.40754e-02,-3.56178e-02,4.95399e-02,3.70788e-01,1.01147e-01,1.95406e-01,2.38697e-01,1.81411e-01,-1.54750e-01,-2.44477e-01,5.03823e-01,8.38550e-03,-1.14646e-01,-2.24336e-01,8.08019e-02,-2.49753e-02,7.28965e-01,
-1.31842e-01,-3.00112e-01,-3.59877e-03,6.05232e-02,-3.03691e-01,5.31005e-01,-5.89398e-01,3.53162e-01,4.91889e-01,2.61389e-01,9.85827e-01,-7.33303e-02,-3.35620e-01,-2.18378e-01,3.69355e-02,6.73164e-02,2.74888e-02,-1.06725e-01,1.61952e-01,3.41071e-01,2.47729e-01,-3.00680e-01,-4.28928e-01,4.82191e-01,-2.50008e-04,
-2.55341e-01,-3.57226e-01,-1.63982e-01,2.12497e-01,-5.02526e-01,-6.84151e-01,1.14993e+00,-2.30365e-01,-7.39322e-01,3.26620e-01,-9.12018e-01,5.45183e-01,1.85751e-02,-3.69230e-01,-3.23140e-01,-5.33862e-01,1.31447e-01,2.35964e-01,-6.56725e-01,-6.76128e-01,-5.19228e-01,-1.80352e-01,7.59920e-02,-5.46756e-01,-3.42246e-01,
3.05340e-02,9.09438e-02,-9.20704e-01,5.62159e-02,3.92566e-01,2.37359e-01,4.77332e-01,5.82642e-03,3.98422e-01,-4.03934e-01,-4.32135e-02,3.90245e-01,-6.66759e-01,1.38846e-01,-1.27228e-01,2.51299e-01,2.56241e-01,-2.15167e-01,3.30786e-01,2.17495e-01,-8.12813e-02,1.05982e-01,1.57927e-02,-5.39983e-01,1.47246e-01,
-1.20835e-01,
-2.92275e-01,
7.69529e-02,
-7.71708e-02,
-1.37912e-01,
-3.19586e-01,
1.09602e-01,
2.57463e-01,
-1.82365e-02,
4.56688e-02,
6.58676e-02,
1.67427e-01,
1.23303e-01,
-1.23609e-01,
1.37796e-01,
2.12421e-01,
7.63805e-02,
5.08131e-02,
-9.01558e-03,
-4.10448e-02,
1.54396e-01,
2.88601e-02,
-1.67632e-01,
1.20503e-01,
-2.29385e-01,
-3.77018e-01,-6.47925e-01,-3.63095e-01,1.04647e-01,-6.77155e-02,-3.09935e-01,-3.01724e-01,-1.91707e-02,3.95582e-01,-1.30168e+00,4.77484e-01,2.35099e-01,-5.34902e-01,-2.36136e-01,-2.61039e-02,4.01452e-01,-1.33533e-01,3.11899e-01,8.47442e-03,3.57999e-01,2.14956e-01,1.04139e-01,-5.81884e-02,-1.06289e+00,5.67464e-02,
1.16898e-01,-1.35890e-01,6.98348e-01,2.61375e-01,5.22716e-02,-2.33587e-01,1.80738e-01,3.94905e-01,-6.19341e-01,3.73348e-01,3.09240e-01,1.75853e-01,2.88578e-01,3.47825e-01,-3.90639e-01,2.57173e-01,-2.26188e-03,1.46569e-01,-2.33433e-02,1.69902e-01,-3.84267e-01,-1.85337e-01,8.14429e-02,2.65531e-01,1.00543e-01,
-3.36138e-01,-3.56580e-02,1.65682e-01,-1.48065e-01,-5.68984e-02,-3.39782e-01,-3.92880e-01,1.85357e-02,2.44117e-01,-4.62600e-02,-2.36272e-01,-1.75503e-01,2.12655e-01,-1.56489e-02,-4.08756e-01,2.76767e-01,-4.05008e-02,7.42713e-03,-1.46699e-01,9.25705e-02,-2.19634e-01,3.00525e-01,2.31277e-01,-9.86287e-02,-7.33263e-02,
-1.55647e-02,-1.04075e-01,-5.37427e-01,-1.10189e-01,-9.03675e-01,-1.33611e-01,-3.15399e-01,1.36972e-01,-1.51772e-01,-1.22225e+00,-3.81270e-01,1.85795e-01,4.02110e-03,-1.61110e+00,3.11875e-01,3.80207e-02,3.72823e-01,-3.26304e-02,-1.72952e-01,1.98798e-01,-2.04241e-01,-1.51848e-01,8.79676e-01,-8.47782e-01,-1.06650e-01,
1.27820e-01,1.35145e-01,2.34119e-01,4.61145e-01,2.19878e-01,-1.29804e-01,2.46537e-01,-1.74187e-01,6.06625e-01,-5.45517e-01,9.95730e-01,-2.43322e-01,-3.22382e-01,3.71257e-01,-1.69050e-01,-2.23088e-01,-1.64694e-01,1.26620e-01,-1.21853e-01,-3.57419e-01,1.24803e-01,1.46587e-01,-9.19640e-01,1.81160e-01,-2.69601e-01,
-3.19126e-01,-8.41366e-02,1.29162e-01,4.84973e-01,5.52860e-02,2.52300e-02,5.52019e-01,8.18623e-02,2.90454e-02,1.84438e-01,8.14145e-01,2.94872e-01,2.29380e-01,9.94433e-02,-1.08467e-01,1.81474e-01,8.97185e-02,2.38102e-01,2.43435e-01,2.77690e-01,2.87039e-01,3.12217e-02,2.35885e-01,3.24505e-01,5.35294e-03,
2.69955e-01,-5.00865e-01,-9.60796e-02,1.04812e+00,1.52349e+00,2.05708e-01,3.94245e-01,3.91379e-01,9.76276e-01,-2.06307e-01,1.03837e-01,1.45459e-01,-8.87529e-02,1.06238e+00,3.24246e-01,-2.20517e-02,9.01467e-02,-4.00044e-01,-4.06843e-01,1.67867e-02,-1.59720e-01,1.02734e-01,8.66583e-02,-4.49100e-02,-4.69487e-01,
-1.78858e-02,-7.05048e-02,3.18661e-01,-1.09587e+00,-6.29393e-01,-2.45865e-01,-7.14412e-01,-1.50155e-02,-9.68479e-01,3.90189e-01,-1.28816e+00,-2.35861e-02,2.29087e-01,1.64675e-01,2.57638e-01,7.43201e-02,-8.21018e-02,-5.32049e-01,3.39364e-01,-2.23103e+00,-1.43997e-01,-2.27906e-01,1.31348e-01,-3.49802e-01,6.39459e-02,
-1.73056e-01,2.66088e-01,9.00090e-03,-2.34661e-01,1.13505e-03,-1.49384e-01,7.92356e-02,-3.30131e-01,-1.86155e-01,-2.04575e-01,1.81092e-01,-2.87078e-01,-7.56884e-02,3.39866e-01,2.46410e-01,-2.33258e-01,8.71525e-02,-1.67646e-01,-2.74485e-01,2.24293e-02,3.09261e-02,-1.26847e-01,6.47130e-02,-3.38065e-01,1.92577e-01,
-3.28372e-01,-1.62599e-01,4.13961e-01,-2.42495e-02,-2.99025e-01,-7.34490e-02,-2.08999e-01,-1.68396e-01,3.53819e-01,8.50725e-01,3.71156e-02,3.09165e-01,-6.58171e-01,-2.26960e-01,-3.44394e-01,3.86989e-01,-6.57051e-02,-5.28367e-01,-5.77869e-02,-6.84254e-01,8.55663e-02,-1.73180e-01,2.59280e-01,-2.04412e-01,3.98104e-02,
-2.94423e-01,4.99076e-01,2.25454e-01,4.01449e-01,7.24881e-01,1.68485e-01,-1.51581e-01,-3.81938e-01,3.89224e-01,9.89030e-01,3.84374e-01,-2.22205e-01,3.10023e-01,-3.84161e-01,1.17582e-01,1.97041e-01,1.26119e-01,8.43372e-01,6.45716e-01,-3.63997e-01,-3.60985e-01,-2.16624e-01,-2.65645e-01,1.49042e+00,9.83507e-02,
2.31426e-01,1.96828e-01,-2.24517e-02,-4.72446e-01,4.54517e-01,-3.29770e-01,-3.66158e-02,2.23005e-01,-1.00751e-01,8.61783e-01,-2.03399e-01,-4.78178e-01,-2.80516e-01,4.39462e-01,2.44514e-01,-2.77263e-01,7.44413e-03,7.80543e-01,-3.22229e-01,5.49056e-01,2.26202e-01,6.00871e-03,5.43615e-01,2.10942e-01,4.40132e-01,
-2.54226e-01,-6.47618e-02,3.67679e-01,7.18469e-02,-5.78193e-01,5.68481e-02,1.98552e-01,-1.84906e-01,3.54192e-01,7.07012e-01,7.56152e-01,1.59659e-01,1.16669e-01,1.21563e-01,-1.24053e-02,-3.46305e-01,-4.14022e-01,-1.18604e-01,3.67039e-01,4.92645e-01,5.51458e-02,6.39022e-02,-2.24792e-01,7.86639e-01,2.63976e-01,
-1.58726e-01,9.85208e-02,2.05235e-01,2.13314e-01,1.33841e-01,-2.70608e-01,1.69109e-01,-3.36759e-01,3.90111e-02,-1.88063e-01,4.82329e-01,2.33466e-01,2.03430e-01,5.24235e-01,-2.98667e-02,4.74813e-02,-7.22711e-02,1.18853e-01,1.85076e-01,-1.81598e-01,-1.87999e-02,-5.46339e-02,2.29335e-01,-3.43069e-01,3.16315e-01,
5.57413e-01,1.89687e-01,-2.46981e-02,1.51210e-01,1.51377e-02,-1.99050e-04,4.26931e-01,-4.26008e-01,-1.24300e-01,2.54648e-01,8.69030e-01,-1.63351e-01,1.71270e-01,2.34243e-01,-2.39361e-01,-5.54174e-02,-2.88681e-01,1.11654e+00,-5.48371e-01,-4.26903e-01,-1.36216e-01,2.07149e-01,-3.89366e-02,3.26012e-01,-4.49039e-01,
-7.22927e-02,5.17983e-01,-2.55698e-01,-2.90435e-01,2.65047e-01,2.31841e-01,1.12118e-01,-1.69125e-01,-2.68279e-01,-1.16311e+00,-1.32051e+00,-2.26098e-01,-1.58511e-02,-1.92946e+00,2.84421e-01,-4.93219e-01,-7.45972e-02,1.50555e+00,3.56985e-03,2.53850e-01,9.16442e-02,1.10595e-01,2.93167e-01,-1.14359e+00,4.83976e-01,
3.05255e-01,-2.16688e-01,1.59667e-01,8.43290e-02,-1.37890e-01,-2.38182e-01,4.13745e-01,4.89036e-02,1.87352e-01,2.46875e-01,4.39272e-01,-9.94617e-02,7.57953e-03,-1.12273e-01,-3.26814e-01,1.55885e-01,2.50452e-01,7.53849e-01,3.85877e-01,-4.47783e-01,2.94473e-01,-2.37690e-01,-3.17006e-01,6.39399e-01,-9.22347e-02,
8.50736e-02,4.45784e-02,2.23574e-01,-1.61084e-01,-9.84058e-01,1.77747e-01,7.14491e-02,1.11541e-01,4.12578e-01,-6.40214e-01,-3.47700e-01,6.49170e-02,-1.35896e-01,-3.20787e-01,-9.16957e-02,-6.70059e-01,2.93618e-02,1.94604e-01,2.74502e-01,6.82775e-01,2.63946e-01,1.73480e-01,1.78699e-01,-8.30803e-01,3.23009e-01,
-2.40776e-01,7.35181e-01,1.12383e-02,-6.78016e-01,-2.22364e+00,-4.15272e-02,2.36185e-02,1.71624e-01,-6.00036e-01,3.67994e-01,-1.16784e+00,-3.16101e-01,6.92899e-02,-1.33916e+00,-1.57748e-01,-2.12082e-01,8.65950e-02,-3.36826e-01,1.30901e-01,-2.70571e-01,-5.74767e-01,-4.26171e-01,7.67257e-01,-9.55645e-01,2.63109e-01,
-4.94303e-02,-8.15970e-02,8.62173e-02,1.85610e-01,-2.00281e-01,-8.77135e-02,-2.87597e-02,-3.48873e-01,-2.39466e-01,-2.94591e-01,2.20403e-01,-3.21551e-01,-1.34969e-01,1.77457e-01,5.50943e-02,1.89161e-02,-3.43875e-01,2.04604e-01,-2.81382e-01,1.06736e-02,9.24489e-02,-1.34187e-01,8.15409e-02,1.92224e-01,1.11786e-01,
7.86257e-02,1.05075e-01,-2.54786e-01,-2.51654e-01,4.94564e-01,7.98706e-02,-2.54178e-01,2.35595e-01,-3.22059e-01,3.85583e-01,-6.31116e-01,4.39881e-02,6.47935e-03,6.49600e-02,2.96398e-01,-2.77558e-02,1.53676e-01,1.12369e+00,3.30305e-01,-3.29586e-02,-1.39045e-01,-1.16296e-01,2.25234e-01,-3.78407e-01,7.62383e-02,
3.13189e-01,-2.78754e-01,-1.37018e-02,-6.98426e-01,-1.93011e+00,1.71755e-01,5.87370e-01,-4.24739e-01,-1.00363e+00,-1.90129e+00,1.46080e-01,2.59477e-01,-9.57935e-02,-8.28562e-01,-8.19669e-03,4.01998e-01,-9.88162e-02,-2.94135e-01,-6.90791e-02,4.74061e-02,9.09926e-02,-6.50844e-02,1.38921e-01,9.97194e-01,3.82118e-01,
6.56906e-02,-3.44485e+00,-8.68511e-01,-4.25386e-01,-1.05499e-01,-2.82277e-02,-7.86229e-01,-2.48630e-01,-7.05308e-01,-9.18898e-01,-7.22013e-01,-1.07517e-01,-3.39107e-01,-5.48432e-01,-2.41540e-01,1.72090e-01,1.80631e-01,-2.57605e-01,-3.33571e-01,7.27336e-03,-1.43129e-01,-1.93463e-01,-3.79691e-01,-2.06658e+00,-1.13195e-01,
1.82057e-01,-1.35281e-01,1.41328e-02,2.60124e-01,-1.39277e-01,2.85749e-01,4.45589e-01,-7.06313e-01,-3.01784e-01,1.28455e-01,3.50750e-01,-8.87101e-02,3.15018e-01,2.83600e-02,-2.69528e-01,1.77872e-01,-7.99494e-02,-7.47784e-02,-3.89513e-01,-1.27197e-02,9.81846e-03,2.40210e-02,-4.45637e-01,3.28846e-01,1.39423e-01,
1.31349e-01,-1.01660e-01,9.23366e-02,1.70795e-01,4.97364e-01,2.71704e-01,3.60301e-01,-2.02540e-02,3.74632e-02,6.89727e-01,-3.69016e-02,-5.00467e-02,2.16323e-01,1.03472e-01,1.62885e-01,5.22274e-02,1.40006e-02,-6.63374e-01,-2.07742e-01,6.87522e-02,5.22468e-02,-7.94387e-02,-8.58140e-02,7.13454e-01,-5.20764e-02,
1.85446e-01,
-3.85083e-01,
-2.36852e-01,
1.83920e-01,
-6.11271e-02,
-2.27818e-01,
-1.72009e-01,
2.00372e-01,
-2.25158e-01,
-1.88806e-01,
1.58662e-01,
2.05794e-01,
3.59378e-02,
-3.76467e-01,
-1.39166e-01,
3.12444e-01,
2.37011e-01,
1.23288e-01,
2.26963e-01,
-3.75364e-01,
2.92473e-01,
-4.25689e-02,
2.83992e-01,
-6.07486e-02,
-4.57713e-02,
-1.64552e-01,7.39179e-02,2.91562e-02,-7.58214e-02,5.57907e-01,5.46787e-01,-3.82328e-01,1.72231e-01,3.12166e-02,6.32229e-01,1.79928e-01,3.23427e-01,-3.33160e-01,-1.31675e-01,-4.18557e-01,5.27915e-02,-3.00506e-01,-2.88144e-02,3.98143e-01,1.11136e-01,-1.12670e-02,-4.27195e-01,7.06645e-01,5.50811e-01,-3.11939e-02,
-1.80613e-02,-2.76455e-01,7.88321e-02,-1.74812e-01,-1.83471e-01,-2.53014e-01,-2.45723e-01,-9.89656e-02,-2.52022e-01,2.55264e-01,-7.68047e-02,-1.71251e-01,-3.26733e-01,1.07286e-01,-2.20628e-01,1.15758e-01,-7.81657e-02,-2.94738e-02,-2.00601e-01,-1.20397e-02,-1.71287e-01,2.67447e-01,2.76623e-01,-1.73123e-01,-3.13673e-01,
-7.08064e-02,1.28442e-01,5.46348e-02,-4.95989e-01,-1.03007e-01,-2.10883e-01,-1.81589e-01,1.43189e-01,-7.96672e-02,1.53152e-01,2.72984e-01,1.57121e-02,6.64310e-02,1.84625e-01,9.25265e-02,9.68217e-03,4.31344e-01,1.18621e-01,6.49794e-01,4.57432e-02,2.55325e-01,-9.67478e-01,7.25240e-01,4.22283e-01,-2.77390e-01,
-1.76329e-01,1.33692e-01,-1.51513e-01,-8.16218e-02,1.14674e-01,-3.09057e-01,-2.10539e-01,5.02044e-01,-1.28368e-01,-2.47817e+00,1.75098e-01,-1.09877e-01,-9.08154e-02,2.68821e-01,-4.79439e-01,1.23075e-01,1.69490e-01,3.92339e-01,-2.70988e-02,-3.15759e-01,3.83897e-01,-6.58853e-01,-8.62987e-04,-1.91055e-01,-3.97747e-02,
6.08707e-02,8.44179e-02,-8.66705e-03,2.12765e-01,-1.87825e-01,2.50381e-01,-3.86441e-01,-2.03886e-01,3.41982e-01,2.00376e-01,2.20576e-01,3.70262e-02,-1.34881e-01,-1.39756e-02,1.15348e-01,-2.12104e-01,-2.11318e-01,-3.29125e-01,1.27512e-01,1.04898e-01,-1.35671e-01,-3.34375e-01,5.91512e-02,-2.60520e-01,-3.67697e-01,
-4.06488e-01,9.64456e-02,-1.04019e-01,-2.65454e-01,-2.08310e-01,-1.66178e-01,-1.12571e-01,3.24873e-02,-5.52914e-02,-4.28193e-02,2.33573e-01,6.39395e-02,3.62046e-02,-1.61412e-01,1.53540e-01,2.36012e-01,2.78494e-01,1.06439e-01,-6.31581e-01,-1.00788e-01,-1.35509e-01,-8.07059e-01,-8.36813e-01,-7.71955e-02,1.92586e-01,
5.26136e-02,-4.04292e-01,1.04670e-01,-3.31651e-01,-1.64511e-01,-2.06453e-01,-4.50249e-02,1.78469e-01,-2.53239e-02,6.30598e-01,-1.21976e-01,-2.85672e-02,1.98885e-01,3.21170e-01,2.01658e-01,-6.99869e-03,-3.25717e-01,1.93806e-01,-4.46909e-01,2.41269e-02,1.28839e-02,-6.08043e-01,-4.14076e-01,-1.88080e-01,1.66269e-01,
2.80286e-01,3.36444e-01,6.03836e-02,-1.94429e-01,-1.99242e-02,1.56884e-01,-9.98889e-02,3.44833e-01,1.08783e-01,2.42913e-01,-1.18900e-01,9.44662e-03,1.70737e-01,6.78832e-02,3.49912e-03,1.17373e-01,-2.49159e-01,-1.31685e-01,8.98477e-03,2.87524e-01,-5.26718e-02,1.01299e-01,4.31078e-02,-2.21776e-01,1.31938e-01,
-2.55177e-01,2.59309e-02,-1.65634e-01,3.19312e-01,1.26777e-01,1.93361e-01,-3.13970e-01,-1.79345e-01,-6.36947e-02,1.34579e-01,-3.10609e-01,2.34647e-01,-2.69104e-01,2.59052e-01,-2.08110e-01,-2.05897e-02,-2.83065e-02,-8.95430e-02,-2.65544e-01,3.03464e-01,-2.46079e-01,-7.86930e-02,-7.47936e-02,2.63214e-01,1.73905e-01,
4.31385e-01,-1.12787e-01,-3.26106e-01,1.76549e-01,4.57668e-02,-4.42469e-03,5.28532e-02,-2.29714e-01,-2.73730e-01,3.20932e-02,-3.81928e-01,-3.40613e-02,3.86127e-01,-3.82988e-01,7.17890e-01,5.65135e-01,-3.34915e-01,-7.62240e-02,2.78268e-01,2.45460e-01,9.92719e-02,-7.89526e-02,1.22428e+00,-6.03608e-01,4.50626e-02,
-1.60917e-01,2.10056e-01,-5.33738e-02,2.38592e-01,-3.04977e-01,2.22293e-01,-1.45494e-01,-7.15897e-02,9.79250e-02,-4.21215e-01,2.01256e-01,-1.52502e-01,-4.90106e-01,2.80610e-02,-9.01236e-01,4.17567e-02,-2.93050e-01,3.41358e-01,5.92403e-01,-3.94833e-02,1.49993e-01,4.33302e-01,2.09448e-01,7.91636e-01,-1.55722e-01,
1.73520e-01,-1.73968e-01,-2.39466e-01,-2.02609e-02,2.17386e-02,2.68036e-01,-7.95671e-02,-1.72020e-01,2.43716e-01,1.76846e-02,-2.16433e-01,2.38117e-01,-4.32105e-01,1.22835e-01,-2.18822e-01,-2.40743e-01,2.21509e-01,1.13518e-01,9.09572e-01,2.37923e-01,2.35622e-01,-9.83415e-02,8.26973e-01,3.78745e-01,-1.14774e-01,
1.47895e-01,2.19196e-02,1.53926e-01,1.06070e-01,2.35457e-01,4.55691e-01,-3.21222e-01,3.27133e-01,-3.28979e-01,-5.30533e-02,2.42062e-02,1.35954e-01,-2.64548e-01,1.01689e-02,-2.58991e-01,1.49885e-01,-3.08272e-01,1.14827e-01,8.84142e-01,-6.25179e-03,9.09565e-02,1.94397e-01,1.20489e+00,4.13388e-01,3.84596e-02,
1.29102e-01,-1.33051e-01,-1.46156e-01,-3.15999e-01,-3.43448e-01,1.02296e-01,-3.30226e-01,2.65007e-01,-3.18404e-01,-6.36722e-02,2.16784e-01,-2.32247e-03,-2.42028e-02,-4.68107e-02,2.38655e-01,1.30499e-01,9.89415e-02,-3.55469e-01,2.20582e-01,-1.29936e-01,-3.13179e-01,-3.20705e-01,9.83193e-02,2.38390e-01,-3.90341e-01,
3.79931e-02,6.39993e-02,-3.14249e-01,-2.28732e-01,1.95703e-01,-1.92433e-01,-2.83547e-01,1.44466e-01,-1.87419e-01,2.28118e-01,-2.59913e-02,-2.64597e-01,1.77774e-01,4.12719e-02,-2.62652e-01,2.56399e-01,1.20263e-02,8.28233e-02,-1.76630e-01,-2.51900e-01,-2.89771e-01,2.39939e-01,-2.59966e-01,-5.88785e-02,-1.07757e-01,
7.41704e-02,4.61262e-02,2.57452e-03,-1.35418e-01,9.15933e-02,8.52142e-02,4.41728e-02,1.22224e-02,-2.15457e-01,4.89372e-01,1.84840e-02,-1.17456e-01,-1.35497e-01,-3.90154e-01,1.99317e-01,-2.03593e-01,1.89936e-01,9.50918e-02,-1.11381e-01,-1.91275e-01,-3.28530e-01,-7.76004e-01,-2.06662e-01,-4.78633e-01,2.65705e-01,
1.10625e-01,-2.03902e-01,-2.15782e-01,-1.74633e-01,-5.01473e+00,2.13129e-01,-1.36239e+00,1.30867e-01,-2.38919e-01,1.79675e-01,-9.24182e-02,1.01287e-01,-1.62187e-01,-1.77035e-01,-1.07082e+00,-2.92393e-01,-3.22990e-02,-9.68008e-02,4.32078e-01,-2.97294e-01,5.59779e-02,5.50779e-01,3.94873e-01,-1.47858e+00,-1.63159e-01,
-2.00867e-01,-2.28235e-01,2.14371e-01,-2.69318e-01,-2.41517e-01,-3.25717e-01,7.58651e-02,8.75748e-02,-4.44221e-03,2.03744e-01,2.35383e-01,2.62142e-01,1.93540e-01,1.44946e-01,6.70320e-03,-3.06423e-01,7.74773e-02,4.32024e-02,-6.91971e-02,1.26733e-01,1.80505e-01,2.44577e-01,-8.25549e-01,3.23169e-01,9.09143e-02,
-5.13528e-01,-2.12393e-01,-1.69087e-01,-4.17573e-01,-2.94940e-01,-1.84845e-01,1.71431e-01,1.02576e-01,-1.70912e-01,2.31676e-02,2.14941e-01,6.70541e-02,2.72141e-01,-2.08896e-01,7.24771e-02,-3.81456e-01,5.90640e-03,2.94656e-03,-8.08326e-01,-1.16593e-01,-8.70129e-02,1.92589e-01,9.43216e-01,-7.82571e-02,2.67218e-01,
3.26594e-01,2.78829e-01,3.43519e-01,6.97527e-02,-1.17741e-01,-2.31981e-01,-1.71277e-02,2.73147e-01,-3.24525e-01,1.58904e-01,1.69765e-01,-1.69862e-01,-2.01199e-01,1.91495e-03,-3.20107e-01,-8.48741e-02,-1.76071e-01,-2.57618e-01,-8.17209e-02,3.07097e-01,2.12201e-03,1.71921e-03,-1.79828e-01,2.14359e-01,2.16717e-02,
1.24723e-01,-3.77925e-02,1.97455e-01,2.44488e-01,-3.78652e-03,-3.70119e-01,1.03621e-01,-5.57125e-01,-2.35559e-01,-8.11659e-02,1.47657e-01,-8.02068e-02,-1.16875e-02,2.43280e-01,3.75900e-01,-3.55133e-02,3.33201e-02,-1.31250e-01,1.57242e-01,-1.33984e-01,-2.74036e-01,-3.84759e-01,7.50413e-01,-2.37347e-01,-1.18499e-01,
2.92980e-01,-4.82685e-01,1.64175e-01,5.97783e-02,-6.84702e-01,-2.76381e-01,3.65263e-01,-5.88300e-01,-2.45827e-01,-1.10315e+00,2.88188e-01,-2.36229e-01,3.57389e-01,-2.29711e-01,8.02221e-01,-2.75682e-01,6.55913e-02,3.36820e-03,-4.27551e-01,-2.32192e-01,-3.87465e-01,-3.21440e-02,-7.25543e-01,-4.03362e-01,-2.68060e-01,
1.72018e-01,-3.97775e-01,1.79763e-01,-2.94877e-01,-1.55758e-01,1.00322e-01,3.56326e-02,4.21541e-01,4.09203e-02,9.44076e-02,1.53606e-01,2.84341e-01,-9.79088e-02,-2.55496e-01,2.21280e-01,-1.54148e-01,4.98346e-03,1.16761e-01,1.91033e-01,2.14619e-01,1.79714e-01,-3.79240e-01,7.19497e-01,-7.12439e-02,-4.05111e-01,
-3.24591e-01,1.98398e-01,-1.03310e-01,4.29008e-01,-7.66145e-01,8.47337e-02,-1.32016e-01,-1.25563e-01,2.95523e-01,3.22229e-01,-4.90067e-01,6.16886e-04,-3.75596e-01,-2.35210e-01,-1.09896e+00,4.49971e-01,-3.69480e-01,2.56494e-01,2.35350e-01,1.85764e-01,-2.27710e-01,2.89465e-01,1.23474e-01,3.08524e-01,8.47063e-02,
1.45784e-01,-3.95249e-02,3.41554e-01,-9.37658e-02,4.25806e-02,3.09088e-02,-3.23812e-01,1.33439e-01,-2.10314e-01,-8.05138e-02,-2.44272e-01,-1.09860e-01,1.62170e-01,-1.46044e-01,-9.21538e-03,-1.24439e-01,-2.54575e-01,2.73167e-02,-6.81677e-02,1.64412e-01,-2.65096e-01,1.65427e-01,2.62884e-01,-2.46925e-01,4.69685e-02,
2.67760e-01,
-2.49335e-01,
-2.37897e-01,
-1.23056e-01,
-6.38088e-02,
1.50908e-01,
2.29486e-01,
-9.87875e-02,
-5.09032e-02,
-2.29462e-01,
1.25765e-01,
-5.09682e-02,
1.94118e-01,
-3.20998e-01,
-5.57479e-03,
1.69101e-01,
1.17249e-01,
1.80087e-02,
2.22633e-01,
-1.68816e-01,
1.96136e-01,
2.86724e-01,
-6.87571e-02,
1.36634e-01,
-7.16776e-02,
4.45205e-02,2.76221e-01,-1.13626e-01,-1.53507e-01,2.92660e-01,4.86468e-02,-3.14915e-01,1.14303e-01,-7.74503e-03,-5.86429e-02,1.96530e-01,2.00927e-01,-6.92045e-03,-1.33688e-01,1.73666e-01,-2.64965e-01,-1.43395e-01,-1.19452e-01,1.37741e-01,3.00300e-03,-3.64746e-01,-7.15898e-02,3.79186e-02,-1.29223e-01,-2.85216e-01,
-1.31930e-01,-9.35465e-02,-1.75703e-01,-4.05996e-01,2.73663e-01,-3.51375e-01,-2.31506e-02,-9.85840e-02,-2.01833e-01,-1.74767e-01,-1.17183e-01,2.10122e-01,1.56577e-01,-2.00022e-01,2.68577e-01,7.29507e-03,-1.12080e+00,1.36256e-01,6.31071e-01,-1.62625e-01,2.86954e-01,-1.49413e-01,-1.09117e-01,7.24295e-01,-2.15729e-01,
3.10397e-01,-1.56279e-01,1.73345e-01,2.70262e-02,-1.57658e-02,1.73834e-01,8.25331e-02,2.43604e-01,5.09414e-02,1.36904e-01,-1.04697e-01,-1.50342e-01,-1.60412e-01,-1.72559e-01,-2.22246e-01,8.36630e-02,2.41750e-01,1.32209e-01,-5.66735e-01,2.85424e-01,-2.63172e-01,1.96254e-01,-6.40499e-02,-3.27280e-01,2.36751e-01,
-1.05381e-01,-3.38894e-01,-5.39034e-02,3.46036e-02,-1.27235e-01,-2.12179e-02,6.83071e-02,3.16402e-01,-2.26292e-01,1.15194e-01,1.19687e-01,-3.24232e-01,1.04302e-01,-2.14132e-01,7.68772e-02,-1.35293e-01,5.46403e-01,1.01814e-01,2.08022e-01,-4.76990e-02,-3.02384e-01,6.80804e-02,-2.21113e-01,3.55821e-03,-3.12748e-01,
-2.08275e-02,8.68021e-02,-1.98627e-01,-6.34760e-02,-2.65905e-01,-2.56995e-01,-1.03154e-01,-1.53064e-01,-1.56222e-02,3.22984e-01,-3.04377e-01,-2.71054e-01,-2.89066e-02,7.57617e-02,1.74890e-01,-9.68134e-03,1.31376e-02,-2.86185e-01,1.56195e-01,2.78694e-01,-4.99836e-02,-2.57899e-01,8.64583e-02,1.71531e-01,2.31036e-01,
3.02050e-01,3.96200e-02,2.50908e-01,-3.25464e-01,-1.68335e-01,-2.52813e-01,5.02846e-02,-8.06135e-02,1.02674e-01,2.49851e-02,-3.19191e-02,1.25812e-01,1.63251e-01,-2.12695e-01,1.00271e-01,3.88317e-02,1.69116e-01,-1.33392e-01,1.35775e-01,-2.68079e-01,-3.16821e-02,-2.36600e-01,5.98431e-03,2.85121e-01,-2.51569e-02,
3.03923e-01,-2.06707e-01,5.08319e-02,4.01055e-01,6.12238e-02,2.78946e-01,3.44488e-01,-1.04549e-01,9.04068e-02,-3.85081e-01,6.21679e-02,5.07229e-01,3.07650e-01,-2.86254e-01,6.88208e-02,1.82823e-01,8.79051e-01,-8.56393e-02,-4.22716e-01,-4.01894e-02,-8.03886e-02,-4.15351e-01,-3.37589e-02,-6.23324e-01,-5.28510e-02,
-3.68539e-02,3.34813e-01,-1.39645e-01,2.72292e-01,2.11111e-01,-1.82502e-01,1.82413e-02,-1.31885e-01,3.12605e-01,1.62127e-01,1.01714e-01,-1.28695e-01,-2.95385e-01,7.94456e-02,5.82822e-02,-2.19144e-01,-2.67024e-01,2.72297e-01,2.93023e-01,2.10153e-01,1.28496e-01,-2.03399e-01,-3.48524e-01,-3.38936e-01,-5.36960e-02,
-8.71961e-02,-1.55348e-01,-1.78884e-01,5.69268e-02,3.48907e-02,-1.17611e-01,-1.52207e-01,-2.10197e-01,-5.74032e-02,3.33554e-02,-2.95886e-01,-1.85928e-01,3.06867e-01,2.12782e-01,-3.09225e-01,-3.82302e-02,3.19975e-01,-1.09823e-01,2.10829e-01,-2.92307e-01,-1.84465e-01,-1.65074e-01,-1.79099e-02,2.46950e-01,-1.36466e-01,
-1.93961e-01,7.58720e-02,3.44475e-01,7.41109e-02,-1.00559e-01,3.20580e-02,-2.41157e-02,1.44022e-01,-2.75107e-01,2.50470e-01,1.60931e-01,-2.09170e-01,-5.08525e-02,9.86241e-02,-2.34898e-01,3.00051e-01,-4.34880e-02,1.96232e-01,-4.62825e-03,2.09114e-01,-2.55480e-01,-7.09355e-02,-2.91615e-01,-5.14152e-01,-9.44424e-03,
2.27069e-01,-1.58272e-01,-2.66830e-01,-1.66785e-01,5.70993e-02,-1.12478e-01,-1.24724e-01,-1.87574e-02,-1.32201e-01,4.28375e-02,2.35069e-01,-2.45002e-01,-3.91852e-01,3.43303e-01,-6.45815e-02,2.00301e-01,-2.61626e-01,-3.31245e-01,-1.85483e-02,2.86156e-01,-1.20725e-01,-2.13137e-01,-1.74569e-01,-4.78077e-02,-1.07280e-01,
1.16049e-01,-2.63678e-01,3.16787e-01,-3.15959e-01,9.34597e-02,2.36834e-01,-6.10812e-02,8.10907e-02,-5.11551e-03,-1.46694e-02,-2.90093e-01,-1.39465e-01,1.24154e-01,1.95542e-01,2.81716e-01,8.89542e-02,-5.35001e-01,-3.21892e-01,7.05701e-02,-1.93371e-01,1.95575e-01,3.28231e-02,1.36368e-01,3.47051e-01,1.67437e-01,
4.99929e-01,1.67146e-03,-4.23104e-01,1.51413e-01,1.51216e-01,4.86377e-01,-3.02377e-01,-2.90389e-01,1.85437e-01,-3.13096e-01,-1.74303e-01,1.11750e-01,2.19023e-02,-1.71534e-01,3.13279e-01,-7.20767e-02,2.16905e-01,2.25837e-01,-5.36947e-01,-2.37975e-01,1.25498e-01,-4.15806e-01,-1.78944e-01,-2.54998e-01,-1.03845e-01,
-9.60128e-03,-1.95793e-01,-3.46600e-01,1.36152e-01,2.59474e-01,-3.37076e-01,2.85328e-02,-1.03203e-01,-3.28493e-01,-1.18839e-01,-8.49827e-03,2.67313e-01,6.49008e-03,1.08166e-02,-2.72421e-01,-1.36952e-01,-7.53912e-02,9.59568e-02,2.57727e-01,-1.30958e-01,-1.84984e-01,8.22916e-02,2.40065e-01,1.23825e-01,2.20277e-01,
-6.13406e-02,-9.92599e-03,7.54014e-02,-2.58762e-01,-2.35186e-02,-8.10032e-02,-1.15349e-02,-5.43077e-02,2.62791e-01,2.35357e-01,-1.38797e-01,-1.77140e-01,-3.24656e-01,-3.15966e-01,1.13932e-02,6.35895e-02,-7.50130e-02,1.92066e-01,-1.20198e-01,-2.67986e-01,1.23081e-01,6.24105e-02,-1.12444e-01,1.68451e-01,-1.55737e-01,
-3.80284e-01,6.37507e-03,4.24765e-01,4.52870e-01,-2.69748e-01,2.28217e-01,1.81175e-01,2.57541e-01,2.38025e-01,4.44740e-02,-6.50885e-01,-3.16970e-01,3.40819e-02,-1.93794e-01,-6.07744e-03,4.35271e-01,1.67849e-01,1.69203e-01,-1.13427e-01,-2.59171e-01,2.03151e-01,3.88792e-01,5.74214e-02,-9.98997e-01,1.68910e-02,
-3.63471e-01,-2.46521e-01,-1.65370e-02,-6.29579e-02,-1.32396e-01,-1.76900e-01,-2.60330e-01,-1.46448e-01,-3.31981e-01,-2.95861e-01,-3.53142e-01,-1.48430e-01,-4.83784e-02,-2.91258e-01,-2.54633e-01,2.22575e-01,1.14840e-01,2.73182e-01,-2.79408e-01,2.38270e-01,-2.77311e-02,1.20086e-01,1.38133e-01,1.79330e-01,-3.01241e-01,
3.26350e-01,-1.98289e-01,-2.05199e-01,2.74568e-01,-2.09750e-01,1.72935e-01,2.48576e-01,-1.07799e-01,-2.43505e-01,-9.66943e-02,1.25436e-01,1.02045e-01,-1.04698e-01,-2.45917e-02,2.87091e-01,-2.07129e-01,1.73054e-01,-2.93878e-01,-2.17738e-01,2.72856e-01,-3.55456e-02,1.59994e-01,2.51564e-01,-6.44787e-02,7.70619e-02,
-2.47030e-01,1.54196e-01,-5.43421e-01,1.64656e-01,4.96329e-02,-3.71921e-01,2.11265e-01,-2.61077e-01,-1.88475e-01,-2.83242e-01,-2.43405e-01,2.14952e-01,-2.62937e-01,1.17535e-01,-4.67330e-02,-9.75822e-02,-4.48245e-01,2.99477e-01,3.81098e-01,-1.57174e-01,2.45903e-01,-6.14732e-02,2.35545e-01,2.89584e-01,3.42724e-01,
1.09480e-01,1.50329e-01,-2.00392e-01,2.27826e-01,3.09364e-01,1.08243e-01,1.77926e-01,-4.39248e-02,2.33855e-01,2.03902e-01,1.42244e-01,-1.07173e-01,-1.99263e-01,1.52348e-02,-3.18811e-01,-1.58993e-01,7.85974e-01,3.24908e-01,-3.57064e-01,-2.02177e-01,-3.97856e-01,1.77786e-01,1.60310e-02,-1.04001e+00,1.32108e-01,
2.60795e-01,-2.81749e-01,1.67910e-01,-3.05780e-01,-1.68202e-01,-1.88585e-01,-1.00159e-02,-2.43958e-01,-2.63280e-01,2.48013e-01,2.69062e-01,-7.79966e-02,4.73642e-02,1.16533e-01,-6.49212e-02,1.83491e-01,1.81117e-02,1.75852e-02,3.38014e-01,5.01970e-02,-1.82380e-01,-2.09735e-01,-3.73808e-01,4.43392e-01,-1.63657e-01,
-2.09042e-01,-1.53043e-01,-7.10516e-02,-1.13395e-01,-3.06371e-01,-1.30658e-01,-1.57769e-01,-1.70821e-01,4.37831e-02,-2.36000e-01,-9.72223e-03,1.09544e-01,1.03583e-01,-6.22672e-02,-2.23379e-02,-2.03368e-02,4.09497e-02,2.20805e-01,4.03390e-02,-1.18700e-01,1.10440e-01,-1.25947e-01,-2.90915e-02,1.59515e-01,1.33399e-01,
1.23415e-01,2.08495e-02,5.37800e-02,2.90604e-02,2.32785e-01,7.41431e-02,-1.99476e-01,-1.24241e-01,-2.83618e-01,-3.82972e-01,-1.86812e-01,4.02525e-01,1.63194e-01,-2.66441e-01,-2.16896e-01,3.71421e-02,8.41957e-01,1.19633e-01,-6.46465e-01,4.58120e-02,-1.88894e-01,-1.45232e+00,-3.15284e-02,-1.86124e-01,2.94086e-01,
-2.16856e-01,-1.44511e-02,1.05296e-01,1.12368e-01,1.67459e-01,9.10218e-03,-2.30360e-01,-6.23004e-02,6.88732e-02,-1.49517e-01,-7.06033e-02,-2.44943e-03,1.45288e-01,8.99582e-02,-2.36562e-02,1.89611e-01,-1.45495e-01,-7.74805e-02,-4.43044e-02,7.03582e-03,7.99535e-02,-2.39913e-01,2.07433e-01,2.94174e-02,-1.86235e-01,
8.57617e-03,-2.96104e-01,-2.43669e-01,7.85530e-02,2.17196e-01,1.26441e-01,2.60265e-02,-2.98002e-01,-5.95081e-02,-1.21325e-01,-2.08835e-01,3.23306e-01,1.01195e-01,-2.35738e-01,1.63795e-01,-1.66062e-01,3.04268e-01,-3.84943e-02,1.25593e-01,-1.15748e-01,7.13907e-02,2.85365e-01,-4.40762e-04,-6.00124e-01,-1.59069e-01,
2.76299e-01,
6.91706e-02,
8.15520e-02,
2.08881e-01,
-1.59401e-01,
1.20645e-01,
-1.96018e-01,
-1.17172e-01,
-2.28571e-01,
2.38729e-01,
-9.72709e-02,
1.72877e-01,
1.85661e-03,
-2.61260e-01,
2.27055e-01,
-1.79420e-01,
2.56523e-01,
1.93551e-01,
2.06648e-01,
4.94138e-03,
2.50096e-01,
2.91576e-01,
1.08169e-01,
3.50000e-01,
-6.84610e-02,
2.56697e-02,-2.97548e-01,1.96925e-01,-2.03602e-01,-1.74478e-01,-2.69313e-01,-6.07992e-01,2.94166e-01,-2.38244e-01,2.73099e-02,-1.74736e-02,1.60059e-01,-3.53747e-01,1.20298e-01,6.48719e-02,-1.62280e-01,-8.88278e-02,-3.14447e-01,2.74405e-01,4.71304e-02,1.88898e-01,-2.17896e-01,-1.82643e-01,2.56369e-01,2.51597e-01,
-3.82348e-02,2.65158e-01,1.62092e-01,2.01855e-01,7.47365e-02,7.35305e-02,-5.52441e-01,4.36614e-01,1.16105e-01,4.09268e-01,3.94844e-01,1.12348e-01,-4.47217e-01,4.29099e-01,4.26003e-01,-1.43018e-01,3.72465e-02,5.08581e-01,-6.85372e-02,9.84605e-02,-7.45007e-02,2.53267e-01,-3.23831e-01,3.05543e-01,2.33141e-01,
-9.87466e-02,3.00083e-02,-1.39276e-01,6.48582e-02,3.68712e-01,1.91519e-01,-5.53920e-01,-2.42798e-01,-3.68826e-01,2.89819e-01,4.00413e-01,2.27335e-01,-4.75584e-01,-3.40389e-01,-5.74312e-02,-1.64541e-01,2.12028e-01,1.55806e-01,-1.91088e-02,-1.64841e-02,-1.93454e-01,1.11772e-01,-2.90288e-01,-4.09738e-01,-2.69544e-02,
-2.81914e-01,5.25196e-01,4.74052e-01,1.73813e-01,7.08719e-02,-1.12498e-01,-3.53987e-01,-1.92458e-01,-2.49568e-01,3.72898e-01,-3.82839e-03,1.19008e-03,-1.68035e-01,2.72323e-01,7.67519e-02,-2.41079e-01,8.92593e-02,3.16882e-02,-2.97557e-01,4.35547e-01,-2.90904e-01,2.58048e-01,-3.56777e-01,4.03803e-02,-1.22276e-01,
-1.73529e-01,-4.12410e-01,-3.14472e-01,-2.68353e-03,-1.74136e-01,8.63389e-02,-4.27883e-01,-1.31628e-01,-2.37235e-01,-6.53787e-02,2.35607e-01,7.08232e-02,-4.39545e-01,1.51393e-01,-1.53043e-02,1.85860e-02,6.05255e-02,-2.43538e-02,-2.52280e-02,-5.34488e-01,2.80189e-01,3.71696e-01,-5.03257e-01,-6.68676e-02,1.40041e-01,
-1.10554e-02,
-5.31276e-01,
-3.02318e-02,
-1.33571e-01,
-4.60732e-02,
