// Neural Network File Format by Kyle Julian, Stanford 2016
6,3,5,25,
3,25,25,25,25,25,5,
0,
-56000.000000,-56000.000000,-3.141593
56000.000000,56000.000000,3.141593
-278.628049,0.000000,0.000000,-0.242819
112000.000000,112000.000000,6.283185,17.479225
8.07372e-01,-1.60465e+00,-1.68781e-01,
-1.68024e+00,-1.41380e+00,5.90398e-01,
-1.55142e+00,1.71884e+00,-2.54515e-02,
6.68999e-01,1.73961e+00,-1.81566e-01,
3.59725e-01,-5.43432e-01,5.63579e-01,
-1.75854e+00,1.33499e+00,-6.53897e-01,
-1.44215e+00,7.74402e-02,1.12299e-01,
-2.66025e+00,-2.04840e+00,-2.61767e-01,
-2.13844e+00,2.07963e+00,-1.74427e-02,
-1.06224e-01,6.42480e-01,7.22693e-01,
-1.89456e+00,-1.54890e+00,-6.75711e-02,
-8.63040e-02,1.84049e+00,6.83592e-01,
-2.94186e+00,-1.72016e+00,-4.59187e-01,
-1.44279e+00,-4.43033e-01,-6.38778e-01,
-1.52089e-01,-2.85722e-01,1.17526e-01,
-4.76092e-01,1.13210e+00,5.81304e-01,
8.81340e-01,-1.00872e+00,5.58568e-01,
-1.05653e-01,-1.51382e-01,4.24722e-01,
-4.52462e-01,7.04665e-02,-4.05567e-02,
1.30977e+00,-8.94183e-01,-9.50706e-02,
6.96769e-01,-2.37806e+00,-6.86163e-01,
2.27995e-01,2.74983e-01,-8.58140e-02,
1.52023e+00,1.12091e+00,-8.02331e-02,
-7.62945e-01,-9.19580e-03,-1.32456e-01,
1.44073e+00,-1.02597e+00,-1.07467e-01,
1.08090e-01,
4.85467e-02,
-5.81362e-02,
1.53814e-01,
2.84622e-01,
6.50219e-02,
1.03497e-01,
7.79859e-03,
5.01016e-02,
-8.00895e-02,
-1.51981e-02,
2.53830e-01,
2.89130e-01,
-2.81887e-03,
-2.92318e-01,
-1.70210e-01,
-1.97260e-01,
2.14645e-01,
-2.92360e-01,
1.46164e-01,
5.46873e-03,
-2.23281e-01,
1.15463e-02,
1.93327e-01,
6.75469e-02,
-5.33258e-01,5.34945e-02,-1.10493e+00,-2.41423e-01,-1.39797e-01,2.56596e-01,3.01235e-01,-2.76621e+00,6.22642e-01,-6.70094e-01,1.81647e+00,1.33833e-02,4.83352e-01,-2.11818e-01,-2.92237e-01,1.20275e+00,-7.69426e-01,3.12220e-01,-1.48109e-01,-2.96052e-01,-2.55156e-01,-1.25442e-01,-6.98225e-01,4.01961e-01,-3.37695e-01,
-3.18872e-01,-4.72142e-01,-1.61247e+00,4.18904e-01,4.55394e-01,-2.49065e-01,2.81155e-01,4.00902e-01,7.68859e-01,-6.37236e-01,-2.03530e-01,4.96806e-01,-4.21321e-01,-6.17054e-01,-3.16880e-01,-2.64553e-01,-7.29650e-01,2.42079e-01,2.19476e-01,-1.82986e-01,-1.97090e+00,-2.60969e-01,1.12437e-01,1.71134e-02,-1.84457e-02,
-1.87620e-01,-7.42917e-01,4.80181e-01,2.73196e-01,-4.77071e-03,2.40605e-01,6.14000e-02,-6.09141e-01,1.12010e-01,2.04115e-01,-3.35012e-01,-2.55207e-01,1.82704e-01,5.65264e-02,3.25526e-01,8.14356e-01,9.38337e-01,-5.56571e-02,3.64962e-02,9.16830e-02,-1.04871e-01,2.65683e-01,-9.43954e-01,1.56609e-01,-3.10704e-01,
-4.11430e-01,-1.79252e-01,-1.00285e+00,-1.08376e-01,-3.44864e-02,1.49963e-01,-2.55743e-01,-1.83322e+00,9.58975e-01,-3.40757e-01,9.70308e-01,4.52692e-01,-5.89207e-01,-4.18537e-01,3.12928e-01,1.25210e-01,-7.90758e-02,2.90346e-01,1.98655e-01,9.36880e-02,-1.98143e+00,2.65978e-01,-7.79988e-01,2.07004e-01,-6.00683e-02,
3.72350e-01,-2.86236e-01,1.44425e+00,-6.00434e-02,2.76795e-01,-2.08410e-01,-2.10890e-01,1.12970e+00,-5.78975e-01,3.95695e-01,-7.47124e-01,-4.39365e-01,-1.46857e-01,-8.34570e-01,1.97192e-01,-5.55616e-01,3.52110e-01,3.91350e-02,-1.74649e-01,2.29408e-01,1.85679e-01,-3.20094e-01,-1.00007e+00,2.61469e-01,-1.33585e-01,
-1.73718e-02,-2.54516e-01,-4.84825e-01,2.72503e-01,5.46931e-02,1.83424e-01,2.95695e-01,5.75957e-01,5.25095e-01,-5.84082e-01,-9.75053e-01,9.39148e-02,1.69119e-01,4.24503e-01,1.93090e-01,4.34316e-01,-1.77439e-01,2.95943e-01,-3.34760e-01,2.06631e-01,-6.67647e-02,3.20628e-01,7.22406e-01,-4.01884e-02,-9.25565e-02,
2.32188e-01,2.12367e-01,-2.59169e-01,1.04734e-01,1.44983e-02,1.52517e-01,9.71994e-02,-1.68718e-01,2.24187e-01,-3.12538e-01,-1.19144e-01,-9.76746e-02,8.87140e-03,-2.15866e-01,2.06994e-01,1.22505e-01,-3.25228e-01,-7.26534e-02,2.66621e-01,1.58856e-02,-2.69203e-01,7.27515e-02,1.05588e+00,-3.24479e-01,-4.03504e-01,
-8.55732e-02,4.15398e-01,1.18406e+00,-6.92857e-01,2.97315e-01,-2.42426e-01,1.38360e-01,1.36089e-01,-1.12965e+00,-1.11102e-01,1.20041e+00,-9.83052e-02,-3.69622e-01,-2.96186e+00,8.91818e-02,-1.91170e-01,4.44670e-01,2.31182e-01,-3.32807e-01,1.21180e-02,-7.99471e-01,-3.29836e-01,-4.20591e-01,-3.80512e-01,2.15334e-01,
3.08912e-01,5.03464e-01,3.56045e-01,1.67539e-01,-2.05871e-01,9.68109e-02,-3.45992e-01,-5.01409e-01,-1.03716e+00,2.29828e-01,6.84316e-01,8.68653e-02,-2.27147e-01,4.03539e-01,2.85265e-01,7.21796e-01,5.59816e-01,-2.04787e-01,3.46331e-01,4.93848e-02,9.67194e-02,-2.40832e-01,3.28257e-01,2.80422e-01,-1.84438e-01,
-1.21836e-01,2.91477e-01,-3.64938e-01,-5.69979e-02,1.58980e-01,3.73697e-01,3.83405e-01,1.04937e-01,4.54890e-01,-6.54335e-02,-1.28974e-02,3.60040e-01,1.60769e-01,7.06187e-01,3.20588e-01,-5.27030e-01,-9.72214e-01,1.54966e-01,-6.53436e-02,-3.41862e-01,-3.96607e-01,-3.12186e-01,8.33634e-01,2.38113e-01,-3.47525e-01,
4.12999e-01,4.63645e-02,-3.06630e-01,-3.54232e-01,2.01160e-01,-3.26062e-01,1.72603e-01,5.45751e-01,-5.38061e-03,-1.75060e-01,-8.51625e-01,1.05078e-01,3.22326e-01,-2.33472e-01,-2.17886e-01,-3.34708e-01,3.44150e-01,2.36532e-01,2.19509e-02,5.28832e-01,5.97247e-01,-2.08897e-02,7.60385e-01,8.11481e-02,4.82685e-01,
2.91365e-01,-1.88141e-02,-4.54188e-01,-1.66278e-01,3.68390e-02,3.96309e-01,2.01009e-01,-4.62870e-01,1.05648e-01,6.37186e-02,-4.42748e-01,3.25232e-01,1.35776e-01,-1.45640e-01,1.37393e-01,1.74437e-01,6.11255e-01,-2.14824e-01,-1.47155e-01,2.91945e-02,-5.97025e-02,-1.41283e-01,-6.09499e-01,8.23844e-02,4.18450e-01,
-2.74360e-01,-3.41134e-01,-7.04140e-01,2.33236e-01,6.61001e-02,5.67572e-01,2.77750e-01,-4.09228e-02,4.19766e-01,1.74420e-01,-8.58617e-01,1.64649e-01,8.99645e-02,-2.76408e-01,4.56401e-02,4.04767e-01,2.41199e-01,-2.27507e-01,-9.94390e-02,-1.93979e-02,-4.75160e-01,-3.14284e-01,-7.14912e-01,3.73551e-01,2.27089e-01,
-2.06387e-01,1.66437e-01,-2.65831e-01,1.23701e-01,3.03736e-01,2.76345e-01,2.11741e-01,2.11010e-01,2.23975e-01,8.96927e-02,-8.43841e-01,-1.49378e-01,1.88813e-01,3.04689e-01,-6.26347e-02,-6.31689e-02,-7.20410e-03,2.52633e-01,-2.62512e-01,-1.64175e-01,2.78323e-01,1.94409e-01,9.31663e-01,2.57343e-01,2.39085e-01,
-1.88668e-01,6.12038e-02,-3.85422e-01,-2.48145e-01,2.75979e-01,-3.83286e-01,5.84994e-02,5.83534e-01,2.96601e-01,-8.31062e-01,-4.20581e-01,1.77814e-01,-4.29096e-01,7.23200e-02,1.71490e-01,-4.25691e-02,-6.50913e-01,4.09188e-01,2.11711e-01,-1.08699e-01,-3.84738e-01,1.45142e-01,9.16523e-01,-2.06343e-01,1.74445e-01,
-1.24450e-01,-3.34269e-01,-4.84933e-01,2.05371e-01,-2.79055e-01,1.70388e-01,-4.94652e-02,6.62793e-01,3.97821e-01,5.24765e-01,-2.22393e-01,-7.26522e-02,-5.85411e-02,-7.11415e-01,-2.67815e-01,-2.09790e-01,-6.86780e-01,1.54021e-01,-2.20196e-01,-2.77916e-01,-2.63530e-01,1.57456e-01,6.19652e-01,6.89750e-02,-3.21959e-02,
-2.02668e-01,-1.19199e+00,9.10276e-01,-9.11828e-02,-8.07436e-02,-5.84327e-01,-8.17946e-01,-1.59515e-01,-2.34170e-01,3.62964e-01,-3.31152e-01,2.17417e-01,-3.17433e-02,3.34225e-01,2.09546e-01,-4.14096e-01,-3.25399e-01,2.52009e-01,-3.36966e-01,2.85626e-01,-2.95860e-02,2.92747e-01,3.23461e-01,-1.08405e+00,3.47931e-02,
-1.77447e-01,-3.49467e-02,2.80327e-01,-2.77397e-01,2.29294e-01,9.45985e-02,8.52366e-02,-2.21233e-01,-2.77773e-01,-2.25106e-01,-1.81198e-01,-3.36841e-01,-2.74173e-01,1.84933e-01,-2.31014e-01,-1.72374e-01,-2.36652e-01,-1.63646e-01,1.41416e-02,6.93262e-02,-1.99506e-01,-3.04573e-01,-1.29166e-01,1.94809e-01,3.08554e-02,
3.45898e-01,1.43415e-01,4.43962e-01,-4.60138e-02,3.22000e-01,-1.92743e-01,1.67123e-01,1.05372e+00,5.69042e-01,6.91329e-01,-8.48307e-01,-2.26899e-01,-1.85485e-01,3.35429e-01,-8.58796e-02,-1.71793e-02,5.62677e-02,-1.42796e-03,-7.52904e-02,2.99410e-01,2.38913e-01,2.38158e-01,-4.04133e-02,-8.89912e-03,2.95617e-01,
-7.80924e-02,3.12640e-01,-3.52512e-01,1.44703e-01,-2.58565e-01,2.77151e-01,2.27176e-01,-7.67801e-01,-1.99096e-01,-7.06466e-01,-3.42212e-01,-1.35120e-01,3.98596e-01,4.73126e-01,-2.70508e-01,1.08872e+00,-2.60172e+00,-6.55387e-02,2.27784e-01,3.04398e-01,-3.11430e-01,-3.12245e-01,5.53677e-01,3.48107e-01,-3.09737e-01,
4.04767e-01,6.47554e-01,-1.25701e+00,2.51657e-01,4.65271e-02,-4.37499e-01,2.04661e-01,-2.74747e-01,-2.48587e-01,1.05135e-01,-6.62488e-02,5.62391e-02,3.17489e-01,-2.21576e-01,3.42021e-01,-6.32544e-01,6.11542e-02,3.94076e-01,2.48215e-01,-1.01733e-01,-3.21897e-01,2.81767e-01,-1.40980e+00,-4.69193e-02,6.40752e-02,
-1.59076e-01,-2.13261e-01,9.75064e-02,-2.95672e-01,-1.84697e-01,-8.89720e-02,-1.09280e-01,-3.71835e-02,-4.64810e-02,1.18471e-01,-3.36073e-01,1.05160e-02,-2.58722e-01,2.35228e-02,3.40448e-01,2.49374e-03,-2.67950e-02,-3.44473e-01,-2.30699e-01,-1.32727e-01,2.79811e-02,-1.34118e-01,7.87270e-02,-3.33177e-01,-9.04879e-03,
-2.45531e-01,6.85149e-01,-1.52493e+00,4.88461e-01,-6.47408e-01,3.81335e-01,5.48092e-02,-6.47211e-01,9.50206e-01,-6.32939e-01,1.61399e-01,-1.97533e-01,-1.09104e-01,-1.91459e-01,1.86557e-01,6.55098e-01,5.90622e-02,-3.76611e-01,-1.84062e-02,4.41335e-02,2.28140e-01,2.99572e-01,4.42863e-01,2.11209e-01,2.27903e-03,
-7.80084e-02,-1.39963e-01,2.37257e-01,-1.70867e-01,-3.23269e-01,2.14839e-01,1.16641e-01,6.76527e-01,-2.27688e-01,-2.51756e-01,-6.53530e-01,3.11785e-02,-1.71999e-01,-5.97802e-01,-5.42782e-02,3.49828e-01,-1.28559e-01,1.26800e-01,2.74545e-01,6.09679e-02,-7.98182e-02,-2.25235e-01,3.89541e-01,9.49520e-02,2.75385e-01,
-4.03061e-01,8.06506e-01,-9.07238e-01,-7.82498e-02,3.61014e-01,3.99786e-01,2.39427e-01,4.85505e-02,9.80846e-01,1.61190e-01,-7.82327e-01,-7.41654e-02,3.27960e-01,2.82961e-01,2.00839e-01,-1.23671e-01,9.43488e-01,-4.33430e-03,3.06010e-01,-2.54532e-01,2.61418e-01,-4.55699e-02,-6.51788e-01,2.69530e-01,-2.85207e-01,
2.92529e-02,
-1.83116e-01,
2.31814e-01,
1.71175e-01,
2.86693e-01,
-9.85954e-02,
2.54950e-01,
-2.30881e-01,
-9.57071e-02,
-2.70298e-01,
-1.98720e-01,
-6.66419e-02,
-6.42087e-03,
-5.32127e-02,
6.87181e-02,
-2.48489e-02,
-2.65846e-01,
-6.62554e-02,
-1.81247e-01,
-1.28552e-01,
-1.45796e-01,
3.08717e-02,
-1.60724e-01,
1.78938e-01,
-2.48696e-01,
6.28923e-01,-6.26716e-01,-1.02921e-01,-6.00298e-02,-1.43500e-01,2.11363e-01,1.03922e-01,-4.22000e-02,-3.33927e-01,-2.69703e-01,-3.60122e-01,6.06316e-02,1.35135e-01,9.44182e-02,2.27184e-01,3.14173e-01,-2.19740e-01,-2.35447e-01,-5.66519e-01,5.36898e-01,1.00871e-01,2.59475e-01,2.11992e-01,1.22015e-01,2.00321e-02,
1.69116e-01,4.10234e-01,2.74311e-01,3.84623e-01,1.27591e-01,2.63730e-01,-2.02969e-01,-7.44277e-02,-6.78747e-02,-7.75632e-01,-2.27432e-01,1.42615e-01,1.80781e-01,3.07988e-01,-4.31364e-02,-1.30701e-01,-2.98916e-01,-4.39265e-02,-1.28616e-02,-3.49857e-01,5.10606e-01,3.27546e-01,-2.56320e-01,1.32630e-01,-7.03276e-01,
-1.04172e-01,5.13115e-02,-7.12374e-02,-2.88645e-01,1.85226e-01,-3.11425e-01,-3.27305e-01,3.09030e-01,-1.96869e-01,4.43388e-01,3.60842e-01,-1.50920e-01,-3.34333e-01,2.03970e-01,-3.37911e-01,3.56468e-01,-5.49971e-01,1.70119e-01,-5.45538e-02,-9.32942e-02,-3.07982e-01,1.20506e-01,6.95614e-02,1.48466e-01,7.28630e-01,
-5.26001e-02,5.16603e-02,-1.00963e-01,-3.30103e-01,-1.73513e-01,4.04471e-03,-1.29374e-01,-1.79205e-01,-2.23521e-01,-2.02731e-01,-1.21575e-01,-3.04039e-01,-1.47368e-01,-7.15536e-02,-2.13068e-01,2.00050e-01,1.85789e-01,-1.56122e-01,-1.57683e-01,-8.98193e-02,1.71137e-01,-1.33100e-01,8.32111e-04,2.30765e-01,-9.21223e-03,
-1.37121e-01,-2.37293e-01,8.24531e-02,3.81178e-02,3.17206e-02,1.23341e-01,-3.81952e-01,-1.34450e-01,2.02925e-02,3.46465e-01,7.84265e-02,-2.65899e-01,3.06751e-02,-6.22718e-02,3.15820e-01,3.15350e-01,-2.73601e-01,1.50976e-01,-1.68763e-01,-3.11461e-02,-6.03659e-02,5.99459e-02,4.85112e-01,-2.15019e-01,3.74528e-01,
5.33345e-01,2.78979e-01,-5.87007e-03,5.87926e-01,-4.15182e-01,2.75600e-01,2.71474e-01,-8.04084e-01,-3.57978e-01,3.76805e-01,-1.86456e-01,-3.20221e-01,-3.27436e-02,3.22268e-01,6.26144e-01,-9.79933e-01,-1.49743e+00,1.48057e-01,-4.64570e-01,2.33767e-01,-2.85918e-01,1.76171e-01,9.13146e-01,-7.50364e-02,5.04897e-01,
2.13440e-01,-1.32769e+00,3.26666e-01,-7.36897e-01,-1.52549e-02,6.62334e-02,1.50213e-01,2.80616e-01,-1.44823e-01,-5.50251e-01,4.11132e-01,1.41625e-01,2.73967e-01,1.36977e-01,-6.68733e-01,-2.33398e-01,-3.04541e-01,-1.06386e-01,-8.05899e-01,-1.11723e-01,4.79795e-01,9.74828e-02,-5.21211e-01,-1.15630e-01,-1.04239e-02,
1.91214e-01,7.84551e-02,6.77016e-02,2.39001e-01,-2.16733e-01,-1.18810e-01,1.30272e-01,-1.42561e+00,-8.61165e-02,-2.64926e-02,-4.66351e-01,-2.78583e-01,2.66442e-01,-3.59490e-01,-4.38479e-01,-2.87373e-01,1.51316e+00,6.40419e-02,1.93135e-01,4.30326e-01,6.13678e-01,2.49287e-01,1.22532e+00,-1.19965e-01,-2.96756e-01,
5.39039e-02,1.30375e-01,2.22978e-01,3.18544e-01,-1.11915e-01,5.73390e-02,-2.25425e-01,-5.61162e-01,3.23716e-02,-2.26737e-01,-8.24165e-03,1.88669e-01,-8.32523e-02,2.77395e-01,-3.88394e-01,-8.85651e-02,2.36342e-01,2.42313e-01,-4.94323e-01,2.12611e-01,3.70718e-01,2.02138e-01,4.18593e-01,5.63332e-02,-1.68757e-01,
1.65718e-01,6.54641e-01,-5.57967e-02,4.73254e-01,-4.25798e-02,1.13742e-01,-1.12018e-01,6.51551e-01,5.68967e-01,2.97348e-01,-3.67135e-02,1.06827e-01,1.40810e-01,-1.39425e-02,4.81608e-01,2.45814e-01,2.18554e-02,-3.17361e-01,-2.94905e-02,-6.95831e-01,-5.01777e-01,-2.61748e-01,-3.09911e-02,2.03200e-01,-6.39344e-01,
-5.58390e-01,6.60924e-01,3.75867e-01,-4.81590e-02,1.47866e-01,2.70247e-01,-2.23408e-01,4.05077e-01,-3.14542e-01,5.77996e-02,2.18834e-01,-1.42000e-01,3.20251e-02,-8.74901e-03,5.80767e-01,-3.15856e-01,6.81000e-02,-1.90661e-01,2.08052e-02,-3.98699e-03,-7.79156e-01,-1.60682e-01,-1.46470e+00,1.34672e-02,-8.16304e-02,
9.09060e-04,-1.78340e-01,-5.22570e-02,-2.33834e-01,-2.30116e-01,-1.09468e-01,-2.82963e-01,2.62644e-02,-1.77167e-01,-3.29342e-01,-1.49228e-01,3.07679e-01,-3.19665e-01,3.38233e-01,-2.06772e-01,-2.64016e-01,-1.16087e-01,-3.79343e-02,7.02021e-03,-1.38332e-01,3.16889e-01,2.30487e-02,2.29521e-01,-2.73633e-01,-1.74031e-01,
6.09963e-01,5.71641e-02,-1.92018e-01,-6.47599e-02,2.16461e-02,-2.97065e-01,-2.46542e-01,-5.70050e-01,2.18930e-01,-8.04675e-01,1.69867e-01,3.19090e-01,-4.45041e-01,1.39937e-01,5.44103e-01,1.15673e+00,6.03381e-03,-4.93670e-02,3.17722e-01,-6.82953e-01,-4.01647e-01,-1.00817e-01,-7.30798e-01,-2.37155e-01,1.13449e-01,
-1.63323e-02,9.98805e-01,9.69311e-02,7.71496e-01,-2.95204e-01,3.24344e-01,-2.19016e-02,-3.80984e-01,8.63819e-02,-1.98144e-01,-1.34625e-01,2.30839e-01,3.88872e-01,-2.17062e-01,1.77486e-01,-2.50104e-01,-3.51153e-01,-4.43078e-02,2.52790e-01,3.98915e-01,-1.56206e-01,-2.82040e-01,3.19058e-01,4.01554e-02,-1.04528e+00,
2.20409e-01,-4.16697e-02,-3.14850e-01,3.34046e-01,8.17047e-02,-2.19882e-01,-3.24988e-01,-2.99475e-01,1.56410e-01,-1.12557e-01,1.38129e-01,2.92117e-01,-2.71775e-01,-9.54263e-02,3.34635e-01,3.05220e-01,1.71737e-01,2.49491e-01,-3.35102e-01,-8.45490e-02,2.08471e-01,-7.44220e-02,2.71739e-01,-9.85908e-02,-5.78509e-02,
-6.02846e-01,-6.81700e-01,3.92528e-03,-3.57866e-01,5.63494e-02,2.53608e-01,3.53123e-01,1.86105e-01,-1.53875e-01,7.43494e-01,4.75939e-01,-1.47257e-01,-3.04109e-01,3.23312e-01,4.32694e-01,1.54510e-01,-4.69880e-01,2.83441e-01,-3.86367e-01,-5.33603e-01,2.02311e-01,-1.43826e-02,-2.25683e-01,2.45505e-01,6.70782e-01,
-2.50621e-01,1.69890e-01,-1.15586e-01,4.76387e-02,3.70587e-01,1.62831e-01,1.51299e-01,8.03828e-01,-2.13604e-01,3.43715e-01,4.30518e-01,-3.88739e-01,2.03381e-01,3.25734e-01,9.66682e-02,-2.80968e-01,-3.11141e-01,-8.05231e-02,-3.43256e-01,-3.13994e-01,-3.68422e-01,-9.34167e-02,-3.85090e-01,2.54802e-01,5.04542e-01,
7.27936e-02,-7.71545e-01,3.74309e-01,-2.19612e-01,2.54660e-01,-1.17128e-01,1.07784e-01,8.33246e-02,8.23177e-01,-1.39138e-01,-3.06947e-01,3.18183e-01,4.78415e-01,-2.67642e-02,-1.52355e-01,-2.60911e-01,6.46570e-01,-1.93703e-02,9.74232e-03,1.80955e-01,1.69654e-01,5.24419e-02,1.63834e-01,4.49841e-01,-4.52503e-01,
2.19230e-01,-1.65059e-01,-1.02021e-01,-3.53946e-01,6.66267e-01,1.07660e-01,1.04529e-01,5.90351e-01,-2.76863e-01,3.42815e-01,9.28865e-02,3.93456e-02,-9.24826e-02,9.49904e-02,-8.84208e-01,9.41605e-01,5.44330e-01,-2.27191e-01,-3.04295e-03,-1.55222e-01,4.55003e-01,8.42871e-02,-2.22888e-01,-3.26279e-01,3.59220e-01,
-3.45593e-01,-2.70066e-01,-2.99235e-01,2.79730e-01,5.26427e-02,-2.83128e-01,2.86532e-01,1.82097e-01,-3.03407e-02,1.92678e-01,-6.40781e-02,-1.52147e-01,-3.39157e-01,-2.87725e-01,-1.98858e-01,1.83178e-02,-3.23241e-02,2.50724e-01,-9.75258e-02,-3.04554e-01,-2.48489e-01,-2.26346e-01,2.71847e-01,-3.38512e-01,-2.62105e-01,
-5.95428e-01,-3.15215e-01,-2.35241e-01,-3.27033e-01,-1.69646e-01,2.25014e-01,-1.49742e-01,-5.87433e-02,-4.24436e-01,3.11030e-01,2.68460e-01,-3.24282e-02,-3.76135e-02,4.30645e-03,3.93240e-01,1.73987e-01,3.32123e-01,-1.72005e-01,-3.99626e-01,-1.19027e-01,-3.44882e-01,1.75156e-01,4.67776e-02,1.27774e-03,3.21873e-01,
-2.79856e-01,-4.76576e-01,-3.17681e-01,-2.57646e-01,5.68071e-03,1.01603e-02,-9.97023e-02,3.42411e-01,-3.92909e-01,5.24465e-01,1.80669e-02,9.74568e-02,-2.33722e-01,-1.33390e-01,-2.21676e-01,8.12565e-01,1.75325e-01,8.84540e-02,2.21897e-01,2.46101e-01,7.02342e-02,1.70689e-01,3.19873e-03,1.49117e-01,3.52074e-01,
-1.24716e-01,1.27937e-01,-2.93774e-01,-2.24700e-01,-1.35315e-02,1.04638e-01,3.59327e-01,1.50677e-01,-1.82804e-01,9.35633e-01,2.19367e-01,2.88279e-02,-6.94329e-02,2.09396e-01,1.75533e-01,-1.50056e-01,-1.85812e-01,-2.51829e-01,-1.20994e-01,1.80858e-01,3.16777e-02,8.23159e-02,-3.93192e-01,7.39855e-02,4.43415e-01,
-2.16410e-01,2.35047e-01,-1.85387e-01,1.92654e-01,2.99817e-01,1.42983e-01,-3.43484e-01,2.85076e-01,5.65525e-02,-2.01365e-01,-3.58336e-01,1.57047e-01,-1.23654e-01,-1.53808e-01,1.99505e-01,2.10958e-01,-6.62909e-02,-2.37288e-01,-2.03079e-01,-2.15344e-01,-3.78384e-02,8.40848e-02,-4.14865e-02,-3.26097e-01,3.46056e-02,
-3.74054e-01,1.54365e-01,-2.46959e-01,-4.47643e-02,-4.08079e-02,4.42724e-01,3.43008e-01,-1.36101e-01,-4.82306e-01,3.70618e-01,3.24452e-01,-7.51954e-02,1.75781e-01,2.49804e-01,2.05702e-01,-3.36298e-02,-4.53117e-01,2.34913e-01,-1.00856e-01,1.18190e-01,3.78842e-01,-1.45958e-01,-3.41244e-01,7.98994e-02,2.02019e-01,
-1.98535e-01,
3.16706e-01,
2.14755e-01,
-2.83863e-01,
-1.86261e-01,
-1.76726e-01,
-2.77727e-02,
6.76791e-02,
2.61619e-01,
-1.19937e-01,
4.59695e-02,
-2.24034e-01,
-1.72791e-02,
1.55376e-01,
-3.49785e-01,
-5.63442e-02,
-2.29364e-01,
3.68775e-02,
-1.99788e-01,
-1.59620e-01,
2.47726e-01,
2.39322e-01,
-1.21932e-01,
-6.84836e-02,
-2.75917e-01,
-1.99810e-01,8.32023e-02,-3.46358e-01,1.90533e-01,-1.22270e-01,9.49787e-02,2.59147e-01,-5.85649e-02,5.62246e-02,-8.32133e-02,-3.51667e-01,1.17640e-01,-2.27816e-01,3.88520e-04,9.55313e-04,-1.88692e-01,-3.49776e-01,-3.83431e-01,-3.31883e-01,-2.17806e-01,1.20096e-02,-2.32603e-01,4.74116e-02,-1.42502e-01,2.04738e-01,
2.21085e-01,-9.93504e-02,2.02520e-01,1.98496e-01,-2.37161e+00,-9.09258e-02,-1.27690e-01,1.39775e-01,-2.31255e-01,1.50406e-01,-3.24391e-01,3.10604e-01,2.60982e-01,-1.02453e+00,2.68728e-01,-1.53898e-01,2.63592e-02,2.09763e-01,2.18481e-01,-1.68674e-01,-1.46532e-01,-1.60798e-01,2.24707e-01,-9.46378e-02,-2.19649e-01,
-4.67261e-02,-2.53720e-01,-2.08637e-01,-2.98957e-01,1.93525e-01,4.19161e-01,1.51730e-02,-6.01822e-01,1.93201e-01,2.06784e-02,-5.55074e-02,3.13056e-01,1.68951e-01,9.85229e-02,1.60937e-01,3.42691e-01,-6.99769e-02,3.07804e-01,1.55909e-01,-1.78536e-01,1.20499e-01,1.12354e-01,-4.06414e-01,-2.51011e-01,9.76694e-02,
4.49460e-02,7.99711e-02,-7.83431e-02,-3.26021e-01,-1.27788e-01,-2.68192e-01,1.41664e-02,-2.97559e-01,-3.53338e-01,-9.42349e-02,-1.40772e-02,-1.88899e-01,-2.54783e-01,-1.62585e-01,-1.90586e-01,-1.63846e-01,-7.52030e-02,1.46552e-01,1.68760e-01,1.04707e-01,-1.46462e-01,-1.43184e-01,2.09137e-01,2.62192e-01,2.31648e-01,
-7.52935e-02,3.51576e-02,1.46052e-01,2.37691e-01,-5.72452e-01,4.23884e-01,-3.42999e-02,-4.06668e-03,1.90006e-01,4.46539e-01,3.39242e-01,-2.63449e-01,-2.69711e-01,-3.84686e-01,1.21303e-01,5.39531e-01,-1.40065e-01,-1.59461e-02,2.85806e-01,2.33713e-01,2.84346e-03,6.97111e-02,1.40041e-02,-6.84011e-02,-3.55261e-01,
-1.67518e-02,-2.28830e-01,-6.57172e-03,1.22424e-01,-3.20579e-01,6.29082e-01,-2.69783e-01,2.29122e-02,-2.16737e-01,-1.62492e-02,2.95877e-01,-1.09106e-01,-2.63403e-01,-1.52944e-02,6.33469e-02,3.31441e-02,8.51822e-02,2.73442e-01,3.38425e-01,1.36104e-01,1.54507e-01,-7.93550e-02,-2.45148e-01,2.67091e-02,1.85880e-01,
-3.13182e-01,-2.03580e-01,-2.80075e-01,2.48399e-01,1.99873e-02,-2.32248e-01,1.54511e-01,-7.77501e-02,-2.74747e-01,-2.71500e-01,1.63905e-01,-3.24175e-01,1.03009e-01,3.45892e-01,7.90052e-02,6.95826e-02,-9.89214e-02,-1.14755e-01,3.33904e-01,2.43825e-01,-4.23271e-02,-2.00716e-01,-1.48718e-02,2.12741e-01,-1.73023e-01,
4.94169e-02,-1.28269e-01,-3.76310e-01,1.67310e-01,-1.44955e-01,2.39034e-01,4.63501e-02,9.11109e-03,-2.67530e-01,2.72284e-01,3.04809e-01,-2.44098e-01,-1.33824e-01,-1.41819e-01,1.99010e-01,8.02005e-02,-1.95853e-01,1.88649e-01,-5.89949e-01,-2.66561e-01,1.93813e-02,1.54458e-01,2.15235e-01,-3.41813e-02,-2.18660e-01,
-8.83498e-02,-1.81376e-01,-2.20384e-01,-3.11066e-01,1.81873e-02,9.02397e-02,-5.64800e-02,2.58721e-01,-4.83065e-01,-4.12357e-01,-9.02296e-03,3.39856e-01,-1.15716e-01,-4.65807e-02,-3.44919e-01,-2.49019e-02,2.46532e-01,5.63353e-02,3.43043e-01,3.20080e-01,1.82781e-01,-1.09022e-01,1.96734e-01,2.03284e-01,-2.59140e-01,
-8.96484e-01,3.18520e-01,-4.34000e-01,2.64464e-01,-1.49108e-01,1.95016e-01,-1.16533e-01,-2.69880e-01,-2.28198e-01,-7.34906e-01,-2.85808e-01,-1.20601e-01,-7.14369e-02,-2.34217e-01,4.41885e-03,3.45581e-01,-2.87885e-01,4.42861e-01,9.80605e-02,-3.29347e-01,1.44934e-02,1.78876e-01,1.47157e-01,9.31079e-02,1.66417e-01,
-9.94891e-01,-4.06094e-02,1.85897e-01,3.00363e-01,-6.62930e-02,-2.34176e+00,7.92149e-01,-1.61163e+00,-2.47682e-01,-5.42453e-01,-7.73953e-01,-3.40497e-01,6.07515e-01,-2.47646e-01,3.86704e-02,-2.76978e-01,-1.28354e+00,3.37702e-01,-2.38140e+00,2.57824e-02,-4.53666e-02,6.33199e-02,8.62132e-01,-8.13341e-02,3.85694e-01,
1.02107e+00,2.92252e-01,-2.85759e-01,2.74821e-01,-1.03997e-01,-1.16226e+00,-5.48374e-01,-1.09908e+00,-4.52068e-02,-1.32278e+00,-3.74456e-02,-5.97768e-02,-2.30343e-01,4.92787e-01,-5.83636e-02,-1.18300e+00,-9.62038e-01,2.48246e-01,-1.84877e+00,-2.36999e-01,-4.08162e-01,-2.56668e-01,1.15338e+00,-1.52542e-01,8.96852e-02,
-1.17565e+00,1.68848e-01,-7.72784e-02,6.32008e-02,-2.17248e-01,-5.25220e-01,8.86613e-01,-4.16555e-01,2.85015e-01,-3.22207e-01,-3.35527e-01,-1.11785e-01,1.86885e-01,-4.76800e-01,-6.31205e-02,4.63049e-01,-4.33423e-01,6.70137e-02,-4.93096e-01,2.88732e-01,-5.43191e-02,3.34013e-01,7.63355e-02,3.26680e-01,3.39216e-01,
4.63000e-01,3.46540e-02,-2.29339e-01,1.39617e-01,-5.71202e-01,-8.77917e-02,4.80397e-01,3.45999e-01,6.94685e-02,1.44035e-01,2.82328e-01,1.75181e-01,1.83089e-01,-7.53506e-02,1.76824e-01,3.16186e-01,7.90451e-02,-1.74792e-01,1.91887e-01,-2.56860e-01,-1.38606e-01,-1.72470e-01,7.01506e-02,1.03403e-01,-6.02134e-02,
-1.22579e-01,-1.39777e-01,3.10710e-01,-3.26382e-01,4.16393e-02,4.89365e-02,1.40346e-01,1.77344e-01,3.39883e-02,-2.64560e+00,1.06727e-01,-2.99020e-01,-2.19460e-01,-1.29609e+00,1.92580e-03,1.54580e-01,2.55386e-02,-3.23154e-01,7.98187e-02,7.26012e-02,-3.31679e-02,-7.71056e-02,1.42280e-01,3.20289e-01,-5.23860e-01,
-1.81197e-01,-1.39112e-01,-2.46771e-01,-3.16228e-01,1.17305e-03,-1.81505e-01,-3.07957e-01,2.58563e-01,2.62013e-02,-2.76310e-01,-2.39667e-01,-3.20899e-01,3.30179e-01,-5.51342e-02,1.12023e-01,-1.35987e-02,-1.92211e-01,-1.26320e-01,1.33331e-01,-1.50674e-01,1.75731e-01,-1.36355e-01,1.81917e-01,-2.85507e-01,-1.37195e-01,
1.43822e-01,-2.96124e-01,-1.99656e-01,-2.32464e-02,2.76703e-01,6.09350e-02,1.59488e-01,-4.15296e-02,-2.80549e-01,1.79761e-01,-2.02490e-01,1.61383e-01,-2.49600e-01,-2.43730e-01,9.92593e-02,-2.96902e-01,-2.60491e-01,2.52532e-01,-2.95955e-01,-2.79069e-01,-1.21580e-01,-2.58051e-01,-2.70133e-01,-2.36961e-02,1.55517e-01,
2.23460e-01,2.01183e-01,-3.29838e-01,-1.53793e-01,4.46680e-01,-3.44656e-01,-9.06801e-02,-2.35034e-01,-8.52561e-02,-5.00816e-01,-4.18421e-01,1.70279e-01,2.88775e-01,3.66793e-01,3.34275e-01,-5.78489e-01,3.51588e-01,1.43707e-01,-8.64525e-02,2.77148e-02,1.34335e-01,-1.17080e-02,3.06034e-01,2.67247e-01,4.26553e-01,
-2.43844e-01,1.53481e-01,2.82555e-01,2.25635e-01,2.67826e-01,1.99089e-01,1.30643e-01,-1.89485e-01,3.03775e-01,3.68809e-01,-1.39333e-01,1.38993e-01,4.42110e-01,6.59916e-02,1.84978e-01,8.55501e-01,-6.54693e-01,5.29217e-01,-1.68475e-01,2.47494e-01,1.27481e-01,-6.06101e-02,-5.56387e-01,-2.83281e-01,-3.57166e-01,
1.26230e-01,-1.45830e-01,1.30877e-01,1.02233e-01,-1.26624e-01,2.59574e-01,-1.93721e-01,2.85781e-01,-3.39019e-01,-1.71108e-01,1.97418e-01,-8.85472e-03,-3.06008e-01,1.91597e-01,-2.17804e-01,-9.19368e-03,1.23333e-01,-4.45201e-02,3.48630e-01,1.84116e-01,1.59471e-01,-2.12678e-01,1.11975e-01,1.33739e-01,-3.07216e-01,
1.68680e-01,4.05599e-01,-2.43590e-02,2.89600e-01,-2.37616e-01,-8.41952e-01,4.66337e-01,-1.10438e+00,1.10265e-01,-8.31995e-01,-4.46378e-01,-1.04031e-02,-7.21407e-01,3.43774e-01,-8.34840e-02,-5.73345e-01,-1.06880e+00,1.73954e-01,-5.88218e-01,1.10376e-01,1.07656e-02,-3.13768e-01,6.02827e-01,1.28384e-01,6.97741e-01,
-2.30700e-01,-1.48814e-01,-3.79480e-01,2.21239e-01,2.67220e-01,3.17644e-01,6.37168e-03,-5.05600e-01,4.31643e-05,-3.86190e-01,3.85385e-02,-1.02362e-01,5.09525e-01,3.45299e-01,1.45837e-01,-1.54756e-01,-4.57198e-01,4.79656e-01,-1.48016e-01,-1.60659e-02,2.72539e-01,1.57543e-01,-6.12865e-02,2.70242e-02,1.90116e-01,
6.26612e-01,-1.68400e-01,-1.68354e-01,-3.72187e-02,9.88126e-02,-5.56583e-03,6.50557e-02,2.04603e-01,-1.81526e-01,-1.17859e-02,-1.71946e-01,-2.24038e-01,3.69298e-01,-1.88474e-01,-1.14571e-01,2.60846e-01,2.80775e-01,1.54940e-01,-2.72787e-01,-5.97328e-02,-1.74615e-01,-5.57688e-02,-3.59090e-01,-2.35710e-01,9.47115e-02,
-5.86461e-02,1.31295e-01,1.91914e-01,2.65041e-01,-3.79326e-01,2.10383e-01,-2.07534e-01,2.60884e-01,-1.16422e-02,3.18915e-01,1.94976e-01,9.85907e-02,8.10966e-02,-1.22257e-01,-2.20305e-01,3.58891e-01,6.10733e-02,2.72923e-01,3.30442e-02,-3.37177e-01,-8.18486e-02,-8.28091e-02,1.76453e-01,-2.48732e-01,-3.29646e-01,
2.62348e-01,2.19810e-01,-1.53864e-01,-1.70850e-01,-4.82608e-01,-6.61857e-01,2.75666e-01,-3.18880e-01,2.05792e-01,-5.12488e-01,-4.81912e-01,1.14400e-01,1.85461e-01,5.20165e-01,-2.20478e-01,-1.71491e-01,-7.78641e-02,1.79611e-01,-2.21713e-01,3.04636e-01,-1.87517e-01,-1.14404e-01,2.52847e-02,1.87198e-01,3.91615e-01,
-8.27151e-02,
-8.26924e-02,
-3.89106e-02,
-3.68229e-02,
3.40685e-01,
4.00216e-02,
-2.79301e-02,
-5.94052e-02,
2.17060e-01,
-1.28136e-01,
1.79328e-01,
8.45254e-02,
-1.90041e-01,
-2.01559e-01,
-1.32579e-01,
-1.69942e-01,
4.26182e-02,
2.47551e-01,
-1.49187e-01,
1.78936e-01,
-1.60210e-01,
-5.43818e-02,
-1.41185e-01,
-3.36649e-01,
-6.21391e-02,
-2.16421e-01,-8.21591e-03,1.98387e-01,1.50107e-01,1.53912e-01,-2.23877e-01,-6.15205e-02,-2.07811e-01,9.84243e-02,-1.68587e-01,1.06130e+00,-7.99676e-01,4.01698e-01,-1.52845e-01,-2.48785e-01,-1.93907e-01,-8.53667e-02,-1.72581e-01,-6.96470e-02,-1.77292e-01,3.40951e-01,5.85404e-01,-1.11362e-01,1.64017e-01,-2.07046e-01,
4.13306e-02,-2.38864e-01,2.42365e-01,-1.56244e-01,-1.37738e-01,1.08927e-01,1.82532e-01,1.11330e-01,-2.46406e-02,-3.50737e-01,5.78969e-01,-3.00568e-01,-5.57564e-01,1.24453e-01,2.66128e-01,-2.66111e-01,-1.89274e-01,8.17873e-02,2.68349e-01,2.48631e-01,4.32182e-01,3.72150e-01,6.38313e-01,-2.53878e-01,4.88403e-01,
2.67502e-01,-1.01529e-02,1.49601e-01,1.87430e-01,6.77149e-02,-1.40508e-01,2.03284e-01,-2.41184e-02,-3.06827e-01,-6.05401e-02,-2.10052e-01,-4.48876e-01,-4.73417e-01,6.43670e-02,1.07216e-01,2.94907e-01,-7.28153e-02,-2.39626e-01,6.08397e-02,-2.26048e-02,-1.29789e+00,4.23027e-03,-1.47788e-01,-1.05970e-01,-1.23063e-01,
-3.02962e-01,-3.27436e-02,-3.09435e-01,2.17479e-01,-1.56603e-01,-2.96489e-01,-2.81938e-01,1.24318e-01,1.94752e-01,1.88929e-01,1.02556e-01,-7.63105e-02,-1.77582e-01,-1.17952e-01,-3.41425e-01,1.20067e-01,-2.41501e-01,1.05876e-01,2.74041e-01,-7.37317e-02,2.81883e-01,-2.90191e-01,7.05646e-02,2.65911e-01,-5.20850e-02,
-2.35758e-01,-1.09724e-01,-3.42222e-01,2.92873e-01,1.35822e-01,4.32820e-01,-2.57154e-01,-8.68670e-02,1.96735e-02,-1.21508e-01,3.27535e-01,-3.64924e-01,3.45486e-01,-6.45106e-03,-1.62156e-02,-2.57356e-01,3.39052e-01,5.08583e-02,-1.75780e-01,-2.78410e-01,-1.12289e-02,2.01561e-01,-2.14615e-01,6.82523e-02,-3.41937e-02,
-2.45184e-01,-9.28650e-02,3.27616e-02,1.10268e-01,2.62438e-01,-1.60519e-01,1.67282e-01,1.27412e-01,5.79601e-02,-1.62709e-01,-8.25101e-01,-4.67200e-01,-2.95809e-01,-8.82421e-02,-1.35355e-01,-7.61977e-02,-2.42448e-01,-6.09477e-02,-4.54996e-02,1.42093e-01,-6.42627e-01,3.62928e-02,2.28769e-02,1.94924e-01,4.64610e-01,
2.34598e-01,-2.24884e-01,-3.36988e-01,2.07734e-01,-3.41835e-01,-2.10804e-01,-5.97293e-02,1.34862e-01,1.75485e-01,-9.59172e-02,1.74171e-01,3.30914e-01,1.12072e-01,1.77409e-01,3.34170e-01,-2.59965e-01,1.58727e-01,1.05619e-01,1.37612e-01,-1.31045e-01,-1.89561e-01,-1.81724e-01,-2.74255e-01,-2.68560e-02,-2.45315e-01,
3.30200e-01,2.07991e-01,3.04674e-01,3.09747e-01,2.73822e-01,-1.77689e-01,-1.90504e-01,-7.73600e-02,-4.73641e-02,-5.39906e-02,-8.18363e-01,3.01317e-01,-2.88217e-02,9.38536e-02,2.99013e-01,3.17075e-01,-2.52960e-01,-2.80450e-01,2.66722e-01,-1.20198e-01,6.50330e-01,6.30850e-01,-1.57277e-01,-2.76976e-01,-1.78452e-01,
2.79361e-01,1.56076e-01,-3.23782e-01,-3.55431e-03,1.21545e-01,6.02134e-02,1.77114e-01,7.57768e-02,2.22103e-01,9.46753e-02,3.54031e-01,1.02331e+00,-4.82065e-02,-2.11653e-01,-2.47609e-01,-3.01600e-01,3.51844e-02,-2.10921e-01,3.36746e-01,-1.83457e-01,1.50303e+00,1.87930e-01,1.63815e-01,1.52692e-01,5.65033e-01,
-3.31925e-01,2.70355e-02,-4.69269e-02,-2.17909e-01,-3.40661e-01,-1.66275e-02,-1.25393e-01,2.93892e-01,8.50436e-02,-9.25238e-02,2.85019e-01,2.68608e-01,-2.58360e-01,-2.39237e-01,-1.33098e-01,-1.11263e-01,-1.35798e-01,1.26176e-01,2.10748e-01,9.91334e-02,2.87744e-01,3.30548e-01,1.95850e-01,-1.07573e-01,-2.69485e-01,
-5.76241e-02,1.14565e-01,-1.64111e-01,1.29000e-01,2.86884e-01,-2.20072e-01,3.37731e-01,2.45474e-01,-5.04205e-02,3.92128e-02,4.83261e-01,-4.85438e-01,4.24956e-03,-9.36295e-02,-1.75772e-01,3.23946e-01,-1.34929e-01,-3.41466e-01,3.99095e-01,1.17931e-01,-9.12650e-01,2.47803e-01,5.93970e-02,-1.06636e-03,-1.38132e-01,
-3.19261e-01,-1.51033e-01,5.63563e-01,-1.75101e-01,6.44022e-02,-1.25049e-01,8.19381e-02,2.31225e-02,2.04349e-01,-4.33608e-01,9.39436e-02,2.94597e-01,-4.04482e-01,-7.69657e-02,-1.58790e-01,-3.08933e-01,-1.04548e-01,1.94583e-01,1.17871e-01,-1.99985e-02,6.16231e-01,2.17433e-01,1.02172e-01,-1.08889e-01,-6.34145e-01,
-1.95161e-01,-5.39872e-02,-6.37406e-02,6.35594e-02,2.73320e-01,2.52294e-02,-1.75767e-01,-8.72959e-02,-1.49282e-01,-1.28322e-01,7.28695e-02,-9.46987e-01,-9.59469e-03,4.77880e-02,-8.93071e-02,-1.08332e-01,2.95917e-01,1.33955e-01,-1.75926e-01,1.52914e-01,-7.60776e-01,1.67132e-01,2.10828e-01,1.96141e-02,1.92140e-01,
-5.76304e-02,1.15156e-01,-2.20230e-01,-3.18490e-01,-2.61350e-01,-1.41816e-01,-1.86339e-01,4.72167e-02,-2.79335e-01,3.74866e-02,1.90086e-01,2.97006e-01,-1.43410e-01,1.12737e-01,4.79387e-02,2.43324e-01,4.90949e-02,1.14294e-01,-2.44524e-01,3.37631e-02,-2.34441e-01,1.47861e-01,1.44580e-01,-1.89729e-01,2.64442e-01,
-7.61420e-02,-1.14944e-01,-9.71157e-02,1.95923e-01,2.48923e-01,1.58778e-01,-1.48108e-01,2.10774e-01,-1.27154e-01,-1.03267e-01,-3.29004e-02,-5.19806e-01,-9.30347e-03,1.49257e-01,7.57398e-02,-2.96627e-01,1.79509e-01,-1.98769e-01,-8.22657e-02,2.02783e-01,-1.43440e+00,3.49504e-02,-2.09289e-01,5.03460e-02,1.08832e+00,
3.34896e-01,1.27408e-01,1.61958e-01,2.98588e-01,-1.08011e-01,5.77061e-02,-9.98494e-02,1.03004e-01,-2.11357e-01,2.31349e-01,3.61261e-02,-1.08686e-01,-1.41469e-01,1.02462e-01,-2.52633e-01,4.28368e-02,2.05093e-01,-9.20327e-02,5.68743e-02,1.43682e-01,-1.28025e-01,-2.39580e-02,-1.15419e-01,-1.53309e-02,-8.86399e-02,
-2.15253e-02,-2.68852e-01,-3.81690e-01,2.98557e-01,-1.42252e-02,9.90353e-02,-2.51915e-01,-2.24100e-02,-2.36066e-01,3.16434e-01,-1.71867e-02,-1.55680e-01,-3.15831e-01,1.02984e-01,1.46398e-01,-1.70443e-01,1.37095e-01,-3.93843e-01,-1.18972e-01,1.20827e-01,-5.33710e-02,-2.04494e-01,-1.22005e-01,-1.42674e-02,1.92310e-01,
-2.87118e-01,1.19580e-01,1.03651e-01,2.46027e-01,1.82820e-01,1.65330e-01,-9.91615e-02,-7.90517e-02,2.27380e-01,2.00460e-01,-1.85733e-01,-3.88178e-03,-5.97631e-01,-9.00691e-01,-2.19213e-01,-1.08103e-01,2.97521e-01,6.01062e-02,-9.12382e-02,5.61153e-03,5.85859e-02,1.40084e-01,1.30786e-02,-3.04555e-01,3.21770e-01,
5.82286e-02,3.33096e-01,-1.69791e-01,-2.28886e-01,-1.59900e-01,1.08577e-01,2.93013e-01,-2.33183e-01,-6.75082e-02,-1.09987e-01,5.97930e-01,-2.13279e-01,2.88515e-01,2.84012e-02,2.09047e-01,1.89561e-01,-9.71840e-02,-3.01717e-01,-5.18153e-02,-2.76576e-01,-4.13368e-01,-2.29318e-01,9.68561e-02,-1.07343e-01,2.69219e-02,
1.14237e-01,-1.30827e-01,-1.32557e-01,-2.89172e-01,2.34558e-01,-3.02970e-01,-2.89040e-01,1.32121e-01,1.16389e-01,-6.39394e-02,-5.30342e-01,5.96670e-01,6.29030e-02,-3.11045e-01,-3.14735e-01,-3.03467e-01,-2.34462e-01,-1.32537e-01,-6.89730e-02,-2.86259e-03,1.28557e+00,3.93821e-01,1.05902e-01,3.03306e-01,5.36184e-01,
1.24093e-01,-1.65195e-01,-1.28538e-01,-1.58076e-02,-1.66719e-01,-2.57462e-01,-2.42551e-01,-6.30317e-02,-7.71303e-02,-3.21275e-01,-1.14419e-01,-2.34342e-01,2.62775e-01,-2.61798e-01,1.38264e-01,1.02225e-02,2.94116e-02,-2.17701e-01,2.65036e-01,1.93511e-01,7.06412e-02,-3.16719e-02,-1.17070e-01,-3.04295e-01,2.78405e-01,
-3.44014e-01,-1.58459e-01,-2.82538e-01,1.28851e-01,-7.35756e-02,-2.82322e-01,3.11539e-01,8.78209e-02,-3.00841e-01,2.65009e-01,1.56170e-02,1.71128e-01,-1.84622e-01,2.06543e-01,-2.81364e-02,2.05085e-01,1.77371e-01,-1.48202e-01,2.65062e-02,-1.56617e-02,-1.29693e-01,2.73095e-01,-3.10099e-01,2.04440e-01,-3.26300e-01,
-1.03194e-01,-2.03882e-01,-1.05404e-01,1.68959e-01,2.07225e-01,-1.47557e-01,-3.38844e-01,-4.35717e-02,-2.64312e-01,-7.34189e-02,3.37273e-01,-6.75210e-02,1.62516e-01,5.17976e-02,3.20211e-01,-1.61737e-01,3.38464e-01,-8.66445e-02,-3.23360e-01,-3.22160e-01,-1.52148e-02,1.04031e-01,1.44276e-01,-3.20072e-01,2.82178e-02,
2.88774e-01,3.33608e-01,-2.39654e-01,1.99148e-01,-3.28159e-01,-8.11276e-02,-2.57153e-01,2.44177e-01,-1.30166e-01,-2.68349e-01,-2.62391e-01,1.83460e-01,-1.90159e-01,2.43933e-01,-2.43233e-02,-5.05070e-02,-1.89989e-01,1.44581e-01,-8.68243e-02,-1.39003e-01,-8.24730e-02,-2.78871e-01,-2.80502e-01,-2.31155e-01,-3.37479e-01,
1.75369e-01,1.64054e-01,-2.94609e-01,1.52797e-01,2.99131e-01,1.86517e-01,2.82687e-01,5.79194e-02,3.28189e-01,-1.40684e-01,1.86134e+00,-3.25641e-01,5.51972e-01,-1.57454e-01,1.46914e-01,-5.21128e-02,2.11605e-01,1.32942e-01,2.23948e-01,-4.27907e-01,5.46177e-01,4.05370e-02,5.38428e-02,-2.99750e-02,4.23171e-01,
-3.09518e-02,
-5.93900e-02,
2.64495e-01,
-2.15371e-01,
1.34241e-01,
1.51980e-01,
-3.11397e-01,
-1.94888e-01,
-1.97427e-02,
-2.79942e-01,
2.57992e-01,
-1.70164e-01,
3.17900e-01,
-5.25266e-02,
-1.37132e-01,
-3.69233e-01,
-9.87626e-02,
-1.67360e-01,
1.68561e-01,
1.68984e-01,
-2.41654e-01,
-2.98022e-01,
-2.19439e-01,
4.36397e-02,
-2.21498e-01,
-1.20757e-01,-2.08908e-01,-2.88184e-01,2.64659e-01,3.04067e-01,5.30430e-02,4.13445e-03,8.41770e-02,-3.37280e-02,-2.71889e-01,4.64446e-01,1.38726e-01,4.82739e-01,5.65036e-02,-2.98307e-01,3.81209e-01,-2.89951e-01,-8.73216e-02,5.51056e-03,-2.24313e-01,-2.08472e-01,2.76018e-01,-2.97923e-01,-4.16144e-01,-2.72149e-01,
-3.46451e-02,-9.40272e-03,-1.12434e-01,-2.69181e-01,3.92607e-01,5.67501e-01,-6.49056e-02,-8.64780e-02,-3.69932e-01,-3.77991e-01,4.32458e-01,6.02396e-02,-3.00199e-01,3.91024e-01,-4.09713e-01,-1.71831e-02,1.75202e-01,5.19748e-02,-3.18844e-02,-2.37060e-01,4.30374e-01,1.64228e-01,-6.07570e-02,-3.20265e-01,-1.37096e-03,
-9.16114e-02,-3.44348e-02,-2.00794e-01,-8.83132e-02,1.46859e-01,2.31643e-01,1.38498e-01,5.81815e-02,-3.14005e-01,-1.21021e-01,4.00187e-01,-2.85353e-02,1.10608e-01,9.15225e-02,-3.22689e-01,3.75197e-01,4.58498e-01,4.96517e-02,1.60004e-01,-1.63382e-01,3.95767e-01,3.42100e-02,-2.69550e-01,-3.35840e-01,-1.62601e-01,
-4.75620e-01,9.62110e-02,-2.14840e-01,4.39130e-01,1.30326e-01,1.08329e-01,3.07199e-01,-3.57222e-01,-3.70875e-01,-3.87629e-01,6.79721e-01,3.22287e-01,-4.28393e-02,-1.55644e-01,-2.28523e-01,-2.47019e-01,2.78247e-01,1.31400e-01,-8.84491e-02,-2.55820e-01,-6.63217e-02,-3.44552e-01,-2.70399e-01,-4.20617e-01,2.76663e-01,
3.26463e-01,1.45010e-01,-4.72799e-01,1.59105e-01,-4.20786e-01,3.37825e-01,-2.13873e-01,6.29943e-04,-3.94787e-01,1.61153e-01,2.38676e-01,-3.42400e-01,2.85051e-03,3.20226e-01,-7.56733e-02,7.82205e-02,4.42313e-01,-8.80051e-02,1.03461e+00,-7.72108e-02,2.73083e-01,4.16983e-01,-3.05505e-01,3.80257e-01,-5.03738e-01,
-3.69594e-01,
-1.64657e-01,
-2.05669e-01,
-1.94916e-01,
2.56711e-02,
