// Neural Network File Format by Kyle Julian, Stanford 2016
6,3,5,25,
3,25,25,25,25,25,5,
0,
-56000.000000,-56000.000000,-3.141593
56000.000000,56000.000000,3.141593
-278.628049,0.000000,0.000000,-0.242819
112000.000000,112000.000000,6.283185,17.479225
2.45604e-01,-2.17918e-01,1.67578e-01,
4.51896e-01,-4.87420e-01,4.32300e-01,
-5.44296e-01,-9.12414e-01,-1.65302e-01,
-5.79128e-01,1.14482e-01,-2.10325e-01,
-7.45153e-01,-5.73500e-01,1.59303e-01,
4.10962e-01,-1.23104e-01,-8.42926e-02,
-5.73172e-01,2.40211e-01,9.69347e-02,
7.94507e-01,1.06314e+00,-5.20497e-01,
2.46407e-01,-3.64481e-01,2.28565e-01,
1.46905e-01,-3.32613e-01,-5.66657e-01,
1.49384e+00,6.05220e-01,-1.93438e-04,
-4.91175e-01,9.35312e-01,-2.17085e-01,
2.30254e-01,6.69578e-01,-3.39392e-01,
-7.97127e-01,-6.40259e-01,-6.35358e-01,
7.68485e-01,-7.80969e-01,-2.33170e-01,
-1.71305e-01,4.04021e-01,5.78356e-01,
1.29845e-01,1.56300e+00,2.16755e-01,
-3.83576e-01,-1.07370e+00,-9.00204e-02,
6.41676e-02,-1.68955e-01,-6.26959e-01,
-3.48737e-01,-5.58452e-01,3.59799e-01,
1.00733e+00,1.31684e-02,-3.84557e-01,
-2.58928e-01,8.97158e-01,5.33706e-01,
-6.38902e-01,9.63857e-01,4.03487e-02,
6.81954e-01,1.02082e-01,4.55261e-02,
-4.27809e-01,8.52306e-01,-6.64221e-01,
2.80290e-01,
2.44866e-01,
1.76780e-01,
1.26070e-01,
2.04696e-01,
-2.57963e-01,
2.06330e-01,
-1.40070e-01,
-3.35090e-01,
-2.62860e-03,
-4.36487e-03,
2.15038e-01,
1.34418e-01,
-2.10364e-02,
-1.30624e-01,
4.34540e-02,
1.40893e-01,
1.85323e-01,
8.17363e-02,
-1.67188e-02,
1.00414e-02,
-1.97178e-03,
9.48120e-02,
6.67373e-02,
4.72949e-02,
2.06364e-01,1.36080e-02,2.82004e-01,1.39308e-01,2.75702e-01,-1.98473e-01,2.74190e-01,-1.56898e-01,-3.30646e-01,-2.41694e-01,3.67517e-01,-1.54613e-01,2.66625e-01,3.53445e-01,4.04172e-03,1.81442e-01,-4.29886e-02,3.20642e-02,-2.94861e-01,4.87795e-01,2.23928e-01,-2.72287e-01,6.90537e-02,7.21484e-02,-1.44291e-01,
3.63699e-01,-1.60111e-01,2.16489e-01,1.96619e-01,-2.15417e-02,3.09242e-01,-1.80243e-01,-6.38021e-01,2.54480e-01,-3.99370e-02,6.63240e-01,-2.45872e-01,-1.51397e-01,-5.57522e-01,-3.65659e-01,-3.62160e-01,-2.68473e-01,9.30468e-02,4.78630e-01,4.33090e-01,-1.25934e-01,1.18373e-01,3.61355e-02,1.23013e-01,2.23807e-01,
-6.78617e-02,-3.50265e-01,-7.70899e-02,-6.77818e-02,3.15641e-02,2.52757e-01,-3.40872e-01,3.30877e-02,3.23576e-02,2.43362e-01,-1.57760e-01,-8.10803e-03,-3.77118e-01,2.99690e-01,2.34066e-01,3.19951e-01,-9.30819e-02,-2.39792e-01,7.17210e-02,1.52142e-01,1.81135e-01,1.70909e-01,2.33214e-01,1.68376e-01,2.08546e-01,
-2.27503e-01,-1.92240e-01,8.93576e-02,-3.76254e-02,3.95808e-02,-2.00908e-01,-1.87901e-01,-6.18298e-01,-1.47519e-01,-2.90740e-01,4.61550e-01,1.15578e-01,-3.88054e-02,4.44386e-01,-2.59334e+00,2.65842e-01,-2.45173e-01,-2.24435e-01,2.18163e-01,-3.45590e-01,-3.61414e-01,5.09312e-01,2.13444e-01,-7.36578e-01,3.27927e-01,
-1.02460e-01,2.38903e-01,-1.17726e-01,3.03391e-01,-3.24743e-01,1.21046e-01,1.56056e-01,7.49960e-02,6.83501e-02,-4.95445e-01,-2.17054e-01,-2.56642e-01,-1.20035e-01,-2.27763e-01,-3.40783e-01,-1.84396e-01,1.34384e-02,-1.15056e-01,1.07891e-01,1.20860e-01,-1.55326e-01,-4.64021e-01,-1.20313e-01,7.81538e-02,4.57211e-01,
3.05109e-01,-2.54134e-01,-1.79321e-01,-2.04420e-01,-3.01057e-01,2.26851e-01,2.93144e-02,-1.05969e-01,2.40982e-01,2.81085e-01,-1.01507e-01,-1.62391e-01,-2.23584e-02,-2.41798e-01,-2.28108e-01,-2.26371e-01,3.92334e-02,-1.55293e-01,2.45619e-01,3.24999e-01,-3.44793e-01,1.49151e-01,2.84557e-01,2.64693e-01,2.32693e-02,
-6.97904e-02,-7.30269e-02,-8.38427e-02,9.45256e-02,-2.00794e-01,-1.69665e-01,9.09072e-02,-6.87300e-02,-2.12219e-01,2.62213e-01,-6.39502e-01,-3.47019e-01,-1.65453e-01,-3.71733e-01,3.20685e-01,1.56144e-01,1.88896e-01,-2.83133e-01,-1.13880e-01,-3.01614e-01,4.60899e-02,-2.57429e-01,-3.11284e-01,3.07513e-01,1.92429e-01,
1.77697e-02,-1.20749e-01,2.13659e-01,2.20892e-01,-5.58104e-02,1.77615e-01,-4.79203e-02,2.95677e-01,-7.47242e-02,-6.11732e-01,6.28157e-01,-1.16242e-01,-1.42056e-01,-3.52757e-01,-3.11550e-01,-2.36447e-01,4.94191e-02,2.26799e-01,-8.04007e-02,1.58684e-01,-3.77168e-01,-1.92455e-01,-3.75034e-02,-1.08961e-01,2.12258e-01,
1.53007e-01,4.96164e-03,-1.52405e-01,-1.68963e-01,-3.08786e-01,-2.22469e-01,-2.99885e-01,1.39762e-01,-1.66877e-01,2.13866e-01,-2.02459e-01,2.06527e-01,-7.88924e-02,-1.39654e-01,2.24781e-01,3.40109e-01,-2.29074e-01,-1.65890e-01,-2.60518e-01,1.78414e-01,-1.90587e-01,-2.65269e-01,-1.88233e-01,-1.04534e-01,-1.06877e-01,
-3.39624e-01,5.54082e-02,-8.23734e-02,2.19949e-01,-1.27680e-01,2.98319e-01,2.54318e-01,2.21788e-01,2.35862e-01,2.44402e-01,-1.32331e-02,1.75047e-02,-2.11950e-01,-3.34674e-02,-2.08398e-01,2.81397e-01,-1.97439e-02,-1.95137e-01,7.40350e-02,2.27523e-01,-1.28499e-01,-2.35598e-01,-6.45103e-02,1.68852e-01,-2.00305e-01,
2.16921e-01,-1.89044e-01,-4.87995e-02,-8.07006e-02,-1.31808e-02,-1.73288e-01,9.83760e-02,-1.33826e-01,1.61200e-01,2.93076e-01,-4.28704e-01,-5.03376e-02,-2.07440e-01,-6.15139e-02,-2.14049e-02,-5.10466e-01,2.44257e-01,-1.48010e-01,-5.26222e-01,-6.12940e-01,4.89164e-01,4.10667e-01,2.19993e-02,-1.27315e-01,3.73593e-01,
1.74567e-01,3.12830e-01,-4.24282e-02,6.66393e-02,3.62608e-02,2.63529e-01,-7.40085e-02,5.61391e-01,3.65504e-02,1.11260e-01,-4.84274e-01,2.59174e-01,-6.08318e-02,-4.70116e-02,1.09297e-01,1.40001e-01,-5.50531e-02,2.38331e-01,-8.38707e-02,-2.64915e-01,6.80146e-01,5.01187e-01,2.58340e-02,-3.80873e-02,-4.97455e-01,
-3.19797e-02,4.10991e-02,6.45155e-02,-2.37562e-01,1.78905e-01,1.55304e-01,-1.09036e-01,-1.84765e-01,1.11735e-02,2.44240e-01,2.20906e-01,-6.89470e-02,2.97333e-01,-5.50427e-02,-1.26174e-01,-1.66182e-01,3.78886e-02,2.55511e-01,-1.86178e-01,1.15320e-02,1.05720e-01,8.43827e-02,-3.10427e-01,-3.22670e-01,-1.35842e-01,
1.29819e-01,1.93196e-01,-3.06489e-01,-3.67204e-01,3.17472e-02,1.29223e-01,-3.88166e-02,3.81755e-01,2.01450e-01,-2.51630e-01,-8.07227e-01,1.83878e-01,1.64863e-01,3.10682e-01,5.18512e-01,4.51945e-02,3.03774e-01,-2.06205e-01,-9.44670e-02,-1.34019e-01,1.24778e-01,-5.60543e-02,6.23443e-02,-4.82566e-02,1.82898e-01,
-2.06918e-01,2.54813e-01,-1.05747e-02,-1.18470e-01,-8.36275e-02,-2.98683e-01,-2.04780e-01,-2.28161e-01,-3.21783e-01,-3.17793e-01,-1.66526e-01,2.28885e-01,2.23388e-02,2.91940e-01,-1.79533e-01,-4.81852e-02,-1.91768e-01,2.21968e-01,2.03377e-01,1.62605e-01,-2.73329e-02,-2.53444e-01,-3.30951e-01,3.23562e-02,-3.36130e-01,
-3.09735e-01,2.94580e-01,-3.13233e-01,2.31384e-01,2.55823e-02,-1.99190e-01,-1.14224e-01,-1.24401e-01,-7.71292e-02,2.04040e-02,-2.69576e-01,-1.46419e-01,-2.10100e-01,-2.70582e-01,1.28371e-02,1.51201e-01,-1.55932e-03,6.07975e-02,-8.19013e-02,-2.81389e-01,-2.27512e-01,-9.00629e-02,2.59199e-01,4.80592e-04,-1.15390e-01,
-2.37290e-03,-1.08997e-01,6.74352e-02,-1.45661e-01,-1.19738e-01,-2.02342e-01,3.18799e-01,-1.49306e-01,-3.59558e-02,8.65349e-02,-1.64924e-01,1.10362e-01,2.07883e-01,5.49630e-02,1.44403e-01,-1.70415e-01,-6.23054e-03,-1.03006e-01,-9.39170e-02,-1.61451e-01,2.90096e-01,1.43047e-01,9.20305e-02,-4.17906e-02,3.31448e-01,
-2.12777e-01,-3.78721e-02,-2.76563e-01,-8.05182e-02,-2.06882e-01,-2.91367e-02,3.03892e-01,8.46475e-02,5.57569e-03,-1.75714e-01,-2.50966e-01,1.40335e-01,5.09042e-02,-1.60003e-01,-6.19256e-02,-8.52461e-02,-2.37515e-01,5.85099e-02,-8.71263e-02,1.40214e-01,-1.85831e-01,7.36160e-02,1.04244e-01,-2.04095e-01,-1.98035e-01,
3.26456e-01,2.37487e-01,1.24146e-01,-8.73839e-02,2.36409e-01,4.80143e-02,2.95308e-02,-7.76693e-01,-1.93926e-01,5.75310e-01,7.43095e-01,5.80473e-02,-2.89657e-01,2.16809e-02,-4.34608e-01,2.35122e-01,-1.83054e-01,9.26333e-03,-9.78749e-02,-6.40962e-01,-2.58567e-01,1.57266e-01,-1.21490e-01,6.30320e-02,2.04378e-02,
-2.19424e-01,-3.39596e-01,-1.70159e-01,5.17986e-02,-2.72507e-01,1.81576e-01,-3.57501e-01,-1.26600e-01,-7.09248e-03,1.01784e-02,-2.77025e-01,1.57088e-01,1.68789e-01,2.05698e-01,3.43552e-01,-1.12084e-03,7.17678e-02,-2.49272e-01,5.89625e-02,1.56717e-01,-3.12283e-01,-2.34809e-01,2.05215e-02,-6.87286e-02,-2.31164e-02,
-2.67094e-01,-3.41859e-01,-1.80123e-01,2.65468e-01,-1.03250e-01,7.31262e-02,3.42623e-01,2.29124e-01,-8.85510e-02,-3.63349e-01,3.96231e-01,4.31528e-01,-1.89409e-02,2.14958e-01,6.71638e-01,9.18115e-02,9.86686e-02,-3.23998e-01,-2.43632e-01,-9.04408e-02,-6.37837e-01,4.32338e-01,3.19001e-01,-1.75581e-01,3.99476e-01,
6.43725e-02,-1.72287e-01,2.48612e-01,-7.26965e-01,-2.69903e-01,-1.61622e-01,2.61057e-01,-8.13847e-02,-2.03341e-01,-1.54245e-01,-1.16024e-03,-2.22658e-01,2.53879e-01,-2.07493e-01,1.13721e-01,-6.40621e-01,4.37706e-01,4.13012e-01,1.77778e-01,-1.15416e+00,3.17660e-01,1.50864e-01,1.67529e-01,2.02812e-01,-3.13103e-01,
-3.35694e-01,1.10451e-01,1.01441e-01,1.09595e-01,2.80490e-01,-2.88129e-01,-2.97480e-02,-9.35038e-01,-3.37458e-01,3.50676e-01,3.71859e-01,9.90999e-02,-1.59675e-01,8.22824e-02,2.13533e-01,3.23165e-01,-6.13432e-01,3.17345e-02,2.65794e-01,-2.55793e-01,8.09731e-02,6.76216e-01,-5.73530e-01,-4.07350e-01,7.96624e-02,
2.35851e-01,-5.48566e-01,-2.22733e-01,1.33760e-01,-6.97097e-01,-2.93613e-01,-5.50895e-01,4.28863e-01,-2.61638e-01,2.75708e-01,-1.16488e-01,-3.05223e-01,-7.47144e-02,-1.31543e-01,4.06805e-01,4.30182e-02,1.53060e-01,-3.81877e-01,2.02498e-01,1.22212e+00,-2.08699e-01,1.59487e-01,7.06949e-01,3.52401e-01,3.20761e-01,
1.77681e-01,1.04194e-01,6.18538e-02,-4.63655e-02,3.20077e-02,-2.52520e-01,-1.05161e-01,5.88458e-01,1.77230e-01,-1.22273e-01,-7.07248e-01,4.57400e-02,1.98606e-01,-3.38845e-01,-2.88200e-02,-1.95294e-02,1.28776e-01,-8.44877e-02,1.83055e-02,-2.38430e-01,5.58521e-02,1.93240e-01,3.17777e-02,2.83073e-01,1.73662e-01,
-3.13286e-02,
1.14991e-02,
-1.50336e-01,
1.20146e-01,
1.69557e-01,
-2.44870e-01,
3.03650e-01,
1.92618e-01,
-2.43409e-01,
-2.23351e-01,
2.19769e-01,
-1.75789e-01,
2.21158e-01,
1.31977e-01,
-3.45746e-01,
-2.90312e-01,
2.12931e-01,
-3.91158e-02,
-4.12551e-02,
-1.01698e-01,
3.92485e-02,
-9.83663e-02,
-8.38554e-02,
-2.75554e-02,
-6.80858e-02,
2.93204e-01,-1.15309e-01,2.00958e-01,4.25990e-02,-1.99911e-01,-2.70559e-01,-2.78883e-01,-3.69461e-03,2.42349e-01,1.09454e-01,2.39376e-01,-3.62127e-01,1.97533e-01,-2.16808e-01,-3.25264e-01,-1.14627e-01,-1.00621e-01,-2.70869e-02,1.94079e-01,-2.07504e-01,3.79965e-01,2.33114e-03,2.10879e-01,7.48066e-02,1.01266e-01,
1.62188e-01,-9.70430e-02,-2.13262e-01,-4.98636e-03,-1.66091e-01,-3.27392e-01,9.24010e-03,7.89450e-02,3.19456e-01,-7.64854e-02,2.24473e-01,-2.59219e-01,2.43119e-01,9.02304e-02,3.34165e-01,-3.03662e-01,-1.77707e-01,-1.01999e-01,-9.17153e-02,3.23984e-01,7.88072e-02,1.93849e-01,7.29867e-02,2.76604e-02,8.79474e-02,
1.44607e-01,1.86247e-01,6.33842e-02,-1.32392e-02,1.12130e-01,-1.53969e-01,-2.54794e-01,4.20617e-01,-3.38578e-01,-3.30819e-01,-3.97343e-02,2.57483e-02,-1.37220e-01,-3.06971e-01,-4.24570e-02,-2.39951e-01,2.39056e-02,-1.45326e-01,-9.09340e-02,-2.18390e-01,5.16876e-01,-7.51684e-01,5.38795e-01,2.82477e-01,3.76634e-02,
2.44073e-02,4.59007e-01,1.01775e-01,-4.89855e-01,-3.27639e-01,1.77466e-01,-1.97271e-01,6.81107e-02,2.14915e-01,2.41470e-01,3.26615e-01,9.17001e-02,1.11023e-01,2.23027e-01,8.61017e-02,1.87339e-02,2.86066e-01,1.54807e-01,-1.72172e-02,8.87777e-02,2.57314e-01,-2.67862e-01,9.58562e-02,1.73660e-01,1.16866e-01,
-2.04594e-01,-2.37638e-03,-2.62482e-01,1.54728e-01,-9.75175e-02,1.75830e-01,-1.08840e-01,1.61115e-01,-1.26857e-01,-2.82881e-03,-3.26193e-01,1.38844e-02,-1.16109e-02,-2.39481e-01,3.05596e-01,-3.20923e-01,-3.66710e-01,2.20295e-01,9.02680e-02,1.20128e-01,-1.00050e-01,-2.81276e-01,-2.79774e-01,-3.35958e-01,1.67060e-01,
2.48574e-01,4.66706e-02,3.48706e-01,3.20880e-01,2.90214e-01,-3.33294e-02,-3.20002e-03,1.16224e-01,3.75939e-02,1.29044e-01,3.12651e-01,1.32636e-01,-2.22441e-01,-8.73669e-02,1.62581e-01,9.92055e-02,3.69398e-01,2.47042e-01,2.79699e-02,-2.30205e-01,-5.20223e-01,6.19563e-02,-6.95407e-03,-8.95453e-02,3.51031e-01,
-3.35757e-01,-2.53483e-01,2.53165e-01,-2.01115e-01,-3.14760e-01,-2.40003e-01,7.54047e-02,-4.84023e-02,2.95055e-01,3.07208e-01,-5.35401e-02,1.85609e-01,-2.19447e-01,2.28822e-01,-2.42133e-02,-2.35057e-01,-1.99002e-01,1.72332e-01,-2.51371e-01,-1.23967e-01,9.41724e-02,7.49962e-02,2.56768e-01,1.87217e-01,-5.14663e-02,
-2.45481e-01,-6.35577e-01,-1.92408e-01,-6.79183e-02,1.56468e-01,-2.86145e-01,3.85173e-01,2.72206e-01,-8.56368e-02,-1.92167e-01,-3.56267e-01,-4.35787e-01,4.94646e-02,2.18665e-01,2.02765e-01,-3.95146e-02,-3.12833e-01,-6.18916e-02,3.50217e-01,7.88919e-02,-8.64010e-02,8.30501e-01,4.94681e-02,1.24526e-01,-4.57558e-01,
-3.69322e-01,3.89666e-01,2.89757e-01,-2.97458e-01,-2.99390e-01,2.92925e-01,1.49068e-01,-2.33895e-01,5.21544e-02,9.12427e-02,-6.44335e-02,-2.42555e-01,2.03366e-01,-4.18388e-01,-1.98481e-01,-2.45994e-01,-3.44064e-01,-1.01218e-01,-6.42321e-01,-1.47160e-01,-1.82985e-01,-8.42114e-02,4.01791e-02,9.50581e-02,-8.03765e-02,
3.12464e-02,3.24106e-01,-6.31057e-02,-4.03630e-01,1.10360e-01,1.96972e-01,-2.69770e-01,2.81806e-01,3.26638e-02,1.14772e-01,-4.19303e-01,-1.32988e-01,-2.87556e-01,-1.22903e-01,2.85885e-01,2.25874e-01,-1.52962e-01,2.89549e-01,3.39532e-01,-4.87657e-02,3.95063e-01,-2.73221e-01,5.04156e-01,-3.29001e-01,-1.56369e-01,
-2.13071e-01,-1.53955e-01,2.20413e-01,-2.61099e-01,2.02540e-02,-7.47465e-02,-6.21448e-02,-3.30047e-01,2.82017e-01,-7.42885e-02,3.22853e-01,1.18411e-01,7.18830e-02,-1.77099e-01,7.79296e-02,-2.46032e-01,7.14105e-04,-3.07781e-01,-6.66230e-02,4.54949e-02,-1.54564e-01,9.33814e-02,1.67382e-01,3.19851e-02,-3.24345e-01,
-2.29567e-01,9.96988e-02,-6.25510e-02,-2.03528e-01,3.21169e-01,1.12055e-01,4.44128e-02,-1.72049e-01,-2.33833e-01,6.21401e-02,3.22588e-01,1.66296e-01,-1.21721e-02,-1.03022e-01,-1.31880e-01,-3.20857e-01,3.40662e-01,-2.41287e-01,1.96857e-01,1.84316e-01,-1.47609e-01,8.29333e-02,1.04121e-01,2.72253e-01,-4.57227e-02,
1.60188e-02,-4.85900e-02,1.20169e-01,-1.33941e-01,-5.01831e+00,-3.57389e-02,1.91306e-01,-1.70535e-01,8.84239e-02,-1.94164e-01,-1.53738e-01,4.09260e-01,1.40231e-01,-1.78245e-01,6.40798e-02,-2.53973e-01,-1.81555e-01,3.19785e-01,-1.04905e-01,2.15602e-01,2.54764e-01,-1.24463e-02,2.20992e-01,-1.11601e-01,-1.93665e-01,
-3.17609e-01,-2.52649e-01,-1.87299e-01,-2.80350e-01,-5.89762e-02,-4.24550e-02,1.13631e-01,3.29272e-01,-1.65051e-01,-1.98069e-01,2.03845e-01,-1.45322e-01,-1.22219e-01,-3.22637e-01,-2.95993e-01,3.27860e-02,4.63350e-02,3.02325e-01,1.03942e-01,2.08971e-01,5.43365e-03,2.92190e-01,-3.31430e-01,-2.47219e-01,3.06078e-01,
3.21679e-02,5.62608e-01,9.36909e-02,-5.53725e-01,-7.09356e-02,-3.12672e-01,2.48243e-01,-3.24127e-01,1.60282e-01,2.33734e-01,2.33986e-01,2.80027e-01,1.10594e-01,-1.99765e-01,-3.03900e-01,-2.15909e-01,7.76767e-02,-2.78622e-01,-1.46395e-01,2.38894e-01,-4.92122e-01,-8.81274e-02,-3.64786e-01,-3.36694e-02,-2.65520e-02,
-1.26697e-01,-2.14921e-01,-2.67067e-01,-3.33147e-01,-2.49815e-02,1.31272e-01,3.55476e-02,-2.95900e-01,-5.12037e-02,3.39911e-01,-2.03637e-01,1.76468e-01,3.66939e-02,2.57069e-01,-9.55219e-02,2.59186e-01,2.47442e-01,-9.91209e-02,-2.25041e-01,1.30790e-02,-1.93625e-01,-1.92675e-01,2.82376e-01,-2.31652e-01,8.96608e-02,
2.96838e-01,3.52848e-01,1.45845e-01,-1.32887e+00,5.12836e-02,6.66285e-02,-7.04826e-02,-5.92397e-02,-3.14392e-01,2.11815e-01,1.70864e-01,4.91940e-01,-9.91017e-02,-5.78945e-02,7.74456e-02,1.60681e-01,-3.90534e-01,2.34835e-01,-3.41465e-01,2.20297e-01,2.77984e-01,-1.26844e-01,-2.00283e-01,-8.04339e-01,1.51860e-01,
-1.79271e-01,1.52699e-01,-2.82895e-01,1.32574e-01,1.11465e-01,-5.11193e-02,2.60680e-01,-3.33514e-01,6.98252e-02,-2.15701e-01,2.06665e-01,1.62417e-01,2.01616e-01,-2.69597e-01,1.04085e-01,-2.56174e-01,-4.39313e-02,3.42546e-01,-3.38521e-01,3.15692e-01,1.60875e-01,1.34843e-01,-3.01533e-01,-5.23274e-02,-1.88030e-01,
1.43678e-01,9.38535e-02,1.62754e-01,-5.15285e-01,1.71546e-01,6.92399e-02,3.01729e-01,7.20038e-02,-2.89059e-01,-1.81725e-01,7.79887e-02,1.93837e-01,9.04044e-02,2.59109e-01,-1.10501e-01,-2.94889e-01,2.51823e-02,2.75627e-01,-2.24697e-01,1.97472e-01,-1.88554e-01,-8.64746e-02,3.28980e-01,-2.43284e-01,9.45646e-02,
-2.31766e-01,2.52954e-01,2.31209e-01,-3.38933e-01,-1.95710e-02,2.40998e-01,4.14668e-01,-7.00582e-02,-1.54841e-01,1.43822e-01,2.00748e-01,2.74689e-01,2.50862e-01,-1.24972e-01,8.23385e-02,-1.18699e-01,2.49741e-01,1.77363e-01,-9.75776e-03,9.52803e-02,5.26375e-01,-5.84641e-01,1.42107e-01,4.23481e-01,4.39631e-01,
3.26172e-01,1.18744e-01,-2.15735e-01,2.53526e-02,-1.11656e-01,-6.76687e-02,-2.43929e-01,-7.88393e-03,3.14140e-01,-1.38672e-02,-3.14736e-03,-2.55795e-01,2.24326e-01,-1.90406e-01,1.31846e-01,3.29681e-01,2.17999e-01,-1.70750e-01,3.04750e-01,5.06439e-03,6.71773e-01,-3.89826e-01,3.96201e-01,2.48814e-01,-2.91814e-01,
1.85064e-01,-1.12144e-01,2.22617e-02,-3.78236e-01,-3.34405e-01,-3.35245e-01,-2.49689e-01,1.13729e-01,3.44437e-01,2.52347e-01,-2.34525e-01,8.44725e-02,2.82607e-01,-3.00813e-01,-1.10925e-01,2.97209e-01,3.11310e-01,-1.84742e-01,3.39074e-01,-4.44115e-02,3.52641e-01,2.46414e-02,-3.85112e-02,-3.26035e-01,-3.41284e-01,
5.99219e-02,4.18911e-01,2.00699e-01,-2.24634e-01,1.90046e-02,6.54158e-03,5.60522e-02,-1.14242e-01,3.39518e-01,-1.24185e-02,5.53276e-01,1.74258e-02,-2.43971e-01,-4.19946e-01,3.22478e-01,1.45604e-01,-1.71801e-01,-2.59382e-01,2.32197e-01,1.93665e-01,2.01254e-01,-1.78657e-01,2.21094e-01,2.52917e-02,9.66490e-02,
2.06677e-01,-4.21701e-01,-1.83252e-01,-1.05199e-01,2.42222e-01,-2.01738e-01,-3.23918e-02,2.63342e-01,-1.74060e-01,3.18098e-01,-2.88764e-01,-3.28273e-01,5.89798e-02,-3.13894e-01,3.94433e-02,1.00198e-01,1.60212e-01,-4.91929e-02,-9.50340e-02,-1.85050e-01,4.95396e-02,1.83602e-01,1.03062e-01,-1.42026e-01,1.30356e-01,
-2.40007e-01,-4.73060e-01,9.20440e-02,1.61758e-01,-5.71981e-01,3.39448e-01,2.65822e-01,1.70636e-02,2.01192e-01,3.54466e-02,1.40983e-01,-1.37605e-01,1.71918e-01,-1.21629e-02,-1.59397e-01,1.59683e-01,-8.81578e-02,2.01542e-01,1.03376e-01,9.37812e-02,2.78219e-01,4.30744e-01,-2.32937e-01,-1.19438e-01,2.72557e-01,
6.50310e-02,
-5.02741e-02,
-7.94055e-03,
-7.84173e-02,
1.40111e-02,
-1.47491e-01,
-2.86261e-01,
-2.00235e-02,
2.96811e-01,
9.54843e-02,
-1.07384e-01,
-3.45519e-01,
-1.71006e-02,
-2.95305e-01,
7.15738e-03,
-2.71673e-01,
3.67546e-02,
-1.74938e-01,
-1.01775e-01,
-1.67134e-01,
-1.02291e-01,
1.65504e-01,
1.41951e-02,
1.74191e-01,
-4.66942e-02,
-2.80211e-01,2.56904e-01,-1.48654e-01,-1.67813e-01,2.26685e-01,-8.87374e-02,-1.79618e-01,1.67239e-01,1.53530e-01,-6.51698e-02,1.82199e-01,-2.09611e-01,-2.43238e-02,-1.90663e-01,6.23087e-02,-9.95510e-02,1.97794e-01,2.34014e-01,-1.48423e-01,1.03847e-01,1.74225e-01,-4.60567e-02,1.26860e-01,-1.43271e-01,-9.60869e-02,
3.18835e-02,-1.35619e-01,-1.58991e-01,1.63614e-01,2.99892e-01,3.28942e-02,-2.80287e-01,1.38350e-01,-3.35414e-01,-3.45587e-01,1.65457e-01,2.82139e-01,-2.60513e-02,-2.62023e-01,1.40761e-01,2.10182e-01,6.21941e-02,-2.41251e-01,-3.35634e-01,1.38103e-01,-3.11781e-01,-3.03717e-02,-1.97793e-01,-3.33353e-01,1.21073e-01,
-4.59186e-02,-2.81538e-01,-1.10453e-01,-7.27195e-03,-2.56289e-01,2.32510e-02,1.75507e-01,-4.35334e-02,1.18478e-01,2.21358e-01,-2.59557e-01,-2.66849e-01,-9.44654e-02,-4.27769e-02,-2.63928e-01,-1.73467e-01,-1.40547e-01,-2.66000e-01,3.01006e-01,-1.29940e-01,-3.59020e-02,-1.64460e-01,-2.66008e-01,-2.40984e-01,3.08529e-01,
7.23097e-02,-9.34626e-04,2.34955e-01,-2.53501e-01,-1.82936e-01,-6.92519e-03,8.33076e-03,1.34645e-01,1.33160e-01,4.77667e-02,-2.93553e-01,3.25092e-01,-1.59557e-01,2.48697e-01,1.05373e-01,3.63047e-02,-2.51547e-01,-1.43266e-01,2.38543e-01,-3.23681e-01,3.26170e-02,-2.03567e-01,2.70092e-01,3.14994e-02,-2.67912e-01,
-1.54340e-01,-5.02641e-02,-8.45603e-02,3.28552e-01,-3.82206e-02,2.69355e-01,-1.73920e-02,2.59727e-01,-2.80810e-01,-3.17392e-02,-2.18583e-01,-1.51036e-01,1.83586e-01,-2.04418e-01,-2.02031e-01,-2.85350e-01,2.77568e-01,2.69740e-01,-1.39227e-01,1.40714e-02,-2.95914e-01,3.17723e-01,3.07092e-02,1.27505e-01,-1.33870e-01,
-2.82043e-01,1.81254e-01,1.35095e-01,-3.60010e-02,-1.13244e-01,8.74759e-02,7.34774e-02,-2.40537e-01,-2.44675e-01,6.19968e-02,3.36847e-01,-1.98848e-01,-3.09218e-01,2.05099e-01,9.05295e-02,1.07480e-01,-1.04775e-01,2.92369e-01,-2.92676e-01,1.22316e-01,-1.29564e-01,-2.63917e-01,1.94958e-01,-6.84006e-02,-3.28653e-01,
-3.06490e-01,-4.44901e-02,4.33632e-02,-3.51122e-01,-2.22904e-01,-2.24338e-02,1.38269e-01,-2.17657e-01,1.57445e-01,-7.06956e-02,-1.00079e-01,1.58874e-01,4.94672e-02,-5.37380e-02,-4.41434e-01,3.30177e-01,9.05682e-02,-1.45465e-02,-1.06769e-02,1.04227e-01,-9.35450e-02,-1.17382e-01,2.50746e-01,4.05005e-02,2.70087e-01,
-2.81354e-01,-1.73791e-01,-2.75554e-01,5.31773e-02,2.30715e-01,9.67500e-02,-6.60956e-02,2.74342e-01,1.78496e-01,2.95846e-01,3.01167e-01,2.17769e-01,3.41445e-01,-7.30332e-02,-1.16275e-01,1.25604e-02,3.14439e-01,1.84828e-01,-2.47426e-01,2.35583e-01,-1.91805e-01,-2.73898e-01,-3.09097e-01,-3.20660e-01,1.86123e-01,
3.20520e-01,2.11794e-01,-9.18309e-02,1.90506e-01,4.48892e-02,-7.76844e-02,2.21454e-02,-1.22298e-01,-5.82678e-02,-1.71654e-01,-2.37828e-01,-1.19294e-01,-5.44659e-03,-3.38626e-01,3.87085e-01,-2.10842e-01,8.14376e-02,-3.69021e-02,3.75071e-02,-1.34537e-01,3.19265e-01,1.65876e-02,-4.49355e-01,1.15454e-01,-1.06437e-01,
-2.96595e-01,4.66663e-02,-1.44321e-01,-1.17423e-01,3.64725e-02,2.06898e-01,1.02360e-01,-1.47238e-02,1.90675e-01,3.34257e-01,2.07319e-01,4.73243e-02,-6.48583e-02,4.76350e-02,-2.95508e-01,-1.79659e-01,7.12826e-02,-3.12648e-02,-1.06298e-01,2.97675e-01,-3.33931e-01,4.34489e-02,2.56167e-01,-2.28431e-01,-3.41110e-01,
2.26165e-01,-6.81707e-02,1.37873e-01,-2.93720e-02,-2.61238e-01,1.99611e-01,3.09579e-01,-3.45769e-01,-6.05961e-03,-1.34915e-01,-9.71592e-02,1.12768e-01,1.05932e-01,-2.51099e-01,-1.22376e-01,-8.92854e-02,3.51805e-01,5.40775e-02,-2.80751e-01,8.17124e-02,-9.60238e-02,-1.78667e-01,-5.05594e-03,1.48273e-01,-1.21819e-01,
8.25515e-02,-2.72857e-01,-1.48847e-01,1.22571e-01,-2.83026e-01,-2.19104e-01,-3.44991e-01,8.61182e-02,-3.91971e-01,2.04373e-01,3.60107e-02,-1.93335e-01,-2.29444e-02,1.75663e-01,1.47493e-01,-2.02214e-01,-8.66530e-02,-2.18019e-01,-1.07231e-01,-1.87723e-01,-3.69621e-01,-2.48160e-01,1.02193e-01,1.11098e-02,1.10994e-01,
2.24748e-02,-1.92692e-01,-4.77364e-01,3.43100e-01,-1.67423e-01,-1.06897e-01,-7.08755e-02,-8.22757e-02,-1.36869e-01,5.42196e-02,-3.73384e-02,-2.10121e-01,1.70418e-02,2.59199e-01,-5.06911e-03,2.95379e-01,2.05965e-02,3.05934e-01,-1.39466e-01,-1.12400e-01,3.11841e-01,6.20647e-02,-5.91914e-02,-1.27874e-01,-1.23473e-01,
2.75182e-01,-2.16676e-01,1.66032e-02,-1.74424e-01,2.52913e-01,-8.23596e-02,-3.32312e-01,2.21663e-01,3.56784e-01,-7.69192e-02,2.23047e-01,-1.34519e-01,4.37748e-02,2.69479e-01,2.94776e-01,2.93341e-01,3.13704e-01,-3.30999e-01,-2.02412e-01,1.57664e-01,-2.11863e-01,-1.61775e-01,4.67989e-02,-1.60349e-02,-7.49178e-02,
-1.02570e-01,1.45346e-03,4.00434e-01,-2.65708e-01,-9.93887e-02,-9.67704e-02,1.32324e-01,2.94302e-01,7.28473e-01,1.90881e-01,-3.05452e-01,1.72593e-01,-9.10858e-02,-3.19780e-01,-2.97614e-01,-2.03999e-02,-6.26850e-01,-2.35456e-01,2.43916e-01,-4.30429e-02,-3.02437e-01,-2.11979e-01,4.45505e-01,1.82404e-01,1.19346e-01,
2.55930e-01,6.22288e-02,-1.07383e-01,-1.08988e-01,5.19786e-02,1.80679e-01,-1.74568e-01,-3.30750e-01,-2.82766e-01,-8.20782e-02,-3.92719e-02,3.25991e-02,1.15986e-02,-1.58723e-01,-6.53181e-02,4.18411e-02,-3.32140e-01,3.19983e-02,-2.44637e-01,-7.01886e-02,-3.16429e-01,-2.42546e-01,-2.94218e-01,2.59831e-01,-2.14260e-01,
1.27011e-02,2.33750e-02,-3.91422e-01,1.03950e-01,8.71382e-02,-9.26941e-02,-1.66637e-01,4.98684e-02,1.44689e-01,-1.20603e-01,3.32003e-01,1.38097e-01,5.59945e-02,3.08735e-01,1.08216e-01,2.46993e-01,1.58805e-01,2.12194e-01,-1.88404e-01,1.92168e-01,2.90532e-01,1.97589e-01,9.85978e-02,6.55778e-02,-3.21522e-01,
1.76273e-01,2.30961e-01,-4.19917e-01,-1.75609e-01,-1.64045e-01,-2.38272e-01,-2.52974e-01,2.09512e-02,-2.44472e-01,-2.49885e-01,3.01538e-01,2.01558e-01,1.39830e-01,-1.39488e-01,-1.37013e-01,-1.85160e-01,5.11605e-01,5.48662e-02,-3.78779e-02,-1.74881e-03,1.98726e-01,-2.48534e-01,-1.68065e-01,-1.19500e-01,6.41683e-02,
-1.44372e-02,6.92432e-02,1.32184e-01,1.08674e-02,1.38917e-01,-1.20031e-01,-1.55730e-01,9.06759e-01,-3.32104e-01,3.72250e-01,-2.01144e-01,-2.25055e-01,3.90250e-01,-2.11718e-01,-1.39729e-01,1.60859e-01,4.29074e-02,1.90630e-01,1.14200e-01,2.15876e-01,-2.73866e-01,-2.08702e-01,3.72683e-01,2.53418e-02,-1.26172e-01,
-2.39124e-01,2.25950e-02,-1.74460e-01,2.87048e-01,-2.31724e-01,1.11920e-01,1.86652e-01,3.55831e-02,1.47360e-02,-1.09121e-01,2.10844e-01,2.11947e-01,-7.92118e-03,-2.82066e-01,-4.67169e-02,3.28948e-01,1.54079e-01,7.18484e-03,-1.19153e-01,1.66123e-01,2.76017e-01,3.35823e-01,1.85884e-01,2.11512e-01,-3.33038e-01,
1.85259e-01,1.00535e-01,-1.31271e-01,-1.72173e-02,1.95959e-01,-5.34349e-02,-1.98469e-01,-2.31606e-01,5.35555e-02,-1.81067e-01,1.59294e-01,-2.59612e-01,1.57270e-01,-1.94255e-01,-4.23708e-02,2.16717e-01,-3.89568e-02,8.83044e-02,1.99424e-02,1.69922e-01,1.59927e-01,2.18946e-01,-4.68391e-03,3.18470e-01,-1.53738e-01,
-7.01605e-02,2.89046e-01,1.06240e-01,-4.53113e-02,-1.20700e-01,1.23160e-01,-2.17121e-01,-7.51674e-02,-1.12853e-02,-9.94006e-03,-1.44524e-01,-1.56617e-01,1.35778e-01,8.70851e-03,1.79499e-01,1.74932e-02,3.08127e-01,2.74510e-01,2.10763e-01,1.70107e-01,-1.50659e-01,-2.16301e-03,-1.29791e-01,-3.30683e-01,-3.05524e-01,
-1.24586e-01,-2.59447e-01,-2.98997e-01,3.14990e-01,-2.34213e-01,3.33595e-01,8.83784e-02,5.97793e-02,-2.69484e-01,-1.56716e-01,1.22255e-01,2.37113e-01,-3.32361e-02,-2.92035e-01,1.27584e-01,2.55626e-01,2.77586e-01,-8.60066e-02,-1.27358e-01,-3.28200e-01,-1.94209e-01,-8.59022e-02,-1.26415e-01,-2.51856e-01,1.50881e-01,
3.24483e-01,8.63900e-02,-2.22981e-01,-3.17563e-01,-3.13085e-03,-3.19051e-01,2.24267e-02,-2.14719e-01,-1.96893e-01,1.75869e-01,1.05848e-01,-5.94001e-02,-2.52875e-01,1.21680e-01,2.50649e-01,-1.05034e-01,2.87585e-01,1.68855e-01,1.39934e-03,2.26302e-01,-2.83949e-01,-1.82659e-01,2.09532e-01,-2.10616e-01,-2.71002e-01,
-1.01561e-01,-7.84825e-02,1.75241e-01,3.89786e-03,1.89753e-01,2.55822e-01,2.52491e-01,-2.03769e-01,8.98053e-02,8.36095e-02,3.45125e-01,-2.75785e-01,2.18993e-01,-2.56998e-01,-3.30275e-01,-5.19647e-02,2.27956e-01,2.39374e-01,1.27477e-01,-2.16200e-01,3.05536e-01,1.72027e-01,-3.19011e-01,-2.42805e-01,-2.76020e-01,
1.64969e-01,
-1.78635e-01,
2.74757e-02,
-1.24454e-01,
-3.14298e-01,
-9.11554e-02,
2.54278e-01,
-1.18670e-01,
-9.52575e-02,
-7.88441e-02,
8.22073e-02,
4.51972e-02,
2.71572e-02,
1.95466e-01,
7.00596e-02,
-9.48801e-02,
2.71235e-01,
2.69303e-01,
-7.74997e-02,
-1.19344e-01,
-1.01857e-01,
-6.01299e-02,
-3.44968e-01,
-1.61214e-01,
-2.96231e-01,
1.70700e-01,2.89423e-01,-1.33107e-02,1.22656e-02,-9.47187e-02,-1.62624e-01,-2.32097e-01,-3.25977e-01,1.73196e-01,1.45673e-01,-2.35982e-01,1.34790e-01,2.51897e-01,4.71768e-02,2.08205e-01,-1.29123e-01,-1.82705e-01,-2.77255e-01,1.03369e-01,-3.92084e-01,-4.01938e-01,2.03720e-01,-3.33797e-01,-4.86042e-02,3.38638e-01,
3.07456e-02,2.58684e-01,-1.84885e-01,-1.64074e-02,3.66325e-02,-2.40781e-01,-1.43082e-01,-1.24497e-01,4.13309e-01,9.18874e-02,1.90800e-01,2.23915e-01,3.35938e-01,1.34480e-01,-3.61488e-01,3.42482e-01,2.65276e-01,3.32110e-01,2.94178e-01,1.04483e-01,-6.88515e-02,1.57874e-01,-2.42246e-01,1.94105e-01,-2.23346e-01,
2.05107e-01,1.82195e-01,6.02336e-02,-6.75064e-02,-8.62834e-02,2.80379e-01,2.34584e-01,-6.93129e-02,3.28977e-01,-1.70811e-01,6.21974e-02,-4.53267e-01,2.38175e-01,8.82224e-02,-1.63321e-01,-2.55919e-01,9.19945e-02,4.01175e-02,2.85408e-01,2.71825e-01,1.88282e-01,5.94155e-02,1.33209e-02,-2.45219e-03,-7.21520e-02,
6.74629e-02,3.25048e-01,-7.87155e-02,-7.46017e-03,-1.64935e-02,1.18276e-01,-3.01477e-01,-1.47918e-01,4.92412e-02,-5.70306e-02,2.36243e-01,-2.97309e-01,1.59326e-01,-1.34627e-01,-2.98089e-01,1.34807e-01,7.25433e-02,7.76922e-02,-2.10190e-01,-2.46826e-01,2.32106e-01,-1.37041e-02,-1.97077e-01,3.41937e-01,-3.10746e-01,
-1.80368e-01,1.03821e-02,1.47185e-01,-3.15808e-01,4.31404e-02,4.88884e-02,-1.20252e-01,-1.40355e-01,-2.70976e-01,1.96087e-01,-1.02643e-01,-2.90669e-01,-3.09437e-01,7.65624e-02,1.02869e-01,1.21174e-01,-2.15125e-01,-2.12283e-01,-6.93493e-02,-9.98262e-02,7.06289e-02,1.51976e-01,1.18101e-01,-1.94225e-01,1.79841e-01,
-1.67548e-01,3.41768e-01,-5.12964e-03,1.40656e-01,-1.48524e-01,-1.18452e-01,-2.78335e-02,-2.88845e-01,2.56249e-01,-2.36031e-01,-1.72119e-01,-2.69294e-02,2.17238e-01,1.82294e-01,2.86538e-01,-2.46248e-01,-7.87927e-02,9.92501e-02,-1.95926e-02,2.13650e-01,1.87606e-01,5.66152e-03,-5.05635e-03,6.28833e-02,3.34910e-01,
-6.96492e-02,1.54814e-01,-4.22060e-02,-1.77170e-01,-1.75490e-01,-1.66150e-01,-2.59668e-01,3.08191e-01,-1.25320e-01,-2.93860e-01,6.81920e-02,-3.94633e-01,1.13571e-01,2.15900e-01,1.46347e-01,-1.01354e-01,-4.39917e-02,2.93423e-01,1.50466e-01,6.25407e-02,9.40052e-03,-1.09886e-01,1.37522e-01,1.55780e-01,2.47304e-01,
-4.99748e-02,-2.92504e-01,1.34231e-01,2.91324e-01,3.28757e-01,1.89073e-01,-1.95915e-01,-3.20672e-01,1.34328e-01,-2.69709e-01,-5.08434e-02,-1.84897e-01,-2.37634e-01,-1.23090e-01,1.73246e-01,-3.37985e-01,-2.62616e-01,2.80188e-01,-4.90740e-02,-5.22161e-02,-3.06564e-01,-1.41427e-01,-4.05395e-02,1.56627e-01,2.82079e-01,
3.40255e-01,3.02384e-01,-7.77291e-02,3.19675e-01,3.44551e-02,6.17077e-02,3.27710e-01,1.29261e-01,2.58598e-01,-1.31918e-01,-2.95774e-01,-1.33074e-01,1.95809e-01,3.07169e-02,2.48468e-01,-2.59098e-01,1.01487e-01,1.36897e-01,-3.07166e-01,-3.45785e-02,5.40869e-02,1.62278e-01,2.82687e-01,1.33033e-01,-8.66548e-02,
-3.58628e-01,-2.77845e-01,3.29760e-03,1.07860e-01,1.87685e-01,-2.02590e-01,1.90698e-01,-2.96140e-01,2.19621e-01,1.90065e-01,-6.37123e-02,3.18473e-01,1.24665e-01,1.07060e-01,-1.68279e-01,-3.14905e-01,2.02373e-01,-2.53777e-01,7.83370e-01,-1.31985e-01,1.32624e-01,5.02738e-01,1.31182e-01,3.08450e-01,1.17045e-01,
1.11115e-01,1.99769e-01,4.15790e-02,1.21954e-02,-1.49496e-01,3.37930e-01,-1.38979e-01,-1.15362e-01,-1.19685e-01,-1.59725e-01,-1.60353e-01,3.43737e-01,-3.20838e-01,-7.55740e-02,-3.30111e-01,1.14078e-02,-2.29420e-01,-2.41512e-02,6.89168e-02,-1.50872e-01,2.63117e-01,-2.32048e-01,-8.93359e-02,6.11624e-03,-6.41025e-02,
1.40236e-02,-1.59917e-01,1.92247e-02,3.28621e-01,-1.45821e-01,5.94078e-02,-3.05635e-01,-2.57711e-01,2.65753e-01,-2.55086e-01,-2.57688e-01,2.10311e-01,1.06031e-01,-8.39018e-02,-6.86514e-02,-2.75676e-01,4.37338e-02,-6.16209e-02,-3.42657e-01,-2.44331e-01,6.57702e-02,-2.35279e-01,1.00244e-01,2.58437e-01,-7.08447e-02,
-2.98094e-01,2.96368e-01,1.88174e-01,-1.38618e-01,-4.30433e-02,-2.73138e-01,2.34228e-01,1.49188e-01,-2.39854e-02,-8.47527e-03,2.14334e-01,-8.08984e-02,5.62375e-02,2.18124e-01,3.84725e-01,1.54556e-01,2.72037e-01,3.13076e-01,-1.47556e-01,-8.32195e-02,-8.42317e-02,-2.16518e-01,2.48571e-01,3.17364e-01,2.85767e-01,
-2.12039e-01,-9.16491e-02,1.71177e-01,1.13744e-02,1.54300e-01,-3.25213e-02,-2.88170e-01,2.41360e-01,-9.87823e-02,-2.71512e-01,-4.82649e-04,-2.10649e-01,3.68717e-03,-2.72877e-01,-1.76082e-01,-6.05250e-02,-2.78150e-01,7.30252e-02,1.20569e-01,-1.18436e-01,8.18175e-02,-3.33655e-01,8.63518e-02,1.97697e-01,-1.73556e-01,
3.39424e-01,1.06999e-01,-1.77260e-01,3.38840e-01,-1.29226e-01,1.02729e-04,-2.10833e-01,-2.48606e-01,-6.67644e-02,-7.30455e-03,-2.53789e-01,-2.86005e-01,-1.30389e-01,-2.74319e-01,3.44427e-01,2.84438e-01,-1.54212e-01,2.65064e-01,2.51170e-01,3.15336e-01,4.63274e-02,-3.14595e-01,-2.45524e-01,-2.34306e-01,3.15642e-01,
3.37319e-02,1.50212e-01,-1.77970e-01,-2.88151e-01,-2.53704e-02,-7.12992e-02,1.82844e-01,-1.44001e-01,-2.51771e-02,3.31009e-01,-1.60752e-01,-2.18450e-01,-2.11097e-01,-9.31578e-02,-4.40939e-02,-3.24576e-01,2.75776e-01,-1.42680e-02,-1.04847e-01,-4.73146e-02,1.76936e-01,3.36202e-01,-2.23444e-01,2.84661e-01,1.29842e-01,
-1.83732e-01,1.33414e-01,2.38396e-01,2.10792e-01,3.40362e-02,3.27669e-01,-1.22583e-01,5.50901e-02,2.33693e-01,2.79080e-01,3.02279e-01,-2.63950e-02,9.03201e-02,-2.25795e-01,1.99404e-01,4.90545e-02,-2.69832e-01,1.99124e-02,3.08645e-01,3.31397e-01,2.12985e-01,4.28493e-02,-1.72756e-01,3.00030e-01,-1.01526e-01,
2.49704e-01,9.03028e-03,2.53735e-01,3.94606e-02,-1.40930e-01,3.82549e-02,2.60423e-01,8.91166e-02,-1.48713e-01,-4.29636e-03,-1.77985e-01,-3.73247e-01,6.90417e-02,4.11480e-02,6.49792e-02,-2.87453e-01,-2.10699e-01,2.82042e-01,2.89073e-01,2.26888e-01,7.16505e-02,-1.54090e-01,-3.30161e-01,7.37352e-02,1.04265e-02,
1.32209e-01,3.86760e-02,-2.39653e-01,9.04436e-02,2.61310e-01,-2.18949e-01,2.55799e-01,-1.86411e-01,1.95987e-01,-4.00047e-02,4.47520e-02,4.71665e-01,2.37500e-01,1.67594e-01,1.50287e-01,3.35487e-01,-3.28531e-01,2.07665e-01,3.20115e-01,2.22355e-01,-1.76649e-01,1.42733e-01,-2.57562e-01,-2.46058e-01,1.00887e-01,
1.78522e-01,1.87894e-01,-3.07225e-01,-1.11592e-01,-1.08667e-01,-2.33799e-01,-8.45802e-02,1.69362e-01,-1.69827e-01,2.05928e-01,3.36999e-01,-2.72421e-01,2.84150e-01,-1.83303e-01,1.42158e-01,-2.94591e-03,1.37479e-01,-2.00676e-01,-1.06419e-01,-2.14003e-01,3.13755e-01,-3.06016e-01,-1.70999e-01,2.29953e-01,1.74707e-01,
-2.41591e-02,-1.35799e-01,-2.96593e-01,3.44059e-02,1.35838e-01,-2.36113e-02,-9.26485e-02,1.44109e-01,2.35577e-01,-5.05430e-03,2.30117e-01,-4.78617e-01,1.52205e-01,3.02963e-01,2.30516e-01,-2.34029e-02,-1.41403e-01,-2.87525e-01,3.10983e-01,6.33448e-03,1.14013e-01,1.43653e-01,1.37568e-01,7.62130e-02,-2.01503e-01,
-2.50191e-01,-2.91215e-01,-1.57399e-01,2.12060e-01,3.16016e-01,1.61105e-01,1.20674e-01,-1.17579e-01,2.07588e-01,2.85710e-01,1.11868e-01,-7.30532e-02,1.64908e-01,-3.15132e-01,2.18972e-01,-1.79211e-01,-3.02574e-01,2.73103e-01,3.64863e-02,1.12486e-01,-4.15841e-02,1.77525e-01,-2.34428e-01,1.85325e-01,2.21983e-01,
-5.25329e-02,-2.05540e-01,6.15511e-02,-2.57756e-01,-1.05536e-01,-2.38936e-01,4.75592e-02,9.52708e-02,6.06236e-02,-2.03101e-01,-2.89506e-01,2.36182e-01,8.29646e-02,-2.93992e-01,2.95902e-01,-3.38020e-01,-1.75182e-01,1.71189e-01,3.10538e-01,-4.07147e-02,1.66408e-01,3.38948e-01,2.51954e-01,4.91261e-02,-3.04388e-01,
-1.14837e-01,5.28919e-02,3.33129e-01,1.89587e-01,1.20003e-01,-1.80956e-01,1.18758e-01,8.52618e-02,-2.46417e-01,2.76482e-01,3.46194e-02,1.44521e-01,-2.91455e-01,-3.38960e-01,1.45911e-01,-2.26854e-01,1.42892e-01,2.17457e-01,-4.44487e-02,-3.12011e-01,-2.51806e-01,-4.10900e-01,-8.77427e-02,-3.25561e-01,1.58491e-02,
-1.99240e-01,-1.55947e-01,2.26523e-01,1.17063e-02,-1.79450e-01,9.43005e-02,-3.58516e-01,1.69971e-01,1.97365e-01,-1.25924e-01,2.43874e-02,4.72348e-01,-4.59066e-02,-3.26890e-01,-5.48565e-01,-3.41101e-01,-2.53709e-01,-4.21473e-02,4.54936e-01,-4.20442e-01,2.43607e-01,7.95697e-02,-2.50724e-01,1.73895e-01,-3.34026e-01,
7.37968e-02,
-1.78128e-01,
-6.64764e-02,
1.90241e-01,
-7.51562e-02,
-2.25200e-01,
2.97838e-01,
8.24528e-02,
-3.43279e-01,
1.97871e-01,
3.71227e-02,
-4.22476e-02,
2.57480e-01,
5.53769e-02,
-3.33995e-01,
-3.49491e-02,
-2.49686e-01,
8.80260e-02,
6.05812e-02,
-2.21440e-02,
4.90187e-02,
-2.98766e-02,
-2.32111e-01,
1.37379e-01,
2.33178e-01,
2.32661e-01,-3.87545e-01,3.55672e-01,4.60905e-01,-6.80926e-02,1.84919e-01,2.46988e-01,1.44283e-01,3.63956e-01,1.56761e-02,1.88507e-01,-2.32398e-01,4.21137e-01,-2.25397e-01,1.95538e-01,1.47230e-01,-2.64328e-01,3.54511e-01,-2.30274e-01,-7.94537e-02,1.81165e-02,-1.22033e-01,-7.19239e-02,-3.17860e-01,-2.82772e-02,
3.34795e-01,-1.77674e-01,-1.65946e-01,3.85036e-01,1.50585e-01,6.47937e-02,-1.74927e-01,-1.35490e-01,2.24289e-01,5.17215e-02,-3.66234e-01,6.46545e-02,-1.29579e-01,-7.26822e-02,2.91767e-01,-2.82729e-01,-1.73199e-01,1.53069e-01,2.06099e-01,-1.47308e-01,-2.17101e-02,-1.95077e-01,4.38128e-01,-1.78173e-01,-4.39969e-02,
-2.94727e-01,-2.42003e-01,-1.54093e-01,5.01205e-01,-1.38750e-01,4.18850e-01,5.06691e-01,-1.68810e-01,-3.44479e-01,4.08761e-01,3.83719e-02,8.26983e-01,1.30970e-01,-2.08929e-01,2.03915e-01,-2.87467e-02,-1.55328e-02,-7.56370e-02,-8.86416e-02,-1.77567e-01,-8.00722e-02,4.31845e-02,-9.10031e-02,2.82349e-03,-1.81202e-01,
4.16021e-01,8.62267e-02,-1.56432e-01,-1.70511e-01,1.12387e-01,-9.29295e-02,-4.02233e-01,-4.24332e-01,-2.49365e-01,2.00732e-02,-3.94393e-01,3.18911e-01,7.28209e-02,4.38221e-01,4.37427e-01,2.86046e-01,1.50607e-01,2.37068e-02,3.18567e-01,1.54192e-01,-2.14031e-03,1.49711e-01,2.00087e-01,-1.55311e-01,2.22758e-02,
1.73821e-01,3.61021e-02,-1.05734e-01,3.39905e-01,1.73371e-01,3.59743e-01,-9.01275e-02,-1.89588e-01,-4.35899e-01,-6.09055e-02,3.06887e-01,2.94135e-01,-2.29611e-01,3.51340e-01,-1.46049e-01,7.12844e-02,8.70424e-02,2.68700e-01,1.56975e-02,-2.27926e-02,2.72697e-01,3.80823e-01,-2.97797e-02,1.39607e-01,-1.10226e-01,
-3.70310e-01,
6.89181e-02,
-3.88070e-01,
1.33796e-01,
4.03500e-02,
