// Neural Network File Format by Kyle Julian, Stanford 2016
6,3,5,25,
3,25,25,25,25,25,5,
0,
-56000.000000,-56000.000000,-3.141593
56000.000000,56000.000000,3.141593
-278.628049,0.000000,0.000000,-0.242819
112000.000000,112000.000000,6.283185,17.479225
7.40247e-01,2.16816e-01,-2.78839e-01,
7.90205e-02,-2.45153e+00,-6.01967e-01,
-1.91255e+00,1.45955e+00,-2.18535e-01,
8.74281e-02,8.73236e-01,-5.06105e-01,
-9.95451e-01,-7.28032e-01,-5.92016e-01,
-1.69016e-01,-5.62122e-04,6.68698e-03,
-3.48702e-01,-2.11185e-03,-6.53250e-02,
8.58850e-01,-1.35651e+00,1.33300e-01,
4.85358e-02,-3.82828e-01,-6.05740e-02,
-1.10913e-01,8.52143e-02,2.55807e-01,
3.15084e-01,1.00390e+00,-5.81852e-01,
6.43872e-02,-1.09237e+00,-1.10576e+00,
-5.36942e-01,-3.70627e-01,6.96168e-01,
6.22470e-01,1.71942e+00,-2.64036e-01,
-2.52615e-01,2.98100e-01,-7.80127e-01,
8.34445e-01,-1.04814e+00,-7.99033e-01,
-1.12196e+00,2.19289e+00,1.13246e-01,
-6.38071e-01,-1.19420e+00,4.64066e-02,
-2.60415e+00,1.48742e-01,2.47872e-01,
-2.27501e-01,-2.25624e+00,-2.11986e-02,
1.52437e-01,-2.47681e-01,2.68156e-01,
6.07783e-01,5.55179e-01,1.67925e-01,
6.21315e-01,-1.50069e+00,-4.95863e-01,
6.69325e-01,-2.88440e-01,-5.31509e-01,
1.80713e+00,1.54855e+00,3.13071e-01,
1.20541e-01,
1.46724e-02,
1.08419e-01,
2.11912e-02,
1.12872e-02,
8.65219e-02,
-2.98500e-01,
8.14671e-02,
5.32326e-02,
-3.08047e-01,
-9.14820e-02,
1.34561e-01,
1.50012e-02,
-1.59808e-01,
-1.76097e-01,
1.63214e-01,
2.81594e-02,
1.04004e-01,
1.52159e-02,
4.07116e-02,
-2.84367e-01,
3.00974e-02,
6.15284e-04,
-2.26190e-01,
-2.69822e-03,
-1.95886e-01,2.93492e-01,3.91707e-01,2.98090e-01,5.67830e-01,3.02575e-01,2.52330e-01,1.89717e-01,2.78576e-01,-1.34661e-02,4.01267e-01,4.52256e-01,7.18459e-02,-4.03654e-01,-4.89083e-01,2.97351e-01,-2.86899e-01,1.70752e-01,1.21872e-01,2.70840e-01,2.62278e-01,-1.88246e-01,-1.13886e-01,-2.52619e-01,-4.24106e-01,
1.90450e-01,-2.04809e+00,2.03556e-01,2.51127e-01,-4.09047e-01,1.00952e-01,-3.10397e-01,-4.02073e-02,-6.64217e-02,3.91293e-02,3.00811e-02,-2.22336e-01,8.36540e-02,1.87180e-01,9.21066e-01,-2.99287e-01,7.72187e-01,5.08865e-02,-4.91033e-01,-7.04364e-01,4.64207e-02,-3.40156e-01,-1.62980e+00,-1.26102e+00,-4.70550e-02,
-3.87464e-01,-1.42201e-01,-1.23003e-01,-5.59997e-01,2.73159e-01,-7.28039e-02,-3.05821e-01,2.35662e-01,4.03484e-02,1.44413e-01,-2.06332e-01,2.98339e-01,6.45734e-03,1.22437e+00,-7.35601e-02,-6.30565e-03,4.18542e-01,1.97340e-01,7.02611e-01,7.15764e-01,3.22068e-01,3.86389e-02,-2.71342e-03,-1.29326e-01,-8.96866e-02,
6.23647e-01,-6.81242e-01,-5.62075e-01,-6.20267e-01,8.20492e-02,9.04829e-02,-1.66494e-01,-2.69241e-01,4.13716e-01,1.11740e-01,-2.24181e-01,1.67876e-01,1.09187e-01,4.30971e-02,8.82148e-01,-3.45417e-01,3.98392e-01,-5.87126e-01,6.86483e-01,-7.83899e-02,-1.32444e-01,5.86642e-02,-1.00100e+00,6.61152e-01,5.19333e-01,
-6.09655e-01,-2.71477e-01,2.55171e-01,5.86610e-01,-2.44104e-02,-1.09522e-01,-1.78608e-01,-1.70129e-01,-1.87287e-01,-1.58411e-01,-2.26779e+00,-7.74089e-03,4.88483e-01,4.65035e-01,2.44771e+00,-2.80510e-01,-8.10905e-01,1.82073e-01,-2.41557e-02,2.96913e-01,6.65309e-02,3.12889e-01,-7.54682e-01,1.86189e-01,-6.19377e-01,
1.73367e-01,2.15036e-01,-4.15814e-02,-4.18795e-01,3.57177e-01,-2.41199e-01,2.58237e-01,-6.24123e-01,-1.54500e-01,-1.11803e-02,-2.87276e-01,2.05656e-02,-8.57301e-01,-5.93670e-01,1.30978e-01,-2.94461e-01,8.32820e-01,4.07390e-01,-3.80566e-01,2.55157e-01,-3.01750e-01,-9.06957e-03,3.77682e-01,-5.32937e-01,8.64499e-01,
-2.01071e-01,1.70585e-02,-1.55561e-01,-2.39422e-01,-2.58202e-01,5.97480e-02,1.63917e-02,-1.62782e-01,-2.00218e-01,1.92220e-01,-1.44607e-01,-2.06720e-01,2.03244e-02,-1.64184e-01,-1.94860e-01,-9.33908e-02,-1.42367e-02,4.45053e-02,2.26559e-02,-1.82743e-01,2.76215e-01,2.74056e-01,-2.39895e-01,-5.78309e-02,-2.07379e-01,
-1.95268e-01,2.47948e-01,-3.23992e-01,-1.97559e-01,1.75364e-01,2.55970e-01,2.88234e-01,-1.70437e-02,-1.59279e-01,-2.81002e-02,2.48993e-02,2.55671e-01,-3.85341e-01,4.04902e-01,-3.01004e-01,2.05189e-01,-4.68233e-01,-1.66809e-01,7.67464e-01,2.97608e-02,-2.89661e-01,-4.99376e-01,-5.45107e-02,-6.64590e-01,6.56013e-01,
-7.20421e-02,1.05340e-04,5.42365e-01,2.69014e-01,3.08284e-01,1.29720e-01,-3.39623e-01,-4.01671e-01,1.49828e-02,1.15462e-01,2.02495e-01,9.36640e-02,5.55529e-02,5.09705e-01,4.26309e-01,1.04983e-01,2.74061e-02,-2.62368e-01,5.66368e-02,-1.20748e+00,-3.33665e-01,-5.64149e-01,-2.49853e-01,-2.15379e-01,2.75684e-01,
6.74783e-02,-1.36693e-01,-1.15674e-01,-4.96429e-02,9.91929e-02,1.02776e-01,-1.44943e-01,-3.76469e-02,3.80635e-02,2.58031e-01,3.73379e-01,1.68385e-01,3.07522e-01,7.56930e-01,2.60534e-01,-3.52793e-01,-1.17966e-01,2.36062e-01,-1.94854e-01,-1.10979e-01,-3.41220e-01,-5.38525e-01,-3.62204e-01,-2.16861e-01,-7.49903e-01,
-1.47698e-01,-3.47099e-02,2.05339e-01,-1.94396e-01,2.68476e-01,-2.22077e-01,5.04473e-02,6.28142e-02,1.43460e-01,6.94843e-02,1.31472e-01,3.76274e-01,2.97594e-01,-6.15846e-01,-5.04935e-01,2.35401e-01,-6.71362e-01,3.29545e-01,-5.47011e-02,2.84805e-01,-9.97196e-02,5.27663e-01,-1.94052e-01,-2.79878e-01,4.89469e-01,
-2.25290e-01,-1.28230e-01,3.24187e-01,-2.49281e-02,-1.79605e-01,8.95093e-02,-2.91990e-01,1.51585e-01,-2.71535e-01,3.01162e-01,4.52128e-02,1.57266e-01,2.65755e-01,-1.02278e-01,-3.94788e-01,2.70059e-01,1.37158e-01,-2.01981e-01,-7.21358e-01,4.44573e-01,-3.18742e-01,1.00667e-01,-2.75759e-01,1.13395e-02,-1.89549e-01,
-2.63321e-03,-8.50931e-01,4.97354e-01,-2.33379e-01,2.30770e-01,-2.47221e-01,-2.76929e-01,-3.51486e-01,1.38402e-02,-1.12210e-01,5.01518e-01,-7.04591e-01,4.92036e-03,1.83823e-01,2.25793e+00,-1.38003e-01,8.62229e-01,-3.35199e-01,-7.74982e-01,-7.45698e-01,8.45588e-02,1.52958e-01,-7.44964e-01,1.39758e+00,3.16982e-01,
-5.33638e-02,-4.36131e-02,1.56479e-01,-8.81300e-02,-5.44450e-02,6.05317e-02,9.66349e-02,1.76506e-01,-2.19501e-01,-5.91349e-02,-2.10531e-01,3.25141e-01,2.05583e-01,4.36278e-01,-5.31809e-01,-3.03014e-01,-8.21643e-01,1.27225e-01,2.10583e-01,2.59988e-01,2.33497e-01,-1.59524e-01,-1.79606e-01,3.01745e-01,-2.70756e-01,
-3.00548e-01,-7.06567e-02,-2.04749e-01,-2.67659e-01,3.25543e-01,-2.13257e-01,-2.64844e-01,-1.73695e-01,-1.50376e-01,-3.18706e-01,-2.52375e-01,3.17588e-01,-3.24838e-02,1.47402e-01,5.54793e-02,-1.71808e-01,-3.20630e-02,-8.73991e-02,-2.20192e-01,-1.54157e-01,-1.03065e-01,9.03145e-02,1.41353e-01,-7.52178e-02,-8.59865e-02,
2.26027e-01,3.40767e-01,-2.15255e-01,-2.79712e-01,-7.47701e-02,-3.37552e-02,-2.25533e-01,-1.57724e-01,-7.33948e-02,-2.61626e-01,-7.27491e-01,9.50185e-03,-3.52531e-01,-4.35729e-02,-1.17869e-01,2.65770e-01,-1.17807e+00,4.11283e-01,-8.91579e-01,1.10378e-01,-1.39673e-02,-1.27948e-01,-1.05298e-01,-2.05276e-01,2.00118e-01,
-1.09622e-01,4.31655e-02,1.73701e-01,2.48682e-01,-2.51042e-01,-1.20495e-02,1.66916e-01,6.33807e-02,-1.02414e-01,-5.43982e-03,4.05230e-01,-2.16194e-01,-2.19061e-01,-3.52314e-01,5.56358e-02,-1.99312e-02,2.93812e-01,2.31594e-01,1.95421e-01,-1.91380e-01,-3.29077e-01,-5.95200e-01,5.94598e-02,-8.37549e-02,5.15850e-01,
-2.37363e-01,1.86236e-01,-1.41229e-01,-3.19148e-02,9.06902e-02,-3.74335e-02,1.86154e-01,3.60641e-01,1.61765e-02,2.20791e-01,-3.34756e-01,4.55403e-01,3.24799e-02,-7.71598e-02,-6.98949e-01,3.58431e-01,-6.12515e-01,3.09860e-01,4.70879e-01,6.17415e-01,-2.84898e-01,-2.76003e-01,-7.91796e-01,-3.13042e-01,2.53062e-01,
-9.31277e-01,1.04537e-01,7.45663e-01,1.20112e+00,2.42916e-01,2.97053e-01,3.32335e-01,2.18930e-01,-2.13608e-01,-2.72836e-01,3.41918e-01,-6.48412e-01,3.19668e-03,-2.92866e-01,4.98572e-01,-4.36063e-01,-5.22810e-02,3.45456e-01,5.79812e-01,1.91913e-01,-2.19118e-01,-1.03018e-01,2.19749e-01,-1.29334e+00,3.14922e-01,
-1.66484e-01,4.72588e-01,3.11764e-03,9.67173e-02,3.57335e-01,-1.26003e-01,-1.38829e-01,-2.84514e-01,-4.45563e-01,-1.32265e-01,-1.10899e-01,-1.18938e-01,2.23341e-01,-1.25725e-01,-5.40204e-03,-1.61929e-01,-8.07170e-02,2.84240e-01,1.64932e-01,-3.97449e-01,-2.30599e-01,-4.69653e-01,4.01241e-01,-3.19429e-01,1.44488e-01,
-3.70080e-01,-4.03651e-01,8.63073e-01,-1.99744e-02,2.18892e-01,-2.33485e-02,-2.11191e-01,-3.95204e-01,1.19861e-02,-2.94905e-01,4.45855e-01,-2.45452e-01,2.01396e-01,1.02137e+00,5.49477e-01,-2.54943e-01,8.91497e-01,3.81204e-01,6.39002e-02,-1.05531e-01,-5.98022e-02,-4.43295e-01,-1.16178e-01,8.78273e-02,-1.13631e+00,
2.17045e-01,2.89466e-01,1.27844e-01,-3.34472e-01,1.42335e-01,-2.37399e-01,-1.44710e-01,1.94877e-02,-2.53168e-01,1.41609e-01,-3.01087e-01,1.36158e-01,-5.33817e-02,-1.39178e-01,-2.88372e-01,8.90452e-02,-2.98112e-01,-1.29492e-01,-2.58721e-01,-2.63725e-01,-7.35882e-03,2.86370e-01,-2.83767e-01,-9.73189e-02,7.67323e-03,
2.96154e-01,1.46013e-01,-1.65362e-01,-2.60281e-01,-3.19526e-01,-1.37892e-01,1.25611e-01,-3.14371e-01,-3.23859e-01,1.48010e-01,-2.26905e-01,2.90467e-01,3.00038e-01,-2.84950e-01,2.15290e-02,-1.44756e-02,-2.46429e-01,-1.90791e-01,-1.94298e-01,4.90123e-02,-2.98943e-01,2.63867e-01,-3.89386e-02,2.80224e-01,-9.72765e-02,
-2.47636e-01,-2.12205e-01,-1.54530e-01,3.72546e-01,-2.11907e-01,5.89443e-02,1.00325e-01,2.21568e-01,1.69090e-01,-1.87899e-01,-2.02173e-02,-2.55251e-01,2.09957e-01,-1.15328e+00,6.25751e-02,7.79664e-02,4.59160e-01,1.66295e-01,-6.81575e-01,-3.86956e-02,-2.88885e-01,1.41390e-01,-6.10638e-02,4.54142e-01,3.50888e-01,
-6.20820e-01,-8.66604e-02,1.59397e+00,-7.29188e-01,1.23158e+00,2.98369e-01,9.55101e-02,3.09530e-01,2.82394e-01,-1.58427e-01,8.01716e-01,-4.40530e-02,4.40193e-01,8.83178e-01,2.64216e-01,-4.76331e-01,5.92658e-01,1.55742e-01,1.09349e+00,-2.11115e-01,7.51038e-02,-2.80530e-01,2.81174e-01,-2.99074e-01,2.77074e-01,
1.57174e-01,
1.35559e-01,
-9.51061e-02,
-1.13917e-01,
1.61216e-01,
4.90939e-02,
-9.56339e-02,
1.55879e-01,
2.86570e-02,
2.46431e-01,
-1.54033e-01,
5.95467e-02,
1.65060e-01,
2.86141e-01,
-1.20284e-01,
1.90507e-01,
1.19116e-01,
-1.41128e-01,
-2.18038e-01,
1.88627e-01,
2.30542e-01,
-2.39155e-01,
-3.25949e-01,
2.38889e-01,
-1.16025e-01,
-1.21804e-02,5.13776e-02,5.63737e-01,2.81177e-01,-4.61558e-01,2.33309e-01,1.89748e-01,-1.77485e-02,3.83954e-01,1.94004e-01,3.14072e-01,1.43539e-01,-8.48602e-01,-3.01439e-01,-1.52415e-01,-1.95175e-01,2.87499e-01,-3.86856e-01,-5.98723e-01,-2.15371e-01,1.74645e-01,2.34773e-01,-2.12013e-01,3.00161e-01,-9.76674e-02,
2.03536e-01,-1.02504e+00,-2.86474e-01,2.77596e-01,-1.84349e-01,1.12711e+00,-2.74626e-02,4.43676e-01,-4.50795e-01,1.52691e-01,2.72170e-01,4.34794e-01,1.21524e+00,2.84603e-01,1.48597e-01,4.74341e-01,7.87895e-02,1.07072e+00,6.34289e-01,-2.52439e-01,-1.44654e-01,9.75852e-02,2.12877e-01,-3.27284e-02,-2.22380e-02,
-1.11715e-01,5.46153e-01,-2.06056e-01,-1.90780e-01,-2.75679e-01,1.47094e-01,1.32255e-02,1.77818e-01,-1.14572e-01,-2.22767e-01,-1.03969e-01,4.58942e-02,4.95997e-01,-2.31461e-01,-2.37757e-01,-1.77207e-01,2.08797e-01,-3.71298e-01,-6.89513e-01,1.70778e-01,4.92474e-01,3.16642e-01,-1.39095e-01,-1.05903e-01,7.57520e-02,
1.86599e-01,1.83977e-01,1.65052e-01,-1.88974e+00,1.47954e-01,-1.15513e+00,2.49687e-01,1.57435e-01,4.57662e-02,-2.68946e-01,-3.28921e-01,-3.08568e-01,9.82075e-02,-2.19910e-01,2.63427e-01,-1.75579e-01,-1.25195e-01,-1.08216e-01,1.52617e-01,-3.90341e-01,2.94436e-01,1.74284e-01,2.62240e-01,-2.57731e-01,-4.14864e-01,
-6.27954e-02,-5.94745e-01,2.81471e-04,-5.86347e-01,2.38616e-01,-1.21051e-01,-1.57760e-01,3.73693e-01,-5.43474e-01,-1.39459e-01,-5.80031e-01,-5.87135e-02,5.30009e-01,2.59136e-01,-2.27242e-01,3.06466e-01,-1.02696e-01,4.23143e-01,-4.89383e-01,5.89644e-02,-2.61375e-01,-1.70460e-01,1.19153e-01,3.14205e-01,6.35617e-01,
-1.24730e-02,1.25092e-01,-3.48832e-01,-6.61256e-02,4.89525e-01,7.21150e-01,2.94503e-01,-1.90848e-01,1.13372e-01,5.24924e-01,5.42750e-01,4.94610e-01,-6.72337e-01,-2.09640e-01,2.35269e-01,-3.71879e-02,-3.53853e-01,4.48529e-01,-5.20390e-01,1.57651e-01,3.42118e-01,-2.21662e-02,-2.63588e-01,1.99339e-01,-9.72956e-02,
1.25642e-02,-4.22007e-01,-3.32759e-02,8.93708e-02,2.86510e-02,-5.75888e-02,-1.33910e-01,1.09362e-01,1.43553e-01,2.78076e-01,-1.06512e-01,-2.49684e-01,5.95809e-02,3.32355e-01,1.55425e-01,-3.88523e-01,1.99024e-01,4.12815e-01,-3.10745e-01,-5.17029e-02,6.83226e-02,-1.56036e-02,1.99425e-01,1.50378e-01,4.71566e-01,
-1.93401e-01,-3.21604e-01,4.03813e-01,-7.74263e-02,1.24834e-01,-6.72748e-03,3.24777e-01,2.69411e-01,6.51607e-02,1.18165e-01,2.58618e-01,-2.32326e-02,2.49726e-02,-2.46717e-01,1.24659e-02,-1.12944e-01,-5.59129e-02,7.59805e-01,-2.91230e-01,6.94886e-02,3.52184e-01,-1.74670e-01,-1.75669e-01,-1.71571e-01,4.14583e-01,
-1.39939e-01,2.21373e-01,-2.30791e-01,-2.50922e-01,6.36641e-02,-4.01512e-02,-2.20728e-01,2.03335e-01,-3.36780e-01,-2.80023e-01,5.26157e-02,2.86345e-01,-1.57511e-01,-2.77982e-01,7.89165e-02,-6.33648e-02,-2.38067e-01,2.65487e-01,-4.87349e-02,3.38570e-01,-1.47105e-01,2.57554e-01,-7.16413e-02,6.91648e-02,2.17037e-02,
-1.49818e-01,5.23341e-02,-5.97093e-02,3.19041e-01,9.86369e-02,3.56194e-01,4.70100e-02,-1.24818e-01,-1.72026e-01,-5.52974e-01,1.55603e-02,4.93889e-01,2.80816e-01,-4.30523e-01,3.16297e-01,2.00022e-01,-3.43399e-01,-2.92662e-01,-1.10850e+00,2.43954e-01,-6.32871e-02,-1.09860e-01,-1.21846e-01,-1.88061e-01,-2.25609e-02,
2.35145e-01,5.10711e-01,4.10506e-01,1.22298e-01,6.55191e-02,-5.93075e-01,-3.10913e-01,-2.92488e-01,1.43283e-01,6.77473e-02,-1.50026e-01,-9.39846e-02,5.64006e-02,-6.57043e-02,-2.66488e-01,3.02649e-01,-1.56831e-01,1.52525e-01,-3.19926e-01,-7.41374e-02,1.64905e-02,2.00527e-01,-2.62926e-01,-4.02939e-01,3.17280e-01,
5.08852e-03,1.89685e-01,-4.73812e-02,6.53300e-01,2.86333e-01,-7.06086e-01,2.97519e-01,-3.54938e-02,-4.72826e-02,-5.37926e-02,1.57082e-01,3.12551e-01,-3.31906e-01,1.43296e-01,-7.78204e-02,-1.54511e-01,3.18863e-01,-1.59931e-01,3.29945e-01,2.52163e-01,5.23066e-02,-3.43675e-01,-1.96127e-01,-2.70720e-01,-4.16449e-01,
1.48535e-01,-1.79870e-01,6.50700e-01,1.59082e-01,1.62078e-01,-3.80906e-01,6.67971e-02,-2.11165e-01,-2.32538e-01,2.92935e-01,5.89130e-01,-2.03819e-01,1.29111e-01,2.60983e-01,-2.52516e-02,8.08279e-03,9.41761e-02,5.22326e-01,-7.56591e-01,5.98700e-02,7.45120e-01,2.10776e-01,6.67870e-02,-1.30239e-01,4.32853e-01,
1.38741e-01,-1.89417e-01,-4.00494e-01,-8.33734e-01,-6.74944e-01,2.74414e-01,2.73216e-01,2.21221e-01,-7.38596e-01,2.04010e-01,3.28815e-01,4.77767e-02,8.29736e-01,2.00772e-01,1.21626e-01,-2.12514e-01,4.07436e-02,-3.68847e-01,-2.12988e-01,2.89017e-01,-4.25979e-01,-3.65292e-02,2.03210e-01,-3.15723e-01,1.25963e-01,
9.96113e-02,-4.24153e-02,3.46436e-01,1.23423e-01,-2.16815e-01,1.08448e-01,-3.33186e-01,3.23999e-01,2.55099e-01,-8.23930e-02,-4.27059e-01,4.04392e-02,-1.81678e-01,1.11758e-01,-8.57476e-02,-5.65866e-02,-1.61833e-01,2.18847e-01,-4.99847e-01,9.87695e-02,-1.42470e-01,2.36396e-01,2.77491e-03,-3.85096e-01,2.15938e-01,
2.17996e-01,4.67912e-03,-1.00123e-02,2.14759e-01,-7.15291e-01,1.80721e-01,2.77460e-01,1.10250e-01,2.92825e-01,-1.57890e-01,9.90970e-02,2.19556e-01,-3.44003e-02,9.32355e-02,-1.81489e-01,-1.66838e-01,3.67447e-01,-4.90444e-02,7.63598e-01,-1.29792e-01,-6.62682e-01,2.45075e-01,3.26838e-01,2.64381e-01,-1.98670e-01,
-3.09780e-01,4.83434e-01,-2.27439e+00,-6.37787e-01,3.10099e-01,-1.03081e-01,-1.97503e-01,-4.05362e-01,1.77666e-01,2.84195e-01,6.37628e-01,2.98751e-01,-1.27542e+00,6.77341e-03,1.48567e-01,-6.53585e-02,-2.47800e-01,-1.40884e+00,-3.22660e-01,-1.09962e-01,4.55546e-01,-2.85041e-01,-2.44514e-01,-1.59701e-02,-5.33027e-01,
-1.65290e-02,-3.39842e-02,-2.66535e-01,-2.94374e-01,2.17510e-02,-2.50322e-01,2.74072e-01,3.10785e-01,1.15818e-01,-3.39954e-02,9.79080e-02,5.38625e-02,-4.62166e-02,9.72583e-02,1.43059e-01,3.19307e-01,-1.00552e-02,-4.49093e-01,-4.48425e-01,2.26291e-01,-2.19766e-01,1.18863e-01,4.86761e-02,3.25698e-01,-1.05245e-01,
-3.46971e-01,2.32191e-02,-1.03844e-01,-3.03895e-01,-2.12044e-01,2.13488e-01,-8.92967e-02,-2.76812e-02,-2.39273e-01,-1.66865e-01,-1.56143e-01,-7.92053e-03,-2.66040e-01,-1.16716e-02,-3.00072e-01,-1.01595e-01,-1.18029e-01,-3.36840e-01,-2.62565e-01,-1.64096e-01,8.29970e-02,-1.75877e-01,-7.95075e-02,-2.01463e-01,2.99480e-01,
3.66745e-01,-4.27015e-01,2.70794e-01,-1.26316e-01,1.42758e-01,-4.24646e-01,-1.29120e-01,-2.92131e-01,-4.90806e-01,3.48444e-01,1.64090e-01,1.40124e-02,1.36236e-01,6.84078e-02,-3.14104e-01,2.90748e-01,-3.45907e-01,-1.07293e+00,-5.23619e-01,-2.12426e-01,2.86356e-01,-1.19955e-01,4.81325e-02,-9.19045e-02,-1.01252e+00,
-3.26616e-01,3.87763e-01,4.49954e-01,-3.91751e-02,-5.26667e-01,-4.28015e-01,-2.28917e-01,1.68146e-01,-3.20872e-01,-3.70036e-01,-5.51561e-01,-1.42721e-01,5.02613e-01,-3.36183e-01,1.35895e-01,2.31825e-01,-6.12331e-02,4.92196e-01,7.05060e-01,-2.90738e-01,-4.25512e-01,-2.12479e-01,-3.03577e-01,2.31532e-01,-2.76866e-01,
2.17761e-01,2.61135e-01,3.57760e-01,-3.17438e-01,-7.32030e-02,1.61510e-02,2.81630e-01,5.77964e-02,-2.55505e-01,1.02075e-01,-1.27837e-01,2.73888e-01,4.73426e-01,-1.98185e-01,1.64193e-01,-3.64504e-01,-1.29761e-01,-2.83856e-01,-4.07241e-01,-1.29176e-01,3.95914e-02,-1.69720e-01,-1.09026e-03,3.40763e-01,1.68099e-01,
-4.33580e-02,9.48388e-01,3.74476e-01,-4.81416e-01,1.19618e-01,-1.08646e-01,-2.18642e-01,-4.17851e-02,1.22663e-02,1.36054e-02,-7.17809e-02,2.27890e-01,2.61310e-01,1.78826e-01,-1.87794e-01,1.01746e-01,7.86848e-02,-2.21873e-01,-9.80798e-02,9.31386e-02,1.46051e-01,6.85113e-02,6.16975e-02,2.13013e-02,4.51350e-02,
2.71338e-01,-2.86323e-01,3.98393e-01,-3.10152e-02,2.82630e-01,4.73635e-01,-2.73037e-01,-9.90281e-02,3.81715e-01,1.45656e-02,2.21830e-01,1.18748e-01,2.69440e-01,-5.26022e-02,6.53401e-02,-4.58803e-01,-1.44281e-01,-2.67468e-01,2.00081e-01,-3.68056e-01,2.57140e-02,1.90747e-01,-2.35236e-01,6.49638e-02,-3.25349e-04,
2.86538e-01,-8.04181e-02,3.76330e-02,7.45654e-02,9.90141e-02,1.11893e-01,2.07034e-02,1.80966e-01,-3.94849e-01,-5.44643e-02,-1.33969e-02,2.53689e-01,2.80981e-01,3.09073e-02,-1.99975e-01,2.70499e-01,4.25042e-01,2.13297e-01,-3.04382e-01,2.67010e-01,9.11565e-02,-3.23517e-01,1.61464e-01,2.10551e-01,-2.03047e-01,
1.63985e-01,
-1.52206e-01,
-8.83072e-02,
2.17760e-02,
9.81081e-02,
-2.26907e-01,
2.01793e-01,
-3.57648e-02,
-2.28807e-01,
-1.86951e-01,
-1.65144e-01,
1.34685e-01,
-2.07155e-01,
7.57282e-02,
2.39758e-01,
-7.19780e-02,
1.20386e-01,
8.30700e-02,
-1.78805e-01,
9.56957e-02,
3.27747e-01,
3.00267e-02,
-1.24620e-02,
1.28854e-01,
-2.23555e-01,
3.96567e-01,-4.60973e-01,-7.19553e-01,-3.07461e-01,-2.82091e-01,-1.33104e+00,-2.75314e-01,-6.30257e+00,2.09020e-01,-3.38721e-01,3.98004e-02,3.36132e-01,-5.10005e-01,-2.52155e-01,-4.89223e-02,-6.28898e-02,1.10582e+00,2.72657e-01,-2.87027e-01,1.31043e-01,-1.05219e-01,3.42338e-01,3.50034e-01,3.17094e-01,1.40210e-02,
2.46529e-01,4.77717e-01,5.36777e-01,3.92279e-01,-2.47292e-01,3.06614e-01,-1.52350e-01,1.08904e-01,2.18078e-01,9.16469e-02,1.57725e-02,-1.66125e-01,1.38915e-01,-3.09359e-01,-3.81721e-02,-2.73524e-01,-5.95525e-01,6.34413e-02,-2.78409e-01,-2.37954e-01,1.79489e-01,-3.19948e-01,-2.22383e-01,5.15171e-02,1.86472e-01,
2.74702e-01,1.89421e-03,3.49026e-01,1.11499e-01,-8.15980e-02,1.02094e-01,1.29480e-01,-1.07820e-02,-2.69158e-01,-4.88447e-02,-8.19570e-02,-2.21397e-01,9.70327e-02,2.10679e-01,6.48291e-04,-1.48627e-01,-1.63454e-01,2.97739e-01,-2.17442e-01,4.08563e-02,-2.51985e-02,1.70072e-01,-8.47329e-02,-1.64772e-02,1.33202e-01,
-2.80379e-01,-8.15602e-02,7.22105e-02,-1.22301e-01,1.42016e-01,-1.83233e-01,-1.63424e-01,-2.36115e-01,-2.42815e-01,4.05294e-02,2.20340e-01,1.11310e-01,3.46179e-01,-1.33239e-01,-3.38586e-01,8.87689e-02,-7.75057e-02,-1.36670e-01,2.62997e-01,-1.92010e-01,-2.49057e-01,-2.67098e-01,-1.22187e-01,-1.90043e-01,-2.39707e-01,
-2.03473e-01,-7.64369e-02,-4.35923e-02,-1.06224e-01,2.13396e-01,4.49041e-01,1.55053e-01,-1.87435e-01,-2.40839e-01,2.78678e-01,1.66640e-01,4.25806e-02,3.27732e-02,-1.79941e-01,9.08308e-02,-2.30991e-01,-4.03866e-01,5.43285e-02,-3.91101e-02,-1.65362e-01,3.15277e-01,9.82788e-03,7.05040e-03,-1.52068e-01,-2.36190e-01,
3.12205e-01,4.46223e-01,8.66791e-02,1.52531e-01,7.40747e-02,4.03744e-01,2.73223e-01,-1.07015e-01,-2.47154e-01,-5.94466e-01,-4.77443e-01,-1.38255e-01,1.59431e-01,-2.80605e-01,2.76805e-01,2.30047e-01,7.49006e-01,-1.50959e-01,-1.27720e-01,1.60044e-01,-1.53193e-01,3.59238e-01,-3.14217e-02,-2.29774e-01,-9.88339e-02,
1.05787e-01,3.46941e-01,-4.57767e-02,-1.39946e-01,2.93306e-01,2.10525e-01,-1.07236e-01,9.42749e-02,-4.66307e-02,-1.07250e-01,-1.96640e-01,-1.31941e-01,-1.78266e-02,-2.05316e-01,-1.87579e-03,-1.72562e-01,1.48311e-01,2.21280e-01,1.98696e-01,-5.98947e-01,1.22750e-01,2.79157e-01,2.25932e-01,1.53050e-01,-2.69486e-02,
1.13239e-01,-1.76318e-01,1.43150e-01,-6.17043e-02,2.11429e-01,-8.72931e-03,-1.58013e-01,-1.53081e-01,-1.68612e-01,1.83844e-02,-4.50264e-01,-6.34327e-02,6.30699e-01,-2.51321e-01,2.90395e-01,4.59238e-01,-3.08781e-01,-4.12568e-01,-3.20445e-01,-4.75836e-01,1.23004e-01,1.63844e-01,2.98462e-01,3.34149e-02,1.03191e-01,
-1.63550e-01,-9.76719e-02,1.41063e-01,-2.21755e-01,1.47929e-01,-2.47261e-01,3.19172e-01,-2.40287e-01,-2.71086e-01,-3.76085e-01,-5.67018e-02,2.52226e-01,-1.43796e-01,-1.86449e-01,3.01089e-01,3.65493e-01,-4.93596e-01,-1.88972e-01,3.35565e-02,-1.57839e-01,3.16048e-02,1.75566e-01,2.70830e-01,1.23204e-01,3.13882e-01,
4.43286e-01,-1.08945e-01,5.36774e-01,-1.95401e-01,-1.85554e-01,5.69028e-01,2.39753e-01,-2.56861e-01,-1.07242e-01,3.38149e-01,-6.74871e-02,-2.47761e-01,2.94658e-01,1.34674e-01,1.86123e-01,1.27044e-01,1.02145e-01,-7.44330e-02,-3.03389e-01,-2.36593e-01,-2.06078e-01,1.08312e-01,-1.19650e-01,-2.10557e-01,-1.13914e-01,
-1.73826e-01,1.09758e-01,-4.74762e-01,1.58397e-01,2.82832e-02,-3.85508e-01,-3.63259e-01,3.88936e-01,2.95673e-01,1.13704e-01,5.71219e-01,-4.40254e-02,-7.64289e-01,1.92794e-01,1.47290e-01,-1.80355e-01,-1.13103e-01,4.45094e-02,1.07984e-01,7.02578e-02,4.61592e-01,-3.44184e-01,-1.91750e-01,-4.25519e-01,2.48007e-01,
2.55807e-01,-1.02391e+00,1.53415e-02,-4.66978e-01,-2.37940e-01,-1.40900e+00,3.67037e-02,3.62823e-01,3.00891e-01,-2.53376e-01,-4.73113e+00,2.56704e-01,-4.41695e-01,-1.61179e-01,-2.48186e-01,-8.12269e-01,3.95977e-01,1.53206e-01,-3.41248e-01,-2.32026e-01,7.64174e-01,-2.41899e-01,1.31941e-01,-3.50070e-01,-2.95599e-01,
-2.26460e-02,-2.91475e-01,-2.53517e-01,2.69686e-01,-5.37257e-02,-3.32912e-02,1.35832e-02,-1.26653e-01,-2.00037e-01,1.21748e-01,-2.08971e-01,1.46836e-02,3.11833e-01,-6.34778e-02,-2.06089e-01,-1.14336e-01,-2.26081e-01,-2.96366e-01,-2.23553e-01,1.47947e-01,-5.68017e-02,2.37249e-01,-3.71970e-02,-2.85261e-01,-8.64627e-02,
4.78835e-02,-1.37969e-02,-2.52127e-01,-1.81372e-01,1.14697e-01,-1.72682e-01,5.48116e-03,-6.14139e-02,-2.50843e-01,-5.58862e-01,-2.17197e-01,-1.15002e-01,-1.70650e-01,1.73583e-01,-2.57473e-01,4.38585e-02,1.07558e-02,4.45261e-01,-7.07493e-02,3.68077e-01,-2.29935e-01,2.77260e-01,3.52016e-01,3.31280e-01,2.62073e-01,
8.28797e-02,2.11310e-01,1.32264e-01,1.04496e+00,-3.68351e-01,-3.50038e-01,1.60337e-01,-7.78989e-03,-2.57452e-02,-6.90535e-02,3.15350e-01,5.72412e-01,8.48638e-03,2.94084e-01,-1.67385e-01,-2.85362e-01,-1.62763e-01,-1.86795e-01,-8.07841e-02,2.26034e-01,1.17153e-01,-3.78071e-01,-2.36784e-01,-1.82101e-01,-2.98944e-01,
2.47561e-01,-9.85096e-02,3.25638e-01,-3.43349e-01,1.24706e-01,-3.20737e-01,-2.38630e-01,-4.72907e-02,6.72907e-03,3.23522e-01,-1.25856e-01,-1.87559e-01,8.43563e-02,1.90261e-01,-2.33951e-01,4.86885e-02,-2.91714e-01,-2.84270e-02,-1.98246e-01,-3.40806e-01,-2.22891e-02,-2.09608e-01,-1.09258e-01,2.87962e-01,-3.18645e-01,
4.79886e-02,2.06605e-01,2.69895e-01,-1.18825e-01,6.22716e-02,5.92258e-01,3.30154e-01,-3.25377e-01,-1.93432e-01,-1.04731e-02,-3.43017e-02,1.70264e-01,4.27346e-01,1.99712e-02,1.30915e-01,3.16873e-02,1.41074e-01,-5.86159e-02,2.44142e-03,-1.04180e-01,1.94702e-01,1.08306e-01,-1.49749e-01,-2.14358e-01,-3.60310e-01,
1.53193e-01,1.22983e-01,4.82058e-01,-1.31195e-01,-3.81797e-02,1.90198e-02,1.18729e-01,2.79642e-02,-2.98793e-01,1.45267e-01,4.85600e-01,2.86683e-01,-2.25766e-01,-1.94451e-01,1.15306e-01,9.73446e-02,6.72270e-01,2.12305e-01,4.28043e-02,1.37095e-01,-9.19437e-02,-3.07212e-01,-2.25301e-01,-1.41451e-01,3.84288e-01,
1.78648e-01,1.76819e-01,1.06299e-01,1.37362e-01,-2.17072e-01,1.78604e-02,-3.03273e-01,-2.38717e-01,3.22109e-01,-1.01028e-01,-4.88481e-02,-3.11162e-01,5.02449e-01,4.87445e-01,2.78130e-01,-7.36067e-02,3.95391e-01,1.43260e-01,-1.70775e-01,2.10283e-02,9.36535e-02,-3.13610e-01,-9.21428e-02,2.47704e-02,1.26892e-01,
2.37470e-01,6.50702e-02,2.52941e-01,-1.78579e-01,3.27639e-01,-2.98847e-01,2.70539e-01,-2.11277e-01,-8.28466e-03,1.33832e-01,-3.17785e-01,-2.43895e-01,6.56282e-03,2.31325e-01,2.56307e-01,-1.23977e-03,-2.17858e-01,2.37962e-01,1.68341e-01,-4.74284e-01,-1.78226e-01,1.49876e-01,6.31208e-02,4.48965e-02,-5.92321e-02,
1.45662e-01,2.28708e-02,3.42524e-01,4.02582e-01,-8.79506e-02,1.45620e-01,-6.88776e-02,3.16401e-01,-3.43490e-02,3.03912e-01,-1.32929e-01,6.68843e-02,5.44690e-02,1.35366e-01,3.47355e-01,-2.42198e-01,1.03427e+00,1.12815e-01,2.07552e-01,-5.79204e-02,5.10270e-01,1.78724e-01,1.74791e-01,1.57803e-01,5.30058e-02,
2.86372e-01,-4.01516e-01,2.26715e-01,-9.80585e-02,1.10734e-01,-6.43514e-01,2.80607e-02,-4.51407e-03,3.09556e-02,2.72100e-01,2.39798e-01,-3.77116e-01,1.42872e-01,4.85014e-01,-2.72568e-01,-1.26067e-01,-1.55705e+00,1.54154e-01,-1.87271e-01,-5.59742e-01,1.82381e-01,3.64710e-02,-1.25406e-01,2.60598e-01,2.74585e-01,
2.23407e-01,-7.07793e-01,6.65253e-02,2.59395e-01,4.16001e-02,3.94950e-01,4.17196e-01,-6.56557e-01,-2.53479e-01,1.09102e+00,-3.63126e-01,2.00092e-01,-1.61048e-01,-2.09391e-01,3.25035e-01,-2.69162e-01,-1.70514e-01,1.66741e-01,-2.50093e-01,7.36741e-02,8.94388e-01,2.01754e-01,6.48337e-02,2.15669e-01,-1.15196e-01,
2.96709e-01,5.77771e-02,3.88633e-01,2.90115e-01,-1.36302e-01,-1.23382e-01,1.12772e-01,-5.73638e-02,1.18643e-01,-1.29234e-01,3.30427e-02,1.90934e-01,2.87338e-01,-3.34667e-01,7.79979e-02,1.05883e-01,2.11368e-01,-2.28418e-01,-3.91226e-02,1.43150e-01,-3.65163e-02,-8.23597e-02,-1.50219e-01,-2.55815e-01,-8.40312e-02,
2.66823e-01,-5.45966e-02,-5.39254e-02,-4.31613e-02,3.09344e-01,-9.98503e-02,2.62809e-01,2.82411e-01,2.37012e-01,-2.40181e-01,-5.95846e-02,6.38237e-02,-2.63399e-01,-3.17154e-02,2.17976e-01,1.86670e-01,-1.20967e-01,1.86811e-01,1.19484e-01,4.62952e-02,-6.79532e-02,3.02364e-01,2.12481e-01,-5.52186e-02,2.91703e-01,
-1.47485e-01,
2.03297e-01,
-1.00185e-01,
-7.10414e-02,
2.62576e-01,
-1.26276e-01,
-5.14166e-02,
1.62333e-01,
-1.49515e-01,
6.81071e-02,
2.01496e-01,
2.79881e-01,
-2.70891e-01,
3.89119e-01,
-2.20065e-02,
-2.29853e-01,
1.01605e-01,
1.63975e-01,
-2.77626e-02,
-8.20721e-02,
-1.69751e-01,
-1.26356e-01,
-2.54272e-01,
8.75987e-02,
3.88276e-01,
9.20036e-01,3.20909e-01,-4.98535e-01,-3.45212e-01,-4.66515e-02,1.62752e-01,5.48726e-03,-4.51365e-02,4.16502e-01,1.29430e-02,4.69076e-02,-1.52946e+00,-1.62415e-02,-3.43552e-01,1.88257e-02,-2.23937e-01,-2.07497e-01,-9.08988e-02,2.96659e-01,1.15772e-01,-1.09928e-01,-6.24235e-02,5.35398e-01,6.07494e-02,-1.59147e-01,
1.13840e+00,-1.01875e-01,4.03933e-01,1.52082e-01,2.40001e-01,2.38696e-01,-3.97359e-02,-7.77795e-02,3.10585e-02,1.79588e-01,4.96416e-01,4.87995e-01,2.46721e-01,-5.54866e-02,-7.68949e-02,-1.23114e-01,1.82004e-01,-2.77227e-01,3.35746e-01,2.78870e-01,3.35768e-01,-4.82198e-02,1.94013e-01,-9.19512e-02,-2.55700e-01,
-3.21231e-01,-9.22484e-02,4.16319e-02,-3.35453e-01,1.48219e-01,2.67349e-01,-2.10825e-01,-2.98566e-02,-1.78230e-02,6.82265e-02,5.22936e-02,-1.73992e-01,3.25826e-01,-6.16638e-02,-1.78185e-01,1.07625e-01,5.64524e-02,-3.12282e-01,1.46985e-01,-7.42066e-02,-1.06215e-01,3.04876e-01,1.72209e-01,-7.39388e-02,-2.05925e-01,
8.96670e-02,3.53766e-01,1.19155e-01,-3.24240e-01,3.83715e-01,-3.37880e-02,-3.83431e-01,6.56924e-02,-1.18801e-01,3.55757e-01,2.42894e-01,-1.09707e-01,-8.25098e-02,2.64111e-01,2.71117e-01,1.71321e-01,2.43474e-01,1.39050e-01,-2.46465e-01,1.59508e-01,6.14951e-02,-1.87119e-01,-7.25382e-02,-2.79294e-01,7.82309e-02,
1.11002e+00,-3.30189e-01,9.00030e-02,5.17944e-02,8.70942e-02,2.75927e-01,3.97082e-01,-2.13656e-01,1.14241e-01,1.08655e-01,-2.27475e-02,8.33317e-02,-1.12898e-01,8.12255e-03,1.20841e-02,-1.52819e-01,-1.30295e-01,1.81448e-01,-3.38321e-02,1.04268e-01,2.25092e-02,3.24254e-02,-9.51735e-02,1.67682e-01,2.53228e-01,
7.67734e-01,-2.66172e-01,2.72224e-02,-2.06355e-01,-3.76502e-01,2.25618e-01,-1.63985e-01,2.62802e-01,-2.81798e-01,2.16690e-01,-5.43376e-01,-3.61001e-01,-2.84550e-01,-1.53874e-01,-6.07477e-02,2.77073e-01,3.05416e-01,1.27018e-01,-3.48485e-01,-1.29704e-01,8.95925e-02,-9.72449e-02,4.63907e-01,-1.22893e-01,-1.43101e-01,
-8.88114e-01,-3.12714e-02,3.28206e-01,3.03858e-01,2.72856e-01,1.92768e-01,6.01265e-02,-2.36179e-01,2.16096e-02,2.84408e-02,4.09652e-02,-7.06549e-01,-2.13295e-01,1.60628e-01,-7.65731e-02,-2.23316e-01,3.07558e-01,3.75629e-01,-5.28743e-01,2.83141e-02,4.68130e-02,-5.77703e-03,1.34610e-01,1.09899e-01,-2.78605e-02,
-3.90932e+00,-7.29260e-02,1.95595e-01,1.70434e-01,1.54996e-01,8.41754e-02,-9.92293e-02,9.62296e-02,-4.98231e-01,-1.80674e-01,1.77312e-01,4.88792e-01,-2.20083e-01,-7.86313e-02,3.34478e-01,-2.70482e-01,7.09076e-02,9.70200e-02,-1.69990e-01,1.27390e-01,4.51822e-01,-3.06879e-02,1.95871e-01,4.18635e-02,1.84182e-01,
2.33427e-01,-5.45980e-01,1.72601e-02,2.77645e-01,-2.44586e-01,-2.83685e-01,-2.42750e+00,-1.97300e-01,-1.77475e-01,5.11561e-02,-6.69915e-01,-6.45236e-01,-2.35580e-01,2.21231e-01,-2.67983e-01,-2.66216e-01,1.29150e-01,4.91869e-02,-5.47364e-01,-3.34680e-01,1.25458e-01,9.28848e-02,-1.03718e+00,1.82428e-01,-2.00108e-01,
-1.91725e-01,2.83635e-02,-1.31647e-01,3.06116e-01,1.28229e-01,-2.45127e-01,1.74677e-01,-2.98338e-01,-2.33811e-01,1.11938e-02,-3.45231e-01,-1.28180e-01,2.50773e-01,-2.19694e-01,1.37940e-01,3.28521e-01,-2.99214e-01,1.80267e-01,-9.86343e-02,1.52999e-01,2.82690e-01,2.30024e-01,1.57450e-01,-1.44925e-01,6.43334e-02,
3.48684e-02,-2.44767e-01,2.52861e-01,-2.34147e-01,2.25016e-01,3.47931e-01,-1.50128e-01,2.84156e-01,-8.60225e-02,-7.20165e-02,7.11745e-02,-1.29258e-01,3.03056e-01,3.42954e-01,-5.37928e-02,-2.40026e-02,1.18367e-01,2.94166e-01,-2.29350e-03,4.00901e-01,7.65697e-02,-1.56544e-01,-1.49738e-01,2.30020e-01,4.28953e-01,
2.43324e-01,2.81713e-01,3.46004e-01,-7.28261e-02,3.44952e-01,-3.86784e-01,3.63418e-02,-3.46250e-01,-1.07130e+00,2.28633e-01,2.32004e-01,-1.10426e+00,7.56118e-02,-2.02687e-01,-2.74845e+00,-3.09577e-01,-4.16714e-01,1.44589e-02,4.07652e-01,6.31059e-02,-3.57298e-01,7.64953e-01,-9.30425e-02,-4.47282e-01,4.99843e-02,
-2.73608e-01,1.56059e-01,3.13808e-02,1.60826e-01,2.96148e-01,-2.89479e-01,3.62094e-02,-2.27743e-01,1.29247e-01,-2.51910e-01,-2.04426e-02,1.30353e-02,1.11555e-01,-3.17901e-01,-1.78552e-01,2.16157e-01,-2.33616e-01,2.70188e-01,-3.39041e-01,-1.37552e-01,3.90774e-02,-1.09105e-01,2.87135e-01,-2.11590e-01,2.35533e-01,
-1.07519e+00,4.36245e-01,7.85877e-02,-2.49417e-01,6.14133e-02,-4.34003e-02,-1.43377e-01,1.55936e-01,3.28331e-02,1.81284e-01,3.68274e-01,3.93872e-01,-1.17296e-01,-1.61162e-01,-9.82207e-02,1.68243e-01,2.30042e-01,2.31845e-01,-2.17921e-01,4.97532e-02,1.51964e-01,-1.60086e-01,4.48295e-01,2.87731e-02,-2.16617e-01,
-3.14190e-01,-2.64772e-01,-3.87328e-01,-3.10689e-01,-1.62379e-01,1.99923e-01,4.85475e-02,-3.46565e-01,6.88918e-02,-3.95462e-01,1.38002e-01,-2.56591e-01,1.92733e-01,-1.18437e-01,3.75916e-02,-2.64912e-01,-1.73831e-02,-2.78433e-01,-8.47220e-02,1.95206e-01,4.91566e-02,-3.98990e-02,2.12678e-01,4.92714e-02,-6.79376e-02,
-1.12305e+00,-3.98690e-01,-6.22709e-02,2.44783e-02,-6.23564e-02,2.33039e-01,1.07711e-01,3.36419e-01,-1.14540e-01,2.72717e-01,3.17605e-01,1.46168e-01,-4.32712e-02,3.17767e-01,7.22490e-02,1.38710e-01,2.67749e-01,1.56192e-01,-1.82072e-02,9.52823e-02,1.43572e-01,-9.27311e-02,-6.72104e-01,3.64573e-02,-2.10332e-01,
6.28346e-01,1.59756e-03,9.91552e-02,-1.23459e-01,2.22989e-01,-1.56848e-01,-1.98858e-01,-7.77525e-02,-1.86512e-01,-3.66115e-01,-2.14601e-01,3.04036e-01,1.91631e-01,-1.19778e-01,-4.14558e-02,1.83922e-01,1.89924e-01,3.01248e-01,7.92327e-02,6.02200e-02,2.95401e-01,8.55537e-03,2.86544e-01,4.00494e-01,-1.04393e-01,
-1.03398e-01,6.81830e-02,-8.72217e-02,1.11170e-01,-1.51694e-02,1.59056e-01,-2.28704e-01,7.51690e-02,-7.90641e-02,-1.47604e-01,1.99840e-01,-4.32835e-02,-2.53211e-01,6.67097e-02,2.92440e-02,3.34995e-01,-1.07576e-01,-1.06618e-01,-1.33995e-01,-3.06248e-01,-1.37660e-02,2.54949e-01,2.62203e-01,3.13404e-01,-3.23615e-01,
-1.49360e+00,3.00239e-01,2.52322e-01,-3.27475e-01,-2.34061e-01,-4.99021e-02,2.75829e-01,2.96534e-02,-5.02650e-01,-4.49651e-02,4.04492e-01,9.58977e-01,-3.06301e-01,-1.21516e-01,-5.26955e-02,1.25490e-01,-3.80900e-02,-1.82410e-01,-5.71745e-01,7.01964e-02,-5.71968e-01,-7.41773e-03,3.84217e-01,5.91859e-02,-2.11576e-01,
1.57251e-01,1.94418e-01,-3.17533e-01,1.65832e-01,-2.10995e-01,2.29886e-01,-2.76312e-01,1.97561e-02,-1.18305e-01,-3.90143e-01,1.21766e-01,-3.04094e-01,2.47853e-01,6.61215e-02,2.14108e-01,-2.63810e-01,-1.19459e-01,-2.51647e-01,-7.81809e-02,-2.51763e-01,-1.06620e-01,2.73209e-01,-6.87723e-02,1.32162e-01,1.88342e-01,
1.08842e+00,-2.62378e-01,-4.14149e-02,-1.32149e-01,2.69313e-01,1.71062e-02,3.16868e-01,-2.90772e-01,-1.28466e-01,-5.50594e-02,-2.96526e-01,1.92585e-01,-1.63114e-01,2.42456e-01,3.05385e-02,-1.81084e-01,-2.36067e-01,2.32185e-01,1.50272e-02,-1.44941e-02,1.81227e-01,1.23896e-02,-3.14040e-01,9.19063e-02,1.29122e-01,
-1.78055e-01,1.39136e-01,-2.45808e-01,-2.72067e-01,-1.88892e-01,-1.01321e-01,-3.08188e-01,2.52960e-01,1.79110e-01,-3.05248e-01,-2.08862e-01,-2.30627e-01,2.57137e-01,-1.58284e-01,3.00645e-01,3.35778e-01,7.20685e-02,1.85847e-01,-7.33035e-02,-3.67869e-01,-4.68460e-02,8.48939e-03,2.55499e-01,1.45778e-01,-1.23833e-01,
1.75981e-01,-7.94288e-01,2.34465e-01,4.12682e-02,1.98304e-02,6.60677e-02,-1.06255e-02,-4.71593e-01,-6.03279e-02,-8.75842e-02,-7.03074e-01,-8.50863e-01,-2.99583e-01,4.48008e-01,-2.33616e-01,-1.71496e-02,-6.28957e-02,2.53496e-01,-3.09337e-01,2.91840e-01,-2.12234e-01,4.14093e-02,-2.46267e-01,1.09197e-01,-6.34578e-02,
-6.50541e-01,3.52570e-01,2.36820e-01,-1.98318e-01,2.97706e-01,1.52390e-01,6.67896e-02,-1.21715e-01,7.71298e-02,6.78364e-02,2.95593e-01,4.69280e-01,2.23973e-01,9.36519e-02,-3.31552e-01,-2.10909e-01,8.14029e-02,2.00418e-01,-1.44415e-01,3.51083e-01,2.62156e-01,-2.43675e-01,5.81118e-01,1.69899e-01,3.62129e-01,
-1.87103e-01,-1.88482e-01,1.58131e-01,-3.44920e-01,-1.86832e-01,-1.79527e-01,1.39698e-01,1.98124e-01,-5.32250e-02,-2.88581e-01,-3.21288e-01,5.66979e-02,-3.18194e-01,1.26351e-01,-1.56170e-01,4.91628e-02,8.82429e-02,-3.63455e-01,-3.04163e-01,-1.90390e-01,9.12276e-02,-3.00255e-02,3.11292e-01,4.67236e-02,-2.63183e-01,
2.12565e-01,
-8.28857e-02,
-4.72529e-02,
-1.41319e-01,
-2.94830e-01,
2.22127e-01,
-2.78790e-01,
-2.81237e-01,
3.23185e-01,
-6.76629e-02,
-7.38533e-02,
7.61847e-02,
-1.51093e-01,
-5.59891e-02,
2.38842e-01,
-2.58142e-01,
5.16383e-02,
2.07065e-01,
1.56534e-01,
-1.37592e-01,
2.58743e-01,
-1.60565e-01,
-1.34498e-01,
-1.83092e-01,
7.89746e-02,
3.73914e-02,7.78699e-03,3.01417e-01,5.68664e-02,6.56542e-02,-6.14932e-02,4.40238e-02,5.41479e-02,-5.01163e-01,-3.89851e-01,-3.52043e-01,5.26820e-02,2.74189e-01,-4.13026e-01,2.33228e-01,2.10600e-01,1.21789e-01,2.17188e-01,-1.30221e-01,-4.34858e-01,-4.24448e-01,3.58235e-02,-5.17180e-01,2.71621e-01,-1.15835e-02,
-2.85682e-02,-2.08744e-01,2.40439e-01,2.99142e-01,-3.22713e-01,-1.22401e-01,-6.13113e-02,-7.33173e-02,-4.78957e-01,2.12278e-01,2.73922e-01,-9.26648e-02,8.56375e-02,-1.38173e-01,4.91031e-04,-1.10963e-01,8.07752e-03,-3.31192e-01,1.20359e-01,-2.65972e-01,-9.78890e-02,-3.32002e-01,-5.31419e-01,1.45530e-01,-2.80141e-01,
-4.53332e-02,-4.88823e-02,-2.20106e-01,9.60293e-02,-1.16278e-02,-1.35616e-01,-3.31321e-02,4.06017e-02,-5.47518e-01,-1.78948e-01,4.35833e-02,1.29380e-06,1.09338e-02,-2.34130e-02,2.05313e-01,-4.02926e-02,-4.58405e-02,1.75373e-01,6.65347e-02,4.24117e-01,-1.93363e-01,4.40722e-01,-6.92087e-01,1.43755e-02,-3.05474e-01,
6.94253e-02,1.11012e-01,2.99585e-02,-2.53456e-02,-2.38484e-01,-3.49687e-01,3.07238e-01,2.46791e-01,-4.88575e-01,3.49769e-01,3.05033e-01,9.01630e-03,-1.56478e-01,1.53262e-01,-3.84023e-01,-2.69241e-01,-3.19728e-01,-1.73966e-01,1.00657e-01,3.32981e-01,-2.75406e-01,-1.28694e-02,-1.07854e-01,-3.06576e-01,1.02182e-02,
-1.49616e-01,-1.21624e-02,3.10039e-02,-7.01151e-02,6.66929e-01,-2.44056e-01,-8.56735e-02,1.39240e-01,-8.09958e-01,-3.22838e-01,-2.38138e-01,-1.12993e-03,3.12788e-01,2.05988e-01,-7.72923e-02,6.26733e-02,-2.44760e-02,-7.49854e-02,-3.67034e-02,1.79421e-01,-3.47619e-01,7.62641e-02,-7.22180e-01,-2.02645e-01,4.66451e-01,
3.25760e-01,
-3.70240e-01,
1.98519e-02,
8.25393e-02,
5.17938e-01,
