// Neural Network File Format by Kyle Julian, Stanford 2016
6,3,5,25,
3,25,25,25,25,25,5,
0,
-56000.000000,-56000.000000,-3.141593
56000.000000,56000.000000,3.141593
-278.628049,0.000000,0.000000,-0.242819
112000.000000,112000.000000,6.283185,17.479225
-6.45914e-01,2.57868e+00,1.96875e-02,
2.33435e-01,-2.68709e-01,1.93659e-01,
1.69987e+00,4.36577e-02,2.87779e-01,
-2.83765e+00,-1.32112e+00,-3.89591e-01,
1.95176e-01,2.11461e-01,3.22355e-01,
-3.15789e+00,1.41890e+00,-1.22998e-02,
-1.19314e+00,3.73208e+00,6.57208e-01,
1.90260e+00,-1.04156e+00,1.01419e-01,
-1.50499e-01,-2.57074e+00,-4.34332e-01,
-2.17264e-01,-2.76927e-01,-2.57790e-01,
2.65293e-01,7.26961e-02,-3.55246e-02,
-2.05108e-01,1.43261e+00,-4.40736e-01,
-1.04630e+00,-1.98095e+00,5.98112e-01,
-8.27129e-01,7.73323e-01,-7.54108e-01,
-3.43072e-02,-1.18673e-01,3.95331e-02,
-1.51262e-01,-3.01978e-01,-3.01663e-01,
1.41678e+00,1.52634e+00,2.35861e-01,
-1.64488e+00,1.29849e+00,6.42618e-02,
-1.44787e+00,1.85504e+00,2.55968e-01,
-7.43849e-01,-1.50086e+00,6.64213e-02,
-3.53843e-01,-4.42409e-01,7.62971e-01,
6.99304e-02,-7.06170e-02,-3.87121e-01,
2.59339e+00,1.01484e-01,-4.19681e-01,
1.02015e+00,1.61053e+00,-2.88720e-01,
-4.91876e-02,-1.06445e-01,1.64018e-01,
1.05806e-01,
-3.21656e-01,
7.25906e-03,
2.47022e-01,
-3.07488e-01,
1.90856e-01,
2.53396e-02,
-2.60050e-02,
2.92578e-01,
-3.25217e-01,
-1.56789e-01,
2.84681e-01,
2.97664e-02,
-8.10496e-05,
-2.80548e-01,
-3.21724e-01,
-6.46080e-03,
-7.51503e-02,
1.89796e-01,
2.12550e-01,
-1.04279e-01,
-2.72605e-01,
2.48624e-01,
2.57769e-01,
-3.09446e-01,
-1.49367e-02,-1.12906e-01,-1.82337e-02,-4.51132e-01,3.08286e-01,-5.01551e-02,2.32326e-01,3.59715e-02,-4.25267e-01,6.59218e-02,-2.57217e-01,3.61786e-02,1.10682e-01,-3.47603e-01,-4.79824e-02,-1.73309e-02,3.61665e-01,3.21441e-01,-1.40123e-01,6.77455e-02,1.80031e-01,-1.05077e-01,2.36704e-02,-4.11178e-02,-2.51963e-01,
3.60348e-01,-3.24938e-01,2.97647e-02,-3.56241e-01,-2.97598e-01,-1.72234e-01,5.62336e-01,-4.25101e-01,-1.68721e-01,-1.06554e-01,-1.97164e-01,2.97608e-01,-1.35263e-01,6.84517e-02,-1.82384e-01,1.78996e-01,7.59260e-01,-5.66817e-01,4.27952e-01,1.51799e-01,-1.10531e+00,9.62933e-02,1.77073e-01,1.04363e-01,-1.95565e-01,
-5.86788e-02,-2.16345e-01,-2.12610e-01,1.46991e-02,-2.89337e-01,5.20292e-01,3.18748e-02,1.10897e+00,-2.68379e-02,-5.62074e-02,2.25928e-01,1.26850e-01,3.05834e-01,4.50915e-01,-1.40269e-01,3.44755e-01,-3.48419e-01,-1.65762e+00,3.84014e-01,-5.18892e-02,5.50209e-01,-1.69870e-01,-4.74322e-01,-6.88833e-02,3.25137e-01,
1.59980e-01,1.38498e-01,4.26987e-02,4.06001e-01,3.26489e-01,-1.50569e-01,3.00081e-01,-4.21000e-01,2.70472e-01,-2.86565e-01,-2.95428e-03,1.60540e-01,6.93902e-01,6.04677e-01,2.38558e-01,5.54407e-03,1.24088e-01,-8.77725e-01,1.06347e-01,1.82045e-02,2.25408e-01,9.85584e-02,5.44782e-03,-1.03968e-01,8.67996e-02,
-2.79738e-01,-8.48752e-02,-1.10203e-01,1.40984e-02,-7.20208e-02,-3.57052e-01,-9.55167e-02,-2.84050e-01,4.48382e-01,1.67517e-02,-8.88184e-03,-3.09893e-01,-4.64859e-01,-3.63363e-01,-9.41733e-02,-1.68240e-01,7.05238e-01,1.11509e+00,3.85022e-02,1.82996e-01,1.35212e-01,-7.22609e-02,-1.27022e-01,-2.56302e-01,-2.20660e-01,
-4.44119e-01,-1.37782e-01,-4.03239e-01,1.32559e-01,1.97841e-01,2.67204e-01,2.39567e-01,-1.25714e+00,2.53473e-01,-1.66713e-01,2.38563e-01,-1.33817e-01,-1.25414e-01,2.53027e-01,3.18215e-02,-2.25559e-01,-2.35596e-01,-3.89120e-02,-1.17688e-01,1.95861e-01,8.79387e-02,5.58324e-02,-3.90988e-01,-6.78416e-02,3.38273e-01,
-1.17302e-01,-2.88468e-01,-2.03598e-01,4.39899e-01,5.97986e-02,3.21502e-01,3.61090e-01,4.91153e-01,-1.54810e-01,1.08396e-01,-3.43510e-01,4.64555e-02,-1.43499e-01,1.89924e-01,-1.83536e-01,1.82673e-01,6.95767e-02,-1.15016e+00,-1.40214e-01,2.60742e-01,-2.45228e-02,-2.55741e-01,-7.76379e-02,-2.86828e-02,-2.47916e-01,
-5.66205e-02,2.76991e-01,8.44310e-01,1.89899e-02,1.42311e-01,5.01006e-02,-5.77313e-01,-2.43973e-01,2.49121e-01,-1.75919e-01,2.40909e-01,3.41568e-01,1.01755e+00,4.75609e-01,-2.86593e-01,-3.29550e-01,3.92268e-01,-9.31201e-01,9.66229e-02,-1.82146e-01,-6.06861e-01,1.22344e-01,2.30799e-01,-1.53596e-01,5.41851e-03,
1.50241e-01,3.11684e-01,3.03138e-02,9.98908e-02,-2.92036e-01,-3.35535e-01,1.40990e-01,2.56177e-01,-3.73862e-02,1.37359e-01,1.67007e-01,-2.49517e-01,1.09441e-01,-1.11285e-01,-3.45881e-02,-5.88503e-02,-1.01830e-01,2.04915e-01,-2.71834e-01,-4.11080e-02,1.53918e-01,-8.56103e-02,1.82143e-01,-3.46066e-01,-3.04997e-01,
-3.43308e-01,-1.14412e-01,-2.27521e-01,3.14417e-01,-2.99675e-01,1.94372e-01,-5.73158e-01,4.30971e-01,3.65182e-01,-1.07997e-01,1.23476e-01,-1.56466e-01,-1.87891e-01,-1.18510e-01,-1.41052e-01,6.97413e-03,5.27909e-01,-3.68156e-01,-3.05226e-01,-6.71121e-02,2.69346e-01,-2.65887e-01,3.25372e-02,-4.19045e-01,-2.41599e-01,
-5.52027e-02,-1.00751e-01,-8.88491e-01,1.79013e-01,2.79060e-01,1.61738e-01,-2.19683e+00,-8.63548e-02,3.14793e-01,-2.29335e-01,3.61823e-02,2.83558e-01,5.70110e-02,1.00296e-01,-8.76310e-02,2.63829e-01,2.23688e-01,-9.62936e-01,-3.14612e-01,8.93031e-02,-4.61542e-01,-2.31384e-02,8.14598e-02,-8.74074e-02,-1.09472e-01,
-1.74018e-02,1.13279e-01,1.18856e-01,-2.03897e-01,-1.28663e-01,-3.43021e-01,-6.18065e-01,2.41299e-01,-2.59220e-01,-1.50391e-01,-1.20776e-02,-1.01222e-01,-2.75264e-01,-4.69971e-01,1.92140e-02,8.67078e-02,-1.29642e+00,-2.05829e-01,-3.12784e-01,-2.01390e-01,7.40736e-01,-3.33690e-01,-5.46073e-02,2.16346e-01,-1.73249e-01,
-1.25632e-02,-1.05501e-01,-5.96983e-02,3.73171e-01,-5.15020e-02,-1.02836e-01,-4.16528e-01,-7.58910e-01,3.11443e-01,5.17655e-02,-3.13088e-01,-3.38747e-01,6.15014e-01,1.23840e-01,2.40428e-01,-1.48109e-01,-4.03985e-01,1.82308e+00,4.07871e-02,4.78963e-01,1.67322e-01,1.41614e-01,4.03529e-02,-3.37864e-01,-3.46173e-01,
-9.01475e-02,-1.08405e-01,-3.56489e-01,4.96098e-01,-5.31598e-02,5.57296e-01,-2.05742e-01,4.33300e-01,1.55205e-01,2.69698e-01,3.32379e-01,-1.19502e-01,-1.17804e-02,-2.25135e-01,1.70826e-01,2.05664e-01,-3.08029e-01,-7.54490e-01,-4.11477e-02,2.55298e-01,3.82797e-01,-1.06635e-01,-3.36631e-01,3.93965e-02,-2.73533e-02,
-3.96368e-01,-2.51826e-01,1.47531e-01,-1.41643e-02,1.27368e-01,-4.97298e-01,-1.56380e+00,-6.33211e-01,3.57874e-01,1.95422e-02,6.39630e-02,-1.75487e-01,-5.80798e-01,-3.10499e-01,-2.57301e-01,2.58855e-02,8.06392e-01,2.36556e+00,-4.91058e-01,-1.35720e-01,-2.07757e+00,-2.80981e-02,4.03565e-01,-1.34590e-02,2.03690e-01,
-4.49128e-01,2.38137e-01,4.71655e-01,-2.90994e-01,2.61048e-01,5.78037e-03,-1.07547e-01,3.04271e-01,-1.11580e-01,-1.65620e-01,1.76904e-01,-2.22758e-01,-2.76842e-02,-1.58381e-01,-6.95416e-02,-3.21687e-01,-2.27718e-01,9.10174e-01,1.52178e-01,3.55902e-01,-1.66581e-01,1.27121e-01,2.66103e-01,1.30866e-02,-2.57247e-01,
-2.00072e-02,3.24162e-01,-2.87689e-01,1.22111e-01,1.42504e-01,-9.11296e-02,1.95147e-01,1.74390e-01,1.44388e-01,1.30695e-02,-3.95849e-02,3.24103e-01,-1.40426e-01,-1.54759e-01,3.13089e-01,6.68014e-02,1.27876e-02,-2.38254e-01,-3.46218e-01,-1.21579e-01,-2.43160e-01,-5.14697e-02,4.04907e-02,-1.10776e-01,-3.23823e-01,
-2.30056e-01,-2.46260e-03,3.43310e-01,-2.83559e-02,-3.04915e-01,-3.62660e-01,-3.81189e-01,-5.61275e-01,4.38982e-01,-3.78247e-02,-1.48887e-01,-3.77048e-01,2.66025e-01,2.38635e-01,1.67171e-01,3.77219e-02,2.38625e-01,9.10044e-01,-5.18846e-01,-1.61697e-01,2.35802e-01,-8.76690e-02,2.99292e-01,-3.37908e-01,9.35971e-02,
-2.30351e-01,3.37072e-01,8.75294e-02,-2.90563e-01,6.21467e-02,-6.08722e-02,2.80494e-01,4.99843e-01,-4.30759e-02,-6.75339e-02,2.15394e-01,1.59224e-01,5.82342e-01,1.87943e-01,8.87174e-02,2.97856e-01,-3.15001e-01,2.68527e-01,-7.23100e-02,2.08075e-01,-7.44465e-01,3.26842e-01,-1.14148e-01,4.16705e-01,-1.04414e-01,
4.69628e-02,-6.34943e-02,-1.79278e-01,1.56249e-01,-1.35858e-01,2.25925e-01,-5.14055e-02,-1.05168e+00,1.31243e-02,2.87239e-01,2.34839e-01,-1.61707e-01,9.51464e-03,4.50148e-01,-2.39149e-01,-2.61279e-01,-3.22061e-01,-6.94543e-01,3.01526e-01,3.99028e-02,-2.95775e-01,-2.63243e-01,-3.86918e-01,-1.86161e-01,-8.53828e-02,
4.59509e-01,-1.66015e-01,8.24480e-02,1.21932e-01,-2.92533e-01,1.01041e-01,1.28116e+00,1.14588e+00,-7.39940e-02,1.77351e-01,1.14069e-01,2.06281e-01,-7.83632e-01,-4.29166e-01,-4.77045e-02,3.14208e-01,4.42610e-01,-1.58382e+00,4.04509e-02,-2.10088e-01,-6.31752e-01,6.00511e-02,1.38951e-01,1.28685e-01,1.57786e-01,
-4.17508e-01,-2.83220e-01,2.74464e-01,8.46350e-01,3.33839e-01,-2.71808e-01,3.13026e-01,3.16638e-01,8.14243e-02,4.86821e-02,-3.12666e-01,-7.59623e-01,-3.67702e-01,1.23324e-01,-1.22349e-01,3.03457e-01,1.86803e-01,5.07278e-01,-5.71921e-02,-6.88109e-01,4.76903e-01,3.12777e-01,-7.05822e-02,2.83839e-02,-1.96400e-01,
-5.75695e-02,-3.38140e-01,6.40714e-01,-8.19186e-02,-2.91181e-01,-3.08791e-01,-2.37426e-01,-1.16061e-01,1.44471e-01,2.16128e-01,-3.08411e-01,1.95406e-01,1.69654e-01,-4.50887e-01,3.36589e-01,-1.37816e-01,-2.01579e-01,7.07831e-01,9.59932e-02,1.68622e-01,-3.12452e-01,2.60526e-01,1.38402e-01,1.75633e-01,2.04653e-01,
3.37461e-01,4.05246e-03,3.00202e-01,2.50409e-02,-2.44937e-01,3.24161e-01,2.06992e-01,-1.14214e+00,2.25784e-01,2.34454e-01,5.90573e-02,-1.52306e-01,1.28695e-01,1.85512e-01,-2.64782e-01,2.40046e-02,3.06384e-01,-4.26041e-01,-5.81545e-02,1.36144e-01,-4.02576e-01,-1.67037e-01,4.00882e-01,2.17022e-01,-2.71622e-01,
-2.78575e-02,-2.52788e-02,7.83168e-04,1.37291e-01,-1.69550e-01,-2.88601e-01,-2.71967e-01,-1.26370e-01,3.69117e-02,1.41947e-01,2.37811e-01,-3.43128e-01,-1.64933e-01,2.99197e-01,1.32006e-01,-2.45726e-01,2.67935e-01,1.15116e-01,-1.80662e-02,-2.71125e-01,-2.98990e-01,-1.07198e-01,9.37335e-03,-8.85274e-02,-2.55489e-01,
-1.86496e-01,
-1.55909e-01,
-5.97717e-02,
2.25169e-01,
2.92388e-01,
1.50183e-01,
-1.56932e-01,
-2.71232e-01,
-3.24850e-01,
3.16176e-01,
-1.12943e-01,
3.70291e-01,
-1.17669e-04,
-1.29187e-01,
2.31732e-01,
1.94621e-01,
-3.46468e-01,
2.03059e-01,
2.17039e-01,
1.79776e-01,
2.17172e-01,
1.33206e-01,
1.53953e-01,
1.89251e-01,
-7.68381e-02,
2.85562e-02,-2.43491e-01,-3.34030e-01,3.21819e-01,-4.05470e-01,-3.69343e-01,-6.47948e-01,7.68173e-01,-2.09476e-01,-1.19314e-01,-4.35780e-01,-3.31642e-01,-2.51569e-02,-6.54437e-01,-2.72738e-01,-2.36858e-01,1.21961e-01,-2.27692e-01,1.38686e-01,2.29422e-01,4.15639e-01,-5.13777e-01,2.33304e-02,-4.62016e-02,-3.20113e-01,
6.40298e-03,1.66717e-01,2.31932e-01,2.19104e-01,-2.72401e+00,-3.98046e-01,-5.07351e-01,4.24637e-01,3.32254e-01,4.26667e-02,-2.35177e-01,-2.24261e+00,-8.17488e-01,2.23586e-01,2.09258e-01,-1.27410e-01,-2.18257e-01,3.54012e-01,-1.86461e-01,-1.03251e-01,-2.60520e-01,1.95979e-01,-5.37291e-01,3.09463e-01,-6.16199e-02,
7.33083e-02,-6.99708e-01,-8.19990e-01,8.43372e-02,-1.76600e-01,1.49074e-01,-3.24061e-01,-1.30481e-01,-3.37300e-02,2.01439e-01,2.23360e-01,-1.26813e-01,2.54551e-01,4.87041e-01,-7.78112e-01,1.29617e-01,-2.48456e-01,-3.96645e-03,-2.18036e-01,5.75286e-01,-5.68022e-01,1.47626e-01,9.26607e-02,-2.35122e-02,6.66378e-02,
-2.36858e-01,7.13698e-01,1.69871e-01,2.22467e-01,2.78038e-01,-8.12741e-02,2.00730e-01,2.85608e-01,-1.76915e-01,-4.97565e-02,4.06136e-01,-9.16766e-01,4.81967e-03,3.62015e-01,-2.94934e-01,6.92788e-02,1.61046e-01,4.71972e-01,3.35852e-01,2.12201e-01,3.09397e-01,2.87175e-02,3.23411e-01,-1.65660e-01,1.92520e-01,
-5.73296e-01,-7.75945e-02,-2.02177e-01,-2.88545e-01,4.59122e-01,-2.23141e-01,1.33599e+00,-5.34117e-01,1.89329e-02,1.19192e-01,-2.50217e-01,2.43544e-01,-1.77400e-01,-1.23449e+00,3.05125e-01,6.18634e-02,1.35371e-01,5.90052e-01,-2.80162e-01,-5.08962e-01,2.22284e-01,-4.16965e-01,-2.61752e-02,1.37503e-01,2.43233e-01,
8.28660e-02,2.61478e-01,2.49431e-02,3.43175e-01,2.34400e-01,2.65345e-01,1.01067e+00,1.30228e-01,-1.90220e-01,3.56736e-01,4.16133e-01,1.05452e-01,-1.05157e-02,8.15058e-01,-5.07665e-02,-2.59174e-01,-4.52070e-02,-2.26390e-01,1.72551e-01,1.11670e-02,1.18672e-01,-5.99493e-02,-2.95305e-01,8.82164e-02,-6.20926e-02,
5.57628e-02,-3.67748e-02,6.76617e-01,9.56271e-02,4.83602e-01,-1.16001e-01,3.05657e-01,-4.46109e-01,-2.02786e-01,-4.95397e-02,-1.75056e-01,-7.07075e-01,2.77206e-01,7.94836e-02,-1.23361e-01,1.96793e-01,-3.11127e-02,-6.04497e-02,2.57072e-02,-2.07890e-01,4.18547e-02,4.07851e-01,9.35257e-02,8.72018e-02,1.79037e-01,
4.95522e-02,3.47597e-01,4.09037e-01,-1.53133e-01,3.61845e-01,6.09776e-01,4.89924e-02,-6.03596e-02,-1.01019e-01,5.06112e-01,2.65474e-01,1.68742e-01,2.81534e-01,3.41795e-01,3.08468e-01,-8.39008e-02,6.93808e-03,6.22526e-02,-8.12291e-02,2.11619e-01,-8.90573e-02,-7.04184e-02,4.64202e-03,-2.76978e-01,1.64250e-01,
-6.04168e-02,-2.37751e-01,1.79348e-01,-1.98084e-02,1.22813e-01,-1.73700e-02,1.17539e-01,-1.68631e-01,-1.68636e-01,-1.53092e-01,6.57494e-02,-1.00302e-01,-1.95565e-01,8.47030e-02,-1.80657e-01,2.74523e-01,-3.16120e-01,-7.49455e-02,-3.45646e-01,-3.17976e-02,-6.81347e-03,-1.14388e-01,-3.76891e-02,-3.10644e-01,2.25819e-02,
-3.17233e-01,2.85102e-01,-1.20976e-01,3.06527e-01,-2.55510e-01,2.72732e-01,-3.46924e-01,5.54505e-01,-1.53207e-01,2.84942e-01,-2.36305e-01,-5.34977e-01,-3.25457e-01,-2.11387e-01,3.81561e-01,-2.92568e-01,-2.39856e-01,6.77111e-01,-1.79738e-01,-3.14189e-01,1.63343e-03,-2.65269e-02,-1.77510e-01,3.86846e-01,2.37327e-01,
-3.78288e-01,-7.73149e-01,-1.21255e-01,-4.15287e-03,-3.19270e-01,-1.57610e-02,-8.31734e-01,8.72081e-01,-1.83940e-01,-3.60050e-01,1.06214e-01,-1.78839e-01,-6.07202e-01,5.46964e-01,-6.19498e-01,-3.11798e-01,1.85494e-01,-5.49332e-01,8.33383e-03,7.26038e-02,4.67038e-01,-9.80424e-03,-1.75604e-01,2.56075e-01,2.24550e-01,
-5.07013e-02,-4.31721e-01,2.40030e-01,-5.07902e-02,-2.10320e-01,-3.00673e-02,-1.34698e-01,8.07653e-01,-2.58438e-01,2.54282e-02,-1.75750e-01,-3.05672e+00,-3.93819e-02,2.27811e-01,-5.20592e-01,-9.93523e-02,2.39949e-01,-1.22847e+00,6.24960e-02,2.75211e-01,-6.46937e-02,1.57317e-01,-9.88490e-02,4.88485e-01,-2.04548e-01,
2.23358e-01,6.15674e-01,3.18636e-01,4.14326e-02,2.46685e-01,2.28252e-01,-7.26600e-01,-3.39870e-02,-6.72402e-02,3.23896e-01,1.30558e-01,-3.59800e-01,4.15961e-01,4.07543e-01,9.40929e-02,-8.02476e-02,2.41066e-01,1.63685e-01,-2.99853e-01,3.18486e-01,-3.31194e-01,-1.28281e-01,-2.64996e-01,-3.83746e-01,-2.15920e-01,
-3.28446e-01,-2.72304e-01,1.38659e-02,6.33813e-02,-2.77389e-01,-2.59126e-01,3.42311e-01,-8.22442e-02,-1.84225e-01,-8.36123e-02,-1.90893e-01,-2.31113e-01,1.58027e-01,-1.92942e-01,-1.21067e-01,-3.84510e-02,1.02802e-01,5.83209e-02,-2.17888e-01,-3.05002e-01,-1.48540e-01,-2.41459e-01,1.01605e-02,-2.64373e-03,-3.08250e-01,
-1.05012e-01,1.03210e+00,9.14265e-01,2.88540e-01,-2.22595e-01,1.26664e-01,1.03687e-01,-5.92511e-01,-1.51439e-01,-1.36844e-01,3.10774e-01,-9.09117e-01,8.21419e-02,-1.32960e-01,3.43137e-01,1.91163e-01,1.66091e-01,2.38680e-01,2.21144e-01,-2.23350e-01,3.39875e-01,-6.36206e-01,-2.79504e-01,1.78539e-01,-2.24505e-01,
-1.09158e-01,-2.55374e-01,4.64159e-01,3.15334e-01,-1.24024e-01,1.09374e-01,8.21373e-01,-3.50408e-01,-2.59383e-01,1.24766e-01,-4.56218e-01,-1.06820e+00,3.99757e-01,-1.12782e-01,2.26167e-01,1.83067e-02,-8.63802e-02,-1.40025e-02,3.81868e-02,4.03956e-01,-3.96914e-01,9.37811e-01,1.77814e-01,-2.74759e-01,1.08939e-01,
1.61009e-01,-4.56913e-01,9.92708e-02,-8.13906e-02,2.88415e-01,-4.38852e-01,-1.69936e-01,4.21228e-01,3.34875e-02,1.90409e-01,-2.99288e-01,7.02905e-01,-1.99611e-01,3.06384e-01,2.54498e-01,3.18880e-01,-2.81686e-01,2.08928e-01,2.48690e-01,-4.11871e-01,-8.54468e-02,6.12544e-02,-9.91846e-03,-2.58437e-01,-2.86596e-01,
-8.02599e-02,2.57270e-02,-3.11244e-01,2.48289e-01,-8.19506e-01,-1.86617e-01,-1.32890e+00,-2.99399e-01,1.36812e-01,-1.92317e-01,7.08658e-02,2.72059e-01,-5.80549e-01,-9.24107e-01,1.64794e-01,9.41708e-02,3.09386e-02,-1.64931e-01,-2.45170e-01,4.41057e-02,2.10812e-01,-2.61339e-02,8.79610e-02,4.26065e-02,-3.32077e-01,
-5.19840e-02,4.21029e-01,3.79113e-01,2.03215e-02,6.47704e-02,-8.86079e-02,1.08574e+00,-4.22547e-01,3.02680e-01,1.89895e-01,3.30181e-01,4.06574e-01,9.76414e-02,2.78676e-01,-9.98153e-02,-2.99783e-01,-9.94371e-02,-4.03708e-02,2.94742e-01,-4.43430e-01,2.08996e-01,1.87457e-01,7.47209e-02,-1.67797e-01,2.73059e-01,
-4.37613e-01,4.04345e-01,-4.16770e-01,6.42203e-02,-8.61943e-04,3.46185e-01,-1.79880e-01,2.96085e-01,2.11011e-01,-3.21341e-01,-3.81872e-01,-8.02123e-01,-7.10185e-02,5.40405e-01,2.61723e-01,1.02320e-01,-1.89810e-01,2.22820e-01,9.35450e-02,1.98141e-01,-1.03112e-01,-3.86625e-02,1.08932e-01,-1.30357e-01,1.54414e-01,
3.63350e-02,8.41363e-01,3.75249e-03,-4.06386e-01,6.11130e-02,3.37453e-01,2.68826e-01,-2.61421e-01,4.26449e-03,3.74086e-01,8.81752e-01,4.33696e-01,3.62541e-01,2.13886e-02,4.58937e-01,1.59410e-01,1.72563e-01,4.08102e-01,8.99518e-03,1.76154e-01,-1.47973e-01,-3.74602e-01,-1.68076e-01,1.06040e-02,-6.88227e-02,
3.31011e-01,1.22664e-01,2.08886e-01,2.35472e-01,-1.58926e-01,-1.21360e-01,-1.79168e-01,2.58448e-01,-3.36794e-01,-2.37592e-01,2.05925e-01,-5.86676e+00,-2.65316e-01,-2.40073e-01,-3.75307e-01,1.24699e-01,-3.13956e-01,1.98096e-02,-2.73770e-01,3.63876e-01,-3.45593e-01,-3.33589e-01,-3.47787e-01,2.98313e-01,5.55530e-02,
1.94518e-01,-3.07003e-01,3.60403e-01,-2.62056e-01,7.99458e-02,2.00718e-01,9.94550e-02,-2.21273e-01,5.57342e-02,-2.49191e-01,6.64011e-01,-1.29894e-01,3.60298e-01,9.50164e-03,-8.09198e-01,1.16534e-01,-3.25617e-01,-7.52098e-01,-9.39404e-02,-1.50309e-01,2.41064e-01,4.22961e-01,-1.28943e-02,2.35715e-01,-3.07185e-01,
4.08528e-01,-3.70277e-02,1.65442e-01,1.20939e-01,-3.34324e-01,-1.39637e-01,3.40318e-01,-4.03701e-01,5.73253e-02,-9.04135e-02,5.59110e-02,2.19531e-01,-1.27201e-01,-7.42201e-01,4.87883e-01,-5.10622e-02,-2.83827e-01,4.56577e-01,2.52835e-01,-6.42374e-04,-2.65322e-01,6.98366e-01,2.99870e-01,3.60778e-01,4.37036e-02,
-4.09024e-01,1.10729e-01,2.00468e-01,-1.56450e-02,3.35217e-01,-2.08482e-01,-2.77779e-02,2.58918e-01,-2.17802e-01,1.04017e-01,4.52563e-01,7.89173e-01,-1.25445e-01,-3.25686e-01,5.02231e-01,-3.62519e-01,3.38535e-01,-2.95075e-01,-1.35619e-01,-1.37670e-01,1.13400e-01,1.10675e-01,2.65663e-02,-3.66905e-01,1.67650e-01,
3.57158e-02,
-4.24966e-02,
-1.32319e-02,
-2.96759e-01,
1.00176e-01,
2.48218e-01,
6.08094e-02,
-1.89149e-01,
-2.72583e-01,
-2.02392e-01,
3.94473e-03,
-2.10029e-01,
2.23128e-01,
5.61500e-02,
-8.24721e-02,
-9.25591e-02,
2.27515e-01,
2.59651e-03,
-2.39757e-01,
1.00868e-01,
2.55781e-01,
9.87416e-04,
-2.43832e-01,
-1.96857e-01,
2.53836e-01,
3.64993e-03,5.56178e-01,-5.05572e-01,1.28831e-01,6.25550e-01,3.10281e-01,-9.52112e-03,-4.03518e-01,-2.81007e-01,-4.99667e-01,3.98142e-01,2.14758e-01,9.07032e-01,6.75247e-02,1.51421e-01,-5.29396e-01,-4.60636e-01,-2.71304e-01,-4.30241e-01,-1.88326e-01,4.69559e-02,-4.10241e-01,2.08970e-01,5.46943e-01,7.51162e-03,
1.33934e-01,4.31772e-01,-7.63173e-01,1.93262e-01,4.72429e-01,-5.96680e-02,1.41293e-01,5.59351e-01,-3.07205e-01,-3.54220e-01,-1.48683e-01,1.37997e-01,5.39587e-01,-3.23678e-01,3.73153e-01,4.02631e-01,2.91110e-01,1.01926e-01,-6.54057e-01,3.75163e-01,7.03433e-02,9.43034e-03,-2.58625e-01,7.75296e-02,2.36993e-01,
-3.53057e-01,-1.43010e+00,-6.19714e-02,-3.16689e-01,-4.02318e-01,2.08933e-01,-1.29976e-01,-3.53999e-01,2.75415e-01,3.97981e-01,-5.88039e-01,-2.90995e-01,-1.18483e-01,-7.48312e-02,-3.09490e-01,4.39530e-01,1.97038e-02,3.40880e-01,-9.42654e-02,-4.00093e-02,2.79579e-01,-2.09703e-01,3.87477e-02,-7.35585e-01,4.15092e-01,
-5.95971e-01,2.68572e-01,3.01229e-01,-1.71586e-01,-8.96812e-01,-2.31650e-01,-5.00417e-01,-3.08485e-01,2.51368e-01,-1.12682e-01,5.48209e-01,-3.96498e-01,5.43165e-01,-1.06114e-01,3.77231e-02,1.20577e-01,-1.35521e-01,-1.86882e-01,7.35680e-01,-5.41582e-01,7.65115e-02,-1.18745e+00,-1.15559e-01,-2.26459e-01,3.91259e-01,
-1.52180e-01,-1.24256e-01,-6.74905e-01,3.77041e-01,1.03006e+00,1.96008e-01,1.32815e-01,3.63551e-01,3.26113e-01,-1.30060e-01,8.35255e-01,3.16802e-01,5.70180e-01,-1.00295e-01,-2.71175e-01,2.81365e-01,5.96168e-03,2.80310e-03,-7.28289e-01,-3.83701e-02,6.22729e-02,-3.57496e-01,1.59281e-01,2.02586e-01,-3.25660e-01,
-6.25078e-01,-3.01615e-02,-4.06600e-02,-1.77772e-01,-1.96146e-01,2.03411e-01,-2.13828e-01,-1.32048e-01,2.56172e-01,-1.72428e+00,1.04479e-01,-1.43615e-01,9.00125e-01,-6.00252e-02,5.01364e-02,-4.35073e-01,-2.47151e-02,8.98620e-01,-5.91972e-01,-9.05324e-02,4.70561e-01,6.70791e-01,-1.50598e-01,-1.41534e-01,8.92552e-02,
-2.82614e-01,2.40792e-01,3.42320e-01,-5.35556e-02,-3.43462e-01,-2.46483e-01,-3.07029e-03,-3.26394e-01,2.83922e-01,-3.95346e-03,2.98038e-02,9.61890e-02,1.50734e-01,-2.79633e-01,-1.95354e-01,1.43131e-01,-8.75831e-02,-4.32766e-02,-3.07552e-01,-2.98862e-01,-8.08210e-02,2.05247e-01,1.30743e-01,2.54894e-02,-1.21965e-01,
-8.92886e-02,3.65017e-01,-2.93433e-01,1.43826e-01,9.52944e-02,3.34852e-01,3.71649e-01,-1.38400e-01,8.50439e-04,-2.29357e-01,1.70361e-02,8.94177e-02,9.94429e-03,-2.08410e-01,7.00184e-02,-9.08571e-03,1.09690e-01,5.26755e-02,-6.50498e-01,-2.40654e-01,-2.52693e-01,-4.87498e-01,7.74147e-02,3.29988e-01,-2.17143e-01,
8.33827e-03,-6.40827e-02,-3.20421e-02,-3.03484e-01,1.41955e-01,-3.04651e-01,-9.46555e-03,-1.58156e-01,2.81008e-01,4.28128e-02,-3.92793e-02,1.33341e-01,2.23437e-01,2.43680e-01,2.94731e-02,-1.94403e-01,-7.19587e-02,-2.05675e-01,2.82680e-01,-1.72027e-01,-2.45230e-01,-1.01385e-01,-1.16469e-01,-9.71481e-02,3.23016e-02,
1.55690e-01,-6.65366e-01,-4.57672e-01,-2.24848e-02,-1.79834e-02,3.28262e-01,-1.74774e-01,3.10234e-01,-2.58646e-01,2.29719e-01,-1.24739e-01,-1.65379e+00,-3.32865e-01,2.10862e-01,-2.87131e-01,3.18525e-01,-3.21759e-01,1.70008e-01,1.06008e-01,-1.11567e-01,-1.25433e-01,3.32753e-01,1.54936e-01,-1.72155e-01,1.54768e-01,
2.99226e-01,1.18950e-02,-5.73787e-02,1.45124e-01,-7.80589e-02,-3.31529e-01,-1.71524e-01,4.62966e-02,-3.00086e-01,6.17774e-01,-2.90718e-01,-1.30502e-01,1.30498e-01,-1.81123e-02,3.06533e-01,1.17809e-01,1.86378e-01,1.29337e-01,-1.68946e-01,4.06865e-01,1.74446e-01,2.43360e-01,-1.19793e-01,2.68670e-01,1.60806e-01,
4.70381e-02,-3.56677e-01,7.32109e-01,-2.99177e-01,-2.57012e-01,1.54998e-01,3.09539e-01,-7.25295e-02,2.07628e-01,-3.69451e-03,-3.06717e-01,-2.67263e-01,-1.47755e-01,-3.14519e-01,1.81784e-01,-5.70411e-02,1.38477e-01,3.78833e-01,-2.26402e-01,1.45770e-01,-1.93373e-01,-5.13356e-01,-6.93831e-02,3.92516e-01,-1.59660e-01,
5.04134e-01,-6.97931e-01,-9.49284e-01,-3.95819e-01,-1.33748e-01,-2.16630e-02,8.78016e-02,2.31508e-01,-2.18065e-01,4.57294e-01,-2.40761e-01,-2.79233e-01,-2.78905e-01,-1.30464e-01,-1.93351e-01,-8.45545e-01,-1.45543e-01,1.60138e-01,6.88323e-01,1.95294e-01,-6.39283e-02,1.96335e-01,1.40122e-01,1.11038e-01,1.40149e-01,
-3.54498e-01,-9.79493e-01,2.89468e-01,-1.34959e-01,-2.03399e-02,1.76617e-02,1.06986e-01,-2.91918e-01,3.07183e-01,2.80196e-01,-9.96642e-01,-2.01679e-01,2.63806e-01,-2.57498e-01,2.35995e-01,2.02247e-01,4.24883e-01,3.21129e-01,-3.79795e-01,-4.29244e-01,-3.88176e-02,-5.47341e-02,1.84364e-02,3.69695e-01,4.29771e-03,
-3.08004e-01,1.21907e+00,4.58280e-01,2.39703e-01,-5.71713e-02,-2.14858e-01,4.14282e-01,-1.35705e-01,5.35836e-02,-2.43780e-01,2.33753e-01,5.52689e-01,4.30464e-02,-2.06168e-02,2.43876e-01,-5.76182e-01,-1.05580e-01,-1.29435e-01,2.46280e-01,-1.30293e-02,1.55055e-01,-1.56988e-01,-1.37619e-01,1.04886e-01,1.63976e-01,
1.90169e-01,9.99731e-02,-2.82089e-01,1.86100e-02,-1.63032e-01,-3.36800e-01,1.29057e-02,2.25000e-01,-7.12758e-02,-1.94003e-01,-2.42763e-01,1.84248e-01,-1.28733e-01,-2.59941e-01,1.62752e-01,2.33103e-01,-1.23128e-01,7.72507e-02,-5.64068e-02,1.85100e-01,-3.38111e-01,2.16805e-01,-2.77065e-01,1.05358e-02,1.01560e-01,
-5.60397e-02,9.65056e-02,-9.00377e-01,1.14248e-01,8.00148e-01,1.08231e-01,1.31856e-01,5.84523e-01,-2.85445e-01,-1.11427e-01,3.08954e-01,7.10813e-01,-3.12259e-01,-2.52221e-01,-8.58022e-03,2.67168e-01,-3.91240e-01,-2.05005e-01,-3.37785e-02,-3.75708e-01,4.04848e-01,3.38295e-01,2.62659e-03,-2.51860e-01,1.66093e-01,
3.11488e-01,1.43933e-01,-3.90997e-01,5.67129e-02,-1.32924e-01,-8.46607e-02,8.76685e-02,4.15182e-01,2.33927e-01,-7.17261e-03,-5.35859e-01,-5.14781e-01,2.61443e-02,-8.74365e-02,-1.95214e-02,5.95110e-01,-3.70570e-02,-6.29242e-01,-4.95244e-02,4.11939e-02,8.64921e-02,1.29239e+00,-2.30675e-01,-4.64741e-01,2.44514e-01,
-2.09705e-01,5.39964e-01,4.79021e-01,1.14633e-01,-4.60308e-01,1.57998e-01,3.25480e-01,-2.65928e-02,5.47748e-02,-2.26712e-01,9.92079e-02,-2.75162e-02,-1.32680e-01,6.02627e-02,2.27119e-02,-2.22826e-01,-1.54636e-02,1.14215e-01,-4.41894e-01,-8.53771e-02,3.62847e-01,-1.86551e-01,-4.13764e-01,-2.16948e-01,3.77362e-01,
3.07783e-01,-2.87072e-01,2.43556e-01,-2.80625e-01,3.18590e-01,2.99043e-01,-4.05771e-02,-6.85467e-01,2.69182e-02,2.17028e-01,-2.05250e-01,-5.39836e-01,2.25883e-01,1.39934e-01,-3.57511e-01,-3.70820e-01,2.30283e-01,6.89152e-02,3.79122e-01,3.10226e-01,-2.17220e-01,-1.81454e-01,3.82300e-01,-5.29995e-01,-1.13910e-01,
2.18362e-01,7.71351e-01,-8.17587e-01,1.16831e-01,8.03590e-01,8.12565e-02,2.94935e-02,1.28719e+00,2.69810e-01,3.10757e-01,6.54601e-01,-6.77607e-02,-6.22625e-02,3.40855e-01,3.42544e-02,2.44304e-01,1.13554e-01,-1.61342e-02,2.40635e-02,-2.25580e-01,-5.81447e-01,3.77423e-01,-2.52494e-01,-3.62008e-01,5.95219e-03,
-3.18591e-01,7.58038e-01,3.11141e-01,4.91773e-02,3.46063e-02,-2.22905e-01,1.54149e-01,-3.80882e-02,1.32251e-02,-3.02087e-01,7.11692e-01,-5.72505e+00,4.17767e-01,-3.08612e-01,3.33495e-01,-1.57202e-01,2.08064e-01,9.37520e-02,-1.07786e+00,1.33577e-01,6.21031e-02,-1.44884e+00,5.41016e-02,2.74380e-01,5.41330e-01,
-1.94055e-01,1.52351e+00,-6.48964e+00,2.67115e-01,7.78596e-01,-1.82136e-01,2.35608e-01,-1.58295e+00,2.43086e-01,-5.31133e-01,1.23892e-01,-2.43771e-01,2.88620e-01,1.07420e-01,3.84533e-01,3.66544e-01,-1.41121e-01,-3.86155e-01,-1.34677e-02,2.61766e-01,-2.06508e-01,6.75014e-01,-1.27643e-02,-1.21365e-01,-2.71320e-02,
2.80947e-01,8.97671e-01,-3.07829e-01,1.14119e-01,8.62249e-01,-8.87538e-02,-1.19018e-01,1.40664e-01,1.00512e-01,-1.15651e-01,3.87058e-01,5.00800e-01,5.23370e-02,8.34622e-02,2.61555e-02,2.18933e-01,4.51128e-02,4.45340e-02,3.62707e-01,3.10164e-01,-3.44971e-01,1.49124e-01,-2.18280e-01,8.30586e-02,-3.76979e-01,
6.50285e-02,-1.03378e-01,2.29019e-01,-1.22943e-01,2.08140e-02,-1.41625e-01,6.82585e-02,4.34631e-01,-3.47504e-02,8.71443e-02,1.08916e-01,-3.80489e-01,3.07570e-02,9.17305e-02,-1.13327e-02,1.63498e-01,2.06282e-01,-1.05197e-01,3.82015e-02,-5.98487e-02,2.79567e-01,-1.61619e-01,-1.82354e-01,-5.96702e-01,1.99856e-01,
-1.75936e-01,
-2.09417e-01,
-1.94503e-03,
2.83844e-01,
-1.18647e-01,
-1.35498e-01,
1.43241e-01,
3.09038e-01,
-3.45086e-01,
2.67941e-01,
7.91887e-02,
-1.54540e-02,
1.82399e-01,
-8.32332e-02,
8.81125e-02,
-2.36832e-01,
-4.09624e-02,
7.93227e-02,
-5.46416e-02,
2.09631e-01,
5.43689e-02,
-2.75764e-01,
-1.99801e-01,
-2.47648e-02,
3.15707e-01,
-3.36683e-01,1.21068e-01,3.20536e-01,-1.42410e-01,1.63264e-01,1.08190e-01,-2.22829e-01,-2.43933e-01,2.97362e-01,-2.96828e-02,-8.75546e-02,2.09284e-01,1.37364e-01,2.11639e-01,-2.68283e-01,6.92017e-02,-2.86148e-01,-8.87430e-02,-3.22171e-01,-6.63641e-03,-1.00370e-01,-2.89526e-01,-8.53193e-03,-3.04176e-01,-1.19592e-01,
4.37811e-03,2.43712e-01,-2.59270e-01,4.82369e-03,1.32196e-01,2.00727e-01,3.40982e-01,-3.56996e-01,1.27606e-01,-6.85598e-02,-2.79290e-01,-2.77639e-01,-3.20570e-01,1.34546e-01,-2.60337e-01,-1.10010e-01,-2.54300e-01,-2.41755e-01,-3.64719e-01,2.21254e-01,-1.80331e-01,-2.70562e-01,1.01756e-02,1.26541e-01,-9.62505e-03,
2.27226e-01,6.35862e-02,2.04950e-02,2.28318e-01,1.03772e-01,1.33381e-01,1.43834e-01,1.56433e-01,-2.42877e-01,1.06661e-02,2.78566e-01,6.48266e-02,-3.64763e-01,-1.38285e-01,1.79861e-01,5.89723e-02,8.01255e-02,1.99523e-01,1.18404e-01,5.41918e-02,3.68099e-01,2.96213e-01,-1.07421e-01,1.16275e-01,-4.99486e-02,
-1.71202e-01,7.03131e-02,5.38639e-01,-7.09109e-01,-8.91127e-02,4.35876e-01,2.35897e-01,2.53392e-01,-7.08941e-03,1.90204e-01,-3.52014e-02,6.19766e-02,-3.71214e-01,1.53379e-01,8.86739e-02,1.23456e-01,-1.76171e-01,-2.54672e-01,-4.34508e-01,2.70923e-01,2.44060e-01,4.50571e-02,1.74152e-01,-2.98200e-01,-3.89836e-01,
-2.67483e-01,9.42330e-02,1.27494e-01,-5.19817e-02,5.42598e-02,-1.21215e-01,-1.79523e-01,-7.06676e-02,2.84738e-01,5.86083e-01,-1.92069e-01,1.26793e-01,2.92338e-01,-7.06457e-01,2.60248e-01,9.31080e-02,-1.07490e-02,8.68299e-02,-1.34227e-01,-4.66418e-01,3.23249e-01,4.69871e-01,-7.40722e-02,-1.48304e-01,9.05898e-02,
6.36262e-01,4.50611e-01,-3.29086e-01,4.01211e-01,4.19107e-01,1.80046e-01,2.50815e-01,3.45566e-01,-1.09419e-01,2.23623e-01,1.77760e-01,-5.87114e-02,-3.23992e-01,8.56912e-02,2.98683e-01,1.36168e-01,9.12860e-02,1.26844e-01,1.38389e-01,-1.24507e-01,-1.94195e-02,2.27877e-01,-3.94438e-01,1.34453e-01,8.45656e-02,
-8.50030e-01,-3.51100e-01,8.20559e-01,9.22260e-01,-6.01009e-01,-1.31642e+00,3.15292e-01,1.58705e-01,-3.05402e-01,-2.57722e-01,-7.93959e-01,-1.96761e-01,5.00676e-01,2.52950e-01,-4.92702e-01,-2.73794e-01,-8.75385e-02,-1.74050e-01,2.98178e-02,3.49041e-01,6.87040e-01,-6.18955e-01,2.70942e-01,-1.00413e+00,-7.90175e-02,
-4.17124e-01,2.98574e-01,1.78748e-02,-7.12324e-03,-1.25046e-01,1.23413e-01,8.18812e-02,-1.75673e-01,3.41234e-02,1.87598e-02,8.77983e-02,1.42361e-01,-1.84487e-01,8.65781e-04,-3.55515e-01,-2.43193e-01,-3.55167e-01,-1.69078e-02,-4.01124e-01,7.84866e-02,-1.63628e-02,-8.46242e-02,-1.08445e+00,-2.49836e-01,3.17640e-01,
2.96166e-01,2.22875e-01,-4.49856e-01,7.11751e-01,2.05432e-02,4.06542e-02,1.92785e-01,-1.42659e-02,2.20949e-01,1.94687e-01,2.00840e-01,9.89813e-02,-6.47482e-01,4.78698e-02,-1.36903e-01,-2.30615e-01,3.63078e-01,-2.97976e-02,-5.83114e-02,-3.51727e-01,3.06729e-01,2.87007e-02,-2.26173e-02,-1.64190e-01,1.40474e-02,
1.05509e+00,4.78325e-01,-1.15890e-01,1.69793e-01,4.99928e-01,4.52402e-02,2.39484e-01,5.01484e-03,1.37117e-02,-5.98538e-02,2.38927e-02,-2.42733e-01,2.48817e-01,-5.58473e-02,2.73784e-01,2.96315e-01,6.51950e-02,2.97389e-01,-1.30904e-01,-2.98936e-01,1.11559e-01,2.14787e-01,-4.47137e-01,2.17841e-02,1.07494e-01,
-2.89571e-01,-2.35198e-01,-3.47920e-01,1.76523e+00,-3.03158e-01,-5.38757e+00,-2.98744e-02,-1.59987e-01,4.03335e-02,-9.53941e-02,-2.42881e-02,5.22150e-02,-1.92389e-01,-4.26660e-01,6.65815e-02,-1.17360e-01,-1.79584e-01,4.74193e-03,-2.91383e-01,5.04761e-01,1.28619e-01,5.61198e-01,1.73808e-01,-2.14378e-01,5.67862e-02,
-3.30989e-01,-2.79142e-01,2.40520e-01,-1.50780e-01,-3.38394e-01,2.83447e-02,3.26884e-01,-1.28887e-02,-2.12893e-01,-3.78171e-02,1.54454e-01,-3.13675e-01,-2.00801e-01,-3.69995e-02,-1.48884e-01,-2.96258e-01,1.59416e-01,-4.41203e-01,-9.21640e-02,-1.65861e-01,4.77718e-02,-2.46996e-01,1.79366e-01,-2.92574e-01,-3.79677e-01,
-5.64925e-01,-1.72062e-01,-1.04368e+00,8.01481e-02,-3.09861e-01,4.82704e-02,2.02181e-01,1.85170e-01,-2.77914e-01,3.47011e-01,1.35672e-01,-1.96452e-02,-3.60428e-01,2.43794e-01,-1.84784e-01,-6.72367e-02,2.65666e-01,9.82075e-02,-7.61938e-02,-7.28081e-02,-3.40587e-01,8.96380e-02,1.79483e-03,3.31415e-01,3.43317e-01,
6.14634e-01,1.55980e-02,-2.80996e-01,8.51498e-01,2.37231e-01,-1.31360e-01,2.24858e-01,-1.27238e-02,-7.31722e-02,1.01497e-02,8.00126e-02,-6.95869e-02,3.81630e-01,-1.70015e-01,-3.54349e-01,2.70384e-01,1.07677e-01,7.55843e-02,-1.34978e-01,-4.21940e-01,2.92665e-01,1.34988e-01,2.25803e-01,-3.25523e-01,-3.67769e-02,
-1.04203e+00,-5.27824e-01,9.19926e-01,-3.46389e-01,-1.54326e+00,1.53247e-01,1.62836e-01,-7.94421e-02,2.99084e-02,3.94243e-01,-9.64608e-02,-2.18828e-01,9.17704e-02,-9.80305e-01,-2.70278e-01,-3.43949e-01,-3.81121e-02,4.17369e-03,1.63143e-01,2.78175e-01,-4.70247e-01,-1.44177e-01,2.14262e-01,-7.07117e-01,8.68800e-02,
-3.61735e-01,-2.46301e-01,-8.39215e-02,-1.63419e-02,-1.90424e-01,5.05521e-03,-2.62265e-01,2.82562e-01,-1.08723e-01,1.39323e-01,2.05073e-02,1.24888e-01,1.30425e-01,-6.10390e-02,-6.88909e-02,1.45451e-01,1.75829e-01,1.11225e-01,2.83432e-01,4.40430e-01,9.29950e-02,-2.76720e-02,2.72607e-01,1.24510e-01,-3.01788e-02,
-8.98824e-02,1.07601e-02,-1.93432e-01,-9.75809e-01,-3.55969e-01,7.52507e-02,2.61189e-01,5.84735e-02,-1.80659e-01,-5.71953e-02,-1.55176e-01,6.35801e-02,2.46655e-01,4.04960e-01,2.88849e-01,5.19385e-02,5.22027e-01,3.12671e-01,1.96347e-01,-8.27488e-02,-6.80204e-02,-1.95584e-01,-4.80218e-01,5.27346e-01,1.28014e-01,
-1.24550e+00,-4.29168e-01,9.83985e-01,-2.39386e+00,-3.54853e-01,2.12475e-01,-2.51890e-01,1.01183e-01,-3.17264e-01,-1.88045e-01,-4.62656e-01,2.13057e-01,3.58602e-01,9.27100e-02,2.64299e-01,3.17338e-02,-5.88698e-02,-4.39086e-01,3.29218e-01,-6.98112e-02,-5.49082e-01,-1.20080e+00,7.65483e-01,-1.36767e+00,-3.03935e-02,
-2.66669e-01,-1.30796e-01,-3.12805e-02,4.05886e-02,-2.01544e-01,-1.76473e-01,2.62161e-02,1.13151e-01,-1.10162e-01,1.90565e-01,1.16034e-02,-6.57715e-02,2.20717e-01,-1.44038e-01,-1.51525e-01,2.99078e-01,2.90490e-01,1.47627e-01,9.91419e-02,-4.67863e-02,1.38264e-01,2.49627e-01,1.15815e-01,-2.15171e-01,-7.84588e-03,
-3.84605e-01,-9.01843e-02,-1.97620e-01,-1.57574e-01,-2.71216e-01,-7.09195e-02,9.46543e-02,2.51132e-01,-3.38358e-01,2.77271e-01,-7.03411e-03,8.21765e-03,-2.84346e-01,1.00711e-01,6.00628e-04,-2.67476e-01,2.89352e-01,1.00846e-01,2.16658e-01,-3.08355e-02,-1.86655e-01,1.62677e-01,4.17790e-02,1.24037e-01,2.35269e-01,
5.13932e-01,3.08401e-01,-1.70907e-01,2.54445e-01,-2.11640e-02,-1.44140e-01,-1.90629e-01,-3.83355e-01,-3.40768e-01,1.24672e-01,-1.98449e-01,-2.77156e-03,7.29648e-02,-6.24914e-02,-5.22440e-02,1.10943e-01,5.38262e-01,2.89386e-01,-1.16178e-01,-5.49051e-02,4.66673e-01,-6.08382e-02,1.30604e-02,-3.26454e-01,-1.43573e-01,
6.71105e-03,1.20764e-01,3.99390e-01,-6.13504e+00,-4.86377e-01,-8.86162e-01,3.29011e-01,3.27702e-01,2.79529e-01,1.76362e-01,-8.73024e-03,5.09247e-02,-5.57490e-02,7.69163e-01,-2.10320e-01,-3.35141e-01,-3.19466e-01,-7.90586e-01,7.47355e-02,2.68911e-01,-2.19855e-01,-1.10266e+00,4.32078e-01,3.99017e-01,-9.71697e-02,
2.32695e-01,1.82718e-01,-2.52687e-01,1.72870e-01,9.84950e-02,-2.91800e-01,-1.98407e-02,2.94369e-02,2.03284e-01,1.57728e-01,-2.75015e-01,1.56803e-01,-2.55153e-01,5.02942e-02,2.25126e-02,3.07035e-01,-2.39498e-01,-2.35033e-01,2.16214e-03,6.78849e-02,-2.11647e-01,2.48201e-01,1.63785e-01,-1.07985e-01,-1.80369e-01,
5.19983e-01,6.23974e-02,-2.46339e-01,3.55515e-01,2.07211e-01,6.59432e-02,-2.54472e-01,2.41925e-01,1.77184e-01,-2.33323e-01,3.22350e-01,-9.44680e-02,1.12165e-01,-4.43882e-02,-2.47878e-01,-7.50208e-02,-6.31889e-02,-5.35161e-02,8.80389e-03,-4.10399e-01,5.46719e-02,1.80659e-01,-3.16992e-02,1.09045e-01,1.89977e-01,
4.20509e-01,-1.04184e-01,-8.71661e-01,1.96707e-01,3.68432e-01,-3.81056e-01,3.11669e-01,-1.45681e-01,-1.94117e-01,2.28249e-01,1.81658e-01,1.91176e-01,3.43148e-01,-7.79897e-02,-4.73312e-01,3.37829e-01,-1.27278e-01,-3.44664e-01,-4.33425e-02,-1.87250e-01,-1.08552e-01,-1.18238e-02,-1.75036e-01,9.63328e-02,-5.05181e-01,
-2.97620e-01,
1.58465e-01,
-4.93685e-02,
-1.45464e-02,
-1.82631e-01,
-2.57967e-01,
2.53696e-01,
-9.62559e-02,
-1.85573e-01,
-3.60035e-01,
2.53673e-01,
1.55893e-01,
3.22254e-03,
8.87819e-02,
1.14977e-01,
1.50250e-01,
-1.46676e-01,
2.50959e-01,
1.28148e-01,
4.09082e-01,
2.01706e-01,
-1.84493e-01,
-1.04133e-01,
5.28431e-02,
-6.11140e-03,
4.13703e-01,-3.00340e-01,1.27715e-01,-5.04725e-01,-4.13165e-04,1.66933e-01,-7.47222e-01,-3.00114e-02,-1.98369e-01,-3.49837e-01,3.17665e-02,-2.20697e-01,-2.40185e-02,6.42299e-02,-7.08941e-01,-2.22057e-01,1.07095e-02,-4.82718e-01,-1.18093e-01,7.73031e-02,2.43792e-01,-2.96877e-03,-1.69705e-01,1.24145e-01,-3.65460e-01,
9.81913e-02,3.97949e-02,-2.03346e-01,-3.60267e-03,6.15184e-02,3.56066e-01,-6.61639e-01,-1.62995e-02,-1.65709e-01,-3.49050e-01,-2.06095e-01,1.69606e-01,-1.05806e-01,-2.45308e-01,-6.38391e-01,7.12991e-03,1.16051e-02,-5.74167e-01,1.56817e-01,-1.53711e-01,2.60118e-01,-1.33844e-01,-3.33465e-01,3.59629e-01,-7.04158e-01,
2.29752e-01,3.11824e-01,1.64083e-01,-8.79246e-02,-3.26906e-02,3.67542e-01,-6.65084e-01,8.62938e-02,-2.44952e-01,-4.10448e-01,7.77195e-02,7.02565e-02,3.28394e-02,-5.96707e-02,-6.18690e-01,-4.12675e-01,-1.80660e-02,-6.15319e-01,2.78393e-01,-3.90888e-01,2.27162e-01,5.68075e-02,3.98779e-01,-2.04675e-01,2.65202e-02,
1.06110e-01,1.46302e-01,-1.71205e-01,-6.77547e-02,1.61075e-01,2.98335e-01,-1.18651e+00,8.07953e-02,1.06306e-01,-3.53600e-01,-5.47483e-01,-3.59476e-01,-1.78336e-01,-1.68155e-01,-7.40591e-01,-2.51979e-01,1.26307e-01,8.62415e-02,1.21391e-01,-3.57259e-01,7.24064e-02,3.28856e-01,2.17887e-01,7.99643e-03,-1.75948e+00,
-2.46328e-01,6.55806e-01,-3.54363e-01,1.44607e-01,1.87904e-01,4.06996e-02,-6.41562e-02,-1.52841e-01,2.25133e-01,-1.73527e-01,4.16749e-01,2.10445e-01,-5.60161e-01,-6.88666e-01,-9.10891e-01,-2.79195e-01,-1.64359e-01,-9.57098e-01,2.53554e-01,-6.12292e-01,3.73884e-01,-1.40800e-01,-2.25059e-02,2.80433e-01,1.02012e+00,
-1.11651e-01,
-1.16107e-01,
2.04435e-01,
2.59705e-01,
5.26615e-01,
