// Neural Network File Format by Kyle Julian, Stanford 2016
6,3,5,25,
3,25,25,25,25,25,5,
0,
-56000.000000,-56000.000000,-3.141593
56000.000000,56000.000000,3.141593
-278.628049,0.000000,0.000000,-0.242819
112000.000000,112000.000000,6.283185,17.479225
-5.68832e-01,-5.93657e-01,5.47056e-01,
-1.05570e+00,1.34942e+00,7.68787e-01,
-7.70329e-01,1.97958e+00,2.18890e-01,
-3.43562e-01,3.44975e-01,3.41337e-02,
6.28926e-01,-3.65087e-01,2.37799e-01,
-1.42802e-01,-4.61142e-01,-7.72566e-02,
-5.33632e-01,2.50689e-01,-3.08157e-01,
-2.38618e-03,1.79134e+00,1.30178e-02,
-7.70668e-01,6.56994e-01,-4.09530e-01,
1.11591e-01,7.88502e-02,3.48555e-01,
1.42593e+00,4.23873e-01,-1.44178e-01,
-4.61327e-01,3.93659e-03,2.15334e-01,
-6.34120e-02,-5.04443e-01,-2.71911e-01,
-5.49363e-01,-8.41117e-01,-4.78717e-02,
-3.18871e-01,-4.82631e-02,6.53711e-01,
-1.11652e-01,-5.18065e-01,-5.46997e-01,
-4.00045e-01,-7.43756e-01,3.82581e-01,
5.20921e-01,6.53551e-01,2.79917e-01,
-1.36358e-01,1.74449e-01,1.38075e-01,
-1.77475e-01,1.79670e+00,6.73327e-01,
3.89673e-01,1.02220e+00,-2.90525e-01,
-3.83830e-02,-9.32721e-02,5.37685e-02,
1.75769e+00,1.75661e-01,2.16783e-01,
-3.65355e-01,3.18380e-01,2.38534e-01,
-3.07580e-01,7.07448e-02,1.57130e-03,
9.26948e-02,
9.35897e-02,
1.89827e-01,
7.68825e-02,
-1.99982e-01,
1.00792e-01,
1.73855e-01,
-2.10384e-03,
2.11428e-01,
-2.42916e-01,
1.94048e-01,
2.67746e-01,
1.55005e-01,
1.27212e-01,
-4.38127e-02,
-5.34281e-02,
1.98655e-01,
1.59286e-01,
1.74474e-01,
-4.64194e-02,
1.12745e-01,
-2.90435e-01,
6.17131e-03,
1.61868e-01,
-2.48981e-01,
3.44950e-01,-1.14068e-01,2.05450e-01,2.01400e-01,1.12801e-01,3.90231e-02,1.18241e-01,-3.78214e-01,2.31972e-02,-1.89724e-01,-1.03356e-01,-3.42016e-01,-1.78418e-01,-2.51300e-01,2.84298e-01,8.12491e-02,-3.05551e-01,-1.71649e-01,8.84814e-03,-5.37202e-01,-2.72715e-01,-7.48529e-02,6.29056e-02,2.01562e-01,-3.58629e-02,
-4.13823e-01,1.65661e-01,3.87097e-01,-1.11248e-02,-5.07034e-01,2.90025e-01,-1.01632e-02,4.14673e-01,-1.14712e-01,5.19749e-02,2.04957e-02,-6.67189e-02,-7.59116e-02,2.29758e-01,3.01421e-02,2.41755e-01,-3.05261e-01,1.50894e-01,2.68677e-01,7.04627e-02,2.35709e-02,-1.82585e-01,-6.57081e-02,1.32245e-01,-1.16820e-01,
-2.99638e-01,-1.39626e-01,-1.98515e-01,2.43849e-01,2.53297e-01,1.01051e-01,-2.02970e-01,-6.72624e-02,1.21939e-01,-8.32225e-02,-3.27630e-01,7.30374e-02,-1.27103e-01,-3.07677e-01,-4.24821e-02,-7.57785e-02,4.38329e-02,3.41254e-01,-3.42604e-01,2.66583e-01,-8.92297e-02,-1.30722e-01,1.38488e-01,-3.33733e-01,4.91057e-02,
1.69162e-01,4.58463e-01,7.36915e-02,2.20421e-01,4.83172e-01,-2.21794e-01,-3.02719e-01,1.66364e-01,1.46584e-01,1.77987e-02,-2.30021e-01,8.08889e-02,7.01926e-02,6.03054e-03,-2.43385e-01,-2.17665e-01,-1.58200e-01,2.79140e-01,1.46576e-01,-4.96025e-01,-4.96601e-02,-1.23592e-01,-2.28823e-01,-1.30915e-01,-4.67907e-02,
-1.67717e-01,2.79618e-01,2.66797e-02,6.18779e-02,-1.89881e-01,2.96073e-01,2.66219e-01,-1.71784e-01,-1.46858e-01,6.61756e-02,-1.93227e-01,2.12786e-01,-7.01447e-02,-2.28526e-01,3.11299e-01,-4.30541e-02,-1.31122e-01,-9.18589e-02,3.30145e-01,-1.73037e-01,3.25082e-01,2.28731e-01,3.19326e-01,-3.54185e-01,-2.33429e-01,
-5.50782e-02,-4.67412e-01,2.27497e-01,2.85979e-01,1.22538e-01,-9.85871e-02,3.31695e-01,-7.29926e-02,8.74271e-02,1.74876e-01,-4.35512e-01,3.51023e-01,-1.33219e-01,6.44056e-02,9.82633e-02,4.00866e-01,-1.01157e-01,-6.86203e-02,1.45636e-01,8.41470e-01,-3.46800e-01,-8.41623e-02,-1.96798e+00,2.53845e-01,-3.44688e-01,
4.69820e-02,2.97032e-01,8.50872e-02,2.14208e-01,1.33619e+00,-2.52387e-01,2.57283e-01,-5.49180e-01,7.60905e-02,-2.63679e-01,1.00836e-01,-3.03707e-01,1.37294e-01,-5.20459e-02,1.69047e-01,1.64511e-01,1.69807e-01,1.92271e-01,2.63125e-01,1.21495e-01,-4.39179e-02,-3.44065e-01,-3.77838e-01,-2.67707e-01,2.38681e-01,
3.25791e-01,-3.43634e-01,-1.44610e-01,5.77954e-02,3.26174e-01,-2.17991e-03,2.63381e-01,1.72972e-01,-1.19663e-01,7.65958e-02,-1.67475e-02,-1.74017e-01,-1.07684e-01,-9.77867e-02,2.31491e-01,2.33695e-01,-1.86392e-01,2.96409e-01,-1.94670e-01,-2.90540e-01,6.27841e-02,-2.60377e-01,1.62823e-02,8.31327e-02,1.03312e-01,
1.68191e-01,-3.60365e-01,-3.56768e-01,1.05398e-01,6.68996e-01,2.09541e-01,-3.78532e-01,9.76073e-03,2.13436e-02,-3.18114e-01,-2.98849e-01,3.01153e-01,9.00367e-02,-2.02018e-01,5.84573e-01,3.65317e-02,-2.17311e-01,-6.01172e-02,2.01214e-01,-1.06063e+00,1.92598e-01,1.95935e-01,9.19871e-02,-3.68935e-02,-1.40563e-01,
4.83290e-02,-1.23491e+00,2.38598e-01,-1.64044e-01,-4.38166e-01,-1.44781e-02,2.40814e-01,-4.28700e-01,1.24001e-01,2.24717e-02,3.10379e-01,1.65920e-01,3.23003e-01,-7.58735e-02,-1.51546e+00,-6.70435e-01,7.06279e-03,9.70281e-02,-8.70206e-03,7.35131e-01,-2.74768e-01,-4.12894e-02,2.95754e-01,4.48372e-02,-1.80722e-01,
3.31002e-01,-4.12299e-01,1.96436e-01,-3.87841e-01,3.41180e-01,1.03366e-01,-7.25600e-02,3.66131e-01,-2.66034e-01,-4.09494e-02,8.21148e-02,-1.95566e-03,-3.58410e-01,1.72844e-01,2.74455e-01,-5.17433e-02,-3.54874e-01,-2.19258e-01,1.46842e-01,-1.06620e-01,-4.00186e-01,8.42593e-02,1.50629e-01,2.76909e-01,-8.87723e-02,
-2.12030e-01,-1.08596e+00,-1.92245e-01,3.77244e-02,2.87627e-01,4.70664e-01,3.17366e-01,-4.00600e-01,4.37002e-01,-2.52051e-01,-1.73123e-01,-8.05299e-02,2.71009e-01,5.05190e-01,1.10904e+00,-1.38269e-01,4.97487e-02,-3.11096e-01,1.22974e-01,4.15841e-01,-1.93751e-01,4.07862e-02,2.69211e-01,-7.50497e-02,-1.30916e-01,
-3.86311e-02,2.86758e-01,-2.85974e-02,-2.39005e-01,-9.39390e-02,1.94792e-01,3.09140e-01,-2.06273e-01,-8.45689e-02,-2.22875e-02,-5.48811e-02,-2.74758e-01,3.44306e-02,7.19919e-02,1.68740e-01,-3.43276e-01,-2.25456e-01,7.34802e-02,8.90197e-02,-2.59055e-01,-1.09091e-01,2.12538e-02,2.20674e-01,3.08900e-01,-2.50518e-01,
3.04996e-01,1.39227e-01,4.45257e-02,-1.33479e-01,3.66796e-01,-1.08747e-01,2.81737e-01,6.18132e-01,3.32717e-01,3.41856e-01,-3.51351e-01,3.00314e-01,-3.26172e-01,3.06584e-01,2.55345e-01,6.19012e-01,3.12605e-01,2.30826e-01,7.85178e-02,-4.92953e-01,5.13926e-01,5.63821e-03,1.38502e-01,-9.94432e-02,-3.36421e-01,
2.25920e-01,-1.28354e-01,-5.12585e-02,-2.35171e-01,-4.81508e-01,7.19733e-02,2.37604e-01,-6.86782e-02,2.44140e-01,-2.07464e-01,2.35275e-01,-1.97553e-01,2.60283e-01,9.40932e-02,1.65714e-01,-6.96420e-01,1.65509e-01,2.73587e-01,2.05716e-01,4.11748e-01,-1.03048e-01,-3.43256e-01,-2.20843e-01,-2.89859e-01,2.81476e-01,
4.98858e-01,4.56976e-01,3.01086e-01,2.35656e-01,1.90531e-01,-2.62962e-01,1.38275e-01,1.14944e-01,1.86715e-01,-1.65445e-01,-2.93002e-01,-2.16747e-01,-5.11130e-02,5.31110e-02,8.05875e-03,-3.22642e-01,-2.81475e-01,2.86339e-01,-2.74600e-01,-1.17687e-01,-1.21213e-01,1.23392e-01,1.92235e-02,-1.97650e-01,7.47824e-02,
1.38002e-01,-3.37425e-01,-2.88888e-01,1.66769e-01,-4.71192e-01,-3.14391e-01,-1.82577e-01,1.00416e+00,7.91038e-03,2.50948e-01,2.16016e-01,1.91061e-02,1.16141e-01,-2.62196e-01,-3.74440e-01,-9.67152e-02,2.47165e-01,2.58926e-01,-2.50036e-01,6.50099e-02,-1.63189e-01,-1.30772e-01,4.05517e-01,-2.69327e-01,-6.04779e-03,
6.30411e-02,2.67807e-01,3.04886e-01,-2.64728e-01,-3.41525e-01,-2.85539e-01,-5.74986e-02,8.04961e-01,-1.51095e-01,1.86589e-01,2.69745e-01,-4.08922e-01,3.08748e-01,1.40639e-02,-6.92220e-02,-1.29838e-01,-3.71772e-01,-3.61820e-01,-3.83692e-01,3.79218e-01,2.20775e-01,1.56148e-01,3.12447e-01,1.58786e-01,-3.10097e-01,
-1.60259e-01,-2.50509e-01,-2.67806e-01,2.23851e-01,5.70324e-02,-1.61712e-01,-6.36244e-02,1.76631e-01,-3.44005e-01,2.68155e-01,-3.57103e-01,2.09006e-01,-1.12262e-01,8.45589e-02,-2.22623e-02,-1.53065e-01,-3.20983e-01,2.28402e-01,1.56723e-01,-2.27614e-02,2.98880e-01,9.82440e-03,-1.86225e-01,7.72851e-02,1.23825e-01,
4.27004e-01,-7.69610e-01,-3.11426e-01,-3.46850e-01,2.65354e-01,-1.37490e-01,-7.40407e-02,-1.32490e-01,-2.62627e-01,2.51974e-02,4.42785e-02,2.24627e-01,-1.74244e-01,2.39331e-01,2.59716e-01,2.38885e-01,-3.39684e-01,-3.33352e-01,-2.18482e-01,-9.67627e-03,1.04247e-01,3.56925e-02,5.12459e-01,1.29134e-01,2.53874e-03,
-6.93449e-02,1.16396e-01,-6.17158e-02,3.65881e-02,-2.01233e-01,2.28023e-01,-3.77052e-01,9.04251e-01,1.59693e-02,-8.20884e-02,6.96057e-02,1.46635e-01,-6.32537e-03,-3.50767e-01,-1.05787e-02,1.07711e-01,2.29391e-01,-3.50031e-02,-3.15352e-01,-1.98788e-01,4.01715e-02,-1.34909e-01,1.83077e-02,2.40594e-01,-9.47577e-02,
-1.08387e-01,-2.32643e-01,-3.85591e-01,5.73858e-02,1.84895e-01,-3.43552e-01,4.48075e-02,1.27807e+00,3.12838e-02,2.02071e-01,-3.66430e-01,-1.11339e-01,-2.89524e-01,2.35345e-01,-2.22315e-01,-5.09277e-01,-6.15886e-02,-2.40003e-01,2.30113e-01,1.10744e-01,3.09292e-01,-1.98323e-01,3.77466e-01,1.28911e-01,-2.45797e-01,
4.78175e-01,-4.75573e-02,-1.59723e-01,2.08041e-01,-1.18716e+00,-1.30212e-01,2.76626e-01,1.56452e+00,1.56254e-01,-1.31212e-01,-3.82311e-01,1.42943e-01,2.24671e-01,3.76586e-01,4.17616e-01,-1.07465e-01,3.75506e-01,-2.98231e-01,1.98037e-01,-6.23532e-01,1.60378e-01,-7.13564e-02,-1.21213e+00,3.17834e-01,-1.85011e-01,
2.06237e-01,-1.29740e-01,4.61797e-03,1.27957e-01,-1.86345e-01,-2.38190e-01,6.68002e-02,-1.54624e-01,3.95236e-01,-2.63872e-01,2.29800e-01,9.43797e-02,2.87500e-01,1.74125e-01,4.42194e-01,-1.06984e-01,-2.69892e-01,-1.12412e-01,-3.16856e-01,-3.12381e-02,3.65420e-01,1.28831e-01,-4.05632e-01,4.09900e-02,-2.39037e-01,
-5.48427e-02,-2.75361e-01,-1.43373e-01,3.17711e-02,5.59516e-01,2.77322e-01,-2.78175e-01,-1.56843e-01,-5.56131e-03,7.22543e-02,-3.87413e-01,2.00922e-01,1.70480e-01,-1.35354e-01,-5.83458e-02,-1.42839e+00,3.48952e-01,-3.19174e-01,-3.05029e-01,5.78762e-01,-3.51472e-01,1.49115e-01,3.67778e-01,1.44879e-01,-2.92492e-01,
2.31663e-01,
-2.36623e-01,
-1.92359e-01,
2.70018e-01,
-3.05477e-01,
-1.30490e-01,
1.67700e-01,
-2.24065e-01,
1.46002e-01,
-8.92455e-02,
2.55790e-01,
-7.78196e-02,
-2.75313e-01,
-3.35706e-01,
-1.51485e-01,
2.04083e-01,
2.74697e-01,
2.06568e-01,
3.57071e-03,
2.58887e-01,
2.92549e-01,
2.79830e-01,
-2.50484e-01,
2.61915e-02,
1.03091e-01,
-5.63937e-02,-3.46878e-01,-6.82268e-02,1.93938e-01,-7.64105e-02,3.73805e-03,9.95805e-02,-8.12537e-02,4.44011e-01,4.14373e-01,2.57362e-02,-5.22630e-01,3.12863e-01,-1.67676e-01,1.49938e-01,1.39525e-01,-1.65227e-01,4.51281e-01,3.35123e-01,-5.57020e-01,9.61272e-02,-1.72841e-02,-1.86207e-01,1.89080e-01,-2.48908e-01,
-2.80618e-01,2.06828e-01,1.59793e-01,-1.47394e-01,1.22982e-01,3.62432e-01,-3.18758e-01,2.58391e-01,1.77695e-01,-2.10916e-01,-3.80005e-02,-3.38051e-01,-1.96853e-01,-1.84900e-01,4.33757e-01,2.24969e-01,3.44615e-02,1.04650e-01,5.94141e-02,2.71289e-01,-1.38019e-01,2.06544e-01,1.43631e-03,2.43089e-01,2.39000e-01,
-1.90010e-01,1.05513e-01,-1.72466e-03,-1.54723e-01,1.08958e-01,3.50986e-01,3.97417e-02,9.97119e-02,1.17274e-01,1.78690e-01,3.61872e-01,-8.34982e-02,1.59678e-01,4.24958e-01,3.21905e-01,-1.53562e-01,1.86539e-01,-1.73877e-01,1.78805e-01,7.54299e-02,2.06163e-01,2.42286e-04,3.79590e-01,-3.30117e-01,-9.51849e-02,
-2.52567e-02,-2.12630e-02,1.83723e-01,-7.16962e-02,-2.92807e-01,1.14014e-01,-1.26176e-01,-1.39298e-01,-5.90674e-02,1.95216e-01,2.07408e-01,1.29705e-01,-5.80433e-02,-3.84108e-02,2.16989e-01,6.08974e-02,-8.33770e-02,-4.17225e-02,-2.08925e-01,1.12161e-01,-3.02249e-01,-9.10425e-02,6.86123e-02,9.55754e-02,-1.55604e-01,
-3.30278e-01,-3.28228e-01,1.79187e-01,-3.01317e-01,-2.84777e-01,9.90408e-02,1.79598e-01,2.67771e-01,-1.04151e-01,-1.70183e-01,2.68700e-01,1.91893e-01,1.43796e-04,2.52121e-01,1.97993e-01,2.35393e-02,-2.78431e-01,-3.26615e-01,-2.43755e-02,-1.24469e-01,3.43661e-01,1.68264e-01,-1.92267e-01,1.12330e-01,-5.77796e-02,
9.43974e-02,-2.92994e-01,-1.49757e-01,-2.59811e-01,-2.86265e-01,-1.33192e-01,9.20021e-02,2.26164e-01,-1.05987e-01,2.61331e-01,1.72939e-01,-1.31419e-01,1.37153e-01,2.15351e-01,2.53190e-01,-3.03186e-01,-6.42734e-02,2.05781e-01,-1.79471e-01,1.05582e-01,-3.04215e-01,-7.68634e-02,-8.16585e-02,-5.77111e-02,-7.61732e-03,
2.77840e-01,-8.56948e-02,-3.30464e-01,-2.19491e-01,4.42551e-03,-3.67124e-01,2.65899e-02,2.12736e-01,4.29215e-01,2.99425e-02,4.75130e-02,-2.92599e-01,3.19786e-01,2.78065e-01,-5.28892e-01,6.39378e-02,-3.44658e-01,3.68675e-02,-7.81830e-02,1.36040e-01,-2.71190e-01,6.73487e-02,-4.11070e-02,3.24125e-02,1.61981e-01,
-2.88432e-01,1.20786e-01,-3.43072e-03,-2.15544e-01,3.01699e-01,1.72169e-01,2.49030e-01,-3.18024e-01,-2.40871e-01,7.34487e-02,-1.91327e-01,-2.42438e-01,-8.07376e-02,-1.09129e-01,-3.11838e-01,-2.22415e-01,-6.70146e-02,-9.99315e-02,-6.83516e-04,2.60610e-01,-3.32035e-01,1.61829e-01,2.80898e-01,1.59221e-01,3.91866e-02,
-3.06199e-01,1.80558e-01,3.08705e-01,2.33385e-01,-7.78283e-02,1.84140e-01,-4.97148e-02,1.08207e-01,-2.00840e-01,3.53576e-01,2.25281e-01,-1.84739e-02,7.80969e-02,-9.81938e-02,-2.17919e-01,-1.89361e-01,-1.55113e-01,1.04734e-01,3.33235e-01,9.94390e-02,2.65752e-01,-6.84071e-02,-2.27920e-01,7.43080e-02,2.89789e-01,
3.35796e-01,-4.66425e-01,-2.99579e-01,1.01738e-01,1.31142e-01,-1.92035e+00,-2.56509e-01,1.89425e-01,-2.20960e-01,1.44879e-01,-7.27302e-02,3.29277e-01,3.31637e-01,4.82406e-01,-9.15373e-02,7.59785e-02,-5.34955e-02,3.90127e-01,-1.88054e-01,-2.67751e-02,-4.20612e-01,-2.96205e-01,-1.29325e+00,2.13334e-01,-1.30928e+00,
7.00953e-02,-1.18494e-01,2.91261e-01,-1.92142e-01,-2.78821e-01,1.60125e-01,-2.25477e-01,5.13685e-02,-4.49365e-01,-3.57688e-01,-4.16659e-01,-5.06409e-03,6.40953e-03,2.65762e-01,-6.78250e-02,-2.70291e-01,1.36902e-01,7.17787e-02,3.67673e-02,1.67571e-01,2.04541e-01,-2.79979e-01,9.10925e-02,-1.00841e-01,2.50090e-01,
5.61926e-02,6.49543e-01,-1.47660e-01,-2.09844e-01,1.86177e-01,6.60677e-01,-1.84713e-01,2.14215e-01,3.45056e-01,-4.84887e-01,1.80291e-01,-6.67961e-01,1.01224e-01,-1.67875e-01,2.28180e-01,-3.72838e-01,2.98155e-01,-1.45116e-01,1.52487e-01,3.58591e-02,-2.30732e-01,-2.69976e-01,2.21431e-01,1.28695e-01,2.13926e-01,
-1.49023e-01,5.41871e-02,-1.71745e-01,1.34847e-02,2.18648e-01,9.86225e-03,-3.30324e-01,1.18996e-01,-1.21660e-01,1.57614e-01,1.81148e-01,1.79904e-01,2.50307e-01,7.26346e-01,-1.63359e-01,-5.41418e-02,2.66282e-01,1.35280e-01,-3.18663e-01,3.69652e-01,2.62804e-01,2.98716e-01,1.06032e+00,-3.40586e-01,-4.60665e-01,
-3.06069e-01,-1.79665e-01,3.07316e-01,1.36024e-02,9.65720e-02,2.30227e-01,-2.23491e-01,3.36039e-01,-2.84826e-01,1.76015e-03,-1.15806e-02,5.78678e-02,-2.46755e-01,1.71026e-01,2.28156e-02,-3.29651e-02,-9.67674e-03,2.71758e-01,-7.26939e-02,2.05245e-01,2.63006e-01,2.00584e-01,2.85359e-01,-3.71964e-02,1.98021e-01,
6.13455e-02,-2.95461e-01,-2.98124e-01,-2.50823e-01,-2.97874e-01,-2.88505e-01,1.52959e-01,1.55765e-01,1.58414e-01,-3.04231e-01,-3.39982e-01,-1.49164e-01,4.48308e-02,-5.55450e-02,-3.58061e-01,5.13759e-02,-3.32551e-01,-2.73836e-01,-3.19405e-01,4.77844e-02,1.38898e-01,-2.08720e-01,-4.24037e-02,-1.22854e-01,8.03173e-03,
6.87711e-02,-1.41126e-01,-2.86682e-01,1.30866e-01,-3.06307e-01,-3.45114e-01,7.98833e-02,3.30804e-01,-2.18944e-02,-1.64274e-01,-1.98677e-01,-5.08577e-02,-1.72427e-01,-3.07351e-01,2.87626e-01,4.45819e-02,-2.60862e-01,3.75748e-01,1.11911e-01,2.48186e-01,2.86947e-01,2.32788e-02,2.04264e-01,4.40099e-01,1.31751e-01,
-4.80357e-01,1.57055e-01,3.30775e-01,-1.07735e-01,-1.53865e-01,3.42666e-02,9.69186e-02,-2.91362e-01,-3.83970e-01,1.98809e-01,-2.76406e-01,-3.25594e-02,1.05294e-01,1.20694e-01,4.01943e-01,8.02018e-02,7.03489e-02,1.63336e-01,3.35358e-02,-4.63905e-01,1.69174e-01,-1.77057e-01,-7.46809e-02,8.97558e-02,-5.43055e-01,
2.89423e-01,1.91161e-01,1.75510e-01,3.05060e-01,7.62694e-02,-3.42267e-01,1.68651e-01,-2.67969e-01,-7.41325e-02,3.09584e-01,-1.40473e-01,1.62231e-01,-1.04684e-01,-2.01186e-01,3.15926e-01,2.48366e-01,2.82737e-02,-2.80825e-01,2.60958e-01,2.02244e-01,1.25870e-02,2.22284e-01,-2.18038e-01,9.14708e-02,-2.53531e-01,
1.92893e-01,3.74999e-02,2.44660e-02,-4.26899e-03,-3.18256e-01,2.55395e-01,-2.28139e-01,6.14170e-02,1.93501e-01,-1.71975e-01,2.30555e-01,-7.89720e-02,2.12206e-01,-2.02349e-01,7.15055e-02,-1.06346e-01,1.75793e-01,-6.35407e-02,-1.06229e-01,7.71054e-02,5.33474e-02,-1.93074e-01,2.51949e-01,-1.52905e-01,1.70361e-01,
-3.39046e-02,9.05593e-02,-1.94158e-01,7.02209e-02,2.22021e-01,-1.41196e-01,6.55043e-02,-1.06628e-01,1.90734e-02,-2.71387e-01,-2.02413e-01,-3.38830e-01,2.91901e-01,5.96209e-02,5.52396e-02,-2.07261e-01,-1.77082e-01,1.54757e-02,1.36032e-01,-3.14169e-01,-9.90188e-03,-2.41856e-01,-5.55754e-03,7.75723e-02,-3.09404e-01,
-4.03864e-01,-1.91910e-01,-1.23126e-01,2.11875e-01,3.28822e-01,2.22314e-01,-3.10922e-01,7.62109e-02,-8.47998e-02,6.67360e-02,-3.34574e-01,1.20868e-01,-1.05674e-01,6.88164e-02,2.71314e-01,2.35991e-01,-1.75593e-01,-3.45694e-01,-1.82406e-01,-1.10986e-01,-2.21395e-01,2.21335e-01,2.27504e-01,1.10691e-01,-2.79831e-01,
3.16258e-01,1.55375e-01,3.16677e-01,1.55669e-01,9.60624e-02,-9.22423e-01,-3.31550e-01,-2.11934e-01,-1.49173e-01,2.23235e-01,3.32535e-01,-2.63759e-01,-8.30658e-02,-5.02487e-01,7.66297e-02,1.75424e-01,-8.22541e-02,1.72147e-01,-1.41404e-02,2.00543e-01,-3.58473e-01,-3.25660e-01,-3.59250e-01,1.92125e-01,1.72567e-01,
-9.04961e-02,1.85744e-01,2.42137e-01,-9.45132e-02,-1.38137e-01,5.79125e-02,-2.95412e-01,3.01996e-01,-2.42992e-01,-1.36018e-01,-1.18580e-01,9.32193e-02,1.51402e-01,1.68792e-01,-8.26562e-02,1.43527e-01,3.18370e-01,-1.40125e-01,-1.81680e-01,-2.41959e-01,1.99525e-01,-2.92889e-01,-3.12936e-01,-1.45447e-01,-1.95962e-01,
6.81142e-02,-1.14820e-03,-9.35826e-02,1.61673e-01,1.26286e-01,-2.67513e-01,1.95231e-01,-1.80949e-01,2.97015e-01,1.34915e-01,-2.59626e-01,2.55205e-01,-3.04060e-01,5.37697e-01,-1.40675e-01,-2.16446e-01,1.90803e-01,1.03042e-01,1.15783e-02,-2.61185e-01,-5.75274e-02,-3.00365e-01,1.82540e-01,-2.88520e-01,-2.79377e-01,
-2.24116e-01,-9.11439e-01,-3.31217e-02,-3.12177e-01,-1.39274e-01,-1.22149e+00,-2.42779e-02,8.43325e-02,1.95625e-01,2.69724e-01,1.53788e-01,-3.18104e-01,6.83483e-02,-2.14258e-02,-1.56963e-01,-1.46707e-01,-3.45427e-02,-2.24885e-01,1.94582e-02,-5.38191e-01,-1.95490e-02,3.63669e-01,3.53304e-01,1.34406e-01,4.19189e-01,
-2.46967e-01,
1.00916e-01,
-2.10308e-03,
-1.61891e-01,
-2.99656e-01,
-3.41788e-01,
2.15520e-01,
-2.91600e-01,
-6.60354e-02,
8.84750e-02,
-1.77410e-01,
3.37899e-01,
-9.90317e-03,
-2.12872e-02,
8.30052e-02,
-1.29449e-01,
-9.12079e-02,
-1.17676e-02,
2.40960e-01,
-5.96790e-02,
-3.53770e-01,
1.67831e-01,
-3.33978e-01,
1.30502e-01,
1.12951e-01,
3.47954e-01,2.10508e-01,-1.05236e-01,-3.45957e-01,-2.98255e-01,2.24059e-01,4.33624e-01,-8.76257e-02,-1.49442e-01,-2.60630e-01,-7.01521e-02,2.87007e-01,-7.01457e-03,2.19622e-01,-1.32205e-01,3.25907e-02,-3.83451e-01,-2.36912e-01,6.74573e-02,3.28358e-01,-1.84926e-01,-2.18875e-01,1.55052e-01,1.47492e-01,1.08533e-01,
-1.71762e-01,1.44548e-01,1.52956e-01,2.17928e-01,-2.61203e-01,2.65797e-01,1.64306e-01,-1.53438e-01,7.96179e-02,1.96471e-01,-9.80517e-02,-3.25995e-01,2.27966e-01,-4.36181e-01,2.47703e-02,-6.97474e-02,2.76799e-02,-1.20188e-01,6.10851e-03,-2.14732e-01,8.47507e-02,-1.64827e-01,-2.77684e-01,-3.28341e-01,9.29898e-02,
-2.72815e-01,1.98760e-05,-1.58253e-02,-9.41612e-02,7.64487e-02,3.41565e-01,2.46370e-01,3.17920e-01,1.21844e-01,-2.54265e-01,-2.97993e-01,-2.69819e-01,1.03017e-01,1.67538e-01,8.56469e-02,-3.53143e-01,1.47920e-01,-4.91315e-02,6.13882e-02,7.00948e-03,3.09612e-01,2.40902e-01,-1.22708e-01,6.05260e-01,5.64478e-01,
2.84662e-01,6.54791e-02,2.86224e-01,-2.91481e-01,1.34286e-01,-6.42758e-02,-1.03085e-01,-5.11038e-02,-6.18659e-03,-9.84094e-02,-2.92436e-02,2.09288e-01,-2.21737e-01,2.39686e-01,2.47334e-01,-2.74205e-01,1.32121e-01,1.31824e-01,-1.67752e-01,8.47085e-02,2.57899e-01,2.58287e-01,2.45397e-01,-1.28319e-01,2.84595e-01,
-3.98556e-01,3.80002e-02,7.26570e-03,-2.45014e-01,-8.66176e-02,-2.94021e-01,-2.79588e-01,-2.66331e-01,2.40632e-01,8.49271e-02,-3.03895e-01,-2.09750e-01,-2.17598e-01,1.08136e-01,-3.19132e-02,1.32746e-01,9.82703e-02,2.48984e-01,1.75795e-01,-1.52876e-01,1.42213e-01,6.07350e-02,-2.54883e-01,1.69289e-01,2.27616e-01,
4.66311e-01,-2.08214e-01,6.54321e-02,4.94305e-02,3.15565e-01,-1.35097e-01,8.26258e-03,-1.14042e-01,-1.35222e-01,-2.01701e-01,3.22308e-01,-6.74046e-03,1.59722e-02,2.53619e-01,1.39588e-01,-2.60927e-01,-1.59456e-01,-1.09549e-01,-1.28597e-01,1.72233e-01,1.02327e-01,-6.40766e-02,-2.95913e-01,3.69770e-01,-2.24976e-01,
8.89736e-02,-2.45748e-01,-4.64271e-02,-1.86765e-02,2.80917e-01,3.29888e-02,-6.48743e-02,1.41490e-01,-2.14002e-02,3.52697e-02,-3.49681e-01,-1.26165e-01,1.30985e-01,1.04476e-01,-1.53780e-02,-2.27038e-01,5.89253e-02,-1.02396e-01,6.38989e-02,1.01668e-03,7.09850e-02,-1.80838e-01,2.06466e-01,-1.13754e-02,-3.72886e-01,
-1.28619e-01,-1.75879e-01,-3.83232e-01,4.13583e-02,-4.70583e-02,2.94385e-01,6.56708e-02,3.12598e-01,4.41026e-02,2.27854e-01,2.64478e-01,-1.69996e-01,7.26306e-02,5.52605e-02,-5.95866e-02,-4.12886e-02,-2.18956e-02,-1.77638e-01,2.33018e-01,1.38036e-01,-8.31763e-02,-3.40730e-01,-2.38404e-01,-1.43743e-01,3.58993e-02,
-3.41590e-01,-2.73940e-01,-7.90361e-02,8.84665e-02,-4.41795e-02,-4.13238e-02,-2.01842e-01,-1.49294e-01,-1.17410e-01,2.62470e-01,3.21404e-02,-3.63851e-02,-3.25481e-01,9.79516e-03,3.10226e-01,-4.04416e-02,-1.38719e-02,1.46762e-02,1.06891e-01,-1.89416e-01,-3.45250e-01,3.03077e-02,1.63501e-01,-3.71954e-02,2.25528e-01,
-1.05762e-02,1.00477e-01,2.57563e-01,2.99998e-01,1.97863e-01,-1.58536e-01,-1.16140e-01,8.77340e-02,-7.36577e-02,8.74639e-02,1.99309e-01,2.49652e-02,-8.13927e-02,-2.40644e-01,7.91333e-02,4.57206e-02,-2.66252e-01,3.40373e-01,-2.88482e-02,3.09692e-01,-2.33336e-01,-1.32160e-01,1.99276e-01,-2.00537e-01,-2.39315e-01,
2.06606e-01,-2.28063e-01,2.24231e-01,7.92919e-02,6.75539e-02,2.79013e-01,2.36094e-01,-1.88885e-01,2.51475e-02,2.47195e-02,-4.37118e-02,-5.49280e-01,1.64601e-01,1.57272e-01,1.63034e-01,-2.77030e-01,-2.75503e-01,-7.60572e-02,2.46854e-03,2.38461e-01,2.15145e-01,-5.43537e-01,-1.05824e-01,4.83725e-02,-7.26614e-01,
1.42362e-01,-2.74389e-01,1.43011e-01,2.46361e-01,-9.61794e-02,1.13401e-02,-3.40662e-02,2.10394e-01,-4.45063e-01,3.38276e-01,2.33514e-01,1.56809e-02,2.53914e-01,-1.03385e-01,-3.39659e-01,-3.16247e-01,2.22653e-01,1.45998e-01,-1.74778e-01,3.33983e-01,5.03562e-02,2.23398e-01,1.10553e-02,-3.31071e-01,-7.68987e-02,
-3.96341e-01,-1.37698e-01,-1.79003e-01,3.49694e-01,-4.31008e-02,-3.22309e-01,7.60614e-02,2.69617e-01,2.33263e-01,-4.30768e-02,2.94283e-01,-1.75422e-01,1.33509e-01,1.98961e-01,-1.31281e-01,-1.82002e-01,3.25161e-02,5.03945e-02,1.08410e-01,-1.00355e-01,2.61742e-01,-5.33218e-02,2.64211e-01,1.82072e-01,-2.91195e-01,
2.85234e-01,2.75630e-03,9.71771e-02,-1.00659e-01,-7.57496e-02,5.90891e-02,2.70146e-01,1.83564e-01,-2.84040e-02,-1.57714e-01,-2.35169e-01,-1.74736e-01,1.43077e-01,-4.72561e-02,2.23005e-01,-1.00148e-01,-1.95046e-01,-2.68706e-01,-8.46355e-02,7.05161e-02,1.66959e-01,-3.53188e-01,-2.23303e-01,5.79495e-02,-4.87962e-01,
2.41033e-01,2.39025e-01,-6.00208e-02,-3.07068e-01,2.83953e-01,-3.02567e-01,1.94416e-01,-6.09248e-02,2.62767e-02,-3.00046e-01,-3.23793e-01,7.42381e-02,-7.28880e-02,-2.63490e-01,3.33208e-01,-8.81226e-02,-8.89703e-02,3.18007e-01,-1.80852e-01,1.19231e-01,2.42377e-01,-3.41137e-02,-1.60084e-01,-3.35316e-01,-1.89348e-01,
-1.70809e-01,-1.81710e-01,2.47676e-02,5.13411e-02,1.51205e-01,-1.70732e-01,2.15508e-01,3.12048e-01,2.30968e-01,3.62173e-02,1.78614e-01,-2.06516e-01,-1.05267e-02,-3.22290e-01,-2.58417e-01,2.61192e-01,1.77277e-02,-3.42891e-01,1.75787e-01,7.76288e-02,1.85882e-02,1.29302e-01,1.38957e-01,-1.52354e-01,5.58096e-02,
6.22638e-01,-4.45977e-02,-2.75349e-02,-3.06464e-01,-1.74863e-01,3.39591e-01,1.33483e-01,-7.12051e-02,-4.09218e-01,-1.51002e-01,3.26661e-01,-1.97969e-01,-1.00142e-01,4.26943e-02,-2.58822e-01,1.68503e-01,-1.02018e-01,-2.47775e-01,2.46874e-01,-1.15241e-02,-2.88091e-02,-8.51075e-02,-5.38173e-02,-3.55609e-01,-5.79938e-01,
7.25241e-02,1.12108e-01,-2.07461e-01,1.16575e-01,3.20802e-01,-1.95378e-01,1.15141e-01,1.80850e-01,2.82699e-01,1.70997e-01,-2.42708e-01,-9.78686e-02,-1.28432e-03,2.05866e-01,-3.04514e-01,7.88393e-02,-5.33872e-02,3.45817e-03,2.02736e-01,-2.17693e-01,9.14658e-02,1.18567e-01,-2.96827e-01,-1.05630e-01,7.39166e-03,
-2.91055e-01,3.76085e-01,-2.01881e-01,4.90373e-02,2.94978e-01,-2.27771e-01,-3.97100e-01,6.15838e-03,1.44814e-01,-1.84511e-01,-1.80972e-01,-7.58119e-02,-2.10028e-01,1.00044e-01,5.22005e-02,2.91847e-01,-2.04563e+00,-3.29127e-01,-3.25065e-01,1.90056e-02,-9.05662e-02,-3.83849e-01,-1.36805e-01,-4.02641e-01,2.74385e-01,
-6.23716e-01,-1.99501e-01,-5.74938e-01,-1.24942e-02,-2.80271e-01,2.62109e-01,5.76179e-02,-1.70564e-01,2.14588e-01,-2.58157e-02,-3.26715e-01,-6.00095e-02,-1.24705e+00,2.60124e-01,-1.63288e-01,-1.50496e-01,-1.66068e-01,8.72012e-02,-2.38595e-01,2.72084e-01,-2.84737e-02,1.22027e-01,2.11544e-01,-2.48465e-01,3.41344e-01,
-4.18807e-01,5.43235e-02,-1.16990e-01,8.70423e-02,4.33756e-03,-1.25530e-03,2.39111e-01,-7.92154e-02,1.16262e-01,-1.19929e-01,-1.25023e-01,4.38149e-02,1.59223e-01,2.85327e-02,2.08113e-01,-5.99590e-02,1.56207e-01,1.49973e-01,-1.71896e-01,2.11044e-01,-1.09704e-01,1.40056e-01,4.67879e-02,2.74888e-01,-1.24227e-01,
-2.96135e-01,-1.41067e-03,3.03718e-01,-1.72131e-01,3.07825e-01,-3.74619e-02,2.88186e-01,1.20695e-01,-4.62203e-02,2.10935e-01,-1.51598e-01,-6.95410e-02,-1.48300e-01,8.24534e-02,-2.63079e-01,2.97893e-01,-6.06121e-01,2.61894e-01,-4.76522e-02,-3.00677e-01,-2.52247e-01,1.59575e-01,2.34376e-01,-3.14673e-01,2.16133e-02,
-3.26105e-01,8.87360e-02,3.06457e-01,-1.98190e-02,1.83601e-01,1.31419e-01,-2.53199e-01,-1.87488e-01,-7.91999e-02,-2.25945e-01,-1.25641e-01,-2.65850e-01,-4.09688e-02,-1.50802e-01,3.53779e-02,-2.98723e-01,-2.55272e-01,9.84687e-03,-2.08550e-01,-2.76619e-01,-1.06002e-01,-4.22924e-02,-1.50259e-01,-8.15021e-02,-2.65326e-02,
4.74705e-02,6.18452e-02,8.03962e-02,-7.63651e-02,1.85560e-01,2.54107e-01,1.01353e-01,-4.52674e-02,-1.81515e-02,-1.46021e-01,-2.09072e-01,-1.23829e-01,2.35707e-03,-2.48686e-01,-2.50042e-01,2.04728e-01,1.65277e-01,1.82945e-01,-4.60524e-02,-9.98378e-02,-6.07780e-02,-2.59449e-01,2.65655e-01,-2.03745e-01,7.71640e-02,
-1.95624e-02,2.61791e-01,3.42840e-02,1.09105e-01,1.13648e-01,-7.75422e-02,1.32298e-01,-1.53614e-01,3.78235e-02,-1.15662e-01,-9.25387e-02,-1.50934e-01,-1.74225e-01,2.41117e-01,1.36448e-01,-2.88567e-01,1.14403e-01,-3.43796e-01,-3.38874e-01,3.01700e-02,-1.79815e-01,1.50921e-01,-3.22793e-01,9.23357e-03,3.35247e-02,
-3.10162e-02,
2.53789e-01,
-1.21184e-01,
-1.85286e-01,
3.23174e-01,
4.70515e-03,
7.38006e-02,
-6.11135e-02,
-3.44797e-02,
-3.42267e-01,
1.50195e-01,
8.51478e-02,
-1.29715e-02,
1.44515e-01,
-2.23846e-01,
-3.26164e-02,
1.06210e-01,
-3.55713e-01,
2.41915e-01,
9.23411e-02,
-5.88055e-02,
-4.03790e-02,
3.48626e-02,
-1.40195e-01,
-5.58182e-02,
4.55637e-04,2.06837e-01,-2.73946e-01,5.99225e-02,2.91273e-01,-2.21011e-02,2.58130e-01,-1.28002e-01,-1.72813e-01,2.63607e-01,5.96525e-02,-1.91106e-01,-1.49360e-02,-2.37858e-01,2.63997e-01,9.19451e-02,-8.82046e-03,2.66700e-01,-1.45814e-01,1.80568e-01,9.73976e-02,-1.41273e-01,3.13703e-01,2.23639e-01,1.93318e-01,
-1.67672e-02,-3.18987e-01,2.02286e-01,-1.34692e-01,-3.56529e-01,2.26009e-01,-1.80234e-01,-2.02678e-01,3.52500e-02,-1.88203e-01,-3.26145e-01,-2.78699e-02,3.00805e-02,-3.28438e-01,6.33815e-02,3.27450e-01,2.30620e-01,-1.79625e-01,-2.72314e-01,4.59077e-02,-3.76854e-01,-9.46218e-02,2.90154e-01,-6.95562e-03,2.25324e-01,
-2.07538e-01,9.34797e-02,2.78485e-01,-2.27970e-01,-1.87662e-01,-1.18711e-01,-2.80205e-02,-6.54184e-02,-5.16754e-02,2.98228e-01,-6.78024e-03,-1.59174e-01,-2.60191e-01,-1.97878e-02,3.31993e-01,4.61143e-02,-2.98992e-01,-1.06643e-01,-5.02059e-03,-2.05639e-01,-9.40806e-02,-1.79136e-01,-2.02183e-01,3.06702e-01,1.24911e-01,
9.11329e-02,-1.47653e-01,4.46660e-02,-2.24990e-01,3.47487e-01,5.82613e-02,3.31339e-01,9.94551e-02,8.21809e-02,-7.94476e-02,-1.46151e-01,2.79810e-01,2.35632e-01,2.48906e-01,-8.23317e-02,-2.11738e-01,-2.94580e-01,-3.01770e-01,-1.42633e-01,-2.12608e-01,-9.57385e-02,2.48621e-01,-2.54986e-01,1.08435e-01,7.90367e-02,
1.47320e-01,-9.78283e-02,7.96057e-02,6.30430e-02,1.64079e-01,2.75743e-01,-2.70280e-01,2.74464e-01,-1.60568e-01,1.90984e-02,-3.82961e-02,1.73040e-01,2.39056e-01,4.70960e-03,2.77581e-01,1.89100e-01,-2.99278e-01,1.99883e-01,-8.83335e-02,2.55890e-01,7.46176e-02,1.29591e-01,5.73741e-02,-4.49095e-02,-9.08779e-02,
-7.03079e-02,2.26752e-02,-1.62514e-01,1.43827e-01,1.76412e-01,-3.26580e-01,-2.15164e-01,-1.21895e-01,3.30118e-01,9.90524e-02,-1.58136e-01,2.75945e-01,3.05676e-02,1.33882e-01,-9.52413e-02,-3.24007e-02,9.67105e-04,-2.18522e-01,-4.60403e-03,-1.51230e-02,7.65298e-02,-2.53621e-01,-2.03797e-01,1.95198e-01,1.02592e-01,
-9.72544e-02,-2.85773e-01,1.66331e-01,1.80827e-01,-2.69396e-01,-2.49209e-01,-3.39215e-01,-2.27707e-01,1.04042e-01,1.95891e-02,-1.34830e-01,-3.68459e-01,6.53284e-02,-6.05040e-02,-1.38939e-01,-2.17337e-01,1.53087e-01,-2.38473e-01,-3.52329e-01,-9.63659e-02,9.17090e-02,8.38723e-03,6.87255e-02,-3.33987e-02,1.01851e-02,
-1.86683e-01,-2.58324e-01,-5.07622e-02,-3.30130e-01,1.27781e-01,3.39425e-01,-1.31955e-01,-3.22601e-01,5.42474e-02,-3.17813e-02,-8.47357e-02,3.57629e-01,1.44652e-01,3.00865e-01,-1.70154e-01,-1.05442e-01,1.61597e-01,2.71259e-01,2.03927e-02,-5.67688e-02,5.95635e-02,-2.03788e-01,2.02458e-01,-2.14680e-01,9.20237e-02,
1.38810e-02,-2.47666e-01,1.80124e-01,-1.05012e-02,-2.59448e-01,1.77549e-01,-3.75607e-01,1.58481e-01,2.02939e-01,-1.53509e-01,8.40142e-02,2.79518e-02,8.17110e-02,2.43050e-01,3.29302e-01,3.14408e-01,2.79469e-01,3.48285e-01,-5.27589e-02,-3.20177e-01,-1.91413e-02,2.17778e-01,-1.97993e-01,2.97980e-01,-6.56430e-02,
-1.77510e-01,1.15595e-01,-9.13864e-03,-1.18646e-01,4.89363e-02,-2.57327e-01,-2.56816e-03,-5.46955e-02,-6.93092e-03,-1.19953e-01,-1.02150e-01,-1.21681e-01,3.95766e-02,4.37706e-02,5.53334e-03,-1.20197e-01,-2.26580e-01,-9.81839e-02,-6.21049e-02,1.97465e-01,-9.13956e-02,-2.60661e-01,-2.17458e-01,-2.55186e-01,2.13235e-01,
-1.85491e-01,2.17447e-01,9.29149e-02,1.55864e-01,-7.59833e-02,-1.39131e-01,2.36829e-01,-3.82373e-02,-1.85789e-01,-4.39842e-02,-6.77206e-02,2.73493e-01,-3.08563e-01,1.93131e-01,1.97095e-01,2.17769e-01,-1.76234e-02,-2.20985e-02,-2.27791e-01,-3.62577e-02,-2.10835e-01,1.21420e-02,2.53509e-01,2.52352e-01,-1.82844e-01,
2.66398e-01,-3.92029e-01,-6.21086e-02,-1.79953e-01,-2.16754e-02,-1.71292e-01,-1.98352e-01,1.31014e-03,-1.31386e-01,-2.63171e-01,2.80723e-03,-1.21608e-01,1.38081e-01,9.28294e-02,-2.94458e-01,7.84364e-03,1.36617e-01,-2.79809e-01,3.26457e-01,-1.09804e-01,2.28374e-01,-2.54757e-01,-3.28475e-01,-3.85132e-02,1.45408e-01,
1.52002e-02,-3.15730e-01,5.21927e-02,2.15682e-01,5.33655e-03,-5.03670e-02,-1.97078e-01,3.05340e-01,2.11101e-01,-1.20661e-01,7.00324e-02,-3.47155e-01,1.08483e-01,1.63100e-01,-2.55188e-01,6.66898e-02,-1.89639e-01,-2.08908e-01,1.02797e-01,-1.75082e-01,1.40034e-01,-1.59660e-01,1.60418e-01,2.38919e-01,-3.25274e-01,
-4.50026e-02,1.39828e-01,5.46035e-02,-2.66118e-01,3.25262e-02,7.12341e-02,-2.97780e-01,-5.59214e-02,-1.13648e-01,-2.90759e-01,-1.13593e-02,2.98556e-01,1.96481e-01,-1.71013e-01,-2.30983e-01,3.39632e-01,-2.72106e-01,3.36860e-01,-3.38927e-01,-6.18291e-02,-2.66771e-01,-1.99692e-01,1.41595e-01,2.55708e-01,-4.06713e-02,
1.77673e-01,-2.55412e-01,1.19697e-01,2.11555e-01,1.26617e-01,-8.49850e-02,-4.00117e-01,-2.53344e-01,-2.77029e-01,-1.61315e-02,2.72001e-01,2.27334e-01,-1.99637e-01,-1.13916e-01,-1.31358e-01,-2.31219e-01,2.07510e-01,-1.30647e-01,1.06951e-01,2.39018e-01,9.95232e-02,7.96158e-02,6.84546e-02,2.63074e-02,-2.30779e-01,
2.22937e-01,3.09229e-02,-1.74088e-01,2.19404e-02,8.70995e-02,6.49234e-02,5.09426e-02,-2.44883e-01,1.66792e-01,-1.48414e-01,-1.02290e-01,2.11788e-01,5.10156e-03,-2.02680e-01,1.16941e-01,-2.46414e-02,-2.05186e-01,-3.96343e-01,-1.12127e-01,-1.84888e-02,9.89458e-02,-2.14037e-01,1.38491e-02,-2.79698e-01,-2.69443e-01,
-1.81574e-01,-1.33988e-01,4.48891e-01,-5.68630e-02,-2.66146e-01,-7.25219e-03,-6.04863e-02,-2.60797e-01,2.40453e-02,-3.37126e-01,1.83041e-01,2.02306e-01,2.90267e-01,-2.18473e-01,2.86680e-01,2.22715e-01,-5.52641e-02,2.02918e-01,4.95064e-02,-2.95151e-01,-2.64160e-01,2.23523e-01,8.22225e-02,-2.10349e-01,2.52566e-01,
-3.15133e-01,-2.47025e-01,-3.51937e-01,-9.23400e-02,-2.73918e-01,2.09561e-01,3.28875e-03,-3.41136e-02,6.70328e-02,1.97038e-02,2.41032e-01,-1.59823e-01,1.39327e-01,-1.51327e-01,-2.00599e-01,1.59261e-01,-2.93022e-01,-2.68935e-02,2.54262e-01,1.91879e-01,-2.74212e-01,-1.57408e-02,1.11026e-01,-6.08252e-02,-5.71363e-02,
1.97789e-01,1.53912e-01,2.93842e-01,2.50158e-01,-2.79175e-01,-3.49523e-02,-1.27293e-01,2.05662e-01,-2.77137e-01,5.95206e-02,9.79815e-02,-1.23398e-02,-3.83682e-01,-1.80895e-01,-2.26048e-01,-4.13316e-03,1.84966e-01,-1.04316e-01,3.38207e-01,-3.16031e-01,2.67833e-01,2.47926e-01,-5.66359e-02,-3.24682e-01,1.46517e-01,
1.67276e-01,-1.44514e-02,1.06050e-01,-7.17032e-02,9.10931e-02,1.54430e-01,-2.92261e-02,1.88078e-01,3.11519e-01,5.74267e-02,1.11135e-01,-2.29190e-01,-1.42438e-01,2.30455e-01,1.79789e-01,-1.17601e-01,2.77966e-01,2.32449e-01,3.27904e-02,-8.26328e-02,-1.05967e-01,1.23560e-01,2.74097e-01,3.40233e-01,-3.22989e-01,
5.92070e-02,1.94134e-02,-8.25761e-02,-1.88259e-01,-2.22075e-01,7.09663e-03,3.29894e-01,1.53561e-01,-2.26046e-01,1.38081e-01,-1.69141e-01,4.06534e-02,-8.26243e-02,-5.00849e-02,1.78988e-01,-8.97219e-02,-1.11977e-01,2.14420e-01,1.33544e-01,2.15435e-01,9.25590e-02,2.49643e-01,6.73580e-02,-1.34630e-01,2.00238e-02,
-5.70766e-02,1.99573e-01,1.75748e-01,3.33881e-01,1.95254e-01,1.95277e-01,-1.54259e-01,-2.09543e-01,3.70438e-03,1.24132e-01,2.87694e-03,-1.51655e-01,-2.03395e-01,3.40072e-01,-1.72202e-01,2.68342e-01,3.17297e-01,-2.48977e-01,-3.50124e-02,-3.73239e-01,1.98167e-02,-7.52497e-02,3.09782e-01,3.42767e-01,-2.79762e-01,
-3.13370e-01,-1.66107e-01,-4.81950e-02,2.19769e-01,-2.54302e-01,-2.53077e-02,6.93229e-02,3.14836e-02,-1.79693e-01,2.95979e-02,-1.33158e-01,2.42924e-01,3.83904e-01,-4.02075e-03,1.03349e-01,-2.12651e-01,-4.26957e-01,6.58521e-02,-1.18637e-01,-2.55685e-01,-1.42765e-01,-2.81629e-01,3.28761e-01,1.88117e-01,-7.70492e-02,
1.29419e-01,-3.15796e-01,1.72189e-01,-3.03038e-01,-2.93197e-01,-1.03692e-01,1.15704e-01,2.98473e-01,-8.99830e-02,2.50792e-01,2.44041e-01,-1.01999e-01,5.44379e-02,8.95500e-02,-1.01114e-01,2.78856e-01,-1.28224e-01,2.33378e-01,1.31179e-01,-3.15869e-01,1.85328e-01,2.21175e-01,-3.17523e-01,-2.29929e-01,-1.43834e-01,
1.97158e-01,1.86626e-01,7.00680e-02,1.22167e-01,2.36331e-01,-1.72025e-01,2.74695e-01,1.27271e-01,3.24908e-01,-5.53559e-02,6.97841e-02,-2.51037e-01,-1.19838e-01,-1.70137e-01,6.40243e-04,-2.12659e-01,1.94081e-03,-2.44511e-01,3.22424e-03,1.88197e-01,1.25752e-01,1.88760e-01,2.11434e-01,2.18835e-01,-8.03578e-02,
2.85197e-01,
1.72426e-01,
6.48345e-03,
-1.19196e-01,
2.01614e-01,
2.59486e-01,
1.07656e-01,
2.75258e-01,
-9.61864e-02,
-2.28018e-01,
1.60225e-01,
-9.39638e-02,
2.15264e-01,
-2.27341e-01,
-1.56517e-02,
2.65294e-01,
1.85137e-01,
1.16854e-01,
-2.11457e-01,
2.05122e-02,
3.12386e-01,
1.72619e-01,
2.13966e-01,
-2.14137e-01,
-7.70096e-02,
3.83499e-02,-5.76684e-02,-2.46629e-01,1.80866e-01,-1.79035e-01,3.28924e-01,-4.25107e-01,-1.93878e-01,-7.08422e-02,3.24522e-01,1.10208e-01,8.46453e-02,3.56209e-01,1.53061e-02,-4.72512e-03,-5.82269e-02,2.23138e-01,-2.46511e-01,-2.17306e-01,1.26756e-01,2.30386e-01,1.62152e-01,-8.10060e-04,1.25148e-01,-2.83912e-01,
3.47321e-01,-2.84741e-01,4.75680e-01,1.07144e-01,3.06188e-01,3.31526e-01,-4.26937e-01,-7.28086e-02,-2.18459e-01,3.09857e-02,-2.49860e-01,2.72513e-01,-2.76575e-01,8.28221e-02,-1.20359e-01,1.42534e-01,7.11094e-02,2.80511e-01,3.20328e-01,2.98994e-01,3.36603e-01,4.08003e-01,4.82823e-03,2.56849e-01,-1.85150e-01,
-4.08507e-01,-3.81464e-01,2.98534e-01,9.51321e-02,1.23358e-02,-7.47139e-02,-2.87450e-01,-7.25321e-02,3.86568e-01,-1.15998e-01,-2.28170e-01,1.83694e-01,-3.91822e-01,-4.37111e-01,7.31303e-02,-3.00246e-01,-4.03603e-01,3.37295e-01,1.90087e-01,-1.51726e-02,-3.09245e-01,2.12804e-02,3.78877e-01,3.17097e-01,2.10495e-01,
1.59701e-01,-2.44163e-01,2.10053e-01,-1.76293e-01,1.03856e-01,-3.66558e-01,-3.26998e-01,-3.44727e-01,5.03913e-02,3.07066e-01,7.89063e-02,4.30898e-01,8.85941e-02,2.64743e-01,1.31792e-01,-2.72281e-01,-7.49246e-02,2.49449e-01,1.40856e-01,-3.27345e-01,8.61784e-02,1.33887e-01,1.11927e-01,5.23938e-02,-4.32442e-01,
-1.80288e-01,-3.02596e-01,6.45684e-01,1.22847e-01,5.40333e-02,1.72276e-01,2.64575e-01,8.52801e-02,1.22819e-01,2.43340e-01,1.23065e-01,1.86341e-01,1.16301e-01,4.38957e-01,-2.78662e-01,-9.64209e-02,2.66751e-02,1.86134e-01,2.99419e-01,4.31597e-02,-2.90651e-01,-3.97780e-01,-3.76717e-01,4.10824e-01,-1.48534e-01,
-1.79328e-01,
-4.68989e-01,
4.67082e-01,
1.79926e-01,
1.87166e-01,
