// Neural Network File Format by Kyle Julian, Stanford 2016
6,3,5,25,
3,25,25,25,25,25,5,
0,
-56000.000000,-56000.000000,-3.141593
56000.000000,56000.000000,3.141593
-278.628049,0.000000,0.000000,-0.242819
112000.000000,112000.000000,6.283185,17.479225
2.59629e-01,-2.07016e-01,-3.23008e-01,
-8.38170e-01,9.84398e-02,-4.03163e-01,
-1.52383e+00,4.25360e-01,4.52176e-01,
-2.05051e-01,3.72602e-01,1.35258e-01,
-7.96403e-01,1.29464e+00,-1.10059e-01,
1.25417e+00,-7.08434e-01,-6.89558e-01,
-3.30856e-01,-1.34170e-01,-1.64597e-01,
3.90948e-01,-2.87715e-02,-3.41370e-01,
4.78760e-02,3.95202e-01,2.12184e-01,
-8.84088e-01,-1.30325e+00,-4.76234e-01,
3.38070e-01,5.17954e-02,2.59064e-01,
3.50920e-01,-1.12316e+00,3.76130e-01,
1.83919e+00,-2.59736e-01,1.99762e-01,
-3.52332e-01,-4.01548e-01,-4.70416e-02,
3.89066e-01,-6.93265e-01,-3.59662e-01,
4.38530e-01,2.85234e+00,-1.18751e-01,
-3.46349e-01,3.11577e-01,9.33324e-02,
5.36384e-02,-1.10203e+00,-7.95513e-01,
-3.01635e+00,6.92299e-01,4.71162e-02,
-2.94470e-01,1.68537e-01,4.29438e-01,
1.20689e-01,-9.21601e-01,-3.62645e-01,
1.41449e-01,1.43529e+00,-3.88112e-01,
-8.10144e-01,-6.93579e-01,1.83402e-02,
-3.67571e-01,-8.59293e-01,-8.80884e-02,
8.22298e-01,3.75697e-01,8.91730e-02,
1.62832e-01,
2.92284e-01,
-6.38120e-02,
-2.93798e-01,
-9.37588e-02,
1.17802e-02,
-2.61963e-01,
2.41482e-01,
1.58244e-01,
1.33879e-02,
-3.01741e-01,
1.53654e-01,
2.70891e-02,
1.93828e-01,
1.20115e-01,
1.85965e-01,
-2.81010e-01,
-1.58924e-02,
7.40266e-03,
2.62693e-01,
2.05594e-01,
-2.08161e-01,
1.23985e-01,
2.21281e-01,
1.22201e-01,
-4.26643e-01,-2.62881e-01,-1.53635e-01,-1.39182e-02,7.17707e-01,-5.31562e-02,1.78471e-01,-2.87965e-01,3.01164e-01,4.44595e-02,-3.46293e-01,7.85525e-04,1.61321e-01,3.00818e-02,-8.23530e-02,-6.07802e-01,1.63843e-01,-1.16714e-01,-1.12011e-03,3.88287e-02,8.39777e-03,4.38612e-01,2.13325e-02,-1.95103e-01,-1.42701e-01,
-3.36498e-01,1.71355e-01,-1.02530e-02,2.69351e-01,3.85812e-01,-1.19264e+00,2.18133e-01,7.09322e-02,2.48942e-01,-1.34290e+00,-7.69880e-02,-8.03116e-02,-5.50507e-01,2.62803e-01,-4.54256e-01,-6.64655e-02,-2.50434e-01,3.17611e-01,-5.66321e-01,3.09714e-01,-3.14626e-01,-3.72744e-02,7.32199e-02,-5.50630e-02,-2.68695e-01,
-2.71253e-01,7.34716e-02,-3.43897e-01,2.97367e-01,3.28371e-01,2.74165e-01,-5.40186e-02,2.90056e-01,-1.72868e-02,-2.55883e-01,-2.42239e-02,-1.03792e-01,-2.66702e-01,1.54121e-01,7.86508e-02,-1.85070e-01,-7.66902e-02,-3.38387e-01,7.57012e-02,4.06454e-02,1.94986e-01,-3.44950e-01,3.24163e-01,-1.57119e-01,1.58850e-01,
2.40317e-01,2.06010e-01,3.54829e-03,-2.80981e-01,-2.37982e-01,-8.64274e-01,-2.79801e-01,1.55377e-02,-1.72777e-01,7.76367e-02,3.32628e-01,-2.48239e-01,6.10740e-01,2.17198e-01,-2.81430e-01,1.55038e-01,-4.92161e-02,-1.77614e-01,9.01216e-01,-8.81133e-03,2.18112e-01,3.51817e-03,1.91558e-02,3.09483e-01,-5.02749e-01,
2.43363e-02,9.11223e-02,5.49845e-02,-1.29930e-01,-5.35795e-01,-7.96802e-03,1.62370e-01,1.75868e-01,-2.01863e-02,-1.33744e-01,2.23889e-01,8.62578e-02,-1.37815e-01,-6.27324e-02,3.75813e-03,2.69604e-01,1.45038e-01,4.37210e-02,-1.45046e-01,3.45844e-01,-1.05970e-01,1.00564e-01,-8.78684e-02,1.84109e-01,-3.51460e-01,
3.12191e-01,-1.19788e-01,-3.69000e-02,2.58223e-01,3.87464e-01,2.05362e-01,3.16718e-01,1.42033e-01,1.10711e-01,-2.98118e-01,-1.94554e-01,3.02393e-01,-2.58828e-01,3.36929e-01,5.74448e-02,-4.76208e-01,1.55122e-02,-1.91308e-01,8.06034e-01,1.98866e-01,3.83625e-01,-2.88987e-01,-1.44462e-01,4.16009e-01,-2.93996e-01,
-1.68656e-02,-1.49815e-01,-1.47957e+00,1.17818e-01,-2.49926e-01,2.50897e-01,3.14165e-01,2.65185e-01,1.02719e-01,3.00834e-01,1.24201e-01,2.51039e-01,-3.59454e-01,2.47015e-01,7.17678e-02,1.16803e-01,1.66136e-01,-8.21230e-01,1.06359e+00,-2.82845e-01,2.19557e-01,1.76578e-01,-1.87590e-01,-9.12313e-02,3.35140e-01,
-2.69130e-01,2.07545e-01,8.21825e-01,1.46545e-01,-1.63155e-01,3.97265e-01,-3.99312e-02,3.14656e-01,-3.44411e-01,-2.05406e-02,-1.92503e-01,-1.61999e-01,1.21802e-01,6.66322e-02,3.43637e-01,-5.39541e-02,7.71904e-02,-3.44783e-01,-4.01188e-01,1.73567e-02,-2.79948e-03,4.21661e-01,-2.34413e-01,1.85083e-01,-5.16523e-02,
-5.50600e-03,1.33377e-01,8.17604e-02,2.21802e-01,2.29802e-01,1.41761e-01,-3.43384e-01,2.85831e-02,-9.51053e-02,-6.23031e-02,1.22196e-01,-5.53176e-02,2.55455e-01,8.92720e-02,1.62060e-01,-2.64281e-01,-1.08159e-01,3.88457e-02,-1.18254e-02,9.56768e-02,-2.84644e-01,1.56468e-01,2.61805e-01,-2.33081e-01,1.77244e-01,
2.95718e-01,5.67714e-02,-1.74697e-01,1.21373e-01,9.41583e-02,-2.05338e-01,2.05598e-01,-1.48048e-01,-2.80599e-01,-5.64821e-02,-1.94979e-01,1.55462e-01,-2.30056e-01,2.84717e-01,2.35209e-01,-2.21175e-01,8.06139e-02,9.29406e-02,1.85758e-02,3.42214e-01,-7.42038e-02,1.73312e-03,3.77785e-01,-3.09930e-01,2.77491e-01,
-2.51627e-01,-1.57770e-01,-2.54340e-01,6.73595e-03,-1.31948e+00,9.88626e-02,2.22819e-01,-4.37509e-03,1.87371e-01,2.97824e-01,-5.93738e-03,-2.59600e-02,-1.13859e-02,-2.88452e-01,2.85316e-01,-2.33859e-01,-2.57945e-01,-4.43351e-01,-3.80689e-01,-6.28678e-02,2.15407e-01,-3.02580e-01,6.18659e-02,1.95852e-01,3.19915e-01,
-3.47169e-01,-7.18941e-01,-1.20730e-01,6.87271e-02,3.34250e-01,-1.16496e-01,-2.29545e-01,1.87949e-01,2.57272e-01,2.65465e-01,-1.89931e-01,4.12059e-01,9.70800e-02,-1.14022e-01,-3.10803e-01,-5.00251e-02,-1.22076e-01,1.64257e-01,1.37118e-01,1.49691e-01,5.58022e-02,-2.56176e-01,2.17728e-01,3.21890e-02,2.28146e-01,
3.07954e-01,1.46040e-01,-4.46722e-02,-2.84863e-02,-1.51849e-01,3.28117e-01,-2.25345e-01,1.22604e-01,-5.72495e-02,2.04518e-01,2.22809e-01,4.77706e-01,-1.07157e-01,-3.07902e-01,-8.01458e-02,1.61890e-01,-3.23126e-01,-9.26153e-01,-1.57873e-01,-2.10812e-01,-1.97912e-01,-2.45741e-01,9.89982e-02,3.89050e-01,2.37161e-02,
3.63433e-01,-3.10301e-02,-7.41083e-01,3.12386e-01,1.27442e+00,9.34909e-03,3.26469e-02,3.25837e-01,3.13014e-01,-3.21300e-01,1.72061e-01,3.79852e-01,3.77616e-01,3.24846e-01,2.04801e-01,-3.81631e-01,-1.91957e-02,-2.02593e-01,-5.30230e-01,3.27153e-01,-1.98137e-02,-2.50136e+00,-1.12411e-01,-8.72337e-02,-1.82812e-01,
-1.00907e-01,8.55140e-02,1.12129e-01,2.38027e-01,2.71174e-01,-3.22396e-02,-1.36459e-01,-4.37720e-01,1.48268e-01,-1.09054e-01,-1.60888e-01,4.65287e-01,2.74010e-02,1.78237e-01,-1.66228e-01,-4.24916e-01,3.06937e-01,-4.10578e-01,2.99327e-01,2.48834e-01,6.57918e-02,2.56973e-01,3.63969e-03,1.56124e-01,-1.81795e-01,
-2.72498e-01,6.38654e-02,1.27441e-02,1.29206e-01,5.00467e-02,-5.35498e-01,2.18262e-01,1.18293e-01,-1.27275e-01,-1.75627e-01,2.11376e-01,-2.52264e-01,2.41126e-01,2.20974e-01,-1.66383e-02,1.25001e-01,-3.19845e-01,3.41628e-01,-4.86732e-01,5.26865e-02,1.44415e-01,7.80781e-02,-9.71581e-02,-3.68742e-01,-8.61674e-02,
-1.42149e-01,1.65421e-01,3.84101e-01,-9.05024e-02,-3.02866e-01,1.71152e-01,-3.56471e-01,6.75649e-02,-3.27871e-01,1.87453e-01,-3.10429e-01,-1.84903e-03,-2.89122e-01,1.04101e-01,-1.18010e-01,3.83017e-01,2.60608e-01,3.30709e-01,1.17230e+00,2.54721e-01,-2.29136e-01,-2.08071e-01,2.50613e-01,-8.26473e-02,-2.21571e-01,
-3.34819e-01,2.67561e-01,4.55338e-01,-1.90636e-01,-9.44085e-03,-2.51398e-02,-7.61873e-02,-1.54704e-01,-3.71652e-02,-3.17321e-01,-1.82894e-01,5.21559e-01,-6.97410e-02,-1.32422e-01,-2.40930e-01,-1.11003e-01,1.23202e-01,-1.24351e-01,4.51394e-01,-1.03653e-02,1.63653e-01,2.91591e-01,2.14619e-01,1.64706e-01,-4.32361e-01,
2.56882e-01,-8.76757e-02,4.23465e-01,1.13448e-01,-8.07214e-02,-1.96976e-01,2.20575e-01,-2.65978e-01,3.06248e-01,9.80713e-02,-4.46768e-03,2.48102e-02,-4.78042e-02,-2.08422e-01,-2.56502e-03,2.78492e-01,-2.30704e-01,-2.24343e-01,-2.10609e-01,-1.46919e-01,2.86531e-01,-3.63252e-01,-2.49671e-01,3.54727e-01,2.43353e-01,
3.88056e-01,1.71672e-01,-4.39983e-01,-8.57823e-02,4.79138e-01,8.98561e-01,-1.46367e-01,-1.60099e-01,1.33326e-01,6.99479e-01,-1.57113e-01,7.86261e-02,-1.81319e-01,-4.96535e-02,-1.86577e-02,-9.78955e-02,5.07596e-03,-4.26824e-01,-3.87104e-01,-2.66698e-01,2.18924e-01,-1.04896e+00,2.02056e-01,3.41202e-01,-2.00832e-01,
8.98464e-02,-1.11855e-01,2.02668e-01,1.31191e-01,8.10104e-02,2.16319e-01,-2.71041e-01,2.80582e-01,-1.32586e-01,1.64177e-01,-1.46808e-01,-4.95431e-01,2.16220e-01,2.92820e-01,-5.95907e-02,6.58392e-02,-2.46118e-02,1.90065e-01,-1.63531e+00,-2.48166e-01,2.96241e-01,-1.16806e+00,-8.17069e-01,-8.70015e-02,3.22009e-01,
-1.36984e-01,1.68330e-01,1.27859e+00,1.03893e-01,-9.59695e-02,-4.75357e-01,-2.82105e-01,6.84849e-02,-1.48238e-01,9.90937e-03,1.14709e-01,5.84428e-02,-5.47810e-01,9.79649e-02,2.52941e-02,-6.84686e-01,-2.76480e-01,3.02427e-01,-7.50567e-01,-2.28225e-01,3.97443e-01,4.00768e-01,3.28903e-01,3.74890e-02,-3.95038e-01,
1.43675e-01,-3.40573e-01,-1.91324e-01,3.18641e-01,2.34855e-01,-1.28496e-01,-3.74731e-03,-2.28180e-01,-1.18262e-01,-1.11642e-01,1.65973e-01,2.86911e-01,-3.26279e-01,-1.76026e-03,-2.62684e-01,-2.71712e-01,-3.16748e-01,-8.36619e-02,-1.22937e-01,3.10161e-01,-1.69885e-03,3.30664e-01,1.65849e-01,-2.64536e-01,-4.95837e-02,
1.18677e-01,3.07455e-01,4.29418e-01,2.40122e-01,-5.80877e-01,-5.39407e-01,3.43294e-01,-1.34847e-01,1.84728e-01,-6.56500e-01,3.24524e-01,-5.82336e-02,-5.51914e-01,-1.15585e-01,-2.30085e-01,3.26236e-01,8.85720e-02,-4.93752e-01,-9.71850e-01,1.92386e-01,-1.24879e-01,2.07961e-01,5.95514e-02,-2.61141e-01,-1.32405e-01,
-1.26975e-01,-1.96940e-01,-4.40608e-01,2.19249e-01,-3.33658e-01,2.62653e-01,-1.64474e-01,-1.64182e-01,-3.14193e-01,-1.43873e-01,5.63412e-02,2.42152e-01,3.72183e-01,1.80480e-01,-2.10279e-01,-4.96286e-03,1.96969e-01,1.95904e-01,9.31120e-01,2.53158e-01,-3.72571e-01,5.60639e-01,2.01524e-02,-1.03231e-01,3.01190e-01,
3.00178e-01,
4.49818e-02,
6.74210e-02,
-1.80862e-01,
1.41297e-01,
-2.51750e-01,
-1.69750e-02,
3.62289e-04,
-3.58572e-01,
1.49176e-01,
1.18430e-01,
-4.13694e-01,
-2.08071e-01,
-9.79606e-02,
-2.55337e-01,
2.28986e-01,
1.78385e-01,
-3.00538e-01,
2.82848e-03,
-9.40034e-02,
-2.37324e-01,
1.27858e-01,
-1.05365e-01,
9.22394e-02,
2.57701e-01,
4.97921e-02,4.91108e-01,7.16301e-02,4.59806e-01,1.61951e-01,-4.46716e-01,6.03298e-02,3.61597e-01,-2.26160e-01,1.60061e-01,5.64150e-02,8.18236e-01,7.62717e-02,-2.29335e-01,2.62744e-01,-1.77845e-01,-1.45951e-01,-3.84271e-01,7.54315e-02,-2.38849e-02,-1.48786e-01,2.23872e-01,-2.52918e-01,7.09012e-02,1.96471e-01,
1.43707e-01,3.43875e-01,-3.06351e-01,-4.40052e-02,-1.08421e-01,-1.98336e-01,7.67158e-02,-3.73824e-01,-3.31070e-01,-1.25206e-01,1.05021e-01,-4.16088e+00,-7.52091e-03,1.03607e-01,6.83357e-01,1.73744e-01,-1.00888e-02,-7.14009e-01,-5.09089e-01,6.40475e-02,8.09556e-02,5.93180e-01,2.45447e-01,1.92041e-01,-3.70030e-01,
4.05777e-01,8.46796e-02,1.56378e-01,2.23012e-01,1.40685e-01,-1.77327e-01,-4.85636e-01,-1.27570e-01,5.14764e-02,-2.97363e-01,-1.75249e-01,2.96387e-02,2.72897e-01,-7.18698e-02,-1.50080e-01,6.43175e-02,1.51683e-01,4.32466e-02,-2.99088e-01,1.81265e-01,-2.88194e-01,-2.23920e-01,-1.38696e-01,4.11972e-02,1.86009e-01,
3.64212e-03,2.98846e-01,2.16174e-01,1.67977e-01,-7.24881e-02,-3.60018e-01,-3.56371e-02,9.86827e-02,-8.71853e-02,-1.50942e-02,2.11137e-01,-3.32263e-01,-2.28206e-02,-1.94389e-01,4.02354e-01,-1.38820e-01,6.33905e-03,-2.05809e-01,-8.32315e-02,-2.75132e-03,-1.88512e-01,-5.76938e-02,-3.22355e-01,6.06244e-02,-6.56773e-02,
4.02285e-02,4.05774e-01,2.95175e-01,-1.32106e-01,2.83278e-01,-2.73869e-01,-2.40463e-01,3.91814e-02,3.12067e-01,2.86385e-01,-2.34479e-01,2.61014e-01,-3.37374e-01,2.22216e-01,-2.72478e-01,-1.84810e-01,6.49141e-02,1.15684e-01,5.87944e-02,2.02459e-01,-1.53314e-01,-8.77954e-02,1.56050e-01,-4.03220e-01,3.22462e-01,
1.06258e-01,1.31678e-01,-5.78634e-02,4.61857e-01,2.16486e-01,-3.81000e-01,7.23607e-02,1.57671e-01,-1.64159e-01,5.90379e-02,1.77806e-01,1.28549e-01,1.50554e-02,1.35377e-01,-4.26435e-01,3.54700e-01,-2.00745e-01,6.66939e-01,1.34044e-01,-1.75454e-01,4.07506e-01,-6.85381e-02,-3.12351e-01,1.17864e-01,-2.67594e-01,
1.53861e-01,5.01713e-01,-3.53890e-01,-2.39890e+00,-6.43655e-02,3.24010e-01,-6.91270e-01,-6.27237e-01,1.47432e-01,1.83787e-01,1.62413e-01,-4.80598e-01,-6.46724e-01,2.29335e-01,1.30507e-01,-9.39504e-02,-3.94612e-01,-4.26604e+00,3.82954e-03,1.63984e-01,-2.29902e+00,-3.22746e-01,-2.52548e-01,4.68413e-01,-2.38348e-01,
6.69357e-02,-1.07888e-01,-3.39169e-02,3.79770e-01,-1.25375e-01,-4.93570e-01,-2.12554e-01,7.15124e-02,-6.69828e-02,-5.90007e-02,-2.74131e-02,4.59258e-01,7.15921e-01,4.56997e-02,-4.84109e-01,-4.61720e-02,-1.33190e-01,3.15976e-01,-5.89285e-02,-4.55983e-01,5.94133e-01,2.35940e-01,1.09102e-01,2.33521e-01,-2.34204e-01,
-3.08103e-01,1.35196e-01,-3.85522e-01,-1.54839e-01,-3.71209e-01,-3.20501e-01,1.68674e-01,-2.59221e-01,-1.75664e-01,-2.24918e-01,-1.91882e-01,-7.68262e-02,2.71956e-01,1.01316e-01,-1.07117e-01,-2.99438e-01,-2.28742e-01,-2.63852e-01,-1.36953e-02,-4.76627e-04,1.35672e-01,-1.01800e-01,1.51237e-01,-9.93697e-02,-1.98944e-01,
2.35789e-01,-3.39856e-01,-3.48076e-01,3.11273e-01,-5.95041e-03,1.83952e-01,-9.84849e-02,2.88719e-01,2.03899e-01,-5.33785e-02,-4.42614e-02,-1.54014e-01,-4.47851e-01,-2.98709e-01,2.76681e-01,2.57853e-01,3.68341e-02,-1.08711e-01,1.71945e-01,-5.72629e-03,1.27698e-02,1.01805e-01,3.31432e-02,1.38621e-01,-1.78420e-01,
-8.82881e-02,-1.01620e-01,2.74742e-01,1.29458e-01,5.42296e-02,2.78981e-01,-5.55214e-03,9.07840e-02,2.45111e-01,-1.87148e-01,2.50004e-01,6.12336e-03,-3.00286e-01,-8.95375e-02,-2.50232e-01,2.01975e-01,-2.77764e-01,-1.16765e-01,-3.38868e-01,-2.16702e-01,-5.83245e-02,-2.14856e-01,1.93134e-01,4.49055e-02,-1.46061e-01,
5.13324e-01,-2.49844e-01,3.67043e-02,-4.29125e-01,-2.27632e-01,-8.54307e-01,3.08479e-01,-2.03536e-01,2.68320e-01,8.07185e-02,-5.04158e-01,1.89821e+00,5.22374e-01,-3.37873e-01,1.64364e-01,5.74338e-01,-6.43634e-02,6.91089e-02,2.89072e-01,9.56868e-03,-6.17318e-01,8.93939e-01,-2.59494e-01,3.32062e-01,-2.88179e-01,
-4.01066e-01,-3.61929e-01,-7.29967e-02,5.05535e-01,-1.81522e-01,-4.82461e-01,2.81040e-01,6.39997e-02,-3.19725e-01,-3.53985e-01,2.42624e-01,2.16807e-01,-5.84923e-01,2.11039e-01,6.53725e-01,-1.23740e-01,-4.50401e-01,7.02577e-01,-6.39583e-02,-5.10300e-02,-1.41729e-02,-9.30019e-01,-2.04328e-01,2.42934e-01,-1.51460e-01,
-2.06682e-01,4.95704e-01,5.86216e-02,1.59541e-01,-1.02829e-01,1.81477e-01,-7.43249e-02,2.12292e-01,2.52368e-01,1.03401e-01,6.79856e-02,-4.71066e-01,-2.89629e-02,2.54393e-01,1.60996e-01,-2.55289e-01,3.87543e-02,-3.18991e-02,2.14707e-01,-6.64712e-02,-1.53956e-01,3.06428e-01,3.03605e-01,-4.24573e-01,-3.61504e-01,
-2.18996e-01,1.28651e-01,7.57257e-02,-1.66454e-01,-2.16993e-01,1.83333e-01,1.07059e-01,-3.37709e-01,-4.85541e-02,1.30302e-01,-3.78227e-02,1.62027e-01,-2.40298e-01,-1.98733e-01,1.81548e-01,-3.46166e-01,-1.98899e-03,-2.17630e-01,-9.45827e-02,-3.04360e-01,2.88786e-01,2.80196e-01,-3.28029e-01,-1.35485e-01,5.39641e-02,
-1.11842e-01,5.27139e-02,-8.81248e-02,1.25844e-01,-4.16500e-01,-8.31571e-02,-1.66113e-01,-1.63934e-01,-2.13005e-01,-1.40568e-01,3.44835e-01,1.13251e-02,8.88446e-02,-2.97046e-01,-2.03714e-01,1.87337e-01,4.96192e-02,1.61469e-01,-2.10891e-02,-3.33937e-01,2.02752e-02,5.95914e-02,3.81064e-02,-2.67758e-01,2.08913e-01,
6.76557e-01,-1.17020e+00,-1.03149e-02,-4.75548e-01,-1.89026e-01,5.49144e-01,3.07199e-01,-3.90417e-01,-1.15944e-01,-1.39798e-01,2.27122e-01,-3.79765e-01,-5.09147e-01,3.94599e-01,-7.75838e-01,-2.07790e-01,1.17364e-01,2.63069e-01,5.60004e-02,1.08492e-01,2.87081e-01,-1.11947e-02,1.69954e-01,2.90706e-01,-5.67114e-02,
-2.24619e-01,1.34608e-01,-2.47678e-01,3.69951e-02,-1.61863e-01,-8.43629e-02,-3.20435e-01,1.91937e-02,-2.93382e-02,-2.92623e-01,-1.08240e-01,-7.60314e-01,-8.34989e-01,-1.57518e-01,-1.74254e-01,-1.82348e-01,3.19512e-01,3.26789e-01,-1.56283e-01,1.43154e-01,-8.89313e-01,-1.55365e-01,-3.34888e-02,3.52330e-01,2.82290e-01,
-3.03604e-01,-8.99260e-02,-2.24528e-01,-4.39168e-01,2.69487e-01,-6.78665e-03,2.95728e-02,-3.96236e-01,-1.99789e-01,7.03588e-02,-1.94955e-01,1.30655e-01,1.19536e+00,-1.03764e-02,-1.12223e-01,4.81797e-01,5.54126e-02,-1.09078e-01,5.77389e-02,-2.84515e+00,-2.97922e-01,-1.09279e-01,2.50890e-01,4.77118e-01,-6.18478e-02,
1.19075e-01,-1.15939e-01,-2.54278e-01,3.25048e-01,-2.05019e-01,-2.13959e-01,-1.21121e-01,1.47857e-01,-3.05713e-01,1.63523e-01,-2.92842e-01,3.99490e-01,-1.46869e-02,2.52132e-01,-3.14695e-01,1.68127e-01,8.43999e-02,2.73862e-01,-1.34894e-02,-6.51027e-02,2.56420e-01,1.00984e+00,1.67792e-01,2.84401e-01,-2.42142e-01,
-3.24733e-01,-3.24548e-01,6.23879e-02,2.86806e-01,-2.03128e-01,-2.58151e-01,-1.25895e-02,3.08139e-01,-2.04168e-01,5.97335e-02,1.38680e-01,-1.75789e-01,-2.89838e-01,-3.44128e-01,-1.57551e-01,-7.12038e-02,-2.65101e-01,3.27979e-01,2.23948e-01,2.50687e-01,-2.99244e-01,-1.73490e-01,-1.85643e-01,3.04403e-01,4.70717e-02,
2.44849e-01,-2.78323e-01,-2.45078e-01,1.01972e-01,2.74770e-01,8.02712e-02,1.66300e-01,2.27991e-01,-8.08147e-02,-1.56887e-01,4.37228e-04,-2.40858e-01,-3.33680e-01,-2.07016e-01,6.10058e-02,-5.76483e-02,-2.35800e-01,2.84889e-01,1.07225e-01,-2.20240e-01,-1.93146e-01,-2.32842e-01,-2.57532e-01,-1.86778e-01,3.78699e-02,
1.73645e-01,-3.03754e-01,-3.98827e-01,5.63588e-01,-2.90938e-02,3.90713e-01,-3.93025e-01,-2.93348e-01,3.24692e-01,-1.93117e-01,1.61429e-01,-3.54491e-01,4.53128e-01,-9.27041e-02,-4.21769e-01,-2.08919e-01,-4.33279e-01,3.53176e-01,1.79907e-02,-4.43349e-03,-2.94303e-01,1.29202e-01,1.43858e-01,-6.31725e-02,3.22516e-01,
-1.17186e-01,-3.63261e-01,2.40170e-01,-1.46988e-02,-2.19652e-01,5.16874e-01,-2.65209e-01,-2.45538e-01,-9.98246e-03,-2.41884e-02,1.76798e-01,1.70368e-01,-4.84605e-01,5.41107e-01,2.50303e-01,1.50228e-01,-2.27939e-01,-8.14885e-01,-8.57305e-02,2.59841e-01,-2.55974e-01,2.26829e-01,2.21014e-01,-4.45210e-01,2.73051e-01,
-1.93716e-01,-7.82948e-02,-1.45850e-01,1.72691e-01,3.53510e-01,2.85399e-01,1.90062e-01,-3.69801e-02,-5.20749e-02,3.17428e-01,1.44601e-01,5.60057e-01,1.24352e-01,-1.35206e-02,1.07063e-01,-7.66782e-02,2.86451e-01,-3.79193e-01,-1.63955e-01,-4.13899e-02,1.38989e-01,-8.38044e-02,-1.64635e-01,-1.49660e-01,5.64069e-02,
-5.06478e-02,
8.64017e-02,
1.90196e-01,
3.43831e-01,
9.02500e-02,
1.89194e-01,
5.13767e-02,
2.41911e-01,
1.57294e-01,
1.34550e-01,
-2.98031e-01,
1.21803e-02,
2.62089e-01,
1.09109e-01,
-2.64957e-01,
-4.31899e-01,
-1.94207e-02,
-5.58174e-02,
7.34872e-03,
9.90849e-02,
-2.82319e-01,
-3.52365e-01,
4.41438e-02,
-4.62080e-04,
-1.33500e-01,
-6.90493e-02,2.28859e-01,2.55974e-01,1.04606e-01,1.13765e-01,4.16285e-01,-9.51975e-02,3.12484e-01,-1.88545e-01,-2.76831e-01,-3.32905e-02,3.12841e-02,-2.22879e-01,3.74292e-01,-1.27614e-01,-3.14576e-01,2.53175e-01,-2.46540e-02,-4.67072e-01,5.54107e-02,-7.64207e-02,3.03055e-01,2.73896e-01,-2.42727e-01,-2.12792e-01,
2.63463e-01,1.00157e-01,-4.29610e-02,5.22008e-02,-1.55525e-01,-2.66302e-01,2.91212e-02,3.13410e-01,-1.39277e-01,-1.65563e-02,-9.09337e-02,2.34530e-01,2.45194e-01,2.47810e-01,-1.45537e-01,3.15752e-02,-1.20693e-01,7.78007e-02,2.53917e-01,-1.21830e-01,-2.97467e-02,2.01241e-01,1.31163e-02,2.53088e-02,-4.32627e-01,
2.08084e-02,1.78962e-02,2.00396e-02,-3.01824e-02,1.77276e-01,1.09775e-01,-6.79909e-02,-3.18182e-01,3.22279e-01,-5.54562e-02,-7.37433e-02,9.31018e-02,2.97582e-01,1.67803e-01,-1.06104e-01,-9.84181e-02,-2.36530e-01,-1.66552e-01,3.87121e-01,-2.67089e-01,-1.55969e-01,-1.38421e-01,1.06987e-01,3.40962e-01,2.36287e-01,
5.68075e-02,-2.37696e-01,-2.77732e-01,1.88390e-01,3.20310e-01,-2.06125e-01,-2.03634e-01,3.21360e-01,-1.75289e-01,-2.07401e-01,-2.56088e-01,1.13456e-02,-3.92032e-01,1.13295e-01,-3.24997e-01,2.26991e-01,2.87871e-01,2.53075e-01,-1.21644e-01,1.80933e-01,-1.78317e-01,-2.52412e-01,2.22761e-01,-3.04600e-01,-1.21386e-01,
2.71754e-01,5.14242e-03,-4.34400e-01,6.15976e-02,-2.29220e-01,-2.84393e-01,1.30630e-01,1.25039e-01,2.15005e-01,-1.26841e-01,3.27900e-01,-6.94343e-02,2.56194e-01,-6.79798e-02,2.40684e-01,6.47585e-02,4.18887e-01,-4.03381e-01,-8.39692e-01,-7.81466e-01,3.45903e-01,1.49857e-01,-2.59330e-01,9.77072e-02,-4.88199e-01,
-1.07711e-01,-8.14058e-01,-1.14372e-01,-2.12810e-01,-1.72622e-01,3.94192e-01,-2.31755e-01,-1.64808e-01,3.02251e-01,-3.41477e-01,8.88534e-02,1.94984e-01,-8.42615e-01,1.04356e-01,8.39086e-02,-7.14096e-02,3.57968e-01,-2.08027e-01,-4.52571e-01,-2.78524e-03,-2.66286e-01,1.64592e-01,2.46136e-01,-4.24121e-01,2.37338e-01,
-2.55553e-01,3.87858e-01,-1.27772e-01,9.87255e-02,-5.39337e-01,-1.61279e-01,1.38592e-01,8.16101e-02,3.23145e-01,4.64710e-01,9.06728e-02,-1.53475e-01,5.48109e-02,-4.53447e-01,3.25626e-01,-2.76180e-01,-4.64298e-01,2.78032e-01,3.74590e-01,-4.05477e-01,-8.96399e-02,-1.59319e-01,-7.84886e-01,5.84952e-01,-4.74409e-02,
-6.48269e-02,-4.70738e-02,-7.84222e-02,-2.83656e-01,-1.91991e-01,-1.13930e-01,4.99292e-02,-8.91596e-02,1.90039e-02,-3.28826e-01,-3.18734e-01,2.88367e-02,3.99248e-02,1.91318e-01,6.41904e-02,-6.58237e-02,2.07400e-01,-1.68673e-01,8.93310e-03,2.00232e-01,1.05150e-01,-4.87158e-02,-1.96842e-01,5.79931e-02,-8.87726e-02,
6.97676e-01,7.10061e-02,1.08690e-01,-1.53234e-01,-2.70358e-01,-4.41373e-01,-6.44013e-02,1.92198e-01,3.16788e-01,1.88998e-01,1.58118e-01,-3.47584e-01,4.23333e-01,2.65178e-01,4.90345e-02,1.04857e-01,9.08831e-02,-8.26294e-02,3.62017e-01,-2.13382e-02,-3.45092e-01,-2.72308e-01,-6.75457e-01,1.51069e-01,6.70171e-02,
5.74886e-01,-3.19966e-01,-1.78027e-01,-9.98404e-02,-3.96182e-01,-3.67026e-01,2.51742e-01,4.68035e-01,-4.25962e-03,4.68090e-01,-3.06484e-01,1.30724e-01,6.03049e-01,-1.33946e-01,1.90414e-02,-2.68317e-01,2.89171e-01,1.07232e-01,-2.74758e-01,-2.21957e-01,3.11157e-01,-2.40784e-02,-2.56282e-01,6.05372e-01,2.01514e-01,
-9.74032e-02,-1.30049e-01,-1.26858e-01,-8.86017e-02,-1.94125e-01,-1.10114e-01,2.88264e-01,1.30662e-01,2.77083e-01,2.76206e-02,-3.10410e-01,-3.95322e-02,4.31929e-02,-4.24725e-02,8.83741e-02,-1.94454e-01,-2.22544e-01,-2.70129e-01,-6.51060e-02,-1.48463e-01,7.48288e-02,3.23752e-01,-3.14600e-01,3.15500e-01,-2.58916e-01,
1.90375e-01,-2.34962e-01,3.28334e-01,2.64147e-01,2.82174e-01,1.99753e-01,1.28842e-01,-4.80489e-02,2.12070e-01,-1.06617e-01,3.43081e-01,1.68645e-01,3.89307e-01,-1.15092e-01,3.15038e-01,2.08844e-01,-2.26125e-01,-3.43069e-01,6.34820e-01,-1.87016e-01,-2.79632e-01,-3.40277e-01,4.09008e-01,-1.85482e-01,-1.03764e-02,
-3.26231e-02,2.44623e-01,-3.30703e-01,7.55553e-02,-2.56343e-01,-4.27275e-02,2.44232e-01,-3.18865e-02,-2.50714e-01,6.27459e-02,3.29143e-01,2.00172e-01,-2.87179e-01,-1.44423e-01,-3.11685e-01,-3.19061e-01,7.99178e-02,-1.89844e-01,-2.59156e-01,4.63021e-03,-1.14227e-01,-1.27059e-01,-3.31030e-01,2.73099e-01,-2.89508e-01,
2.14832e-01,1.19167e-01,-2.99401e-01,1.24232e-01,-4.23840e-02,-1.61494e-01,6.48031e-01,-7.20003e-02,-1.76172e-01,1.51018e-01,-3.29473e-01,7.10332e-01,4.77767e-01,-1.92347e-01,2.35460e-01,-1.39891e-01,-1.36607e-01,1.77112e-01,-7.12693e-01,-8.40655e-02,3.17325e-01,2.23776e-01,-2.64497e-01,1.62253e-01,8.74691e-02,
3.24063e-01,-1.58913e-01,1.71466e-01,2.40159e-01,7.99628e-02,2.80516e-01,-1.50935e-01,-2.51820e-01,-7.56704e-02,-5.07570e-02,2.66363e-01,-5.67428e-02,-2.20375e-01,1.37642e-01,-2.43278e-01,-1.48481e-01,2.41678e-01,-2.55491e-01,-1.67954e-01,-8.85912e-02,-5.24473e-02,-1.58930e-01,-1.41158e-01,-1.87837e-01,2.67581e-01,
3.37760e-01,2.49327e-01,-7.98292e-02,-1.87461e-01,-2.75225e-01,-1.57850e-01,-1.64031e-01,8.42189e-02,2.35883e-02,-1.13525e-02,-2.66730e-01,2.54147e-01,-2.32539e-02,-7.20531e-02,-9.44391e-03,1.56269e-01,-1.68583e-01,1.50944e-01,3.08586e-01,2.22046e-01,-1.49004e-01,-6.81415e-02,-1.71569e-01,-2.11751e-01,9.32014e-02,
-1.04007e-01,1.17258e-01,-1.90606e-01,-1.87986e-01,2.74822e-01,1.49773e-01,-1.99000e-01,2.14051e-01,-2.53244e-01,2.11463e-01,3.42910e-01,-1.06149e-01,2.01641e-01,1.22935e-02,-1.85832e-01,-4.00913e-02,-4.03543e-02,-6.89345e-02,2.22037e-01,-1.50836e-01,-9.29139e-02,3.61752e-02,1.72306e-02,-3.04261e-01,3.69210e-02,
-2.74890e-01,6.58691e-01,1.23206e-01,2.39552e-01,3.11970e-01,-3.69298e-01,-1.11631e-01,-1.07890e-01,-6.16293e-02,-1.67841e-01,2.16098e-01,-1.32090e-01,2.67956e-01,-1.91743e-01,2.08953e-01,2.97580e-01,-5.21057e-02,2.15734e-02,1.82141e-01,1.75206e-01,-7.78475e-02,-6.08402e-02,4.63007e-02,-2.47814e-01,-3.17901e-02,
-2.32146e-01,-2.21598e-01,4.37404e-02,-2.73794e-02,4.91246e-02,2.49602e-01,1.40882e-01,-1.66375e-01,4.33391e-02,4.77800e-02,1.12297e-01,8.49532e-02,-1.57787e-02,1.54245e-01,1.20634e-01,-3.45925e-02,-6.06865e-02,-4.90167e-02,-6.12406e-02,8.49778e-02,2.17783e-01,6.35382e-02,2.95095e-01,4.93154e-01,5.74006e-02,
-3.95836e-02,1.72876e-01,2.92461e-01,-3.37305e-01,1.56935e-01,-1.73735e-01,-2.48229e-01,-9.57111e-02,-2.48640e-01,-3.23770e-01,7.18563e-02,2.12327e-01,-2.58863e-01,-5.13229e-02,-1.20412e-01,1.31576e-01,1.81126e-01,7.91959e-02,1.38639e-01,9.47295e-02,-2.08990e-01,2.25310e-01,2.51560e-01,-1.22177e-01,-3.09121e-01,
5.65653e-03,-9.60860e-02,-1.67775e-01,1.93914e-01,1.31958e-01,3.10030e-01,-3.51035e-01,-3.43854e-02,-2.40671e-01,-8.73717e-02,2.94861e-01,7.61966e-03,-4.58423e-01,1.63712e-01,1.11152e-01,2.07965e-01,9.48579e-01,-2.15889e-02,-3.39254e-01,5.86139e-02,-1.40069e-02,2.31763e-01,8.15035e-01,-8.01834e-01,-1.35818e-01,
6.78959e-01,-1.13202e-02,-2.66354e-01,-4.19673e-01,9.01460e-03,-1.41929e-01,7.76205e-01,6.32700e-01,3.52798e-01,1.07983e-01,-8.94364e-02,5.20186e-01,7.07890e-02,-1.63801e-01,-3.87524e-02,3.28956e-01,2.83774e-01,4.12540e-02,-4.46449e+00,3.68791e-01,1.84691e-01,-7.19353e-03,1.06360e-01,-4.23694e-02,3.75197e-01,
1.08208e-01,-1.45025e-01,-1.39939e-01,2.27977e-01,1.70914e-01,9.50336e-02,1.67768e-01,-5.70639e-02,-2.53237e-01,3.61905e-01,9.33889e-02,1.54546e-01,-1.18530e-01,-9.44913e-02,2.36800e-01,6.92116e-02,1.37011e-01,9.34529e-02,2.60622e-01,2.15588e-01,1.23935e-01,4.85954e-02,-9.96483e-02,1.65400e-02,7.33605e-03,
2.50393e-01,-4.40435e-02,2.59644e-03,-1.35777e-01,1.64134e-01,2.42361e-01,1.13625e-01,1.08601e-01,-1.49758e-01,2.33587e-01,6.38841e-02,-2.87213e-02,-4.03574e-01,-1.37238e-01,2.43639e-02,2.54655e-01,1.04372e-01,-1.73513e-01,6.27108e-01,-1.85529e-02,-3.08285e-01,-2.33353e-01,-2.74417e-01,-8.77734e-02,2.21952e-01,
9.10591e-02,5.67410e-01,-1.84794e-01,2.61592e-01,-2.60361e-01,-3.40337e-01,2.39242e-01,9.22254e-02,-9.92131e-02,-6.04990e-01,-3.43184e-01,-3.34622e-01,6.52560e-01,3.02511e-01,2.70319e-01,2.21830e-01,-2.55322e-01,-2.55106e-01,-5.05075e-02,-1.98649e-01,2.84269e-01,-7.88853e-02,7.00264e-02,3.18773e-03,3.07699e-01,
-1.13248e-01,
1.70692e-01,
-1.96398e-02,
2.19927e-01,
4.36752e-02,
1.51328e-03,
1.67144e-01,
-2.04744e-01,
-8.08881e-02,
-3.90335e-01,
-1.93764e-01,
-2.77252e-01,
-2.78537e-01,
1.96603e-01,
-2.94428e-02,
-2.37820e-01,
1.53504e-01,
3.42406e-01,
2.61598e-01,
-2.89789e-01,
-1.04427e-02,
-1.16019e-01,
-1.13871e-01,
4.58544e-02,
5.80241e-02,
3.12533e-01,1.21375e-01,-3.43466e-01,-1.65488e-02,-3.03040e-01,-7.68778e-02,6.22616e-02,1.04303e-01,-3.33622e-01,-8.36966e-02,-3.31868e-01,1.08113e-01,3.27132e-01,1.68545e-01,-6.91388e-02,9.48603e-02,1.82860e-02,1.54824e-01,-5.21203e-02,-3.12591e-01,-1.14787e-01,-2.37583e-01,-7.51714e-02,2.78803e-02,3.32211e-01,
-1.18304e-01,3.29214e-03,-3.34676e-01,-2.30842e-01,-1.33208e-01,-3.27526e-01,-9.33016e-02,7.28271e-02,-2.36439e-01,-5.73674e-02,-8.98626e-02,-3.12877e-01,-2.02771e-01,2.39371e-01,1.29478e-01,2.17797e-01,3.13516e-01,-2.79420e-01,-1.34446e-02,-5.48977e-02,-1.18195e-01,-9.78239e-02,-1.32258e-01,1.74103e-01,-1.49732e-01,
-1.01403e-01,8.35461e-02,-1.06639e-01,1.02398e-01,2.09371e-01,2.61761e-01,1.92561e-02,3.40648e-01,6.73949e-02,3.65905e-02,1.37832e-01,-1.33558e-01,2.25240e-01,1.27160e-01,2.33696e-01,-6.34750e-02,2.34258e-01,1.61059e-01,1.91052e-01,2.49268e-01,-2.52888e-01,2.76174e-01,1.82104e-01,-1.89998e-01,-8.08361e-02,
1.13685e-01,6.43676e-02,1.82723e-02,3.21155e-01,-2.88671e-01,1.55144e-01,2.96202e-01,-2.29711e-01,-4.79416e-02,2.42366e-02,-3.34749e-01,-2.02037e-01,-2.31522e-01,4.62732e-02,3.52834e-01,-1.74157e-01,3.18021e-01,2.49925e-01,2.37916e-01,5.11110e-02,2.53381e-01,-2.19663e-01,6.59968e-02,7.43695e-02,-1.92358e-01,
-5.51093e-02,3.40348e-01,-6.98702e-02,-3.64672e-01,-1.80888e-01,-1.40619e-01,2.06473e-01,1.22626e-01,-1.95908e-01,5.79060e-03,-1.44459e-01,1.99047e-01,4.27491e-02,1.91612e-01,-4.68986e-02,-1.57357e-01,-3.21279e-01,-2.93348e-01,2.47964e-01,-1.45369e-01,-2.12908e-01,-2.92307e-02,5.60078e-02,-3.39878e-01,-5.45662e-02,
-1.70729e-01,2.74231e-01,2.17823e-01,-2.96818e-01,1.82109e-01,-1.48884e-01,6.01970e-02,-1.05844e-01,2.51422e-01,2.12778e-01,-1.38169e-01,2.91363e-01,-2.46538e-01,6.98023e-02,-1.00553e-01,3.42330e-02,2.27567e-02,-1.43277e-01,-1.53692e-01,3.06049e-01,1.48842e-02,-9.47965e-02,1.20771e-01,-2.85518e-01,2.07906e-02,
-1.22313e-01,1.02583e-01,-2.86623e-01,-2.33454e-01,7.92937e-02,-1.90799e-01,-3.40937e-02,-2.83358e-01,-1.92880e-02,7.58031e-02,3.17623e-01,2.51816e-01,-1.29827e-01,2.98595e-01,6.41073e-03,1.87938e-01,2.76668e-01,-2.22133e-01,3.18377e-01,-1.86126e-01,-3.13719e-02,5.05650e-02,-7.09966e-02,1.51753e-01,4.86917e-02,
1.07616e-01,-2.73710e-01,1.97265e-01,4.35783e-02,-3.41463e-01,2.78201e-01,-1.50107e-02,2.85543e-01,-3.43144e-01,-1.86906e-01,-3.63666e-02,8.40097e-02,7.40294e-02,-9.25667e-02,9.42736e-02,3.15418e-01,-3.44097e-01,-3.30762e-01,4.62297e-02,2.68911e-01,1.20826e-01,-2.42617e-01,2.51528e-01,1.44617e-01,-5.27463e-02,
1.70997e-01,1.56380e-01,1.25714e-01,-3.11225e-01,-1.54042e-02,-3.37885e-01,-2.21979e-01,1.03714e-01,2.08259e-01,2.96537e-01,3.00324e-01,2.72070e-01,2.90047e-01,-3.29377e-01,1.86578e-01,2.10138e-01,-2.34651e-01,-4.29029e-01,-1.57656e-01,2.08979e-01,-2.57639e-01,2.71793e-01,1.76161e-01,-4.04824e-01,-1.11432e-01,
-1.56582e+00,-3.90534e-01,2.85143e-01,2.59854e-01,-8.31289e-01,-2.06540e-01,-5.36776e-01,1.16279e-01,2.22752e-01,-1.97586e-01,-3.70311e-02,-4.92354e-01,3.13929e-02,-4.55936e-01,-2.22548e-01,3.27098e-01,-2.70767e-02,-2.55351e-01,5.38241e-02,-1.67973e-02,-1.99998e-01,2.10984e-01,3.84837e-01,-1.25029e-02,-1.15680e+00,
-4.95738e-01,5.36135e-01,9.78444e-02,-1.86466e-01,1.32873e-01,6.74322e-02,-4.18078e-01,1.72425e-01,-8.16514e-02,-1.21312e-01,-3.27637e-01,-3.70486e-01,3.11819e-01,1.21568e-01,2.59155e-01,-2.98578e-01,-2.06332e-01,3.39875e-01,5.25781e-02,1.26210e-01,-4.08331e-01,1.30355e-01,2.43939e-01,1.21812e-01,-2.12619e-01,
-3.29320e-01,1.51192e-01,5.74125e-02,-7.17993e-02,-3.03153e-03,-1.90694e-01,-1.93583e-01,-2.06967e-01,2.53794e-01,8.57743e-02,-1.53005e-01,4.04388e-01,-1.74076e-01,2.74704e-01,1.91354e-01,-1.23306e-01,-9.09187e-02,-8.48329e-03,2.69633e-01,-1.20624e-01,-2.62959e-01,-8.10207e-02,-1.02031e-01,2.19106e-01,6.52231e-02,
2.33777e-01,-2.18586e-01,1.86109e-01,-1.32501e-01,-2.29483e-01,-4.06074e-01,4.11590e-01,-6.93347e-02,-2.08379e-01,2.39605e-01,3.27564e-01,2.09237e-01,1.12945e-01,-2.20409e-01,1.71490e-01,2.25507e-02,9.61836e-02,2.10631e-01,2.89346e-01,-2.19047e-01,2.61570e-02,-1.88367e-01,-1.67931e-01,-2.95253e-01,8.78270e-02,
-2.65368e-01,-3.15854e-01,-3.94679e-01,-2.00909e-01,-2.41240e-01,-2.57068e-01,-7.83148e-02,-3.03261e-01,9.86695e-04,2.09500e-02,-1.53212e-01,-3.32389e-01,2.21293e-01,1.71000e-01,1.41934e-01,-1.40480e-01,-1.78479e-02,7.40625e-02,-3.63816e-01,2.50093e-01,1.59526e-01,2.91079e-01,1.74277e-01,-1.20877e-01,-3.02194e-02,
-2.26454e-01,1.40139e-01,-4.52351e-01,-3.14333e-01,-2.45703e-01,-2.91461e-01,7.34143e-02,-2.20673e-01,2.20000e-02,3.28625e-01,-1.25259e-01,-1.60254e-02,-1.98056e-01,1.85980e-01,4.19242e-02,2.08170e-01,-1.69567e-01,7.13079e-03,2.62778e-01,-2.36953e-01,-3.70811e-01,-2.07031e-01,-3.16341e-02,2.91179e-01,5.62954e-02,
1.98970e-01,-3.80864e-01,-6.62019e-02,-8.37680e-03,3.35859e-01,5.26941e-01,-1.97902e-01,-2.97098e-01,1.14804e-01,5.40252e-02,1.48829e-01,-3.58604e-01,8.87747e-02,-6.71780e-03,1.07714e-01,-1.13204e-01,2.29527e-01,-5.39070e-02,2.62536e-01,1.08935e-02,-1.39029e-01,2.39370e-01,-2.40258e-01,4.52042e-02,2.98150e-01,
1.67852e-01,-2.33011e-01,-1.98610e-01,1.40141e-02,3.59088e-03,8.12724e-03,-9.47476e-02,6.70581e-02,1.67922e-01,1.59747e-01,-1.95696e-01,-1.16930e-01,-1.07215e-01,-2.49302e-01,-2.54915e-01,-1.62889e-01,-8.81127e-02,1.92708e-03,-2.51701e-01,3.81775e-02,2.98648e-01,-9.85861e-03,-7.16042e-02,-1.12325e-01,-1.88342e-01,
-6.94024e-02,-2.83289e-01,1.76568e-01,1.75481e-01,-3.06037e-02,-1.94104e-01,-6.99833e-02,-3.22206e-01,2.27485e-01,2.80588e-01,-1.81928e-02,-6.98070e-02,-9.61458e-02,1.52079e-01,2.05401e-01,4.17047e-02,-4.15798e-01,1.67752e-02,-3.22945e-01,1.56937e-01,-4.10215e-01,-3.77111e-02,8.99814e-02,-2.88539e-01,-2.14447e-01,
1.85525e-01,6.07709e-02,9.89995e-02,8.97561e-02,-7.76377e-02,-3.87878e-02,-8.25174e-03,2.63807e-01,-2.69531e-01,1.20331e-01,-3.15673e-01,-4.93496e-01,1.50947e-01,-2.97729e-01,1.77670e-01,3.16528e-01,3.57091e-01,-1.58064e-02,1.83229e-01,-2.64450e-01,1.22482e-01,-4.52402e-02,3.66631e-01,2.75281e-02,2.59991e-01,
-1.43163e-01,-1.32582e-01,3.18935e-01,1.90203e-02,2.03368e-01,2.97962e-01,-1.81218e-01,1.72184e-01,2.20215e-01,2.10801e-01,-3.42476e-01,3.84527e-02,1.30928e-01,1.91541e-01,2.54143e-03,2.27918e-02,1.58898e-01,-1.93475e-02,3.08621e-01,2.09945e-01,-5.21496e-01,1.52814e-01,1.60743e-01,-1.19533e-01,3.17928e-01,
-4.41623e-01,2.27560e-01,-2.54470e-01,-3.49721e-01,3.16756e-01,-3.84382e-01,-7.85278e-01,2.39786e-01,1.65506e-01,-3.89868e-01,3.37257e-01,1.93812e-01,7.26921e-02,4.27719e-01,-2.04901e-01,1.86711e-01,-1.10170e-01,-1.39653e-01,-1.78630e-01,2.26802e-01,-3.34063e-01,6.00314e-01,1.18577e-01,1.21285e-01,-2.08480e-01,
1.76466e-01,-1.77830e-02,-3.48246e-01,1.68635e-01,-5.39929e-02,-3.40663e-01,1.07017e-01,-1.84368e-01,1.09182e-01,7.18025e-02,2.72595e-01,3.57807e-01,-2.72918e-01,4.04939e-02,2.70850e-01,4.14302e-02,2.31906e-01,-2.63722e-01,-3.81646e-03,-1.33200e-02,3.37114e-01,4.18259e-02,1.17935e-01,8.24028e-02,-5.24517e-02,
-2.17220e-01,4.29033e-01,-2.15242e-01,-9.92082e-02,1.00645e-02,-3.02007e-01,-5.15302e-01,-3.13134e-01,1.09449e+00,1.57585e-01,2.43690e-01,-1.50263e-01,-3.43831e-01,-1.38680e-01,-1.20254e-01,-3.06718e-01,3.23273e-01,-8.98754e-02,-1.35755e-01,-1.85874e-01,4.13711e-02,-1.53421e-01,-4.60844e-01,-2.45349e-01,-6.41298e-01,
2.77491e-04,-3.33252e-01,-5.32402e-02,-1.13086e-02,-2.27254e-01,2.95362e-01,-2.67194e-01,-1.35838e-01,-2.73380e-01,-2.44232e-01,-1.56327e-01,1.45745e-01,-2.19314e-01,1.10668e-01,-2.44362e-01,1.36429e-01,2.32784e-01,2.73820e-01,-1.37393e-01,-3.32829e-02,1.36997e-01,-2.40001e-01,5.17400e-03,-2.33778e-01,8.45200e-02,
4.68411e-02,-2.96805e-01,1.00875e-01,-3.58855e-01,2.79672e-01,3.09392e-02,-1.25198e-01,2.35644e-01,8.92920e-02,-1.91277e-01,4.63815e-02,-8.21168e-02,-3.28635e-02,1.07334e-01,2.17609e-01,2.32611e-01,2.12294e-01,-3.66923e-01,1.01157e-01,3.42849e-01,-3.04338e-01,7.84777e-02,-1.57474e-01,6.36258e-03,9.34281e-03,
-3.39713e-01,
-2.56270e-01,
2.84187e-01,
-6.30737e-02,
-5.12859e-02,
-1.69632e-02,
-2.50132e-01,
-3.19754e-01,
2.38397e-01,
3.24036e-02,
-1.24733e-01,
1.46871e-01,
2.00543e-01,
-1.36363e-01,
-1.66573e-01,
-3.86064e-02,
-3.44734e-01,
1.44446e-02,
-9.73261e-02,
-1.04690e-01,
2.88952e-01,
1.31441e-01,
1.65868e-01,
-9.80054e-02,
-6.34158e-03,
3.04122e-01,-5.92047e-02,1.90180e-01,-3.54841e-01,-6.78685e-01,-1.82730e-01,5.80548e-02,-1.22379e-01,-2.56188e-01,2.48517e-02,-4.09075e-02,2.10020e-01,-1.36815e-01,-3.44497e-01,-3.05454e-01,9.19162e-02,-1.07737e-01,-1.83087e-01,2.34087e-01,-4.05386e-01,-4.47227e-02,-2.93139e-01,-4.50971e-02,1.25480e-01,2.30994e-01,
2.63611e-01,2.64830e-01,2.94947e-01,3.94049e-01,3.32254e-01,2.97448e-01,-3.27596e-01,-3.55707e-01,2.14440e-01,-3.21968e-02,-2.58820e-01,3.08703e-01,1.62470e-01,-1.68340e-01,3.03268e-01,-7.91536e-02,2.07453e-01,-2.96452e-01,-1.64908e-02,8.45250e-03,8.34403e-02,1.84205e-02,1.06277e-01,3.52160e-01,-2.35520e-01,
2.15010e-01,-3.28933e-01,2.65141e-01,-1.12726e-01,2.48302e-01,1.59990e-01,-2.37442e-01,3.57902e-01,1.17262e-01,-2.45292e-02,-5.09969e-02,1.64067e-01,2.40036e-02,-5.82956e-03,4.14139e-01,-2.49614e-02,-1.62970e-02,1.19218e-01,6.30603e-02,-1.14104e-01,-8.04198e-02,-2.19254e-05,6.52935e-02,-3.04083e-01,-1.35827e-01,
-2.44856e-01,3.02007e-01,2.30232e-01,-2.75296e-01,6.11682e-01,3.92784e-01,-1.37260e-01,3.32214e-01,3.48634e-01,4.07739e-03,2.07734e-01,-9.61842e-02,2.08824e-01,1.66043e-01,2.95360e-01,8.99963e-02,6.25033e-02,2.20948e-01,-2.25502e-01,-2.80807e-02,-2.22958e-01,3.04418e-01,2.02670e-01,-6.49817e-02,2.73793e-01,
-1.16032e-01,-2.60293e-01,1.91766e-01,6.10562e-02,4.59582e-01,3.54384e-01,-5.39198e-02,-2.35473e-01,4.59658e-01,-1.08524e-01,9.06594e-02,2.24689e-01,7.52907e-02,5.90735e-01,4.80649e-01,-1.09190e-01,-1.19841e-01,5.90257e-01,3.59707e-01,8.46765e-02,-6.48331e-02,1.05049e-01,2.68293e-01,-3.37839e-01,-1.90008e-01,
8.94366e-02,
-4.35665e-01,
-1.36245e-01,
-8.09517e-02,
-2.69528e-01,
