// Neural Network File Format by Kyle Julian, Stanford 2016
6,3,5,25,
3,25,25,25,25,25,5,
0,
-56000.000000,-56000.000000,-3.141593
56000.000000,56000.000000,3.141593
-278.628049,0.000000,0.000000,-0.242819
112000.000000,112000.000000,6.283185,17.479225
-9.86220e-02,1.66123e+00,6.49863e-01,
1.36651e+00,-6.62189e-01,4.75092e-02,
-2.97513e-01,1.11540e+00,-2.40479e-01,
5.48383e-01,-7.85177e-01,-6.51498e-02,
-8.28044e-01,-2.85877e+00,-1.62900e-01,
2.02421e+00,-1.15723e+00,3.91342e-02,
-2.67465e-01,-2.76240e+00,-2.81807e-01,
6.83325e-01,-9.03330e-01,-8.35657e-01,
-9.72744e-01,1.63537e-01,1.45056e-01,
1.36151e+00,1.14322e+00,6.86233e-01,
-6.24472e-01,-1.61197e+00,5.54533e-01,
-2.67836e-02,1.66564e+00,4.26755e-01,
-8.30267e-01,1.95257e-01,-6.67834e-02,
2.65951e-01,-1.65296e+00,-1.40395e-01,
-1.14831e+00,-1.79163e-01,-5.69195e-02,
-5.98469e-01,-1.04413e+00,3.91750e-02,
2.59430e-01,1.05389e+00,-8.30817e-02,
-6.07054e-01,9.77048e-01,4.77240e-01,
3.52304e-01,4.82961e-01,-2.46388e-01,
-1.05116e+00,4.17646e-01,-3.12376e-01,
-3.33568e-01,1.07983e+00,-3.40236e-01,
-1.45770e+00,7.31923e-01,-3.66070e-01,
-2.13925e+00,1.20772e+00,4.50397e-01,
1.00761e+00,1.32901e+00,3.90599e-01,
-1.49182e-01,-1.56510e+00,-2.84126e-01,
8.56071e-03,
-8.99431e-03,
1.24041e-01,
6.67839e-02,
8.89341e-02,
6.15074e-04,
-2.52736e-03,
9.86286e-03,
2.73671e-01,
3.27611e-01,
-1.14051e-01,
-7.21728e-03,
-1.01549e-01,
1.55042e-01,
-1.17889e-02,
9.92575e-02,
-3.58442e-02,
-1.43569e-01,
1.11455e-01,
-1.19919e-01,
2.28768e-01,
-6.46733e-02,
1.42192e-03,
3.02199e-03,
-1.06938e-01,
-9.82693e-02,-1.43451e-02,2.89088e-01,-1.67062e-01,-8.32070e-01,1.29036e-01,-7.28740e-01,5.67612e-01,-3.11595e-01,-1.22304e-01,-6.16607e-01,-1.96698e-01,1.36371e+00,8.88039e-02,2.08887e-01,4.86649e-01,4.87509e-01,4.08032e-02,1.84316e-02,-1.45754e+00,3.21901e-01,-1.87450e-01,3.84952e-01,-2.84125e-01,1.41135e+00,
2.48617e-02,-9.10128e-02,3.27609e-01,3.27140e-01,-2.35082e-01,1.85025e-01,-2.26165e-01,-2.31981e-01,-3.66584e-02,5.55049e-02,2.08459e-01,-2.15814e-01,2.25893e-03,1.74559e-02,-2.64676e-01,1.42437e-01,7.80912e-02,-9.18384e-02,2.01762e-01,-2.65276e-01,2.33509e-01,-2.73280e-01,-8.83446e-02,-2.57937e-01,8.42182e-02,
2.41909e-01,5.35237e-01,-2.14117e-01,2.83805e-01,1.26657e-01,4.39853e-01,-2.34978e-01,4.95506e-01,2.83038e-01,-2.72379e-01,1.01315e-01,6.94287e-01,6.60645e-01,-4.90724e-02,1.32071e-01,-7.41743e-02,-5.23492e-03,-7.55518e-03,2.20065e-02,1.91704e-01,-6.61709e-02,-4.61601e-02,2.77024e-01,4.92881e-01,-9.13034e-02,
3.67536e-01,-3.91066e-01,1.27200e-01,-2.00319e-02,-6.81764e-02,-3.47508e-01,-1.91305e-01,2.35483e-01,-3.52982e-01,3.68745e-01,-6.50552e-01,-2.74978e-01,-8.47935e-01,-2.94530e-03,7.02997e-01,-5.41808e-01,-2.64463e-01,3.49914e-01,2.21750e-01,5.07116e-01,-3.75475e-01,1.93944e-01,-3.51240e-01,1.13821e-01,-1.92599e-01,
-8.02322e-02,2.29228e-01,1.89495e-01,-3.10838e-01,-2.69786e-01,1.78046e-02,2.87790e-01,-2.53687e-01,-2.60395e-01,-3.48658e-02,-2.10890e-01,-2.44371e-01,-1.90379e-01,-2.52547e-01,1.44878e-01,7.49234e-02,2.84159e-02,-6.99456e-02,2.68609e-01,2.51864e-01,-1.67819e-01,-3.29697e-02,-2.41395e-01,1.17212e-01,-1.03050e-01,
1.28612e+00,9.37335e-01,4.96242e-03,-3.10382e-01,-1.93055e-01,-2.23916e-01,-2.53862e-01,-9.08306e-01,1.09603e-01,2.60365e-01,7.99955e-02,-1.19930e+00,-4.42521e+00,-4.49504e-01,6.75882e-02,1.94950e-01,8.74145e-01,1.03911e+00,1.13431e-01,-2.30358e+00,1.46498e-01,-4.08410e-01,-9.87291e-01,-1.21230e+00,-6.64144e+00,
2.90366e-01,6.98180e-02,-5.36802e-02,-2.57204e-01,-6.05834e-01,-1.08055e-02,5.62761e-01,-1.46392e-01,-4.14035e-02,1.35852e-01,-2.19061e-01,-7.41443e-01,-4.52410e-01,-3.96152e-01,-2.14718e-01,-3.25291e-01,2.19168e-01,-9.57374e-03,2.67474e-01,-4.15226e-01,1.31735e-01,4.06800e-01,6.44136e-02,5.44393e-02,4.77821e-01,
-7.73904e-02,-7.01481e-01,-3.65235e-01,-1.56738e-01,2.63379e-01,4.94577e-01,-7.33363e-02,5.04358e-01,7.80681e-02,-1.48493e-02,3.50982e-01,5.54221e-01,5.60903e-01,1.96596e-01,-7.11995e-01,7.93659e-03,1.04719e-01,-6.55291e-03,5.58338e-02,7.85081e-01,-3.33427e-01,6.58134e-03,-1.15912e-01,4.05355e-01,-2.65339e-01,
2.52550e-01,1.07597e+00,-2.11828e-01,-2.21597e-01,-1.14768e-01,-1.11161e+00,3.93741e-01,-7.63186e-02,-1.83404e-01,1.89615e-01,-8.42087e-01,-4.80023e-01,1.63891e-01,-2.76509e-01,6.21592e-01,-1.95184e-01,-2.12560e-03,-1.17193e-01,1.62686e-01,-1.32193e-01,-6.55945e-02,-1.19789e-01,3.54161e-01,8.91469e-02,-2.24568e-02,
1.83409e-01,2.74853e-01,8.93943e-02,1.92315e-01,1.41458e-01,-1.02678e-01,-1.98635e-01,-5.80137e-02,-1.76307e-01,-2.13997e-01,-9.89428e-02,1.61954e-02,-2.07188e-02,-2.92801e-01,-1.59535e-01,-2.67894e-01,-7.68059e-03,-2.65699e-01,5.03305e-02,3.14635e-01,-2.08914e-03,-1.29360e-01,1.62107e-01,1.86394e-01,3.20651e-01,
-3.17502e-01,1.24712e-01,-3.09452e-02,1.30147e-01,-1.22773e-01,5.02515e-01,-5.45795e-01,3.60590e-01,2.48188e-01,-2.36087e-01,4.62761e-01,4.62644e-01,2.28519e-01,2.05469e-01,-3.17552e-01,4.65429e-02,-2.77504e-01,-7.52414e-02,-5.73547e-02,-9.47964e-02,1.21730e-01,6.10271e-02,4.94456e-01,4.54874e-03,2.92755e-01,
1.63503e-01,-2.22070e-01,2.92890e-01,1.16682e-01,2.90164e-01,7.05822e-01,-5.74231e-01,4.23606e-01,2.12453e-01,-3.42365e-01,-7.00059e-02,2.77137e-01,-4.48477e-01,-1.86411e-01,-3.55979e-01,-1.56032e-01,-2.98321e-02,-2.53423e-01,-2.56124e-01,2.15726e-01,2.53086e-01,3.10500e-01,5.76196e-01,3.21386e-01,-1.25472e-02,
-4.84373e-01,1.34209e-01,-1.04789e-01,3.59221e-02,-4.42686e-03,-1.69846e-01,7.39782e-01,2.83564e-01,-2.36277e-01,-3.17239e-01,1.94501e-02,2.85546e-01,3.44935e-01,8.84164e-02,3.61473e-01,-2.53618e-01,6.67790e-01,1.64662e-01,2.22055e-01,-3.07642e-01,1.50398e-01,-8.87068e-02,6.07489e-01,5.09492e-01,-4.62834e-01,
2.69176e-01,-4.50461e-01,-1.90994e-01,-5.42304e-01,9.44489e-02,8.20866e-01,-4.66511e-01,2.44091e-01,-4.07778e-02,-1.83023e-01,8.79530e-02,-5.55952e-02,-2.93486e-01,1.19566e-01,-2.42540e-01,-1.18035e-01,-3.08536e-01,2.74140e-01,-3.31949e-02,5.46757e-01,4.95190e-02,2.22574e-01,2.67400e-01,-1.48317e-02,1.26004e-01,
5.75882e-01,-5.25364e-01,-3.01825e-01,3.35765e-01,8.84136e-02,7.96901e-01,-8.52167e-01,-1.15494e-01,2.59844e-01,1.14416e-01,-7.62537e-02,-5.91667e-01,-6.45833e-01,4.59978e-02,7.02241e-01,6.50859e-04,-9.75802e-01,1.91241e-01,2.74965e-02,2.68022e-01,1.23621e-01,4.75998e-01,6.98709e-02,5.07782e-01,9.79040e-01,
3.67496e-01,-3.30383e-01,1.23028e-01,-1.58195e-01,4.72979e-01,-4.09585e-01,1.32171e-01,1.62389e-01,4.11666e-01,-1.31543e-01,9.66979e-01,1.26874e-02,-3.60217e-01,1.29805e-01,-7.21922e-01,5.29962e-01,-1.49952e-02,-6.47980e-01,-2.04451e-01,2.57623e-01,5.89623e-02,2.08032e-01,2.03521e-01,1.16517e-01,-9.40168e-01,
-1.26178e-01,-2.50939e-01,-2.67618e-01,4.87171e-02,-2.07938e-01,-2.09590e-01,2.11021e-01,6.27991e-02,-1.91696e-02,-1.41354e-01,-2.64906e-01,-2.55391e-01,-1.03348e-01,-1.99956e-01,1.81366e-01,-1.35643e-01,-2.63797e-01,-3.17025e-01,-2.63676e-01,2.30008e-01,-2.53915e-01,-1.90904e-01,3.05358e-01,5.37867e-02,3.24146e-01,
-1.14191e-01,-3.05011e-01,-1.83122e-01,1.07121e-01,4.91826e-03,1.95226e-01,-1.04485e-01,3.04581e-01,1.24024e-01,-2.68650e-02,-2.34633e-02,-2.02775e-01,2.12636e-01,-2.50706e-01,1.47457e-01,-2.29664e-01,1.69728e-01,-2.64833e-01,-1.07299e-01,-2.32693e-01,-3.58341e-01,3.21627e-01,-7.82718e-02,-1.93352e-01,-5.61431e-02,
-6.25846e-02,-6.16441e-01,1.74148e-01,2.21206e-01,4.67406e-01,4.09230e-01,-1.23051e-01,1.51973e-01,-3.65094e-01,-3.55356e-01,-1.58658e-02,3.53047e-01,-3.63579e-01,3.99998e-01,-6.51049e-01,4.12577e-03,-1.54460e-01,-8.64915e-01,-1.12746e-01,-5.49228e-01,1.48265e-01,7.14529e-01,2.64569e-02,2.89609e-01,-3.83589e-01,
6.68146e-02,5.16716e-01,1.02905e-01,-2.31177e-01,-7.92293e-02,3.90447e-01,2.92471e-01,-5.16022e-02,-4.72274e-02,-3.79633e-01,-4.75137e-02,3.78554e-01,-1.35760e+00,-1.58709e-01,2.32724e-01,3.87955e-02,-6.40331e-03,-2.76885e-01,2.74509e-01,-4.22924e-01,-1.57755e-01,8.05810e-01,3.41131e-01,7.30782e-01,-3.61007e-01,
-2.99010e-01,1.78882e-01,6.18049e-02,4.32655e-02,5.42243e-01,-1.05562e+00,4.49322e-01,-2.30438e-01,1.95881e-01,6.76611e-02,-5.86424e-01,-3.33899e-01,3.76867e-01,-1.23614e-02,1.05580e-02,5.02061e-01,3.22353e-01,8.59557e-01,-2.74532e-01,1.00636e-02,2.59919e-01,2.81408e-01,-4.32911e-01,-1.63380e+00,-1.35189e-01,
2.85501e-01,1.20802e-01,4.86622e-01,3.34387e-01,8.64399e-02,1.11583e-01,5.62018e-01,7.75665e-02,-8.50790e-02,-1.97025e-01,3.07367e-01,4.82331e-01,-2.76776e-01,2.49303e-01,4.64846e-01,2.33116e-02,-1.94481e-01,-8.12472e-01,-1.08532e-01,-8.77751e-02,-2.25161e-01,-8.78842e-01,6.04440e-01,-1.93325e-01,-2.62326e-02,
4.60749e-01,-2.68454e-01,3.17957e-01,-1.07751e-01,7.24178e-02,1.32941e+00,8.98918e-02,-4.39579e-01,1.54074e-01,-3.39174e-01,-2.63861e-01,1.58032e-01,-2.75866e-01,-2.33113e-01,-6.11110e-02,2.52273e-01,-7.12866e-01,1.59765e-02,3.93681e-02,2.00176e-01,3.93590e-02,-3.46006e-01,1.42091e-01,5.05227e-01,-2.65416e-01,
4.37955e-01,-2.70013e-01,-1.41925e+00,-1.67185e-01,-4.09736e-01,2.97206e-01,-5.52291e-02,-1.37134e+00,-2.22073e-01,1.93854e-01,-8.40530e-01,2.56570e-03,9.31353e-01,2.33182e-01,1.73433e+00,1.77304e-01,1.46205e-01,-1.25953e-01,2.33102e-01,-1.60682e-01,-3.33580e-01,2.01400e-01,9.87086e-02,2.14492e-01,-1.38754e+00,
1.20276e-01,-3.27807e-01,7.50168e-02,1.12056e-02,-2.55446e-01,1.65332e-02,1.53595e-01,3.84937e-01,4.09205e-01,2.49357e-02,-3.07753e-01,1.04398e-02,4.77482e-02,3.01369e-01,-2.66647e-01,3.49859e-01,3.01055e-01,-5.78220e-01,-6.85472e-03,4.36614e-01,-1.76196e-01,-4.67864e-01,5.68252e-01,-4.10521e-02,1.72331e-01,
-2.55430e-01,
-3.17196e-01,
-1.34983e-02,
7.29067e-02,
-2.02744e-01,
8.84878e-02,
1.48147e-01,
1.80589e-01,
2.02031e-01,
-2.68286e-01,
1.67711e-01,
2.89398e-01,
1.14243e-01,
2.84296e-01,
-8.92379e-02,
-2.10914e-01,
-2.97348e-01,
-5.68319e-02,
3.61496e-02,
1.79722e-01,
-2.04186e-01,
-6.39433e-02,
9.06717e-02,
-2.37662e-02,
-2.50545e-01,
-1.01243e-01,2.87724e-01,-6.83658e-02,4.25359e-01,-6.05370e-02,-6.61117e-02,2.70079e-02,4.02076e-01,-1.88044e-01,2.34840e-01,-2.06898e-02,1.30099e-01,-9.27879e-02,4.22820e-01,4.82715e-01,-1.52205e-01,-3.42339e-01,2.31273e-01,1.27401e-01,3.16074e-01,8.22639e-01,1.44619e-01,3.05313e-01,-1.32180e-01,-3.49473e-01,
-2.01879e-01,-3.44828e-01,-4.97489e-01,4.04379e-01,-9.95296e-02,-6.73783e-01,-1.16407e-02,2.25139e-01,-2.38779e-01,-8.90806e-02,2.50340e-01,9.01704e-02,-3.94431e-02,1.18235e-02,1.56545e-01,4.20655e-01,2.79182e-01,-3.41904e-01,7.51361e-02,8.45253e-02,-5.53903e-02,1.09334e-03,3.82444e-02,2.57832e-01,2.49353e-01,
-9.15176e-02,8.98357e-02,-2.08943e-01,2.84160e-01,-3.46084e-01,-2.86021e-01,8.84923e-02,4.03155e-01,-2.99450e-01,-2.69197e-01,-3.64985e-02,8.38757e-02,1.69414e-01,9.51087e-02,4.57775e-01,-6.81818e-02,2.29680e-01,-6.45093e-02,8.32341e-02,-2.10367e-01,1.57091e-01,-1.74420e-01,1.61754e-01,8.42029e-02,1.67696e-02,
1.67494e-02,-6.66107e-02,-3.19212e-01,4.42458e-01,-1.81026e-02,-7.82878e-02,-6.87124e-01,4.18637e-01,-4.77394e-01,-7.35350e-02,6.03702e-02,-1.52520e-01,-1.16911e+00,-4.65498e-02,-1.16062e-01,-1.16263e+00,-1.40992e-01,1.75363e-01,-1.38405e+00,-2.85383e-01,8.23577e-01,7.56305e-01,-2.42398e-01,1.08973e+00,1.28204e+00,
-4.59648e-01,-2.65026e-01,9.33484e-02,3.68466e-01,-3.40343e-01,1.49838e-01,-1.28930e-01,2.26381e-01,-1.21200e-01,2.23107e-01,6.28396e-02,-3.26345e-01,-9.47834e-01,3.00314e-01,1.38783e-02,-7.43385e-02,3.44430e-01,2.43586e-01,-9.34407e-01,-2.05361e-01,7.34624e-01,-1.13613e+00,-6.82684e-04,4.93708e-01,-7.99360e-01,
-1.98191e-01,-3.09402e-01,4.06589e-02,5.67734e-01,2.50849e-01,-1.66222e-01,-2.39377e-01,3.37568e-01,-2.02606e-01,-3.22650e-01,2.65590e-01,2.93339e-01,-3.86677e-01,-1.01766e-01,3.05646e-01,4.36364e-02,-3.20531e-01,-6.79798e-02,1.78679e-01,4.23439e-01,5.55182e-01,1.31740e-01,-8.49370e-02,-8.39561e-02,-1.80665e-01,
1.96484e-01,2.02273e-01,-3.15357e-01,3.29522e-01,-2.30680e-02,1.14536e-01,3.70328e-01,-1.16832e-01,1.31614e-01,-2.35282e-01,2.15500e-01,-2.70651e-01,4.95776e-02,2.15767e-01,1.81332e-01,6.74967e-01,-3.37027e-01,2.59470e-01,4.20122e-01,3.98647e-01,4.31553e-01,-1.99383e-01,5.80958e-01,-3.75698e-02,-3.21006e-02,
3.83268e-02,1.90447e-01,-3.12970e-01,-8.75004e-02,3.12911e-01,-8.21858e-01,-5.60203e-01,1.74070e-01,2.30980e-01,2.91211e-01,5.79598e-01,-1.83833e-01,-3.95184e-01,-5.49141e-02,2.11083e-01,3.42208e-02,2.63133e-01,-6.72973e-02,2.59602e-01,1.62144e-01,4.48216e-01,6.01178e-01,2.16940e-01,-1.37483e-02,-9.34295e-02,
9.21843e-01,-2.62579e-01,-2.07292e-01,-2.04113e-02,-3.02054e-01,1.02585e-01,3.38400e-01,1.46337e-01,3.11343e-01,-1.94264e-01,-3.22442e-01,1.95967e-01,3.15148e-01,-1.04355e-01,6.64502e-01,4.99583e-02,-5.94799e-02,2.29458e-01,-1.07032e-01,3.12288e-01,-4.49753e+00,7.15062e-02,-6.74961e-01,-7.39064e+00,-3.34915e+00,
-3.33001e-02,-9.71682e-02,-3.47167e-01,4.97607e-01,5.43604e-02,1.16673e-01,-1.74653e-01,-6.63575e-02,-3.19569e-01,1.54911e-01,3.71621e-01,2.86655e-01,-2.82521e-01,7.54708e-02,-3.51183e-01,2.02683e-02,5.04193e-02,2.73653e-01,-1.64608e-02,2.04275e-01,3.05946e-01,9.71133e-02,3.42528e-01,2.32201e-01,-2.34339e-01,
-3.14784e-01,4.84195e-02,8.59287e-02,6.17851e-02,3.04892e-01,-3.65864e-01,-1.40427e-01,-1.58411e-01,1.57278e-02,-2.78786e-01,-2.76719e-01,-2.13239e-01,-3.91803e-01,-3.69763e-01,-1.16664e-01,9.72770e-02,-2.55168e-01,2.58014e-02,-1.68020e-01,-3.06389e-01,2.09487e-01,-2.10801e-01,-1.53837e-01,-2.24659e-01,-5.55259e-02,
1.60731e-01,2.48020e-01,-6.89206e-02,-2.93377e-01,-2.53155e-01,-1.55057e-01,-2.14315e-01,2.09960e-01,-2.85616e-02,-2.30741e-01,-3.31450e-01,-2.85621e-01,-2.53271e-01,-1.99298e-01,-8.73931e-02,3.05129e-02,-5.45290e-02,2.55904e-01,3.06652e-01,2.25013e-01,-2.68275e-01,-4.12500e-03,-2.90770e-02,-1.90505e-01,3.41629e-02,
3.71995e-01,3.23628e-01,-1.09183e-01,4.64115e-01,9.69957e-02,-2.33130e-01,-3.29528e-01,1.92513e-02,-1.45694e-02,-7.32183e-03,-2.84717e-01,1.06096e-01,-1.04367e-01,1.14667e-01,1.40422e-01,-4.58799e-01,2.07211e-01,-1.93322e-01,4.06183e-01,-3.49253e-02,-2.78836e-01,-6.24105e-01,-5.86577e-03,-3.47210e-01,8.75961e-01,
9.86627e-02,1.94292e-01,1.24418e-01,1.59280e-01,1.77678e-01,-1.31370e-01,-2.91795e-02,-2.78646e-01,-1.92028e-01,-2.60077e-01,2.44655e-01,-6.96484e-02,2.08494e-02,-3.41725e-02,-2.17958e-01,4.46860e-01,-8.89739e-02,1.77578e-02,1.66924e-01,-4.85186e-02,-4.19816e-01,-3.03074e-01,5.48754e-02,-1.96435e-01,-4.05504e-02,
-1.85104e-01,3.16044e-01,-3.55153e-01,-5.50750e-02,1.83507e-01,-8.94769e-02,2.15063e-01,1.23834e-01,3.92392e-02,-2.93090e-01,6.45314e-02,-1.13949e-01,-1.78059e-03,-2.97438e-01,1.58905e-01,3.23532e-01,-9.74238e-03,2.19355e-01,5.59138e-03,2.07155e-01,-3.40944e-01,-7.39088e-02,-3.12501e-01,2.92181e-01,-1.08541e-01,
7.57829e-02,1.47105e-01,-4.50003e-02,-3.07421e-01,2.61520e-01,-2.08653e-01,2.48801e-01,1.84104e-01,1.40559e-01,5.31709e-02,-1.44248e-01,8.15183e-03,5.03173e-01,-4.99740e-02,5.33511e-01,-7.36514e-02,3.04754e-01,-3.06285e-01,-2.26151e-01,-2.63253e-01,-7.10173e-01,3.31755e-01,-4.68763e-01,1.61536e-01,-6.43398e-01,
5.43355e-02,1.56986e-01,2.16882e-01,-1.49163e-01,-1.33794e-01,-3.36310e-01,1.67243e-01,2.91305e-01,4.42004e-01,2.95295e-01,-2.47626e-01,-2.31184e-01,9.79147e-02,-2.79155e-01,2.85250e-01,5.80510e-02,1.60051e-01,1.24827e-01,-2.15541e-01,2.96194e-01,-4.98731e-01,-1.47382e-01,-2.07433e-01,-5.14218e-01,-1.32972e+00,
-3.43151e-01,-2.43823e-01,1.24295e-01,4.35905e-01,-3.22342e-01,6.75885e-02,-3.42390e-02,2.71612e-01,-2.06203e-01,-2.10970e-01,1.77656e-01,1.36309e-01,-3.48406e-01,3.14536e-01,-5.72808e-01,-3.15206e-01,6.27882e-02,-9.11019e-03,-3.69080e-01,-4.19025e-01,5.21899e-01,7.48724e-02,9.53607e-02,2.87403e-03,-5.35011e-02,
-1.35634e-01,7.19782e-02,8.73655e-01,4.65540e-01,-2.33263e-01,-3.05765e-01,-6.27273e-01,2.95079e-01,-1.80711e-01,-1.07553e-01,2.18918e-01,-2.99636e-01,-1.79458e-01,-1.97846e-01,-6.40041e-01,-5.30606e-01,1.81344e-01,2.76659e-01,-1.79178e+00,-4.60711e-01,-6.57965e-01,-1.04355e+00,-7.22857e-01,-3.12336e-01,4.54733e-02,
-1.65268e-01,2.29357e-01,-3.25629e-01,1.34413e-01,1.46237e-02,-2.16765e-01,-2.04304e-01,-4.27368e-02,3.15872e-01,-2.37549e-01,-1.17998e-01,-2.08544e-01,3.35881e-01,2.98393e-01,7.30142e-02,-2.73729e-01,1.55394e-01,9.09164e-02,1.54483e-01,3.04198e-02,-7.39702e-02,5.46414e-02,-3.19214e-01,-2.34704e-01,-1.67063e-01,
-2.10374e-02,-6.52891e-02,-1.56200e-01,9.43934e-01,-2.09685e-01,-5.81770e-01,3.54263e-01,-2.71833e-01,-3.42205e-01,-2.60335e-01,2.21497e-01,3.99970e-01,-1.38583e-01,2.42424e-01,1.94256e-01,2.82484e-01,2.48004e-01,-6.28661e-02,9.92379e-02,-1.90893e-01,9.21131e-02,3.21752e-01,-1.06448e-01,-7.02059e-02,-8.04567e-02,
-3.70243e-01,-2.13722e-01,-3.40212e-01,-1.88422e-01,-2.11934e-02,3.92763e-01,-1.54057e-01,2.28386e-01,-4.55123e-01,-1.90330e-01,9.66366e-03,8.87250e-02,2.29267e-01,2.67439e-01,5.78848e-03,-3.41506e-01,-3.08267e-01,2.17074e-01,-1.95940e-01,-2.54482e-01,1.99029e-01,2.99055e-01,4.99513e-01,-4.85115e-02,-6.94704e-02,
-3.94228e-01,-1.31753e-02,2.74950e-01,-6.02374e-03,-2.27398e-01,-3.54012e-02,3.17342e-01,-1.66948e-01,2.80278e-01,4.83513e-02,-8.90205e-02,-9.04809e-02,2.15334e-01,1.70930e-03,1.35684e-01,-1.15143e-01,-3.33427e-01,4.53568e-02,1.45208e-01,-4.04966e-01,2.76176e-01,7.32994e-02,6.20417e-02,2.55518e-01,1.45270e-01,
4.29703e-01,-2.44197e-01,-4.96400e-01,3.16423e-01,1.32897e-01,-3.80845e-01,2.02701e-01,-6.69682e-02,9.89465e-02,-1.88101e-01,-1.25921e-01,7.52827e-02,7.40708e-03,3.31798e-01,1.71759e-01,-4.01993e-02,1.05507e-01,-6.04952e-02,1.79362e-01,3.60077e-01,3.35527e-01,-1.48409e-01,3.64516e-01,5.46424e-03,2.36525e-01,
3.69445e-01,1.45536e-01,1.96410e-01,4.58558e-01,2.06793e-01,-4.18767e-01,-1.59736e-01,4.08891e-02,2.05726e-03,2.62408e-01,-7.16905e-02,2.39440e-01,1.95412e-01,-8.98044e-02,-2.07368e-01,1.48527e-01,-3.40548e-01,-3.66438e-04,5.40049e-04,1.67532e-01,2.41841e-01,-5.70160e-01,5.52884e-02,9.46018e-02,-5.30269e-01,
-2.35139e-01,
9.07874e-02,
-7.77125e-02,
1.31834e-01,
-6.71482e-02,
-6.53712e-02,
-3.75451e-02,
-1.79481e-01,
-2.31010e-01,
-1.27447e-01,
2.15652e-01,
-1.87913e-01,
1.21458e-01,
2.24009e-01,
-2.72049e-01,
2.15966e-01,
1.80441e-02,
1.78553e-01,
2.64395e-01,
-2.26493e-01,
-1.32405e-01,
2.50080e-01,
-1.87873e-01,
9.89497e-02,
-1.36666e-01,
3.54778e-01,-1.33270e-01,4.17217e-01,6.17663e-01,-4.36936e-01,6.73938e-02,-2.07493e-01,-5.94523e-01,-2.74588e-01,-7.72781e-03,2.08304e-01,3.46052e-01,-1.70876e+00,-6.38851e-01,-2.20690e-01,4.54703e-01,-2.79867e-01,-1.47353e-01,-1.81251e-01,-1.52315e-01,-1.34723e-01,2.76269e-01,-7.87873e-01,-2.35850e-01,-1.01067e-01,
-1.31126e-01,-1.79157e-01,-1.38275e-01,-2.40903e-01,-2.60930e-01,-4.36964e-02,-3.19611e-01,-2.12182e-01,-2.20664e-01,-3.20724e-01,-7.67873e-02,5.85592e-02,3.05121e-01,-3.38254e-01,2.47105e-01,7.00500e-02,8.91948e-02,-1.37165e-03,-6.86840e-02,2.60339e-01,-1.51431e-02,-3.04647e-01,2.86792e-01,3.16257e-01,3.02630e-01,
-3.92160e-01,-4.01425e-02,-2.96471e-01,-4.39123e-01,-1.00552e-01,3.78110e-01,1.04512e-01,-6.50932e-02,4.74049e-01,-4.32361e-02,2.06865e-02,1.56778e-01,-1.99688e-01,8.35795e-03,-2.09346e-01,5.40539e-02,-1.00039e-02,1.39996e-01,-4.41335e-01,-1.54684e-01,-2.58092e-02,3.86106e-01,-1.38620e-01,1.13164e-01,-1.34637e-01,
2.48315e-01,7.66442e-02,2.53861e-01,4.52772e-02,1.84770e-01,-3.55633e-01,-1.25914e-01,4.18332e-02,6.39922e-02,6.70748e-02,5.32988e-02,4.43817e-02,3.01794e-02,6.37538e-02,-3.26052e-01,-3.23073e-01,2.45269e-01,-1.72999e-01,-3.44781e-01,-2.79152e-02,-2.77067e-01,9.05998e-02,2.91303e-01,8.77185e-02,2.49662e-01,
2.66204e-01,1.98600e-02,1.29143e-02,-1.73147e-01,-2.13294e-01,-1.41823e-01,-3.03212e-02,2.98812e-01,-1.96844e-01,-6.14178e-03,-2.39489e-01,-3.04474e-01,1.14551e-01,-1.15036e-01,1.80864e-01,-4.24931e-02,-3.38501e-01,-6.94532e-02,-2.22381e-01,-2.05257e-01,-2.86791e-01,-1.90872e-01,-3.20880e-02,1.51734e-01,-2.89837e-01,
-1.83843e-01,-6.75641e-02,5.07972e-02,-3.27296e-01,-7.72683e-02,2.23464e-01,-6.10556e-02,-7.23323e-02,-2.30649e-01,5.59060e-02,-7.87547e-02,-2.08886e-01,-1.72437e-01,1.58553e-02,-3.27140e-01,5.57355e-02,2.73705e-01,-1.44564e-01,-3.39652e-01,1.93914e-01,1.82899e-01,9.69174e-02,2.43379e-01,-2.12583e-02,2.46332e-01,
-1.52517e-02,7.72158e-02,-8.37728e-02,5.80145e-01,3.16177e-01,1.18410e-01,-1.68389e-01,-4.53420e-01,-5.62312e-01,1.86027e-01,3.31053e-01,-3.43665e-01,-4.91859e-02,1.49412e-02,-8.11410e-02,-2.33112e-01,2.22597e-01,5.76938e-01,1.60313e+00,-3.08714e-01,3.26137e-01,1.26468e-01,-2.09653e-01,-3.02069e-01,-1.87136e-01,
-1.58690e-01,-2.47328e-01,3.99780e-02,1.38223e-01,-1.62407e-01,-3.69903e-02,-2.53542e-01,8.42567e-02,1.15272e-01,-3.81450e-01,2.75762e-01,-2.14390e-01,-2.37096e-01,-2.86837e-01,-2.42118e-02,-4.23771e-01,-5.26124e-02,5.95949e-02,1.11018e-01,-3.25505e-01,-8.30081e-02,2.00051e-01,-1.21033e-01,-4.05817e-01,5.30725e-02,
4.53471e-02,-4.97957e-02,-3.13381e-01,9.80066e-01,5.64469e-02,-2.16604e-01,-1.42655e-01,3.05761e-01,1.35021e-01,-3.75212e-02,-2.69068e-01,1.15100e-01,-1.19832e-01,2.43147e-02,2.57812e-01,2.94846e-01,1.26517e-01,-3.25874e-02,-3.36663e-01,6.93953e-02,-2.15337e-01,2.50067e-01,-1.50772e-01,1.12281e-01,-5.94103e-03,
1.08343e-01,3.45820e-01,-4.18044e-01,3.00374e-01,-3.68383e-01,2.54083e-01,-3.40432e-01,-2.99327e-02,2.92705e-01,3.15127e-01,2.80583e-01,-4.86258e-02,7.52940e-02,-4.05139e-03,4.50694e-02,-1.00674e-01,2.43492e-01,8.16443e-02,5.00754e-01,4.53969e-02,4.97763e-02,2.39543e-02,3.56417e-01,1.56235e-01,2.64387e-02,
-1.48638e-01,-3.17406e-01,-1.12798e-01,3.87371e-01,2.16929e-01,6.58875e-02,2.79002e-01,-3.52592e-01,2.69818e-01,-1.48968e-01,-2.61368e-01,-2.53164e-01,2.98628e-01,-1.71178e-01,1.56110e-01,-2.40273e-01,3.51782e-01,3.12655e-01,-5.54869e-01,-1.74029e-01,3.62401e-01,3.49315e-01,1.97903e-01,1.41984e-01,1.49384e-01,
-3.78962e-01,-3.34042e-01,1.54767e-01,-3.09741e-01,2.67994e-01,2.95034e-01,2.01636e-01,-3.27261e-01,1.78148e-01,-2.50316e-01,4.88360e-02,1.01635e-01,-3.35692e-01,3.02997e-01,5.80451e-02,-1.24615e-01,2.10083e-01,-3.61223e-01,-2.20679e-01,-3.08565e-01,-2.71341e-01,1.04421e-01,-1.65075e-01,-5.45288e-02,2.25748e-01,
-4.69481e-02,2.30469e-01,-2.07194e-01,1.43738e-01,2.88523e-01,-2.28582e-01,-2.74936e-01,-7.56434e-02,-1.10285e-01,-2.01129e-01,1.84658e-01,-3.03908e-01,-2.30591e-01,-7.05588e-03,2.81957e-01,2.81567e-01,3.27656e-01,2.26164e-01,-1.50553e-01,2.80316e-01,-3.13059e-01,-5.64779e-02,-1.05317e-01,-2.47941e-01,3.33929e-01,
2.14366e-02,-3.37319e-01,2.86427e-01,2.32630e-01,-6.83474e-02,2.02632e-01,-3.04108e-01,2.80426e-01,1.15913e-01,-2.35447e-01,3.11089e-01,2.38596e-01,1.29217e-01,-4.27345e-02,-2.57115e-01,1.80643e-01,2.90158e-01,-3.34941e-01,2.23661e-02,4.25534e-02,-2.11653e-01,-3.53653e-02,-1.82475e-01,1.74842e-02,2.29101e-01,
-8.33681e-02,-5.98322e-02,-1.83404e-01,1.39160e+00,-1.48845e-01,2.88407e-01,-1.24282e-01,1.22504e-01,-1.55511e-01,2.48625e-01,2.17829e-01,-2.60750e-01,2.80858e-01,-1.66247e-01,-1.02781e-01,1.13230e-01,4.55738e-01,1.05146e-01,2.22304e+00,2.21933e-01,-5.91019e-02,-1.19167e-01,1.45603e-02,-2.96337e-02,-1.44254e-01,
2.25726e-03,1.77944e-01,-7.89451e-02,-5.64775e-01,-9.94905e-02,2.08019e-01,7.60043e-02,-1.27858e-01,-9.61419e-02,-5.06211e-01,1.28228e-01,7.61333e-02,-6.09173e-02,1.78796e-01,4.64734e-02,9.44497e-03,-1.11280e-01,-4.10590e-02,1.43354e+00,2.59998e-01,-2.33938e-01,-1.31199e-01,-9.54006e-02,2.59754e-01,-1.55736e-01,
-4.20398e-02,-6.40209e-02,-8.15987e-02,1.54073e-01,2.43499e-01,1.85653e-01,-4.32948e-02,-3.22476e-01,2.04742e-01,1.03767e-01,2.49130e-02,-4.34518e-03,-1.10901e-01,-1.14416e-01,-2.16856e-01,2.12505e-01,1.24182e-02,-3.15538e-01,3.27347e-01,2.74865e-01,-1.66917e-01,-9.49602e-02,-2.95896e-01,4.67928e-02,6.05576e-04,
-3.46554e-01,-2.65388e-02,1.24853e-02,-8.22231e-01,1.14173e-01,2.38361e-01,-6.64302e-02,6.11499e-02,1.82720e-01,2.18982e-01,-6.10600e-02,-2.79925e-01,2.66767e-02,-3.02624e-01,-1.73875e-02,-1.00267e-01,2.55050e-01,-7.40710e-02,-9.89392e-01,-3.42121e-02,2.97318e-01,1.28977e-01,3.26516e-01,3.37085e-02,1.54024e-01,
-5.31253e-02,-4.13253e-01,3.43838e-01,4.10476e-01,4.58732e-01,-8.94170e-02,-2.94571e-01,-7.28910e-01,-5.75607e-01,-2.21494e-01,2.97243e-01,2.86917e-01,-2.25379e-01,-2.02813e-01,2.50503e-01,3.82526e-01,-7.68956e-01,2.46711e-01,-3.15916e-01,-4.73936e-02,1.20161e-01,2.31166e-03,-2.28409e-01,5.48440e-02,4.50845e-01,
2.73811e-01,2.69142e-01,-3.64695e-01,-1.07723e+00,-3.32673e-01,-4.60199e-02,-4.43092e-02,-1.27828e-01,2.56268e-01,6.34419e-03,2.21497e-01,-2.55777e-01,1.77154e-01,-1.27293e-01,2.76477e-01,-9.25689e-02,3.14094e-01,1.60269e-01,-9.64818e-01,-7.02525e-02,3.12496e-01,2.90567e-01,1.78928e-01,8.16127e-02,-1.33928e-01,
3.65836e-01,-3.89341e-01,2.19928e-01,3.25941e-02,-4.26471e-01,-5.34463e-01,-2.33342e-01,-1.72972e+00,-1.28897e+00,-3.25090e-01,8.62634e-02,-2.06174e-01,3.30865e-02,-1.02373e-02,-2.52336e-01,1.94595e-01,-1.48424e+00,1.48493e-01,-4.67355e-01,-1.92995e-01,4.57052e-01,-5.51823e-02,2.36405e-01,-4.81167e-01,2.27551e-01,
1.86054e-03,2.99318e-01,2.15986e-02,-4.66324e-01,-2.59948e-01,1.06775e-01,-1.49355e-03,-3.43881e-01,1.77925e-01,3.48383e-01,-7.85436e-02,-3.41488e-01,-1.99164e-01,-2.45925e-01,3.35812e-01,-2.65740e-01,-2.91711e-02,-6.98223e-02,-1.51523e-01,-1.32041e-01,3.42057e-01,2.76492e-01,1.79862e-02,-1.86970e-01,-2.87083e-01,
-7.12993e-02,3.39758e-01,-2.63082e-01,-2.46963e-01,1.27336e-01,2.98078e-01,1.65194e-01,-2.54437e-01,-4.93855e-01,-2.92247e-01,-5.06724e-02,2.00908e-02,3.01810e-01,-8.11010e-02,-1.84718e-01,2.49513e-01,-2.79304e-01,2.05706e-01,-4.08317e-01,6.28952e-02,-2.59875e-01,-2.96856e-01,-9.61258e-02,3.16733e-01,1.81103e-01,
-6.25668e-02,-1.20818e-01,-1.89281e-01,1.87437e-01,3.35165e-01,-9.84488e-02,-3.45599e-01,4.51385e-02,-1.05714e-01,2.00352e-01,-2.79759e-01,-8.84565e-02,-2.94952e-01,-3.12479e-01,-1.87604e-01,-3.15217e-01,-7.24021e-02,-8.92449e-02,-2.39617e-01,1.56289e-01,-2.73302e-01,-2.89858e-02,2.89725e-01,-2.02338e-01,1.01099e-01,
-2.69601e-02,-3.04635e-01,2.90087e-01,6.53405e-01,-1.18086e-01,-1.84253e-03,1.09195e-01,8.63928e-02,-5.83536e-02,6.81970e-02,1.99243e-01,-1.39101e-01,-1.14178e-01,2.99350e-01,-1.17037e-01,1.75408e-01,1.49343e-02,1.35934e-01,-1.46651e+00,2.40157e-01,-1.59664e-01,2.55709e-01,-9.64303e-02,3.06815e-02,-2.24653e-01,
-1.47668e-01,
-7.06317e-02,
5.15315e-02,
-3.02830e-01,
-2.61318e-01,
-3.62726e-01,
-1.20326e-01,
1.10223e-01,
2.52804e-01,
1.68262e-01,
-1.35534e-01,
-2.83566e-01,
-2.62451e-01,
-3.11940e-01,
3.00535e-02,
2.74176e-01,
-1.90331e-01,
2.57881e-01,
5.31402e-03,
-2.67524e-02,
1.55937e-01,
2.84972e-01,
2.39797e-01,
-2.63225e-01,
1.17531e-01,
-4.89753e-02,1.04640e-01,3.16117e-01,-1.27754e-01,-2.58022e-01,-3.39013e-01,7.42402e-02,-1.45593e-01,-6.37079e-02,-2.47179e-01,-2.32790e-01,1.82311e-02,-2.52141e-01,2.93634e-01,1.42659e-01,1.67993e-02,1.75373e-01,3.44984e-01,-1.93127e-01,2.20533e-01,-3.31242e-01,-3.28952e-01,-9.80780e-02,2.12853e-02,-1.24049e-01,
1.60712e-01,1.67585e-01,-2.03412e-02,1.02768e-01,1.92884e-03,3.37687e-01,-8.60403e-02,3.14986e-01,-7.25602e-02,-3.40330e-01,-7.15234e-02,-7.58555e-02,8.67572e-02,2.83788e-01,-4.99573e-02,1.16045e-01,3.21491e-01,-2.97784e-01,1.74456e-01,-1.94412e-01,-7.12351e-02,-3.71031e-02,-9.55541e-02,-3.12008e-01,-2.48040e-01,
-1.69614e-01,2.95294e-01,9.89760e-02,1.85853e-01,-1.90559e-01,1.47823e-01,3.28981e-01,2.20092e-01,-2.86230e-01,-2.68173e-01,2.97357e-01,-2.14729e-01,8.60265e-02,3.30657e-01,-8.51275e-02,-5.35802e-02,3.68708e-03,1.53636e-01,3.29128e-01,-3.43436e-01,1.64381e-01,-1.44144e-01,8.35284e-02,9.52912e-02,-2.70690e-01,
-2.38164e-01,-1.50184e-01,-4.66028e-02,-2.74182e-01,9.37273e-02,-1.99884e-01,2.42447e-01,-8.23283e-02,-2.51843e-01,9.06765e-02,3.07627e-01,1.71289e-01,1.52746e-01,-1.17887e-01,-1.14223e-01,2.98767e-01,-2.04187e-01,-3.06771e-01,2.20261e-01,-1.24770e-01,-3.09734e-02,1.41789e-01,-1.74944e-01,1.82557e-01,-3.12562e-01,
2.58009e-01,-2.28036e-01,-2.28880e-01,9.07218e-02,1.75718e-01,-2.19488e-01,1.51372e-01,2.43316e-01,-1.37519e-01,-2.19572e-01,2.28910e-01,1.80494e-01,2.94914e-01,-1.53457e-01,1.72784e-01,5.13659e-02,-1.05541e-01,-3.14285e-01,3.08114e-01,2.35551e-02,8.55940e-02,2.27015e-01,-2.80851e-01,-5.59543e-02,2.40389e-01,
3.03247e-01,2.66169e-01,-2.07453e-01,-3.24267e-02,-2.33389e-02,2.67232e-01,-9.70485e-02,-2.39272e-01,-2.42224e-01,-1.39771e-01,3.17201e-01,-2.13029e-01,-2.53882e-01,-2.43186e-01,1.68869e-01,-6.50228e-02,-1.72229e-01,4.00972e-02,-2.26129e-01,1.42994e-01,2.18267e-01,-2.52943e-01,-2.29429e-01,-2.32973e-01,-4.76741e-02,
-6.98382e-01,1.25687e-01,-1.83141e-01,-9.34307e-02,-1.98907e-01,-5.29055e-02,1.52040e-01,-3.68659e-02,-1.96852e-01,1.20079e-01,1.79880e-01,1.85669e-01,-3.31375e-01,2.94426e-01,-5.49155e-02,-8.50415e-02,1.09435e-01,-2.31867e-01,1.71150e-01,7.61372e-02,-4.09208e-01,-3.02887e-01,1.59483e-01,9.67504e-02,8.29396e-02,
1.40636e-02,3.08505e-01,2.87992e-01,2.81039e-03,-3.15995e-01,-4.33476e-02,1.76966e-01,-1.67739e-02,-2.99677e-01,1.90186e-01,-2.87725e-01,-2.40976e-01,5.62761e-02,1.39956e-01,-1.55969e-01,3.27838e-02,-2.34248e-01,5.39967e-02,-1.29116e-01,2.28897e-02,-8.76060e-02,-2.15183e-01,-5.43982e-02,7.30601e-02,-1.46545e-01,
-1.51130e-01,2.08901e-01,-3.27633e-01,-3.24751e-01,-2.88916e-01,-2.55318e-01,-6.51463e-02,2.86765e-01,2.41744e-01,2.09156e-02,-1.46337e-01,4.52880e-02,-4.28331e-03,-2.79090e-02,7.21534e-03,2.34286e-02,-2.95101e-01,-3.07215e-01,-2.29097e-01,1.51335e-01,4.52978e-03,-2.56338e-01,1.44497e-01,2.84091e-01,-2.01761e-01,
-3.03972e-01,8.90374e-02,2.21725e-01,-1.93588e-01,-2.64050e-01,3.25043e-01,-1.43659e-02,3.12797e-01,-9.81603e-02,1.75332e-01,2.11793e-01,-3.42837e-01,2.73414e-01,-3.42638e-01,-9.89876e-02,7.36103e-02,-3.27727e-01,1.13301e-01,1.22760e-01,3.00381e-02,1.46242e-01,2.39717e-01,-2.10714e-01,1.59481e-01,-3.43020e-01,
-3.44998e-01,-6.90126e-03,-2.31129e-02,-1.44661e-01,-1.02182e-01,-4.85946e-02,2.96068e-01,6.61143e-02,-3.15014e-01,4.11333e-02,-1.75627e-01,-2.67197e-01,-3.42128e-01,-6.02711e-02,2.85902e-01,1.08075e-01,3.24637e-01,-2.11827e-02,-1.33527e-01,7.98159e-02,-2.04921e-01,-1.43838e-01,-1.06259e-01,-1.97637e-01,2.90854e-02,
1.77123e-01,2.12703e-01,2.11456e-01,-1.37977e-01,1.30173e-01,-1.79742e-02,2.22004e-02,-1.95500e-01,-1.78826e-01,-1.42766e-01,2.12865e-01,-3.05455e-01,-1.90336e-01,2.56878e-01,-1.38386e-01,-3.55010e-02,1.23653e-01,2.36325e-01,-1.48739e-01,4.62230e-02,2.58184e-01,7.71344e-02,1.12622e-02,-1.64829e-01,1.49178e-01,
7.35024e-02,-1.54630e-01,-3.82669e-02,-4.22083e-02,-3.17136e-01,2.91682e-01,3.28648e-01,2.77043e-01,-2.78934e-01,-1.44013e-01,2.61086e-01,3.39873e-01,-3.24929e-01,-3.05459e-01,-1.76471e-01,-3.49933e-01,2.49230e-01,-9.62920e-02,-1.65120e-01,-3.75309e-01,2.15879e-01,5.02800e-02,4.39527e-02,2.71759e-02,-2.45942e-01,
3.39029e-01,-1.32360e-01,3.49691e-01,-5.33120e-02,-1.31295e-01,2.48676e-01,6.15891e-01,-2.03689e-01,6.20103e-02,3.31715e-01,-1.29998e-01,1.75523e-01,1.64406e-01,2.72750e-01,2.91796e-01,3.27422e-01,-7.58465e-03,1.99388e-01,-3.91676e-01,1.61111e-01,-1.16929e+00,6.26847e-02,3.08163e-01,2.30933e-02,1.69103e-02,
1.94804e-01,2.89967e-01,1.16953e-01,-3.08573e-01,1.72636e-01,9.45326e-02,-2.00408e-01,-3.06449e-01,-1.54739e-01,1.50400e-02,-1.81836e-01,2.31581e-01,-1.81615e-01,-7.26583e-02,7.82742e-02,3.76395e-02,-2.98501e-01,-1.51493e-01,-5.43210e-02,2.68901e-01,2.32167e-01,2.03497e-03,-2.90338e-01,-1.20024e-02,-1.13621e-01,
-8.48252e-02,2.71316e-01,-1.85855e-01,-3.03516e-01,-2.85722e-01,2.37371e-01,-3.43576e-02,2.44117e-01,-2.57223e-01,9.20975e-02,2.21545e-01,-1.05864e-01,1.13820e-02,-2.27527e-01,-2.94756e-01,9.83334e-02,-4.29067e-03,3.33452e-01,-1.24796e-01,-2.93025e-02,2.70901e-01,-1.42564e-01,-2.21235e-01,1.78822e-01,2.76099e-01,
3.60022e-01,3.41473e-01,2.79120e-01,-2.66331e-01,2.46027e-01,1.69161e-01,-1.78523e-01,-9.38352e-02,1.20206e-01,2.27885e-01,5.01794e-01,-1.06070e-01,7.93619e-02,7.66214e-03,-2.46989e-01,-1.35806e-01,-7.73521e-04,2.26781e-01,5.03020e-01,1.88525e-01,4.95325e-02,2.42839e-01,-9.66593e-02,-2.20955e-01,3.31393e-02,
1.45694e-01,-1.50197e-01,1.83214e-01,-5.49741e-01,-6.00967e-02,-1.66528e-01,-7.30386e-01,-1.96766e-01,2.03585e-02,1.63570e-01,8.70466e-02,-3.36054e-01,-2.42279e-02,-2.40914e-01,1.69613e-01,1.27836e-02,-1.31612e-01,-2.62958e-01,2.34431e-01,2.07783e-01,-6.61924e-02,1.81477e-01,2.99370e-01,-2.30000e-02,-1.70997e-01,
-7.59632e-02,1.19265e-01,2.21099e-01,2.33718e-01,2.06632e-01,-8.36312e-02,-4.12014e-02,-3.26853e-01,1.55205e-01,1.86259e-01,-2.14999e-01,-2.45997e-01,5.42716e-02,1.84619e-01,-1.88969e-01,3.54215e-02,-1.16738e-02,-3.29539e-02,6.48928e-02,1.45594e-01,-1.61360e+00,-2.40932e-01,3.19573e-01,-9.42613e-02,3.01039e-01,
2.55218e-01,9.66885e-02,-3.39564e-01,-3.41063e-01,2.18164e-01,1.82277e-01,-2.24554e-01,3.37642e-01,-2.33072e-01,-2.31821e-01,-1.72017e-01,-3.32548e-01,1.49766e-01,-2.28063e-01,-1.51436e-01,-6.32632e-02,-3.67742e-02,1.32468e-01,3.30996e-02,6.32131e-02,-1.84497e-01,3.40612e-01,-2.59034e-01,1.93607e-01,-1.88507e-01,
2.85793e-01,-1.80800e-01,-9.44373e-02,2.31706e-01,3.28119e-01,-3.37254e-01,-7.08728e-02,3.29994e-01,2.42652e-01,1.78974e-01,2.99714e-01,-2.03480e-01,-3.45385e-01,3.29159e-01,-1.73767e-01,1.21043e-01,-2.29891e-01,-7.19746e-02,-3.09396e-01,-3.44709e-01,1.08230e-01,-4.64515e-02,-2.27438e-01,3.72829e-02,-6.37999e-02,
-1.76862e-01,1.32980e-01,1.71582e-01,6.14142e-02,2.88813e-01,-2.20346e-01,5.53259e-03,-1.97550e-01,-2.53093e-02,-2.78831e-01,-2.81219e-01,1.21046e-01,2.69985e-01,-1.92908e-01,7.46788e-02,-1.37870e-01,-2.07806e-01,-2.37272e-01,1.90337e-01,-9.20086e-02,3.33651e-01,-1.43294e-01,8.74530e-02,-6.83679e-02,-5.60744e-02,
1.44224e-01,2.26244e-01,3.23331e-01,-2.07106e-01,-1.20690e-01,2.00862e-01,5.90028e-01,3.27035e-01,1.10741e-01,2.44022e-01,1.98608e-02,1.00375e-01,6.27992e-02,-1.29801e-01,-8.30381e-02,3.30445e-02,2.27918e-01,-2.75612e-01,5.28357e-01,1.84188e-01,7.32316e-01,5.72613e-04,1.86554e-01,-8.17593e-02,2.77752e-02,
3.30888e-01,-8.40253e-03,6.61485e-02,2.23441e-01,6.09120e-02,-1.28621e-01,-2.99757e-01,3.25846e-01,-2.68024e-01,7.25975e-02,-2.20558e-01,3.30668e-01,7.66926e-02,3.40974e-01,6.91626e-02,-3.54877e-02,1.06277e-01,-2.27346e-02,8.72202e-02,-2.69661e-01,-2.19021e-01,-3.37351e-01,-1.22307e-01,-1.64121e-01,2.93595e-01,
4.91997e-01,-1.86988e-02,1.28466e-01,-1.95904e-02,-2.00757e-01,-3.38971e-01,-4.51404e-02,3.28557e-01,-3.56964e-02,5.37388e-02,-2.97716e-01,6.41435e-02,1.97966e-01,-2.94508e-01,-4.64557e-03,1.97020e-01,2.47261e-01,5.36981e-02,8.40145e-02,2.59879e-01,4.76057e-01,-1.75599e-02,6.40181e-02,7.10331e-02,-2.92434e-01,
-5.75542e-02,
2.48856e-01,
-2.51811e-01,
-1.93474e-01,
-3.17479e-01,
5.14076e-02,
1.69735e-01,
-3.09985e-01,
-1.13340e-01,
-3.09430e-01,
-1.52440e-01,
2.47271e-01,
2.31957e-01,
1.70464e-01,
-6.87797e-02,
-1.36223e-01,
-2.33514e-01,
7.73980e-02,
2.44498e-01,
-2.02206e-01,
-1.47112e-01,
-1.97043e-01,
-1.17414e-01,
2.98940e-02,
-4.80485e-02,
1.88055e-01,-3.04624e-01,3.21910e-01,-6.28091e-02,3.31043e-01,-1.91055e-01,-7.58756e-02,3.46917e-01,1.62755e-01,3.48775e-01,-3.59072e-01,3.85864e-01,-4.07991e-01,4.17625e-01,1.44694e-01,1.05425e-01,1.15472e-01,1.25360e-01,2.33634e-01,-6.45780e-02,7.05035e-02,-4.34893e-01,-1.89149e-02,3.92441e-02,-3.25481e-01,
-1.75701e-01,-5.71784e-02,-1.18651e-01,1.47745e-01,8.64953e-02,-3.81539e-01,-6.55345e-02,-4.39323e-01,1.89207e-01,2.85298e-01,1.21198e-01,1.73737e-01,1.71443e-01,2.09592e-01,3.11332e-01,3.76958e-01,-3.78589e-02,7.90334e-02,2.50541e-01,3.31209e-01,4.11155e-01,-2.58351e-01,-2.83576e-01,3.66235e-01,-1.55576e-01,
-1.53450e-01,-1.68096e-01,1.05638e-01,3.45293e-01,-3.49193e-01,1.65583e-01,4.63756e-04,1.41576e-01,-2.41169e-01,-2.42090e-01,-2.06935e-01,2.75282e-01,8.56495e-02,1.10123e-01,-1.59088e-01,-1.09976e-01,-6.87562e-02,-2.18431e-02,3.67039e-01,-4.46271e-01,4.33169e-01,3.41650e-01,-3.84618e-01,1.47578e-01,-3.61551e-02,
-3.99172e-01,1.00320e-01,1.59032e-01,3.51037e-01,4.00997e-02,-2.20937e-01,1.21533e-01,-4.08827e-01,-2.74095e-01,-2.74375e-01,2.92891e-01,-3.33998e-01,4.37099e-01,2.00871e-01,2.69797e-01,4.46820e-02,1.61774e-02,1.62828e-01,3.47312e-01,1.71407e-01,-3.09070e-02,2.78742e-02,1.02498e-01,-6.20591e-02,-4.91653e-02,
3.13587e-01,3.78397e-01,4.18836e-01,1.32762e-01,-3.66491e-02,-4.22401e-01,-7.41364e-02,-1.95150e-01,-2.87823e-01,4.42368e-01,-2.65552e-02,-1.54098e-01,1.57796e-01,-3.06635e-01,-2.83145e-01,1.28788e-01,1.24534e-01,3.87168e-01,3.05026e-01,-1.47474e-01,2.90785e-01,-3.78515e-01,-2.98976e-01,-5.57632e-02,4.97941e-02,
-5.82150e-01,
-3.28390e-01,
-3.05265e-01,
-2.96278e-01,
3.40940e-02,
