// Neural Network File Format by Kyle Julian, Stanford 2016
6,3,5,25,
3,25,25,25,25,25,5,
0,
-56000.000000,-56000.000000,-3.141593
56000.000000,56000.000000,3.141593
-278.628049,0.000000,0.000000,-0.242819
112000.000000,112000.000000,6.283185,17.479225
5.12934e-02,6.80574e-01,7.09549e-01,
1.17323e-01,-4.44252e-02,-2.86452e-01,
-1.47444e-01,-1.77951e+00,3.57877e-01,
2.71685e-01,1.01687e+00,-1.67781e-01,
-3.52231e-01,2.07299e-01,2.67321e-02,
-1.11256e+00,1.00842e+00,-3.49726e-03,
-1.02980e-01,-1.89358e-01,-1.76158e-01,
-1.50703e-02,1.81435e+00,4.11569e-01,
6.54687e-01,4.94063e-01,2.66647e-01,
1.25942e-01,1.44776e+00,-1.89797e-03,
8.91267e-01,9.42108e-01,3.87001e-01,
-4.72612e-01,9.86128e-02,-2.11279e-01,
7.06738e-02,-2.06762e-01,-2.55592e-01,
4.32367e-02,7.21984e-01,-1.96027e-01,
1.83808e+00,5.03307e-01,-7.96360e-02,
4.69705e-02,1.48237e+00,-2.36367e-01,
3.20675e-01,4.19155e-01,7.41936e-02,
-8.12377e-01,-8.44082e-02,-1.24107e-01,
9.20642e-01,6.99325e-01,3.51270e-01,
-2.28618e-01,1.11291e+00,-4.48797e-01,
1.68914e+00,1.38190e-02,-4.70308e-01,
1.05731e+00,1.03298e+00,-2.37741e-01,
6.59526e-01,2.61276e-01,2.64949e-01,
-5.04832e-01,3.49137e-01,-3.82546e-02,
1.33283e-01,-5.80354e-01,-2.36263e-01,
5.81109e-02,
-3.21813e-01,
1.77683e-01,
8.87227e-02,
-2.67775e-01,
5.96047e-02,
9.44359e-02,
-2.06050e-01,
6.52792e-03,
1.07329e-03,
2.08336e-01,
2.57518e-01,
1.26678e-01,
1.64418e-01,
8.54099e-02,
1.12430e-01,
3.46802e-02,
2.30202e-01,
-1.84573e-01,
-6.59706e-05,
1.44796e-02,
-1.10004e-01,
7.60113e-02,
2.28221e-01,
1.60618e-01,
2.50388e-01,-3.31923e-01,-2.18623e-01,-4.38194e-01,-3.37507e-01,-1.96290e-01,2.75607e-01,-1.32859e-01,2.54197e-01,7.10809e-01,7.27125e-02,5.43445e-02,2.44059e-01,-3.15051e-01,-1.71225e-01,1.75740e-01,1.30146e-01,-2.62466e-01,-2.45641e-01,-6.20610e-01,1.05735e-01,-1.08721e-01,-3.41113e-01,-1.74329e-02,1.66261e-01,
2.63085e-01,-8.93005e-02,1.80954e-01,-8.87246e-01,2.41756e-01,9.75220e-01,-3.06686e-01,-3.85690e-01,9.63895e-02,-4.31162e-01,1.91701e-01,-4.01000e-01,-1.40194e-03,-3.18426e-01,3.35583e-01,2.55726e-01,3.41687e-01,-1.61215e-01,6.07886e-01,-4.25077e-01,-2.69927e-01,-9.61388e-01,-3.30091e-02,-3.09697e-01,-2.13251e-02,
-1.02284e-01,2.49222e-01,2.48253e-01,5.00129e-02,-2.39339e-01,-3.47416e-01,-6.93680e-02,1.67518e-01,5.69456e-01,-1.27785e-01,-1.53965e-01,7.26913e-02,1.57875e-02,1.86270e-01,4.79766e-01,4.19287e-01,1.55762e-01,9.24750e-02,-2.55078e-01,-3.60072e-01,-6.37896e-02,-7.59775e-01,2.65112e-01,-2.25797e-01,1.76395e-01,
-4.87252e-01,9.95361e-02,3.49945e-01,-5.19043e-02,2.97647e-01,-5.99898e-02,-2.55164e-01,3.87347e-01,4.60549e-01,2.69720e-02,-1.29418e-01,1.11619e-01,2.64119e-01,2.18631e-01,-1.92637e-01,-9.35987e-02,-2.16679e-01,6.72702e-02,3.98770e-01,-1.46062e-01,4.85069e-01,-1.31118e-01,-4.61895e-01,-1.92446e-01,2.59884e-01,
-3.29525e-01,4.46475e-02,3.31652e-01,-4.61141e-01,2.22306e-01,-1.42919e-01,-1.30557e-01,2.05164e-01,-9.57023e-02,1.13102e+00,-3.05610e-01,2.35120e-01,-3.08236e-01,5.61003e-02,-3.91650e-01,1.59722e-01,-3.53682e-01,3.21874e-01,9.80919e-01,2.73582e-01,7.57555e-02,-2.91903e-01,1.71377e-01,-2.95229e-01,1.69549e-01,
6.48129e-01,-2.79350e-01,3.20197e-01,-1.44247e+00,3.04318e-01,-2.85375e-01,1.25825e-01,-2.80542e-01,-3.48553e-02,-5.63353e-01,-1.11651e-01,-9.11226e-02,3.42562e-01,-7.39588e-02,-2.32509e-01,1.19881e+00,2.16081e-01,-1.63982e-01,6.35344e-01,4.25828e-01,-9.62114e-02,5.47274e-02,-1.60086e-01,-1.85793e-01,3.61258e-01,
-7.24589e-02,-1.06686e-01,3.64019e-02,1.91165e-01,3.40339e-01,3.14437e-01,-2.44294e-01,2.46670e-01,-1.95670e-01,3.35791e-01,-1.68338e-01,-4.13305e-02,-1.95158e-01,-3.46197e-01,-3.34773e-01,-3.21256e-01,-1.48324e-01,-2.84769e-01,1.60139e-01,-1.79428e-01,1.92012e-02,-7.31365e-02,1.35573e-01,1.23513e-01,1.61661e-01,
-3.58886e-01,-3.04034e-01,-3.12349e-01,2.17820e-01,2.02661e-02,-7.03532e-03,-3.07694e-01,6.47215e-02,3.04846e-01,2.89419e-01,-3.27314e-01,-3.51689e-01,-1.29958e-01,-5.68493e-02,1.56610e-01,-1.97736e-01,-5.91338e-02,1.18516e-01,-9.18650e-02,-3.30880e-01,1.14438e-01,2.93092e-01,2.35440e-01,-3.55857e-01,-5.98158e-02,
-2.88918e-01,3.13698e-01,2.53987e-01,1.29137e-01,2.03938e-01,-1.37646e-01,-1.40910e-01,-8.88736e-02,4.73585e-01,-1.14240e-01,4.93955e-03,1.69137e-01,-9.04034e-02,1.90371e-01,-3.97357e-01,-1.22593e-01,1.23252e-01,3.78366e-01,4.65996e-01,2.78536e-01,6.27737e-01,-5.27669e-02,2.47278e-01,-1.41041e-01,1.83599e-01,
4.78396e-01,-1.74133e-01,5.57812e-02,2.32069e-01,2.74571e-01,3.34849e-01,-1.08142e-01,-1.84217e-01,1.27485e-01,5.57735e-01,-2.94746e-01,2.23136e-02,4.82311e-02,2.40463e-02,-2.82035e-02,1.57907e-01,-3.56367e-01,5.24935e-02,-2.72296e-01,-2.24109e-02,-1.56933e-01,6.76257e-02,3.30763e-02,-2.10556e-01,3.24659e-02,
5.16751e-01,8.89641e-03,-2.21998e-01,-2.57176e-01,5.81369e-02,2.23636e-01,4.82158e-02,-1.01075e+00,2.35545e-03,2.31374e-01,8.69884e-02,-4.65708e-03,-8.71342e-02,-2.20425e-02,2.61444e-02,5.65824e-01,5.25131e-02,-3.85123e-01,-2.01051e-01,-2.48151e-01,-5.04579e-01,4.28640e-01,5.91717e-02,-2.26730e-01,-2.67961e-01,
4.34632e-01,2.92359e-01,2.53455e-01,4.64379e-01,-2.04037e-01,2.50863e-01,-1.51697e-01,3.61665e-01,7.23356e-02,-3.75503e-02,-7.98889e-02,-5.21382e-02,3.67398e-01,1.07328e-01,-1.75560e-01,-1.48823e-01,-2.95575e-01,1.09565e-01,2.04465e-01,4.22470e-01,1.05991e-01,6.04924e-01,-4.12955e-01,-8.90814e-03,-2.40078e-01,
-6.43874e-03,-2.25130e-01,-2.81634e-01,9.62025e-02,-3.22262e-01,3.03777e-01,-1.97007e-01,2.69444e-01,1.50516e-01,-3.66624e-01,-2.74062e-01,2.83707e-01,1.94187e-01,7.16506e-03,-3.40939e-01,-1.04778e-01,2.16769e-01,-2.68100e-01,2.94964e-01,-1.83763e-01,-1.12318e-02,-1.00492e-01,2.27603e-01,-3.21035e-02,1.63318e-01,
-4.98619e-01,-2.12608e-01,2.77496e-01,-3.29821e-01,-2.92438e-01,2.17423e-01,5.68088e-02,2.55946e-01,2.31523e-01,-8.48162e-01,-2.05420e-01,-7.08806e-02,-3.81348e-01,1.01107e-01,8.98076e-02,-1.15288e-02,-2.08217e-01,-4.08689e-02,4.97430e-02,-6.94389e-01,2.96915e-01,-5.76543e-01,1.74081e-01,-3.44128e-01,1.14154e-01,
-4.14505e-01,-4.01682e-02,2.94561e-01,-2.03044e-01,-1.85236e-01,1.42725e-01,-2.99469e-01,-6.06856e+00,1.54202e-01,-7.62236e-01,-2.08025e-01,-4.30935e-02,2.20863e-01,1.53246e-01,3.11409e-01,8.12296e-02,4.25195e-02,-1.28319e-01,-4.37656e-01,-3.58235e-01,3.96422e-02,-4.06997e-01,-2.02472e-01,-1.62830e-01,-1.65569e-01,
-2.62744e-01,2.01482e-01,-3.13411e-01,2.97658e-01,-3.06811e-01,-3.38915e-01,1.14012e-02,8.63013e-03,1.03347e-02,7.37749e-02,2.50564e-01,6.98994e-02,-3.39520e-02,2.60885e-01,-1.38700e-01,-6.07007e-02,-2.22811e-01,-2.88369e-01,-1.60714e-01,2.29628e-02,-2.26581e-01,7.20260e-02,-9.93387e-02,-3.33351e-01,2.67534e-01,
4.67439e-01,6.94154e-02,3.09467e-01,2.22829e-01,-2.61857e-01,2.16177e-01,2.92831e-01,4.23508e-01,4.60560e-01,9.81496e-02,-4.12504e-01,-9.58387e-02,3.44486e-01,3.96451e-01,-1.17001e-01,1.91665e-01,-4.27214e-01,9.38286e-02,-3.68338e-01,-3.58395e-01,-3.21132e-01,5.79021e-01,-4.73505e-01,-7.82264e-02,4.65683e-02,
1.61258e-01,-3.32344e-01,1.09905e-01,-7.40099e-02,7.30989e-02,-1.46842e-01,8.16672e-02,8.18076e-02,1.47245e-01,2.56502e-01,-3.44658e-01,3.06199e-01,1.52968e-01,-2.02601e-01,1.59201e-01,-1.94592e-01,2.56720e-01,-1.17038e-01,1.94188e-01,5.21909e-02,-2.10168e-01,1.45047e-01,-3.64387e-01,2.77706e-01,-3.57662e-01,
1.44886e-01,5.71136e-02,-1.69467e-01,-2.89084e-02,2.47144e-01,3.78620e-01,-9.31136e-02,8.31510e-01,3.18537e-01,4.01160e-01,-3.11904e-01,1.71469e-01,3.59658e-01,3.01655e-01,-2.37326e-01,-2.20203e-01,-3.68389e-01,-1.14761e-02,-2.07509e-02,1.18653e-01,-1.81921e-01,2.13607e-01,5.80492e-03,-1.77448e-01,1.67137e-01,
-9.32777e-02,2.07417e-01,-3.62232e-01,2.86206e-01,1.90484e-01,4.01796e-02,6.00486e-02,4.31359e-01,3.11029e-01,-9.10774e-01,4.05659e-02,-2.51431e-01,-9.79652e-02,1.28700e-01,-2.34568e-01,-4.95569e-02,-3.31995e-01,-8.50385e-04,-2.46512e-02,1.99693e-01,4.78522e-01,-3.00151e-01,-2.30318e-01,-9.38726e-02,-1.26223e-01,
2.68631e-01,-3.44728e-01,-2.79908e-01,3.93445e-01,-5.91899e-02,2.50362e-01,-3.98764e-02,-1.83098e-01,-2.58219e-01,6.18362e-02,2.56366e-01,1.39300e-02,1.33602e-01,3.99889e-01,2.25336e-01,-1.28774e-01,6.34054e-02,-3.67453e-01,-2.28811e-01,-3.78231e-01,-4.43006e-01,2.57967e-01,1.91672e-01,-3.70327e-01,1.58407e-01,
3.14104e-01,-1.41264e-01,3.40311e-01,3.49492e-01,1.42834e-02,-1.02980e-01,-3.50542e-01,-7.47808e-01,1.81612e-01,2.24756e-01,2.41627e-01,1.99144e-01,6.07792e-02,3.16085e-01,-2.44423e-01,1.79605e-01,2.36376e-01,3.15540e-01,-1.67619e-02,-3.03994e-01,5.09723e-01,-1.48047e-01,-1.18942e-01,-2.03794e-01,-1.85175e-01,
-6.94835e-01,-2.26050e-01,1.21178e-01,-1.45683e-01,1.37157e-01,-4.45265e-01,2.62865e-01,-1.42637e-02,-1.32740e+00,-7.69704e-01,-2.75480e-01,-1.61920e-01,2.10801e-01,-8.83033e-02,2.17799e-01,2.49088e-01,1.15223e-01,2.11652e-01,1.78312e+00,2.52133e-01,4.38508e-03,-5.60693e-02,-1.62845e-01,-7.93179e-02,1.63532e-01,
1.31012e-01,-8.23502e-02,-1.76001e-01,3.47985e-01,-1.24300e-01,9.76209e-02,2.12801e-01,1.14094e-01,-1.30620e-01,3.03706e-01,3.60325e-01,-9.09709e-02,2.65898e-01,2.02636e-01,1.16972e-01,-2.32478e-01,1.52441e-01,-1.44803e-01,6.89307e-02,-2.28704e-02,1.94801e-01,2.96102e-01,2.88349e-01,1.96324e-02,2.17701e-01,
-3.77608e-01,2.20608e-01,-6.52509e-01,-2.78037e-01,1.29609e-01,-6.15347e-02,8.44567e-02,-3.10685e-01,-4.56267e-01,-1.07468e-01,5.28128e-01,-2.06265e-01,1.62287e-01,-5.35289e-02,2.18657e-01,2.30825e-01,7.32387e-02,-3.75418e-01,2.97209e-01,-3.37108e-01,-1.28205e-01,8.76661e-02,4.11139e-01,2.04793e-01,3.64485e-01,
1.64332e-01,
3.90522e-02,
-1.42862e-01,
-7.45521e-02,
2.15282e-01,
-2.25087e-01,
-1.56323e-01,
-3.12793e-01,
-1.48999e-01,
6.21537e-03,
1.24897e-01,
-2.10535e-01,
-2.17924e-01,
-2.15272e-02,
2.21608e-01,
-9.88498e-02,
-1.77054e-01,
2.49593e-01,
1.15015e-01,
2.65485e-01,
1.30869e-01,
-2.28831e-01,
1.25400e-01,
-1.35760e-01,
-1.01594e-01,
2.70923e-01,1.17107e-01,-3.24156e-01,4.07781e-02,3.17956e-02,1.78954e-01,2.95256e-01,3.01499e-01,2.12414e-01,-1.25596e-01,1.02152e-01,3.42015e-02,2.47196e-01,1.64479e-01,1.88238e-01,-1.53769e-01,1.91254e-01,-5.21931e-02,-8.47739e-03,1.76571e-01,2.07740e-01,1.95320e-01,2.08765e-01,-7.46715e-03,-1.60942e-01,
-4.42978e-02,3.12733e-01,-2.82250e-01,1.28941e-01,2.69965e-02,2.19315e-01,-2.65070e-01,-2.73897e-01,4.81155e-02,-2.12080e-01,2.68032e-01,3.27012e-01,-2.29005e-01,3.39030e-01,4.92594e-02,1.27359e-01,9.37387e-02,-4.05092e-01,-1.88509e-02,2.68818e-01,2.48959e-01,-6.38511e-02,1.42207e-01,-1.62902e-01,1.04108e-01,
-9.53801e-02,-3.41038e-01,8.83933e-02,-1.49410e-01,9.68514e-02,-1.96381e-01,2.61152e-01,1.80990e-01,2.81178e-01,-3.89913e-02,-2.69631e-01,1.53810e-02,2.08302e-01,8.90584e-02,2.51493e-01,-1.54894e-01,-3.23618e-01,1.30028e-01,-3.26658e-01,-9.39852e-03,5.81351e-02,-2.53654e-01,-2.36123e-01,-3.78031e-02,-2.80664e-01,
2.90839e-01,-8.69842e-02,-5.94806e-01,-4.47202e-01,-3.29716e-01,8.29565e-01,-1.46011e-02,-1.77762e-01,1.99706e-01,-6.09832e-02,-2.29390e-01,-6.78027e-01,1.86676e-01,-5.25087e-01,-2.53885e-01,1.46401e-01,9.81363e-01,-2.12485e-01,-3.99512e-02,1.98507e-01,-8.23245e-02,-1.39000e-01,2.60279e-01,3.91598e-01,-3.45070e-01,
5.30386e-01,-4.29958e-01,3.98955e-01,-4.29961e-02,-7.08333e-02,1.93869e-01,1.01600e-01,1.78960e-01,-7.77632e-02,5.07482e-01,-5.21906e-02,1.80713e-01,3.32996e-01,1.35957e-01,-8.88300e-02,2.78955e-01,-4.68955e-01,3.72944e-01,2.24846e-01,4.62794e-02,-1.36093e-01,2.76903e-01,-3.43150e-03,-9.63443e-02,2.36667e-01,
-9.20480e-03,-3.37722e-01,-4.08696e-02,-2.50891e-01,-2.51104e-01,-1.00928e-02,2.68724e-01,8.02584e-02,-2.81788e-01,4.55253e-02,-1.82641e-01,1.96876e-01,-2.41922e-01,-2.02973e-01,-2.10260e-01,-2.76151e-02,2.03683e-01,9.23155e-02,-2.37152e-01,-2.62002e-01,-2.71701e-01,3.54045e-02,2.02757e-01,2.83734e-01,9.42911e-02,
1.33395e-01,3.32451e-01,2.93175e-01,-2.53193e-01,-8.87608e-02,-4.29030e-01,-2.91919e-01,-1.72136e-03,-9.84318e-02,-5.45653e-01,-4.15531e-01,-2.36913e-01,1.14538e-01,-4.70204e-01,1.75581e-01,3.37096e-01,-3.84032e-02,-1.66228e-01,-7.00228e-01,2.48797e-01,-1.21913e-01,7.49769e-02,5.22835e-01,1.43448e-01,5.23338e-02,
-3.50517e-01,3.64452e-02,-2.73567e-02,8.43535e-01,-2.72417e-01,8.00843e-02,-3.45371e-01,1.55597e-01,-2.49331e-01,2.22495e-01,-5.94216e-01,-1.79028e-01,-2.85643e-02,5.30048e-02,-2.03326e-01,2.66455e-01,-3.21170e-01,1.58065e-01,1.45982e-01,-1.71719e-01,1.84598e-01,-2.52917e-02,-3.90977e-01,2.13299e-02,-1.79060e-01,
-3.15313e-01,-5.10079e-02,3.67966e-02,-2.89739e-01,-2.06415e-01,2.43520e-01,1.39374e-01,1.74801e-01,-3.05488e-01,-3.46711e-01,-2.37287e-01,3.07138e-01,-1.70788e-01,-1.46049e-02,2.79871e-01,-4.57927e-02,5.57428e-02,-1.60675e-01,-2.92459e-01,-1.57153e-01,2.74835e-01,5.78436e-02,5.51272e-02,-2.52859e-01,2.37828e-01,
-3.98080e-01,1.91789e-01,-2.26750e-01,-5.72585e-02,2.72544e-02,-8.83271e-02,4.23872e-02,2.91895e-01,-7.53754e-02,-2.11238e-01,-7.86758e-02,-1.34476e-01,-1.49020e-01,1.90556e-02,-6.81411e-02,-1.01269e-01,2.64634e-01,-2.12799e-01,-2.13159e-01,-6.84653e-02,-2.15030e-01,-2.62494e-01,-3.00416e-02,1.46149e-01,-2.47272e-02,
-1.99518e-01,-4.77680e-01,2.30472e-01,3.45546e-01,-1.16031e-01,-3.02114e-01,-7.75922e-02,-1.17344e-01,-3.76697e-01,-1.06686e-01,2.00235e-01,4.21738e-02,1.16076e-01,-7.79594e-01,-2.79546e-01,-1.02863e-01,2.99051e-01,-6.57389e-02,-1.81436e-01,4.50416e-01,-1.42423e-01,2.62276e-01,-3.19221e-01,1.89188e-01,-2.56853e-01,
7.97866e-02,-1.59464e-01,1.44826e-01,3.06677e-01,-2.47267e-01,1.69608e-01,2.35891e-01,-7.98072e-02,-3.22750e-01,1.11376e-01,3.03496e-03,1.17528e-01,1.69283e-01,-2.85418e-02,1.36096e-01,8.04322e-02,-3.18870e-01,1.17568e-01,3.10751e-01,-1.51627e-01,-1.54344e-01,-8.82041e-02,-2.97702e-01,-2.55967e-02,1.44075e-01,
2.75950e-01,-2.26482e-01,-1.51076e-01,3.69317e-01,-3.85551e-01,8.79375e-01,-9.56622e-03,5.77904e-02,-1.61833e-01,2.59399e-02,8.93800e-02,2.40848e-01,2.96971e-01,1.90398e-01,-6.60967e-02,-1.01432e-01,3.55539e-01,-1.82382e-01,-2.69013e-01,2.50539e-01,-2.25447e-01,3.02821e-01,2.39418e-01,-1.25389e-01,3.68826e-01,
-9.44691e-02,-1.32542e-01,-1.50176e-01,-1.80697e-02,-8.08855e-02,3.66218e-01,-1.76882e-01,1.74586e-01,3.12302e-01,2.01747e-01,2.74631e-01,2.30579e-01,3.10516e-01,1.21485e-01,2.25708e-02,-2.65484e-01,-1.96661e-01,4.88590e-02,-3.06783e-02,3.24671e-01,-1.04811e-01,1.61884e-01,-2.78863e-01,1.89439e-02,-1.14180e-02,
-2.85647e-01,1.89978e-01,-5.94786e-02,-3.28671e-01,2.41016e-01,-4.83695e-02,9.22137e-02,-1.26177e-01,2.49419e-01,-2.84213e-02,3.85744e-02,2.07113e-01,2.86633e-01,-1.94388e-01,6.43846e-02,-8.27456e-02,1.66080e-01,-3.38384e-01,-1.64347e-01,-1.70541e-01,-6.25943e-03,-2.46552e-01,2.67478e-01,1.25171e-01,-2.66108e-01,
-3.28509e-01,-1.81753e-01,-1.63718e-01,2.36942e-01,-2.03925e-02,-2.17259e-01,-1.08905e-01,-1.31085e-01,1.65280e-01,-2.19612e-01,-1.48772e-01,-1.98917e-01,7.92786e-02,-2.24247e-01,2.66511e-01,1.17225e-01,1.75532e-01,1.60535e-01,-2.88508e-03,2.68973e-01,1.52266e-01,-1.76188e-01,-7.46449e-02,-2.41606e-01,-2.37702e-01,
-9.19555e-02,-6.50032e-02,9.06367e-02,2.63416e-01,1.67467e-01,4.72637e-04,-1.36793e-01,1.05589e-01,-3.75607e-02,1.52218e-01,-2.00883e-01,-2.25697e-01,1.13844e-01,7.71341e-03,-3.08566e-01,6.71300e-02,-6.05670e-02,2.32105e-01,-1.42925e-01,1.28354e-01,2.56675e-01,3.09268e-01,1.39314e-01,1.64248e-01,-3.28456e-01,
-2.16861e-01,9.74201e-02,1.87580e-03,-9.36327e-02,1.40063e-01,1.89327e-01,-1.07929e-01,-3.13382e-01,4.27804e-01,1.34478e-01,-2.11245e-01,-2.07538e-01,-1.88627e-01,-5.30540e-02,-3.77360e-02,-2.45463e-02,1.97495e-01,-7.96610e-02,7.83314e-02,-1.98144e-01,-1.79818e-01,5.42540e-02,3.25084e-01,-2.47413e-02,3.45704e-01,
2.35330e-02,-2.53269e-01,6.74459e-01,2.16471e-01,-2.15821e-01,6.02505e-01,-1.91889e-01,1.21406e-01,-2.81472e-02,2.13255e-01,6.67580e-02,2.04507e-01,2.14545e-01,-2.30022e-01,-2.60316e-02,2.93002e-01,-3.65767e-02,-1.86106e-01,2.96016e-01,8.73135e-02,-2.97354e-01,3.33788e-01,-1.86806e-02,-4.24774e-01,4.45964e-01,
1.59781e-01,9.17514e-02,2.30150e-02,-4.08624e-02,1.33669e-01,3.44698e-01,2.32016e-01,-2.26089e-01,2.40345e-02,-1.97552e-01,2.57788e-01,-1.29573e-01,-3.29992e-02,-3.14608e-01,1.69704e-01,1.22218e-01,-1.10277e-01,-3.33033e-01,-2.30308e-01,-1.89811e-01,-9.24447e-02,8.65541e-02,1.74037e-01,-3.39085e-01,-3.00911e-02,
-6.16451e-01,1.83861e-01,-1.92413e-01,3.92317e-01,2.30251e-02,5.28464e-01,-1.24135e-01,1.58706e-01,2.41225e-01,4.45825e-01,1.32449e+00,1.21847e-01,-1.88635e-01,-5.62998e-01,1.90536e-01,3.38068e-01,-4.81830e-01,-2.07405e-01,1.02271e-01,4.51555e-01,-1.74092e-01,-5.29562e-01,1.85265e-01,-1.51441e-01,8.16195e-01,
-9.51024e-02,3.79592e-01,-1.76968e-01,-4.25674e-02,-4.44780e-02,-4.85810e-01,1.19129e-01,-2.60435e-02,2.15841e-01,9.58613e-02,2.14205e-02,4.27498e-01,-3.18285e-01,1.40236e-01,-1.10865e-01,2.24578e-01,-2.08988e-01,6.13904e-02,-6.88379e-01,3.49640e-02,4.38957e-02,-5.30580e-02,1.77872e-01,-3.15228e-01,1.31334e-01,
-2.62933e-02,-9.20660e-02,-8.47771e-02,-1.33222e-01,-1.72538e-01,5.00258e-02,1.61937e-01,-1.57386e-01,4.01182e-02,2.12015e-01,-2.84832e-01,-3.78492e-01,2.23253e-01,3.32330e-01,-1.99876e-01,-2.60709e-01,1.23283e-01,2.83099e-01,1.17558e-01,-1.38592e-01,1.97547e-01,-5.26361e-03,-5.30172e-02,8.25541e-02,-1.25058e-01,
1.52188e-01,3.53963e-01,-8.93065e-01,1.47995e-01,-1.76941e-01,-2.32461e-01,2.38220e-01,2.93062e-01,-1.21803e-01,-6.05083e-01,1.63439e-02,6.35523e-02,1.93712e-01,3.91465e-01,3.07919e-01,-2.79694e-01,4.55608e-01,-1.37716e-01,-3.35724e-01,1.25321e-01,4.33960e-01,-3.33916e-01,1.07569e-03,-5.24661e-02,-7.50376e-02,
2.92766e-01,-1.82123e-01,5.52686e-01,3.55923e-01,2.49637e-01,-4.18551e-02,-5.23373e-02,1.32376e-01,1.10421e-01,-4.49109e-02,-1.17352e-01,3.87206e-01,-1.18753e-01,-2.28366e-01,-5.59849e-02,1.87359e-01,-3.52778e-01,1.99660e-01,-1.15246e-01,-8.42823e-02,-1.35489e-01,2.08640e-01,2.53620e-01,-1.59106e-02,4.57813e-02,
-2.59534e-01,
-2.18347e-01,
-1.37231e-01,
1.00101e-01,
-1.59936e-01,
-2.97841e-01,
-1.48253e-01,
1.30296e-01,
1.35557e-02,
2.31591e-01,
1.32112e-01,
1.88424e-01,
1.87033e-01,
1.38340e-01,
-2.84806e-01,
-2.05240e-01,
3.01126e-01,
-1.64004e-01,
2.26797e-01,
-3.39797e-01,
-9.51499e-02,
-3.84628e-02,
1.59001e-01,
1.92824e-01,
-4.37062e-02,
-7.38578e-02,1.10728e-01,1.60854e-01,-2.33751e-01,1.54035e-01,2.81619e-01,1.85764e-01,2.65359e-01,2.75106e-01,-2.76980e-01,4.49052e-01,2.53937e-01,-2.31880e-01,2.90128e-01,-1.59488e-01,2.70836e-01,2.48358e-01,1.48168e-02,2.77901e-01,-1.10360e-01,-3.28616e-01,-3.67319e-01,-1.49238e-01,-2.48764e-01,3.71640e-01,
-1.12294e-01,2.82252e-01,2.99155e-01,4.02646e-01,-2.65932e-01,-1.14440e-01,-7.76103e-02,-1.86612e-02,-1.97542e-01,-1.48189e-01,-6.56555e-01,-4.80046e-01,-6.20398e-01,-4.72900e-01,-3.83498e-02,1.32900e-01,1.85782e-01,-3.46159e-01,-3.46713e-01,-8.22209e-02,3.40104e-01,4.30870e-01,-2.77968e-01,-1.64370e-01,1.96829e-02,
1.16567e-01,-2.64791e-01,-2.98671e-02,5.74155e-02,-1.67780e-01,-1.31588e-01,-6.92026e-02,4.05792e-02,-8.30142e-02,1.73420e-01,-1.38823e-01,1.61483e-01,-2.70226e-01,1.37607e-01,2.58168e-01,-2.64851e-01,1.79320e-01,6.42899e-02,-2.89561e-01,6.51539e-02,5.47336e-02,1.27655e-01,1.20689e-01,1.11129e-01,-1.60358e-01,
2.39209e-01,-1.50894e-02,5.25200e-02,1.36941e-02,1.38521e-01,-2.00065e-01,-4.18361e-01,4.00197e-01,6.64054e-02,1.27121e-01,2.22937e-02,-6.70822e-02,1.21649e-01,1.78473e-01,1.44653e-01,-2.23399e-02,1.26700e-01,-1.17147e-01,-9.90378e-02,-2.36445e-01,-1.17115e-01,-1.23532e-01,1.32037e-01,-2.16649e-01,1.65881e-01,
4.51950e-02,-2.07309e-01,-2.52308e-01,1.53157e-01,-3.04454e-01,1.89984e-02,-1.61978e-01,-6.49786e-01,-1.88498e-01,-9.28896e-02,-1.01049e-01,-1.94308e-01,1.26879e-02,-1.76983e-01,2.37849e-01,2.26987e-01,3.15918e-01,-6.47337e-01,1.90659e-01,8.56306e-02,-2.75019e-01,3.22562e-01,1.04372e-01,-5.21611e-01,3.45051e-01,
1.24725e-01,4.15372e-01,1.07502e-01,6.55055e-01,-2.60251e-01,-4.73168e-03,-7.46466e-02,5.24302e-01,1.88673e-01,-2.60781e-01,1.24445e-02,1.78806e-01,-1.28764e-01,-4.26737e-01,-2.49177e-01,3.34337e-01,1.90562e-01,-2.18616e-01,-1.27011e-01,1.83258e-01,1.27275e-01,-2.93975e-01,-3.15307e-01,3.88254e-01,-2.99038e-02,
1.35787e-01,2.32902e-01,2.00823e-01,-1.37280e-01,-8.02095e-02,2.72621e-01,8.09509e-02,-1.89321e-01,1.99918e-01,-5.63288e-02,-3.91870e-01,4.80717e-03,3.01307e-01,-7.90175e-02,-8.51618e-02,-2.04464e-01,9.69676e-02,2.24276e-02,1.19534e-01,-2.70432e-01,-2.37428e-01,1.79660e-01,4.51613e-02,-2.08848e-02,1.47160e-01,
-2.66410e-01,1.95148e-01,-1.82471e-01,-1.66478e-01,1.93011e-01,-9.94021e-03,7.13038e-03,2.34445e-01,2.66387e-02,1.81361e-01,1.59403e-01,-1.73101e-01,-2.13705e-01,-1.28249e-01,2.47000e-01,1.20727e-01,-8.94648e-02,-9.37853e-02,2.69573e-01,1.50340e-01,1.81845e-01,-5.39084e-01,6.71028e-02,7.59739e-02,2.12086e-02,
5.95274e-02,2.24256e-01,1.67707e-01,1.52560e-01,1.36820e-01,3.11917e-01,1.01803e-01,2.63175e-01,1.24929e-01,-2.83183e-01,1.59306e-01,-1.11263e-01,8.45222e-02,-3.33345e-01,-2.44763e-01,2.29584e-02,-2.59487e-01,1.41500e-01,-1.03417e-01,-5.28041e-02,-2.66660e-01,-2.60134e-01,-1.62633e-01,-1.36045e-01,1.49713e-01,
-1.32912e-02,-1.13135e-02,2.11984e-01,6.57288e-01,-8.46115e-01,-3.17600e-01,-5.17900e-01,-1.86870e-01,-6.62103e-02,-9.58289e-02,-1.38954e-01,-2.67408e-01,-1.13392e-01,5.39284e-02,-3.34923e-01,-2.26140e-01,1.62127e-01,-3.24117e-01,-1.79031e-01,-3.65072e-02,3.00080e-01,1.42487e-01,-8.28880e-03,-2.20115e-01,-1.31723e-01,
-3.32582e-01,-1.36228e-01,3.46356e-01,-3.21755e-01,5.31807e-01,3.07535e-02,1.54116e-01,-1.14573e-01,-2.47508e-01,1.80158e-01,3.06838e-01,-4.19992e-01,1.12352e-01,3.30008e-01,-3.01962e-02,7.05573e-02,-3.76271e-01,-9.96599e-02,1.75945e-01,-5.62896e-02,-3.00316e-01,6.87877e-03,-3.00154e-01,-1.85807e-01,-2.07266e-01,
-3.78873e-01,8.04678e-02,6.31791e-02,-2.73759e-01,5.52290e-03,2.82812e-01,5.19634e-02,-1.06245e-01,-2.52764e-01,-3.20321e-01,3.58192e-01,-5.66081e-02,-1.44263e-01,3.09401e-01,-1.06860e-01,-3.33513e-01,9.40059e-02,-3.07865e-01,2.83577e-01,1.83105e-01,-2.16388e-01,-5.54225e-02,1.99949e-01,-3.07839e-01,2.72886e-01,
8.82361e-02,-1.62215e-01,1.26945e-01,-8.89441e-02,-4.04010e-01,-1.46157e-01,-2.34205e-01,1.37839e-01,-1.76109e-01,-1.48937e-01,3.44891e-01,-1.50992e-01,-2.40191e-01,-1.85361e-01,-4.01154e-02,1.93832e-02,5.42617e-02,-1.89904e-01,4.45124e-02,-4.28414e-03,-1.78782e-02,4.49834e-01,5.51155e-02,1.11140e-01,1.51338e-01,
9.20682e-02,6.72195e-02,1.72334e-01,-8.19584e-02,-2.92403e-01,1.04990e-02,-2.14714e-01,-1.57958e-01,1.89854e-01,2.04948e-01,4.91518e-03,3.24332e-01,1.58015e-01,1.58902e-01,2.67536e-01,-2.45378e-01,1.82780e-01,2.30571e-01,-1.71189e-01,1.36664e-02,1.61405e-01,-9.55676e-02,5.27942e-02,2.16728e-01,-2.49755e-01,
1.41628e-01,-7.84705e-03,2.86309e-01,2.58264e-01,-8.36260e-02,-3.09664e-01,2.73227e-01,3.90338e-02,5.41007e-02,5.96161e-02,3.49679e-01,-2.99753e-01,-6.77782e-02,2.67837e-01,1.97102e-01,-4.08810e-02,-6.00474e-02,1.20210e-02,1.54712e-01,-1.55721e-01,4.37576e-02,-2.31005e-01,-2.35686e-01,-2.85315e-01,-2.50243e-01,
-2.77926e-01,-8.09847e-02,-2.35100e-01,-2.09867e-01,-2.14328e-01,2.01219e-01,2.70526e-02,2.22250e-01,1.26431e-01,3.46542e-02,-1.30553e-01,-1.23365e-01,-6.55380e-02,2.99912e-02,-3.67793e-03,-2.50348e-03,-1.36141e-01,2.99529e-01,-3.20629e-01,-8.22864e-02,-5.69857e-02,-1.20557e-01,-3.92228e-04,2.33141e-01,1.70508e-01,
2.19049e-01,-8.35612e-02,-2.56971e-01,-4.95376e-01,-1.89297e-02,3.04758e-01,2.26159e-01,3.21361e-01,-2.74303e-01,1.36886e-01,3.86346e-01,1.86910e-02,1.05772e-01,1.88825e-01,3.84332e-01,3.25849e-01,9.88655e-02,1.47896e-01,-1.55253e-01,-2.18845e-01,1.32818e-01,-2.89614e-01,4.85032e-02,2.26644e-01,-2.04244e-01,
1.19877e-01,1.49990e-01,7.26319e-02,1.68816e-01,-2.26749e-01,-2.07199e-01,-3.24686e-03,3.05369e-01,-2.53506e-01,-1.76479e-01,4.16187e-02,-2.99499e-02,1.62950e-01,2.91971e-01,2.56652e-01,-3.39324e-01,-1.28437e-02,8.26097e-02,2.40584e-01,-2.48614e-03,2.03202e-01,-3.37520e-01,-1.42618e-01,2.06729e-01,-2.17985e-01,
6.91183e-02,-7.37643e-02,8.40008e-02,-2.20223e-01,-1.46999e-01,-3.84213e-02,2.88419e-01,7.70847e-02,-2.28145e-01,-4.15582e-01,-1.97146e-01,3.02241e-01,2.44780e-01,-6.33057e-02,-3.22559e-01,-2.00174e-01,2.96895e-01,-2.77373e-02,2.32917e-01,-1.42040e-01,-2.97685e-01,-1.62373e-01,2.63394e-01,-1.59744e-01,3.44179e-01,
2.79024e-01,-3.30892e-01,1.45274e-01,2.25871e-01,1.04373e-01,-3.04787e-02,-1.27586e-01,6.28756e-02,2.88791e-01,1.64945e-01,-2.13434e-01,2.34126e-01,2.52122e-01,6.06165e-02,2.81938e-02,-9.66039e-02,-3.08019e-01,6.11922e-03,-1.71156e-01,-3.20126e-01,4.28272e-02,-1.43228e-01,-2.02864e-01,-2.63065e-01,1.11276e-01,
9.77079e-02,1.78266e-01,1.79336e-01,-6.80075e-02,5.17496e-02,-2.46352e-01,-1.96455e-01,-1.14163e-01,-2.77461e-01,7.86054e-02,-2.52945e-02,9.36708e-02,1.87451e-01,-3.04750e-01,2.47749e-02,1.27266e-01,-1.12040e-01,2.33631e-02,1.08455e-02,-1.99978e-01,5.60220e-02,-1.09390e-01,-3.03899e-01,-1.69652e-01,2.47121e-03,
-1.38780e-01,5.63889e-02,2.08685e-01,3.48740e-01,3.09555e-01,-3.40155e-01,-1.64455e-02,-2.75711e-01,1.06743e-03,1.40946e-01,2.95912e-02,7.88195e-02,-8.30996e-02,2.21935e-01,1.03831e-01,-1.60940e-01,-1.14633e-01,7.27047e-02,1.56202e-01,1.05465e-01,5.54318e-02,-1.77827e-01,-2.16118e-02,5.38141e-02,1.69068e-01,
-3.34873e-02,-3.04908e-01,-6.35276e-02,-2.57243e-01,-2.03867e-01,-2.71802e-01,1.79021e-01,-9.01828e-02,4.96249e-02,1.25683e-02,2.45228e-01,-2.48948e-01,-2.53549e-01,3.43122e-01,-2.52778e-01,2.71047e-01,-1.83689e-01,6.78495e-02,1.67233e-01,1.54969e-01,-2.67416e-01,-1.13054e-01,-3.38989e-01,-2.95314e-01,2.68385e-01,
-8.10535e-02,-1.58732e-01,-1.43489e-01,-1.57705e-01,-5.17478e-02,-1.84244e-01,5.49672e-02,-2.62890e-01,2.07665e-01,6.15683e-02,8.21102e-02,3.40083e-01,-3.45949e-02,-1.27239e-01,-2.00086e-01,-2.05313e-02,1.56080e-01,1.45596e-01,2.58211e-01,1.86919e-01,6.36232e-02,4.12016e-02,6.59025e-02,-3.73525e-02,2.68412e-01,
1.87492e-01,-2.63129e-01,2.34517e-01,-3.51639e-01,-1.66770e-01,8.85404e-02,-2.33681e-01,9.59671e-02,2.23833e-01,-2.10746e-01,1.21522e-02,1.24014e-01,3.13971e-01,2.04357e-01,-1.86767e-01,-8.62076e-02,-2.87813e-02,6.61362e-02,1.67118e-02,2.28320e-01,-2.92762e-01,-2.76197e-01,3.35941e-02,-3.36827e-01,-3.83692e-02,
-1.48410e-01,
1.46237e-01,
2.13951e-01,
-5.95217e-02,
3.00223e-03,
3.02243e-01,
2.50086e-01,
3.57728e-01,
-1.54752e-01,
-8.29664e-02,
2.37792e-01,
1.09651e-01,
1.54674e-01,
-4.42730e-02,
1.18507e-01,
-1.43071e-01,
-5.53809e-02,
-2.66897e-01,
2.41305e-01,
-1.16023e-01,
-1.19076e-01,
9.50881e-02,
-2.89454e-01,
-2.91236e-02,
2.11719e-01,
-1.31991e-01,-2.90235e-01,-1.98981e-01,1.14168e-01,2.48761e-01,-2.97312e-01,5.51813e-02,2.20510e-01,2.66060e-01,-5.26376e-02,1.81004e-01,-4.16135e-01,-8.86976e-02,-3.50311e-01,-1.05769e-01,-6.69087e-02,8.10576e-02,-4.17633e-02,-1.60243e-01,1.72719e-01,-1.40104e-01,-8.01256e-02,-2.67529e-01,-2.59479e-01,2.50906e-01,
8.91050e-02,-2.13323e-01,2.80891e-02,3.53942e-01,7.98594e-02,2.02686e-01,-2.35348e-03,1.13328e-01,1.48310e-01,1.97602e-01,-1.19777e-01,3.06087e-01,2.70764e-01,3.27001e-01,-1.39849e-01,1.00453e-01,3.05096e-01,1.25283e-01,1.22759e-01,2.56475e-01,-8.12040e-02,1.77534e-01,1.07733e-01,2.50497e-01,-1.16170e-01,
-1.30861e-01,-8.90926e-02,3.15727e-01,8.30787e-02,-2.52901e-01,2.41423e-01,-3.05810e-04,-3.27619e-01,-4.87182e-02,4.18806e-01,-4.77432e-01,-3.07325e-01,1.32086e-01,-3.16987e-01,-3.29444e-01,2.37311e-01,6.64637e-02,1.97454e-02,-4.23891e-01,1.90687e-01,-6.15308e-03,1.44561e-01,-3.88851e-02,-1.26433e-01,-2.12578e-01,
-3.41669e-01,-3.15880e-01,-1.18539e-01,-2.72238e-01,3.09688e-01,2.64437e-01,2.76201e-01,-3.91618e-02,-2.17514e-01,2.84438e-01,7.82615e-03,4.88094e-02,4.23578e-02,5.77250e-02,1.60650e-01,2.57483e-01,2.64194e-01,2.46011e-01,-2.67012e-01,6.31378e-02,-3.26240e-01,2.67617e-01,1.41161e-01,-3.37081e-02,2.39511e-01,
-4.60148e-01,-1.16207e-01,4.08266e-02,-1.42810e-01,-1.15219e-01,-1.01086e-01,8.98712e-02,1.32561e-01,-8.10348e-02,8.86234e-02,7.13110e-02,1.16270e-01,1.26510e-01,-2.83692e-01,1.57491e-01,2.61642e-01,-7.44849e-02,1.28266e-01,-1.07878e-02,2.63472e-01,-2.90563e-01,2.57503e-01,-1.82702e-01,-2.72745e-01,-2.09750e-02,
-5.05968e-01,-1.56965e-01,2.64147e-01,2.11673e-01,1.44410e-01,-2.04495e-01,2.46998e-01,3.25195e-01,6.77321e-02,2.32599e-01,7.42818e-02,-1.34650e-01,4.13740e-02,7.05788e-02,2.00893e-02,5.49239e-02,-1.80720e-01,2.35795e-01,2.48821e-01,-2.00255e-02,6.28919e-02,1.03520e-01,2.97232e-02,-2.10243e-02,-2.10343e-01,
8.49290e-02,1.41195e-01,1.68722e-01,2.75340e-01,-2.41948e-01,9.89981e-03,1.41109e-01,3.47570e-01,-3.04777e-02,1.33864e-01,3.13641e-01,1.60093e-01,2.94000e-01,2.83918e-01,-2.19341e-01,1.07489e-01,-1.81118e-01,-9.18052e-02,-1.24192e-01,-1.61668e-01,-3.27408e-01,2.95021e-01,2.28233e-01,1.65725e-01,-2.44283e-01,
1.94458e-01,-2.81050e-01,3.56899e-01,-3.21534e-01,8.66878e-02,1.86869e-01,2.67732e-01,1.99759e-01,1.69879e-01,6.81712e-02,-9.79365e-02,-5.88818e-02,-1.45121e-01,3.18624e-01,2.52492e-01,1.23365e-01,-1.95074e-01,2.42196e-01,2.84160e-01,1.77013e-01,-3.37454e-01,1.72314e-02,6.67550e-02,-9.74735e-03,-1.22735e-02,
-2.09931e-01,4.51936e-01,-8.62863e-02,1.94962e-01,-2.28034e-01,-2.34808e-01,-1.65192e-01,3.97647e-02,1.73971e-01,-2.11413e-01,5.66999e-01,-2.94236e-01,-1.77982e-01,-2.50431e-01,-9.60566e-02,2.27087e-01,-1.79724e-01,1.83542e-01,2.23512e-01,-3.18771e-01,-2.42651e-01,-1.81839e-01,1.20293e-01,6.91123e-02,1.56265e-02,
1.89679e-01,2.82390e-01,1.18927e-01,-2.26673e-01,1.46591e-01,1.46535e-01,-3.22840e-01,-2.48939e-01,-8.48652e-02,-1.28655e-01,-1.82160e-01,1.74870e-01,-2.44345e-02,2.38980e-01,9.41331e-02,-2.00596e-01,1.60845e-01,1.19191e-02,-1.66846e-01,8.57616e-02,-2.59604e-01,-3.39276e-01,2.57675e-01,2.01808e-01,-2.82113e-01,
-1.65007e-01,-1.75616e-01,2.40168e-01,-1.16947e-01,-2.79290e-01,-1.06290e-01,-2.89789e-01,1.53210e-01,-2.73565e-01,5.54271e-02,-1.94861e-01,2.85413e-01,-3.07286e-01,1.54123e-01,5.70492e-03,-2.78277e-01,2.67347e-01,1.27773e-01,8.21745e-02,2.90667e-01,-2.59790e-01,-3.01241e-01,1.67081e-01,-1.93502e-01,7.46318e-02,
-1.08196e-01,1.45250e-01,9.42300e-02,7.75855e-02,5.45211e-01,-3.63343e-02,-1.36770e-02,-2.80611e-01,1.18357e-01,1.84072e-01,4.22693e-01,-1.08940e-01,4.36437e-02,1.55085e-01,4.56915e-03,5.45529e-03,4.27997e-01,6.79659e-02,-6.08023e-02,2.43468e-01,-5.04657e-02,-3.79417e-01,2.42637e-02,-4.50575e-02,1.59332e-01,
2.39957e-01,7.20596e-02,-5.88777e-02,2.94533e-01,1.42413e-01,-3.41013e-01,3.38341e-01,-2.83569e-01,1.14948e-01,5.73295e-03,-2.76950e-01,-1.11356e-01,-8.74257e-02,1.51119e-02,2.48885e-01,2.36059e-01,-8.91095e-03,-2.44165e-01,-2.91461e-01,-3.29815e-01,-2.43205e-01,3.49022e-02,-5.51964e-02,1.14414e-01,-1.45202e-01,
-1.63224e-01,3.00549e-01,3.30658e-01,-1.63898e-02,-1.07454e-01,7.88653e-02,-5.70909e-03,-2.40164e-01,-3.00928e-01,-6.76389e-02,1.50958e-01,8.98749e-02,-1.48311e-01,-2.11869e-02,3.47513e-03,-2.20189e-02,1.52943e-01,1.75991e-01,1.37252e-01,1.78257e-01,-2.18593e-01,-1.69714e-01,3.07128e-01,3.28081e-01,2.53517e-01,
1.08776e-02,-3.07714e-03,1.01777e-02,-3.51573e-01,-1.62033e-01,-1.00242e-01,4.18618e-03,-2.62578e-01,-1.34816e-01,-4.81253e-02,7.49086e-02,1.29419e-01,4.81667e-02,-1.94521e-01,-3.60390e-01,-2.50918e-01,-2.62551e-01,6.69722e-02,-8.34042e-02,-1.34244e-01,2.30616e-01,-2.46273e-01,2.46787e-01,-1.17429e-01,-2.12656e-01,
-3.40777e-02,1.69826e-01,6.43220e-02,-2.12168e-01,1.19096e-01,-1.37015e-02,2.32104e-01,-3.15236e-01,2.45060e-01,-4.57687e-01,-3.03847e-01,9.18875e-02,-1.78014e-02,4.09196e-03,2.21164e-01,-3.82793e-02,-7.41119e-02,-2.53317e-01,-1.04925e-01,3.22095e-01,-2.21586e-01,-3.19511e-02,5.90900e-02,3.73621e-02,1.08895e-01,
-2.64123e-01,-2.63488e-01,1.62604e-01,1.32861e-01,2.14675e-01,9.03131e-02,-9.57937e-03,2.59697e-01,-1.75562e-01,1.51933e-01,2.75629e-01,6.58197e-03,1.75763e-01,9.28488e-02,2.37373e-01,-2.52404e-01,2.81005e-01,-1.62557e-01,-7.65898e-02,-1.58028e-01,2.88845e-01,2.81814e-01,2.94166e-01,9.62630e-02,-1.58673e-01,
2.91300e-01,-1.46108e-01,-3.53967e-01,2.54101e-01,3.24122e-01,5.61305e-02,3.56131e-01,1.83016e-01,-1.36062e-01,-2.92403e+00,-5.33055e-01,-2.49351e-01,1.54647e-01,5.08712e-01,-1.36223e-01,-1.13621e-02,2.91014e-01,2.58670e-01,6.19160e-02,1.21017e-01,-2.08294e-01,3.06505e-01,-9.61097e-02,-6.07559e-02,1.90839e-01,
8.66892e-02,-2.57464e-01,5.67927e-02,2.08203e-02,3.18917e-01,-2.14967e-01,-8.49512e-02,-3.62337e-04,-1.77770e-01,1.54761e-01,1.20515e-01,2.50294e-01,-2.67978e-02,2.18435e-02,-2.68061e-01,3.37876e-01,1.05245e-01,-9.84741e-02,-1.64670e-01,2.17187e-01,2.37145e-01,7.49303e-02,-2.51960e-01,2.16035e-01,-1.26558e-01,
1.74897e-01,-9.39586e-02,4.18853e-02,-2.84010e-01,3.33513e-01,-3.41009e-02,9.06507e-02,-1.04284e-02,-2.32716e-01,-1.29982e-01,-1.24650e-01,1.04741e-01,-2.65137e-01,-6.58202e-02,1.56937e-01,1.31005e-01,2.32419e-01,3.15611e-01,2.29139e-01,-2.42478e-01,1.85200e-01,-3.41373e-01,-2.42686e-01,-1.30136e-01,-2.00438e-01,
1.82804e-02,-4.85683e-02,1.03560e-01,-1.53436e-01,-2.88953e-01,-2.50029e-01,3.18943e-01,2.24074e-01,-3.20855e-01,-3.79555e-02,-2.43334e-01,-2.03576e-01,-1.92251e-02,-1.85701e-01,-2.14958e-01,2.37401e-01,-1.45014e-01,-2.54763e-01,-3.03040e-02,-3.36241e-01,1.56999e-01,1.29274e-01,4.19421e-02,-1.45850e-01,2.13409e-02,
-1.17762e-01,2.49045e-01,-2.62496e-01,-3.13191e-01,7.66549e-02,9.69099e-02,1.55447e-01,-8.42389e-02,2.04480e-01,3.04592e-01,-1.12943e-02,2.85095e-01,8.98791e-02,1.03638e-01,-1.75034e-01,3.32928e-01,5.74883e-02,-4.61619e-02,-3.01584e-01,2.74822e-01,3.05851e-01,-1.36115e-01,-2.12730e-01,2.00887e-01,-3.04650e-01,
-4.61985e-01,-2.92200e-01,1.85652e-01,8.17144e-02,3.56365e-01,3.17523e-01,-3.04114e-01,2.23166e-01,3.44151e-01,4.25269e-01,-7.30635e-01,-6.38124e-02,-1.90708e-01,1.88266e-01,2.20669e-02,2.49541e-01,2.59994e-01,-3.15498e-01,2.61846e-01,2.97177e-03,3.39651e-01,-3.94037e-01,-1.47190e-02,2.27919e-02,2.79695e-01,
-1.07779e-01,-1.62920e-01,-1.73736e-02,1.37500e-01,5.82128e-02,-2.53961e-01,-2.39987e-02,-2.86988e-01,1.40127e-01,-1.15867e-01,-1.89241e-01,2.84857e-01,1.00805e-01,2.23261e-01,2.23280e-01,-2.96071e-01,1.36375e-01,3.45772e-02,-4.82335e-02,1.49951e-01,-3.28577e-01,-2.67430e-01,-6.49674e-02,-3.34257e-01,-1.99662e-01,
-9.14944e-02,-1.87103e-01,1.99550e-01,1.11084e-01,3.82089e-01,2.94772e-01,2.22433e-01,2.36891e-01,2.77367e-02,2.94873e-01,1.60979e-01,1.96861e-01,-1.81018e-01,2.05649e-01,2.51502e-01,2.75913e-02,-5.50840e-03,-3.60179e-02,2.04244e-01,1.82720e-01,-1.96996e-03,-2.38439e-02,-1.13782e-01,3.44618e-02,1.10705e-01,
1.34269e-01,
-1.02717e-01,
2.57884e-01,
-3.32596e-01,
2.73746e-01,
-1.61585e-01,
-4.45681e-02,
3.25817e-01,
2.71216e-01,
-1.55928e-01,
-1.68353e-01,
7.46979e-02,
6.01142e-02,
-6.76651e-02,
2.38037e-01,
2.55318e-01,
1.73283e-01,
-2.86162e-01,
-1.48224e-01,
-2.68149e-01,
2.01970e-01,
9.15426e-02,
-2.69489e-01,
-3.10389e-01,
-2.18622e-01,
-2.75746e-01,2.67508e-01,-1.03732e-01,-4.22831e-02,3.73559e-01,-2.64692e-01,7.81221e-02,-1.79952e-01,6.95054e-02,-3.91169e-01,2.39757e-02,-1.45344e-01,1.32443e-01,2.12229e-01,-1.70389e-01,3.58574e-01,2.38013e-03,-1.19650e-01,-4.01523e-01,3.59410e-02,3.89400e-01,-2.90942e-01,5.78998e-04,7.43729e-02,4.55292e-01,
3.13117e-01,-2.14040e-01,-2.57830e-01,1.24729e-01,8.68493e-02,-2.33127e-01,-8.55267e-02,-2.97695e-01,-1.48781e-01,-1.09745e-01,3.71244e-01,4.62552e-02,-9.46169e-02,-1.63424e-01,3.03433e-01,7.94903e-02,-6.14393e-02,1.31596e-01,-1.76177e-01,-4.13580e-02,1.05862e-01,6.97627e-02,-1.21977e-01,-7.33319e-02,-8.71271e-02,
-3.84166e-01,2.32808e-01,-2.83518e-01,-1.51519e-01,1.12613e-01,5.65468e-02,2.52503e-01,1.69654e-01,-6.36337e-02,8.38950e-03,9.33032e-02,6.96911e-02,2.12943e-01,3.07948e-01,4.45641e-01,1.24773e-02,3.43569e-01,7.87980e-02,1.99172e-02,2.33734e-01,3.11527e-01,1.02000e-02,-5.12007e-02,-3.39223e-01,1.91275e-01,
-1.28874e-01,3.50980e-01,1.55683e-01,4.31287e-01,3.57400e-01,1.24968e-01,3.45131e-01,4.93366e-01,1.28374e-01,2.43204e-01,2.92371e-01,4.64778e-02,2.09190e-01,1.51688e-01,5.78419e-02,2.60568e-01,-7.28380e-02,5.84804e-02,-3.51524e-01,-3.46825e-01,-2.15001e-01,-1.98420e-02,-5.76219e-01,6.53777e-03,-2.22799e-01,
-3.07335e-01,2.86947e-01,-4.39033e-02,3.26008e-01,3.04090e-01,3.36008e-01,-1.63108e-01,-3.94198e-01,6.06926e-02,-3.68104e-01,-2.61592e-01,-2.08260e-01,-3.81196e-01,3.79252e-03,2.72050e-03,-2.24349e-01,-2.94633e-01,3.30131e-02,1.13255e-01,3.93315e-01,-3.44937e-01,-2.31516e-01,1.91421e-01,3.18871e-01,-2.01429e-01,
-3.39665e-01,
3.58649e-01,
-5.67944e-01,
-6.19227e-01,
4.34195e-01,
