// Neural Network File Format by Kyle Julian, Stanford 2016
6,3,5,25,
3,25,25,25,25,25,5,
0,
-56000.000000,-56000.000000,-3.141593
56000.000000,56000.000000,3.141593
-278.628049,0.000000,0.000000,-0.242819
112000.000000,112000.000000,6.283185,17.479225
-9.65635e-01,-5.42136e-03,-5.55486e-01,
1.05664e-01,1.81952e+00,5.26585e-01,
-8.35580e-01,1.23049e+00,1.90877e-01,
7.06810e-01,5.65547e-02,-7.74857e-01,
-5.52517e-03,2.46975e-01,8.26239e-02,
4.54953e-02,3.68599e-02,1.31866e-01,
-1.54449e+00,1.66307e-01,6.17663e-01,
-5.63285e-01,-4.88976e-01,8.56025e-02,
1.06329e+00,-5.53992e-01,-6.06481e-01,
1.30566e+00,-3.69234e-02,5.69481e-02,
-6.53183e-01,1.51880e+00,-2.81276e-02,
8.66361e-02,-1.75071e+00,-5.63756e-01,
2.93456e-01,3.99225e-01,-3.88691e-01,
-1.82800e+00,-7.10195e-01,-2.16158e-01,
-3.19154e-01,-1.29588e+00,-1.64662e-02,
-2.41426e+00,-7.92287e-01,-7.12309e-02,
1.11885e+00,-1.15400e+00,-2.81311e-02,
6.28268e-01,9.61910e-01,2.96477e-01,
-5.18341e-02,7.82409e-03,-1.27412e-01,
8.62804e-01,1.50560e+00,3.84101e-01,
-1.99084e+00,5.92885e-01,-4.94536e-01,
6.99544e-03,2.35666e-01,-6.47142e-02,
-2.17315e-01,1.66510e+00,-4.43942e-01,
8.04082e-01,4.74274e-01,-6.23141e-01,
-8.38494e-02,-1.62200e+00,-4.12372e-01,
-1.82925e-01,
-4.08874e-02,
3.06979e-01,
-9.75905e-02,
-2.83017e-01,
-3.22562e-01,
-9.28508e-03,
8.43884e-02,
2.94079e-01,
4.40685e-02,
2.43683e-01,
-2.62918e-03,
2.18133e-01,
-6.51917e-02,
2.50482e-01,
3.40514e-02,
2.01695e-01,
1.45909e-01,
-3.36284e-01,
2.03073e-01,
-6.96446e-02,
1.91354e-01,
1.80204e-02,
-2.00607e-01,
4.62375e-02,
2.98180e-01,3.94980e-01,3.32063e-02,1.90055e-01,-1.44055e-01,3.30484e-02,2.35124e-01,-2.14528e-01,1.29831e-01,-4.54816e-02,-2.46358e-02,-6.22064e-02,-1.71216e-01,-4.08324e-01,1.72927e-01,-1.60455e-01,8.63061e-02,2.46724e-01,-1.03807e-02,-4.62923e-02,3.22597e-01,-3.13428e-01,-2.24356e-02,7.54963e-02,2.29847e-01,
-3.43628e-01,5.46309e-01,2.14124e-01,2.93977e-01,2.34960e-01,2.69190e-01,2.30485e-01,1.83136e-01,1.52970e-01,1.14865e-01,4.81486e-01,-3.68292e-01,1.32728e-01,-1.79985e-01,-2.91655e-01,6.84491e-01,-3.00510e-01,-1.67104e-02,-1.47549e-02,8.63265e-02,1.26163e-01,-2.42961e-02,5.83565e-02,8.04371e-02,3.85770e-01,
5.93237e-01,3.13166e-01,-1.44000e-01,6.40626e-01,-8.02526e-02,2.09478e-01,3.82002e-01,-7.04820e-02,-2.31189e-01,1.96597e-01,-2.16513e-01,-6.09851e-01,-2.03182e-01,-6.92088e-01,3.85167e-02,3.72679e-01,2.11077e-01,-2.02885e-01,-7.19824e-02,1.11017e-01,-4.70646e-01,-2.01759e-01,5.13635e-01,-3.60405e-01,2.53598e-01,
2.64999e-01,-5.93162e-01,-7.64577e-02,-3.86670e-01,2.20177e-01,-3.05479e-01,2.08611e-02,-2.16372e-01,-2.82879e-01,4.61770e-02,8.86426e-02,1.01264e-01,-2.39416e-01,-2.97954e-01,1.76432e-01,-4.05343e-01,1.88185e-01,1.34376e-01,1.67167e-01,2.70783e-01,-9.26117e-02,-1.39069e-01,6.32052e-01,-2.87604e-02,-1.44063e-01,
-7.24848e-01,-1.22039e-01,-1.83834e-01,1.65233e-01,-2.02132e-01,7.81500e-02,1.74290e-01,2.36532e-01,-2.41434e-01,3.23510e-01,-4.57521e-01,-1.87393e-01,-7.88585e-01,-7.67359e-01,4.14017e-01,5.05133e-01,-7.84960e-02,3.68234e-01,3.42883e-01,-1.71446e-01,-2.00535e+00,-2.59046e-01,4.82907e-02,-5.83100e-01,-2.30780e-01,
-2.25075e-01,-2.82720e-01,3.64054e-01,6.69420e-01,-2.92817e-01,-3.39458e-01,-6.16951e-01,-2.39186e-02,-5.45451e-02,1.91478e-02,-1.18656e-02,4.57501e-02,-1.98970e-01,2.23566e-01,2.75983e-01,2.92040e-01,1.80284e-02,3.45644e-02,-2.83557e-01,1.31296e-01,1.83553e-01,-3.08673e-01,-9.64981e-02,-9.07962e-02,2.12739e-01,
5.33940e-01,2.73662e-01,-8.27139e-02,-5.66358e-01,-1.35685e-01,-2.08170e-01,-5.31488e-02,-5.87637e-02,2.30020e-01,1.99824e-01,-2.01171e-01,-7.00566e-01,2.23259e-01,-1.50076e-01,-2.72840e-01,-3.75241e-01,4.04227e-02,7.70947e-02,2.23842e-01,4.78863e-03,1.39380e-01,1.47497e-02,-1.13589e-01,-3.06800e-01,1.01858e+00,
-2.89299e-01,3.29424e-01,-1.33968e-01,6.67756e-02,2.02833e-01,-1.19057e-01,3.15853e-01,-1.88113e-01,-5.08036e-02,8.82929e-02,-3.28469e-01,-4.23298e-01,1.03286e-01,-1.53624e-01,3.85367e-01,4.04219e-01,2.71510e-01,-6.91041e-02,3.16012e-02,6.77794e-02,6.55819e-01,3.00390e-01,3.43155e-01,-3.33644e-01,2.95897e-01,
1.05126e-01,-4.04854e-01,4.65474e-01,-2.51595e-01,-2.32850e-01,2.54121e-01,2.20682e-01,-3.81598e-03,1.45974e-01,-2.37727e-01,3.44286e-01,3.16857e-02,7.88756e-02,-1.65402e-01,1.73527e-01,7.08365e-01,-3.49730e-01,1.28046e-01,-1.36410e-01,6.42660e-03,3.44785e-01,1.70357e-01,-2.16519e-01,1.20151e-01,-7.07787e-02,
6.81048e-01,-8.15182e-02,2.52084e-01,2.20393e-01,2.06483e-01,2.10075e-01,-1.13491e-01,2.53321e-01,-2.26984e-01,-1.71557e-01,1.32528e-01,-4.75489e-02,1.19722e-01,-5.12137e-01,-1.63126e-01,-4.02084e-01,-2.54237e-02,-8.13715e-02,1.48254e-01,-7.33872e-02,-5.10317e-01,7.05016e-02,4.48429e-01,2.71831e-02,4.18269e-01,
-7.87207e-01,-1.45232e-01,-8.75213e-02,-3.02526e-01,-2.64500e-01,-2.78469e-01,3.29295e-01,9.44076e-03,5.02399e-02,2.37295e-01,1.43533e-01,9.80312e-01,4.25087e-02,-9.88998e-02,-2.12734e-01,4.99473e-01,5.44134e-02,5.24535e-02,1.52481e-01,-7.94537e-02,1.05660e+00,1.45739e-01,-1.79453e-01,-5.70402e-01,-6.54465e-01,
-9.55537e-02,2.57662e-01,-5.38969e-01,3.55987e-01,-1.95152e-01,-1.88880e-01,-2.32418e-01,-1.06728e-02,-1.71207e-01,-1.91470e-01,3.75011e-01,-2.06382e-01,2.00978e-02,3.70194e-01,-2.81109e-02,1.09409e-01,1.31205e-01,-3.78881e-01,2.49263e-01,9.35031e-02,-4.55974e-01,-3.74492e-01,-2.14992e-01,-2.55308e-02,2.48222e-01,
3.13075e-01,-3.00253e-01,-2.03344e-01,5.66564e-01,1.89076e-01,-3.04884e-01,5.97919e-01,-1.07182e-01,-4.35306e-01,-1.03479e-01,3.93665e-01,-4.73896e-01,-5.47936e-01,-5.25256e-01,3.76531e-01,1.94765e-01,2.47180e-01,2.76130e-02,1.17421e-05,-6.42120e-02,-5.27464e-01,1.43706e-01,6.33932e-01,-2.19385e-01,4.97411e-01,
1.99717e-01,-2.96167e-01,1.85294e-01,-2.75383e-02,-1.01464e-01,1.13156e-01,7.39651e-04,-7.35075e-02,-4.47609e-01,1.01141e-01,2.10673e-01,5.92316e-01,-2.63547e-01,-8.11822e-01,-1.42458e-01,-2.13750e-02,1.54744e-02,2.13991e-01,-3.01737e-01,-9.04501e-02,-1.19661e-01,2.13175e-01,3.30850e-01,-3.47316e-01,-1.55870e-01,
1.35445e-01,7.97133e-02,-3.59294e-01,-4.28303e-01,-3.13044e-01,-1.23756e-01,3.40656e-01,-8.49766e-02,3.13908e-01,2.38380e-01,1.93017e-01,-3.97081e-01,-2.26972e-01,-6.06875e-02,2.08369e-01,-4.64039e-03,3.00133e-01,-1.96227e-01,-1.26626e-01,-2.63699e-01,-2.59621e-01,-1.53749e-04,-2.10093e-01,-6.71501e-01,5.26673e-01,
9.71204e-01,1.30929e-01,2.17556e-02,-1.55656e-02,-1.93600e-01,-3.26310e-01,6.87881e-01,2.17235e-01,2.13923e-01,-2.02193e-03,-1.03227e-01,-5.71282e-01,9.75426e-02,-6.30253e-01,1.16259e-01,1.25001e-02,3.66511e-02,1.10973e-01,-3.27284e-01,-2.59948e-01,1.62543e-01,5.40301e-05,-3.10750e-01,-2.79550e-01,-1.12908e-01,
-2.44105e-01,3.94628e-01,2.07196e-01,2.84601e-01,3.13421e-01,-3.17478e-01,-1.55003e-01,-4.43870e-01,-1.65200e-01,2.20453e-01,4.20522e-01,4.83887e-02,-1.44384e-02,-5.89679e-02,4.02393e-02,5.77568e-01,7.83530e-02,2.11597e-01,-3.22942e-01,-1.03922e-02,-5.42316e-01,-3.85936e-02,8.93250e-02,-2.97780e-01,1.78203e-01,
-3.42608e-01,-6.51555e-01,-4.43487e-01,-2.65711e-01,2.79046e-01,-1.39638e-01,2.72089e-01,-8.05641e-02,-7.53303e-03,3.98577e-01,-2.98275e-01,2.73019e-02,-1.61001e-01,3.06775e-01,-1.25933e-01,-4.78569e-01,3.56669e-01,1.97626e-01,-3.31082e-01,-1.99210e-03,-2.78120e-01,3.09317e-01,7.08425e-01,-5.07638e-01,1.53386e-01,
5.86405e-01,-4.16501e-01,-2.31266e-01,-2.60759e-01,1.17528e-01,1.30015e-01,3.40921e-01,-2.23578e-04,9.23403e-02,7.32228e-02,-3.61482e-01,5.26404e-01,-4.10974e-01,4.20267e-02,2.44773e-01,-8.19677e-02,3.64689e-01,-1.45609e-01,2.11480e-01,-3.43278e-01,-5.80533e-01,-8.74563e-02,1.41910e-01,-8.34909e-01,-1.70421e-01,
2.58304e-01,-7.76212e-02,-2.93067e-01,-9.43661e-03,-1.22301e-01,-3.84352e-02,1.46112e-01,1.14583e-01,-1.68977e-01,-3.73129e-01,2.94731e-01,6.68266e-02,-5.28177e-01,1.27367e-01,1.43553e-01,-1.18158e-01,-2.80869e-01,1.77550e-02,1.53369e-01,-1.52961e-01,-5.00163e-01,-1.85464e-01,3.33536e-01,-2.15698e-01,-1.90417e-01,
1.12435e-01,1.13838e-01,-1.92084e-02,-1.02482e-01,8.06453e-02,-1.29164e-02,-3.51252e-01,-1.66950e-01,3.15286e-01,3.39770e-01,-9.94272e-02,1.81132e-01,1.09889e-01,-3.09889e-01,-1.65716e-01,-5.55527e-01,-3.68806e-02,3.16270e-01,-3.95524e-02,4.73533e-01,6.32115e-01,-7.16565e-02,-3.68171e-01,-2.49680e-01,2.16971e-01,
-1.68304e-01,5.51496e-02,-8.88557e-02,-1.62467e-01,-1.61711e-01,5.08717e-03,-5.67767e-02,-5.68400e-03,6.90049e-02,-2.09582e-01,-2.74214e-01,-4.66527e-01,3.36248e-01,-1.66742e-01,-1.00723e-01,7.93354e-02,1.93656e-01,4.91349e-03,-2.72952e-01,-2.57415e-01,-3.48220e-01,2.07601e-01,1.69282e-01,2.17912e-01,4.25704e-01,
-8.56092e-02,7.50705e-01,1.55115e-01,1.54955e-01,-1.55838e-01,2.43988e-01,1.48573e-01,-1.51329e-01,-4.08257e-01,1.26240e-01,8.35182e-03,-6.53241e-02,1.17182e-02,-3.87651e-01,3.19982e-01,4.48802e-01,2.33791e-01,1.89009e-01,2.31063e-01,2.89188e-01,9.13519e-01,9.19757e-02,2.34276e-01,3.47290e-01,-2.69045e-02,
8.61300e-01,-1.93211e-01,1.46559e-01,2.10421e-01,1.64486e-01,-1.19895e-01,-6.13523e-01,1.38876e-01,-4.74544e-01,-1.45687e-01,2.56073e-01,2.27742e-01,1.56150e-01,-1.87428e-01,-2.18857e-01,-7.63383e-01,-2.56093e-01,-1.96562e-02,-1.06276e-01,3.43782e-01,-2.96145e-01,-9.40613e-02,-3.53979e-01,6.53943e-02,-4.28877e-01,
-1.01090e-01,-2.50696e-01,1.91338e-01,2.71107e-01,-1.18493e-01,-2.98214e-01,5.48783e-01,2.20098e-01,-2.42487e-01,2.44645e-02,6.41588e-02,4.35233e-01,-3.65038e-01,2.00446e-01,9.07140e-02,3.26590e-01,-1.51235e-01,2.66894e-02,1.96513e-01,-1.09622e-01,-4.53810e-01,-3.14159e-01,6.50527e-01,-9.23249e-02,-5.46935e-01,
1.83767e-01,
-3.64494e-01,
1.69026e-01,
1.87493e-01,
3.99925e-02,
-8.06381e-02,
7.33212e-02,
-9.36019e-02,
-3.14159e-01,
5.54096e-02,
1.94861e-02,
3.13076e-02,
-7.12478e-02,
1.69703e-01,
1.44352e-01,
1.67169e-01,
-6.88427e-02,
6.45279e-02,
1.98303e-01,
1.73110e-01,
-1.50234e-01,
1.82437e-01,
-1.33359e-01,
1.91417e-01,
-4.25044e-02,
2.65181e-01,-2.66707e-01,-5.82199e-01,-2.78796e-01,6.86138e-01,-2.06029e-01,-2.94626e-01,2.06260e-01,-5.16332e-02,-2.70293e-02,5.19247e-01,3.95991e-01,2.06682e-01,1.69135e-01,-2.48574e-01,2.27526e-01,2.73993e-01,3.12981e-01,1.60582e-01,5.31465e-01,-1.06986e-01,-3.18198e-01,2.56969e-01,5.99220e-02,-6.49299e-02,
2.91721e-01,-3.78135e-01,8.08140e-02,1.98108e-01,3.01099e-01,-3.09711e-01,-1.76949e-01,-1.82691e-01,3.26568e-01,-9.80454e-02,3.04804e-01,-4.66783e-01,2.89917e-01,2.27876e-01,-1.79888e-01,1.07666e-01,1.21929e-02,2.10042e-01,-5.88122e-02,-8.48134e-02,4.44025e-01,-3.32911e-02,1.48450e-01,7.10826e-01,-1.78539e-01,
-6.35199e-02,6.63883e-02,-1.56606e-01,3.39313e-01,3.54763e-01,2.24052e-01,-1.69435e-02,-3.00532e-01,3.40063e-01,2.98573e-01,-2.63743e-02,-1.11487e-02,2.32741e-01,4.36235e-01,-1.76804e-01,3.62103e-01,-6.87496e-03,-5.12463e-01,2.44854e-01,-1.63561e-01,4.04282e-01,-2.55035e-01,-3.53431e-01,1.69161e-02,-4.93386e-02,
-3.36868e-02,-1.29281e-02,-3.41778e-01,2.56189e-02,2.17353e-01,-2.21572e-01,-2.59666e-01,-3.40863e-01,-7.67028e-02,1.20156e-02,3.35918e-01,-8.67744e-02,-8.10577e-02,-2.14926e-01,2.72282e-01,-2.75927e-01,-9.75019e-02,2.96291e-01,-1.83333e-01,-3.07583e-01,2.13704e-01,-1.41457e-01,2.82833e-01,-1.24639e-01,-3.11014e-01,
2.76977e-01,-1.75516e-01,2.95713e-01,3.91258e-01,-2.09544e-01,-4.36657e-01,-2.49414e-01,2.16515e-01,2.57699e-01,-2.83161e-02,8.76780e-02,1.73873e-01,-1.24537e-01,2.59999e-01,5.56286e-02,1.39689e-01,-2.36556e-01,-4.74882e-01,1.71383e-01,7.04263e-03,4.31421e-01,-3.24779e-01,1.23745e-01,-5.94677e-01,-3.16630e-01,
-6.59150e-02,-8.30309e-02,1.91215e-01,-1.60975e-01,-2.94245e-01,1.37684e-02,1.48114e-01,-1.72536e-01,4.16378e-01,2.84770e-01,-3.50284e-01,-3.34645e-01,6.04565e-01,3.36262e-02,-4.74998e-01,-3.14421e-01,2.66214e-01,8.58380e-02,-5.78694e-01,-1.98673e-03,-5.26498e-01,-1.12508e-01,-2.14035e-01,5.36922e-01,-3.38656e-01,
-3.22281e-01,-1.30395e-01,1.06411e-01,1.44631e-02,-3.06805e-01,-5.49228e-02,-7.98475e-02,2.13018e-02,1.17985e-01,-2.37959e-01,-2.20747e-01,1.93877e-01,-2.83477e-01,-2.41659e-02,-6.43844e-02,1.11079e-01,-1.56100e-01,2.46965e-01,-1.70278e-01,2.18357e-01,1.15369e-01,8.69809e-02,-6.86675e-02,-4.92089e-02,9.00593e-02,
-1.13070e-01,-1.93852e-01,-3.65132e-01,-2.74940e-02,8.35444e-01,3.76428e-01,-1.15964e-01,-1.98336e-01,3.86538e-02,7.90168e-02,2.97908e-01,-2.58853e-01,3.12532e-02,1.25334e-01,-4.58288e-02,-1.74752e-01,1.35516e-01,-6.47009e-01,3.20587e-01,-1.04121e+00,6.35956e-01,2.69900e-01,3.55787e-01,1.22075e-01,4.85659e-01,
-2.15680e-01,1.21676e-01,-1.68957e-01,-2.05896e-03,7.90802e-01,-1.65193e-01,2.24239e-01,5.91107e-02,7.43234e-02,2.50862e-01,2.64581e-01,-2.68400e-01,9.45313e-01,1.28709e-03,-1.64156e-01,5.28876e-03,-3.39460e-01,-4.10540e-01,7.10661e-01,-1.49298e-01,4.32183e-01,6.63526e-02,3.58110e-02,-2.68322e-01,-2.20369e-01,
-2.17733e-01,-1.29378e-01,-2.00566e-01,-2.79564e-01,5.75682e-02,8.20372e-02,-1.56225e-01,-1.70743e-01,6.55454e-03,-2.83475e-01,-1.89673e-01,1.50466e-01,3.37727e-01,2.43915e-02,1.02545e-01,3.00010e-01,7.47628e-02,1.51240e-01,-1.41880e-01,-3.42760e-01,-3.04072e-02,2.55136e-02,1.20708e-01,-1.47313e-01,-1.90774e-01,
-2.31651e-01,-3.74986e-01,3.47515e-01,2.70370e-01,-4.08731e-02,1.59589e-02,2.97584e-01,1.30854e-01,1.23612e-02,-2.72004e-01,4.63128e-01,-4.20302e-01,3.73626e-01,7.45559e-02,-6.18712e-02,-2.33250e-01,1.47320e-01,-1.60850e-01,2.82701e-01,6.85637e-01,1.40373e-01,-5.17485e-02,5.15598e-01,-4.26160e-01,-6.17256e-01,
-4.51076e-02,1.64399e-02,6.93925e-02,-1.62233e-02,2.79984e-01,-1.78773e-01,-1.66695e-01,2.25350e-01,5.85352e-02,-2.71457e-01,-2.09734e-01,-2.52754e-01,8.14707e-03,-1.69797e-01,-2.30018e-01,1.10626e-01,3.80164e-02,1.39704e-01,-2.79346e-01,2.38581e-02,-7.54388e-02,-4.35902e-02,-3.25211e-02,1.77690e-01,5.46514e-02,
1.62513e-01,7.85635e-02,-1.30329e-01,1.00955e-01,-9.65006e-02,-2.03855e-01,3.61647e-01,7.16674e-02,4.97943e-01,-1.15715e-02,-2.73839e-01,1.85965e-01,2.27863e-01,-1.04263e-01,3.70937e-01,5.65757e-02,-4.93170e-02,-5.18860e-01,-5.58383e-02,8.05216e-01,7.55037e-01,3.48668e-01,-5.08783e-01,-9.14666e-01,-5.38374e-01,
2.24415e-01,-1.04350e-01,3.25494e-01,2.09396e-01,-6.01930e-02,1.58936e-01,-2.88590e-01,2.05282e-01,-7.42237e-03,-1.89388e-01,-2.38739e-01,2.40968e-01,-8.85676e-02,2.05948e-01,8.86077e-02,-2.06486e-01,-1.49623e-02,6.06505e-03,-2.40696e-01,-2.55196e-02,-2.14757e-01,7.70185e-02,-2.11342e-02,2.29683e-01,1.07691e-01,
1.56063e-02,-6.45840e-02,-1.04852e-01,1.77755e-01,-3.02135e-01,-2.77663e-01,-9.88759e-02,2.31668e-01,3.18397e-01,-2.33419e-01,-2.98751e-01,-2.85269e-02,-2.51431e-01,1.02376e-01,3.20572e-01,-6.14029e-02,6.68531e-02,2.16394e-01,-5.46298e-02,6.34316e-02,1.24156e-01,-1.58095e-01,-3.16637e-01,-6.82165e-02,2.87423e-01,
1.46992e-01,-4.33476e-01,-2.62042e-01,-4.25443e-01,9.17734e-01,-4.43609e-01,9.04848e-02,-1.49884e-01,4.83647e-01,3.97548e-01,5.61278e-02,1.48994e-01,7.07421e-01,7.02632e-02,2.23740e-01,-6.77721e-05,2.70577e-01,-9.35127e-02,2.25960e-01,-6.84790e-01,5.83918e-02,-2.28017e-01,-4.18887e-02,7.06169e-02,-2.92837e-01,
1.18889e-02,1.48796e-01,2.31828e-01,1.31652e-01,1.33776e-02,5.60239e-02,-1.51137e-01,-1.27653e-01,-2.62336e-01,-7.09352e-02,-6.22855e-02,-2.02984e-01,1.94001e-01,-1.92470e-01,-3.93624e-02,-2.88843e-01,3.42719e-01,-4.45424e-02,-1.96005e-01,2.16542e-02,9.67965e-02,7.92355e-02,-2.61356e-01,1.32088e-01,-3.05902e-01,
-4.32638e-01,1.31781e-02,2.19864e-02,-6.96298e-02,1.89713e-01,3.92120e-01,-4.75683e-01,-8.18463e-01,2.49013e-01,2.66629e-01,-3.88409e-01,6.60219e-02,6.60076e-01,3.69086e-01,-7.62117e-01,-2.19396e-01,1.64101e-01,-3.71751e-01,5.00006e-01,-2.81614e-01,-2.37856e-02,9.69747e-02,-8.08866e-02,4.60612e-01,-2.22546e-02,
-3.28688e-01,2.23031e-01,-5.69923e-02,-9.51231e-02,8.92365e-02,-3.16386e-01,5.52968e-02,-3.10368e-01,9.26162e-02,-1.36569e-01,2.78180e-01,1.24627e-01,3.49223e-02,-1.93666e-01,1.71074e-01,-2.95487e-01,1.00955e-02,1.92112e-02,-3.18961e-01,-8.25493e-02,1.29359e-01,2.34177e-02,1.02253e-01,1.44900e-01,-2.27293e-01,
2.76755e-01,-1.05353e+00,1.37422e-01,-1.69166e-01,-1.26997e-01,-1.50816e-01,2.87762e-01,-6.54834e-02,-7.27550e-01,1.65847e-01,-1.13167e-01,1.55021e-01,-1.93696e-03,5.14605e-02,3.20742e-01,1.52366e-01,-5.22589e-02,7.77016e-01,-1.14880e+00,-9.01030e-01,-1.35785e+00,2.95887e-01,5.09340e-02,-1.38389e-01,-3.40131e-01,
-1.82873e-01,2.85013e-02,-3.31229e-01,-2.99428e-01,-1.31097e-01,3.67462e-01,-7.64908e-02,3.13985e-02,3.38448e-01,-3.05659e-02,-1.32188e-01,-1.99054e-01,1.31266e-01,-2.86381e-01,1.94042e-01,-3.81733e-02,-7.34029e-01,-1.10003e-01,5.69305e-02,-2.95591e-01,1.00532e-01,8.68328e-02,-6.16928e-01,-8.32219e-01,4.49077e-01,
1.87361e-01,1.80365e-01,-3.34538e-01,8.54598e-02,-1.00383e-02,-1.49587e-01,4.29258e-01,-1.77675e-01,-3.29970e+00,-5.08952e-01,9.46875e-02,-4.65724e-01,4.88521e-01,-4.00806e-01,3.91293e-01,9.43775e-02,2.00136e-01,9.64223e-02,-2.00766e-01,1.56789e-02,2.24118e-01,1.66757e-01,-9.23237e-02,-5.64505e-01,-2.74581e+00,
3.07152e-01,-3.90370e-02,-2.76930e-01,1.73169e-01,7.03142e-02,1.73090e-01,9.55749e-03,-2.29444e-01,-1.23394e-01,-3.20883e-03,-1.89687e-01,-2.17940e-01,1.00558e-01,-2.71098e-01,2.29189e-01,-2.07095e-01,-3.24163e-01,-3.12589e-01,-1.17976e-03,3.62534e-02,1.78866e-01,-2.67424e-01,-9.49410e-02,1.86971e-02,-3.28921e-01,
-1.39116e-01,-3.27506e-01,-1.57409e-01,-2.07094e-01,-3.71620e-02,-5.49227e-02,1.13663e-01,-1.36342e-01,1.63217e-01,1.59732e-01,-1.18057e-01,-8.56877e-02,-1.10695e-02,-2.53059e-02,-9.36984e-03,2.73659e-01,3.35297e-01,2.64768e-01,1.16267e-02,-1.12593e-01,-1.70848e-02,-1.37129e-02,1.40204e-01,-7.54386e-02,-2.32693e-01,
2.99068e-01,1.43219e-01,-4.03277e-01,1.65348e-01,-2.89410e-01,1.64188e-02,3.00033e-01,1.64400e-01,-8.02952e-01,-6.08729e-02,-8.10786e-02,-2.94476e-01,-6.46084e-01,2.50596e-02,-2.17188e-01,-1.04349e-01,-1.86700e-01,1.15099e-01,2.91299e-01,6.20126e-01,-6.07028e-01,-1.82425e-01,8.59643e-02,7.63469e-01,9.38743e-01,
3.84713e-02,
-1.37128e-01,
-3.51858e-02,
-1.92225e-01,
-1.01965e-01,
1.15598e-01,
-8.41775e-02,
4.47694e-02,
8.30677e-02,
-1.49389e-01,
-1.80136e-01,
-1.46165e-01,
-8.65420e-02,
2.34953e-01,
-3.50478e-01,
-7.21270e-02,
-2.45275e-01,
1.49600e-01,
-2.38765e-01,
-1.08052e-01,
5.68354e-02,
-1.72766e-01,
-2.12238e-01,
2.29652e-01,
4.40460e-02,
-1.04650e-01,1.41232e-01,1.38044e-01,1.68087e-01,2.39525e-01,-1.40182e-01,-2.56391e-01,-7.20587e-02,2.85320e-01,-2.74077e-01,1.09727e-01,-3.32220e-01,6.23948e-03,7.57407e-02,2.27211e-01,1.27167e-01,-1.18865e-01,4.04873e-01,2.30766e-01,-1.85642e-01,-1.79563e-02,-2.28595e-01,9.62116e-02,1.22117e-01,-4.55018e-02,
-3.33285e-02,-1.76444e-02,6.09815e-01,-3.31852e-01,5.40126e-02,4.57699e-01,-2.26978e-02,2.69948e-01,7.59646e-02,-1.65037e-01,-3.25566e-01,-2.59556e-01,-4.07074e-02,9.26944e-02,2.82631e-01,1.16127e-01,2.26197e-01,-5.29940e-02,4.49649e-02,-6.41498e-01,4.19465e-02,8.88079e-02,5.16765e-02,-6.61979e-03,-8.03135e-02,
1.46113e-01,1.94847e-01,1.11254e-01,-8.14777e-02,-2.40268e-01,-1.79354e-01,3.42243e-01,6.66818e-02,4.17884e-01,-7.44937e-02,-3.68263e-01,-1.01055e-01,3.13764e-01,3.17843e-01,1.73174e-01,1.06781e-01,1.05127e-01,6.82951e-01,-1.94694e-01,3.71997e-02,-1.21035e-01,-4.97223e-02,-8.75247e-02,1.70453e-01,1.12052e-01,
1.02893e-01,1.11583e-01,-2.77905e-01,-3.20249e-01,1.74127e-01,4.85578e-01,3.25612e-01,-2.97239e-03,3.19878e-01,-1.63768e-01,-5.24492e-02,-3.44478e-02,2.64793e-01,2.22967e-01,-2.03121e-01,-2.56297e-02,1.32344e-01,7.23798e-02,-2.71191e-01,-8.14865e-02,-2.05058e-02,-1.27303e-01,-3.42866e-01,-9.68786e-02,1.33851e-02,
1.66850e-02,5.47979e-01,-2.89986e-01,3.06866e-01,1.08948e-01,-1.38566e+00,6.65686e-02,2.49116e-02,-1.57403e-02,1.42642e-01,7.30223e-02,1.82171e-01,6.08179e-01,2.01216e-03,4.18397e-02,-5.71625e-02,-1.28428e-01,5.79344e-01,1.47720e-01,4.81397e-01,-7.79025e-02,-5.25951e-01,1.48239e-01,1.27517e-01,-3.64766e-01,
1.20824e-02,-6.78535e-02,-2.88577e-01,5.51668e-02,1.14140e-01,-1.57611e-01,-1.08704e-01,-2.24436e-02,-5.63881e-02,-2.47942e-01,2.20805e-01,3.14840e-01,-2.19310e-01,1.96917e-01,6.20093e-02,-8.79145e-02,-1.10370e-01,-3.92732e-01,8.17360e-02,-6.58479e-02,3.76581e-02,1.65366e-01,3.27057e-01,2.88715e-01,3.73383e-02,
5.09497e-02,-1.67372e-01,1.39917e-01,-1.02509e-01,-1.48571e-01,-1.33340e-01,-1.32999e-01,-3.30825e-02,2.54772e-01,3.27714e-01,9.07513e-02,3.09166e-01,2.57693e-02,2.11291e-01,2.68901e-02,-3.00944e-02,2.91614e-01,2.74052e-01,-3.48250e-03,2.13036e-01,-3.86781e-02,-2.16749e-02,-1.02684e-01,3.55646e-01,5.88010e-02,
-1.31931e-02,-1.22201e-01,2.69172e-01,-3.14821e-02,2.89192e-01,8.79591e-01,-2.94373e-01,-1.35002e-01,1.56537e-01,3.27921e-01,-3.26383e-02,2.72232e-01,-3.32990e-01,-2.66290e-01,-4.89241e-02,-8.93078e-02,1.25703e-01,-4.17942e-01,8.28794e-02,-5.60247e-02,-1.30019e-01,6.94521e-04,7.02903e-02,1.11922e-01,2.03523e-01,
1.74767e-01,2.00664e-01,-1.52759e-02,-5.87922e-02,9.67764e-02,7.79338e-01,-2.52695e-01,3.27471e-01,5.71521e-03,2.13396e-01,-3.32227e-01,-1.15873e-01,-1.31540e-01,-2.99681e-01,-1.35713e-01,1.88329e-01,9.05032e-02,-4.91894e-01,2.26234e-01,-5.85772e-01,-1.86167e-01,-8.43250e-02,-2.35983e-01,-8.78723e-02,-9.25531e-02,
-1.64140e-01,-4.39699e-02,2.54281e-02,-7.21079e-02,-2.46095e-01,8.33491e-01,2.11055e-01,5.87565e-02,1.97966e-01,1.11744e-01,6.91426e-03,-1.20146e-01,-2.15566e-01,3.62563e-01,-1.00974e-01,-1.95515e-01,1.74247e-01,-2.46121e+00,2.24611e-01,-1.23719e-01,-8.55680e-02,3.13724e-01,1.74961e-01,4.75487e-01,-1.51584e-01,
2.82393e-01,1.76530e-01,6.33659e-02,-1.68084e-01,-6.68637e-02,-3.77744e-01,6.69861e-02,1.29404e-01,2.81774e-01,-3.37188e-01,-1.47123e-01,1.75576e-01,4.32660e-01,-2.09971e-01,-1.26814e-01,2.76521e-01,-8.20029e-02,3.94860e-01,1.51887e-01,-3.92115e-01,3.01709e-01,2.83616e-02,1.76358e-01,2.28954e-01,-4.40204e-02,
4.33859e-02,8.78823e-02,1.98317e-01,-2.28125e-01,-5.99191e-03,3.50837e-02,3.72718e-02,6.08100e-02,-2.63565e-03,7.24859e-02,-1.33491e-01,-3.01020e-01,2.82556e-01,5.92349e-02,-1.84760e-01,-1.69310e-01,5.91077e-02,1.79616e-01,-3.58835e-02,3.57517e-01,-2.40773e-01,-4.46124e-02,-6.57765e-02,2.45811e-01,5.13885e-02,
1.76920e-01,-3.04909e-02,-2.94290e-01,-2.72287e-01,-3.20741e-01,-4.78593e-01,-2.01925e-01,-6.68785e-03,-1.88019e-01,-3.16673e-02,3.64249e-02,1.26799e-01,-3.34045e-01,2.68866e-01,-1.59521e-01,-1.23137e-02,-1.09746e-01,-1.60151e-01,7.96702e-02,3.31728e-01,-6.44073e-02,3.63055e-01,-1.29924e-01,1.95194e-01,2.27264e-01,
-2.82716e-01,-2.56129e-02,1.97420e-01,-2.68232e-01,-1.64933e-01,-1.38065e-01,1.50255e-01,1.62923e-01,7.05611e-02,3.10527e-01,1.76021e-01,-1.46425e-01,1.95359e-01,7.11203e-04,1.67382e-01,2.10602e-02,2.27325e-01,6.90941e-02,-3.03320e-01,2.77537e-01,-1.86376e-01,1.07856e-01,-1.95417e-01,6.97049e-03,-7.40899e-02,
2.95748e-01,4.99588e-02,-4.19161e-01,-1.43699e-01,2.89131e-01,7.73750e-01,2.45282e-01,1.80356e-01,-2.73275e-02,-2.54324e-01,-3.31198e-01,-1.40065e-01,-1.46693e-01,-2.78708e-01,-3.97319e-02,5.43645e-02,-7.15896e-03,-4.97027e-01,-5.33364e-02,-8.94137e-01,-6.10257e-02,2.30573e-01,-1.40519e-01,2.42004e-01,2.62816e-01,
-3.06049e-01,-2.43845e-01,-2.65476e-01,-2.54371e-01,2.13730e-02,2.62290e-01,-1.94103e-01,-2.66969e-01,6.30191e-03,1.46005e-01,-1.30612e-01,1.70671e-01,-2.43224e-01,3.05063e-01,-2.13755e-01,-2.07294e-01,-9.03264e-02,8.21090e-02,1.91812e-01,2.44618e-01,-2.76833e-01,-2.40710e-01,1.92092e-01,-2.08555e-01,6.18991e-03,
-1.55718e-02,1.94740e-01,2.93575e-01,5.73294e-02,-9.53023e-02,7.58251e-01,-2.88783e-01,4.15367e-01,-1.08120e-01,2.51121e-01,-4.30151e-01,2.19498e-01,-4.13709e-01,3.70024e-01,3.15514e-01,6.31019e-01,-2.51849e-01,-3.33448e-01,-2.64431e-01,-4.10850e-01,-1.27407e-01,7.63452e-01,6.82899e-02,-3.06877e-02,6.36623e-02,
2.17403e-01,-9.61169e-02,-2.99422e-01,-5.14317e-02,-1.72157e-01,-2.35292e-01,-1.19381e-02,3.63804e-03,-1.69852e-01,2.59543e-01,-3.67143e-02,1.17590e-01,-2.22196e-01,-3.15353e-01,2.46061e-01,1.01050e-02,-8.20012e-02,-2.03864e-01,-5.45918e-02,8.73007e-02,-2.94480e-01,1.26127e-01,-1.17913e-01,1.25225e-01,-1.05108e-01,
-1.17812e-01,-3.17138e-01,-1.53476e-01,-3.44415e-01,4.97297e-02,2.39966e-01,1.99413e-01,-3.11123e-01,7.00480e-02,-3.16951e-01,-5.12411e-02,-1.88916e-01,3.36349e-01,-2.14867e-01,-2.52041e-01,2.26299e-02,5.85379e-02,6.60476e-03,3.20769e-01,2.42458e-01,-2.79974e-01,-9.15873e-02,2.46411e-01,-1.25994e-01,2.12056e-01,
-3.51089e-01,-6.81068e-01,-1.52473e-01,-1.34721e-01,6.51874e-01,-2.08318e-01,7.63392e-02,-3.28339e-01,-5.16718e-02,4.83830e-02,6.31442e-01,2.91120e-02,7.54937e-02,2.59671e-01,3.04177e-01,-8.64829e-01,3.10198e-01,-2.64432e+00,-1.51439e-01,2.54281e-01,3.47246e-01,-2.37257e-01,-2.01154e-01,2.20111e-01,-1.53490e-01,
-3.58890e-01,-3.20912e-01,5.34737e-02,-1.87895e-01,8.82433e-02,2.09929e-01,1.96606e-01,6.23726e-03,-1.23029e-01,-5.12325e-02,2.36212e-01,-1.74013e-01,-3.50787e-01,1.17203e-01,-2.40495e-01,9.11152e-02,-2.54920e-01,-4.27837e-01,1.71746e-01,5.71196e-02,2.44745e-01,3.96798e-01,3.00857e-01,3.27041e-01,2.07620e-01,
-1.86150e-01,-9.21341e-02,1.48424e-01,-1.66668e-01,3.91172e-01,-7.31055e-02,-1.86992e-01,-1.25131e-01,-2.01567e-01,1.72288e-01,3.43755e-01,2.13842e-01,1.91046e-01,9.92412e-02,-1.29571e-01,1.72712e-01,2.30426e-02,-1.00054e-01,-3.13005e-01,-5.46053e-02,6.47771e-01,-6.93466e-02,-2.80029e-01,-1.05435e-01,-3.70682e-01,
-2.08089e-01,1.54160e-01,-1.81841e-01,3.15013e-01,2.63627e-02,-1.90761e-01,1.91993e-02,-2.68665e-01,-1.50659e-01,1.30873e-01,3.18027e-02,-2.89778e-01,-3.24049e-02,-6.10271e-02,1.25554e-01,1.48045e-02,1.69849e-02,2.04126e-01,-1.11879e-01,-3.25410e-01,-9.61563e-02,2.66054e-01,3.01531e-01,1.23111e-01,-2.76711e-01,
2.48197e-01,1.64618e-01,-2.51222e-01,-4.61201e-02,-1.48686e-01,9.43129e-02,-1.58271e-01,3.84141e-01,1.75071e-01,-1.22654e-01,-4.69946e-01,2.01219e-01,4.50689e-01,-8.94794e-02,-1.66645e-01,-1.81380e-01,1.93042e-01,2.32937e-01,-2.60540e-01,-3.28757e-01,-2.47294e-01,-1.07971e-01,8.01918e-02,2.63751e-01,-9.63056e-02,
-1.24778e-01,-1.30676e-01,1.86888e-01,-5.99595e-02,-9.60283e-02,-4.21111e-02,3.25526e-01,1.19237e-01,-3.47650e-02,-1.07610e-01,-1.79961e-01,-3.15102e-01,-1.08538e-01,1.03213e-01,-2.28084e-01,1.14800e-01,-2.33652e-01,-1.15085e-01,-1.48154e-01,-2.96753e-01,-1.18947e-01,7.07969e-02,-7.03779e-03,1.22725e-01,-2.43721e-01,
3.13442e-01,
-5.16267e-02,
-1.74721e-01,
8.66235e-02,
8.76344e-02,
1.23935e-01,
-1.32219e-01,
2.22637e-01,
-2.35091e-03,
-1.98634e-01,
-4.84027e-03,
2.97470e-02,
2.47321e-02,
-2.60438e-01,
-1.25849e-02,
-1.09719e-01,
-1.06806e-01,
-1.18152e-01,
-6.53449e-02,
-5.92925e-02,
-2.11859e-02,
2.63571e-01,
-2.93987e-01,
1.69418e-01,
-2.82271e-01,
3.19409e-01,-1.79356e-01,-4.82799e-03,-9.90416e-02,-2.23981e-01,6.02596e-02,-1.53154e-01,-1.24436e-01,1.55565e-01,-1.00731e-01,-6.70996e-02,-9.33460e-02,2.58315e-01,2.56182e-01,-2.27691e-03,2.86681e-01,2.94275e-03,-2.60447e-01,3.34437e-01,-2.12816e-01,-9.41293e-02,3.68855e-01,-2.37847e-01,-3.89793e-02,1.65916e-01,
-1.74652e-01,-1.18066e-01,-2.41913e-01,3.43078e-01,9.83728e-02,-4.76521e-02,-1.05443e-01,1.45271e-01,-1.98151e-01,-6.50131e-02,2.64832e-01,-7.31385e-02,-1.70419e-01,2.22083e-01,-5.35517e-02,3.05573e-01,-1.78710e-01,-1.03365e-01,1.11604e-01,1.81898e-01,-3.31609e-01,-3.38445e-01,-2.24435e-01,-2.11806e-01,-1.51707e-01,
9.03420e-02,-1.25516e-01,2.65109e-01,2.57620e-01,-3.17211e-01,-4.08061e-01,2.74367e-02,9.16029e-02,1.25612e-01,-3.56070e-01,3.93446e-02,-1.99038e-01,-7.07995e-02,1.00163e-01,-2.91731e-01,-1.39649e-01,-6.72033e-02,2.29595e-01,-3.26218e-01,-2.89508e-01,-3.37594e-01,-1.68768e-02,-2.43813e-01,-2.66895e-01,-9.21271e-02,
-1.97702e-01,8.20639e-02,-2.89535e-01,-7.95369e-02,1.57295e-01,-6.47494e-02,1.18146e-01,-2.96422e-01,2.00416e-01,-4.24158e-02,-3.45247e-01,-1.20832e-01,5.31289e-02,6.02929e-02,-1.09802e-01,2.48355e-01,-1.56730e-01,3.07070e-01,-5.95624e-02,1.61736e-01,3.02014e-02,1.88242e-01,3.37334e-01,-2.13103e-01,2.04644e-02,
-2.28269e-01,-4.57434e-01,2.99697e-01,5.38624e-02,1.96749e-01,-2.25617e-01,-1.16121e-01,-2.71408e-01,-1.22949e+00,2.89699e-01,3.54668e-01,-4.61066e-02,1.86870e-02,1.80922e-01,5.60376e-01,-1.87872e-01,-8.00867e-01,3.45615e-01,-2.42333e-01,-8.29423e-01,-1.46788e-02,-2.58804e-01,1.87062e-01,2.05269e-01,7.92536e-02,
-6.71545e-02,3.21817e-01,3.19225e-01,3.34040e-01,-1.94946e-01,-2.56513e-02,2.67994e-01,-2.06887e-01,-2.79120e-01,-2.36100e-01,-2.77692e-01,-1.64627e-01,-9.49775e-02,-1.89392e-01,2.02244e-01,4.24660e-02,1.13111e-01,2.89203e-01,-3.79053e-02,1.68388e-01,1.13019e-01,-1.41315e-01,-2.45450e-01,-8.67768e-02,1.01112e-01,
-1.94796e-01,-2.29083e-01,6.84693e-03,-1.17723e-01,2.34534e-01,2.16263e-01,1.92306e-01,1.04422e-01,-3.08617e-01,-5.36731e-02,-3.30191e-01,-1.83209e-01,-9.18364e-02,1.13878e-01,-2.64924e-01,2.40568e-01,-1.07193e-01,-2.56790e-01,9.67185e-02,-2.79399e-01,-2.64321e-01,-9.32366e-03,1.27578e-01,-3.38291e-01,1.07106e-01,
-1.39113e-01,-2.53909e-01,-9.95698e-02,9.89550e-02,-2.73498e-01,3.08025e-01,2.11717e-01,6.04872e-02,1.04343e-01,3.23407e-01,-2.09352e-01,-3.22010e-01,2.34168e-01,2.12361e-01,2.22482e-02,-2.69763e-01,1.72780e-01,-9.53063e-02,2.35510e-01,-1.47028e-01,-1.45655e-01,-3.84870e-02,-2.42415e-01,-9.82384e-02,-2.29677e-02,
2.05839e-01,1.44222e-01,2.92660e-02,-4.67459e-02,2.20372e-01,-2.35058e-01,3.48785e-01,-2.32173e-02,-1.70866e-01,-9.93774e-03,-2.16313e-01,-2.52677e-01,3.33700e-01,7.99870e-02,1.69466e-01,-1.28634e-01,-1.91218e-01,-2.61849e-01,-1.10721e-01,4.88899e-02,2.60779e-01,2.67745e-01,-3.24875e-01,2.21877e-01,-2.88806e-01,
-5.32151e-02,-2.54586e-01,-3.97312e-01,-3.44999e-01,2.59588e-03,1.80196e-01,1.45453e-01,-2.61297e-01,-1.10473e+00,1.83381e-01,-5.28825e-01,-3.58346e-01,1.94190e-01,2.72904e-01,8.88095e-01,-4.53430e-03,1.69230e-01,-1.98993e-01,1.93612e-01,-9.12410e-01,2.26531e-01,-1.05836e-01,3.41188e-01,-4.01707e-01,1.98853e-01,
-3.27260e-01,-2.18100e-01,1.13628e-01,-2.09869e-02,-2.44275e-01,-1.59054e-02,1.67619e-02,5.96938e-02,-1.32927e-01,1.50409e-01,-6.13870e-02,-1.46175e-01,-2.46553e-01,2.30916e-01,-1.25156e-02,2.77808e-01,1.23612e-01,-2.40571e-02,-2.20977e-01,-5.19254e-02,-2.81954e-02,-6.68336e-02,3.35603e-01,-3.04152e-01,-1.10609e-01,
-2.26592e-01,-7.55512e-03,-6.84682e-02,2.19505e-01,1.06967e-01,9.63858e-02,-1.11747e-01,3.61500e-01,-2.14551e-01,1.79552e-01,9.18998e-02,3.37727e-02,-4.30394e-02,3.03843e-01,-2.64104e-01,-3.05499e-02,7.14173e-02,-2.84986e-01,3.21174e-01,-1.50209e-01,1.86778e-01,-1.00077e-01,-1.57340e-01,3.06257e-01,1.70700e-01,
1.63154e-01,3.48685e-01,1.49533e-01,-8.81622e-02,7.95293e-02,1.03416e-01,1.33969e-01,1.21941e-01,-8.49257e-02,-2.72497e-01,3.52701e-02,2.55179e-01,2.42904e-01,1.11364e-01,-1.55537e-01,2.84075e-01,-2.77812e-01,4.17954e-02,6.73353e-03,4.34500e-02,9.75211e-02,-2.35399e-01,-3.42910e-01,3.15144e-01,-3.21852e-01,
-1.31756e-01,1.31660e-01,2.07379e-02,1.72729e-01,-3.02496e-02,7.79721e-02,-2.05737e-01,-8.47147e-02,-1.49083e-01,-2.34643e-01,-1.31821e-02,-1.59457e-03,3.10953e-01,1.49691e-02,7.23643e-02,3.15597e-01,-1.18298e-01,-2.11298e-01,-5.01473e-02,2.20624e-01,-2.81144e-01,1.75918e-01,-2.97205e-01,-1.95083e-01,-6.81319e-02,
-1.49954e-01,1.65046e-01,2.09188e-01,9.55194e-02,1.65299e-01,1.32681e-01,2.29773e-01,-1.75376e-01,3.18824e-03,7.91090e-02,-1.45913e-01,1.42375e-02,1.00036e-01,-9.36288e-03,7.45662e-02,8.22352e-02,-3.06545e-01,-1.57438e-02,-5.43032e-02,2.24050e-01,8.15223e-02,2.72251e-01,-2.04641e-01,-4.41977e-02,3.21441e-01,
-2.52983e-01,-9.16635e-02,6.08406e-02,-9.79330e-02,3.25671e-01,-1.47012e-02,2.90329e-01,-8.61101e-02,-1.21674e-01,-2.97402e-01,-1.28210e-01,-2.04046e-01,1.04589e-01,2.33693e-01,-9.61091e-02,3.10234e-01,-2.93612e-01,2.30850e-01,1.42187e-01,9.57596e-03,1.38824e-01,-1.20493e-01,-9.58358e-02,-1.84865e-01,2.13528e-01,
1.91136e-01,-8.57040e-02,1.15563e-02,-2.23390e-01,-1.98228e-01,-3.42765e-01,-1.96661e-01,3.23996e-02,1.16264e-01,3.88242e-01,-1.22296e-01,-1.97367e-01,-1.58234e-01,-1.81680e-02,2.92173e-01,-2.75049e-01,3.45814e-01,-4.39782e-02,-2.50690e-02,1.97718e-01,1.83661e-01,2.87197e-02,-2.08485e-01,8.87851e-02,8.73389e-02,
-2.33196e-01,-9.86589e-02,-2.14311e-01,-2.13642e-01,8.17252e-02,-6.40191e-02,1.73900e-02,-1.81335e-01,-2.99252e-01,1.29021e-01,8.88499e-02,3.02981e-01,-4.63181e-02,1.70471e-01,-1.26210e-01,1.09147e-01,-1.44225e-01,-2.21291e-01,2.15201e-01,1.23551e-01,-2.18122e-01,-1.09637e-01,-4.30611e-02,-7.65056e-02,-2.95546e-01,
4.11831e-02,2.01544e-01,1.01369e-01,-2.85343e-02,-7.51047e-02,-2.46332e-01,-1.69901e-01,-2.42656e-02,-1.00463e-01,-9.92790e-03,1.96742e-01,-3.02492e-01,1.31646e-01,2.34309e-01,-1.41181e-01,6.45360e-02,-7.52773e-02,-7.05545e-02,3.40394e-01,-1.72054e-01,1.19786e-01,9.55491e-02,-2.10255e-01,-4.83808e-03,3.38293e-01,
-2.32337e-01,3.16056e-01,2.46955e-01,-1.05952e-01,-2.51396e-01,-2.42959e-01,4.43994e-02,2.61550e-01,-1.18445e-01,-6.91064e-02,2.25311e-01,1.64621e-01,2.51377e-01,-1.10212e-01,1.99648e-01,3.38386e-01,-6.22430e-02,3.86621e-02,-3.17373e-01,-5.72905e-03,2.64768e-01,-2.34460e-01,-3.28284e-01,-2.90993e-01,1.22379e-01,
-1.02909e-01,5.73913e-03,-9.17791e-02,6.45037e-03,-4.45799e-01,-4.80123e-02,1.17902e-01,2.31188e-01,-1.39886e+00,1.16352e-02,-3.39876e-01,-1.84578e-01,1.44011e-02,2.87795e-01,5.33493e-01,-4.18477e-02,-3.44808e-01,7.10340e-02,8.71086e-02,-6.58069e-01,3.86068e-01,-1.76394e-01,5.18537e-03,-4.13553e-01,-6.94142e-02,
-3.63318e-02,-2.19043e-01,-2.12707e-01,-2.32824e-01,-8.00926e-02,-1.63826e-01,2.82746e-01,7.46737e-02,3.20893e-01,1.06578e-01,-2.80784e-01,7.40440e-02,-2.40548e-02,-5.98122e-02,9.74905e-02,1.68685e-01,-1.54134e-01,1.12610e-01,2.29584e-01,2.67426e-01,-2.32509e-02,-1.27322e-01,-3.17118e-02,-2.97963e-01,4.99207e-02,
8.13139e-02,-3.35356e-02,-4.99944e-02,-2.07145e-01,-3.40007e-01,-3.66610e-01,-3.09116e-01,-1.52407e-02,-2.26931e-02,1.07857e-01,-2.75282e-01,-2.68237e-01,-1.65473e-01,1.40120e-01,-1.77825e-01,-3.29638e-01,-4.28064e-02,1.34028e-01,-2.72743e-01,-3.01374e-01,-1.42543e-01,1.14553e-01,1.10757e-01,2.35654e-01,-2.20814e-03,
-4.77215e-04,2.28289e-01,-3.76833e-01,-2.32332e-01,-1.48532e-01,1.84328e-01,-2.12197e-01,2.01468e-01,-3.69629e-01,-2.80681e-01,-4.88533e-01,-7.14337e-02,3.40793e-01,1.21550e-01,8.08247e-01,2.57561e-01,-6.74387e-01,-6.42487e-02,-2.94497e-01,4.79246e-01,2.25435e-01,2.84385e-01,-4.33284e-02,6.68378e-02,-2.46995e-02,
-2.64810e-01,3.15981e-01,6.42998e-03,2.58968e-01,3.21019e-02,1.85394e-01,2.07827e-01,1.65011e-01,1.11237e-01,3.22182e-01,-1.68033e-01,-1.38022e-02,2.14038e-01,3.01875e-01,-8.79618e-02,-2.94992e-01,1.02716e-01,-2.64975e-01,1.02562e-02,-1.15706e-01,3.22684e-01,1.30223e-01,1.21014e-01,-1.18054e-02,-3.04212e-02,
2.15059e-01,
-2.02425e-01,
-1.08699e-01,
-8.81412e-02,
5.70968e-02,
-2.03755e-01,
6.74483e-02,
-3.00446e-01,
1.78651e-01,
2.30996e-01,
-2.78099e-01,
3.84307e-01,
2.83078e-01,
-1.79462e-01,
6.88964e-02,
1.23835e-02,
2.26911e-01,
1.19638e-01,
-1.98092e-01,
-8.22088e-02,
2.43603e-01,
-2.34632e-02,
5.47551e-02,
-8.96305e-02,
-3.46101e-02,
3.69576e-01,-3.93053e-01,-3.39116e-01,1.16896e-02,7.94803e-02,4.36062e-01,2.27769e-01,6.22941e-02,1.42034e-01,-1.34385e-01,4.19258e-01,3.58107e-01,-5.66137e-02,6.27630e-02,-1.38139e-01,1.90141e-02,2.08037e-01,-1.90228e-01,2.52568e-01,-1.25038e-01,-3.54445e-01,3.30910e-01,-6.36555e-01,-4.33070e-01,-1.81440e-01,
4.25119e-01,1.46024e-01,-6.42787e-02,2.80809e-01,-1.13007e-01,-1.32600e-01,-2.74457e-01,1.16315e-01,-3.28372e-01,-3.55894e-02,1.18708e-01,2.93800e-01,4.39079e-01,-1.25000e-01,2.85800e-01,-4.13608e-01,1.22821e-02,-9.37123e-02,-2.52451e-01,-1.71810e-01,-3.88788e-01,-2.30026e-01,5.81795e-01,-4.44972e-01,-4.27201e-02,
2.77352e-01,8.43799e-02,2.44362e-01,2.54159e-01,-2.61241e-02,-8.76439e-04,3.39619e-01,1.83398e-01,-1.32408e-02,1.06734e-01,2.17929e-01,2.02117e-01,2.30073e-01,1.62852e-01,-6.22638e-04,5.74273e-02,1.84169e-02,-2.45549e-02,2.22369e-02,1.88119e-01,-3.41357e-01,1.29639e-01,3.59893e-01,-5.22194e-01,-7.72600e-02,
1.70191e-01,3.30461e-01,-4.33227e-02,-2.58151e-01,-4.68882e-02,2.55792e-01,4.88717e-02,3.09499e-01,-2.10753e-01,-7.01507e-01,3.04390e-01,-3.18415e-01,3.24311e-01,3.11045e-01,3.60338e-01,3.92029e-01,1.39482e-01,4.15416e-01,3.41564e-01,-3.36890e-01,-4.63348e-01,-9.42898e-03,2.76175e-01,-1.05302e-01,-1.94740e-01,
-1.19788e-01,-1.75988e-01,1.12207e-01,1.11364e-01,-2.32414e-02,-2.15081e-01,4.05412e-01,-2.16317e-01,-5.18693e-01,3.39270e-01,1.18303e-02,-2.39597e-01,-1.65907e-01,-2.31264e-01,-5.28526e-02,-2.04356e-01,-2.03638e-01,-3.85725e-01,-1.37985e-01,-3.15991e-01,3.23406e-02,-1.66753e-01,3.20481e-01,-6.52227e-01,-1.28461e-01,
-3.23191e-01,
-4.28462e-01,
-3.07323e-01,
-2.97137e-02,
4.85431e-01,
