// Neural Network File Format by Kyle Julian, Stanford 2016
6,3,5,25,
3,25,25,25,25,25,5,
0,
-56000.000000,-56000.000000,-3.141593
56000.000000,56000.000000,3.141593
-278.628049,0.000000,0.000000,-0.242819
112000.000000,112000.000000,6.283185,17.479225
3.18277e-01,8.28538e-02,5.37809e-01,
-6.83070e-01,-1.39989e+00,-2.96487e-01,
-7.44644e-01,8.54943e-01,2.96303e-01,
-3.52262e-02,2.19893e-03,2.37879e-01,
2.97774e-01,-3.01292e-01,1.01634e-01,
6.08823e-01,9.73089e-01,5.04769e-01,
1.10047e+00,-1.27314e+00,-3.93645e-01,
9.14754e-01,6.99511e-02,2.19657e-01,
-1.08260e+00,-4.20350e-01,2.76008e-01,
-5.24167e-01,3.78530e-01,-1.87598e-01,
3.95211e-01,7.00976e-01,2.32472e-01,
1.04016e-01,-1.71819e-01,1.84495e-01,
-2.02358e-02,-4.14039e-01,-6.23488e-01,
-7.93292e-01,4.13605e-01,-3.80825e-01,
8.60598e-01,3.68875e-01,-2.43354e-01,
-1.88354e-01,-1.10649e+00,2.09852e-01,
2.11893e-01,-1.38457e+00,-3.68130e-02,
2.07764e-01,1.84858e-01,1.45153e-02,
-1.54501e-01,3.91837e-01,1.32684e-01,
-1.66294e-01,1.33138e+00,9.74857e-03,
2.75566e-01,-1.66855e-01,-2.73468e-02,
-1.37326e-01,9.63733e-01,-3.30294e-01,
3.50158e-01,-9.08994e-02,-1.46545e-01,
-3.35408e-01,-5.65764e-01,-1.35712e-01,
-1.51425e-01,-8.62082e-02,-2.96978e-02,
3.12274e-02,
-3.01939e-02,
-8.77603e-02,
-2.26374e-01,
-3.28972e-01,
-3.74198e-03,
2.16522e-01,
-1.09799e-01,
1.34950e-01,
2.35972e-01,
1.13408e-01,
-3.08251e-01,
-1.07783e-01,
3.54545e-02,
-1.11243e-01,
-1.09942e-01,
-2.19996e-02,
-1.50921e-01,
7.50806e-02,
3.10762e-01,
-1.75298e-01,
1.56246e-01,
2.23627e-01,
8.24028e-02,
-1.06409e-01,
3.11730e-03,-5.37853e-01,1.88088e-01,-2.60802e-01,-1.70454e-01,3.17676e-01,2.78567e-01,-3.20338e-01,-1.57846e-01,7.71507e-02,-4.97797e-02,-2.51351e-02,-3.13514e-01,2.94687e-01,-1.47014e-01,-2.26083e-01,4.44048e-01,-1.09352e-01,1.24860e-01,-3.34760e-01,3.06525e-01,9.97478e-03,1.70256e-01,1.65490e-02,-6.12971e-02,
-6.04797e-01,-4.86679e-02,-1.29119e+00,-5.05838e-02,3.41494e-01,-2.05571e-01,2.17940e-01,2.54536e-01,-1.70479e-01,-2.10460e-01,-4.47478e-01,-9.06259e-02,-1.76625e-01,1.91515e-01,2.76343e-01,-6.92063e-01,1.67861e-01,-2.97961e-01,-2.52468e-01,-3.36564e-01,-1.90161e-02,1.93146e-01,1.67559e-01,-1.62120e-01,-2.79985e-01,
-2.05993e-02,2.41290e-01,5.32027e-02,9.23446e-02,1.36549e-01,2.81138e-01,-2.66939e-02,-2.50778e-01,3.55491e-01,-3.88911e-01,1.61582e-01,-1.38289e-03,-3.49921e-01,2.85833e-01,-3.67425e-01,-1.70419e+00,-2.93717e-01,-2.04588e-02,-8.49273e-02,4.82676e-02,-2.02803e-01,4.26181e-01,-3.28533e-01,1.48109e-02,3.21420e-02,
1.42027e-01,-5.25310e-02,-1.22305e-01,1.31734e-01,-9.67576e-02,3.57861e-01,1.41551e-02,4.72932e-01,3.09281e-01,8.25761e-02,1.03079e-01,2.54746e-01,-5.07260e-02,1.73194e-01,-2.25222e-01,7.16553e-02,-1.19968e-01,1.79205e-01,5.33024e-02,-3.01476e-01,-1.42489e-01,-2.56720e-01,2.56694e-01,-1.18956e-01,-2.83043e-01,
-1.82909e-01,-1.76537e-01,4.90200e-01,2.49080e-01,-2.82806e-01,4.79532e-01,4.22941e-01,-2.45860e-01,-3.63612e-01,6.05675e-02,-3.35917e-01,-1.05669e-01,-2.94239e-01,-2.14015e-01,2.39765e-01,-1.93482e-01,9.71646e-02,-2.20523e-01,-2.91086e-01,2.88814e-01,4.89152e-01,3.74689e-02,-7.59852e-02,2.83692e-01,-1.62936e-02,
2.65508e-01,3.04960e-01,-3.62896e-01,-1.39884e-01,-2.78488e-01,4.05310e-01,-3.75615e-01,1.68915e-03,-5.41003e-01,-2.16792e-01,-2.08258e-01,3.77036e-02,9.22461e-01,-4.91919e-01,2.14816e-01,1.05675e-01,2.22638e-01,-3.05941e-01,-3.99022e-01,2.85046e-01,-2.48034e-01,1.41038e-01,-2.10333e-01,-8.49299e-02,1.69944e-01,
-1.47539e-01,3.74379e-02,-1.28983e-02,-2.36125e-02,-2.23887e-01,-4.53176e-02,9.78363e-03,3.64555e-01,3.27982e-01,1.27429e-01,-1.09089e-01,-1.31034e-01,-4.48913e-01,2.42405e-01,-1.72057e-01,7.52037e-04,-3.29236e-01,-1.97489e-01,2.91828e-01,-3.35171e-01,1.69536e-01,4.13498e-01,2.91628e-01,1.71325e-01,3.30747e-01,
6.55282e-02,2.07478e-01,2.54014e-03,-1.76994e-01,-3.24865e-01,8.17356e-02,-1.38156e-01,2.73080e-01,-4.02271e-01,-8.13394e-02,-1.28629e-01,9.88317e-02,3.84215e-02,2.79290e-01,-3.65909e-02,-2.98000e-01,2.23623e-01,2.70290e-01,1.77686e-01,-3.52983e-02,3.38086e-01,-3.44891e-01,2.22723e-01,3.08964e-01,1.24196e-01,
-9.57330e-02,3.30296e-01,2.41228e-01,1.52139e-02,-1.82320e-02,-4.02937e-01,1.82650e-01,2.81304e-01,2.39738e-01,1.85358e-01,-1.90242e-01,-1.48556e-01,2.23260e-01,-1.66409e-01,1.36470e-03,-5.85611e-03,-2.16374e-01,-7.58709e-02,-3.01480e-01,-1.04726e-01,-1.56514e-01,-7.07130e-02,2.64966e-01,2.70684e-02,-5.48953e-02,
5.83265e-01,-1.16288e-01,1.04330e-01,2.62673e-01,2.92686e-02,-4.20175e-01,-1.02796e-01,-5.01604e-01,1.76829e-01,3.53819e-01,3.49207e-01,-2.29630e-01,2.81089e-01,3.36122e-01,5.65906e-01,-3.25150e-01,-2.26059e-01,-3.04139e-02,2.08156e-02,2.12760e-01,-1.92369e-01,9.70092e-02,-3.29278e-01,-1.28425e-01,-2.46626e-01,
-6.95269e-01,-5.22281e-01,8.02322e-01,2.62810e-01,1.43826e-01,-1.45950e-03,2.56623e-01,1.21758e-01,6.79460e-02,2.39387e-01,-2.00360e-01,-2.95477e-01,6.48276e-02,-2.31100e-01,1.11947e-01,9.33867e-01,-1.65424e+00,-1.01729e-01,-2.33620e-01,2.52810e-01,-8.84734e-02,2.31406e-01,-2.85165e-01,1.67414e-01,3.06096e-01,
-5.74391e-01,4.92904e-01,-1.34446e-01,-7.68833e-02,1.89514e-01,1.13170e-01,2.01882e-01,2.66823e-01,-9.40304e-02,1.89574e-01,-5.19967e-01,-3.06241e-01,-9.26949e-01,1.89278e-01,1.55549e-01,4.78418e-01,3.23434e-01,2.77412e-01,4.38678e-02,2.04273e-02,5.05801e-02,-6.46111e-02,-3.59009e-01,1.68523e-01,-5.79613e-02,
-4.64765e-01,-4.51997e-01,3.97097e-01,-1.64860e-01,1.79178e-01,-1.83831e-01,4.24021e-01,-1.71895e+00,3.60196e-01,1.96304e-01,-2.35216e-02,-1.44736e-01,-4.17096e-01,4.67010e-01,-1.81310e-02,-6.00301e-01,-4.83231e+00,2.29090e-01,2.64999e-01,1.65129e-01,-2.16412e-01,-1.51820e-02,-2.30775e-01,-3.33873e-01,3.27671e-01,
-2.53877e-01,-2.30716e-01,1.44971e-01,-3.63689e-02,9.87499e-02,5.06552e-02,8.95835e-02,8.75262e-02,7.60925e-02,-8.66637e-02,-1.36088e-01,3.13989e-01,5.09148e-02,2.00347e-01,-5.20920e-02,-2.02001e-01,-1.13586e-01,1.76653e-01,1.55361e-01,2.22426e-01,-2.39881e-01,-2.45220e-01,2.47591e-02,3.04713e-02,-2.53800e-01,
1.08127e-01,-2.21576e-02,5.01257e-03,-1.07580e-01,2.05347e-01,-1.00764e-01,-3.74252e-02,-1.76720e-02,3.21076e-01,1.94657e-01,8.34284e-02,-3.43624e-01,-4.83304e-01,3.24845e-01,6.38056e-01,3.35769e-01,2.16059e-01,6.81818e-02,-3.72722e-01,-3.80927e-01,3.34728e-02,1.32677e-01,-3.02774e-01,3.86938e-01,1.11164e-01,
-1.11462e-01,5.55643e-02,6.17202e-02,-2.64304e-01,1.89255e-01,3.58509e-01,-2.46436e-01,-1.17429e-01,1.82239e-02,-2.30450e-01,-1.63899e-01,-2.81911e-01,-4.29966e-02,4.00645e-02,5.11387e-02,-7.49291e-02,5.09565e-01,2.45283e-01,-1.54619e-01,-2.29755e-01,-1.57082e-01,-6.86224e-02,-7.84015e-02,2.06816e-01,1.63149e-01,
-8.96042e-02,1.14115e-01,-2.08851e-01,1.02685e-01,2.20838e-01,3.58176e-01,-1.22435e-02,5.22430e-02,1.24182e-01,-1.14148e-01,-1.46790e-02,-5.51434e-02,3.97826e-01,-2.55361e-01,-4.56712e-01,1.07912e-01,-4.15740e-01,1.43030e-01,2.69418e-01,2.12840e-01,3.27396e-01,-1.11103e-01,3.09262e-02,-7.90265e-02,3.23769e-01,
-2.28328e-01,1.52620e-02,-1.25863e-01,-2.17175e-01,-3.14838e-01,2.43927e-01,-1.64312e-01,-6.86512e-02,9.57875e-02,-2.54677e-01,1.17202e-01,-2.34127e-01,-1.20746e-01,1.18309e-01,-2.72681e-01,4.96764e-02,4.44573e-01,-3.05206e-01,-2.23721e-01,2.82023e-01,-7.22624e-02,4.41068e-02,2.60131e-01,-1.07020e-01,3.28462e-01,
4.09595e-01,-1.12023e-01,-6.97724e-04,2.87540e-01,-1.90773e-01,-3.18082e-01,2.70264e-01,4.62095e-01,3.66022e-01,3.48670e-01,2.46208e-01,-3.29397e-01,-3.91683e-01,5.77871e-01,3.44881e-01,-2.65000e-01,1.49889e-01,-5.21240e-02,-4.75476e-02,-2.58867e-01,-3.48821e-03,1.18088e-01,-1.64440e-01,1.33940e-01,-9.82639e-03,
-1.79537e-01,3.00719e-01,1.56974e-01,8.32251e-02,-5.41807e-02,-3.50038e-02,-3.17582e-01,-3.11091e-02,-1.67638e-01,-2.58679e-01,2.03762e-01,1.27284e-01,-1.90824e-01,5.45209e-02,-2.90305e-01,-2.84859e-01,3.37931e-01,-5.56516e-02,1.16765e-01,-5.00436e-02,1.03440e-01,-2.08053e-01,-3.22871e-01,1.42624e-01,-1.01386e-01,
1.55834e-01,-5.86092e-01,-2.42054e-01,-1.48372e-01,2.06909e-01,6.08670e-02,-8.23062e-02,1.14094e-01,3.50215e-01,-4.36773e-01,-2.19612e-01,-2.49480e-01,4.65975e-01,3.97717e-01,-1.15875e-01,-1.77686e-01,-4.46853e-02,1.95506e-01,1.80244e-01,-4.44434e-01,2.63532e-01,-8.20761e-02,-2.33455e-02,3.15661e-01,2.39241e-01,
2.30971e-01,-4.91709e-01,-2.35397e-01,-2.23494e-01,1.34886e-01,-8.25695e-02,-3.01246e-01,6.05073e-01,3.95532e-01,4.44262e-01,-3.26893e-01,-2.41016e-01,1.53928e-01,2.40089e-01,3.52384e-01,4.16244e-01,6.63694e-01,6.91519e-03,-3.95739e-02,7.92630e-02,-1.74333e-01,3.19279e-01,-7.63509e-02,-1.13715e-01,2.52059e-01,
-3.64191e-01,3.89908e-01,-3.49784e-01,-3.18058e-01,-6.69443e-02,3.76134e-01,2.03007e-01,2.53024e-01,2.96355e-01,3.99987e-01,-1.11275e-01,1.81183e-01,-2.51438e-01,1.05234e-01,-6.98873e-01,-1.90423e-01,2.56005e-01,-2.65512e-01,-3.20543e-03,-9.13077e-02,-2.30431e-01,-4.67214e-01,2.49388e-01,-2.67837e-01,2.05812e-01,
1.81574e-01,-6.89592e-01,-1.62790e-01,5.46834e-02,1.09223e-01,1.15074e-01,1.90516e-01,3.44134e-01,3.29400e-01,-9.20115e-02,1.81746e-01,-1.28264e-01,9.94406e-01,-7.90948e-01,-6.59562e-01,-5.68398e-01,1.44732e-01,1.03138e-01,1.30622e-01,-1.73565e-01,-2.85210e-01,-1.17225e-01,2.43077e-01,4.44101e-01,2.50354e-01,
3.13489e-01,-1.66493e-02,-2.54977e-01,3.30289e-01,-1.81736e-02,3.85134e-01,-2.91797e-01,-1.63725e-01,2.04028e-02,-1.13143e-01,2.76125e-01,-2.17076e-01,5.12539e-01,4.65528e-02,3.53189e-02,-6.02005e-01,2.07045e-01,-2.26422e-01,3.49261e-02,-9.40342e-02,2.85143e-01,2.19991e-01,-5.14499e-02,-1.41033e-01,-6.14653e-02,
9.96198e-03,
1.27246e-01,
-1.55782e-02,
3.19815e-01,
-8.85456e-02,
-1.74717e-02,
1.55811e-02,
9.91228e-02,
2.31275e-01,
3.94594e-04,
-1.14771e-01,
3.31907e-02,
-2.23914e-01,
-2.42916e-01,
8.85840e-02,
3.04516e-01,
1.01667e-01,
2.91825e-02,
-2.03668e-01,
-2.70395e-01,
1.78665e-01,
-1.28943e-01,
-1.72076e-01,
-9.57059e-02,
3.55530e-02,
-1.56224e-01,3.82151e-01,-2.46282e-01,1.55621e-01,-2.35463e-01,-1.42171e-01,-2.08110e-01,2.51634e-01,-1.94739e-01,-1.29694e-01,2.25519e-01,1.93200e-03,-8.33262e-02,-1.88385e-01,8.35441e-02,1.40321e-01,-3.18288e-02,4.44784e-02,1.27001e-01,-3.13898e-01,-2.36403e-01,3.20385e-01,-3.28509e-01,2.43061e-03,-1.09593e-01,
-1.29037e-01,1.59548e-01,-2.43116e-01,-2.77371e-01,7.27375e-03,-5.91251e-01,-5.10166e-01,-1.64850e-01,1.42832e-01,-3.25311e-01,1.07271e-01,7.30431e-03,-3.73589e-02,2.69841e-01,-2.54361e-01,-4.31140e-01,3.37241e-01,8.89553e-02,3.88406e-01,2.67105e-01,-1.85399e+00,5.41886e-01,-5.27596e-01,-2.67146e-02,6.18778e-01,
-2.42304e-01,-5.52215e-02,9.38117e-02,2.10124e-02,1.30813e-01,-7.23338e-02,1.45184e-01,-1.59618e-02,-2.36620e-01,-1.18086e-01,3.06493e-01,3.03255e-02,-4.06656e-01,-1.85239e-01,-3.28164e-02,1.05377e-01,1.17845e-01,-5.44001e-02,6.23590e-01,1.71556e-01,-4.30906e-02,-3.71933e-01,-4.54419e-01,-2.02912e-01,1.21050e-01,
3.83991e-02,-1.68583e-01,6.42510e-02,-8.74171e-02,-2.07992e-01,1.95806e-01,-2.68719e-01,2.87155e-01,4.91622e-02,-2.05307e-01,3.37049e-01,-1.07983e-01,-7.59736e-02,-7.65688e-02,5.01219e-02,-2.90361e-01,-2.19093e-01,-8.33347e-02,-2.64947e-02,-1.16919e-01,3.59286e-01,1.38439e-02,-1.51899e-01,2.80214e-01,3.18447e-01,
-1.29269e-01,1.66224e-01,-2.03931e-01,7.66681e-03,-2.18863e-01,2.07362e-01,-3.09023e-01,-7.15062e-02,-4.20176e-02,-9.10005e-02,2.22625e-01,-3.44375e-01,3.30787e-01,2.62739e-01,2.65768e-01,-4.36278e-02,2.19939e-01,2.34301e-01,2.30099e-01,-1.69221e-01,-1.11060e-01,2.98359e-01,3.17011e-01,1.81216e-01,1.17868e-01,
2.07688e-01,1.72123e-01,-9.93147e-02,1.93405e-01,-2.19882e-01,-1.98479e-01,-2.46207e-01,-2.02814e-01,-4.44153e-02,-1.51398e-01,-9.92286e-03,-1.62572e-01,-5.36781e-02,-1.92195e-01,3.08266e-02,-2.47448e-01,-2.51346e-02,2.81407e-01,2.00906e-01,2.43442e-01,-1.67916e-01,-1.37451e-02,8.51269e-02,-7.63269e-02,2.85777e-01,
-1.43181e-01,-2.42373e-01,1.30676e-01,-8.47859e-02,1.84814e-01,-1.23958e-01,-4.29064e-02,2.99597e-01,9.53850e-02,-4.05691e-01,3.08818e-01,-4.22103e-01,-2.71974e-02,1.33166e-01,4.37395e-02,2.14411e-01,8.18272e-02,1.54110e-01,3.42455e-01,-3.25709e-01,-7.11346e-02,-2.22697e-01,-1.69893e-01,-2.73556e-02,1.25473e-01,
-5.65679e-01,2.18795e-01,8.81008e-02,-1.84088e-02,1.94356e-01,5.20078e-01,1.06871e-01,-2.50198e-01,3.80794e-02,3.72784e-01,-2.41695e-01,9.64026e-01,-2.23860e-01,2.20051e-01,-3.76717e-01,-6.93934e-02,1.88506e-01,1.94844e-01,3.31636e-01,-3.44392e-01,5.26955e-01,6.67896e-01,-6.94098e-02,-6.24131e-02,-4.18919e-01,
2.57478e-01,2.96364e-04,1.85723e-02,-3.91706e-01,-6.30703e-02,4.21204e-02,-1.72002e-02,3.58507e-01,-2.50462e-02,1.81914e-01,-1.63315e-01,-3.07514e-01,-2.69475e-01,-3.15494e-01,1.94783e-01,-1.59589e-01,1.67523e-01,-1.48502e-02,1.24772e-01,-9.61108e-02,3.05350e-01,5.44466e-01,5.70377e-01,1.51388e-01,4.68821e-01,
9.58262e-03,-6.18552e-01,-1.74506e-01,-1.42496e-01,-5.33693e-01,-4.74339e-01,-2.07924e-01,3.37775e-01,-2.27966e-01,-2.58891e-01,4.66187e-02,-9.96710e-02,9.00348e-01,-1.24917e-01,6.96663e-02,1.71056e-01,-1.06875e-01,1.72164e-01,7.19000e-02,-3.20129e-01,-1.72788e-01,-7.72744e-01,-1.13091e-01,3.39809e-01,4.61519e-02,
7.19115e-02,-5.14762e-01,-2.76238e-02,2.22344e-02,5.17782e-01,3.00105e-02,1.93895e-01,-4.17441e-02,-1.38513e-02,1.62830e-01,1.22122e-01,1.07386e-01,-2.21252e-01,1.26823e-01,-8.72906e-02,2.59211e-01,-4.96815e-02,1.91583e-01,1.91517e-02,2.04941e-01,1.80828e-01,2.72305e-01,4.03997e-02,8.10794e-02,-8.13194e-02,
-1.56539e-01,-1.06131e-01,-6.58649e-02,5.13092e-02,1.09074e-01,5.17672e-02,1.77972e-01,1.67717e-01,7.85666e-02,3.00889e-01,-2.06696e-01,3.53301e-01,9.54417e-02,2.63015e-01,1.30953e-01,-6.50773e-02,8.65057e-02,1.42108e-01,-1.67970e-02,-2.06554e-02,3.65387e-02,-4.82444e-02,-1.74841e-01,1.96903e-01,-1.18684e-01,
2.76893e-01,7.39272e-02,6.30374e-02,-1.46002e-02,-4.44191e-02,-1.09785e-01,-3.58862e-01,-2.09985e-01,4.30532e-02,-2.29469e-01,2.42762e-01,-2.81893e-01,7.66268e-04,1.62022e-01,-2.95385e-01,1.94497e-01,-1.29177e-01,3.24335e-01,2.19614e-01,2.94048e-01,-3.32405e-01,1.24342e-01,-1.40943e-01,-4.45894e-01,2.03658e-01,
1.18603e-01,-1.72318e-01,1.06073e-01,-1.64334e-01,-2.64952e-01,-2.90230e-01,1.43505e-01,-6.85923e-02,-2.79756e-01,-1.35621e-02,-2.10375e-03,-6.47019e-01,-5.45846e-02,1.19166e-01,2.79100e-01,-1.24171e-01,-9.10851e-02,-4.09173e-01,-8.05082e-03,-3.09581e-01,-4.35943e-01,-1.58510e-01,5.87958e-01,7.67859e-02,3.41785e-01,
-1.32503e-01,-2.49216e-01,-3.33302e-01,-6.88287e-02,-2.32005e-02,-1.60371e-01,5.44023e-02,-2.74743e-01,-5.23457e-02,-3.07745e-01,-5.65002e-02,1.63082e-01,-2.64089e-01,1.23361e-02,3.30221e-02,-2.00599e-01,-2.26892e-01,-4.13242e-02,-3.03508e-01,3.09396e-01,5.97712e-02,-1.07708e-01,-2.16340e-01,5.05730e-02,-2.92043e-01,
-1.10730e-01,-2.00803e-01,-3.42540e-01,-9.42654e-02,2.37810e-01,7.57242e-02,3.03490e-01,-6.35887e-02,-3.45710e-01,1.15285e-01,1.96942e-01,-2.39498e+00,-7.35091e-02,1.56893e-02,4.01619e-01,6.80244e-02,-2.79694e-02,1.76513e-01,-5.51205e-02,-4.76628e-02,-2.23893e+00,-3.87515e-01,-1.00583e-01,7.98526e-02,-1.11386e-01,
-3.96160e-01,8.10093e-02,6.10510e-02,-3.17350e-01,1.56257e-01,2.30181e-01,-1.46115e-02,5.87076e-02,-5.78492e-02,2.46917e-01,1.76115e-01,-1.58888e-01,-8.24698e-01,2.34585e-01,3.29340e-01,-6.06619e-01,1.25068e-01,2.60218e-01,-2.54086e-01,-7.14087e-03,-3.67171e-01,2.92313e-01,-3.71749e-01,5.28486e-01,-1.07939e+00,
-5.90825e-01,-6.81992e-02,-3.20043e-01,-2.30031e-01,-5.51498e-02,9.61780e-02,-3.28441e-01,-6.78040e-02,2.80314e-01,-7.59703e-02,9.74535e-02,4.07114e-01,1.13234e-02,8.69326e-02,-2.75863e-01,7.70686e-02,3.28682e-01,1.72036e-01,6.41498e-01,-1.57664e-01,6.51530e-01,8.71496e-01,-2.08165e-01,-9.00232e-02,3.78026e-03,
2.15989e-01,7.78145e-02,-2.14415e-01,-1.54116e-01,-5.29506e-02,-2.32414e-01,1.75113e-01,-2.04949e-01,1.68559e-01,-3.06847e-01,1.86415e-01,-4.07086e-01,1.72257e-01,-1.73208e-01,3.33943e-02,2.34712e-01,1.24941e-01,1.12075e-01,9.08507e-03,-8.22998e-02,9.14605e-02,-4.09551e-01,-4.55296e-02,1.14400e-01,3.33067e-01,
2.31702e-01,-2.94206e-01,2.29576e-01,2.48147e-01,-2.85611e-01,3.25742e-01,1.62531e-01,-1.11532e-01,1.71848e-01,2.93306e-01,-1.38876e-01,1.48761e-02,1.93137e-01,5.06307e-02,-2.44885e-01,9.85496e-02,-3.46392e-01,-1.99117e-01,-1.68580e-01,5.99768e-02,1.79948e-01,-3.17924e-01,-3.04514e-01,1.68386e-03,-1.25908e-01,
4.36679e-01,2.46254e-01,-2.77882e-01,-3.07571e-02,-1.49905e-01,2.45954e-02,7.81408e-02,-7.93192e-03,-2.81011e-01,-1.23303e-01,-1.34829e-01,-1.45982e-01,1.90058e-01,1.26209e-01,-4.55928e-02,2.30182e-01,1.53748e-01,-2.65901e-01,-3.15311e-01,-5.35523e-02,1.78872e-01,9.20652e-01,1.69056e-01,-1.27164e-01,1.26150e-02,
5.67915e-02,-1.75239e-01,-8.22999e-02,2.88002e-01,-3.13813e-02,1.14915e-01,-2.96893e-01,-2.26637e-01,-5.96463e-02,3.20561e-01,-2.80990e-01,1.50459e-02,-2.02613e-01,-4.40476e-02,-1.27261e-01,-2.99355e-01,-2.98995e-01,-2.74973e-01,1.79427e-01,-2.62912e-01,3.37356e-01,-5.94422e-03,2.92568e-01,-1.68824e-01,-2.80510e-01,
2.49096e-01,7.75874e-02,1.14820e-02,1.94770e-01,-2.33265e-02,-2.85762e-01,3.87216e-01,-5.20944e-02,3.45305e-01,-1.84032e-01,-1.68617e-01,-1.18194e-01,1.67273e-01,2.53535e-01,1.48415e-01,-1.20877e-04,1.91395e-02,2.44614e-01,-2.12510e-01,3.16513e-01,1.14837e-01,1.33924e-01,-1.84198e-02,-2.75552e-01,3.12022e-01,
-2.88314e-01,-1.01882e-01,-7.56801e-02,-2.95170e-01,-2.02274e-01,-1.07280e-01,2.98613e-01,-3.07802e-01,6.79567e-02,-1.49180e-02,1.71197e-01,-4.16748e-01,4.20978e-01,-9.64470e-02,2.36097e-01,1.82499e-01,-1.08167e-01,7.84082e-02,7.26786e-03,-1.02866e-01,2.49399e-01,-9.63839e-01,1.55731e-01,-2.69865e-01,4.68018e-01,
-5.01334e-02,-4.39857e-01,2.04819e-01,2.17899e-01,1.24585e-01,2.25048e-01,-1.96384e-01,5.15209e-01,-9.84565e-03,-4.44583e-01,-9.44049e-01,2.16280e-01,-3.38603e-02,-1.73805e-01,-4.40397e-01,-2.81203e-01,-2.54418e-01,-2.70137e-01,3.23205e-01,-9.58168e-02,-4.48610e-01,-9.10564e-02,-2.75065e-01,-1.42900e-01,-2.10024e-01,
2.10962e-01,
6.74942e-02,
7.04139e-02,
2.72023e-01,
-3.63128e-01,
-2.74240e-01,
1.07906e-01,
-1.13373e-01,
-6.79406e-02,
1.51517e-01,
-8.17884e-02,
2.68365e-01,
6.67468e-02,
2.67693e-01,
-2.75767e-01,
4.43591e-02,
3.49140e-02,
4.48148e-02,
2.22379e-01,
-2.81441e-01,
7.67015e-02,
-1.34110e-01,
-1.75454e-01,
8.28768e-02,
9.23113e-02,
3.47218e-03,1.08579e-01,6.39498e-02,-1.46722e-01,3.28550e-01,-5.66023e-02,2.91161e-01,2.62369e-01,-2.11083e-01,-3.08163e-01,-2.15614e-02,1.23822e-01,3.29327e-01,1.74680e-01,-2.30554e-01,3.20086e-01,3.33774e-01,-2.83313e-01,-2.33203e-01,6.72618e-02,1.99043e-01,-8.25965e-03,-1.55365e-01,-2.39538e-01,7.58263e-03,
-3.18938e-01,2.99080e-01,3.66861e-01,1.76951e-01,-2.14221e-01,-3.44667e-01,3.28268e-01,-1.50665e-01,-1.95978e-01,-5.98355e-01,3.18837e-01,-2.35446e-01,1.41796e-01,2.52333e-01,-1.44364e-01,-7.15871e-02,-2.42057e-01,-3.11723e-02,-1.94300e-01,5.49239e-02,1.38735e-01,1.21511e-02,6.33935e-01,-5.84435e-01,5.75871e-01,
-1.79561e-01,-1.15532e-01,3.74062e-02,1.89167e-03,-2.15214e-01,-1.69180e-02,3.31895e-02,5.49675e-01,-1.37664e-01,5.84108e-03,-3.39068e-01,-1.38526e-01,-2.93572e-01,1.80890e-01,-2.72039e-01,5.02963e-01,8.88344e-02,-2.62530e-01,2.61044e-01,-3.69030e-02,1.68668e-02,3.32156e-01,-3.33921e-01,1.07874e-01,-2.01565e-02,
-2.24878e-01,1.68198e-01,-1.65330e-01,-5.66863e-02,2.12183e-01,3.09402e-02,2.87970e-01,-3.44826e-01,-2.58108e-01,-2.19095e-01,1.62595e-01,-3.39541e-01,-3.38602e-01,-3.22292e-01,-1.76053e-01,2.19837e-01,-2.10391e-01,-4.23512e-02,-1.89194e-02,-7.54348e-02,3.09553e-01,7.18934e-02,-3.38650e-01,-2.23991e-01,-7.25351e-02,
1.74303e-01,3.16526e-01,5.29889e-02,-1.75883e-01,1.67462e-01,2.35579e-01,1.50455e-01,1.71419e-01,4.76790e-02,-7.50487e-02,6.36336e-02,3.24108e-01,-3.77448e-02,-1.36904e-01,-1.16496e-01,1.35687e-01,1.16078e-01,-1.21790e-01,1.67545e-01,3.33176e-01,1.24215e-01,1.74427e-01,-1.07541e-01,-3.34775e-01,1.85263e-01,
-1.84644e-01,3.42081e-01,-9.97169e-02,2.18879e-01,4.21873e-02,-5.03248e-03,3.09415e-01,2.93019e-01,-5.40962e-03,-4.57355e-02,2.30647e-02,5.17557e-02,1.93310e-01,-2.12526e-01,-2.02453e-01,-8.92758e-02,-2.33583e-01,7.02592e-02,-2.79907e-01,1.23807e-01,2.67828e-01,-3.53642e-02,9.17061e-02,-1.91119e-01,-1.42742e-02,
7.06216e-02,-9.49864e-02,2.27178e-01,-2.08993e-01,-2.42206e-01,-1.46287e-01,-7.10345e-02,-2.74585e-01,2.75411e-01,1.19791e-01,1.70089e-01,-1.42475e-01,1.83900e-01,-2.17200e-01,-1.42850e-01,1.68711e-01,-2.99607e-01,-1.76267e-01,-2.62333e-01,-6.47373e-02,-2.63773e-01,-8.14312e-02,-1.73389e-01,2.06642e-02,2.21191e-01,
-3.09434e-01,3.22781e-01,2.00446e-01,7.99190e-02,-2.97153e-01,-1.82097e-01,-9.50897e-02,2.01435e-01,-3.31005e-01,-1.18916e-01,-2.40296e-02,1.76815e-01,1.71138e-01,1.59979e-01,1.51891e-02,2.20250e-01,1.89257e-01,-4.63482e-02,2.90502e-01,-2.34773e-01,3.59131e-01,-3.22709e-01,3.55102e-01,2.46938e-01,3.52042e-01,
-1.29996e-01,1.38997e-01,1.07003e-01,-4.49076e-02,7.04220e-03,2.57252e-01,1.39642e-01,1.05812e-01,2.09454e-01,1.58250e-03,1.17092e-01,2.07781e-01,2.69408e-01,2.57230e-01,2.81885e-01,-3.65605e-01,2.27578e-01,-2.44522e-01,1.78315e-01,-2.11345e-01,-3.40264e-03,-9.53649e-02,-1.75601e-01,8.21620e-02,2.67861e-01,
2.89543e-01,-1.12761e-01,-2.85453e-02,-2.10041e-01,-4.92238e-03,2.99556e-01,-4.58508e-02,3.72328e-01,-8.80125e-02,-6.79454e-01,1.01622e-01,-1.09123e-01,2.29927e-01,2.36611e-01,-2.22274e-01,1.91889e-01,-2.55967e-01,1.42782e-01,-3.85170e-02,-3.20227e-01,4.56333e-01,8.83675e-02,4.02458e-01,1.23507e-01,6.58582e-01,
2.65223e-01,-1.02181e-01,6.41533e-02,1.21687e-01,1.97001e-01,-1.24217e-01,-2.96315e-01,-1.36776e-01,-2.10270e-01,2.09798e-01,-2.90745e-01,-2.94611e-01,1.91748e-01,7.43324e-02,-2.13588e-01,2.06765e-02,8.46420e-02,1.46018e-02,2.25580e-01,-3.21897e-01,1.73307e-01,-4.85426e-02,1.54306e-01,-1.32859e-02,-7.13836e-02,
3.39572e-01,-2.37735e-01,1.90816e-01,5.43617e-02,3.03827e-01,2.41640e-01,-3.17747e-01,-2.12104e-01,-2.65048e-01,1.97589e-01,-1.43966e-01,-1.62677e-01,3.27335e-01,-1.09489e-01,-2.90007e-02,-1.80563e-01,-1.53088e-01,-5.37776e-02,-1.38878e-01,-2.46764e-01,8.97414e-02,2.71076e-01,-2.82360e-01,-1.44516e-01,6.91490e-02,
-1.96076e-01,1.40041e-01,-9.33115e-04,1.94330e-01,1.32781e-01,1.38166e-01,6.31291e-02,-1.46543e-01,9.65764e-02,-1.62502e-01,1.16922e-01,2.62250e-02,2.04079e-01,5.79309e-02,2.02787e-01,1.21835e-01,-4.74860e-01,1.31789e-01,6.36660e-03,-2.19706e-01,-2.25698e-01,1.57391e-01,7.58551e-02,-9.77941e-02,4.07426e-01,
1.56020e-01,-1.40432e-01,-3.69326e-02,-3.20841e-01,-3.18715e-02,2.20507e-01,-2.05473e-01,3.12677e-01,-7.44280e-03,-1.28187e-01,2.22999e-01,-2.83473e-01,-3.62544e-02,-1.51965e-01,8.32716e-02,6.90939e-02,-1.14582e-01,-1.59091e-01,2.47447e-01,2.74237e-01,5.95660e-02,3.32883e-01,6.77134e-02,8.73883e-02,-1.97351e-01,
2.63964e-01,-2.97617e-01,6.33157e-02,6.59322e-02,-2.98656e-01,-3.04454e-01,1.82088e-01,1.35432e-01,-4.08286e-02,-1.17817e-01,6.41757e-02,5.75052e-03,-2.15067e-01,1.25769e-01,-1.01180e-01,-7.40406e-02,3.60520e-01,1.71578e-01,-2.79289e-01,1.84234e-01,7.38778e-02,1.19480e-01,-2.44643e-01,1.96892e-02,-4.92551e-03,
2.82176e-01,-2.49467e-01,-1.30639e-01,-2.80213e-01,3.89004e-01,-2.50101e-01,-2.39263e-02,-1.53895e-01,-1.58553e-02,-1.49488e-01,-2.09759e-01,2.71432e-01,1.90483e-01,1.57208e-01,1.24978e-01,2.39224e-02,-2.36719e-01,2.83929e-01,-2.11835e-01,-8.64625e-03,1.85234e-01,-1.53388e-02,5.36964e-02,-4.28102e-02,-9.97221e-02,
-2.85058e-01,-2.84390e-01,-3.51688e-02,-1.21650e-01,2.98563e-02,2.96469e-01,-2.11302e-02,-4.25328e-01,-3.18221e-02,4.49169e-02,2.04798e-01,1.11117e-01,5.13436e-01,-1.45632e-01,1.66023e-01,-2.09165e-01,-8.25453e-02,1.52122e-01,2.89919e-01,-3.30924e-01,-1.62822e-01,-2.78202e-01,1.29992e-01,1.25992e-01,-2.97304e-01,
-3.27886e-02,-1.52708e-02,4.18752e-03,1.09536e-01,3.13641e-02,7.51769e-02,3.32815e-01,1.72958e-01,-3.16947e-01,1.71922e-01,3.40533e-01,-7.74941e-02,1.75949e-01,-2.09142e-01,-2.57917e-01,7.93681e-02,-2.02035e-01,-2.93696e-01,-2.93925e-01,-5.13010e-02,1.93650e-01,-3.23307e-01,-1.81996e-01,2.12339e-01,4.70714e-02,
-3.43496e-01,1.43107e-01,-7.35344e-02,2.22113e-01,-9.73658e-02,-3.43392e-01,-8.94053e-02,1.02146e-01,2.20234e-01,2.39171e-02,3.16621e-01,-3.95927e-02,6.31199e-02,-9.32677e-02,2.95817e-01,-9.74531e-02,1.03101e-01,-1.56803e-01,-8.53857e-02,8.57146e-02,-6.45878e-02,-4.84337e-02,2.13852e-01,3.43423e-01,1.68879e-01,
-2.20586e-01,2.34817e-01,1.63319e-01,1.54078e-01,-1.56183e-01,2.68637e-01,2.50144e-01,-1.95293e-01,-2.75363e-01,-2.89644e-01,1.83887e-02,1.59553e-01,-7.87443e-02,3.15273e-01,-2.58855e-01,-4.75108e-01,1.68488e-02,1.48797e-01,1.35932e-01,-9.27723e-02,1.99280e-01,1.76235e-01,2.01285e-01,-2.11907e-01,1.84002e-02,
2.52396e-01,8.59509e-02,2.06917e-01,-1.78305e-01,1.98278e-01,9.25523e-02,4.41938e-02,1.65630e-01,3.00168e-01,-1.25581e-01,-2.84665e-02,-7.53813e-02,-2.14705e-01,-2.22904e-01,1.61655e-02,-4.07274e-02,3.66890e-02,6.90786e-02,-4.03519e-01,-3.43317e-01,2.28702e-01,1.98595e-01,2.11569e-01,2.25058e-01,-1.27609e-01,
-5.67375e-02,1.79614e-01,-4.02541e-02,1.94232e-01,3.07192e-01,2.31663e-01,-3.01235e-01,1.24094e-01,-2.80790e-02,-9.86336e-02,-4.68458e-02,2.55262e-01,7.71062e-02,8.50457e-02,2.11928e-01,2.11981e-01,1.04884e-01,-1.06785e-01,-6.37179e-02,-1.22422e-01,1.37812e-01,-1.92606e-01,8.85414e-02,-9.78472e-02,2.20700e-01,
-2.87759e-01,-9.15580e-02,-5.94115e-02,2.77853e-01,1.14161e-01,9.71858e-02,2.64186e-01,5.47831e-01,8.80352e-02,1.77313e-01,8.95933e-02,1.48639e-01,-2.08054e-01,-4.32418e-01,1.23746e-02,2.80811e-01,2.95314e-01,-2.47719e-01,1.86280e-03,1.46087e-01,-2.01117e-01,8.45470e-02,8.65907e-02,5.36494e-01,-4.11331e-01,
4.31822e-01,-7.03532e-01,9.71421e-02,-2.09101e-01,-5.74771e-02,-3.00195e-01,-2.51812e-01,2.29823e-01,1.25381e-01,-3.46594e-01,1.82886e-01,-8.78621e-02,-9.59883e-02,-1.25317e-01,2.55434e-01,4.33429e-01,-1.03888e-01,-3.23751e-01,-2.88178e-01,-2.35608e-01,3.80899e-02,-1.28982e-01,-3.34600e-02,5.11845e-01,1.86536e-01,
1.44713e-01,6.97018e-01,3.19522e-02,-1.79343e-01,1.01998e-01,-7.60907e-02,9.82661e-02,-3.14522e-03,-2.83761e-01,4.37058e-01,3.66742e-01,-7.68606e-02,-6.38003e-01,-2.42859e-02,-1.65898e-01,-3.55275e-02,2.19530e-01,1.95278e-01,-1.87252e-01,1.75097e-01,2.43468e-02,1.73879e-01,-3.29302e-01,-7.55853e-01,-2.42126e-01,
-2.40671e-01,
8.22122e-02,
3.94882e-02,
1.05884e-02,
2.67900e-01,
-2.93540e-01,
1.05433e-01,
-1.87445e-01,
-3.35483e-02,
-2.51436e-02,
3.32708e-01,
-4.83510e-03,
2.06357e-02,
1.91307e-01,
2.35405e-01,
1.85291e-01,
1.15916e-01,
-1.44753e-01,
-1.71304e-01,
2.56278e-01,
-2.94159e-01,
2.72093e-01,
-3.66865e-02,
5.49230e-02,
3.83462e-02,
-1.51846e-01,2.40401e-01,-3.31391e-01,-1.92764e-01,6.10347e-02,2.50139e-01,1.83899e-01,2.20871e-01,1.81604e-01,-2.70255e-01,3.90315e-02,-2.94882e-01,-3.52234e-01,2.54401e-01,1.46702e-01,-3.83406e-01,-2.03340e-01,-2.59601e-01,-6.00638e-02,2.18246e-01,-7.27189e-02,-1.42140e-01,-3.48750e-01,-2.50280e-01,1.31169e-02,
4.98784e-02,-2.15982e-01,1.12938e-01,-1.78631e-01,-1.99134e-01,-2.58903e-01,6.99574e-02,1.11475e-01,2.73224e-02,2.58737e-01,-2.77745e-01,3.35656e-01,-2.73226e-01,2.38965e-01,-2.92339e-01,2.73889e-01,-8.29348e-02,4.88989e-02,-2.43486e-01,-2.21501e-01,2.88508e-01,1.06919e-01,6.11660e-02,-9.45746e-02,2.74223e-01,
-2.81258e-01,-1.74033e-01,-6.30342e-02,-3.01267e-01,2.07655e-01,-1.81774e-01,-3.03542e-01,-6.59394e-02,-6.20636e-02,-1.59258e-01,-6.56374e-02,-1.88042e-01,-6.21407e-02,2.63547e-01,-2.87927e-01,1.77333e-01,2.55230e-02,-2.50705e-02,-1.14755e-01,3.37310e-01,3.40055e-01,-1.10046e-01,1.96204e-01,-3.11554e-02,3.15609e-01,
-1.38972e-01,8.97414e-02,1.81048e-01,1.52236e-01,-2.71202e-01,-1.52517e-01,1.10397e-01,2.34614e-01,-1.24038e-01,2.37522e-01,-8.92478e-02,-1.07986e-01,3.35238e-01,3.35199e-01,-2.38570e-01,2.52144e-01,-2.90339e-01,-3.12228e-01,1.63054e-01,-1.51268e-01,1.03723e-02,-2.60227e-01,-1.26471e-02,-2.90769e-01,2.42328e-01,
1.29595e-01,-6.31775e-02,-7.69068e-03,-6.38983e-02,1.48105e-01,6.36196e-02,3.07449e-01,-2.90424e-01,-1.14026e-01,2.15938e-01,3.60818e-02,-2.63432e-01,-8.46214e-02,2.03197e-01,-2.68070e-01,-3.32915e-01,2.19457e-02,2.83779e-01,-1.51578e-01,2.12206e-02,1.10544e-01,2.08373e-01,-3.27692e-01,-3.22903e-01,-1.06812e-01,
1.97202e-03,-8.21140e-03,-2.63352e-01,-9.34082e-03,-1.80779e-01,9.41043e-02,-2.76078e-01,-3.12948e-01,-2.51535e-01,-3.26176e-01,1.89097e-01,2.41220e-01,-1.29226e-01,1.09087e-01,2.17942e-01,-2.49727e-01,1.90878e-01,-3.44164e-01,2.08118e-01,-1.57721e-01,-1.13155e-01,-8.65668e-02,1.15060e-02,1.79418e-01,6.87093e-02,
1.82901e-01,-2.35093e-01,-1.87536e-01,2.38802e-01,1.76023e-01,-5.05829e-02,7.72204e-02,5.78661e-02,-2.55804e-02,3.88768e-01,-1.74037e-01,1.00087e-01,-6.72486e-04,-2.62345e-01,-2.72446e-01,-2.63221e-02,4.30754e-02,-2.41963e-01,-1.29613e-01,1.54454e-01,-3.42741e-01,-2.07174e-01,-2.18155e-01,-1.67384e-01,-4.68254e-02,
-2.26403e-01,3.06591e-01,-3.41384e-01,-1.23920e-02,-3.66246e-02,-5.50957e-02,5.83431e-02,1.46230e-01,-8.32337e-02,-2.92937e-01,2.40703e-01,2.22803e-01,-2.55921e-02,8.07343e-02,1.96698e-01,1.91594e-01,3.59263e-02,-4.96015e-02,-1.43011e-01,-2.24639e-01,-2.14017e-01,-3.46429e-02,1.89826e-01,2.09993e-01,-2.07171e-01,
2.50062e-02,-1.99116e-01,1.66697e-01,1.79305e-01,1.88857e-01,-2.87941e-01,1.04299e-01,2.89219e-02,-4.88078e-02,1.14373e-01,6.23571e-02,-1.24712e-01,1.72523e-01,2.65366e-01,-1.11989e-01,1.36753e-01,-2.36222e-01,-1.54789e-01,-2.64975e-01,-8.41844e-02,2.37049e-01,-1.97138e-01,6.08473e-02,-3.84775e-01,-4.73558e-02,
-6.05195e-02,-2.67847e-01,-3.84571e-01,5.44870e-02,-1.18348e-01,1.42479e-01,-1.71274e-01,2.01371e-01,4.65333e-02,2.75232e-01,-7.48946e-02,-8.47274e-02,1.25426e-01,1.37506e-01,1.91902e-01,-2.08338e-01,-5.91066e-02,-2.56921e-01,-3.23642e-01,-3.35934e-01,4.00205e-02,2.27773e-01,1.22206e-04,-3.22267e-01,2.70112e-01,
-1.81622e-01,-3.83497e-01,-1.25463e-01,-2.26229e-01,3.52342e-01,7.58636e-02,1.19413e-01,-8.88786e-02,2.12242e-02,1.89924e-01,-4.50920e-02,7.01038e-02,2.52450e-01,2.70512e-01,8.50450e-02,-1.81673e-01,-2.39592e-01,1.85604e-01,-2.57190e-01,1.52766e-01,2.64054e-01,-3.15031e-01,6.08485e-02,1.56662e-01,2.12385e-02,
-1.35971e-02,-8.44867e-02,-2.82041e-01,-8.27935e-02,2.80373e-01,-2.97511e-01,-2.05153e-01,-1.65580e-01,-1.66215e-01,3.64090e-01,1.94079e-02,1.54435e-01,-4.68196e-01,4.10746e-01,-3.16349e-01,8.84077e-02,1.59769e-01,-4.23023e-02,-1.49217e-03,-1.29248e-01,1.76753e-01,-3.32138e-01,2.90352e-01,-1.11594e-01,3.01514e-01,
1.04165e-01,2.11050e-01,-1.37239e-02,2.08152e-01,1.12640e-01,2.76757e-01,1.33898e-01,1.51804e-01,6.35981e-02,1.16948e-02,-1.30741e-01,-3.20786e-02,-1.43805e-02,-3.00682e-01,1.60717e-01,3.39512e-01,1.64946e-01,-2.16540e-01,1.45876e-01,-6.22030e-02,-1.12867e-01,-2.44991e-01,-9.32508e-02,-8.77607e-02,-3.49724e-01,
-6.88952e-02,-1.25339e-01,2.24994e-01,-1.10083e-01,-1.18420e-01,-3.19258e-01,3.36931e-01,-2.84096e-01,-2.71927e-01,-3.07678e-01,-1.80493e-01,-2.32555e-01,8.67525e-02,-7.47553e-02,6.92243e-02,2.16995e-01,-2.82570e-01,-1.73930e-02,-3.26693e-01,-3.29892e-01,-1.47348e-01,-2.62443e-02,-2.20502e-01,1.17096e-01,2.18748e-02,
-2.98718e-01,3.38186e-01,-2.80311e-01,1.21009e-02,-1.48991e-01,1.48579e-01,-4.07130e-02,3.22457e-01,-1.50941e-01,-3.34857e-01,3.24512e-01,-1.43398e-01,6.86236e-02,1.82149e-01,-3.37350e-01,1.27438e-01,2.54615e-01,2.16852e-01,1.08362e-01,-1.75335e-01,1.61268e-01,1.05668e-01,2.25006e-01,2.14513e-01,-8.82235e-02,
-2.62687e-01,-1.60489e-01,2.01616e-01,3.38420e-01,1.86134e-02,1.55657e-02,-4.32594e-02,2.04944e-01,3.02106e-01,5.91824e-03,-1.03486e-01,-3.10634e-02,1.05995e-01,2.74302e-01,1.53902e-01,-3.17636e-02,2.40714e-01,2.40124e-01,2.84695e-02,1.64537e-01,1.45715e-01,-3.12470e-01,-2.78984e-01,-1.05991e-01,3.09742e-03,
3.38368e-01,8.08106e-03,1.53388e-01,-6.38037e-02,2.65027e-01,-1.53093e-01,-8.57980e-02,-1.20026e-01,4.87734e-03,1.43749e-01,5.73339e-02,1.11008e-01,-2.15311e-01,2.13268e-02,2.58834e-01,-3.58910e-01,-2.68635e-01,3.29108e-01,-1.18169e-01,-2.57624e-01,2.35800e-01,-1.15542e-01,-1.89459e-02,7.69342e-02,-4.60971e-02,
-3.03214e-01,1.01125e-02,-2.10676e-01,-1.12253e-01,-2.87569e-01,8.83497e-02,7.96615e-02,2.22090e-01,-2.97875e-01,2.93373e-01,-1.34364e-01,2.97722e-03,-1.67187e-01,-1.83367e-02,-4.24306e-02,1.50144e-01,-2.96745e-01,3.01657e-01,2.63429e-02,1.12741e-01,3.29942e-01,-6.36175e-02,-2.97339e-01,2.88329e-01,1.10171e-02,
-1.58433e-02,-3.32930e-02,1.93676e-01,-1.45195e-01,3.53801e-01,2.20832e-05,-8.44680e-02,7.56249e-02,3.38859e-01,-2.79731e-01,2.53424e-01,-2.66433e-01,3.16351e-02,3.14758e-01,2.18319e-01,1.98139e-01,3.30099e-01,-8.67885e-02,-2.46044e-01,-2.08534e-01,-3.34805e-01,2.06942e-01,3.76620e-02,9.13339e-02,1.26530e-01,
-3.45816e-01,2.06276e-01,-1.14401e-03,-3.42177e-01,2.55864e-01,-2.40776e-01,-4.17336e-01,-4.45298e-01,2.09241e-01,2.40514e-01,3.05249e-01,1.78394e-01,-3.04296e-01,-4.35853e-02,-7.45876e-02,1.00162e-01,-1.71667e-02,2.71723e-01,9.00608e-02,5.08725e-02,-2.82116e-02,1.44067e-01,2.82477e-01,-1.30250e-01,-1.14623e-01,
-3.18231e-01,3.33993e-01,1.61227e-01,9.18586e-02,5.81007e-02,-3.01136e-01,-1.87110e-02,-4.72694e-02,1.85969e-01,7.01868e-02,3.27931e-01,6.40522e-02,1.33893e-01,-5.91946e-02,1.37546e-01,3.19895e-01,-2.95045e-02,-5.38440e-03,1.38991e-01,-1.11396e-01,1.72567e-01,3.30298e-01,8.64916e-02,2.28161e-01,-9.79713e-02,
1.97089e-01,-1.39750e-01,-2.14740e-01,1.56134e-01,3.78152e-01,-3.00577e-01,-2.55045e-02,-8.62182e-02,-7.20986e-02,-4.12654e-01,7.74140e-03,-2.22812e-01,-7.12483e-03,2.41104e-01,1.44121e-01,4.97854e-02,2.74750e-01,1.85651e-01,-9.77950e-02,3.40866e-01,2.25518e-01,1.08169e-01,1.32208e-01,-1.11934e-01,2.33185e-01,
-3.44320e-02,4.05283e-02,-1.90836e-01,1.77702e-01,2.88377e-01,3.39440e-01,3.25661e-01,3.06347e-01,-6.61088e-03,2.11797e-01,-2.02823e-01,-5.70943e-02,-3.76665e-01,-3.20040e-01,-9.46380e-02,2.74689e-01,-1.11641e-01,-1.11457e-01,-1.71062e-01,-2.43432e-01,-2.56388e-01,1.84977e-01,-2.74704e-01,-1.22693e-01,-3.44219e-02,
-7.60716e-03,5.32756e-02,8.27814e-02,2.70693e-01,3.10541e-01,2.02157e-01,3.88836e-02,3.23186e-01,-1.58757e-01,-4.24333e-02,-8.87045e-02,-8.05956e-02,-2.96054e-01,1.25843e-02,-1.23523e-01,-2.72420e-01,2.39145e-01,1.98909e-01,-2.76447e-01,-1.40091e-01,2.05501e-01,4.39695e-02,-2.94605e-01,-2.80740e-01,-1.34800e-01,
-8.52318e-02,8.42893e-02,1.47357e-01,2.36059e-01,-4.63591e-02,-2.10024e-01,1.76714e-01,2.13291e-01,-9.88283e-02,-2.85592e-01,3.23681e-01,2.12485e-01,1.12368e-01,1.38405e-01,-1.42081e-01,-4.18383e-02,5.95606e-02,4.98022e-02,-2.31422e-01,-2.48494e-01,-1.00107e-01,1.59448e-01,-3.08084e-01,1.88847e-01,-1.73446e-01,
-1.18526e-01,
-8.92639e-02,
2.68391e-01,
-2.43492e-01,
-1.14995e-01,
-2.42147e-01,
3.38095e-01,
9.55095e-02,
1.58512e-01,
-9.67518e-02,
1.98727e-01,
3.03127e-02,
2.93325e-01,
-3.37763e-02,
-2.83577e-01,
1.39800e-01,
2.67857e-01,
-2.20735e-01,
-4.51661e-02,
3.36936e-02,
2.68496e-01,
4.01853e-01,
-2.49328e-01,
-2.62746e-01,
-9.35805e-02,
-8.49586e-01,-6.33664e-02,-8.53057e-02,-3.27432e-02,-2.56268e-01,-7.87219e-02,3.07477e-01,-8.93158e-02,-1.05761e-01,-3.07639e-01,5.63997e-02,-7.09717e-02,2.14764e-02,-3.38280e-01,1.61439e-01,-2.71536e-01,-2.49061e-01,-2.11389e-01,3.83098e-01,3.68436e-02,4.75757e-01,3.64055e-01,-5.42045e-01,-2.03689e-02,-9.36094e-02,
3.41629e-01,-2.55079e-01,-1.83172e-01,-1.48726e-01,-4.29369e-01,-3.66582e-01,-2.26904e-02,-1.71540e-01,-2.78671e-01,2.51956e-01,3.33560e-01,5.38640e-02,-3.53883e-01,-1.75988e-01,9.10064e-02,1.28743e-01,-3.47899e-01,-4.09011e-01,-3.31983e-01,1.48076e-01,-2.24071e-01,-3.94944e-02,-6.53692e-02,6.60378e-02,-4.40834e-01,
4.57159e-01,1.96507e-01,-2.08956e-01,-4.62117e-02,6.26976e-03,1.57925e-02,2.26789e-01,1.90700e-01,2.39603e-01,1.31121e-01,-1.11584e-01,8.94763e-02,1.45941e-01,-2.06290e-01,3.43909e-02,-1.50159e-01,3.16494e-01,1.28630e-01,1.09489e-01,-3.98274e-01,-3.84637e-01,-1.29428e-01,3.45965e-01,1.27213e-02,2.34409e-01,
5.41021e-01,2.39349e-01,-3.50491e-01,-4.13200e-02,2.62551e-01,1.37016e-01,-2.45940e-01,-1.17819e-01,7.75541e-02,3.91870e-01,-1.00326e-01,1.39757e-01,-4.47790e-01,1.49826e-01,1.14747e-01,-1.68320e-01,-4.57208e-01,-2.32950e-01,-3.04979e-01,1.26551e-02,7.10206e-02,-5.26504e-02,3.95048e-01,4.12688e-01,1.50607e-01,
3.66461e-01,2.45036e-01,1.17719e-01,4.06651e-01,-4.27784e-01,1.25942e-01,2.25004e-01,-1.99806e-01,-2.28406e-01,1.93225e-01,-4.31310e-01,1.30779e-01,6.63955e-02,-1.86859e-01,7.73790e-03,-4.47348e-01,8.81994e-02,2.41503e-03,1.66310e-01,-1.32934e-01,-2.17163e-01,-3.37814e-01,5.22113e-01,-3.27876e-01,-1.81222e-01,
-6.89592e-01,
4.87385e-01,
3.64271e-01,
6.32463e-01,
5.25399e-01,
