// Neural Network File Format by Kyle Julian, Stanford 2016
6,3,5,25,
3,25,25,25,25,25,5,
0,
-56000.000000,-56000.000000,-3.141593
56000.000000,56000.000000,3.141593
-278.628049,0.000000,0.000000,-0.242819
112000.000000,112000.000000,6.283185,17.479225
-4.42706e-01,-4.57548e-01,8.04942e-01,
-3.06984e-01,-2.37836e-01,-6.45712e-02,
-1.32887e-01,-5.11352e-01,3.26890e-01,
-2.63874e-01,9.28171e-02,3.43037e-03,
-1.57664e-01,-2.87482e-03,-2.77985e-01,
-1.30401e+00,-1.86258e+00,1.02402e-01,
6.65669e-02,-2.86072e-01,-2.20181e-01,
6.39437e-02,3.07645e-01,1.21409e-01,
4.68505e-01,-1.42811e+00,-2.54477e-01,
-1.80877e-01,-6.92941e-01,-4.93392e-01,
-2.69557e+00,-9.66094e-01,-5.44511e-01,
1.94710e-01,3.66609e+00,1.05022e+00,
-1.72995e-01,2.10405e-01,4.10231e-01,
3.55707e-01,8.27084e-01,8.20622e-02,
3.31591e-01,-1.30494e-01,-2.97710e-02,
1.26858e+00,-2.17953e-01,1.63349e-01,
-1.84229e+00,2.72227e+00,-1.09344e-01,
7.89380e-01,-4.90676e-01,4.69688e-01,
-1.96470e+00,1.06225e+00,1.12344e+00,
1.03766e+00,4.43619e-01,2.45084e-01,
1.23093e-01,2.02033e-01,1.44178e-01,
-3.50589e-01,1.57596e-01,-1.28419e-02,
3.09708e-02,-2.05569e+00,-4.25459e-01,
1.08493e-01,2.30282e-01,1.04327e-01,
2.29778e-01,-6.16761e-01,3.49975e-01,
-2.04531e-02,
-3.41371e-01,
2.09236e-01,
1.32312e-01,
-3.43646e-01,
2.24021e-01,
-3.41917e-01,
-3.00294e-01,
-6.23033e-03,
1.67307e-01,
-2.15317e-03,
1.29047e-02,
-3.41855e-01,
3.13058e-01,
-2.92941e-01,
7.88282e-02,
8.95775e-02,
-2.27081e-01,
7.43599e-02,
4.33832e-02,
-2.65291e-01,
1.80969e-01,
3.23030e-02,
-3.27269e-01,
1.71538e-01,
-2.80804e-01,6.08882e-03,2.85932e-02,2.50155e-02,1.67715e-01,-8.92254e-02,3.04955e-01,-2.97991e-02,5.67084e-01,-5.51024e-02,-4.69059e-01,2.63735e-01,1.08502e-01,4.03761e-01,2.04681e-01,-2.40902e-02,2.69014e-01,-3.19640e-01,1.11044e-02,2.87437e-01,-1.14045e-01,1.80300e-03,-2.52576e-01,1.98613e-01,6.64257e-02,
-5.79592e-01,2.43201e-01,3.61995e-01,3.27215e-01,3.34974e-01,-4.47927e-02,1.50183e-01,-7.00518e-03,7.38910e-01,-3.92896e-01,2.30870e-01,3.76106e-01,1.96501e-01,1.41765e-01,3.38221e-01,-9.80735e-02,-2.06499e-01,-6.61206e-01,3.56998e-02,1.41905e-01,3.19400e-01,1.59087e-01,-4.04091e-02,-3.09319e-01,3.14005e-01,
3.09035e-01,-1.19174e-01,-2.19969e-01,-1.09467e-03,2.78257e-01,-2.69915e-01,-2.14841e-01,3.28272e-01,-2.78510e-01,1.21974e-01,-2.49447e-01,-4.67861e-03,-6.01771e-03,-2.17302e-01,1.94835e-01,2.31979e-01,-2.63688e-01,8.93284e-02,4.88138e-02,-1.60440e-01,4.94728e-02,-2.65364e-01,-8.19869e-02,3.70094e-02,1.79775e-01,
1.93411e-01,2.31985e-01,7.97280e-02,1.87651e-01,3.35284e-01,-2.43886e-01,3.26392e-01,2.02541e-01,-3.04108e-01,-9.64645e-02,3.82615e-02,-2.79643e-01,1.96256e-01,2.20751e-01,2.49418e-02,-6.64200e-02,-2.14459e-01,-1.69539e-01,3.38336e-02,9.82130e-02,-7.12991e-04,1.30726e-01,-1.09575e-01,2.23422e-01,-2.64714e-01,
-4.29694e-01,2.36821e-01,6.09555e-02,2.45959e-01,-1.90501e-01,1.11893e-01,-3.55548e-02,3.01253e-01,7.96618e-01,-9.76337e-02,1.41811e-02,6.93249e-01,-1.68280e-01,3.30665e-01,-2.13335e-01,5.61109e-02,1.82720e-01,1.73452e-02,3.22818e-01,2.43185e-01,1.77819e-01,2.98084e-01,-5.78190e-01,-3.04386e-01,-2.26233e-01,
-1.40548e-01,-2.84341e-01,1.73129e-01,-1.56956e-01,-2.00355e-01,-2.72594e-01,-3.18440e-01,-2.94080e-03,-4.80082e-02,-8.10895e-02,3.25171e-01,5.08277e-01,4.06056e-01,-1.19174e-01,-2.07019e-01,6.10842e-02,-2.44187e-01,-1.72383e-01,-3.85294e-01,2.93210e-01,2.65955e-02,-3.34720e-01,2.10881e-01,3.59376e-02,4.74486e-02,
-3.80043e-01,-2.56431e-01,-2.63428e-01,1.41090e-02,-9.26297e-02,-2.74002e-01,-3.38126e-01,1.58430e-01,2.92631e-01,1.00217e-01,-3.26898e-01,4.81160e-01,1.87894e-01,-4.29192e-02,-8.78336e-02,-2.77780e-01,-3.07765e-02,-4.27575e-01,2.83304e-01,8.07821e-02,-2.87180e-01,-2.68128e-02,-3.07122e-01,-2.51140e-01,-3.46073e-01,
-4.71449e-01,2.53978e-01,7.70387e-02,5.70245e-02,3.01133e-01,2.11746e-01,-4.27671e-02,-2.97209e-01,6.41260e-01,-1.78335e-01,4.29668e-01,8.26534e-01,6.52160e-02,-2.06954e-01,-5.66374e-02,8.06433e-02,-3.98200e-01,2.85328e-01,-3.06608e-02,5.00239e-01,1.00799e-01,-1.81134e-01,-2.38537e-01,-1.89703e-01,2.16784e-01,
9.52194e-02,9.74942e-02,-2.06942e-01,2.61215e-01,-3.32431e-01,-5.63913e-01,1.78699e-01,-2.29756e-01,-9.60399e-03,8.40572e-02,-7.49264e-01,4.08095e-01,2.82412e-02,1.59430e-01,-2.52386e-01,2.02321e-01,2.31427e-01,-7.74218e-01,2.27888e-01,5.29501e-01,-1.76182e-01,1.20142e-01,-7.64648e-01,-2.87988e-01,9.62983e-02,
-2.11717e-01,2.65901e-01,9.43574e-02,2.57976e-01,-1.32784e-01,-3.50973e-01,3.17050e-01,2.43094e-01,8.30812e-02,-1.94277e-01,4.71371e-02,4.80194e-01,1.08017e-01,3.05294e-01,-2.52725e-01,3.79712e-01,-4.18857e-01,-2.43502e-01,-5.53332e-01,4.76086e-01,8.48296e-02,1.29256e-03,2.62949e-01,4.76979e-02,-2.74868e-01,
1.93274e-01,-3.19443e-01,-5.37326e-02,-2.48079e-01,-3.42266e-01,-1.20854e-01,3.34593e-01,3.29562e-01,2.66926e-01,-2.38339e-01,1.24071e-01,2.25886e-02,1.39495e-01,-5.58969e-02,-4.27194e-02,4.10330e-03,1.97024e-01,5.60978e-01,4.86191e-01,2.48395e-01,2.38983e-01,5.48600e-03,-1.57848e-02,1.56225e-01,-1.10526e-01,
2.14279e-01,3.28617e-01,2.22490e-01,-1.22444e-01,-6.53147e-02,4.60344e-01,-3.38316e-01,-9.34471e-02,5.42648e-02,8.56561e-02,-5.14355e-01,-2.68944e-01,-2.72491e-02,-2.16759e-01,-3.06634e-01,-1.27048e-01,2.19415e-01,1.01446e+00,2.26845e-01,-3.55180e-01,1.26550e-01,-1.86680e-01,-8.58234e-01,1.60791e-01,-5.31808e-02,
-3.60990e-01,-4.59082e-02,-9.90312e-02,-2.14746e-01,-6.71893e-02,-3.75486e-02,-1.73048e-01,-1.99253e-01,4.15153e-01,5.23976e-02,-3.28722e-01,-1.12706e-01,-7.38661e-02,-3.34539e-01,2.17340e-01,-4.71966e-01,4.02031e-01,-4.47450e-01,5.65105e-01,-4.20723e-01,-5.33543e-02,3.08794e-02,-4.13592e-01,1.68185e-01,-2.09506e-01,
-2.61163e-01,8.71246e-02,-9.70024e-02,1.56406e-01,1.41324e-02,-9.50375e-02,2.41310e-01,3.11649e-01,3.77726e-01,-1.75842e-01,-7.21157e-02,3.16828e-01,5.90907e-02,-2.34810e-01,-3.93966e-03,-1.59264e-01,1.04211e-02,-6.16261e-01,8.55193e-02,4.70866e-02,-1.64057e-01,5.76367e-02,-2.08204e-01,4.31324e-02,1.66364e-01,
6.30185e-01,2.20636e-02,2.02520e-01,-2.01130e-01,1.11295e-01,-2.91928e-01,5.96597e-02,-2.21608e-01,-6.24521e-01,-1.24630e-02,4.64471e-02,2.69822e-01,4.66789e-02,5.88365e-02,-3.46738e-02,1.69424e-01,7.03271e-02,-4.11778e-02,1.35691e-01,3.32639e-01,-8.44420e-02,1.63853e-01,-2.34051e-01,-3.17675e-01,2.43084e-01,
6.35138e-02,-2.19022e-01,3.54936e-01,-1.70844e-01,2.57618e-02,-9.54046e-02,-2.71154e-01,9.10693e-03,-2.15599e-01,1.36885e-01,5.44506e-01,3.25746e-01,4.11729e-01,1.37100e-01,4.02594e-02,-1.73223e-01,8.41520e-02,-1.90218e-01,-6.10440e-01,8.49358e-02,-1.19706e-01,-2.04656e-01,-6.72169e-01,-1.32700e-01,-2.24541e-02,
-1.83858e-01,2.17400e-01,-2.10227e-01,-3.87601e-01,2.69333e-01,-2.39939e-01,5.18320e-02,3.45957e-01,5.19795e-03,4.95802e-02,1.32643e-03,1.81688e-01,-2.36371e-01,-9.29474e-02,2.36562e-01,1.34231e-01,1.62269e-01,7.61584e-03,7.15630e-02,2.25478e-01,-2.95168e-01,1.58077e-01,4.23964e-01,8.22610e-03,-2.34893e-01,
6.33947e-01,-2.13324e-01,8.34532e-02,9.41271e-04,-2.44256e-01,-1.42476e-01,1.65621e-01,2.17856e-01,-1.97795e-01,4.44726e-01,3.20496e-01,-1.02516e-01,1.36833e-01,-1.88392e-01,-1.65526e-01,-5.49492e-01,3.76598e-01,-1.13939e+00,-2.25293e-02,3.83724e-01,-1.80318e-01,-1.35386e-01,-8.62882e-02,-2.01706e-01,-1.96693e-01,
-2.24704e-01,1.15772e-01,-3.03111e-01,-1.27714e-01,2.24782e-01,-2.28023e-01,1.59804e-01,-2.69089e-01,5.73068e-01,-7.12454e-02,-3.49352e-01,3.51007e-01,2.99155e-01,1.05753e-01,-1.18287e-01,-1.42142e-01,2.75106e-02,-5.12867e-01,-2.30152e-01,1.66869e-01,-1.67241e-01,8.72529e-02,3.75734e-02,1.09718e-01,-2.65863e-01,
-3.02046e-01,-1.12210e-01,-8.32440e-02,-2.44376e-01,-1.58234e-01,-2.59020e-02,-3.33932e-01,-1.07616e-01,2.01954e-01,-3.20603e-01,1.42183e-01,-3.38801e-01,-2.59606e-01,2.23361e-02,1.14475e-01,1.60167e-01,1.34788e-01,-1.07964e-02,1.10602e-01,2.60733e-01,-3.27008e-01,-1.70559e-01,3.24019e-01,-1.71730e-01,-1.73826e-01,
6.16649e-01,-1.14207e-01,4.20408e-02,2.72720e-01,1.99550e-01,-1.36745e-01,1.08460e-02,7.02409e-02,-2.69762e-01,1.82048e-01,8.61640e-01,4.48868e-02,-3.76584e-01,-1.14684e-02,3.34671e-01,-2.92581e-02,-5.29527e-01,-2.89816e-01,1.48426e-02,2.70127e-01,-1.32903e-01,2.52116e-01,3.20004e-01,1.82924e-02,-2.52319e-02,
-6.05203e-02,2.00733e-01,-1.77301e-01,3.48034e-01,9.62533e-02,1.47974e-01,2.84747e-01,-4.33618e-02,1.92581e-01,-3.23603e-01,6.15804e-02,3.71015e-01,2.92335e-01,-4.88634e-02,3.19040e-02,-5.02967e-02,4.06588e-01,5.49257e-01,3.35302e-01,-2.42544e-01,7.73006e-02,-3.94823e-03,2.82856e-01,1.02584e-01,-3.92800e-01,
-1.19717e-01,-3.05785e-01,1.80888e-01,1.63412e-01,-1.25439e-01,-3.36366e-03,1.19057e-01,1.18490e-01,-2.52020e-01,-4.83464e-02,-6.00752e-01,-1.95424e-01,1.05415e-01,2.02542e-01,-7.08891e-02,2.21972e-01,-4.98844e-01,3.31709e-01,-3.41153e-01,-7.65981e-03,2.62570e-01,-1.62978e-02,-1.85542e-01,-3.17724e-01,-5.35796e-02,
-2.23148e-01,-2.44898e-01,2.47706e-01,1.01602e-01,1.98755e-01,2.27796e-01,-2.17407e-02,-8.14052e-02,-6.15301e-01,-1.14422e-02,-5.50382e-01,-1.63789e-01,2.42749e-01,2.03876e-01,5.31611e-02,-2.79759e-01,4.02846e-01,2.61786e-01,-3.64172e-02,2.54199e-01,3.83346e-02,5.92206e-02,5.88478e-01,-1.11540e-01,5.73244e-02,
3.82443e-02,1.36759e-01,-5.62438e-02,3.65519e-01,-3.45169e-01,2.09994e-01,3.43039e-02,1.00821e-01,2.22733e-01,1.72080e-01,-8.31501e-02,-2.11409e-01,4.13251e-01,1.30400e-01,2.86467e-01,-3.50291e-01,5.26258e-01,8.02584e-01,4.34058e-01,2.55865e-02,-1.66069e-01,2.74639e-01,-4.45692e-02,-2.18475e-01,-1.51612e-01,
7.59611e-02,
-5.51931e-02,
-1.20886e-01,
-2.02959e-01,
-8.08433e-02,
1.15822e-01,
1.73990e-01,
8.61228e-02,
2.36044e-01,
2.60625e-02,
2.65311e-01,
-4.53661e-02,
1.77463e-01,
1.21790e-01,
-1.97564e-01,
1.09450e-02,
2.22199e-01,
2.22480e-02,
3.03283e-01,
-3.43193e-01,
-1.00337e-01,
-6.29299e-02,
9.56805e-02,
-8.05065e-02,
-2.61858e-01,
2.91392e-01,-6.91444e-04,4.94077e-02,3.10208e-01,-3.31928e-01,6.94281e-03,1.96368e-02,-1.06055e-01,-3.32866e-01,-2.51818e-01,-2.93778e-02,-9.65542e-02,3.26707e-01,1.54974e-01,2.12139e-01,-1.95331e-01,-1.80047e-01,-5.36293e-02,1.19012e-01,-6.90229e-02,-1.16908e-01,1.35775e-01,-2.62671e-01,1.77400e-01,-1.64407e-01,
-2.16662e-01,1.62759e-01,-2.58058e-01,1.86670e-01,-6.12321e-02,3.09764e-01,2.09542e-02,2.01654e-01,6.98612e-02,-4.95606e-01,-1.21844e-01,5.92233e-02,6.23772e-02,1.05166e-01,5.53059e-02,-1.30021e-01,2.27144e-01,-2.59540e-01,-9.77825e-02,-1.60675e-01,6.80531e-02,-1.22948e-01,3.51578e-01,3.85712e-01,1.39175e-01,
-4.65086e-03,-4.06636e-01,8.40405e-02,2.40167e-01,3.39698e-01,2.61807e-01,3.96631e-01,2.08837e-01,-2.19910e-01,-3.30331e-01,6.31799e-02,-6.73657e-01,-5.56338e-01,-1.44990e-01,1.96525e-01,6.83559e-02,2.22461e-01,3.28642e-01,5.63727e-02,-2.69164e-01,-1.35944e-01,-4.38032e-01,-2.67955e-02,1.08018e-01,1.30640e-01,
5.61058e-02,3.81897e-01,1.58022e-01,-2.87460e-01,1.97293e-01,-1.21733e-01,-3.57371e-01,3.68470e-01,-2.76670e-01,6.95739e-01,-4.01184e-03,7.73159e-01,9.59637e-01,2.79767e-01,-2.29595e-01,3.00046e-01,1.75765e-01,2.56057e-01,7.98524e-02,3.97947e-02,-1.24270e-01,-1.41535e-01,-1.61090e-01,-7.02138e-03,1.80553e-01,
-3.30560e-01,1.53916e-01,-1.79366e-01,3.09742e-01,-1.52704e-02,7.74434e-02,2.97048e-01,-3.24361e-02,-2.83818e-01,9.57482e-02,-1.75528e-01,2.06699e-01,-2.80949e-01,2.33926e-01,-2.33527e-01,-3.84884e-02,1.99083e-01,-3.63811e-01,-2.21471e-01,5.77228e-02,2.18422e-01,-1.17890e-01,-1.08063e-01,-6.99397e-02,4.14028e-02,
1.63586e-01,-3.21886e-01,-1.81421e-01,-2.07714e-01,-2.69530e-01,-4.41381e-01,1.37348e-01,2.53496e-01,-1.53239e-01,2.74590e-01,1.65379e-01,8.58120e-02,3.24773e-01,1.93188e-01,-3.09370e-01,1.67272e-01,3.20627e-02,1.71553e-01,3.53208e-01,1.00329e-02,6.56810e-03,-6.63288e-02,-1.35995e-01,-3.96700e-01,1.38623e-01,
-4.27951e-01,3.00856e-01,-1.76577e-01,2.15888e-01,-1.31333e-01,-4.99724e-01,-5.75124e-01,3.92022e-03,-5.56995e-02,6.42269e-01,2.26975e-02,5.98198e-01,-2.76895e-01,-2.64884e-01,9.53453e-02,3.11938e-01,1.62084e-01,-7.25785e-02,-1.83062e-01,2.53206e-02,-3.14200e-01,-2.99432e-01,-2.42892e-01,-2.76125e-01,5.28814e-01,
1.11722e-02,-4.50787e-01,3.17227e-02,3.38555e-02,-6.15641e-01,9.55884e-01,3.04194e-01,-2.29151e-01,8.22453e-02,-6.05300e-01,2.64274e-01,-5.37716e-01,-3.03482e-01,-2.77024e-01,5.87411e-01,-8.30601e-01,-1.90652e-01,-2.07352e-01,-3.35223e-02,-1.51154e-02,-4.88552e-02,1.38126e-01,-2.70960e-02,3.74582e-01,9.25073e-02,
2.03193e-01,1.81144e-01,-1.06333e-01,-2.64579e-02,-2.14333e-01,-2.77883e-01,-5.87755e-02,-7.66479e-02,1.56756e-01,1.55639e-01,1.28800e-01,-2.45932e-01,-1.59291e-01,-2.53215e-01,-9.89274e-02,-5.59941e-03,-2.01697e-01,-3.43358e-02,-1.05859e-01,2.36194e-01,-1.01272e-02,-2.44496e-01,4.00036e-02,-2.63870e-01,-1.23265e-01,
-1.75336e-01,5.07639e-01,2.15624e-01,1.56893e-01,8.01897e-02,-3.67465e-01,8.13502e-02,2.78658e-01,-1.10953e-01,7.41424e-02,2.08816e-01,-1.34382e-01,3.37317e-01,-1.64560e-03,-2.28311e-01,6.13440e-01,-8.02014e-02,-6.78734e-01,-3.14430e-01,1.51913e-01,-4.85417e-01,-1.83482e-01,1.53856e-01,9.48535e-02,5.29997e-01,
-2.32807e-02,-6.27146e-02,3.43087e-01,8.10482e-02,-3.17114e-01,-5.56520e-02,5.09573e-02,-2.65332e-02,-1.90658e-01,1.90386e-01,-3.22115e-01,-1.55246e-01,3.23077e-02,-3.43007e-01,3.33545e-01,-1.65956e-01,-3.15936e-01,-8.51796e-02,-3.34325e-01,-2.10865e-02,-6.45582e-02,-2.43571e-01,1.06832e-01,-2.96201e-01,3.26179e-01,
-1.57567e-03,1.50283e-01,2.81589e-01,2.13610e-01,-2.95577e-01,4.77783e-01,-3.53324e-01,5.43774e-03,1.54273e-01,-2.17248e-01,-1.36148e-01,-6.69078e-01,-3.74524e-01,8.44162e-02,-1.66121e-01,-7.88151e-02,-2.74996e-01,-2.48653e-01,9.77596e-02,-9.56654e-02,-3.11585e-02,5.78039e-01,2.64096e-01,-1.02904e-01,3.35437e-01,
3.39471e-01,2.75501e-02,-2.99971e-01,3.08590e-01,2.69080e-01,7.46732e-02,4.93871e-02,2.31060e-01,3.44463e-01,-8.04772e-01,3.62272e-01,-9.06477e-01,-2.73506e-01,-9.89733e-02,-4.71070e-01,3.52918e-01,3.46847e-02,-3.68221e-01,-6.72196e-02,7.50318e-02,-3.12795e-01,-3.35510e-01,-2.68981e-01,-1.78665e-01,-8.59301e-02,
-2.06695e-02,2.56066e-01,-2.52874e-01,-3.26452e-01,3.67700e-01,-4.90071e-02,-3.27489e-01,2.69425e-01,-1.44648e-02,3.50798e-01,-5.65971e-02,5.49718e-01,6.48797e-01,4.25578e-01,-2.90701e-01,3.98175e-01,-2.99112e-01,2.00585e-01,3.09644e-01,5.04583e-02,-1.71819e-01,2.02559e-01,2.16511e-01,1.27183e-01,-2.30997e-02,
2.29440e-01,3.84756e-01,-1.75107e-01,-4.42825e-02,8.53796e-02,-1.64735e-01,-4.73633e-01,-1.10560e-01,9.88297e-02,-1.36387e-01,-3.13549e-01,-8.41196e-02,4.42918e-01,4.38840e-02,-2.23632e-01,4.09764e-01,-7.32535e-02,-9.98394e-02,-2.68600e-01,2.28796e-01,1.75838e-01,4.66613e-01,1.20152e-01,2.22598e-01,-1.11707e-01,
3.01128e-01,-3.00897e-01,-2.22658e-01,2.64510e-01,2.22721e-01,-2.32901e-01,6.72645e-02,-3.31954e-01,1.18194e-02,3.03343e-01,-2.92312e-01,2.86860e-01,1.58221e-01,-1.71028e-01,-1.27164e-01,2.21249e-01,1.36741e-01,-1.19838e-01,-2.84797e-01,-1.83856e-01,6.13222e-02,4.65556e-02,-2.14133e-01,-3.27992e-01,-9.59390e-02,
-1.80896e-01,4.27678e-01,-3.84025e-02,2.56628e-01,-5.41487e-04,-2.14970e-01,-7.84509e-01,4.43685e-01,-2.38422e-01,2.20098e-01,-1.81214e-01,5.39031e-02,6.60175e-01,5.10829e-01,-1.13574e-01,8.78748e-02,1.44755e-01,2.26329e-01,-1.38805e-01,1.58441e-01,-2.23796e-02,1.53932e-01,-1.24661e-01,1.08680e-01,-1.88303e-01,
1.74889e-01,-2.00236e-01,-1.28339e-01,-6.39891e-02,6.17020e-02,2.81135e-02,2.26134e-01,-2.33746e-01,-8.53443e-02,7.59953e-02,-2.25027e-01,-3.12755e-01,-2.25035e-02,4.53404e-02,1.63383e-02,2.77196e-01,3.53841e-02,5.39778e-02,-6.21979e-02,-2.04869e-01,2.96736e-01,-3.29609e-01,-2.40553e-01,-2.42801e-01,-2.05760e-01,
1.28606e-01,-1.89269e-02,-1.40287e-01,-5.60166e-02,-2.23469e-01,2.82398e-01,1.52113e-01,-2.73087e-01,-2.43545e-01,-3.77675e-02,-1.26959e-01,1.71560e-01,3.10342e-01,3.25254e-01,-9.81879e-02,1.36381e-01,2.38714e-01,-1.01899e-01,-1.91424e-01,-3.24248e-01,1.40558e-01,-2.47501e-01,-3.01356e-01,-3.13866e-01,3.11971e-01,
-2.27462e-01,4.17326e-01,-1.72959e-01,3.17003e-01,2.05830e-01,-1.76760e-01,-2.67678e-01,1.21885e-01,2.01500e-01,-2.89769e-02,2.14978e-02,5.65383e-01,3.65939e-01,2.21216e-01,-4.60841e-01,-1.46829e-01,1.38179e-01,3.86617e-01,2.91995e-01,-9.88654e-02,1.94928e-01,-1.76216e-01,-2.33048e-01,-1.63190e-01,-1.12791e-01,
-2.86465e-01,-3.32984e-01,1.09776e-01,-1.13367e-01,-1.76792e-01,2.05139e-01,1.44948e-01,-7.56234e-03,-2.53637e-02,2.80820e-01,-3.41251e-01,-3.69519e-02,3.15584e-01,-2.89506e-01,1.61991e-02,-6.08746e-02,2.16798e-01,-2.48771e-01,2.59186e-01,-3.40266e-01,-2.47296e-01,2.03351e-01,-6.95269e-02,8.24591e-02,9.76931e-02,
4.56587e-01,2.11036e-01,-1.76637e-01,1.04173e-01,4.14613e-01,3.75555e-01,-2.63139e-01,2.77967e-01,3.97418e-01,-1.24464e+00,-7.62381e-02,-7.30992e-01,-1.73589e-01,-3.30686e-02,-4.53232e-01,-2.20214e-01,1.22096e-01,1.90195e-01,4.09426e-01,-2.30836e-01,5.17376e-02,-2.52974e-01,1.29739e-01,-5.26192e-02,-4.18043e-01,
1.70112e-01,-1.06308e-01,3.17388e-01,8.31186e-02,2.13878e-01,2.10897e-01,1.62566e-01,-4.53987e-01,7.79901e-03,3.64424e-02,-1.06327e-01,2.38559e-01,2.14316e-01,9.83006e-01,-7.38445e-02,2.14132e-01,-2.20519e-01,2.47614e-01,2.03889e-01,2.61904e-01,1.53549e-01,3.01054e-01,3.63397e-01,6.12627e-01,-3.00793e-01,
-6.62023e-02,-7.62295e-02,2.37931e-01,8.60196e-03,-2.89382e-01,9.78217e-02,2.87245e-01,4.86056e-01,-1.04429e-01,3.75449e-01,-3.24224e-01,3.33728e-01,6.94385e-01,7.92868e-02,-3.67200e-02,3.14888e-03,2.70666e-01,5.83579e-02,-1.38609e-01,-9.14290e-02,-3.58472e-01,-3.11766e-01,4.80755e-02,-3.75785e-02,1.40620e-01,
-2.05208e-01,1.07450e-01,-2.74550e-01,-1.21215e-02,2.07295e-01,-1.26426e+00,3.37269e-01,6.09781e-02,-2.81129e-01,4.21312e-01,1.75812e-01,2.96585e-01,2.53286e-02,4.75253e-02,-6.80366e-02,6.48847e-01,-4.25630e-01,-2.47584e-01,-1.23586e-01,-2.34776e-01,-1.69372e-01,2.72038e-01,-1.13739e+00,-4.01279e-02,-2.70012e-01,
-4.44296e-02,
2.03412e-01,
1.43154e-01,
-1.04267e-01,
-3.01776e-01,
1.69967e-01,
2.13222e-01,
9.31277e-02,
-2.87526e-01,
3.98606e-02,
-3.45202e-01,
2.08415e-01,
-2.40496e-01,
-6.46911e-02,
1.91133e-01,
-1.70738e-01,
1.83658e-01,
-3.45436e-01,
-1.39074e-01,
-4.15003e-02,
-2.20327e-01,
-3.04699e-01,
-2.39448e-01,
1.43668e-01,
1.49392e-01,
3.36527e-01,3.55393e-01,-1.77660e-01,-5.46140e-02,-2.46397e-01,3.69641e-02,3.25895e-01,6.32398e-01,-2.53360e-01,-3.08242e-01,-1.02798e-01,-1.61521e-01,-6.23362e-01,4.74379e-02,2.39552e-02,-1.85311e-01,3.84563e-01,-8.30568e-02,-3.21129e-01,2.90415e-01,2.74903e-01,4.36336e-01,6.98834e-02,1.02686e-01,1.62565e-01,
-2.61194e-03,-2.50158e-01,-1.42185e-01,-5.35031e-02,1.62244e-01,-1.53304e-01,-1.16124e-01,5.16694e-02,3.39996e-01,1.79960e-01,-2.21064e-02,-3.05149e-01,-1.83426e-01,-1.22719e-01,-1.87498e-01,-1.78143e-01,2.75924e-01,-2.55462e-01,-2.26959e-01,1.47307e-01,3.27037e-02,-2.18422e-01,-4.95543e-03,2.12808e-02,1.41909e-01,
2.45576e-01,4.67690e-02,-4.57362e-01,-2.85618e-02,-2.97378e-01,1.23634e-01,-2.04087e-01,-4.07886e-01,5.54048e-02,1.91043e-01,-1.99130e-01,1.67852e-01,-7.62827e-01,7.04955e-02,-1.57660e-01,3.62491e-02,3.86959e-01,-7.01049e-02,-9.80612e-02,-3.76709e-01,7.76049e-02,3.88561e-01,-3.04413e-01,6.67016e-02,3.69534e-01,
-3.18253e-01,-4.16287e-02,-6.65121e-03,5.39064e-02,-2.51112e-01,7.69927e-02,-3.73045e-01,-8.53814e-01,-2.74071e-02,2.23923e-01,1.92522e-01,2.38931e-01,-6.15636e-01,-8.68406e-02,-2.62933e-01,7.71120e-02,7.80571e-02,-1.37536e-01,1.83541e-01,-2.59890e-01,-2.95981e-02,3.70038e-01,8.85190e-02,-2.86280e-01,-1.94678e-01,
1.28439e-01,2.55086e-01,-1.64527e-02,1.49582e-02,-1.11266e-01,-1.52166e-01,1.71074e-01,-4.44820e-01,1.04855e-01,-2.61294e-01,3.04122e-01,1.49641e-02,-2.54512e-01,-6.17968e-02,2.42530e-02,-4.42333e-02,2.14478e-01,-2.76374e-01,1.65085e-02,-2.55252e-01,6.85424e-04,2.06570e-01,3.31304e-01,-2.78075e-01,-3.32756e-01,
-2.95539e-01,2.17398e-01,4.22630e-02,1.54295e-01,3.63028e-02,2.33720e-02,-5.46926e-01,5.06431e-01,-1.47211e-01,1.46648e-01,2.09109e-01,1.34481e-01,-7.63208e-02,4.68200e-02,-1.82631e-01,-7.29554e-02,-1.22205e-01,-3.11211e-01,2.72878e-02,-1.34585e-01,1.72155e-01,2.73477e-01,-7.55877e-02,5.18998e-02,-2.26934e-01,
2.06859e-01,-1.51777e-02,-3.66000e-02,-3.21239e-01,1.10123e-01,-4.22116e-01,2.06234e-01,-1.50053e-02,8.49705e-02,1.65961e-01,-2.91282e-01,-4.08283e-01,-5.89788e-02,-4.85437e-01,-5.98745e-02,3.32749e-01,-1.52794e-01,-2.30287e-01,-1.66829e-01,-4.35062e-01,-3.08189e-01,-3.87897e-01,1.54262e-01,1.50949e-01,-3.12075e-01,
-1.90353e-01,1.95398e-01,6.93193e-02,2.05793e-01,1.03132e-01,3.61638e-01,-3.81937e-01,3.96527e-01,-1.65821e-01,-2.88363e-01,-1.99791e-01,-2.25049e-02,7.31649e-02,1.72476e-01,2.62891e-02,-6.11332e-02,-2.43373e-01,1.65653e-01,-8.09658e-02,-3.29146e-02,-2.64623e-01,2.33203e-01,-5.02670e-02,2.40541e-01,3.99415e-01,
2.84527e-01,-3.10307e-01,1.03103e-01,-2.27747e-01,-1.15155e-01,2.78127e-01,-1.84544e-01,2.51339e-01,-3.35383e-01,-4.43157e-02,7.08420e-02,6.81866e-02,-6.09239e-01,3.01797e-01,1.69988e-01,2.45866e-01,2.33992e-01,1.01655e-01,-9.47185e-02,1.98429e-01,-2.57053e-02,5.59561e-01,-1.23493e-01,2.00087e-01,2.43798e-02,
-2.32487e-01,-4.62672e-02,3.46820e-03,2.81376e-01,3.48440e-02,1.38032e-01,-3.54101e-01,-5.16199e-01,1.58493e-01,1.83085e-01,2.42090e-01,-2.83571e-02,-6.17854e-01,-2.33409e-01,-2.35188e-01,-2.10181e-01,-3.74972e-01,2.99954e-01,1.07598e-01,-1.94882e-01,-1.24551e-02,6.97425e-01,-2.22236e-01,-2.69692e-01,2.80866e-01,
2.37197e-02,-2.35693e-01,-2.59659e-01,-8.87039e-03,-5.54675e-02,-2.02578e-01,-1.86116e-01,4.68035e-02,1.47292e-01,-3.37791e-01,3.98337e-02,-1.69789e-01,-1.29493e-01,-1.79189e-01,-1.82691e-01,1.80393e-01,-2.42347e-01,-2.45935e-01,-2.02182e-03,1.09969e-01,2.01174e-01,3.07311e-01,-2.52260e-01,3.39836e-01,-4.61605e-02,
-1.83983e-01,9.06655e-02,-2.92814e-01,4.27906e-01,-3.00391e-01,-2.95146e-01,-1.14712e-01,7.68109e-01,-2.75400e-01,-9.45626e-02,1.01826e-03,-2.63155e-01,-6.01190e-01,1.09789e-01,8.08704e-02,1.74060e-01,-1.62660e-01,1.96329e-02,2.90130e-01,1.49279e-01,-1.63390e-02,2.50560e-01,-2.98143e-01,-2.29313e-01,-3.82396e-01,
-2.39281e-01,2.22963e-01,7.95520e-03,-6.70458e-02,1.16741e-01,-1.04051e-01,2.53651e-01,-9.69383e-02,-1.07018e-01,-3.70608e-02,-7.40563e-02,8.74150e-02,-5.66107e-01,1.15338e-02,-2.93278e-01,-2.93375e-01,2.57375e-02,1.17040e-01,2.69814e-01,-1.97559e-01,3.33368e-01,1.47967e-01,3.47302e-01,9.65225e-03,2.34929e-01,
-3.08277e-01,-2.81383e-01,7.03583e-02,1.21745e-01,-3.43975e-01,-3.51578e-01,-3.99120e-01,-3.67411e-02,2.17489e-01,5.22434e-01,2.27933e-01,1.52618e-01,-2.39159e-01,-1.47495e-01,2.27936e-01,1.26929e-01,-1.42357e-01,1.60708e-01,-1.49451e-01,-4.01811e-01,-1.15915e-01,4.14474e-01,-4.59402e-02,-1.29239e-01,-5.31574e-01,
1.54629e-01,-2.24388e-02,3.66858e-02,-3.63048e-01,1.02619e-01,1.84647e-01,-2.49741e-01,-4.17690e-01,-1.38488e-01,-5.63886e-02,1.48782e-01,-2.37510e-01,-2.04830e-01,1.21260e-01,1.25551e-01,-2.74477e-01,2.25765e-01,5.53077e-02,-7.03762e-02,-1.86957e-02,-6.79286e-02,2.96184e-02,1.21690e-01,1.86408e-01,1.77725e-01,
8.12082e-02,-2.98122e-01,-2.22151e-02,-6.06123e-01,-3.42347e-01,1.18902e-01,3.29520e-01,3.51822e-01,-2.78938e-02,3.14015e-01,-1.70395e-01,-2.04002e-01,2.66409e-01,2.93844e-01,-3.07037e-01,-8.63460e-03,1.48989e-01,-1.74257e-01,1.40557e-01,-3.42814e-01,3.32101e-01,-4.11573e-01,-4.21990e-01,2.74944e-01,-1.81674e-01,
2.89888e-01,2.02465e-01,1.31773e-02,1.09566e-01,-3.40579e-01,-1.83827e-01,-4.22244e-01,-5.73321e-02,6.01343e-02,2.20019e-01,-2.73115e-01,1.55317e-02,8.96916e-02,-6.10044e-01,-3.84190e-01,2.24683e-01,-1.46356e-01,4.54861e-02,4.61075e-02,-2.85996e-01,-3.26766e-01,1.19156e-01,4.96635e-01,-9.63645e-02,4.59425e-02,
2.16274e-01,-1.33287e-02,9.33739e-02,-5.47313e-01,-5.97060e-02,1.76586e-01,4.24808e-02,-7.77252e-01,-5.19666e-02,1.51969e-01,4.93516e-02,-2.53401e-02,1.23006e-01,3.18332e-01,-2.19806e-01,2.23301e-02,1.13293e-01,2.65704e-01,-3.27473e-01,2.15348e-01,2.47476e-01,-3.08924e-01,9.86388e-02,2.56693e-01,2.05996e-01,
1.39939e-01,1.47632e-01,3.14268e-01,-1.31133e-01,-2.19792e-01,1.10732e-01,-1.03087e-01,5.53732e-01,-2.52259e-01,1.02804e-01,-2.94624e-01,-1.34583e-01,3.25581e-02,4.99495e-02,8.73681e-02,-1.59148e-01,-1.30946e-01,2.53338e-03,3.17580e-01,3.24853e-01,-1.01623e-01,-5.48691e-02,-2.30135e-01,-7.91109e-02,2.64254e-02,
-2.52752e-01,-7.10053e-02,-2.02254e-01,2.02687e-01,-3.02174e-01,-5.95431e-02,-3.80047e-02,-3.90033e-02,-1.19199e-01,-1.41670e-01,-1.87273e-01,2.53695e-02,2.96994e-01,-2.82900e-01,-2.63003e-01,-2.33239e-01,2.63596e-02,2.47465e-01,-1.77168e-02,1.29767e-01,-6.04149e-02,3.66583e-02,-2.31851e-01,7.97015e-02,1.47266e-01,
-2.57484e-01,-2.85374e-01,-2.86105e-01,-5.15039e-02,2.57687e-01,1.05831e-01,1.09327e-01,1.35216e-01,2.75106e-01,3.61242e-02,-1.53281e-01,-2.53180e-01,-2.39277e-01,-2.49211e-01,-2.20143e-01,5.27765e-02,-3.54400e-01,6.90532e-03,-1.03832e-01,-2.00780e-01,2.54517e-01,1.32773e-01,-1.24383e-01,-8.12934e-02,-2.71951e-02,
2.14931e-01,-1.62137e-01,8.39756e-02,-7.55538e-02,8.58772e-02,1.69039e-01,-1.53925e-01,7.39952e-02,9.60520e-02,1.57625e-01,6.54516e-02,2.09237e-01,4.77492e-01,-2.28784e-01,-4.92643e-03,1.38057e-02,1.52168e-01,-2.31575e-01,-1.09587e-01,4.87661e-02,2.98906e-01,1.16779e-01,3.83937e-02,2.37628e-01,4.25280e-01,
-1.72746e-01,-4.11466e-02,-3.62225e-01,2.00594e-01,-1.86667e-02,-2.80323e-01,2.18100e-01,1.46777e-01,-8.54383e-02,-2.90953e-01,-3.32712e-01,-2.33495e-01,1.89682e-01,2.39342e-01,6.10579e-02,-2.21957e-01,-2.83850e-01,-2.04072e-02,1.31289e-01,3.21541e-01,3.27878e-01,-3.62743e-01,-2.36349e-01,2.88845e-01,1.68045e-01,
-1.51021e-01,-2.91702e-01,2.37646e-02,-2.23413e-01,-2.11446e-01,-4.42875e-02,-3.30763e-01,-5.60710e-01,-1.89070e-01,3.15281e-01,-2.94448e-01,-2.86769e-01,1.63570e-01,2.50167e-01,5.23213e-02,-2.34348e-01,-1.30224e-01,6.79550e-02,1.84615e-01,2.43591e-01,-4.20974e-02,2.38062e-01,-2.88076e-01,-3.46230e-02,-2.65405e-01,
1.16103e-01,1.69633e-01,-3.28991e-01,3.10609e-01,1.11590e-01,2.62288e-01,7.39493e-02,3.63072e-01,3.00634e-01,-2.71515e-01,5.61055e-02,-2.59632e-01,-1.93384e-01,-3.05192e-01,-1.41586e-01,1.58732e-01,1.27910e-01,-2.63579e-01,-2.58357e-02,3.84668e-01,2.79305e-01,5.67993e-01,4.65244e-02,-3.59455e-02,-1.30910e-02,
1.93135e-01,
-6.04851e-02,
-5.30226e-02,
2.62256e-01,
2.39213e-01,
-1.12326e-01,
1.02401e-01,
-5.96191e-02,
1.02881e-01,
3.10672e-01,
7.08283e-02,
2.86112e-01,
1.31052e-01,
2.44631e-01,
5.38392e-02,
1.29816e-01,
2.16507e-01,
5.42524e-03,
-8.62771e-03,
-1.86571e-01,
1.02995e-01,
9.60558e-03,
1.30207e-01,
1.07671e-01,
-3.70721e-02,
-1.71063e-01,2.19813e-01,-6.61153e-02,1.84940e-02,-5.31481e-01,-1.15067e+00,2.11140e-01,1.17998e-01,-2.67207e-01,4.85817e-01,-2.56980e-01,-3.04054e-01,-2.77635e-02,5.94399e-02,-1.00085e-01,2.53150e-01,-2.18780e-02,1.08379e-01,3.75522e-02,-3.00771e-01,3.36892e-01,-4.05322e-01,-3.31260e-01,-3.27332e-02,3.42604e-01,
3.60957e-01,5.11814e-02,-2.48547e-02,4.15462e-01,-1.25681e-01,1.79459e-02,-2.60833e-01,-4.58527e-02,3.03400e-01,3.91088e-01,2.55515e-01,2.71705e-01,3.97352e-01,1.87608e-02,-1.02922e-01,2.10769e-01,-2.10778e-01,3.19408e-01,-2.46732e-01,-1.14942e-01,2.15726e-02,-1.32679e-01,4.27763e-02,-8.18012e-02,-6.42342e-02,
-2.61366e-01,2.17053e-01,1.10773e-02,3.24230e-01,-2.38923e-04,1.10016e-01,2.38528e-02,3.72110e-02,-2.03487e-01,-2.17110e-01,-3.39477e-01,2.27616e-01,-1.02877e-01,3.40303e-02,-1.21243e-01,-8.64741e-03,2.83244e-01,-3.09897e-01,-2.50720e-01,3.10868e-01,-9.61221e-02,-3.35545e-03,-1.84872e-01,1.34746e-01,1.51341e-01,
-2.43269e-01,-1.78529e-01,1.82345e-01,3.22322e-02,-1.66589e-02,2.88914e-01,1.33152e-01,-3.66903e-01,1.55196e-02,-1.73824e-01,-2.65660e-02,-2.32258e-01,-1.29381e-01,-1.53782e-01,-3.42240e-02,2.86774e-01,1.56560e-01,-9.38755e-02,-2.09135e-02,1.41703e-01,2.08319e-02,1.58435e-01,-4.75577e-02,1.95697e-01,2.28761e-01,
1.80365e-01,-1.43782e-02,-1.88978e-01,-2.43786e-01,6.44154e-03,1.43580e-01,1.42361e-01,-2.63655e-02,-1.44022e-01,-4.26222e-01,9.41626e-02,4.79322e-02,-1.46463e-01,-2.91469e-01,1.83858e-01,2.71518e-01,-4.72337e-01,4.85846e-01,2.63094e-01,-2.54682e-01,-2.36421e-02,1.44899e-01,1.44327e-01,6.68214e-01,-2.52171e-01,
2.73953e-01,1.76372e-01,-1.72387e-01,1.22856e-01,1.19035e-01,1.91418e-01,-2.61876e-01,-1.97202e-01,2.17353e-01,1.74896e-01,1.37584e-01,-2.34751e-02,9.06717e-02,1.90788e-01,2.74515e-01,1.42363e-01,-2.79695e-01,-5.74880e-03,2.09605e-01,1.33108e-01,-2.05657e-01,1.68665e-01,1.37789e-01,5.69235e-01,-3.60288e-01,
-2.27334e-01,1.88492e-01,-7.73523e-02,-3.30322e-01,3.13662e-01,1.18725e-01,-8.96121e-02,-5.64986e-02,2.51842e-01,-2.19249e-01,-2.09117e-01,-7.83863e-02,-1.14044e-01,-9.41029e-03,-1.02554e-01,4.80157e-01,2.65449e-01,-6.52227e-02,-2.89401e-01,2.34788e-01,-1.85016e-01,9.91977e-02,3.63463e-01,4.07453e-01,2.99039e-01,
2.86078e-01,-2.68163e-01,-1.54647e-01,-5.11936e-02,2.70249e-01,3.22743e-01,2.19235e-01,-3.29431e-02,3.69095e-01,4.05342e-01,1.44975e-01,1.34531e-01,3.86578e-02,2.74471e-03,6.23629e-02,-4.67488e-02,-5.74917e-02,2.79446e-01,-1.19729e-01,-2.41814e-01,1.75429e-01,8.53433e-02,1.52646e-02,1.68628e-01,-1.31887e-01,
-6.48801e-02,-2.44588e-01,-9.58806e-02,-4.09783e-02,-1.31276e-01,-1.68907e-02,-2.12231e-01,-2.98286e-01,-9.94336e-02,2.75169e-01,-3.21196e-01,-3.43918e-01,2.13406e-01,3.33098e-01,-9.89609e-02,5.25442e-02,1.08273e-01,3.10239e-01,-2.60967e-01,-3.11443e-01,1.84582e-01,-3.41131e-01,-3.12163e-01,1.17524e-01,2.45789e-01,
3.29312e-02,-3.30887e-01,2.74882e-01,-6.09532e-02,-2.16721e-01,-1.72234e-01,8.39092e-02,-7.61216e-02,-1.21392e-01,-1.67746e-01,5.13498e-02,1.28944e-01,-6.37935e-02,2.50103e-01,9.10049e-02,-2.53507e-01,-1.32784e-01,-1.44874e-01,-3.93624e-02,2.90916e-01,3.73474e-03,2.39728e-01,-2.62224e-01,2.60416e-01,1.70443e-01,
-7.84995e-02,-1.91428e-01,-8.68268e-01,1.28775e-01,-1.74170e-01,3.35844e-01,1.51706e-01,6.44448e-01,-2.23631e-01,2.88992e-01,-1.06478e-01,1.41760e-02,-9.58639e-02,1.18562e-01,5.26315e-01,6.14773e-01,4.55093e-01,2.99780e-02,1.33299e-01,3.34185e-01,-1.88465e-02,1.81202e-01,-7.06079e-02,3.71325e-01,-5.81636e-02,
-2.66165e-01,-1.85032e-01,1.15409e-01,-2.04775e-01,9.81900e-02,1.11934e-01,1.42358e-01,1.53123e-02,3.16090e-02,2.97280e-01,1.89462e-01,1.68684e-01,-5.42224e-03,4.58561e-01,-1.96324e-01,2.15347e-01,4.92952e-01,-3.42467e-01,-1.20098e-01,5.80385e-02,-2.96406e-01,2.29255e-01,1.63173e-01,-8.22154e-01,2.70038e-01,
-4.51308e-02,5.56139e-02,-1.83640e-01,1.15123e-01,1.52580e-01,-1.48737e-01,-1.20680e-02,1.47090e-01,-1.75817e-01,-7.98957e-02,-1.93605e-01,-1.87900e-01,1.06228e-01,-4.99330e-02,2.02610e-02,5.67872e-01,-2.55097e-01,4.08402e-01,-6.26726e-02,1.26631e-01,2.68031e-01,2.06068e-01,2.15272e-01,3.51691e-01,2.13115e-01,
2.22961e-01,2.78368e-01,-2.26030e-01,-3.47215e-01,-1.22374e-01,2.99102e-01,-2.38479e-01,1.07587e-01,2.06955e-01,2.93104e-01,1.91822e-01,2.03158e-01,8.83647e-02,1.28314e-01,-1.50591e-02,5.01624e-02,1.34560e-01,-9.84268e-02,1.06974e-02,-4.29440e-02,3.11441e-01,-1.94510e-01,-3.91739e-01,4.72229e-02,2.93481e-02,
-3.58320e-01,-2.68100e-01,1.94883e-01,-2.17772e-01,-2.97540e-01,-2.74959e-02,-2.11359e-01,4.62435e-02,-9.63636e-02,-4.48733e-02,1.45538e-01,2.40313e-01,2.23195e-01,1.49895e-01,1.43653e-01,-1.43666e-02,3.08520e-01,1.40726e-01,2.21800e-01,-3.15445e-01,-1.68527e-01,-3.35632e-01,1.07811e-01,-8.95490e-02,2.43504e-01,
2.65406e-01,2.67618e-01,1.02378e-01,3.30132e-02,2.96703e-01,-3.76334e-01,3.33439e-01,5.00481e-02,-4.00848e-01,-4.26501e-01,-4.64279e-02,-1.39447e-01,1.59393e-01,4.07008e-02,-2.24780e-01,3.55487e-01,-5.83057e-02,1.45331e-01,-3.53210e-02,1.00106e-01,2.60632e-01,1.19746e-01,4.85658e-01,4.14635e-01,9.22761e-02,
2.88063e-01,-7.22084e-02,-1.47194e-01,-1.32875e-01,-1.71578e-01,2.66447e-01,-1.74748e-03,1.64177e-01,1.05534e-01,1.07991e-01,1.92475e-01,1.49912e-01,1.26246e-01,1.81926e-01,3.19771e-01,3.53474e-01,7.43141e-02,8.15038e-02,3.36077e-01,-3.11851e-01,-1.61991e-01,1.06953e-01,2.67839e-01,-3.77185e-02,-9.66367e-02,
-2.15397e-01,-3.17485e-01,-9.43809e-02,-6.41509e-02,2.19666e-01,2.90809e-01,3.48864e-02,-3.99829e-02,3.01655e-01,2.95963e-01,-1.05805e-01,-7.45817e-02,1.73088e-01,7.89581e-02,3.43354e-01,4.19300e-02,3.81972e-01,-2.04935e-01,-3.11607e-02,1.06935e-02,-4.02386e-02,-1.80577e-01,1.92435e-03,-1.90003e-01,1.46639e-01,
-1.66817e-01,1.90977e-01,1.68888e-01,-4.57956e-02,2.10778e-01,8.96669e-03,-3.05498e-01,-3.05985e-02,2.00536e-01,1.28463e-01,-2.28963e-01,-4.46229e-02,1.46193e-01,-1.14378e-01,1.90061e-01,-6.32613e-02,2.68084e-01,1.35839e-01,-1.55471e-01,3.34411e-01,7.41992e-02,-5.67301e-02,-1.31586e-01,2.98360e-02,1.69818e-01,
-4.31962e-01,-1.18961e-01,-5.03046e-01,-8.50338e-02,2.61607e-01,-4.68476e-01,2.24765e-01,2.03403e-01,-3.60012e-02,-2.64528e-01,-2.67880e-01,2.30681e-02,6.97302e-02,5.38978e-02,2.16198e-01,-1.69065e-01,-9.92920e-02,-1.63169e-01,-1.30143e-01,-3.03090e-01,4.09146e-02,-2.55085e-01,-2.68374e-01,-9.92868e-02,1.96815e-01,
2.13538e-01,-1.85938e-01,8.39836e-02,1.05049e-01,2.40690e-01,-1.35265e-01,-2.36007e-01,7.20643e-02,3.13859e-01,3.06982e-01,-1.24012e-01,2.37803e-01,4.47866e-02,8.53040e-02,-4.20104e-02,-3.53099e-01,9.49761e-02,7.84352e-03,-5.76184e-03,1.03300e-02,-1.37086e-01,1.33630e-01,-2.25652e-01,-4.22013e-01,-1.93944e-01,
-1.48635e-01,-3.55809e-01,-2.68299e-01,-2.36289e-01,1.42041e-01,2.92361e-01,7.85912e-02,-2.21627e-01,3.46353e-01,9.37206e-02,2.15633e-01,-1.82428e-01,-4.94952e-02,-3.13605e-01,1.89147e-01,-5.34126e-02,-2.16470e-01,-1.31678e-01,2.78636e-01,-2.74181e-01,-8.36046e-02,9.87809e-02,1.18298e-01,1.72802e-01,-3.55511e-02,
7.61511e-02,2.48815e-01,1.73228e-01,-3.53926e-01,1.32632e-01,-1.81675e-01,2.08175e-01,-8.65389e-03,1.92022e-01,1.16076e-01,1.56968e-01,-2.93693e-01,-2.15514e-01,-1.45968e-01,-3.71372e-01,3.13566e-02,1.96524e-01,9.37439e-02,1.41724e-01,-2.55448e-01,-2.63968e-01,2.47495e-01,-9.06979e-03,-1.35224e-01,1.34239e-01,
5.68489e-02,-3.43738e-01,-2.96096e-01,3.88415e-01,9.10062e-02,1.50006e-01,2.89267e-01,2.60124e-01,5.27450e-03,2.86874e-01,2.50803e-01,8.67680e-03,-1.26735e-01,4.31353e-01,1.95222e-01,-6.43798e-01,2.92333e-03,1.91155e-01,3.22880e-01,-1.61575e-01,3.15788e-01,-1.22736e-01,2.22857e-01,-6.85002e-03,-1.59880e-01,
-2.37137e-01,-1.83734e-01,2.43489e-01,3.02246e-01,3.42746e-01,-2.70881e-01,8.34673e-02,-5.81292e-02,2.46585e-01,1.83632e-01,5.67283e-02,-2.44691e-01,7.75108e-02,2.71959e-01,2.57855e-02,-3.27130e-01,-2.80648e-01,-3.21558e-02,-1.61165e-01,5.66858e-02,-7.93630e-02,-1.90181e-01,3.26586e-01,-2.25748e-01,-6.68628e-02,
2.11876e-01,
-9.50571e-03,
-1.05855e-01,
9.10112e-02,
-4.24677e-03,
3.80609e-01,
3.03441e-01,
-3.64531e-01,
-1.61718e-01,
-3.56156e-01,
-2.07548e-01,
1.28712e-01,
-2.70976e-02,
2.78928e-01,
-8.25416e-02,
-2.57322e-02,
-2.20680e-01,
5.10578e-03,
1.78687e-01,
2.27087e-01,
-8.46317e-02,
1.94546e-01,
2.31687e-01,
-2.08120e-01,
-2.85750e-01,
2.04677e-01,2.94855e-01,8.19911e-02,3.83927e-01,-2.76473e-01,2.35659e-01,1.07903e-01,-1.85879e-01,-2.04964e-01,-4.72052e-01,8.99334e-02,-2.83334e-01,-3.18798e-01,2.80297e-01,2.39917e-01,1.61290e-02,-3.79930e-02,-3.86732e-01,3.65986e-02,2.70783e-01,-3.38791e-01,1.34988e-01,6.52440e-02,-1.51577e-01,-1.46650e-01,
-3.50667e-01,-3.47333e-01,-3.21190e-01,-2.52287e-01,-4.45787e-01,-4.42982e-02,2.69337e-02,3.43553e-01,8.01643e-02,4.79363e-01,-9.11697e-02,-3.41989e-01,1.00860e-01,-1.70957e-01,2.53201e-01,-3.60582e-02,3.39630e-01,1.13430e-01,7.12641e-03,-2.44006e-01,-2.06212e-01,-2.29944e-01,-8.75005e-02,-2.32601e-01,3.46853e-01,
-1.10196e-01,-5.08871e-02,-2.15345e-01,3.05302e-01,-3.32714e-01,6.34764e-02,8.72452e-02,2.51758e-01,-4.43004e-01,2.58218e-01,-4.60538e-02,-4.67487e-01,-8.89454e-02,-1.56978e-01,-3.15142e-01,-1.41697e-02,1.06716e-01,3.38217e-01,-4.27757e-01,-3.84408e-02,-2.54671e-01,-2.48922e-01,1.91330e-01,-1.42441e-01,1.48672e-01,
9.89678e-02,-3.59101e-01,-2.41618e-02,9.48187e-04,-4.71074e-02,-2.06525e-01,-7.03498e-02,1.19505e+00,-1.66939e-01,5.46325e-01,-3.34474e-01,9.26010e-03,-7.32572e-02,-8.67515e-02,-1.17523e-01,-1.79370e-01,-5.64175e-02,-3.13207e-01,1.34498e-01,1.34573e-01,-5.32082e-01,-2.52450e-01,5.54668e-03,-1.96239e-01,-8.78791e-02,
-1.18596e-01,4.27701e-01,-1.88470e-01,-4.94022e-02,1.00227e-01,4.58331e-01,3.43129e-01,-3.50262e-01,-2.67392e-01,2.67210e-01,-1.83628e-01,-2.85903e-02,-3.12089e-01,-1.94084e-01,2.22745e-01,1.13950e-01,-1.62215e-01,3.22892e-01,3.14080e-01,-7.22876e-02,-2.99193e-01,1.61366e-01,2.62250e-01,2.48285e-02,-4.35130e-01,
-2.99657e-01,
3.71659e-01,
2.04100e-01,
5.01351e-01,
-6.13457e-01,
