// Neural Network File Format by Kyle Julian, Stanford 2016
6,3,5,25,
3,25,25,25,25,25,5,
0,
-56000.000000,-56000.000000,-3.141593
56000.000000,56000.000000,3.141593
-278.628049,0.000000,0.000000,-0.242819
112000.000000,112000.000000,6.283185,17.479225
-2.46514e-01,-4.24118e-01,5.48537e-01,
6.60808e-02,1.12009e+00,-3.60274e-01,
5.56386e-02,-6.01934e-01,-3.43849e-01,
-2.57895e-01,-1.56926e-01,-4.08003e-03,
-1.33598e+00,1.10838e+00,1.99025e-02,
1.36354e+00,1.02812e+00,8.58395e-02,
-6.29345e-01,9.39086e-01,-1.72022e-01,
-1.53518e+00,-4.70362e-01,1.03830e-02,
3.30445e-01,8.45173e-01,-7.57656e-02,
-4.12116e-01,-5.57365e-01,5.47731e-01,
-1.66086e-01,5.01830e-01,3.71548e-01,
8.02472e-01,3.81990e-01,7.26224e-03,
-9.79357e-01,1.91014e-02,-6.35640e-01,
4.54525e-01,1.78021e-01,-5.89327e-01,
5.79037e-01,6.00253e-01,6.87615e-02,
3.11578e-01,-2.71826e-01,-8.41884e-02,
-6.27270e-01,-8.95200e-02,-5.54158e-02,
-6.26425e-02,-2.07178e-01,1.59542e-01,
-3.21998e-01,7.40580e-01,-4.67286e-01,
-3.49145e-01,3.74325e-01,1.35500e-01,
2.85849e-01,4.02479e-01,6.24074e-01,
-7.92739e-01,-5.78318e-01,2.11225e-01,
2.04920e-01,-6.58448e-01,-1.60499e-01,
5.84844e-02,1.44880e-01,-4.28067e-01,
6.55439e-01,8.33485e-01,6.22467e-01,
4.60039e-04,
-7.65837e-02,
6.93975e-02,
-2.00403e-01,
3.54520e-03,
8.81162e-02,
2.10964e-01,
-1.26321e-02,
-2.37020e-02,
-5.73991e-02,
9.90065e-02,
2.23158e-01,
6.36179e-02,
-1.53049e-01,
3.16388e-02,
1.27769e-01,
3.07353e-01,
-2.18593e-01,
-2.20167e-01,
6.93772e-02,
7.76798e-02,
2.38950e-01,
1.73926e-01,
-3.38214e-01,
-7.53827e-02,
2.43372e-02,9.28374e-02,2.60953e-01,2.04326e-01,1.46166e-01,-2.64441e-01,-1.10993e-03,-1.86795e-03,1.27128e-01,2.87760e-01,-8.94134e-02,7.32938e-02,-1.71395e-01,-3.42505e-01,-3.31585e-01,-2.10901e-01,-3.33805e-01,1.64861e-01,1.88697e-01,4.59177e-02,-3.85317e-02,1.98848e-01,-2.42167e-01,-1.94976e-01,-8.02674e-02,
4.09701e-03,1.80787e-01,3.38602e-01,1.16384e-01,-1.61995e-01,-2.45782e-01,2.63796e-01,-1.90911e-01,-1.01667e-01,-1.36390e-01,-1.81282e-01,7.97530e-02,3.94802e-01,-9.55544e-02,1.82596e-01,2.86865e-01,-2.26542e-01,5.74806e-03,-2.36447e-01,5.24915e-02,-1.71784e-01,3.10183e-01,-3.73113e-02,1.23722e-01,-7.69110e-02,
9.29715e-02,4.47073e-02,-2.19641e-01,1.31881e-02,-3.79623e-01,-6.64634e-02,2.94093e-01,-3.97415e-01,2.63713e-01,2.01230e-01,1.88755e-01,-2.22027e-01,1.82722e-01,1.50792e-01,-1.75262e-01,-1.67570e-01,-3.02894e-01,-6.25891e-02,-1.17390e-01,-3.07415e-01,3.77620e-01,2.03413e-02,1.44204e-01,-2.77161e-01,-1.29036e-01,
1.47676e-01,7.98809e-02,-9.72999e-02,-2.28741e-01,-2.15460e-01,2.04250e-01,3.69560e-01,3.98370e-02,-3.07018e-01,-2.31592e-01,2.76950e-02,2.25467e-01,-3.13407e-02,-2.29136e-01,-1.38648e-01,-6.55646e-02,4.91688e-02,2.03072e-01,-9.66777e-01,6.47461e-02,-8.33189e-02,3.88349e-03,7.40900e-02,1.41604e-01,3.43282e-03,
-3.71718e-01,-7.99469e-02,-6.41898e-03,2.65996e-01,-6.55898e-02,-6.15309e-01,-6.41001e-02,-4.72697e-01,-6.67175e-01,4.32368e-01,-7.68925e-02,-1.89118e-01,-2.29825e-02,2.85095e-01,-5.05974e-01,-4.60588e-02,3.45034e-01,4.20372e-02,-4.60974e-01,-8.87018e-03,1.82200e-01,3.46017e-01,4.32309e-01,-1.78982e-01,4.58268e-02,
-7.83135e-02,4.62151e-01,2.03269e-01,9.92098e-02,1.19944e-01,-8.77125e-02,4.13776e-01,6.82739e-01,5.92476e-02,2.48836e-01,-2.38460e-01,1.25058e-01,1.57981e-01,3.44813e-01,-2.09578e-01,6.61855e-02,2.17235e-02,1.85901e-01,-4.73526e-01,1.89689e-01,5.81738e-01,3.78329e-02,-5.32560e-03,1.77186e-01,-6.80232e-02,
-5.68678e-02,-4.90049e-02,5.47784e-01,7.05965e-02,-6.07584e-01,4.13968e-02,-6.18740e-02,-5.96450e-01,2.10308e-01,3.82113e-01,3.69257e-02,5.43257e-02,4.67479e-01,2.18822e-01,7.94667e-03,-1.71818e-03,-3.42385e-01,-1.58897e-01,-4.83053e-01,2.61687e-01,-1.05808e-01,-3.49322e-01,3.39046e-01,-2.21811e-02,-1.16942e-01,
3.22992e-01,-7.58245e-02,1.80312e-01,-6.00678e-02,-1.17385e-01,2.01272e-01,-2.76464e-01,6.00274e-01,-2.30812e-01,-6.53206e-01,9.59808e-03,3.00884e-01,-4.07123e-01,1.52355e-01,2.29405e-01,4.13976e-02,-8.17546e-03,-3.18894e-01,6.89687e-02,7.25193e-02,1.57561e-01,-2.91883e-01,3.53140e-01,1.45174e-01,-2.03038e-01,
-1.70724e-01,-6.86061e-01,3.34044e-01,2.64862e-01,-2.32938e+00,-3.05096e-01,-4.46280e-01,-4.29489e-01,1.64724e-01,4.36217e-02,-1.88967e-01,-2.66834e-01,4.97885e-01,-2.04447e-01,1.85872e-01,1.72173e-01,-3.43348e-01,6.95769e-02,-9.11295e-01,-9.98149e-02,-1.69491e-01,1.17870e-01,1.25746e-01,1.03755e-01,8.32259e-01,
-2.40548e-01,-1.97978e-01,2.28468e-01,1.28975e-01,-3.70983e-01,4.15442e-01,-2.18788e-01,-4.69360e+00,-4.38428e-01,-2.73214e-01,-2.66236e-01,2.42805e-01,-2.36107e-01,-4.37576e-01,3.34389e-01,2.29455e-01,-1.00861e-01,3.01363e-02,7.25567e-01,-1.50574e-01,1.46891e-01,7.99908e-03,-1.01635e-02,1.84890e-01,2.29737e-01,
8.25559e-01,3.81876e-01,2.26680e-01,1.52788e-01,-8.99693e-01,-2.80819e-01,1.43389e-01,-8.89067e-01,3.30291e-01,5.18976e-01,-4.55755e-01,-4.29752e-01,2.45590e-01,2.64015e-02,-5.59072e-01,-1.35732e-01,2.75428e-01,1.97165e-01,-4.09377e-02,5.87884e-02,-4.92812e-01,-1.39870e-02,-6.41958e-02,2.90738e-01,-2.16311e-01,
5.00920e-01,1.26007e-01,-2.33612e-01,-9.98256e-03,-7.22671e-01,-5.26912e-01,3.44333e-01,-1.19552e-01,5.87862e-01,2.32602e-01,2.07084e-01,-3.10291e-01,1.78466e-01,2.31846e-01,-6.18303e-02,-1.34917e-02,1.71905e-02,2.23280e-01,-1.43958e-01,2.30018e-01,2.39061e-01,-2.54267e-02,-9.93422e-03,-3.22089e-01,-9.13538e-01,
4.55404e-01,-1.69706e-01,1.60387e-01,1.30863e-01,-6.95462e-02,-3.03303e-02,-7.33728e-03,-3.15815e-01,5.73480e-01,1.53880e-01,-3.87250e-01,8.77867e-02,8.80980e-02,-2.87016e-01,2.25676e-01,-4.26412e-01,1.54253e-01,-1.63038e-01,-2.69078e-01,2.25873e-01,-1.63556e-01,-1.65187e-01,1.60621e-01,6.24694e-02,-3.49326e-02,
-3.16938e-02,1.62041e-01,1.20647e-01,-2.61028e-01,-6.28378e-01,1.22529e-01,3.46800e-01,-5.79082e-01,-8.27399e-02,-1.13765e-01,1.32622e-01,2.94256e-01,-1.09694e-01,-4.55490e-01,1.55603e-01,7.65509e-02,1.13917e-01,-6.89374e-02,-1.39031e+00,3.23330e-01,-1.37932e-01,1.48415e-01,-6.52069e-02,2.46953e-01,1.73064e-01,
-2.75044e-01,-2.21190e-01,-2.67241e-01,-6.60485e-03,-4.02850e-02,-2.01842e-02,-1.51363e-01,3.44981e-01,-2.18823e-01,-1.57100e-01,-2.94757e-01,-7.44161e-02,2.45603e-02,6.37716e-02,2.67283e-01,-2.95385e-01,-3.85326e-01,2.91154e-01,2.27987e-01,4.93393e-03,4.57723e-01,-2.10848e-01,2.10086e-02,3.05951e-01,5.35317e-02,
1.17362e-01,1.28585e-01,-2.86592e-01,-2.98934e-01,-1.33116e-02,6.39293e-02,9.89989e-02,8.19134e-01,2.02955e-01,-2.04004e-01,1.84126e-01,1.88859e-01,1.74355e-01,5.39562e-01,-2.55967e-01,-2.19319e-01,-1.04837e-01,1.08349e-01,-9.53766e-02,-2.17882e-01,2.55150e-01,5.01561e-02,1.15029e-01,2.57724e-01,-2.64176e-01,
-2.49587e-03,3.26359e-02,-6.56862e-01,-1.57068e-01,-3.75556e-01,2.10783e-01,-2.80247e-01,-2.36597e-01,-2.13427e-01,1.43318e-01,2.33832e-01,4.80292e-02,5.69104e-02,-1.92005e-01,2.02407e-01,-1.43095e-01,3.07084e-01,7.44033e-02,3.65709e-02,2.11005e-01,-2.92890e-01,1.64962e-01,-3.56743e-01,-1.11199e-01,2.33761e-01,
5.56437e-02,2.59058e-02,-2.81433e-01,-1.44770e-01,1.73373e-02,-1.91735e-01,-5.24941e-02,2.25643e-01,-1.36312e-01,-3.62742e-01,8.54829e-02,-1.88311e-01,-2.97211e-01,1.53359e-01,2.93401e-01,3.99957e-04,2.95090e-01,-2.63108e-01,7.21988e-02,4.77563e-01,3.01039e-01,-1.80882e-01,-2.08224e-01,-1.61598e-01,-1.47602e-01,
-3.49728e-01,-4.63942e-02,1.84256e-01,-4.46084e-02,8.35007e-02,-2.25554e-02,6.39945e-02,4.80826e-01,1.77422e-01,-1.16407e-01,3.53151e-01,1.93166e-01,-1.25789e-01,-2.70143e-01,1.25893e-01,-1.02757e-01,-2.89785e-01,1.34420e-01,-4.29346e-01,-1.33849e-01,2.75996e-01,-1.42825e-01,-5.71160e-02,-6.72582e-02,-9.36646e-02,
-3.04194e-01,1.75602e-01,3.03822e-01,-5.49059e-02,-2.13035e-01,7.42997e-02,1.68935e-01,-2.75582e-01,2.52681e-01,-1.25366e-02,6.26517e-02,2.01728e-01,2.39797e-01,-2.64295e-01,-4.44213e-02,3.74260e-01,3.99504e-01,-7.27482e-02,-3.58078e-01,1.60849e-01,-1.30499e-02,3.57368e-01,-1.73325e-01,-2.44155e-01,1.62995e-01,
-8.27336e-03,2.52429e-01,3.01923e-01,1.77601e-01,4.14117e-01,-1.40814e-01,-1.88365e-01,4.37539e-01,-8.44896e-02,-6.63798e-02,-1.60285e-01,1.80577e-01,5.91172e-02,-3.42069e-01,-3.40953e-01,-6.05085e-02,7.78285e-03,1.61489e-01,1.00469e+00,-2.60498e-02,9.61818e-02,-2.65819e-01,-6.41663e-02,-1.90636e-01,5.03099e-01,
8.30717e-02,1.22990e-01,-2.67676e-02,1.13246e-01,4.47577e-01,5.97499e-02,-2.56876e-01,5.30842e-01,8.95295e-02,-8.05759e-01,8.17203e-02,-1.03080e-01,-2.72379e-01,3.77600e-01,1.79602e-01,-6.42444e-02,1.62186e-01,-3.79212e-02,-1.19872e+00,-3.82470e-02,2.34818e-01,6.99832e-02,-3.79606e-01,-1.12306e-01,-7.98018e-02,
-9.13341e-02,1.70676e-01,-2.81385e-01,-3.43229e-01,-8.95152e-02,-3.18143e-01,2.52378e-01,-2.31846e-02,-3.29833e-01,2.68000e-01,2.65551e-01,2.05278e-01,3.83740e-02,-1.84296e-01,-2.65326e-01,1.37961e-02,-7.75931e-02,4.19562e-02,-1.67572e-01,2.78387e-02,1.68434e-01,-2.49867e-01,1.33604e-01,-2.55970e-01,-2.17499e-02,
2.32354e-02,2.22300e-01,1.32087e-01,-2.18805e-01,6.27299e-02,-5.53204e-02,-1.17587e-01,-3.64885e-02,3.71959e-01,-2.54239e-01,-1.95196e-01,2.00734e-01,-1.73112e-01,-5.41346e-01,-1.83668e-01,3.36008e-01,1.11640e-01,-8.10387e-02,-7.82801e-02,-1.11022e-01,2.92221e-01,2.72149e-01,-1.18413e-02,3.00901e-01,-2.92598e-01,
-1.84860e-01,-3.34412e-01,-2.88922e-02,3.44917e-01,-5.80764e-02,-2.60634e-02,-4.57365e-01,-2.17210e-01,8.68709e-01,3.43392e-01,-3.71325e-01,-4.08202e-03,2.16711e-01,-5.14534e-01,-4.36651e-02,-5.09237e-02,1.08798e-01,2.24527e-01,6.36585e-01,-1.72808e-01,-3.99462e-01,1.05054e-01,9.58580e-02,-5.60749e-02,4.96889e-01,
-2.07232e-01,
3.00656e-01,
1.08361e-01,
-9.34855e-02,
-1.33426e-01,
-2.37911e-01,
1.83732e-01,
-4.35513e-02,
2.16115e-01,
-2.38910e-02,
5.94612e-02,
3.47570e-02,
2.23750e-01,
-1.57056e-01,
2.98753e-01,
-5.78726e-02,
2.49880e-01,
2.26640e-01,
7.43008e-02,
-2.73566e-01,
1.07327e-01,
1.67219e-01,
-1.84784e-01,
-8.13127e-02,
1.84506e-01,
2.73066e-01,-2.57046e-01,2.01062e-01,-1.22344e-01,4.39547e-01,1.35549e-01,-8.72553e-01,-6.40662e-01,2.49460e-01,4.96455e-01,2.83084e-01,5.04324e-02,-2.29538e-01,1.67751e-01,-6.50814e-02,1.37570e-01,-1.00476e-01,-1.25753e-01,1.47538e-01,-2.87178e-01,-4.12546e-01,2.46929e-01,-2.68096e-01,3.02942e-02,-7.45904e-01,
-1.73083e-01,6.29036e-02,1.72204e-01,9.37976e-02,2.17036e-01,1.74700e-01,-3.13791e-02,-2.74362e-01,-6.65703e-02,-1.45092e-01,-2.85623e-01,-2.25624e-01,-3.13178e-01,-2.58128e-01,-3.13146e-01,9.28977e-02,1.12414e-01,1.04022e-01,-2.29521e-01,-3.46632e-01,-1.51873e-01,-3.09522e-01,3.10290e-01,2.46438e-01,-1.97565e-01,
-2.75501e-01,-5.29018e-01,3.61258e-01,-1.37287e+00,-1.02452e-02,-1.74089e+00,-2.10138e-01,3.22260e-01,1.85990e-01,1.09953e-02,3.09963e-01,2.50642e-01,-2.56589e-01,-2.27792e-01,-1.35754e-01,-6.14360e-02,2.46931e-01,-8.83013e-03,-1.87702e-01,-7.00931e-01,2.82523e-01,-3.19932e-01,-2.30550e-01,1.88492e-01,4.95888e-02,
2.79898e-01,-2.68385e-01,2.22387e-01,1.49672e-01,-5.67588e-01,-1.40037e-01,-9.00216e-02,2.11203e-01,4.49804e-01,-3.68814e-01,4.93338e-01,2.12857e-02,-4.02010e-02,7.30972e-02,1.00390e-01,1.58145e-01,-1.09753e-01,3.61686e-02,1.66375e-01,1.09311e-01,-1.55904e-01,2.05621e-01,2.67769e-01,5.84907e-02,-8.14900e-03,
1.99913e-01,1.27630e-02,-4.91328e-01,-2.96719e-01,1.53073e-02,2.51778e-01,-1.66211e-03,-1.72424e-01,3.47007e-01,2.96627e-01,8.78212e-02,-5.28504e-01,-1.41948e-01,-3.26181e-01,-9.44479e-02,-3.10284e-01,1.44630e-01,-9.07381e-02,2.23650e-01,-1.32463e-01,2.90746e-01,2.26866e-01,-3.22831e-01,-2.89103e-01,3.17623e-01,
1.32900e-01,-1.94231e-01,-2.46556e-01,2.31463e-01,-1.49183e-01,2.55837e-01,-1.16066e-01,1.34618e-01,-2.94855e-01,-3.50872e-01,1.90212e-01,2.56420e-01,-7.57241e-02,1.97830e-02,6.79154e-02,1.10631e-02,1.88886e-01,-2.64682e-01,-1.72421e-01,-3.27109e-02,2.75837e-01,-1.10493e-01,-2.46078e-01,1.83377e-01,-1.11802e-01,
4.83981e-02,-9.68922e-02,-1.89432e-01,1.74975e-01,-2.27578e-01,-2.01484e-01,2.87547e-01,3.31766e-01,2.24283e-03,-8.75258e-02,2.64842e-01,1.75665e-01,1.73567e-01,-2.77504e-02,-2.84218e-01,-1.71766e-01,-9.34184e-04,4.37899e-02,5.22633e-02,3.19396e-01,-3.91384e-02,6.94770e-03,-1.94514e-01,-2.88500e-01,4.77170e-02,
1.09576e-01,-2.11971e-01,2.05004e-01,-1.76871e-01,1.28434e-01,3.12772e-01,-2.22497e-01,-1.10576e-01,7.47087e-02,1.74017e-01,3.19429e-01,4.78177e-02,-3.41851e-01,5.57460e-02,-1.60814e-01,7.17012e-02,-1.84269e-01,-6.85288e-02,-1.10836e-01,-2.51026e-01,-2.48759e-01,-1.60837e-01,-2.07335e-03,-3.10223e-02,-3.45671e-01,
-9.31416e-02,2.02306e-01,4.00813e-02,-2.13823e-02,-1.15633e+00,-6.95206e-02,-3.10043e-01,6.79794e-01,1.81525e-01,-3.27938e-01,-3.46708e-02,7.24143e-01,1.21681e-01,-2.98001e-02,9.16732e-03,-1.11636e-01,2.26519e-01,1.49322e-01,-7.91859e-02,1.58037e-01,3.24960e-01,-7.37254e-02,1.39997e-01,1.88445e-01,-1.11336e-01,
-2.21822e-01,-4.04354e-02,-3.82954e-02,-1.37026e-01,3.62273e-02,-5.53122e-02,-1.14688e-01,-1.69140e-01,-5.51562e-02,-7.14574e-02,3.72442e-01,-1.54787e-01,4.88293e-02,-2.97010e-01,1.52500e-01,2.42811e-01,1.26098e-01,-6.57064e-02,2.89991e-01,-2.81331e-01,2.70179e-02,2.33485e-01,6.26774e-02,1.02366e-01,-1.76601e-01,
1.26450e-02,-2.83735e-01,2.54277e-01,2.01234e-01,-1.73504e-01,4.66235e-01,-1.65858e-02,-5.90794e-02,-4.99875e-02,1.89656e-01,2.72938e-02,-9.70706e-02,8.49834e-02,2.90046e-01,1.79259e-01,-1.02226e-01,-3.42169e-01,3.09017e-01,1.29533e-01,-1.56077e-01,-1.54932e-01,-1.25694e-01,-2.04524e-01,3.02194e-01,-2.98974e-01,
-1.76385e-01,3.20057e-01,-2.06004e-01,3.51644e-02,-1.44783e-01,-6.85028e-02,-5.72051e-02,-9.07507e-02,7.93892e-02,3.94651e-02,-5.24444e-02,1.44081e-01,-4.83794e-02,-3.31649e-01,-7.83446e-02,-5.77296e-02,-1.47344e-01,1.61819e-01,-2.54793e-01,-1.18309e-01,1.71450e-02,-1.97373e-01,-1.29223e-02,1.30775e-01,1.49962e-01,
-2.84125e-01,-5.47263e-02,-1.82496e-01,3.03864e-01,7.28771e-01,2.76161e-01,-3.47439e-01,2.15272e-01,-7.67995e-01,-5.95984e-03,5.72438e-02,-9.19244e-01,-3.54379e-02,2.40823e-01,2.92856e-01,-1.38935e-01,1.49938e-01,3.55055e-01,7.97926e-02,2.97260e-02,8.40572e-03,3.20111e-01,-1.22012e-01,1.20513e-01,-2.54658e-01,
2.19936e-01,1.07646e-02,-3.92355e-02,-8.52040e-02,6.21272e-01,1.17871e-01,-9.10428e-02,-2.22630e-01,3.52709e-01,6.15475e-02,-6.21492e-01,4.11742e-01,1.68283e-01,-3.35381e-01,3.75519e-01,-3.94344e-02,-3.35267e-01,4.25531e-03,2.41743e-01,5.38082e-02,1.06209e-01,-1.17572e-01,-9.24040e-02,-8.92131e-02,3.15336e-01,
-3.16680e-01,-2.05739e-01,-1.74631e-01,1.35994e-01,-2.32567e-01,-1.26776e-01,-9.29297e-02,-2.79257e-01,-1.01264e-01,-2.15271e-01,-3.25643e-01,-1.83614e-01,3.66501e-02,-2.09348e-01,2.02497e-01,-1.62557e-01,2.43549e-01,9.52141e-02,6.72567e-02,1.58305e-02,-1.41736e-01,-3.43822e-01,3.22916e-01,1.14954e-01,5.89020e-02,
3.00027e-01,2.38658e-01,-4.87780e-03,-1.21999e-01,8.96955e-02,2.83330e-01,1.50850e-01,5.58471e-01,-4.19250e-01,-5.90723e-01,-2.84242e-01,-2.51435e-01,1.90500e-01,2.74564e-01,5.56287e-02,-2.76208e-01,-3.05303e-02,9.41721e-03,2.62329e-01,1.22873e-01,-1.63359e-01,-1.30891e-01,-4.16542e-02,-7.20191e-02,5.11140e-02,
5.10663e-02,-2.55363e-01,2.37505e-01,1.99386e-01,-5.10078e-02,3.06267e-01,1.52392e-01,-2.06230e-01,1.56224e-03,1.82691e-01,-1.24395e-01,-2.93115e-02,-1.95041e-01,-3.20388e-01,1.11038e-01,1.15981e-01,-1.42282e-01,2.41685e-01,3.83555e-02,5.08653e-01,-8.95585e-02,-1.57250e-02,6.37434e-02,3.12902e-01,4.57746e-02,
1.36774e-01,-8.51669e-02,7.38487e-02,8.15478e-02,6.94976e-01,-2.69284e-01,2.79244e-01,-6.04721e-01,8.06178e-02,4.97108e-01,-5.36327e-01,-4.19544e-01,-2.78003e-01,-1.68837e-01,-6.22721e-02,-9.82502e-02,-1.37967e-02,-2.10566e-01,1.60032e-01,1.35443e-01,9.12213e-02,-9.65482e-02,3.09125e-01,2.23854e-01,-2.69358e-01,
2.64479e-02,-2.87356e-01,-1.00638e-01,-3.51657e-02,-4.93520e-01,-1.43567e-01,2.65348e-01,-4.38610e-02,5.62482e-01,-3.42415e-01,-6.38748e-01,3.42094e-01,-1.59074e-01,3.01679e-01,-1.09803e-03,-1.00418e-01,7.77436e-02,-1.94144e-01,2.88007e-01,-2.14439e-01,-2.66476e-01,-2.73272e-02,-3.12234e-01,-2.25574e-01,-7.63701e-02,
3.17387e-01,-1.19416e-01,2.07162e-01,1.20649e-01,-1.94797e+00,-1.04838e-01,1.85200e-01,3.87030e-01,-2.82892e-03,-3.92065e-01,-1.00473e-01,1.07999e+00,-2.05615e-01,2.94833e-01,5.24907e-02,2.73002e-01,1.98560e-01,1.71038e-01,2.08416e-01,-2.27290e-02,-3.25457e-01,-2.15519e-01,-2.46264e-01,-9.70544e-02,4.31390e-02,
-2.01489e-01,-2.37169e-02,-2.79254e-02,-4.39457e-01,8.31379e-03,-1.80399e-01,1.95765e-01,1.27401e-01,-8.10812e-02,4.45781e-02,3.30826e-01,1.49252e-01,1.79114e-02,-2.64050e-01,-3.44639e-01,9.85003e-02,-2.69164e-01,-1.54246e-01,-3.98644e-01,-5.95854e-01,-2.32918e-01,-5.24391e-01,2.31634e-01,-5.82021e-02,-3.58536e-01,
-2.03454e-02,1.67045e-01,7.32812e-02,-1.34026e-01,2.01049e-01,-2.26937e-01,1.33332e-01,-9.23505e-02,3.11094e-01,-2.81512e-01,3.52751e-02,-5.67135e-02,-3.10815e-01,-4.41813e-02,-2.74984e-01,-3.38493e-01,1.45561e-01,-6.68522e-02,-1.78544e-01,1.39250e-02,-2.08813e-01,-3.19673e-01,1.41889e-01,4.45424e-02,-4.09670e-02,
7.53781e-02,2.27865e-01,-2.41513e-01,-4.67025e-02,7.05504e-02,-1.36732e-01,-2.27546e-01,4.75409e-02,1.38161e-01,2.80522e-01,-3.38711e-01,7.23345e-02,-1.15520e-01,-1.20640e-01,1.92566e-01,-1.24971e-01,-3.37562e-01,-3.18485e-01,1.14391e-01,2.37724e-01,1.58935e-01,2.22725e-01,-3.35448e-01,-1.48002e-01,2.50607e-01,
-2.13534e-01,2.91057e-01,-3.71528e-01,-6.70161e-03,1.29920e+00,2.65784e-01,3.34386e-01,-9.45624e-02,-1.90821e-01,9.21312e-02,-1.16802e+00,-3.06542e-01,9.26017e-02,2.05100e-01,-2.60049e-01,-1.57212e-01,-1.50651e-01,1.62380e-01,5.69625e-02,-3.09241e-01,6.47943e-02,3.86829e-02,1.92630e-01,-2.39082e-01,-1.27834e-01,
-2.41395e-01,-2.73316e-01,2.07164e-01,2.41701e-01,1.46062e-01,-1.32204e-01,-1.12608e-01,-1.48187e-01,-2.80502e-01,1.14863e-01,1.48985e-01,3.34696e-01,2.63780e-02,8.19679e-02,1.42857e-03,-1.11691e-01,-3.88543e-02,1.99310e-01,-2.00315e-01,-9.22070e-02,-1.82010e-01,1.19089e-01,-8.70447e-02,2.27142e-02,-2.54551e-01,
1.95960e-01,
-1.49493e-02,
1.56995e-01,
2.69334e-01,
9.96204e-02,
2.53051e-01,
-3.21581e-01,
-1.04525e-01,
-1.36297e-01,
8.92869e-02,
1.13551e-01,
-2.52020e-01,
-1.15359e-01,
8.05251e-02,
-3.10396e-02,
1.13473e-01,
-2.58498e-01,
1.73673e-01,
2.36212e-01,
-1.73420e-03,
2.75068e-02,
-3.05227e-01,
-3.17154e-01,
-1.33954e-01,
-3.24750e-01,
1.80200e-01,-1.82343e-01,3.93118e-02,-1.16875e-01,2.56330e-01,1.03917e-01,1.69458e-01,1.12673e-01,-2.51629e-01,-2.03067e-01,-1.88490e-01,-1.84750e-01,1.05322e-01,-8.68176e-02,-1.76227e-01,-2.55784e-01,-1.90972e-01,3.75009e-02,-1.17590e-01,-8.34300e-02,9.62252e-02,1.80627e-02,1.28803e-01,3.31865e-01,-3.27061e-01,
2.91070e-01,2.77931e-01,6.64718e-02,-1.98364e-01,6.59522e-02,2.17145e-01,-5.98567e-02,2.26445e-01,-8.07315e-04,-2.64090e-01,1.09669e-01,-1.21546e-01,-3.21357e-01,1.39150e-01,2.23687e-03,-1.82070e-01,1.87760e-01,-1.14417e-01,1.73241e-02,-8.54510e-02,-3.32847e-01,1.58864e-02,-1.88728e-01,-3.72636e-02,7.43620e-02,
-1.08995e+00,3.41201e-01,-7.37933e-01,2.03142e-01,2.31819e-01,-3.78603e-01,-6.88717e-02,-3.85086e-02,-1.09906e-01,-2.08483e-01,-4.16235e-01,-2.42043e-02,8.53888e-02,-3.53348e-01,-1.45081e-01,-3.16837e-01,7.92266e-02,-1.23871e-02,-8.72799e-02,-5.65288e-01,3.37396e-01,-1.87238e-01,2.72465e-01,1.43699e-01,-3.33182e-01,
1.93191e-02,2.32355e-01,-7.30312e-02,1.88799e-01,1.80909e-01,1.16517e-01,1.13048e-01,-1.86618e-01,-2.27981e-01,7.55459e-02,-1.41940e-03,-8.29522e-02,-1.34652e-01,-4.10057e-02,1.59405e-01,1.57617e-01,-9.65986e-02,-1.69200e-01,1.59819e-01,2.91121e-02,3.66078e-02,-1.06786e-01,-1.16734e-01,5.37315e-03,1.68525e-02,
-4.16067e-01,-3.11131e-01,-7.98337e-02,3.63526e-02,1.00559e-01,-1.63325e-01,-2.35079e-01,-2.17696e-02,-2.70723e-01,2.24307e-02,2.68772e-01,-2.85735e-01,-4.55330e-01,2.77824e-01,-3.77634e-02,3.11536e-01,-1.78646e-01,3.32362e-01,-1.50575e-02,-8.76252e-02,-1.80956e-01,1.72966e-01,2.20034e-01,-3.42639e-01,-7.74328e-02,
1.20574e-01,-2.88009e-01,-3.07045e-01,2.52835e-01,3.86774e-02,5.37987e-02,-1.92020e-01,8.63857e-02,1.41217e-01,-1.66453e-01,-1.46830e-01,2.22694e-01,-9.09059e-03,2.05188e-01,-3.23302e-03,-1.34785e-01,-2.42458e-01,-3.66721e-02,2.65712e-01,2.08815e-01,-7.35285e-02,1.69677e-01,6.82228e-02,1.88193e-01,2.56448e-01,
-2.88710e-02,1.80015e-01,9.45586e-02,1.08732e-01,-2.78057e-01,-2.05885e-01,3.45975e-01,-7.22569e-03,2.30070e-01,-5.62667e-02,1.83641e-01,-3.01076e-01,-1.38344e-03,-5.92764e-02,-1.37363e-01,1.48246e-01,-2.37688e-01,2.53592e-01,-1.80881e-01,-3.39131e-01,-1.07225e-02,2.83304e-01,-9.16134e-02,-2.80027e-01,-2.79017e-02,
-1.68736e-01,-3.21092e-02,2.26956e-03,-3.90429e-01,2.16359e-01,-1.60036e-01,7.01330e-02,6.94738e-02,-3.69873e-02,2.07319e-02,-2.24208e-01,-6.77504e-02,1.32364e-01,-3.47628e-01,3.08243e-01,-1.19237e-01,-1.12513e-01,5.12594e-02,-2.87379e-01,-2.05820e-01,-1.44360e-01,5.37478e-02,-2.36470e-01,-8.83635e-02,-1.98349e-01,
-1.96923e-02,-2.13401e-01,-3.39615e-01,-2.05589e-02,-3.38594e-01,2.44218e-02,-2.37465e-01,1.66671e-01,-1.15919e-01,-2.25847e-01,-5.18843e-02,1.54663e-01,2.35555e-01,-1.64992e-01,-2.07718e-01,-1.38609e-01,-7.56207e-02,-2.26618e-01,-4.83622e-02,6.57358e-02,1.84907e-01,1.60567e-01,-3.04303e-01,7.55657e-02,2.30221e-01,
-1.81667e-01,7.63890e-02,-1.64907e-01,-1.40803e-01,-3.02740e-02,3.08749e-01,-2.68160e-01,1.68304e-01,-8.54697e-02,-7.41719e-02,-1.92667e-01,-1.26595e-01,-2.76001e-01,-3.44875e-01,-1.96779e-01,7.35674e-02,-1.27221e-01,1.50671e-01,1.01897e-01,-2.41302e-01,-4.43642e-02,-3.45427e-01,-3.48327e-02,-1.39125e-01,3.19111e-01,
-7.97715e-01,2.32289e-01,-1.60283e+00,-1.20581e-02,-2.38916e-01,-2.98470e-01,-1.38299e-01,2.41214e-01,1.62861e-01,-4.95844e-02,-9.24062e-02,-2.92084e-01,2.71927e-02,-2.78135e-01,1.55598e-01,5.78344e-03,2.15786e-01,3.03178e-02,4.28416e-01,2.17146e-01,-4.19460e-01,1.90278e-01,1.82769e-01,3.37282e-01,2.05267e-01,
2.97451e-01,1.78527e-01,-2.68036e-01,-2.98512e-01,9.52940e-02,1.21624e-01,1.10317e-02,1.28283e-01,-2.36355e-01,-3.79345e-02,2.75984e-02,-3.08473e-01,-2.65606e-01,8.49080e-02,-1.00289e-01,3.32803e-01,-1.61265e-01,-1.44012e-02,2.19863e-01,2.51658e-01,-4.21945e-02,-1.92967e-01,2.52756e-01,-1.89226e-01,-3.24030e-01,
-1.28779e-01,-3.38773e-01,-2.04046e-01,2.05020e-01,2.86077e-02,-9.34779e-02,-2.83578e-01,1.38799e-01,8.50512e-02,1.33332e-01,2.14647e-01,3.56939e-02,-4.02358e-01,8.98748e-02,-2.92997e-01,1.07404e-01,1.57697e-02,7.91285e-03,-4.41446e-02,1.83530e-01,-2.65118e-01,-1.43958e-01,-2.52882e-01,5.83484e-02,-1.40780e-01,
2.03605e-01,1.95515e-01,2.47488e-01,-3.24154e-01,4.29815e-02,-2.55910e-02,-3.53352e-02,1.47810e-01,-3.66283e-01,-3.63665e-01,-7.42511e-02,-3.33185e-01,-2.01955e-01,4.91052e-02,-8.22769e-02,-3.74984e-01,9.28468e-03,-3.15896e-01,-1.68523e-01,6.01590e-02,1.41649e-01,-1.22327e-01,-1.31774e-01,-2.14422e-01,-1.84338e-01,
2.94649e-01,-3.51909e-03,4.07462e-01,2.17924e-01,1.81586e-01,2.37481e-01,3.24437e-01,2.02175e-01,-1.15295e-01,3.30294e-01,1.36908e-01,3.22927e-02,-3.25989e-01,-2.74402e-01,-2.87226e-01,1.64548e-01,1.45873e-02,-3.87105e-01,-2.94275e-01,-1.45481e-02,-2.11521e-01,3.27968e-01,4.17070e-02,-9.54945e-03,3.34225e-01,
3.26507e-01,-1.39930e-01,-2.99813e-01,1.44894e-01,6.28317e-02,-9.90957e-02,-1.73268e-01,1.21982e-01,9.23802e-02,1.04295e-01,-2.00165e-01,2.07699e-01,-1.15082e-01,-3.13241e-01,2.32242e-01,-2.74237e-01,8.42047e-02,-3.25727e-02,-1.70159e-02,2.65505e-01,2.98757e-01,1.50043e-01,-1.16144e-01,-3.39119e-01,-9.67457e-02,
1.57960e-01,-3.05912e-01,-8.44659e-02,1.27493e-01,-1.86973e-01,-2.83511e-02,1.40444e-01,-7.97792e-02,3.44874e-01,4.94444e-03,-3.25477e-01,1.17942e-01,2.15761e-01,-1.96858e-01,-2.40181e-01,-2.07445e-01,2.89192e-02,1.75410e-01,5.29911e-02,-1.49577e-01,-7.52132e-02,-1.48543e-01,-2.95574e-01,-1.75931e-01,8.26559e-02,
-2.47227e-01,8.51110e-02,1.29163e-01,-3.73715e-01,-2.40677e-01,1.31555e-01,-1.33912e-01,8.52662e-02,2.22943e-01,-2.62909e-01,1.71503e-01,-1.45119e-01,2.16585e-01,1.73164e-01,9.96553e-02,-3.17758e-01,3.31952e-02,-1.91403e-02,-2.12195e-01,4.30132e-01,-2.15638e-01,2.57012e-01,9.37479e-02,1.96050e-01,2.80498e-01,
5.24732e-03,-2.77327e-01,9.31206e-02,2.09175e-02,6.81877e-02,-6.22535e-02,-1.95540e-01,-1.24659e-01,-2.06378e-02,-2.10896e-01,-2.26669e-01,-1.94058e-01,-8.02351e-02,-8.48934e-02,-2.18175e-02,2.39161e-01,1.62117e-01,1.47910e-01,-3.06439e-01,1.11739e-01,2.70315e-01,2.80830e-01,-2.64782e-01,-3.09793e-01,-5.96930e-02,
-5.96680e-01,1.38753e-01,-2.04495e-02,2.27078e-01,-3.00178e-01,2.76794e-01,-2.52519e-01,-5.40855e-02,-8.87632e-03,-3.18692e-01,-2.17426e-01,3.59035e-02,-2.49084e-01,-2.47337e-01,-1.81169e-01,3.40400e-01,-8.29899e-02,-1.97673e-01,1.70248e-01,-2.35709e-01,2.16903e-02,-3.15370e-01,-1.27841e-01,-1.77368e-01,-3.21476e-02,
-3.43788e-01,8.47248e-02,2.80547e-01,1.30243e-01,2.58852e-01,-7.48128e-02,3.16218e-01,1.74980e-01,-7.87038e-03,1.53441e-03,-3.21113e-01,-3.18710e-01,-9.41419e-02,-7.56222e-02,3.18765e-01,-2.65120e-01,3.42687e-01,-2.77315e-01,2.86768e-01,2.23727e-01,1.21723e-01,-7.11307e-02,3.64476e-02,3.46123e-01,-2.04648e-01,
-4.99632e-01,3.28195e-02,2.60073e-01,1.48577e-01,2.22856e-01,-2.42151e-01,2.05048e-01,-3.43042e-01,-1.31883e-01,-1.05317e-01,2.56479e-01,-2.92108e-01,-3.32287e-01,-2.96103e-01,3.28730e-01,4.87356e-01,2.58994e-01,2.12355e-01,3.69643e-01,2.70931e-01,2.24798e-01,-2.85211e-01,-2.84189e-01,-4.93448e-01,-2.74391e-01,
-2.85110e-01,8.58104e-02,-3.58951e-01,-2.37708e-01,8.08238e-02,2.86400e-01,-1.97061e-01,-2.71389e-01,4.11327e-02,1.10437e-02,-4.78967e-02,-1.98855e-01,2.85255e-01,-2.09032e-01,1.93471e-02,-6.89638e-02,3.02779e-01,2.68227e-01,2.14622e-01,8.19472e-02,-2.49244e-01,3.37095e-01,-4.99424e-02,6.15579e-02,-2.78655e-01,
-1.64122e+00,8.26610e-02,-1.94386e+00,-1.19923e-01,-4.07581e-02,-1.36420e-01,-1.99527e-01,-1.35183e-01,-4.81292e-01,-2.29100e-01,-7.05364e-02,3.01550e-01,-4.06463e-02,-4.42454e-01,6.39578e-02,1.16085e-01,6.78586e-02,-8.53002e-03,-1.61367e-01,-4.63885e-01,1.67195e-01,-2.67305e-01,2.03303e-01,-8.09847e-02,1.55900e-01,
-5.20439e-01,-1.59820e-01,6.52031e-02,9.33126e-02,-2.57112e-01,2.10879e-01,2.59199e-01,-2.53518e-01,-1.93506e-01,1.65153e-01,1.16156e-01,-1.98595e-01,2.62364e-01,1.13561e-01,1.18893e-01,4.56863e-02,-1.97665e-02,1.61626e-02,4.88486e-01,-1.38427e-01,-2.14967e-01,-6.93863e-02,3.73411e-02,5.43073e-02,-1.26901e-01,
1.39713e-01,
-1.57910e-01,
1.53078e-01,
-2.79603e-02,
-7.58851e-02,
-3.02292e-02,
1.53157e-01,
1.09156e-01,
-3.38110e-01,
-4.61160e-02,
-1.51321e-02,
-1.78218e-01,
3.07057e-01,
7.46913e-02,
-5.80329e-02,
-6.63810e-02,
-2.52124e-01,
1.69381e-01,
-1.60570e-01,
-4.56270e-02,
-1.65184e-01,
-2.33230e-01,
-4.51586e-02,
1.15067e-01,
-3.95413e-02,
-3.44778e-03,3.57945e-02,6.79077e-02,-1.70345e-01,2.24112e-01,-2.36401e-01,2.17247e-01,1.66587e-01,-5.15983e-02,2.25804e-01,9.17263e-02,1.68952e-02,-6.15028e-02,2.32403e-01,-3.78019e-02,2.86289e-01,-3.34972e-01,1.07142e-01,-9.45723e-02,2.82684e-01,1.93521e-01,3.00265e-02,1.56673e-01,-3.15543e-01,2.17419e-01,
1.88891e-01,5.26663e-02,-3.25244e-02,-2.33174e-01,1.67645e-03,1.00287e-01,-1.36874e-02,-1.35442e-01,-2.82972e-01,-2.48760e-01,-7.72096e-02,-3.06944e-01,1.89877e-01,-2.22927e-01,-2.51254e-02,3.68603e-02,2.33802e-01,1.53654e-01,-2.37312e-01,-1.77839e-01,-1.82823e-01,3.54104e-01,-1.40545e-01,4.35046e-01,2.72690e-02,
-1.56927e-01,1.03855e-01,-3.85595e-01,-1.80195e-02,-4.61468e-01,-3.83477e-01,-8.18788e-02,1.67854e-01,3.11831e-01,-3.93678e-02,3.70419e-01,-9.13371e-02,1.41685e-01,1.24622e-01,1.87024e-01,-6.71555e-02,1.32210e-01,-1.60227e-01,-6.92222e-02,4.48950e-01,-2.30276e-01,-3.60529e-01,-1.52201e-01,-4.43517e-02,-5.57773e-01,
-5.66570e-01,1.88169e-01,2.24577e-01,-6.92976e-02,-4.67674e-01,2.83486e-02,-2.46409e-01,-3.00675e-01,-1.39242e-01,2.50246e-02,7.44147e-02,-2.12675e-02,2.89417e-01,1.65672e-01,1.75635e-02,1.13525e-01,-3.06422e-01,-1.69628e-01,2.41477e-01,-8.26281e-01,-9.15330e-02,5.52345e-01,4.70789e-01,-8.77296e-01,-1.56162e-01,
-1.97930e-01,-1.96435e-01,-1.20285e-01,7.73280e-02,-3.91394e-02,-2.67336e-01,-7.96361e-02,-4.49495e-02,1.28587e-01,4.91135e-02,-1.97983e-01,-1.15130e-01,-2.69248e-01,-2.99061e-01,9.60098e-02,1.20122e-01,2.88680e-01,-5.25969e-02,1.92406e-01,1.85068e-01,-2.61656e-01,-5.31192e-02,-1.71073e-01,-2.28123e-01,4.62876e-02,
1.36012e-01,2.29873e-01,1.34698e-01,2.64936e-01,3.07933e-02,-3.17938e-01,8.68115e-03,3.12802e-01,-2.57964e-01,-1.96198e-01,-3.13235e-01,-2.56217e-01,1.93976e-02,-2.74042e-01,1.86108e-01,2.23232e-01,-6.25949e-02,2.68817e-01,-3.00828e-02,2.87706e-01,-2.70633e-01,2.17213e-01,-2.74861e-01,-2.79498e-01,-1.99537e-01,
1.82669e-01,-1.35596e-01,8.29081e-02,-2.80664e-01,-2.60277e-01,-3.21003e-01,1.26291e-01,-2.00889e-01,2.05100e-01,-1.51268e-02,2.48215e-01,-1.69043e-01,2.05473e-01,3.10568e-01,-1.23834e-01,1.66421e-01,2.14702e-01,-2.29753e-01,-2.28844e-01,5.29449e-02,-2.34139e-01,1.64813e-01,-1.04375e-02,-1.84042e-01,2.28302e-01,
-2.26520e-01,-3.41192e-01,2.10216e-01,2.04170e-01,-1.80648e-01,-1.03470e-01,2.31010e-01,-3.42680e-01,-9.94805e-03,-3.43035e-01,5.00664e-02,-2.45536e-01,-3.02549e-02,-1.37811e-01,-1.64790e-02,-8.23762e-02,-1.04817e-01,-2.45867e-01,-2.72588e-01,-2.45722e-01,-2.30015e-01,2.23792e-01,-3.21682e-01,-1.69417e-01,1.97451e-01,
-3.03632e-01,4.74601e-02,1.05591e-01,-9.33266e-02,-2.84256e-01,-3.33727e-01,-1.45569e-01,-3.25826e-01,3.31040e-01,-3.45652e-01,9.05171e-02,-1.87805e-01,-7.99041e-02,7.38747e-02,1.51583e-01,-2.70555e-01,-2.35590e-01,2.48088e-01,1.61453e-02,2.24474e-01,-2.07514e-01,2.66150e-02,-3.43900e-01,-1.04970e-01,8.74726e-02,
-8.07682e-02,6.86511e-02,-5.04666e-02,-3.09406e-01,5.62516e-03,-2.89400e-01,-2.54030e-01,-1.81591e-01,-6.36612e-02,-1.93375e-01,-3.20389e-01,-1.99037e-01,9.28752e-02,1.81419e-01,2.22868e-01,8.53836e-02,1.37541e-01,-5.24451e-02,-2.32878e-01,8.11163e-03,1.27115e-01,-3.28313e-01,-1.18740e-02,-5.41935e-02,3.09191e-01,
2.64735e-01,-9.35807e-02,-1.61281e-01,7.07959e-02,-2.63833e-01,-3.27919e-01,1.27006e-01,-1.07312e-01,-1.70067e-01,1.86482e-01,-2.85139e-01,-3.41774e-01,-9.03568e-02,-2.47826e-01,-1.30714e-01,3.43504e-01,1.56549e-01,1.63801e-01,-2.28722e-01,1.18463e-01,3.14233e-01,-9.76434e-03,-1.67470e-01,2.63319e-01,-2.01489e-01,
2.49370e-01,-3.10839e-01,3.22574e-01,-1.03641e-01,8.03868e-02,-3.61331e-01,-3.49328e-01,5.14651e-02,1.05242e-01,9.39556e-02,8.76695e-02,3.02365e-01,-2.50042e-01,1.01730e-02,2.07134e-01,-2.83165e-01,-7.28834e-02,-2.81155e-02,3.22838e-01,-1.70681e-01,9.78197e-02,-1.26305e-03,-1.82512e-01,2.24123e-01,2.63108e-01,
-4.31661e-01,-2.77608e-01,3.92319e-02,2.51207e-02,-6.85524e-02,-3.28667e-02,-2.66824e-01,-3.60353e-01,-1.97439e-01,5.66547e-02,-2.26843e-01,-3.13677e-01,-3.48005e-01,1.66309e-01,1.47364e-01,2.13256e-01,-9.50650e-02,-4.27344e-01,-4.39100e-02,-1.16286e-01,-2.03938e-01,-3.23569e-02,-6.12274e-03,9.73509e-02,-4.40324e-01,
2.83028e-01,-2.84013e-01,-2.23567e-01,2.49515e-01,-3.64522e-01,2.25356e-01,2.88099e-01,1.05589e-01,-7.72358e-02,1.95512e-01,-4.82580e-02,2.66321e-01,1.98154e-01,2.90292e-01,-8.91942e-02,-1.39212e-01,-2.38113e-01,-1.76791e-01,2.05985e-01,-1.67147e-01,-1.25683e-01,1.61865e-01,-1.84536e-01,1.91810e-01,-2.51366e-01,
3.12673e-01,-3.38866e-01,-2.43334e-01,-3.47571e-01,1.51187e-01,2.25501e-01,-2.04871e-01,2.82426e-03,-2.15545e-01,-4.37817e-02,2.35683e-01,-3.24388e-01,2.83274e-01,8.06556e-02,3.11565e-03,1.52186e-01,-2.05173e-01,1.89922e-01,-2.77695e-01,3.57867e-02,1.95977e-01,3.28124e-01,2.59202e-01,3.28617e-01,-2.05199e-01,
1.18294e-01,-2.53206e-02,-1.49644e-01,-2.13644e-01,-1.91487e-01,-8.70197e-02,1.99192e-01,-1.95625e-01,-1.60987e-01,-1.44616e-01,9.75176e-02,-8.64751e-02,2.45550e-01,-3.45436e-01,-1.97421e-01,3.14171e-01,-2.29832e-02,-2.03120e-01,2.42863e-01,1.45823e-01,1.37193e-01,1.39794e-01,-9.59950e-03,-3.94277e-02,-1.83776e-01,
-1.84258e-01,1.42220e-01,-7.74509e-02,-3.36900e-01,-1.04345e-01,-1.81370e-02,-2.49687e-01,2.71819e-01,-1.19564e-01,3.27311e-01,9.09847e-02,-2.71133e-01,-2.39365e-01,2.75453e-01,-2.30751e-02,-2.58559e-01,6.51806e-02,5.87382e-02,-2.75787e-01,-3.26756e-01,1.44740e-01,-1.10563e-01,2.98539e-01,9.81599e-03,-1.41381e-01,
1.77153e-01,-1.42364e-01,4.23098e-02,1.27081e-01,1.01354e-01,-2.11037e-01,-1.13450e-01,-2.06248e-01,-2.24087e-01,-3.42586e-01,-2.58803e-01,-8.91986e-03,-3.26353e-01,-3.18059e-01,9.61502e-02,-1.83874e-01,-2.25819e-01,-1.30893e-01,1.83313e-01,-5.95858e-02,-2.90340e-01,6.12081e-02,-3.32562e-01,2.68398e-01,1.74770e-01,
2.62793e-01,1.56447e-02,-1.07643e-02,2.46862e-01,-1.73700e-01,2.97982e-01,1.62275e-01,1.22749e-01,1.94947e-01,-2.14525e-01,2.69068e-01,1.78759e-01,-2.75565e-01,-1.88017e-01,-3.06736e-01,-1.47028e-01,-2.09136e-01,-2.71290e-01,3.94357e-02,2.71202e-01,2.78008e-01,1.90653e-01,-1.50746e-02,-1.57198e-01,-1.52563e-01,
-2.26626e-01,1.46569e-01,-8.59379e-02,2.14428e-01,3.16232e-01,2.51395e-02,-4.72025e-02,-3.07546e-01,-2.18337e-01,-2.13259e-02,-1.78594e-01,1.17853e-01,-3.42384e-01,3.07593e-01,9.17828e-02,1.84714e-01,6.98081e-03,1.57203e-01,-3.94608e-02,1.53273e-01,2.39172e-01,-8.16155e-02,2.08883e-01,4.66930e-02,-6.53082e-02,
2.30768e-01,-3.44377e-01,-5.49968e-02,-2.23354e-01,-1.56036e-01,6.22027e-02,-2.93021e-01,-2.45647e-02,1.83159e-01,-2.95205e-01,-5.28726e-02,4.65025e-02,-2.30845e-01,-1.56540e-01,-2.02134e-01,-3.18968e-01,9.29889e-03,-1.89955e-01,-2.91047e-02,1.35158e-01,4.33788e-02,1.22090e-01,-6.27356e-02,2.40846e-01,-2.11759e-01,
2.51488e-01,-2.78995e-01,1.05119e-02,3.19865e-01,-2.56107e-01,1.90434e-01,2.10939e-01,2.41189e-01,1.46014e-01,1.04367e-03,-1.39317e-01,-1.91089e-01,2.86384e-01,-3.89238e-02,3.10919e-01,2.80443e-01,2.43040e-01,-1.67277e-01,-1.88468e-02,1.59515e-01,-2.38308e-01,-1.87181e-01,1.92138e-01,-3.46963e-01,1.62219e-01,
1.95599e-01,1.34756e-01,7.59724e-02,1.86128e-01,-8.20418e-02,1.34765e-01,1.60454e-01,-2.08606e-01,3.34065e-01,-2.27212e-02,-7.78890e-02,1.01930e-01,3.30862e-01,-9.47063e-02,5.19406e-02,-2.63337e-01,1.37801e-01,3.05427e-01,2.57937e-01,2.75211e-02,-2.70716e-01,2.45667e-01,8.60539e-02,1.85214e-01,-6.35045e-02,
-7.51198e-02,-6.12600e-02,1.58394e-01,-4.24661e-01,4.16712e-02,-1.05524e-01,2.48044e-01,3.02971e-01,2.29285e-01,-1.25593e-01,1.15860e-01,-8.40754e-02,-1.59882e-01,-4.72783e-02,2.53290e-01,-2.48500e-01,-2.92806e-01,-6.55502e-01,1.36365e-01,-1.43113e-01,-2.76471e-01,5.25598e-01,-3.51352e-02,6.28430e-01,-3.12925e-01,
3.08977e-02,-1.40232e-03,4.30052e-02,-7.81874e-03,-5.66570e-02,-9.72945e-02,1.65546e-01,-2.08337e-01,7.67493e-02,3.63715e-01,-7.29356e-02,-6.19497e-02,-1.97301e-02,-1.84228e-01,-1.80693e-02,-9.88743e-02,3.25640e-01,-1.21666e-01,-3.30891e-01,-2.09670e-01,2.96642e-01,8.53985e-02,-1.65917e-01,1.43446e-01,1.66950e-01,
1.47094e-01,
2.56972e-01,
-4.87560e-03,
-3.62718e-03,
7.82231e-02,
-1.28884e-01,
-1.58428e-01,
-2.80978e-01,
-3.21226e-01,
-7.23849e-02,
-2.55601e-01,
-2.33222e-02,
1.52366e-01,
-7.22297e-02,
-2.69713e-01,
1.70679e-01,
1.53627e-02,
-3.12631e-01,
-6.87391e-02,
-6.74105e-03,
9.22803e-02,
9.68719e-02,
-1.06202e-01,
5.47665e-02,
8.11964e-02,
2.20518e-02,1.63162e-01,2.37418e-01,5.02488e-02,-1.98594e-01,4.21592e-01,2.61056e-01,3.69747e-01,-7.23875e-02,-4.30619e-01,1.32011e-01,-2.10988e-01,-2.25966e-01,8.70596e-02,6.66341e-02,-3.53971e-01,-3.24775e-01,-1.11176e-01,7.89682e-02,2.12476e-01,2.60343e-01,-2.62408e-01,-3.12490e-01,-9.82158e-02,3.15615e-02,
-1.35812e-01,8.53371e-02,-1.30795e-02,9.85128e-03,3.17816e-01,8.90686e-02,-3.43843e-01,1.48885e-01,-1.82189e-01,2.57829e-01,1.20660e-01,1.60813e-01,1.63419e-01,-2.17314e-01,-4.49541e-01,1.68717e-01,1.58931e-01,-1.68206e-01,-9.13445e-02,2.06755e-02,3.12038e-01,4.68040e-02,-8.39421e-02,1.61594e-02,3.37394e-03,
-2.70340e-01,-1.68526e-02,-4.70311e-02,-3.42164e-02,2.25973e-01,4.31470e-01,3.60637e-01,1.07439e-01,-4.02085e-01,-7.31893e-02,-3.85170e-01,-9.64652e-02,3.45334e-01,-4.01347e-01,3.06567e-01,3.76199e-01,-1.51369e-01,-1.47703e-01,-3.55245e-01,-2.74299e-01,2.03718e-01,1.39017e-01,2.71952e-01,-1.54361e-02,3.29855e-01,
-1.75013e-01,-3.15181e-01,-4.60560e-02,-1.62083e-02,-8.29955e-02,2.84728e-02,4.47041e-02,-2.77943e-01,-4.14101e-01,-1.16278e-01,-1.14039e-01,2.49073e-01,1.76324e-01,-9.70512e-02,2.22141e-01,1.52532e-02,4.21072e-01,1.00053e-01,2.90433e-01,2.22486e-01,-4.45152e-02,-1.29915e-01,1.20876e-01,4.60509e-02,2.01950e-02,
-1.36045e-01,1.69055e-01,-2.72119e-02,3.45796e-02,6.45271e-01,-2.49216e-01,9.49011e-02,-1.53402e-02,-4.18615e-01,-3.99319e-01,4.11213e-01,3.77951e-01,1.30308e-01,-2.28540e-01,1.80222e-01,2.57332e-01,-3.08130e-01,3.04450e-01,-2.14957e-01,3.48840e-01,7.05845e-02,8.22441e-02,-2.49014e-01,3.03250e-02,-1.36674e-01,
1.41215e-01,
-3.81997e-02,
-1.08391e-01,
1.66944e-01,
-6.67143e-02,
