// Neural Network File Format by Kyle Julian, Stanford 2016
6,3,5,25,
3,25,25,25,25,25,5,
0,
-56000.000000,-56000.000000,-3.141593
56000.000000,56000.000000,3.141593
-278.628049,0.000000,0.000000,-0.242819
112000.000000,112000.000000,6.283185,17.479225
-3.74511e-01,-1.26532e-01,-1.16875e-01,
8.66632e-01,2.06410e-01,-3.30046e-01,
-1.43066e-01,4.05835e-01,-4.93801e-02,
8.74157e-01,-8.10863e-01,6.12270e-02,
2.76657e-01,8.96315e-01,5.60749e-01,
2.96685e-01,1.18245e+00,4.18421e-01,
1.37679e+00,-1.17235e-01,-8.39411e-02,
7.56005e-02,1.57919e-01,-3.49505e-01,
-1.78587e+00,2.63413e-01,-3.53296e-01,
2.22560e-01,-4.51960e-01,8.27767e-02,
1.86228e-01,-1.07796e+00,3.73571e-01,
3.71823e-01,8.61779e-01,4.83616e-01,
-6.71197e-01,6.78252e-01,8.65142e-02,
-2.85526e-01,7.58888e-01,-2.29197e-01,
1.76066e+00,7.15621e-01,-1.69930e-03,
-1.54938e+00,1.67103e+00,-1.44712e-02,
-7.58398e-02,7.06786e-02,-6.61139e-03,
4.61711e-03,7.78139e-01,1.49391e-01,
-3.45995e-01,-1.03435e-01,-5.29325e-02,
1.04241e+00,1.89613e+00,-1.57160e-01,
-1.62407e+00,-1.84347e+00,-5.08369e-01,
-4.68109e-01,1.90419e+00,6.85362e-01,
-5.63873e-01,9.75403e-01,5.13756e-01,
1.54965e+00,4.95139e-01,6.22773e-01,
-9.23915e-01,-6.48245e-01,-2.46606e-01,
-3.14924e-01,
1.76933e-01,
1.73749e-01,
5.79379e-02,
-1.17713e-01,
1.00507e-01,
-8.40031e-02,
1.74782e-01,
-3.67890e-02,
1.98453e-01,
1.81537e-01,
-9.15357e-03,
2.56651e-01,
1.69530e-01,
4.31897e-03,
-8.07439e-04,
-5.49766e-02,
8.72077e-02,
7.95741e-02,
1.07572e-01,
-1.92659e-03,
2.58192e-02,
9.60676e-02,
1.76741e-02,
1.40353e-01,
-3.35839e-01,2.17094e-01,2.45083e-01,-3.38914e-01,-4.20999e-02,-1.65829e-01,-1.82678e-01,4.10067e-01,-6.56839e-01,-1.71385e-01,-1.76605e-01,4.33610e-02,1.87776e-01,3.02139e-01,2.33802e-02,-4.02736e-01,8.11399e-02,-1.25025e-01,-1.88799e-01,3.83697e-01,-1.98854e-01,-2.59208e-02,1.87712e-02,4.27471e-01,-5.32805e-01,
2.76210e-01,2.10768e-01,-3.02777e-02,-3.88859e-01,-8.97449e-01,-1.96428e-02,-1.10348e-01,4.24079e-01,3.02824e-01,-2.19956e-01,8.75748e-03,4.26197e-02,2.87665e-01,2.98474e-01,1.00387e-01,-3.36058e-02,-3.47503e-01,1.60617e-01,-7.60034e-02,-1.53391e-01,1.96811e-01,5.07804e-01,2.87615e-01,2.54787e-01,8.87246e-02,
-4.82908e-02,2.06056e-01,9.56126e-02,3.56382e-01,6.61699e-01,-4.71519e-02,-1.97710e-01,1.56850e-01,-2.06033e-01,-1.67174e-01,-1.27307e-03,1.17580e-01,-7.42838e-02,-2.33776e-01,-7.52819e-02,2.06254e-01,2.27406e-01,-2.22519e-02,1.36328e-01,-2.02909e-01,-3.89173e-01,-2.68427e-02,-3.54804e-01,-3.54577e-01,1.49829e-01,
-2.53086e-01,-2.33725e-02,-7.56085e-02,1.12725e-01,2.35660e-02,-1.97621e-01,-1.42375e-01,-2.51209e-01,-4.58677e-01,-2.78118e-01,1.54035e-01,2.74189e-01,4.16361e-01,-4.73549e-01,1.73007e-01,-3.74358e-01,9.30925e-02,7.18415e-02,2.75303e-01,4.24843e-01,4.85245e-01,-1.24827e-01,-6.64330e-01,6.53235e-02,-9.73232e-02,
-3.07371e-01,-2.99971e-01,2.51234e-01,-1.52998e-01,-7.57910e-02,-2.76564e-01,6.48464e-01,-1.84736e-02,-2.10973e-01,-2.46695e-01,2.19062e-01,-1.03453e-01,5.60912e-02,1.51242e-01,-2.32190e-02,2.38375e-01,-1.12148e-01,1.66618e-02,2.47862e-01,4.54905e-02,-4.71408e-01,4.15793e-01,1.66640e-01,-2.65997e-01,2.31104e-01,
1.81843e-02,9.22727e-02,-2.41595e-01,-2.33296e-01,-1.02721e+00,-1.05293e-01,6.92745e-01,2.04876e-01,2.39619e-02,2.81763e-01,1.00946e-01,2.37736e+00,-8.81573e-02,-2.82367e-01,-8.12259e-01,-1.29843e+00,1.19518e-01,-2.75805e-01,6.28193e-02,-4.62086e-01,-6.41077e-01,-1.21773e+00,-9.34676e-01,-1.19713e+00,-9.11538e-02,
1.69232e-01,1.70587e-01,-1.50506e-01,-2.27212e-01,-1.66163e-01,-3.16539e-01,1.36774e-01,-3.78006e-01,3.89359e-01,-1.73500e-01,1.10269e-02,-2.07845e-01,2.02515e-01,1.42182e-01,3.58749e-01,1.30099e+00,-2.92783e-01,-2.97577e-01,-5.44668e-02,-3.68299e-01,1.64913e-01,9.78870e-02,-1.39789e-01,3.14973e-01,2.19930e-01,
-2.75058e-01,-2.20729e-02,1.52081e-01,-1.89629e-01,-4.70477e-02,-4.05843e-01,-5.00448e-01,-1.80438e-01,1.11357e+00,2.90905e-01,2.32852e-01,-1.17890e-01,-2.70513e-01,-3.10896e-01,4.81564e-01,5.25017e-01,-1.41482e-01,-2.73882e-01,1.29507e-01,-2.06375e-01,3.46331e-01,-2.20371e-01,3.43297e-02,2.11799e-01,-2.94946e-01,
-5.73477e-03,-2.81779e-01,8.52128e-02,-1.07099e-01,1.96210e-01,3.82884e-01,3.61333e-01,-3.27088e-01,-2.08835e-01,-1.44836e-01,2.96315e-01,-9.61048e-02,2.69320e-01,-1.20130e-01,4.30924e-01,7.59203e-01,1.74228e-01,9.71830e-02,2.84999e-01,-3.45378e-01,-1.59718e-02,1.69639e-01,-1.89112e-01,-5.43274e-02,2.82141e-01,
-2.85698e-01,-2.73414e-01,-1.86989e-01,3.45699e-01,-4.54441e-02,2.15074e-01,-2.67327e-01,9.74686e-02,-2.11417e-01,-2.08163e-01,1.61252e-01,-1.95341e-01,1.79783e-02,9.90254e-03,3.21972e-01,1.81355e-01,-3.35313e-02,-1.91481e-01,-3.09065e-01,2.16716e-01,-8.22859e-02,9.75039e-03,-1.02257e-01,-2.10192e-01,-2.00812e-01,
1.32448e-01,3.61082e-01,3.55378e-01,3.69641e-01,5.97152e-02,-1.08902e-01,-5.75225e-01,-9.09072e-02,-2.14463e-01,2.08455e-02,1.26105e-01,-6.35984e-03,-3.04360e-01,-1.53521e-01,6.06782e-01,1.83232e-01,5.42967e-02,1.07001e-01,2.31638e-01,3.08488e-01,2.24849e-01,3.38853e-01,-2.67323e-01,1.66819e-01,-2.10546e-01,
-1.80370e-01,-1.41434e-01,-3.15216e-01,-2.71463e-01,-1.58594e-01,1.31122e-01,-4.36176e-01,-1.09996e-01,5.35523e-01,3.88167e-02,3.15115e-02,-2.58004e-01,1.02389e-01,6.97265e-02,4.76711e-01,8.18694e-02,2.09303e-01,-2.74194e-01,4.32863e-01,1.78853e-01,2.33248e-01,-2.68873e-02,2.25675e-01,5.29242e-02,1.52446e-01,
-9.14400e-02,-9.78490e-03,1.20147e-01,-2.86624e-01,-1.21428e-01,1.84328e-01,-4.68063e-01,-1.45548e-01,-2.88116e-01,1.85832e-02,-8.72936e-02,1.55818e-01,-7.43190e-02,1.44296e-01,8.04878e-01,6.22276e-01,-2.87742e-01,-2.33407e-01,-2.81874e-02,-9.88182e-02,3.25935e-01,2.50659e-01,-3.05784e-01,3.20231e-01,5.79340e-02,
-1.27147e-01,-2.56319e-01,2.51308e-01,-4.72047e-02,-7.99862e-02,-3.10215e-01,3.05020e-01,-3.10942e-01,-3.81046e-02,-1.68334e-01,-3.95773e-02,-9.35011e-02,-9.71681e-02,-2.76426e-01,-1.72588e-01,-1.41508e-01,-3.10242e-01,2.36643e-01,7.11077e-02,-1.07146e-01,-9.92054e-02,1.16117e-01,-1.41398e-01,-1.04616e-02,-2.37768e-01,
3.42942e-01,9.54127e-02,-1.24991e-01,-5.79003e-02,-4.23524e-01,4.37067e-01,7.83763e-01,5.28955e-02,-1.62046e+00,-1.05969e-02,2.28658e-01,4.96377e-01,3.80487e-01,3.06919e-01,-1.77250e+00,-4.75201e-01,9.63651e-03,1.58247e-01,4.98582e-02,3.27123e-01,-1.78405e+00,7.57584e-01,1.35467e-03,-1.33854e-01,-3.86101e-01,
-1.32077e-01,-2.70277e-01,2.23987e-01,1.81003e-01,-1.66691e-02,-1.37043e-01,-4.48179e-01,-1.07056e-01,3.27746e-01,1.04059e-01,2.98856e-01,-1.80332e-01,-3.97456e-03,-5.43669e-02,5.36588e-01,3.49469e-01,3.32423e-01,-4.51447e-01,1.42371e-01,-3.91348e-01,1.13781e-01,1.59874e-01,-2.93122e-01,-3.91462e-02,-2.51270e-01,
-1.94473e-01,-8.18315e-02,-3.31677e-01,-1.51618e-01,7.71268e-02,3.98395e-01,-4.63568e-01,1.15382e-01,-4.70572e-01,-6.23367e-02,-1.44644e-01,-5.31557e-01,2.90988e-02,2.95460e-01,2.18513e-02,1.08640e-01,3.34573e-01,1.57792e-01,2.90290e-01,3.90794e-01,7.41605e-02,-7.45047e-02,-4.06159e-02,1.48179e-01,9.87493e-02,
-4.61325e-03,2.77976e-01,-1.08795e-01,4.07833e-01,-3.27691e-02,8.31939e-02,-6.82937e-01,-7.66936e-02,1.03489e-02,1.00945e-01,6.77417e-01,1.68800e-01,-1.13088e-02,-4.00172e-01,1.70178e-01,1.56099e-01,-2.35954e-02,2.43305e-02,-3.97134e-02,2.26854e-01,4.68715e-01,-7.43633e-01,-6.81700e-02,2.30132e-01,-1.96602e-01,
1.41142e-01,-1.24302e-01,9.25659e-02,4.56844e-01,2.05294e-01,2.93394e-02,-3.62311e-01,3.11835e-02,4.29147e-01,-1.32123e-01,1.79312e-01,2.58955e-01,2.08158e-01,-4.79927e-01,-6.93673e-01,-1.86668e-03,-6.02086e-03,2.53190e-01,-2.24956e-01,-1.39396e-01,-7.65223e-01,-1.02243e-01,-3.03128e-02,5.01255e-01,4.38881e-01,
2.66822e-01,-3.50304e-01,2.42731e-01,-4.98148e-02,-2.16635e-02,4.26841e-02,-6.01361e-01,-1.01832e-01,2.85720e-01,1.22330e-01,2.26726e-02,-3.33683e-01,-2.47810e-01,-1.27753e-01,-1.62447e-01,3.80595e-01,3.43798e-01,2.19396e-01,3.47639e-01,-2.08409e-01,3.34538e-01,-1.29886e-01,2.90917e-01,3.79113e-01,5.08802e-01,
1.22615e-01,-9.26378e-02,8.20157e-02,1.10249e-01,-2.54233e-01,-7.25152e-02,2.06660e-01,-3.46568e-01,3.77033e-01,-8.27827e-03,1.92721e-01,-1.80733e-02,-7.60865e-02,-6.71399e-02,-1.20947e-02,2.35568e-01,-3.29926e-01,3.72063e-01,-2.94018e-01,-2.99467e-01,6.35464e-02,1.37234e-01,-3.55275e-01,1.57326e-01,-3.36461e-01,
-5.97287e-02,-1.63133e-02,-1.17711e-01,-2.28765e-01,1.44942e-02,-1.36513e-01,-1.59865e-01,2.27616e-01,-2.14386e-01,-3.56151e-01,-9.92530e-02,-1.37803e-01,4.48285e-02,-7.18538e-02,1.63010e-03,-3.29450e-01,-1.31157e-01,1.24415e-01,2.74532e-01,-8.50371e-02,5.75304e-02,-1.59550e-01,8.61600e-02,1.39978e-01,1.81992e-01,
3.13635e-01,-3.48768e-02,-2.20200e-01,3.55285e-01,-3.09181e-01,-4.94103e-01,-9.89047e-01,-2.61420e-02,3.25133e-01,-6.19003e-02,3.35438e-01,-3.08663e-02,1.91107e-01,-6.54664e-02,5.16706e-01,-1.92385e-02,-1.17703e-01,5.08922e-02,-1.01331e-01,1.40344e-01,3.30876e-01,2.44797e-01,1.32027e-01,3.00522e-01,2.18502e-02,
-3.68669e-02,2.05992e-01,-3.13806e-02,-1.63337e-01,7.04090e-01,1.70171e-01,-2.57848e-01,-2.29822e-01,1.53620e-01,-2.90618e-01,4.11942e-01,6.10652e-01,-3.22544e-01,-5.31627e-02,2.57243e-01,6.77688e-02,1.33167e-02,2.48110e-01,-2.93310e-01,2.76161e-01,1.94394e-01,-1.40344e+00,-6.74208e-01,-8.84751e-02,2.94280e-01,
-2.51252e-01,3.22706e-01,2.52403e-01,4.39384e-01,4.50181e-02,5.37071e-01,2.37655e-01,3.27035e-01,-7.44389e-01,2.50888e-01,-1.68419e-01,8.16591e-02,-2.40671e-01,5.63859e-02,-5.13484e-01,-3.70127e-01,2.94600e-01,-1.11561e-01,-1.07477e-01,1.50157e-01,-5.43233e-01,-3.50650e-01,1.08772e-01,-1.97665e-01,2.16897e-01,
-6.58639e-02,
-4.31936e-03,
1.41376e-01,
-1.01824e-01,
1.01817e-01,
2.93390e-01,
1.39673e-01,
9.23677e-02,
-3.16873e-02,
-3.58719e-01,
-6.04513e-02,
-2.09904e-01,
3.25147e-02,
4.30087e-02,
-1.74207e-01,
1.89657e-01,
1.14213e-01,
-1.18936e-01,
-3.16457e-02,
-1.58081e-01,
2.52518e-01,
-1.72109e-01,
-2.59166e-02,
1.12878e-01,
-7.32069e-02,
2.23428e-01,-1.23785e-01,1.21129e-01,1.22275e-01,3.02686e-01,2.30002e-01,-1.51845e-01,4.76470e-01,4.24780e-01,1.89257e-01,-4.02723e-01,2.48278e-01,-2.30694e-01,-1.86803e-02,-2.84330e-01,1.06870e-01,-1.13537e-01,1.47874e-01,1.95835e-01,-3.02651e-01,1.23459e-02,-1.64856e-01,-4.42948e-01,5.03612e-02,-9.20795e-02,
3.74136e-01,3.16844e-01,-1.54007e+00,-1.98126e-01,3.11923e-01,8.09039e-01,-2.81380e-01,1.41256e-01,-3.39423e-01,-1.95102e-01,-6.30655e-02,-1.20082e-01,9.20857e-02,1.93672e-01,1.68225e-01,4.61865e-01,-2.93855e-02,-1.60006e-01,2.19658e-01,4.07479e-02,-6.14958e-01,-1.77934e-01,7.63300e-02,3.17964e-01,-5.19868e-01,
4.09681e-01,5.46075e-03,1.81279e-01,-6.11916e-01,3.74372e-01,9.11691e-01,-1.58257e-01,-2.77824e-02,-5.15025e-01,1.16945e-01,-4.34974e-02,-3.33785e-01,5.03201e-01,-1.18399e-01,1.88856e-01,1.64876e-01,-7.61649e-02,3.15040e-02,-2.98360e-01,-1.06510e+00,-2.05608e-01,3.11021e-02,1.44528e-01,4.26561e-01,1.86044e-02,
1.08905e-01,-2.39388e-01,-2.04497e-02,-1.35754e-01,-2.84139e-01,5.02347e-01,2.05053e-01,-3.22440e-01,-8.59458e-02,-1.35979e-01,-5.13393e-02,3.10802e-01,4.45107e-02,9.92404e-02,-2.62661e-01,2.98298e-01,-2.45901e-01,-4.72698e-01,-1.40566e-01,-2.68831e-01,-1.18207e-01,-2.46655e-01,2.99919e-01,1.02877e-01,-5.22914e-01,
2.55972e-01,-1.44227e-01,5.40022e-03,-6.03557e-02,1.27520e-01,-1.95095e-01,3.36991e-01,-5.11060e-01,8.51769e-02,2.79374e-01,3.58211e-01,1.51213e-01,-4.27113e-01,2.94205e-01,-5.54265e-01,2.31135e-01,-6.61808e-02,-5.48924e-01,8.91296e-03,2.59469e-01,-1.56313e-01,2.79831e-02,2.98051e-01,3.47516e-01,-2.50885e-01,
1.88446e-01,-3.08095e-01,-5.30557e-02,-1.36984e-01,1.53078e-01,-7.88382e-02,-1.08667e-01,-2.93471e-01,-1.94116e-01,2.47323e-01,-1.64059e-01,1.52501e-01,-1.19287e-01,5.40181e-02,1.24153e-01,-2.77473e-03,-4.56452e-01,3.42086e-01,4.44981e-01,4.53746e-01,-2.36523e-01,3.44583e-01,2.76143e-01,-4.14308e-01,-5.34450e-01,
5.19922e-01,3.51429e-01,-3.48835e-01,-3.65818e-01,3.15044e-01,-5.81284e-01,3.57807e-02,-6.15812e-01,1.55430e-01,1.88225e-01,-2.61506e-01,1.01439e-02,-2.57601e-01,-2.26242e-01,4.47183e-01,-2.48345e-01,-5.78291e-02,5.14767e-01,1.42645e-01,2.33460e-01,3.37417e-01,1.10107e-01,1.55952e-01,1.12958e-01,-2.57529e-01,
2.20711e-01,-8.73272e-02,1.27328e-01,-8.67420e-02,7.86283e-02,4.10626e-01,-1.60318e-01,3.11482e-01,-4.00602e-01,3.06640e-01,6.16894e-02,-4.46785e-01,7.82983e-02,-1.83145e-01,1.25515e-01,-1.05468e-01,2.45488e-01,3.55397e-02,-1.61728e-02,3.36436e-01,2.24100e-01,-1.65976e-01,8.19284e-02,7.65084e-02,2.02867e-01,
-2.89816e-01,3.27354e-02,-1.01259e-01,2.54450e-01,-6.24127e-02,-2.90046e-01,9.29254e-03,2.50830e-01,1.14986e-01,-7.58357e-02,-2.02185e-01,1.07707e-01,-2.64459e-01,-2.45377e-01,1.19737e-01,-8.58811e-02,-9.89269e-02,-2.75248e-01,-1.15742e-01,-1.34403e-01,-1.59570e-02,1.46926e-01,-3.36786e-01,-9.68343e-02,-1.27800e-01,
1.37227e-01,1.56318e-01,-3.68572e-01,-3.40394e-01,-9.35379e-02,-6.23974e-01,7.42865e-02,-1.78889e-01,-1.31457e-01,-1.05042e-01,-7.71897e-02,2.57308e-01,3.32997e-01,8.24802e-02,3.56419e-01,-2.72754e-01,-1.57837e-01,5.42400e-02,-5.27802e-02,8.07588e-02,2.58911e-02,2.27218e-01,-1.60577e-01,-3.27085e-01,2.59098e-01,
2.27265e-01,9.73820e-02,-1.97651e-01,-7.08710e-02,-2.46293e-01,-2.49845e-01,9.46657e-02,-1.45059e-01,-2.18358e-01,2.77244e-01,1.09933e-01,-4.60958e-02,-1.21342e-01,9.57171e-02,1.38565e-01,-2.17889e-01,2.96374e-01,3.21856e-01,8.97815e-02,2.33402e-01,1.20817e-01,2.64873e-01,-1.38298e-01,-4.94007e-02,1.17494e-01,
4.11791e-01,3.12660e-01,-2.34552e-01,1.88343e-01,2.17132e-01,-3.99055e-01,-9.37947e-02,-4.06463e-01,5.22226e-01,2.99135e-01,-5.39413e-01,-1.09705e-01,1.19112e-02,1.85912e-01,-7.07523e-01,3.18015e-01,3.09497e-01,-8.93810e-01,-4.24490e-01,3.44779e-01,3.51502e-01,-3.24087e-02,2.53687e-01,1.84314e-02,-5.64273e-01,
-3.19597e-03,6.79205e-02,1.71068e-01,-9.72206e-02,1.35283e-03,-6.04089e-01,3.88767e-01,1.28808e-01,4.40197e-03,-2.83940e-01,6.55024e-02,-4.16015e-02,8.01492e-02,-7.52029e-03,5.69217e-01,1.57221e-01,3.68661e-01,4.83948e-01,-1.41774e-01,6.21694e-03,-1.49340e-01,-1.90578e-01,-3.97202e-01,-3.84753e-01,3.00280e-01,
-1.36836e-01,-2.23690e-01,2.35664e-01,-1.07682e-01,-2.48444e-02,-4.34583e-02,1.53976e-01,-1.61618e-01,4.52753e-02,-1.58145e-01,-1.84986e-01,1.82225e-01,4.12266e-01,1.77272e-01,-3.01011e-03,2.90213e-01,-1.14389e-01,2.57243e-01,3.17752e-01,-3.12675e-01,-1.34580e-01,5.71597e-02,-1.49447e-01,-1.82126e-01,1.54756e-01,
6.94559e-02,2.57743e-01,8.50252e-01,1.07111e-01,2.27507e-01,2.15712e-01,3.56371e-01,1.25076e-01,1.73610e-01,-1.18224e-01,2.90300e-01,-8.01296e-01,-3.01507e-01,1.05953e-01,5.35144e-01,-8.83072e-02,2.00704e-01,2.15536e-01,3.21323e-02,-6.33657e-01,3.04832e-01,3.89270e-02,-2.56193e-02,1.14748e-01,-6.34516e-02,
2.73879e-01,-2.83133e-01,-2.01010e-02,2.02385e-01,-2.87315e-02,-1.71061e-01,-2.73477e-01,-3.21024e-02,1.67127e-01,1.41004e-01,-2.60643e-01,2.59962e-01,-1.15776e-01,1.83237e-01,-3.42928e-01,-5.63630e-02,-2.94901e-01,-9.57328e-02,-7.02654e-02,2.63891e-01,-1.59612e-01,2.72587e-01,-3.47862e-01,2.00672e-01,-1.36984e-01,
8.26332e-02,2.38680e-01,1.83053e-01,1.61739e-01,1.77225e-01,-4.18737e-01,2.13112e-01,7.05693e-02,-1.70786e-01,2.14573e-01,1.31542e-01,-3.04449e-01,1.02820e-01,-2.67136e-01,1.88253e-01,2.45883e-01,-2.56877e-03,-7.34382e-02,-5.59724e-01,-2.55462e-03,-3.07137e-01,8.39342e-02,2.67712e-01,-2.56783e-01,-5.04798e-02,
-2.92720e-01,2.24434e-01,-1.24265e-01,1.65068e-01,5.52672e-02,5.14820e-03,-2.27990e-01,-5.78311e-03,2.28298e-01,-2.14598e-01,-2.93415e-01,5.16691e-02,-2.09344e-01,-7.76149e-02,-9.68903e-02,-3.22017e-01,-3.99835e-02,3.81772e-02,-1.38917e-01,-6.72434e-02,-1.66740e-01,4.38880e-02,2.54217e-01,1.34768e-01,-3.44827e-01,
4.26784e-01,4.02372e-01,-2.30484e-01,5.85826e-02,4.06370e-01,-7.96029e-01,3.26266e-02,-3.49250e-01,1.07261e-01,-2.70895e-01,3.10083e-02,-6.30210e-02,-1.91135e-01,2.27598e-01,2.24034e-01,9.48103e-02,7.89662e-03,8.45003e-02,-6.50733e-01,3.70616e-01,3.84763e-01,1.72897e-01,2.26682e-02,-3.29136e-01,-5.13157e-01,
3.58221e-01,-2.61998e-02,-1.23477e-01,4.88800e-01,2.62595e-02,-3.54025e-01,-3.17439e-01,4.47249e-01,2.44342e-02,-1.67925e-01,-8.61658e-02,-1.45603e-01,-1.85922e-01,2.60897e-01,1.52988e-01,1.00429e-01,2.38215e-01,2.80631e-01,2.84104e-02,3.92956e-02,-6.93371e-02,1.02260e-01,1.92165e-01,-3.31499e-01,2.01779e-01,
-1.16535e-01,-2.56696e-01,-9.71144e-02,-3.14063e-01,2.05898e-01,-1.83098e-01,-2.31960e-01,3.08295e-01,-2.61790e-01,1.60378e-01,2.53053e-01,2.93900e-01,1.99694e-01,-1.97292e-01,8.70379e-02,-1.74176e-01,-1.58147e-01,-2.95472e-01,-2.69731e-01,-3.08597e-01,2.15469e-01,1.19807e-01,1.11194e-01,-2.03817e-01,2.76724e-01,
5.16879e-01,5.60097e-01,-4.22716e-02,-1.27360e-01,2.62137e-01,-2.13077e+00,8.39614e-02,5.93649e-02,5.73332e-02,-7.01117e-02,8.61682e-02,1.33247e-01,-1.79047e-01,1.59290e-01,4.44624e-01,-4.50641e-01,-4.85856e-02,-1.77272e-01,1.89668e-01,5.72869e-01,-5.03857e-01,-2.12695e-02,-5.63546e-01,9.65385e-02,-1.72629e-02,
-6.67835e-02,2.07695e-01,-6.54476e-02,-3.31366e-01,-2.90409e-01,1.94381e-01,2.32538e-02,-1.03755e-01,-8.60172e-02,2.39093e-01,1.11082e-01,7.94460e-02,-2.35802e-01,1.84929e-01,-7.64239e-01,3.17674e-01,-1.22411e-01,-2.95263e-01,-1.87262e-01,-3.21970e-01,2.10759e-01,-1.69443e-01,1.02003e-01,6.17544e-01,4.44882e-02,
4.33594e-01,-3.25901e-01,-6.23958e-02,-1.67179e-01,-2.18835e-01,-8.43361e-02,3.48795e-01,-3.63366e-01,-3.54779e-02,6.70448e-02,8.31277e-02,-7.79237e-01,-3.34650e-01,1.22955e-01,1.27527e-01,1.43103e-01,-4.61779e-01,9.38720e-03,-2.09032e-01,-1.47504e+00,1.91858e-01,7.84908e-02,-1.28489e-01,2.37550e-01,-3.82964e-01,
-1.89044e-01,-4.70111e-01,-7.26176e-02,3.65903e-01,-3.58387e-01,-3.45221e-01,-2.97762e-01,-3.92854e-01,-5.32959e-01,-3.23624e-01,2.07135e-01,6.97868e-01,3.79464e-02,-1.43009e-01,-2.12482e-01,4.52098e-01,3.12749e-01,1.73987e-01,-2.41094e-01,1.93935e-01,1.27919e-02,-4.90011e-02,3.32168e-01,-2.75364e-01,3.82831e-03,
2.80738e-01,
-1.73823e-01,
-3.44213e-02,
2.59922e-01,
1.84372e-01,
-4.46447e-02,
-6.10865e-02,
1.37441e-01,
-3.50333e-02,
2.44297e-01,
7.14682e-02,
-1.47742e-01,
-7.86651e-02,
9.46660e-02,
-4.98985e-01,
1.27655e-01,
1.30419e-01,
-1.09508e-01,
-5.16316e-02,
2.36618e-02,
-3.00117e-01,
-2.25161e-01,
1.03835e-01,
2.12197e-01,
1.07220e-01,
2.29901e-01,-1.68727e-01,-1.01658e-01,-4.57328e-01,2.26139e-01,-7.63224e-01,5.49303e-02,-2.61187e-01,-1.89218e-01,-1.84848e-01,-2.59112e-01,-1.43514e+00,-1.13972e-02,4.44859e-01,1.48602e-01,-2.63463e-01,-4.67305e-01,1.11569e-01,-5.49239e-01,-1.73584e-01,-2.30092e-01,-8.77284e-01,-4.48825e-01,5.88490e-02,-3.20583e-01,
1.98328e-02,-1.84884e-01,1.17828e-01,-2.43428e-01,9.10582e-02,-1.16766e-01,-9.45431e-02,6.53462e-02,-1.18432e-01,-2.76234e-01,-1.92537e-01,2.35218e-01,1.08008e-01,-1.34433e-01,-2.75423e-01,2.43336e-01,-1.41634e-01,-5.01955e-02,3.13563e-01,3.22051e-01,1.71152e-01,-1.46001e-01,2.57244e-01,-3.10218e-01,-2.77174e-01,
-1.64748e-01,-3.03832e-01,-9.61785e-01,-5.70096e-02,1.11848e-02,-4.25815e-01,-1.14819e-01,9.45271e-02,2.88752e-01,-3.71941e-02,7.84475e-03,-7.94890e-04,-3.10256e-01,6.68110e-03,-7.77635e-01,2.69016e-01,-4.01979e-01,-7.96593e-02,-4.95638e-01,-2.27982e-01,-3.00900e-01,5.08562e-01,7.97756e-02,-3.81532e-01,-3.66827e-01,
6.29147e-02,-5.23895e-01,-2.76270e-01,-1.59486e-01,3.51938e-01,2.90109e-01,1.18987e-01,-1.83450e-01,-3.46984e-01,2.43142e-01,-1.16821e-01,-5.41173e-01,4.01248e-01,-7.06057e-02,-1.33769e+00,-3.24575e-01,9.87200e-02,-1.96813e-02,4.06849e-01,2.53898e-01,-5.38181e-02,2.49693e-01,-2.90089e-01,-2.99920e-01,-1.47311e-01,
1.88060e-01,-2.46673e-01,-1.94329e-01,1.35329e-01,1.31021e-02,2.74558e-01,3.97765e-01,1.91484e-01,3.16139e-01,-1.47880e-01,1.64385e-01,-2.29792e-02,-4.95313e-02,3.14032e-02,2.99145e-01,-2.27563e-01,3.42058e-01,3.04512e-01,2.74981e-01,-2.40856e-01,-2.53463e-03,8.21450e-02,3.29393e-01,-1.43962e-01,3.48390e-01,
2.11905e-01,7.78374e-02,3.70935e-02,2.61092e-01,-1.08477e-01,-1.72017e-01,-1.03351e-02,3.03177e-01,2.09136e-01,-2.65227e-01,1.11250e-01,1.39620e-01,-1.79013e-01,3.20254e-01,3.09212e-01,-2.99026e-02,2.21272e-01,2.01798e-01,-9.69286e-02,-8.76613e-02,7.15064e-02,-8.48471e-02,7.24091e-02,-4.45751e-02,-3.20787e-01,
-1.67902e-01,5.65778e-02,3.45625e-02,4.29356e-01,-2.75693e-01,-4.72721e-01,1.93782e-01,3.23525e-01,1.88467e-01,-8.30853e-03,-1.61259e-01,-1.66322e-01,2.64675e-01,1.62740e-01,-3.17098e-01,-1.93889e-01,3.55284e-01,2.13463e-01,1.43729e-01,-1.38375e-01,2.13763e-01,-3.21661e-01,-1.54895e-01,3.65643e-02,-6.07202e-02,
-1.33591e-01,-1.73413e-01,1.84111e-01,-3.04631e-01,6.19707e-02,-3.43100e-01,-1.13288e-01,-3.28858e-01,3.42368e-01,2.98431e-01,1.83486e-01,-2.03099e-01,-1.93097e-01,2.97403e-01,8.91573e-02,-1.93123e-01,-6.88969e-02,8.96999e-02,2.51259e-02,1.58378e-02,1.71327e-01,-5.20869e-02,-1.94907e-01,-2.11561e-01,-2.06535e-01,
9.67088e-02,-3.96520e-01,2.16489e-01,3.66548e-01,4.30864e-01,3.33980e-01,3.94247e-01,1.85708e-01,2.42155e-01,-2.38147e-01,-2.55924e-01,-5.71227e-01,-2.33020e-01,-6.49173e-02,-2.95311e-01,4.90046e-02,1.85409e-01,1.39875e-01,4.01201e-01,-2.72268e-01,2.34369e-01,6.16842e-02,3.64727e-01,4.23614e-01,4.65252e-01,
1.63018e-01,-4.34467e-01,-2.70337e-01,-2.91397e-01,2.78273e-01,1.92587e-01,2.63646e-01,2.93647e-01,-2.34414e-01,3.46153e-01,3.09077e-03,-3.39436e-01,1.31325e-01,3.83520e-02,-1.18733e-01,-4.16753e-02,2.54440e-01,3.03850e-01,3.96014e-01,-1.00024e-01,-2.65826e-01,7.58344e-02,-3.74720e-01,-8.99112e-02,-1.84355e-01,
-4.20223e-02,-5.49492e-01,-1.89062e-01,-3.09654e-01,1.08926e-01,-1.03925e+00,-3.03649e-01,-2.56720e-01,-1.71695e-01,-1.03477e-01,2.81150e-01,6.77874e-02,2.93148e-01,7.12573e-02,-1.34962e-02,-1.13164e-01,1.05616e-01,-2.45843e-02,-9.03221e-02,-4.78985e-02,1.55340e-01,-2.01625e-02,-7.39369e-02,-1.24296e-01,1.13144e-01,
-1.57097e-01,5.17801e-01,-3.73957e-01,1.94563e-01,3.72027e-01,5.48378e-02,-2.40627e-02,3.20262e-01,1.30501e-01,-1.00504e-02,-7.97568e-02,-2.05463e-01,7.99854e-02,-2.05924e-01,5.57723e-01,-2.94312e-01,3.68980e-02,1.67422e-01,3.54343e-01,6.14549e-03,-2.69390e-01,8.26844e-03,1.06554e-01,-1.00157e-01,4.32632e-01,
1.09518e-01,-1.86315e-01,1.35257e-01,2.13080e-01,-2.94990e-02,-5.93303e-02,-2.10257e-01,1.15603e-01,2.20527e-01,-2.48557e-01,2.71532e-01,9.80591e-02,1.26470e-01,2.86805e-01,2.80960e-01,2.23745e-01,1.78026e-01,3.36057e-01,-3.22411e-01,2.33368e-01,-1.47431e-01,-1.10360e-02,-7.24562e-02,-2.28916e-02,-4.63510e-01,
-3.12674e-02,1.49225e-01,2.80322e-01,2.01164e-01,-2.80705e-01,-4.89686e-01,-9.67132e-01,1.21462e-01,1.24853e-01,-9.98200e-02,-3.15790e-01,3.32257e-01,-3.40944e-01,-8.37498e-02,-9.75080e-03,2.15132e-01,-3.54869e-01,-2.92599e-01,-7.41595e-01,-4.73137e-01,1.62337e-01,-1.08731e-01,-5.49273e-02,2.47034e-01,-9.79226e-02,
9.80676e-02,4.51680e-01,2.92854e-01,-1.12648e-01,-1.46061e-02,6.55812e-02,9.90296e-02,-2.19110e-01,1.49461e-01,-8.33682e-02,1.84861e-01,1.89139e-01,-8.60597e-02,1.55959e-01,2.91199e-01,1.90458e-01,-2.07126e-02,-1.15337e-01,-6.45996e-02,-5.29225e-02,1.51063e-01,1.51864e-01,9.18996e-02,1.81405e-01,1.73701e-01,
3.53641e-01,2.56989e-01,-1.30045e-02,1.57215e-01,-3.26318e-01,1.84981e-01,-1.29546e-02,-4.03659e-01,1.03197e-01,-2.86837e-01,-1.14603e-01,-1.57897e-01,-1.11998e-01,1.56768e-01,-8.37716e-01,2.59525e-01,-2.16503e-02,-1.86692e-01,-1.12469e-01,1.64516e-01,-2.65706e-01,-6.58580e+00,-5.44443e-01,1.09662e-01,-3.11304e-01,
2.75165e-01,-1.99750e-01,1.14808e-01,-3.23127e-01,2.17421e-01,3.37820e-02,-2.96088e-01,-1.45506e-01,-1.16241e-01,-1.77010e-01,2.26583e-01,2.39905e-01,-3.69153e-01,1.07522e-01,1.08312e-01,4.92294e-02,1.53537e-01,-8.24285e-02,-1.90009e-01,-2.85579e-01,1.80332e-01,2.45141e-01,1.51472e-01,-2.68718e-01,-3.06486e-01,
-4.15146e-01,-5.06410e-01,-2.88240e-01,1.66383e-01,5.61696e-02,3.45191e-01,2.57752e-01,-1.05120e-01,-2.38168e-01,-1.30736e-01,1.16016e-01,-4.72132e-01,-6.93658e-02,-9.16054e-02,5.42561e-02,3.16350e-01,9.48308e-02,-2.33772e-01,4.78780e-01,1.00030e-01,-2.17772e-01,5.34503e-01,1.36307e-01,-2.12724e-02,5.40228e-01,
-1.50865e-01,4.26109e-01,-8.43412e-02,-5.47681e-02,-2.47868e-01,3.55845e-02,1.83083e-01,8.22350e-02,1.55373e-01,2.43457e-02,2.88273e-02,1.88511e-01,1.11600e-01,2.44616e-01,-1.20449e-01,-3.18738e-01,3.54745e-01,5.94861e-02,-1.66480e-01,1.93821e-01,3.28585e-01,-4.71392e-01,-1.69023e-01,-1.41692e-01,1.00393e-01,
-1.42916e-01,-3.67523e-01,-2.89048e-01,-6.75367e-02,1.43185e-01,6.04945e-01,4.01596e-01,1.51106e-01,-1.23042e-01,2.19170e-01,-9.93257e-02,-4.00078e-01,-1.41043e-01,-2.29615e-01,3.90792e-01,2.23819e-01,3.25534e-01,1.79146e-01,4.88191e-01,-1.94095e-01,-5.72721e-02,3.62690e-01,1.15975e-01,-2.40775e-02,6.99104e-01,
-1.49874e-01,-4.01231e-01,-2.12997e-01,5.92331e-02,-1.13296e-01,2.91514e-01,4.89022e-02,1.64542e-01,2.88415e-01,-8.94868e-02,1.92166e-01,9.12875e-02,2.95663e-01,-1.83204e-01,1.24363e-01,1.27252e-01,2.21151e-01,-2.88880e-02,-1.04277e-01,1.51513e-01,2.14238e-01,3.16133e-01,2.43397e-02,-6.81062e-02,4.13666e-01,
1.80760e-01,-2.05457e-02,-6.81279e-02,-5.99843e-02,2.63668e-01,1.43928e-01,2.42228e-01,6.22145e-02,2.70848e-01,-1.46393e-01,-2.24922e-03,-1.87036e-01,-4.39022e-01,2.29464e-01,6.70788e-01,-7.37148e-02,2.52567e-01,-9.53912e-02,3.05409e-01,-8.26470e-02,1.91975e-01,4.76977e-02,3.32533e-01,-6.27375e-02,-1.92834e-01,
-1.99366e-01,-1.18741e-01,8.83628e-02,1.34570e-01,-1.05750e-01,3.17448e-01,2.14219e-01,-1.35910e-01,2.03422e-03,-2.98543e-02,-3.16460e-01,-3.33707e-01,-2.97630e-01,7.20122e-02,-2.06980e-02,1.99585e-01,-2.21497e-01,-2.25039e-01,-2.75119e-01,2.50958e-02,4.00182e-02,2.78435e-01,2.06655e-01,-1.05317e-01,-1.66395e-01,
-2.49357e-01,-1.34247e-01,-3.37036e-01,1.41945e-01,-2.12284e-01,3.83737e-02,5.88187e-02,-1.51736e-01,-1.86746e-01,-2.86982e-01,1.09168e-01,-1.12833e-01,-2.42799e-01,-3.38847e-01,8.35995e-02,-1.86183e-01,-2.53650e-01,-3.14046e-01,1.43832e-01,9.93074e-02,1.93508e-01,1.07071e-01,2.98511e-01,3.02177e-01,1.02655e-01,
-2.49839e-01,-5.09352e-01,4.70133e-01,-5.90933e-02,-3.49357e-01,-1.08073e+00,-1.67520e-01,-9.36878e-02,1.77023e-01,-9.42285e-02,-3.30708e-01,3.21981e-01,1.66198e-01,1.68206e-01,-3.99073e-01,-3.30908e-01,1.47611e-01,6.28458e-02,-2.81667e-01,3.77135e-01,3.72501e-02,9.84513e-02,6.87203e-02,-2.06359e-01,-4.66225e-01,
1.46168e-01,
-3.02041e-01,
2.41667e-01,
-7.70958e-02,
-1.68564e-01,
1.51518e-02,
-1.14287e-01,
-6.71065e-02,
-1.40254e-01,
2.56259e-02,
2.33858e-02,
-5.61764e-02,
9.46759e-02,
1.80444e-01,
-4.49405e-01,
7.73531e-02,
-2.82686e-01,
1.37311e-01,
3.06332e-01,
-1.31396e-01,
2.90772e-01,
-1.18435e-01,
1.43591e-02,
-1.54167e-01,
1.56918e-01,
2.29571e-01,9.67431e-02,-2.44220e-01,-2.30528e-02,2.64635e-01,-2.02921e-01,2.45737e-01,2.74749e-01,4.14094e-01,2.13135e-01,2.10880e-01,1.55400e-01,5.26199e-02,2.30644e-01,3.25951e-03,4.35124e-01,-9.52605e-02,3.65553e-01,-8.71137e-02,-1.86420e-01,-1.90241e-01,1.08391e-01,9.17233e-02,1.37601e-01,-2.21647e-01,
-1.90915e-01,8.19814e-02,2.23764e-01,-6.86842e-02,1.62534e-01,-1.21051e-01,2.94352e-01,3.37101e-01,-3.27951e-01,-6.56392e-02,1.94564e-01,1.42722e-02,8.42679e-02,-6.77533e-02,1.62840e-01,-2.11807e-01,-1.09147e-01,2.71239e-02,2.64546e-01,-9.99978e-02,-1.47208e-01,-2.04632e-01,9.06211e-02,-3.17698e-01,-2.82108e-01,
-1.57569e-01,2.42958e-01,-1.81555e-01,-9.00815e-02,1.03628e-01,2.65593e-01,-9.19455e-02,-4.89119e-02,4.80564e-02,8.86435e-02,-8.05519e-02,9.84114e-04,2.67574e-01,-2.93754e-02,2.38806e-01,1.90072e-01,-2.00024e-01,-1.04194e-01,3.08025e-01,3.26863e-01,2.43363e-01,-3.01567e-02,2.75447e-01,-5.84328e-02,4.26624e-03,
7.35397e-01,2.92747e-01,-1.08060e-01,2.45122e-01,5.42182e-01,-3.81046e-01,2.12440e-01,2.43989e-02,3.48397e-01,-8.90114e-02,2.37736e-02,1.66636e-01,-2.00856e-01,-6.01533e-01,1.42108e-01,2.80338e-01,-8.77758e-02,1.54870e-01,-6.53473e-02,-4.92081e-03,-4.10743e-01,-1.32833e-01,2.12015e-01,2.70271e-01,2.66492e-01,
2.52106e-02,-1.21868e-01,-2.84437e-01,-7.68879e-02,-5.47565e-02,3.33426e-01,3.13401e-01,1.61817e-01,3.08563e-01,1.89876e-01,1.67801e-01,1.09375e-01,-3.07696e-02,7.56556e-02,1.33412e-01,5.53925e-01,-8.95208e-02,1.16969e-01,3.71533e-01,5.56083e-02,3.28863e-01,3.41212e-01,-3.45869e-01,-3.34227e-01,-2.34995e-01,
6.89161e-04,-1.21034e-01,-3.55673e-01,-2.56533e-01,5.25013e-02,-2.14874e-01,-2.52232e-01,-7.60034e-02,-2.85562e-01,2.68910e-01,3.09806e-01,2.23853e-01,-3.55982e-01,2.30454e-01,1.47494e-01,2.66974e-01,9.65983e-02,1.59723e-01,-2.75035e-01,-3.50613e-01,-3.23544e-01,1.34565e-02,3.67469e-02,7.31474e-02,2.70669e-01,
-7.33248e-01,8.72892e-02,1.69429e-01,-9.98067e-02,1.61206e-01,-4.44089e-02,1.16498e-01,-4.33292e-02,-4.02981e-01,3.41694e-01,4.37375e-02,-7.45445e-02,1.30354e-01,1.31692e-01,6.78145e-02,-3.67145e-01,-2.74992e-01,-1.98738e-01,4.25225e-01,2.69208e-02,1.57886e-01,-3.92818e-01,1.04498e-01,-2.78232e-02,-6.93861e-02,
3.67827e-01,-5.63512e-02,-4.02770e-01,9.23140e-02,-1.36417e-01,4.02666e-01,-1.22935e-01,2.53532e-01,-1.92276e-01,-2.69163e-01,-7.21780e-02,-2.19892e-01,-3.27959e-03,-7.11024e-01,-1.79561e-01,-2.32194e-01,2.71931e-02,-1.78807e-01,2.53990e-01,5.46850e-01,-1.29918e-02,-1.40319e-01,9.87649e-03,2.54088e-01,2.55045e-01,
3.11611e-01,-9.26248e-02,-4.47076e-03,9.35776e-02,-2.22983e-01,-2.47434e-01,-2.03848e-02,2.02147e-01,-2.76568e-01,-1.87109e-01,-1.04218e-01,2.82247e-02,2.30661e-02,5.41049e-02,-3.19741e-01,1.83063e-02,2.82340e-01,-3.55604e-01,1.16518e-01,1.24315e-01,1.70579e-01,-3.23031e-01,2.71638e-01,-1.91140e-01,2.55235e-01,
-1.42662e-01,-6.54614e-03,2.80559e-02,1.38206e-01,-1.05137e-01,-2.05772e-01,-2.04629e-01,3.27745e-03,-2.22754e-01,-1.41030e-01,-2.15318e-01,-2.68171e-01,3.13433e-01,-2.38178e-01,7.44418e-02,-1.10253e-01,-2.17327e-01,3.01895e-01,-2.68378e-01,2.87685e-01,-1.71313e-01,-1.44931e-01,1.37929e-01,-3.39503e-01,4.76915e-01,
-2.15553e-01,-1.73938e-01,2.36969e-01,-2.55244e-01,-1.20874e-01,3.35953e-01,1.60209e-01,2.42438e-01,-2.67939e-01,2.53283e-01,1.05665e-01,-1.36047e-01,6.86766e-02,1.47024e-01,2.22637e-01,-6.22004e-01,2.29251e-01,-1.43506e-01,3.38176e-01,8.20156e-02,1.68197e-01,-1.18314e-02,2.43750e-01,-3.76532e-02,1.42165e-01,
-1.94746e-01,3.05927e-01,-1.73917e-01,1.12145e-01,1.24790e-01,-1.76968e-01,-2.93401e-01,-1.66864e-01,-3.04825e-01,-1.62510e-01,-3.67802e-01,2.33037e-01,-2.58326e-01,2.45486e-01,6.65563e-02,7.06203e-01,-1.24331e-01,3.48341e-01,-1.77276e-01,-7.42313e-01,2.04149e-01,-1.12738e-02,-1.43656e-01,1.11533e-01,1.14942e-01,
-2.02930e-01,9.03849e-02,-3.71943e-01,-2.19152e-01,-1.89209e-01,1.05505e-01,-1.34146e-01,-2.11372e-01,-9.08160e-02,-1.77255e-01,3.89566e-01,-5.45836e-01,-3.35798e-01,2.92613e-01,-2.72760e-01,-1.46336e-01,-3.15281e-01,6.71540e-02,4.46932e-02,-1.41803e-01,-1.12832e-02,2.01940e-01,1.52985e-01,-5.70652e-02,-7.88070e-02,
-3.12682e-01,1.02294e-02,3.32283e-01,-3.20945e-01,3.02249e-03,-1.57712e-02,1.15325e-02,7.69301e-02,1.19750e-01,2.24455e-01,2.04303e-01,-1.41623e-01,-1.20784e-02,-2.80204e-02,-2.36669e-01,-1.20844e-01,-2.76967e-01,-6.93043e-02,-1.28598e-01,-1.71467e-01,1.09987e-01,3.22395e-01,2.77010e-01,3.08905e-01,1.19390e-01,
-3.96188e-01,9.49886e-02,3.26658e-01,-4.24579e-01,1.01769e-01,2.60359e-01,2.70900e-03,-9.57868e-02,1.73293e-01,1.07371e-01,1.72713e-01,-8.91767e-02,3.33815e-01,1.95573e-02,-5.54886e-02,9.05054e-02,-2.74354e-01,-1.70631e-01,2.15955e-02,2.91580e-02,2.39132e-01,-1.33062e-01,1.70534e-01,1.67007e-01,-1.18174e-01,
-2.55952e-01,-7.66958e-02,-2.01344e-02,-1.09224e-01,-2.35052e-01,1.83230e-01,2.26837e-02,-1.85268e-02,-2.15110e-01,3.27913e-02,-1.11719e-01,-5.07328e-02,-1.36422e-01,1.91149e-01,1.48380e-01,-2.43208e-01,-1.81281e-01,1.83845e-01,-2.68436e-01,-2.85922e-01,1.53449e-01,1.17513e-01,-1.81600e-01,-1.98248e-01,-7.78337e-02,
-3.24436e-01,-2.64600e-01,-3.19432e-01,-2.34125e-01,4.32664e-02,-2.84674e-01,1.99769e-02,1.28847e-01,-1.58467e-01,3.55467e-01,-1.25137e-01,-2.73447e-01,1.21496e-01,-2.25094e+00,1.84025e-01,-4.26675e-01,-1.98843e-01,4.11768e-02,3.20102e-01,-2.77252e-01,2.79647e-01,-5.12676e-02,1.83542e-01,-1.91367e-01,1.46341e-01,
-8.40175e-02,1.33392e-01,-1.86736e-01,-5.75140e-02,-3.56847e-01,-3.01154e-01,-1.46605e-01,2.70185e-01,-1.18231e-01,-3.14098e-01,-2.44012e-01,-8.64489e-02,-7.48555e-02,2.22550e-01,-3.26133e-01,2.10162e-01,1.72846e-01,6.12644e-02,1.08453e-01,1.95172e-01,2.10460e-01,2.47111e-01,1.53693e-01,-9.62586e-02,-2.10498e-01,
1.00536e-01,7.90632e-03,1.36114e-01,-3.36942e-01,-1.27920e-01,1.36156e-01,9.64546e-02,-2.93330e-01,-2.28305e-01,-3.11631e-03,3.44267e-01,-1.80318e-01,1.61337e-01,-6.93243e-02,1.72100e-01,-6.27250e-02,1.93167e-01,-3.00569e-01,-3.08282e-01,7.95842e-02,-3.15790e-01,-2.48997e-01,-2.92301e-01,-3.35289e-01,-1.72994e-01,
-1.36222e-01,2.05365e-01,3.25325e-01,-1.98718e-02,3.44381e-01,-1.66440e-01,2.11204e-01,6.96719e-02,-1.70592e-01,-1.98411e-01,-8.02734e-02,-1.95750e-01,-3.06165e-01,-2.48510e-01,9.68474e-02,-5.67709e-02,3.77213e-02,-3.46068e-01,-1.97389e-01,1.06217e-01,2.84361e-01,1.87772e-01,-2.39713e-01,-9.20522e-03,-1.52804e-01,
1.46228e-01,3.10548e-02,-2.56315e-01,-7.54602e-02,-9.99874e-02,-2.82129e-01,-1.75935e-01,-3.23922e-01,-2.61367e-01,-2.22895e-01,-9.23955e-02,-1.24841e-01,-2.62066e-01,3.32904e-01,-2.82066e-01,2.45830e-01,2.94319e-03,8.60106e-02,2.81926e-01,-2.18742e-03,3.59157e-02,-2.01459e-01,1.84210e-01,2.48058e-01,2.57322e-01,
-5.91209e-02,-2.45212e-02,-1.76136e-01,-3.94131e-01,-1.52423e-01,-8.14800e-02,2.43673e-01,8.50720e-02,-2.49549e-01,1.62009e-01,6.19834e-02,1.34328e-01,-2.17745e-01,3.46115e-01,-2.53198e-01,2.83785e-03,-1.19273e-03,-5.06281e-02,4.85598e-02,7.28222e-02,2.05764e-01,3.94372e-02,-1.56269e-01,-4.38968e-02,-1.28696e-01,
5.76155e-01,-2.13150e-01,-6.43964e-01,4.88712e-01,-7.23584e-02,1.22491e-01,9.84164e-02,-1.75182e-01,6.46289e-01,2.25501e-02,5.13836e-02,1.45047e-01,-3.10781e-01,-1.35774e-01,1.23544e-01,1.01352e+00,1.77300e-01,3.94818e-01,7.59804e-02,6.55969e-02,7.91267e-02,4.20440e-01,-1.28538e-01,4.42640e-02,-2.21778e-01,
-7.27101e-02,1.83907e-01,-1.10010e-02,-1.62092e-01,-3.71391e-02,-1.62254e-01,2.42692e-01,-1.67651e-01,-1.51061e-01,1.31411e-01,-2.58044e-02,-3.16974e-03,-2.47734e-01,3.35122e-01,-1.07705e-01,1.56474e-01,1.65986e-01,-1.37248e-01,1.23801e-01,3.77942e-02,3.81070e-01,9.78806e-02,-1.96858e-01,6.01726e-02,1.12876e-01,
1.81617e-01,3.06486e-01,2.03781e-02,-2.12558e-02,2.08207e-01,-2.60685e-01,5.54538e-01,-1.31878e-01,-1.77902e-01,2.23534e-01,1.15180e-01,-1.24622e-01,-2.28462e-01,4.68743e-01,2.91755e-01,-4.92662e-01,9.96136e-03,-3.25492e-02,2.63781e-01,-5.24949e-02,2.16121e-01,-1.07953e-01,-1.90790e-01,-2.66718e-01,8.89732e-02,
2.42809e-01,
-1.78602e-01,
-2.82912e-01,
1.60371e-01,
3.02241e-01,
1.44779e-01,
-2.15881e-01,
3.16089e-01,
-7.11908e-02,
-6.49842e-02,
1.81869e-02,
1.38620e-01,
1.50607e-01,
-2.98202e-01,
6.24745e-02,
2.35489e-01,
-2.37133e-01,
-1.42983e-01,
1.07941e-01,
-1.30956e-01,
-7.09883e-02,
3.79211e-02,
-1.51111e-01,
3.79924e-01,
-1.31934e-01,
1.76292e-01,-4.30936e-01,-1.85569e-01,-7.89476e-02,4.79108e-01,1.49693e-01,-8.16675e-02,9.79879e-02,-2.72515e-02,-2.12265e-01,-2.32096e-01,-5.54281e-02,-5.62772e-03,2.56073e-01,-1.71453e-01,-1.82295e-02,3.88838e-02,1.56848e-02,-1.11103e-04,4.15875e-01,1.37641e-01,-3.69343e-01,-3.32016e-01,3.33196e-01,-1.47159e-02,
1.09518e-01,4.69819e-01,3.13303e-01,-1.23871e-01,5.98838e-02,3.49180e-01,-3.23326e-01,-1.37980e-01,3.66667e-01,1.04903e+00,-2.55125e-01,4.35643e-02,6.53820e-02,-2.50855e-01,-2.91625e-01,-4.24865e-01,7.00242e-02,-3.98433e-01,-3.32823e-01,-3.31067e-01,-3.77449e-01,1.29530e-01,-3.98585e-01,-4.24363e-01,3.78778e-01,
2.63970e-01,-2.97713e-01,1.43005e-01,-1.62170e-01,2.36351e-01,4.55024e-01,-2.50987e-02,7.32514e-02,-3.81374e-01,4.67018e-01,-4.05838e-01,-7.45454e-02,2.09239e-02,4.16372e-01,-3.24469e-01,9.47022e-02,-3.22097e-02,-3.99210e-01,2.81660e-01,-4.10298e-01,1.18888e-01,-2.19713e-01,-4.17546e-01,2.69490e-01,1.14271e-02,
-4.90038e-01,-7.83893e-02,1.63027e-01,-5.26142e-01,2.15639e-01,-4.29373e-02,-5.66659e-01,-2.18894e-01,-3.07419e-01,5.99124e-01,-2.37093e-01,-1.71569e-01,-4.11758e-03,-7.55684e-02,-2.96783e-01,1.47246e-01,-6.27948e-01,4.26241e-01,8.06978e-02,1.97565e-01,-4.29446e-02,-1.34667e-01,-7.78533e-02,1.50462e-01,7.94057e-01,
1.26565e-02,-4.67301e-02,-9.08321e-02,3.05026e-01,2.22013e-01,-4.56903e-02,8.51201e-02,-3.66842e-01,-6.49091e-02,2.05223e-01,-1.94666e-01,2.25102e-01,-9.49016e-02,3.86861e-01,-1.98874e-02,6.79474e-02,2.64309e-01,3.67355e-01,-1.28755e-01,2.37790e-01,-4.35655e-01,4.27783e-02,-2.96905e-01,6.10859e-02,-6.17227e-02,
-4.22116e-01,
3.98545e-01,
-1.89782e-01,
1.31461e-01,
-2.01390e-02,
