// Neural Network File Format by Kyle Julian, Stanford 2016
6,3,5,25,
3,25,25,25,25,25,5,
0,
-56000.000000,-56000.000000,-3.141593
56000.000000,56000.000000,3.141593
-278.628049,0.000000,0.000000,-0.242819
112000.000000,112000.000000,6.283185,17.479225
-2.76587e-01,-9.40332e-02,-2.21613e-02,
9.46746e-01,-4.00895e-01,-8.33527e-03,
-1.51107e+00,1.08894e+00,5.28842e-01,
6.10678e-02,1.14887e-01,6.63531e-02,
-1.06558e+00,1.82104e+00,4.12471e-01,
-1.17197e+00,-2.19818e-01,-2.76871e-02,
-2.54434e-01,-1.53276e-01,2.07053e-01,
-4.72862e-02,-6.65204e-01,-4.18429e-02,
1.27209e+00,2.17812e-01,-1.76506e-02,
3.68527e-01,-5.22427e-01,-5.74783e-01,
-1.04526e+00,1.37834e+00,-2.49853e-02,
-5.95318e-01,-6.16218e-01,-4.31807e-02,
-1.98992e-01,-6.64260e-01,2.99691e-01,
3.58147e-01,-1.07002e-01,-2.28510e-01,
-4.50008e-02,-5.97537e-02,5.37101e-01,
-9.98032e-01,1.58501e+00,1.80186e-03,
-1.12468e-01,-8.83171e-01,-2.55614e-01,
1.10625e+00,-1.77387e-01,9.76446e-02,
-3.20889e-01,-2.98618e-01,1.66192e-01,
1.58811e-01,1.09395e-01,-8.61041e-02,
-1.38293e+00,-9.73109e-01,-1.37216e-01,
3.27175e-01,-2.85745e-01,4.14597e-02,
1.01745e-01,8.69593e-01,3.00071e-01,
-3.37519e-01,-6.42750e-01,-5.49350e-01,
8.79005e-01,-1.51835e-01,4.43169e-01,
1.40900e-01,
-1.09385e-02,
-1.17874e-01,
-3.35631e-01,
1.29820e-01,
-6.16175e-02,
2.19531e-01,
8.67674e-02,
-2.25637e-03,
1.58701e-02,
-2.62636e-02,
3.12352e-01,
3.17685e-01,
-3.22765e-01,
2.87520e-01,
1.67122e-03,
2.35978e-01,
5.04026e-02,
1.66111e-01,
-2.67671e-01,
9.08127e-02,
-2.53909e-01,
3.03958e-01,
-1.45546e-02,
-4.33002e-02,
-7.23261e-02,-6.86946e-01,-5.64929e-01,2.78263e-01,4.02674e-01,1.09401e+00,4.54753e-02,4.38247e-02,1.02199e+00,-8.58894e-02,-1.24649e+00,9.95450e-02,-6.80294e-02,5.26119e-02,-9.36079e-03,5.20258e-01,8.27309e-02,1.30075e-01,-2.77783e-01,3.01381e-01,-4.08023e-01,1.30230e-03,-2.06316e-01,4.46205e-02,2.89801e-01,
1.24992e-01,-1.79414e-01,4.35695e-01,-1.06618e-02,-6.78434e-01,-1.00107e+00,-1.42984e-01,3.11995e-01,7.90331e-01,8.09861e-01,-1.01472e-01,1.09505e-01,2.21048e-01,2.67466e-02,1.94141e-01,2.03430e-01,2.67362e-01,-4.63115e-01,3.35620e-01,2.27346e-01,1.07754e-01,3.11538e-01,-1.27426e-02,1.31654e-01,-9.53492e-02,
-2.59899e-01,2.52826e-01,-3.11064e-01,3.36085e-01,-3.01374e-01,-7.53665e-02,-1.49416e-01,-1.00288e-01,-3.93040e-01,-2.39795e-02,3.17060e-01,-5.61983e-02,-6.79469e-02,-2.92442e-01,4.83516e-02,-1.43153e-01,-2.07742e-01,1.07716e-01,-7.21832e-02,-1.67209e-01,1.50747e-01,-3.00463e-01,1.33113e-01,1.92631e-01,2.02737e-01,
-2.59513e-01,-5.03544e-01,1.20932e-01,1.06041e-01,-4.85469e-01,-2.67783e-01,-1.56018e-01,3.34451e-01,1.83992e-01,-1.03407e-01,6.31759e-01,1.44657e-01,-4.27156e-02,-2.75093e-01,2.62221e-02,-1.50740e-01,3.22075e-01,3.41843e-01,2.54995e-01,-2.08077e-02,-1.53235e-01,2.93959e-01,4.73343e-02,1.72364e-01,1.10095e-01,
1.16513e-01,-4.73308e-01,2.46813e-01,-9.06804e-02,4.06656e-01,3.32904e-01,-1.20165e-01,6.20694e-02,6.11287e-01,-5.17918e-02,1.89422e-01,6.13083e-02,3.01711e-01,-6.05772e-02,-1.91123e-01,6.18809e-02,1.07034e-02,1.20456e-02,-8.54055e-02,-1.20382e-01,-1.24750e-01,-3.20877e-01,-2.45649e-01,3.87514e-01,-2.57346e-01,
-2.38338e-01,4.06775e-02,1.68959e-01,-2.25338e-01,8.97959e-03,-1.12672e-01,-3.39365e-01,-2.05311e-01,-7.70366e-02,-1.10385e-01,-2.72945e-02,-1.13001e-01,-2.29413e-01,-1.31960e-01,-2.39646e-01,-2.13983e-01,-3.14258e-01,-1.09560e-02,3.30368e-02,-6.79455e-02,-7.17181e-02,1.11783e-01,2.05214e-01,-1.48245e-01,4.13959e-02,
-3.28218e-01,-2.80900e-01,2.14395e-01,-2.63883e-01,-2.58333e-01,2.74555e-01,-3.77692e-01,-7.54600e-02,2.86671e-01,-2.27850e-01,1.97626e-01,-2.68467e-01,-4.84802e-02,2.97740e-01,-2.16809e-01,8.48113e-02,1.89039e-01,-3.02198e-01,2.14927e-01,-3.06654e-01,-1.14042e-01,2.18623e-01,-1.96984e-01,-3.10554e-01,3.03677e-02,
3.07303e-01,4.96352e-01,-5.45944e-01,-2.64311e-01,5.05185e-01,1.19561e+00,-5.55348e-02,-1.70833e-01,-5.46274e-01,6.65728e-01,-8.55724e-01,4.89857e-02,-2.93921e-03,1.90561e-02,3.04746e-01,-6.90421e-02,-3.26689e-01,2.47396e-01,-9.80280e-02,1.43649e-01,-4.10653e-01,1.58768e-02,1.53128e-01,-4.74698e-01,-2.69526e-01,
9.94572e-03,-1.95265e-01,3.94545e-02,1.98177e-01,-2.07554e-01,-2.51409e-01,1.79404e-03,2.86613e-01,-3.13804e-01,2.56533e-01,-2.88619e-01,2.29820e-02,-2.75040e-02,2.41869e-02,-2.27627e-01,-5.12532e-02,2.12754e-02,2.47579e-01,1.48468e-01,-3.04219e-01,-1.21078e-01,-2.79130e-01,-2.96604e-01,-2.10693e-02,1.64543e-01,
-5.25904e-03,3.25841e-01,7.07248e-01,-3.12390e-01,-1.82408e-01,1.32474e-01,-2.80839e-01,2.15427e-01,-1.03704e-01,-5.97571e-02,3.34371e-01,2.56699e-01,-1.64443e-01,3.31740e-01,5.12558e-02,-6.12077e-01,3.36298e-02,1.35295e-01,-2.79142e-01,-1.51270e-01,-4.45264e-01,6.44642e-02,1.26040e-01,-1.45037e-01,-6.96514e-01,
-5.18762e-02,2.81947e-01,2.65259e-01,-1.70774e-01,3.80464e-01,6.27764e-01,8.95798e-02,-4.35501e-01,3.88930e-01,2.96777e-01,-1.52315e-01,-7.67194e-02,-4.60826e-02,2.11132e-02,-1.73051e-01,4.60987e-01,-3.19895e-01,-1.91322e-01,3.12224e-01,-3.32812e-01,7.28421e-01,-1.73867e-01,3.08120e-02,1.20411e-01,6.01629e-02,
1.47324e-01,3.39165e-01,-7.87349e-02,-1.88239e-02,-3.40085e-01,-3.82343e+00,-1.68491e-01,-3.58395e-01,3.60811e-01,-5.43401e-01,8.34463e-02,-2.73880e-01,1.14822e-01,1.67367e-01,9.74587e-02,6.15987e-01,3.13482e-01,4.85760e-01,1.11922e-02,-2.85981e-01,2.49868e-01,7.27141e-02,-2.22668e-01,-3.57749e-01,-1.00333e-02,
-2.75266e-01,-2.71842e-01,2.99698e-01,-6.46373e-02,-2.42430e-01,-7.71636e-03,-9.61741e-02,2.14170e-01,3.47882e-02,-2.39490e-01,7.99924e-02,-3.13918e-01,-3.17220e-01,-1.38746e-01,-1.82598e-01,-3.33815e-01,-2.86345e-01,-3.32841e-01,-1.38294e-01,1.56788e-01,-2.58804e-01,-2.40110e-01,2.98157e-01,-1.78320e-01,-1.85197e-01,
3.14759e-01,-1.30773e+00,1.99079e-02,-3.03933e-01,-5.07021e-02,2.92201e-01,3.67984e-03,-2.20751e-02,9.09616e-01,3.95074e-01,-7.44721e-01,3.53698e-01,-3.15926e-01,5.57867e-03,-3.37606e-01,1.28843e-01,-1.19208e-01,-1.23418e-02,-7.14107e-02,-2.46294e-02,-1.29967e-02,5.07995e-02,-2.79691e-01,-7.64421e-01,5.66413e-01,
4.12810e-02,-3.52715e-02,-4.01428e-01,-2.33814e-01,3.03361e-02,4.89952e-01,3.30673e-01,1.16833e-01,2.68915e-01,1.87013e-01,4.09998e-01,3.42454e-02,9.26515e-02,2.11490e-01,3.80130e-01,3.95561e-01,-2.56888e-01,-3.85610e-02,4.45452e-01,-2.58196e-01,-5.81156e-02,5.07362e-02,-2.77115e-01,-1.56566e-01,-6.91787e-02,
-7.40370e-02,-5.87737e-01,-2.97444e-02,-1.52615e-01,1.59554e-01,4.20923e-01,1.32612e-01,-2.26612e-02,3.76200e-01,1.63082e-01,-3.59219e-01,1.19975e-01,-1.17129e-01,-2.05165e-01,1.79670e-02,-1.50380e-01,2.72966e-01,-1.97705e-01,2.76915e-01,1.29951e-02,-5.70403e-02,1.45830e-01,1.85133e-01,-1.77768e-01,1.45816e-01,
1.37543e-01,6.57762e-02,2.19547e-01,-3.28907e-01,-4.06606e-02,2.22329e-01,-5.27338e-02,-8.12056e-02,-3.34562e-01,-2.74591e-01,1.20332e-02,-1.24699e-01,1.66852e-01,1.22437e-01,1.89512e-01,-2.24843e-01,2.42153e-01,-4.06368e-02,-1.38140e-01,-3.23046e-01,-3.25266e-01,3.88838e-02,2.78676e-01,-2.87787e-02,-2.02161e-01,
4.57334e-02,1.73769e-01,1.06692e-01,-1.04732e-02,-2.42578e-01,-1.02740e-01,-1.11218e-01,-6.57779e-02,2.68645e-01,-1.06792e-01,-3.29694e-02,-3.78111e-01,2.02683e-01,8.75689e-02,-2.56019e-01,-1.70494e-01,3.09972e-02,-1.02600e-01,1.65742e-01,2.00540e-01,-3.23013e-01,2.44269e-03,3.11544e-02,-4.32418e-02,2.31687e-01,
6.97142e-02,-7.57452e-01,-1.57145e-01,-2.06120e-01,5.59930e-02,-6.24348e-01,2.83594e-01,-2.42979e-01,8.85535e-01,-1.40562e-01,4.92255e-01,1.06185e-01,3.45945e-01,3.25772e-01,3.53243e-01,8.24686e-01,5.31182e-03,2.75926e-01,-1.24267e-01,-1.32836e-01,2.87405e-01,2.07525e-02,1.75407e-01,5.15956e-01,-4.50983e-01,
-2.00445e-01,1.25427e-01,-4.51464e-01,-1.12171e-01,2.54572e-01,2.86799e-01,-7.00158e-02,-1.87783e-01,3.12407e-02,-3.81917e-01,3.67763e-01,1.53769e-01,-2.05657e-01,-5.99355e-04,3.27886e-01,3.12531e-01,-3.34690e-01,-1.02696e-01,1.91328e-01,1.33793e-01,1.33707e-01,1.70192e-01,-2.08334e-01,-3.44046e-01,1.34787e-01,
4.24234e-02,9.14036e-02,7.47820e-02,-2.46902e-01,-1.79345e-01,-2.48287e-01,3.02162e-01,-9.64667e-02,2.28829e-01,3.08642e-01,1.95719e-01,-1.87688e-01,3.29130e-01,-2.34821e-01,2.48910e-01,2.71905e-01,2.63597e-01,-2.70794e-01,-2.56007e-01,5.88163e-02,-1.54752e-01,-2.67005e-01,-2.97165e-01,-5.40448e-01,-6.01891e-02,
1.63852e-01,-7.04677e-01,-2.42586e-01,-9.33969e-02,2.90501e-01,-5.07910e-01,2.43448e-01,4.11633e-02,5.31431e-01,-1.23371e-01,6.75337e-01,-8.40474e-02,2.01813e-01,3.31172e-01,-2.71699e-01,-2.01588e-01,1.56706e-01,-2.03355e-01,-3.62287e-02,3.42975e-01,6.56529e-02,4.01136e-02,-4.72685e-01,-7.05247e-01,2.72152e-01,
-2.18286e-01,2.01570e-01,3.13908e-01,-7.21689e-02,7.76855e-02,-5.36995e-01,2.72894e-01,-1.65544e-01,-4.33261e-01,-3.94211e-02,5.09053e-01,7.10176e-02,-3.61409e-01,1.66830e-01,1.50826e-01,-1.49992e-01,2.41159e-01,3.04665e-01,2.10089e-01,-1.15272e-02,-4.61318e-02,-3.19946e-01,-1.19519e-01,-1.00091e-01,1.51458e-01,
2.41193e-01,-2.82845e-01,3.83218e-02,2.21387e-01,2.81943e-02,-7.94480e-04,3.21723e-01,-3.81858e-01,7.14188e-01,7.56258e-02,-1.07057e+00,-1.73246e-01,-1.47852e-02,2.56092e-01,-2.82459e-01,5.98565e-01,-8.43543e-02,-2.99696e-01,1.28191e-02,3.02813e-01,1.58811e-02,9.58274e-02,2.11122e-01,2.40993e-01,-5.41896e-01,
-2.82777e-01,2.17444e-01,-1.09801e-01,-2.97159e-02,1.77673e-01,5.85027e-01,-2.47075e-01,-2.26468e-02,-2.80385e-01,2.65125e-01,4.22409e-01,-3.17791e-01,2.42246e-01,-3.25653e-01,1.56531e-02,-1.15212e+00,-1.20768e-01,3.64175e-01,-2.82168e-01,1.90809e-01,1.47575e-02,4.29389e-02,2.14722e-01,4.00579e-01,-3.45367e-02,
1.89829e-01,
-8.93315e-02,
-1.00482e-01,
-1.39144e-02,
1.35941e-01,
-2.38903e-01,
8.55686e-02,
-1.33201e-01,
-2.86650e-01,
1.91399e-01,
-1.52949e-01,
-6.44523e-02,
-3.30750e-01,
2.34630e-01,
-3.16321e-03,
-4.52004e-02,
-3.15525e-01,
-2.92143e-01,
-2.85733e-01,
-4.34864e-02,
-2.85103e-01,
2.35695e-01,
2.23842e-02,
2.94492e-01,
1.46971e-01,
-3.37976e-01,-6.71563e-02,6.77231e-02,-2.20363e-01,-1.25354e-02,8.17256e-02,1.82011e-01,-3.01624e-01,-3.13936e-01,-8.71917e-02,1.68555e-01,3.27817e-01,8.70380e-03,-3.02631e-01,-2.05802e-01,2.69305e-01,5.43196e-02,-1.44610e-01,-2.35261e-01,-2.65108e-01,-2.52956e-01,1.86119e-01,-1.90343e-01,-1.89044e-01,1.57532e-02,
-1.77109e-01,2.88265e-01,-3.40199e-01,2.50551e-01,-1.29679e-01,1.12024e-01,-1.36410e-01,5.30229e-01,2.50490e-01,-2.10906e-01,-8.74004e-02,5.97851e-02,-2.91674e-01,5.05620e-02,3.28088e-01,3.53836e-01,2.67231e-01,-2.93430e-01,4.86297e-01,-4.80076e-01,-1.10092e-01,1.81016e-01,5.12537e-02,2.75406e-01,-6.11082e-03,
2.24694e-01,-3.33809e-01,1.44077e-01,-2.07100e-01,3.33187e-03,-2.52025e-01,2.74983e-01,-2.06036e-01,1.04687e-01,-1.61219e-02,-2.56268e-01,2.69270e-01,-2.93060e-01,2.38583e-01,-2.83504e-01,-6.89702e-02,-2.05897e-01,-2.94231e-01,-2.80162e-01,-2.65856e-01,-1.50963e-01,2.03252e-01,-5.68734e-02,-2.61790e-01,-3.19150e-01,
2.85032e-01,2.77533e-01,-5.27840e-02,6.09734e-03,-3.59476e-01,-1.94606e-01,-3.03234e-01,-2.16069e-01,6.86091e-02,1.67268e-01,-2.73255e-02,7.96100e-02,-1.91162e-01,1.10509e-01,-2.90489e-01,1.94598e-01,4.52473e-02,-2.12610e-01,-1.80549e-01,1.19925e-01,-3.36387e-01,1.46038e-02,1.98382e-01,-2.80220e-01,-9.25457e-02,
-1.46155e-01,2.37931e-01,3.08562e-01,3.38003e-01,4.75411e-02,2.74442e-01,-2.77501e-01,-2.14538e-01,1.22393e-01,1.24497e-01,2.35531e-01,1.01238e-01,3.31612e-01,7.04782e-02,5.23339e-02,2.02320e-01,1.52524e-01,1.48481e-01,-1.21952e-01,-1.69447e-01,2.24083e-01,2.28607e-01,-2.85264e-01,9.41756e-03,-5.58633e-02,
3.06203e-02,-3.06121e-01,2.02225e-01,1.07723e-01,3.17501e-01,-4.91993e-02,1.92703e-01,5.96633e-02,-1.46872e-01,3.21491e-01,-3.91493e-01,2.79722e-01,-1.82014e-01,-9.06916e-02,-1.82906e-02,2.70508e-01,-2.82145e-01,1.28825e-01,4.23667e-01,-1.44013e-01,1.12419e-01,-3.47954e-01,-1.40688e-01,2.04943e-01,4.29387e-02,
-5.61011e-03,3.72240e-01,2.55479e-01,2.64742e-01,3.33211e-01,-2.92657e-01,8.84331e-02,-1.03256e-01,-2.03596e-01,-6.59670e-02,-3.91347e-01,1.99516e-01,-1.81533e-01,3.47751e-01,1.67430e-01,-2.01718e-01,8.13027e-02,-1.03326e-01,3.42695e-01,-6.14817e-02,1.04368e-02,-1.38096e-01,-7.12911e-02,2.96796e-01,-3.28115e-01,
2.61743e-01,-2.05591e-01,-8.12861e-02,-7.13088e-02,4.83305e-01,-3.27683e-01,1.40898e-01,1.01586e-01,2.20392e-01,3.73895e-01,-3.24621e-01,-1.96300e-01,3.44492e-01,-2.12017e-01,3.00581e-01,-3.06069e-02,1.05281e-01,-2.25242e-01,3.89199e-01,-2.94987e-01,3.87064e-02,1.70988e-01,-1.68824e-02,8.51316e-02,3.17269e-01,
3.79162e-01,2.36919e-01,-3.13903e-01,-2.19390e-01,2.73229e-01,2.35778e-02,2.89591e-01,-1.96060e-01,1.54185e-01,-4.59546e-02,-2.49241e-02,-2.93641e-01,-8.78988e-02,3.39543e-01,-8.32201e-02,6.56229e-02,7.44578e-02,-2.76448e-01,4.05043e-01,-1.64814e-02,3.33819e-01,2.05414e-01,-2.89496e-01,4.74662e-02,-2.12747e-01,
-1.70807e-01,1.63238e-01,8.82304e-02,-1.40311e-01,1.18030e-01,-9.10468e-02,2.00763e-01,-2.75713e-01,1.43978e-01,5.18695e-02,-1.47183e-01,1.92962e-01,-2.64466e-01,2.19226e-01,2.30076e-02,-3.31405e-02,2.10811e-01,-8.75617e-02,-3.36212e-01,3.20991e-01,-2.58485e-01,2.56289e-01,-9.99636e-02,-2.29839e-01,2.87384e-01,
-4.91615e-02,1.03485e-01,-3.12817e-01,2.67018e-01,7.69664e-02,-1.45109e-01,-6.79322e-02,1.88904e-01,1.02888e-01,3.83725e-01,-2.50558e-01,-2.57141e-02,1.24919e-01,1.73328e-01,4.03837e-01,1.67568e-01,4.48091e-03,1.64660e-01,1.26697e-01,-7.44931e-02,9.56281e-02,3.52598e-01,-8.42639e-02,-6.15916e-02,-3.34226e-02,
-1.00748e-01,3.22392e-01,3.10530e-01,1.94817e-01,1.37889e-01,-2.29808e-01,2.61983e-01,-3.43945e-01,-1.07438e-01,-4.00037e-02,2.14081e-02,-3.37364e-02,-1.72165e-01,-4.84397e-01,3.90775e-02,2.52027e-02,-4.53524e-02,-1.92276e-01,-1.60313e-01,3.47865e-02,-4.79258e-04,-8.91781e-03,1.79931e-01,-1.62404e-01,6.38018e-02,
-2.08148e-01,-1.14893e-01,1.80040e-01,-2.96681e-01,2.00457e-01,-1.35125e-01,-3.01745e-01,1.24440e-01,-3.40858e-01,3.36977e-01,-3.25855e-01,2.73093e-01,-1.28264e-02,-8.69827e-02,3.49962e-02,3.15113e-01,8.85957e-03,-1.10826e-01,-1.56698e-01,-1.50250e-01,-2.33458e-01,7.25668e-02,-1.42194e-01,-2.21903e-01,-1.82572e-01,
-2.91527e-01,-1.13457e-01,2.59139e-01,-2.86916e-01,1.65651e-01,2.27713e-01,3.27137e-01,-2.83431e-01,-1.78099e-01,3.31470e-03,-3.20716e-01,-2.10536e-01,1.25890e-02,1.60892e-01,-1.98128e-01,-2.97574e-01,1.71954e-01,5.56839e-02,-4.59865e-02,-1.23795e-01,-1.20734e-01,1.10264e-01,-2.23439e-01,-2.26575e-01,-7.74142e-02,
1.90257e-01,1.48051e-02,-1.04118e-01,5.72246e-02,1.68403e-01,-2.22413e-01,-1.61820e-01,4.84720e-01,-3.18167e-01,2.60592e-01,2.87739e-01,-4.24011e-01,2.18940e-01,3.38442e-02,-3.57440e-01,-2.20067e-01,-6.22431e-02,-8.52360e-02,-2.56897e-01,8.84575e-02,-1.17298e-01,2.47894e-01,-3.35981e-02,-2.83890e-01,3.00308e-01,
2.12832e-01,2.46178e-01,7.21333e-02,-2.10169e-01,-3.03391e-01,1.07216e-01,2.27053e-01,1.28192e+00,-1.38434e-01,1.33998e-01,6.69028e-02,-4.34740e-01,3.12638e-01,3.59034e-01,-4.28479e-01,2.13873e-01,-1.93168e-01,3.29114e-01,-4.99439e-01,-6.40107e-01,2.90456e-01,1.43168e-01,-3.25492e-01,1.83156e-01,-3.31159e-01,
-1.19405e-02,2.36416e-01,-2.94696e-01,-1.76661e-01,-8.00876e-02,1.14245e-01,3.83857e-02,-2.08008e-01,2.12172e-01,3.38777e-01,-2.96136e-01,1.92760e-01,2.22812e-01,-2.75425e-01,-1.35549e-01,-2.99975e-01,-7.61092e-02,5.85655e-02,-9.86519e-02,5.98658e-02,1.59796e-01,-4.34161e-01,-5.82814e-01,1.09886e-01,9.32964e-02,
1.72994e-01,3.80586e-01,-1.56920e-01,1.08816e-01,-4.34058e-02,-2.00687e-01,1.09214e-01,4.42879e-01,-5.19554e-02,-2.01972e-01,-3.54501e-01,-4.06588e-01,-2.12360e-01,-7.94462e-02,1.97786e-02,-2.90306e-01,3.03262e-01,2.07593e-01,-2.18969e-01,2.62779e-01,-3.64745e-01,-2.08194e-01,-7.57510e-02,1.98966e-02,4.16487e-01,
-1.31512e-02,-2.91861e-01,7.39793e-02,-4.19021e-01,-6.58384e-02,-2.37775e-01,-9.89974e-02,1.01469e-01,1.82317e-01,-5.24720e-01,1.46201e-01,1.41329e-01,7.86966e-03,9.40525e-02,1.01497e-01,1.29961e-01,5.01114e-02,1.32863e-01,1.46376e-01,-4.92974e-01,-1.07526e-01,2.77644e-01,-1.80640e-01,-1.07482e-01,1.70741e-01,
6.75845e-02,-3.98490e-01,3.44161e-03,4.26726e-01,3.05239e-03,1.32388e-01,1.91328e-01,1.53826e-01,-1.30874e-01,-1.11429e-01,-1.19488e-01,-4.04025e-01,2.38364e-01,2.21187e-01,-1.55621e-01,1.91052e-01,2.67163e-01,1.14525e-01,-3.12999e-03,-8.72724e-02,1.78868e-01,1.51735e-01,2.45030e-01,9.36591e-02,3.59821e-01,
-3.00309e-01,-3.25051e-01,4.29901e-03,-1.82696e-01,-4.58503e-02,1.42927e-01,-7.96562e-02,-2.52122e-02,-1.80059e-01,-1.98236e-01,-1.31782e-01,6.38399e-02,-7.95171e-02,2.70427e-01,2.12573e-01,5.39062e-02,6.62469e-02,2.05924e-01,-1.26485e-01,2.87171e-01,3.10579e-01,3.06059e-01,9.79930e-02,-8.77056e-02,-3.14865e-01,
1.38353e-01,-1.36592e-01,-1.31589e-01,2.93024e-01,-4.95543e-02,-3.06866e-02,-1.21094e-01,-2.53017e-01,-1.22835e-01,-3.89109e-01,2.02654e-02,-1.88437e-02,-9.02865e-02,2.65537e-01,1.14442e-01,-3.27064e-01,-2.90177e-01,-2.30932e-01,-2.88717e-01,1.26054e-01,2.33106e-01,1.85006e-01,3.41759e-01,-3.83147e-01,-2.37626e-01,
5.38891e-02,1.26645e-01,2.96808e-01,-1.86973e-01,7.86042e-02,-3.26508e-01,2.84204e-01,1.71545e-01,-1.10982e-02,1.06961e-01,5.19329e-03,-1.39375e-01,2.48344e-01,2.70418e-01,-3.72160e-01,-3.11943e-01,5.47972e-03,3.12577e-01,-3.15283e-01,1.62879e-01,3.19055e-01,-4.45722e-02,-2.51675e-01,-2.02245e-02,-2.43362e-01,
-4.20923e-01,2.01291e-01,7.29584e-02,-3.24562e-01,-2.05173e-01,-2.99063e-01,-9.35045e-02,3.45314e-01,2.05620e-01,-2.04064e-01,8.43889e-02,4.99824e-01,3.41788e-01,1.01665e-01,1.81643e-01,1.08221e-01,1.64528e-01,1.99597e-01,-1.90849e-01,6.49308e-02,1.19600e-01,1.47292e-01,-2.41225e-01,-1.74917e-01,1.20812e-01,
-6.19856e-01,-9.78537e-02,3.34583e-02,-2.51748e-02,-2.15547e-01,-1.18484e-01,-2.67755e-01,-6.26973e-01,8.17883e-02,4.72889e-02,-3.91510e-02,-1.14178e-01,2.90713e-01,-6.41875e-01,1.22156e-01,-2.17790e-01,2.10085e-01,-1.03978e-01,-6.05742e-02,1.75428e-01,3.36293e-01,-4.05349e-01,6.25277e-02,2.02415e-01,3.86552e-01,
-3.11008e-01,
-2.02236e-01,
-1.99389e-01,
-2.38274e-01,
-2.05949e-02,
8.13005e-02,
-4.35913e-03,
-2.30138e-01,
2.25169e-01,
1.95911e-01,
-1.62414e-01,
2.78422e-01,
-2.94023e-01,
-9.40732e-02,
1.42876e-01,
9.60372e-02,
-5.80663e-02,
5.08043e-02,
1.57405e-01,
2.76059e-02,
-2.29928e-01,
2.22582e-01,
-9.98361e-02,
3.15898e-01,
3.11473e-01,
-2.99224e-01,1.65617e-01,3.28503e-01,2.26227e-01,-1.84033e-01,-1.37841e-01,5.13218e-02,-1.18757e-01,1.87889e-01,5.42509e-02,1.41512e-02,2.97501e-01,1.23812e-01,1.51351e-01,-2.70374e-01,-4.17273e-01,-1.79849e-01,1.09982e-01,-4.45354e-02,-2.96301e-01,3.43261e-01,-3.98063e-02,2.84573e-02,-7.40300e-02,-2.03521e-01,
4.14441e-02,-2.06961e-01,1.44964e-01,2.95407e-01,-2.81178e-01,-7.52182e-02,-1.66099e-01,7.72849e-02,-2.96990e-01,2.21353e-02,-2.25037e-01,2.76191e-01,2.11743e-01,-1.65883e-02,3.27107e-01,-6.11553e-01,2.81693e-01,-3.93892e-01,7.63204e-02,1.13236e-01,1.68764e-01,-3.07349e-01,-3.57124e-01,-2.08210e-01,1.16539e-01,
5.51288e-02,-2.05511e-01,7.24326e-02,-1.27854e-01,-2.06812e-01,1.56626e-01,2.52683e-01,1.88517e-01,-7.26393e-02,-3.14739e-01,-2.95330e-01,1.26971e-01,1.23526e-01,-1.29568e-02,-2.72390e-01,-2.14212e-01,-5.87104e-02,-1.14009e-01,2.68083e-01,-1.24238e-01,-3.46724e-02,9.15526e-02,-2.25137e-01,-1.84460e-01,-2.36786e-01,
-5.24950e-02,-1.22668e-01,-7.90652e-02,-3.26977e-01,-6.59044e-02,-1.55259e-01,-2.42904e-01,3.30153e-01,2.36312e-01,4.42713e-02,-4.28389e-02,4.73223e-02,2.55101e-01,1.86184e-02,-3.80836e-02,-2.39315e-02,3.01723e-01,-3.27467e-01,-1.60066e-01,1.92884e-01,-1.59559e-01,9.10072e-02,2.89455e-01,-1.16089e-01,-2.16982e-01,
-8.37353e-03,4.19174e-01,-2.15538e-01,3.16409e-02,-2.30569e-01,3.19463e-01,-3.31295e-01,3.18978e-01,-1.73155e-01,1.54424e-01,-1.53498e-02,-2.02376e-01,6.37150e-02,2.85670e-01,-3.06467e-01,4.52560e-01,-7.09758e-02,-7.80259e-01,4.61401e-01,-1.97604e-01,-2.03702e-01,-1.78234e-01,-2.74583e-01,2.49477e-02,-9.79831e-02,
3.31051e-02,-3.87037e-02,-1.98886e-01,-3.22596e-01,-1.46943e-01,2.05038e-03,1.44957e-01,-3.08139e-01,3.95236e-01,-2.22446e-01,3.04720e-01,7.31395e-02,7.61801e-02,2.72057e-01,1.60531e-01,-2.75188e-01,-5.41221e-02,4.28933e-01,2.36100e-01,9.75181e-02,1.41438e-01,-1.56742e-01,-1.73355e-01,4.11312e-03,1.74318e-01,
3.33254e-01,3.27787e-01,-3.21220e-01,-2.22840e-01,4.87649e-02,-2.08782e-01,-5.98237e-02,6.03903e-02,3.25297e-02,3.90169e-01,2.48421e-01,2.54260e-01,-3.32066e-01,-2.55383e-01,1.70753e-01,-1.23299e-01,5.31704e-02,-1.18710e-01,-2.55566e-01,-2.84418e-01,2.89053e-01,-6.51440e-02,-1.44103e-01,3.10439e-01,2.67726e-01,
2.18167e-01,-3.97096e-01,5.55708e-02,2.22486e-01,1.17173e-02,-3.80802e-01,-2.23810e-01,-4.48714e-01,1.03842e-01,2.44501e-01,9.83807e-02,-3.68857e-01,-1.38792e-01,-4.67967e-02,1.67715e-01,-7.35363e-02,4.63670e-01,4.72146e-02,4.05269e-01,2.76689e-01,-1.19410e-01,2.09838e-01,-9.33173e-02,-3.75176e-01,-2.11625e-01,
-2.00538e-01,6.14644e-02,-1.42206e-01,-2.90288e-01,-1.23954e-01,1.20554e-01,-1.84719e-01,-3.45073e-01,-2.33464e-01,-7.62931e-02,-5.00030e-04,2.33527e-01,-9.90110e-02,1.65835e-01,-2.07211e-01,7.47013e-02,1.28229e-01,7.54544e-02,-1.40584e-01,2.93824e-01,-2.97074e-02,8.44499e-02,-1.19996e-01,-1.00118e-01,-2.41837e-01,
-1.91075e-01,1.49685e-01,2.54015e-01,1.84063e-01,-1.05527e-03,-2.42888e-01,-1.32845e-01,2.36166e-01,-2.29541e-01,-9.87941e-03,-3.27403e-01,-2.39448e-01,-7.87045e-02,-2.21382e-01,-3.20073e-01,-1.90751e-02,2.75364e-01,-1.53891e-01,2.32882e-01,2.41125e-01,-1.13026e-01,2.78754e-01,-2.89742e-02,-1.06081e-01,-1.21327e-01,
-3.33964e-01,-1.74366e-01,3.33161e-01,-3.05179e-01,-1.26234e-01,9.74074e-02,6.41671e-02,-9.71974e-02,-1.61975e-01,-2.71534e-01,3.78546e-03,-2.91874e-02,-2.49320e-01,3.35530e-01,1.84046e-01,1.36211e-02,1.82392e-02,-1.96399e-01,-1.12107e-01,-2.29921e-01,2.38326e-01,1.62704e-01,-7.76647e-02,1.54589e-01,-2.56136e-01,
-5.32523e-02,-6.64202e-02,1.82889e-01,1.70246e-01,4.24658e-02,-1.08286e-01,1.09404e-01,-2.35410e-01,-9.64296e-02,2.80981e-01,-3.31900e-01,8.91613e-02,-7.58600e-02,2.75741e-01,2.42162e-01,-2.62940e-01,-1.10747e-01,-2.60497e-02,8.65700e-02,8.04112e-02,-4.68687e-02,-1.42475e-01,2.43281e-01,-3.24014e-01,2.63755e-01,
-1.88593e-01,2.34406e-01,-7.75501e-02,1.66986e-01,-2.11389e-01,-3.23049e-01,3.85478e-02,1.65433e-01,1.73183e-01,1.29009e-01,1.86635e-01,1.06635e-01,1.61738e-01,7.29077e-02,9.84099e-02,-1.65184e-01,4.02826e-01,7.21719e-02,-2.67853e-01,-2.44485e-01,9.14641e-02,-1.63000e-01,-1.12309e-02,-1.94413e-01,-1.57069e-01,
3.30742e-01,-9.20478e-02,1.51345e-01,-2.60161e-03,2.85420e-01,2.69015e-01,6.04871e-02,-1.35785e-01,1.29489e-01,1.87286e-01,4.00764e-01,1.83310e-01,1.96778e-01,2.06842e-01,-2.56021e-02,-1.77463e-01,-1.75307e-01,2.83736e-01,-3.15339e-02,1.00877e-01,1.12183e-02,1.30155e-01,2.77986e-01,1.61475e-01,4.03302e-01,
3.82560e-02,-4.15502e-02,2.68129e-01,1.76242e-02,1.12706e-01,3.30310e-01,-8.07500e-02,1.92214e-01,3.46059e-01,-3.20141e-01,-2.59473e-01,-5.96500e-02,-3.09790e-01,-3.07366e-01,-9.64149e-02,2.80383e-01,-8.95535e-02,-1.94764e-01,3.55996e-01,3.03577e-01,4.51407e-02,2.43186e-01,2.26747e-01,-4.60516e-02,7.24736e-02,
5.58263e-02,-2.12251e-01,-2.40411e-01,-1.71733e-01,2.18092e-01,-2.88417e-01,-5.06074e-02,-7.14891e-02,4.79985e-02,8.87922e-02,-3.18293e-01,1.24983e-01,-1.13472e-01,-2.98322e-01,3.11045e-01,3.23739e-01,1.72322e-01,3.29667e-01,2.61999e-01,1.05762e-01,7.20716e-02,-7.21163e-01,1.33311e-01,2.25072e-02,-2.30391e-01,
5.99303e-02,1.49752e-01,-6.52888e-03,-1.51717e-01,1.39528e-01,2.97772e-01,1.70546e-01,3.03003e-01,4.40366e-02,1.32512e-02,3.23835e-01,-1.34220e-01,1.52858e-01,3.15992e-01,2.86103e-01,-2.12446e-01,-1.27562e-01,-1.28890e-01,-1.41329e-01,9.16391e-02,-2.18629e-01,-4.87843e-02,-2.06424e-01,5.63631e-02,-3.96508e-01,
8.15752e-02,1.02042e-02,-5.43439e-03,2.51676e-01,9.81668e-02,9.22762e-02,1.41330e-01,-1.79238e-01,-2.86422e-02,1.31605e-01,-1.97438e-01,-2.30564e-02,-2.20013e-01,2.07917e-01,-9.23019e-03,3.09545e-01,1.45185e-01,-4.74233e-01,-1.06885e-01,2.63424e-01,1.17600e-01,-1.60006e-02,1.72898e-01,-1.34729e-01,-2.20559e-01,
-2.67512e-02,4.28664e-01,3.16293e-01,-3.20131e-01,-9.78382e-03,-3.24887e-01,2.05834e-01,1.87158e-01,1.99280e-01,-9.21236e-02,-3.08791e-01,-1.62089e-02,-2.79673e-01,1.36230e-01,2.24644e-01,-5.94774e-02,1.72417e-01,3.03573e-01,-2.42592e-01,2.81346e-01,-1.40748e-01,6.62577e-02,8.05418e-02,1.38989e-01,3.34299e-01,
-3.47399e-02,-2.06530e-01,1.50536e-01,-1.43840e-01,-3.42761e-01,2.51777e-01,-1.66382e-01,7.35922e-02,1.03316e-01,1.82474e-01,-3.39782e-01,-1.17491e-01,1.99272e-01,1.61741e-01,-1.02066e-01,6.52689e-02,2.70462e-01,-3.77968e-01,1.33373e-01,2.33101e-01,2.89392e-02,8.04896e-02,1.77696e-02,-2.27793e-01,-3.95469e-01,
-1.95690e-01,-2.28285e-01,2.08223e-01,-1.11373e-01,-4.83781e-02,-2.09777e-01,-1.91932e-01,9.07087e-02,3.42933e-01,3.42717e-02,2.64479e-01,7.13343e-02,2.14474e-01,6.82268e-02,6.96017e-02,-2.97999e-02,-2.16320e-02,2.26946e-01,-2.46308e-01,2.61232e-01,2.50124e-01,-3.10393e-01,2.62581e-02,-1.07713e-01,8.71085e-02,
2.68786e-01,5.76742e-01,-3.04952e-01,1.99898e-01,-1.07960e-01,-2.36570e-01,6.42844e-02,7.74035e-02,-3.07612e-01,2.44031e-01,2.78668e-01,-2.55743e-02,6.97090e-02,2.72648e-01,-3.96744e-01,3.41666e-01,-3.54931e-01,-4.29643e-01,4.80791e-01,1.97860e-01,-8.88306e-02,4.71954e-01,-2.71228e-01,-2.09533e-01,2.07519e-01,
-1.78249e-01,6.93069e-02,2.80278e-01,1.12266e-01,-1.27320e-01,1.00175e-01,-6.20134e-02,-6.64964e-02,-3.84732e-01,-2.18211e-01,-8.63772e-02,9.03291e-02,-9.46437e-02,2.05578e-01,3.38109e-02,2.00553e-01,2.30897e-01,-1.41944e-01,5.36258e-03,-1.11071e-01,-2.97496e-01,2.68865e-01,-9.00253e-02,2.47564e-01,2.87995e-01,
2.87380e-01,3.94812e-01,-3.56323e-02,-1.31093e-01,2.36763e-01,-1.60217e-01,1.50192e-01,-8.61610e-02,3.71019e-01,-1.88147e-02,3.15732e-01,-2.83180e-02,-2.75563e-02,-1.08785e-01,-5.11027e-02,-2.78307e-01,4.66893e-01,-4.10264e-01,-1.12409e-01,-1.15469e-01,2.57964e-01,7.45727e-02,-5.73357e-02,-1.77362e-01,-2.00764e-01,
1.35134e-01,-2.57734e-01,3.42746e-01,-2.73039e-01,4.38987e-02,2.55150e-01,-2.18884e-01,-1.45701e-02,-3.08926e-01,-2.88559e-02,9.29319e-02,-1.39434e-01,3.33783e-01,2.16476e-01,2.72912e-02,-2.23722e-01,-1.13734e-01,-2.91683e-01,-2.42882e-02,-2.63816e-01,-6.98703e-02,3.23593e-01,-1.09834e-01,2.34144e-01,2.00076e-01,
2.20057e-01,
3.09254e-01,
-2.89438e-01,
-2.22913e-01,
2.58643e-02,
1.67809e-01,
1.14672e-01,
1.87791e-01,
3.13666e-01,
2.93387e-02,
-2.72800e-01,
-3.44209e-01,
-1.45699e-01,
-1.58212e-01,
1.48530e-01,
-1.09113e-01,
2.95680e-01,
1.07779e-01,
-3.09528e-01,
-1.71394e-02,
-3.00327e-01,
-8.11895e-02,
2.10334e-01,
-7.49887e-02,
-9.83370e-02,
-2.35407e-01,1.11361e-01,1.31635e-01,-9.22228e-02,3.34586e-01,1.94279e-01,1.00803e-01,-2.88464e-01,1.61717e-01,3.29369e-01,2.42067e-01,3.19475e-01,-3.32326e-01,-2.07159e-01,5.74970e-03,3.02547e-03,-2.30614e-01,3.11649e-02,1.02607e-01,3.44656e-01,-1.12552e-01,-3.42913e-01,-6.84344e-02,-1.68276e-01,-2.63261e-01,
1.84874e-01,-1.28143e-01,2.94820e-01,-3.15319e-01,1.36793e-01,2.50934e-01,-4.39608e-02,1.26674e-01,4.18497e-01,1.70189e-01,-1.82630e-01,-1.05667e-02,-1.31944e-01,4.15291e-01,3.79389e-01,-6.91110e-02,2.41806e-01,8.42487e-02,-1.71636e-01,-1.39740e-02,9.88952e-02,1.62414e-01,-7.94169e-02,-5.09503e-01,1.57404e-01,
-2.94985e-01,2.90217e-01,-1.46036e-01,2.99455e-01,1.24642e-01,-2.05553e-01,1.01024e-01,1.73045e-01,-2.08426e-02,2.78630e-01,-3.13611e-01,-1.15949e-01,-2.28419e-01,5.93414e-02,-3.66521e-02,-2.81095e-01,-8.79085e-02,1.59050e-01,-4.40616e-02,-5.62721e-02,-1.31088e-01,3.37273e-01,4.20164e-04,-1.18952e-01,7.16621e-02,
-3.16643e-02,6.05204e-02,-2.48832e-01,2.38230e-01,-3.11162e-01,2.21231e-01,-2.11489e-01,3.41294e-01,2.23851e-01,-3.18830e-01,2.73183e-01,1.92496e-01,2.34898e-01,5.66102e-02,1.10877e-01,1.97879e-01,-7.23554e-02,-2.91599e-01,-1.11052e-01,2.38208e-01,-6.29416e-03,3.23242e-01,-2.80089e-01,-2.86887e-01,2.85452e-01,
3.32990e-01,2.80260e-01,-2.62437e-01,2.70141e-01,-1.91485e-01,1.00136e-01,-9.67063e-02,-7.56585e-02,2.81358e-01,3.58036e-02,-2.03748e-01,-2.11861e-01,1.98781e-01,-5.97415e-02,2.78608e-01,-2.04811e-02,-2.07705e-01,6.55540e-02,-2.08357e-01,-1.05547e-01,1.52178e-01,-2.63190e-01,-9.67436e-02,1.04910e-01,-3.32003e-01,
3.59044e-01,1.68220e-01,3.40053e-02,1.87529e-01,-2.17507e-02,2.43279e-01,-1.00076e-01,-4.77191e-01,-1.65116e-01,2.16588e-01,-2.62636e-01,-2.27403e-01,-4.27162e-02,5.27164e-02,3.61542e-01,1.50534e-01,2.85464e-01,-7.88179e-02,9.24069e-03,-2.87593e-01,1.98079e-01,4.06413e-01,-1.75401e-03,-4.93962e-01,2.48145e-01,
3.60536e-01,3.96801e-01,2.00744e-01,3.60339e-01,5.67764e-01,1.09007e-01,-1.25031e-01,-4.67270e-01,-1.47457e-01,2.12664e-01,-2.51183e-01,9.98468e-02,5.72338e-02,2.41796e-01,1.62922e-02,-5.70835e-01,-2.37055e-01,-3.89487e-01,-5.81271e-02,-5.13726e-01,-3.06724e-01,1.97069e-01,-1.67297e-01,1.14473e-01,-5.16992e-02,
-1.13256e-01,-1.14698e-01,3.11788e-01,2.22818e-01,2.71331e-01,1.91114e-01,-1.70114e-02,1.63173e-01,1.38580e-02,1.18694e-01,-1.32782e-01,-2.51322e-01,2.96189e-01,2.02321e-01,-3.22570e-01,1.65285e-02,1.48332e-01,3.05718e-01,1.24609e-01,-1.39140e-01,-2.75325e-01,-7.79977e-02,-3.33074e-01,-2.13873e-01,-2.43921e-01,
-3.39165e-01,-1.82482e-01,-5.53643e-02,3.15705e-01,-1.27517e-01,-1.62511e-01,-1.81041e-01,-2.24705e-01,-1.39937e-01,-8.46926e-02,1.58127e-01,-3.02458e-01,6.01450e-03,-1.42677e-01,2.17035e-01,8.35165e-03,-3.33859e-01,-7.26029e-02,-1.75292e-01,3.05862e-01,-2.76190e-01,-1.13695e-01,-1.48926e-01,2.48418e-01,-9.48243e-02,
3.38040e-01,-9.87708e-02,-2.20877e-01,-1.76581e-01,1.38370e-01,2.75186e-01,3.66237e-01,-5.47497e-02,-2.19457e-01,3.35247e-01,-3.34756e-01,-1.33533e-01,7.80048e-02,2.14819e-01,-1.89024e-01,-5.66973e-01,8.20509e-03,-3.17564e-01,-7.01028e-02,-3.50560e-01,1.80765e-02,4.31421e-01,-2.08912e-01,-5.31355e-01,-1.89828e-01,
-1.92004e-01,-6.30549e-01,-2.50698e-01,-3.17385e-01,7.64845e-01,1.92814e-01,-5.67166e-02,-2.79191e-01,-5.05433e-02,1.30795e-01,-2.28004e-01,-3.35327e-03,-1.82507e-01,1.60606e-01,-2.57831e-01,-6.88126e-02,1.03246e-01,1.36591e-01,8.49246e-02,3.94050e-02,3.12462e-01,7.62388e-01,-2.69345e-01,-1.97198e-01,-2.47000e-01,
-1.37070e-01,-3.96252e-01,-1.84477e-01,-6.99513e-02,-1.05978e-01,2.41916e-01,4.06351e-01,-1.71271e-01,9.78172e-02,-2.24017e-01,-3.43229e-01,2.54268e-02,-2.30788e-01,-1.06171e-01,-6.83723e-02,-2.05180e-02,2.23970e-01,1.79223e-01,5.32345e-03,1.19229e-01,1.60343e-01,-1.99964e-01,1.16435e-01,3.39138e-02,1.81265e-01,
-2.77213e-01,-1.23591e-01,-1.36897e-01,-2.93084e-01,2.89826e-01,-1.41355e-01,-2.10035e-01,1.37334e-01,1.55268e-01,1.96596e-01,-9.90525e-02,-9.54263e-02,1.27033e-02,3.23903e-01,-1.25690e-01,3.34312e-01,-1.50523e-01,7.89859e-02,1.55539e-01,3.02722e-01,1.86163e-01,-7.96056e-02,-2.39256e-01,2.00563e-01,1.92859e-01,
-1.43459e-01,1.90580e-01,8.71937e-02,-1.31659e-02,-2.37044e-01,8.42684e-02,-3.31618e-01,1.84572e-01,1.18603e-02,7.66854e-02,9.15364e-02,-1.28240e-01,-1.57122e-01,2.40303e-01,2.59964e-01,-4.30897e-02,-1.65415e-01,2.64157e-01,-1.66866e-01,2.04291e-01,3.31629e-01,-1.21390e-01,7.97258e-02,2.19062e-01,1.33019e-02,
-1.01646e-01,3.11428e-01,-2.46672e-01,-2.16820e-01,-1.38574e-01,-3.29286e-01,-2.48458e-01,-2.96080e-01,2.73636e-01,8.75941e-02,-1.53304e-01,2.12775e-01,-1.74942e-01,-2.14331e-01,-2.68817e-01,2.36263e-01,2.52075e-01,1.00636e-03,-4.42117e-02,8.74287e-02,1.16970e-01,6.07198e-03,2.29244e-01,-3.29725e-01,2.01524e-02,
3.77887e-04,-4.15675e-02,-3.26123e-01,1.89952e-01,-1.39588e-03,1.77877e-01,1.57238e-01,-1.31040e-01,-2.96734e-02,1.20490e-01,1.83955e-01,2.99963e-01,-4.58623e-02,1.35169e-01,8.50190e-02,-1.85763e-01,1.47553e-01,-4.60410e-02,9.94703e-02,1.28051e-01,-1.64013e-01,-3.77191e-01,2.58108e-01,-6.07828e-02,2.45353e-01,
-2.85647e-01,-1.08606e-01,-2.47363e-02,9.76983e-02,-2.94923e-02,-2.79784e-01,-1.64129e-02,-1.42307e-01,-1.02446e-01,-1.28691e-01,1.52819e-01,1.48162e-01,-2.28191e-01,-1.30772e-01,-2.31206e-01,-2.36225e-01,1.40266e-01,-9.22466e-02,3.45883e-01,3.34278e-01,-1.57202e-01,-2.57182e-01,-1.78910e-01,-1.06862e-01,-2.28760e-01,
-2.56790e-02,-6.43691e-02,-3.03190e-02,-2.73656e-01,3.07118e-01,-2.92377e-01,-8.77404e-02,2.08256e-01,-2.48126e-01,-3.30094e-01,-3.45725e-01,3.27218e-01,1.35182e-01,3.95839e-02,-1.46281e-02,5.23111e-02,-4.00855e-01,1.05295e-01,1.55730e-01,-1.17240e-01,6.78570e-02,-1.13996e-01,1.56378e-01,1.54552e-01,-2.78503e-01,
2.49279e-01,-1.80080e-01,4.54090e-02,-3.90136e-02,-5.19359e-02,2.98592e-01,-3.89764e-02,-2.54665e-01,7.49679e-02,-3.10431e-01,-3.42152e-01,1.05595e-02,9.86963e-02,4.63329e-02,1.61465e-01,1.08906e-02,2.67320e-01,-3.99710e-01,2.86480e-01,1.04131e-01,-3.32164e-01,1.25514e-01,-2.31287e-01,-2.94373e-01,1.48757e-01,
-1.29414e-01,-3.09263e-01,-5.88045e-03,-5.94766e-02,2.96951e-01,2.38571e-02,-1.68009e-01,2.26006e-01,3.20551e-01,-3.39994e-01,-2.66310e-01,1.75635e-01,2.10003e-01,8.22076e-02,-3.40181e-01,-1.72923e-01,2.88746e-01,-2.34480e-01,1.47818e-01,3.41468e-01,1.54017e-01,-9.47475e-04,-7.69057e-02,1.51481e-01,2.56190e-01,
-2.96997e-02,-6.74464e-01,2.61462e-01,-3.32470e-01,7.09042e-01,-2.91970e-01,3.80670e-01,-7.62154e-01,1.55853e-01,1.56695e-02,1.38278e-01,-3.09448e-01,1.01261e-01,2.10963e-01,-9.78889e-02,-4.01680e-01,3.07765e-01,-1.45156e-02,6.32210e-01,-4.58418e-01,-1.18985e-01,-3.99314e-01,-7.38187e-02,5.69221e-01,-3.40787e-01,
1.58563e-01,3.78222e-02,-3.87827e-02,-1.05727e-01,9.89693e-02,1.22499e-01,1.72110e-01,-8.54658e-02,-7.61647e-02,-2.32176e-01,1.52267e-01,2.86953e-01,1.80467e-01,-4.75768e-01,2.35648e-01,1.63987e-01,-7.48335e-02,2.69540e-01,-6.76542e-02,-3.87781e-01,-7.91422e-02,1.21064e-01,9.27443e-02,-1.25341e-02,-2.05107e-01,
2.34030e-01,-2.39053e-01,-2.45453e-01,-9.35289e-03,1.50316e-01,-5.22096e-03,2.83062e-01,-2.91519e-02,-1.02450e-01,-1.83342e-01,1.90790e-01,-1.47211e-01,-1.71000e-01,-4.62194e-02,-1.23518e-01,-2.31548e-01,-6.30697e-02,1.88126e-01,-1.08345e-01,3.43120e-02,3.32732e-01,-2.93455e-01,-2.96919e-01,2.40165e-01,-3.29259e-01,
-6.76159e-02,2.54028e-01,1.88225e-01,1.77013e-01,2.34036e-02,-1.34617e-01,-1.76653e-02,1.67108e-01,-4.40540e-02,-1.68909e-01,-3.32339e-01,2.49608e-01,1.25424e-01,-3.18908e-02,-3.59056e-01,9.26815e-02,9.52248e-03,9.00269e-02,-1.16457e-01,-4.71265e-02,1.24136e-02,1.48110e-01,1.82531e-01,2.44586e-01,-1.15119e-01,
1.92051e-01,2.31073e-01,-2.85339e-02,1.72819e-01,-4.59203e-01,-1.82096e-01,2.23620e-01,2.20779e-01,-2.49141e-01,2.15820e-01,-3.11456e-01,-2.66711e-01,-2.55931e-01,1.70887e-01,2.60001e-01,3.28491e-01,-3.35129e-02,1.86661e-01,-1.11818e-01,-3.39061e-01,3.43352e-01,-1.75629e-01,-1.87923e-01,1.56281e-01,-6.43606e-02,
-5.90424e-02,
-2.69624e-02,
-4.07368e-02,
-3.24035e-01,
-3.04286e-01,
7.51922e-03,
2.24526e-02,
-2.89394e-01,
1.37727e-01,
-1.26722e-01,
1.10450e-01,
2.04408e-01,
-2.65157e-02,
-2.72441e-01,
-2.63422e-01,
-6.30286e-02,
1.26219e-01,
2.64790e-01,
-2.74012e-01,
-2.14037e-01,
-9.71833e-02,
3.44733e-01,
-3.19304e-01,
2.89649e-03,
3.43827e-01,
-1.73834e-01,3.86327e-01,-1.26112e-01,2.09596e-01,-2.96704e-01,4.84302e-01,-2.75007e-01,1.16807e-01,3.82474e-02,3.85204e-01,-1.04972e-01,1.30450e-01,8.63740e-02,5.33068e-02,-5.64830e-02,-1.15017e-01,3.89208e-02,-3.87368e-01,-4.81103e-01,-1.72593e-01,1.11382e-01,2.99177e-01,-3.31681e-01,-3.77667e-01,2.24955e-01,
-3.41572e-01,-2.39260e-01,-4.01868e-01,3.23029e-01,7.13940e-02,2.05978e-01,4.24721e-02,-4.09480e-01,-3.14196e-01,-7.11468e-02,-1.05740e-01,3.63129e-01,-3.93365e-01,-3.50912e-01,3.52376e-01,-1.23472e-01,-2.11331e-01,-9.82751e-02,-1.61577e-02,-4.05136e-01,-4.31347e-02,-1.08917e-01,-4.37986e-01,-2.20058e-01,-2.48158e-01,
-3.70485e-01,-6.18830e-02,2.23782e-01,-2.38647e-01,-2.83716e-01,8.61961e-02,2.64297e-02,5.30394e-02,-2.38346e-01,-4.99936e-03,-7.90537e-03,1.75792e-01,-1.76553e-01,-7.74999e-02,-1.57998e-01,5.55243e-02,-1.31238e-01,2.34848e-01,-4.33646e-02,-1.70818e-01,-3.81045e-02,5.43284e-02,-3.67157e-01,2.74268e-01,-7.90908e-02,
4.31069e-01,2.88041e-01,-3.01056e-01,-1.60772e-01,-1.64828e-01,-9.79898e-02,1.26570e-01,2.48563e-01,5.18079e-02,-1.93214e-01,-1.74106e-01,4.74086e-01,-1.82478e-02,-1.71530e-01,-1.30696e-01,3.72489e-01,4.41415e-01,-1.46623e-01,1.56294e-01,-3.62195e-01,-1.80615e-01,-1.84331e-03,-2.71387e-01,5.56745e-01,2.08196e-02,
-2.41220e-01,-2.68676e-01,4.36000e-01,-1.33948e-01,1.39616e-01,1.56459e-01,-1.21125e-01,-3.27377e-02,-4.19519e-01,-1.64574e-01,2.80292e-01,-3.87429e-01,-3.90742e-01,-1.97201e-01,-1.45793e-01,3.73729e-01,3.09675e-01,3.48259e-01,-2.35348e-01,-4.23664e-01,1.26782e-01,-3.21290e-01,-1.25949e-01,3.44297e-01,5.75761e-02,
-6.34807e-01,
7.59150e-02,
-7.76786e-02,
-3.71284e-01,
2.99004e-01,
