// Neural Network File Format by Kyle Julian, Stanford 2016
6,3,5,25,
3,25,25,25,25,25,5,
0,
-56000.000000,-56000.000000,-3.141593
56000.000000,56000.000000,3.141593
-278.628049,0.000000,0.000000,-0.242819
112000.000000,112000.000000,6.283185,17.479225
-1.99460e-01,-5.74147e-01,-3.04869e-01,
-3.94996e-01,-1.72022e+00,6.41266e-01,
9.38508e-01,5.93214e-01,-4.85632e-01,
9.05044e-01,4.54161e-01,6.55357e-01,
8.49772e-01,-1.76433e+00,4.59578e-01,
-2.29611e+00,-1.10341e+00,4.90338e-02,
1.58163e+00,2.22520e+00,-3.13669e-01,
2.25587e+00,-1.55260e+00,-3.75910e-02,
1.07471e+00,2.37665e+00,-2.17474e-01,
5.14595e-01,-1.20031e-02,2.46226e-01,
-5.00212e-02,-1.25314e+00,5.97575e-01,
8.54538e-01,3.28098e-01,-5.96097e-01,
5.43435e-01,7.70982e-01,3.14415e-01,
1.16219e+00,2.38215e-01,3.45480e-01,
-2.01872e+00,4.74743e-01,1.21707e-01,
9.45111e-01,2.08165e+00,7.47280e-01,
-2.61931e+00,1.38598e+00,7.25498e-02,
8.45338e-01,1.79830e+00,6.83873e-01,
1.71474e+00,1.36385e+00,3.83170e-01,
-2.10118e-01,5.22360e-01,-5.45519e-01,
-6.71487e-01,1.54301e+00,-1.88580e-01,
-1.19242e+00,1.06454e+00,6.09645e-01,
9.19028e-01,1.37514e+00,-4.21450e-01,
-3.25226e+00,-1.89901e+00,2.99491e-01,
-1.17976e+00,-2.37042e+00,-1.92430e-01,
2.60787e-01,
-2.31010e-01,
6.59991e-02,
1.81396e-01,
1.88738e-01,
-1.50958e-02,
1.19977e-01,
2.46939e-02,
9.82373e-02,
1.01491e-01,
-1.59605e-01,
-2.32075e-01,
2.48835e-01,
-4.47454e-02,
7.21311e-02,
6.86074e-02,
9.97288e-02,
3.34732e-02,
1.66940e-01,
1.42506e-03,
2.71108e-02,
1.34278e-01,
-1.26477e-02,
-8.64453e-03,
-2.75122e-02,
-2.44697e-01,-4.17029e-03,6.56337e-02,-1.03731e-01,1.93403e-01,9.66347e-01,1.42732e-01,3.21997e-01,3.35526e-01,1.97658e-01,1.10051e-02,8.10076e-02,2.24100e-01,-9.75727e-02,1.55188e-01,4.15240e-01,-2.70852e-01,-9.19792e-02,2.91216e-01,2.04615e-01,2.66538e-02,2.79827e-01,8.01752e-02,-7.53046e-01,-1.17332e-01,
-4.07414e-02,2.80430e-01,1.29829e-01,-5.22896e-03,2.41993e-01,-1.36100e+00,3.30512e-01,-2.87462e-01,-2.60961e-01,1.65757e-01,-3.38797e-01,-3.77258e-01,1.92408e-01,-3.68673e-01,4.17876e-01,-5.78687e-02,-1.75409e-02,1.00345e-01,2.73786e-01,-8.60803e-01,-5.21808e-01,6.29641e-02,1.11806e-01,6.37908e-01,-1.52859e+00,
1.62407e-01,9.90246e-01,1.07689e+00,2.71486e-01,1.77803e-01,7.49368e-01,-2.03673e-01,-9.67620e-02,-1.78876e-01,-9.86603e-03,7.31481e-01,-1.50786e+00,-1.57213e-01,-5.41652e-01,1.22319e-01,2.57775e-01,1.92554e-01,4.64224e-01,3.51719e-01,-1.10981e+00,-2.11665e-01,7.57068e-02,2.73741e-01,6.43144e-01,3.87569e-01,
-1.94244e-01,4.24174e-01,-3.48925e-02,-1.92070e-01,1.72199e-01,3.73547e-01,2.67052e-01,9.96909e-02,3.59652e-01,2.04500e-01,3.96375e-01,-4.62073e-01,-5.61622e-02,-6.35827e-02,1.42020e-01,-3.26401e-01,9.66843e-02,-2.52684e-01,7.85795e-02,9.87058e-02,-2.32254e-01,6.74178e-02,-9.58427e-02,-1.92555e-03,-4.01471e-01,
3.18746e-01,-8.94754e-01,-3.14215e-01,-9.69327e-02,1.25229e-01,-4.98982e+00,4.68811e-01,5.08410e-01,5.66728e-01,-2.09614e-01,-1.13441e+00,6.51039e-02,2.70614e-01,-9.95336e-01,-7.90861e-01,7.16368e-01,-1.97873e-01,3.87297e-01,1.36506e-01,6.57605e-01,-5.21334e-02,-5.63447e-01,-4.18049e-01,-2.73485e-01,3.78021e-01,
1.64131e-02,3.15601e-01,6.59815e-01,1.91909e-01,1.77433e-01,-7.14750e-01,-2.01664e-02,-4.27890e-02,-1.91691e-01,-7.52982e-02,-9.64975e-02,-9.28222e-01,9.26948e-02,-3.32736e-01,4.25886e-03,-4.39463e-01,-1.43866e-01,-1.28091e-01,2.45064e-01,-3.19572e-01,2.72171e-01,3.54898e-01,9.62135e-01,-8.94038e-02,7.84973e-01,
1.66534e-01,-5.72607e-01,9.31800e-02,1.99206e-01,2.12286e-01,-4.61328e-01,-1.08159e-01,2.48891e-01,-4.53124e-01,-1.45455e-01,1.33868e+00,-3.14621e-01,1.38034e-01,-5.09138e-01,1.33451e-01,-7.81860e-01,-5.09397e-01,-1.57452e+00,-1.84880e-01,-4.94966e-01,-9.08806e-01,-3.22005e-01,2.63801e-01,-3.83246e-01,-8.81771e-01,
-2.50973e-01,-6.86118e-01,-7.18071e-02,3.34812e-01,4.25455e-02,1.89740e+00,5.09182e-01,-2.42735e-01,5.39861e-01,1.97189e-01,-2.86802e-01,1.15653e-01,1.54574e-01,-9.56878e-02,-3.28215e-01,3.62995e-01,-1.82960e-01,3.72528e-01,-2.67516e-02,-1.99687e-01,2.96015e-01,6.37329e-02,5.97322e-02,-6.37973e-01,-2.98506e-01,
1.69045e-01,-5.22320e-01,-2.06162e-01,-3.16006e-01,-3.54485e-01,-6.42316e-01,-1.51634e-01,-8.08991e-01,-3.43689e-01,-2.39400e-01,-3.69755e-01,-4.15958e-01,5.91066e-02,4.58287e-01,1.56314e-01,3.51875e-01,5.78166e-01,3.32377e-01,-5.07677e-01,1.07428e-01,1.20154e-01,2.96200e-01,2.11354e-01,1.45946e-02,3.94221e-01,
-2.66867e-01,3.00111e-03,-2.01115e-01,1.77797e-01,4.79715e-03,-9.43742e-01,1.96066e-01,-3.88814e-01,-4.36722e-02,-1.26130e-02,-2.42367e-01,5.16077e-01,2.75523e-01,3.27809e-01,2.33142e-02,-1.31099e-01,-3.04592e-01,-2.98696e-01,7.58933e-02,-3.98177e-03,6.05089e-02,3.29004e-01,2.87673e-01,-4.09416e-02,1.00533e+00,
3.45710e-01,7.37926e-01,3.26733e-01,-2.75586e-03,3.13216e-01,-3.77991e-01,1.57186e-01,6.22624e-01,-1.98471e-01,1.28603e-01,-2.32175e-01,-6.07796e-01,3.59356e-01,-9.05910e-01,-7.27662e-01,5.64113e-01,-6.23420e-01,2.33477e-01,1.88594e-01,1.85881e-01,-5.09851e-01,-2.04876e-01,-6.67563e-01,8.77180e-01,1.11275e+00,
2.34791e-01,-7.84788e-01,9.96621e-02,9.46984e-02,1.12368e-01,7.09563e-01,2.44470e-01,-3.77044e-01,1.60334e-01,-2.94819e-01,-8.60579e-01,-3.19654e-01,2.84290e-01,-2.88440e-01,3.64317e-01,5.50191e-01,4.20137e-01,5.51986e-01,5.81628e-02,-1.43953e-01,7.34591e-01,4.90934e-01,4.74055e-01,-8.58718e-01,-1.09384e-01,
6.41955e-02,2.20946e-02,4.45241e-02,8.05746e-02,3.06777e-01,-3.82387e-01,-9.66464e-02,1.79800e-01,3.97736e-02,-8.63833e-02,3.11431e-01,-2.50095e-01,2.50953e-01,1.47124e-01,-1.55989e-01,-5.26286e-01,5.14832e-02,-1.08762e-01,-1.05567e-01,-5.14337e-01,-3.32642e-02,-1.83555e-02,-2.18666e-01,1.38985e+00,1.02171e+00,
-1.62401e-01,-6.99961e-01,1.89514e-01,3.39258e-01,2.53051e-02,-1.20563e+00,-3.90200e-01,-1.17536e-01,-2.88194e-03,4.09583e-01,-5.45615e-02,-3.90289e-01,3.68748e-01,2.38299e-02,-1.61517e-01,-2.87909e-01,-3.40117e-01,-3.34327e-01,3.31939e-01,4.51552e-01,2.04605e-02,-3.00546e-01,1.83615e-01,7.30758e-01,3.99912e-01,
-1.13664e-01,-1.21652e-01,8.59755e-02,-3.16378e-01,-2.91998e-01,1.75309e-01,-3.44843e-01,1.72054e-01,-3.08671e-01,-1.58116e-01,2.13037e-01,2.86965e-01,2.33781e-01,1.21315e-01,-1.87550e-01,1.22736e-01,-2.88674e-01,-9.92166e-02,-3.44865e-01,-1.42305e-01,-1.23423e-01,-1.87638e-01,-4.40856e-02,-2.82415e-01,-6.00310e-02,
3.36592e-01,-2.46011e-01,2.30981e-02,1.74365e-01,1.68723e-01,1.32713e-01,-3.75636e-02,2.96972e-01,8.40516e-02,2.40967e-01,-1.68786e-01,-1.71798e-01,3.24532e-01,-2.37973e-01,-2.29972e-01,1.23560e-01,-1.74616e-01,6.26145e-01,1.51804e-01,-4.09045e-01,-2.49420e-01,-1.80250e-01,-2.16528e-01,-1.18603e+00,8.40159e-01,
-1.85225e-01,-7.54610e-02,2.95539e-01,1.86703e-01,-2.69653e-01,1.80617e+00,2.64939e-01,2.41695e-01,3.38723e-01,3.11172e-01,-1.84867e-01,2.92334e-01,2.95200e-02,-2.44420e-01,-2.04382e-01,-2.39584e-02,-4.01288e-01,1.61312e-01,-1.94339e-01,-1.38453e-01,-3.77324e-03,5.79368e-01,1.11082e-01,-9.07033e-01,-2.35005e+00,
-2.80653e-01,-5.59950e-01,-1.30402e-01,2.64529e-01,-3.99757e-01,8.62689e-01,3.61267e-01,1.28692e-01,1.47442e-01,-2.46722e-01,-5.01678e-01,-2.48320e-01,2.92144e-01,-5.63198e-01,-4.87534e-01,6.04795e-01,-2.69085e-01,1.38756e-01,4.13558e-01,-4.85345e-01,3.99301e-01,3.38337e-01,8.26073e-03,-1.00582e+00,-2.45528e-01,
-1.30358e-01,-2.09762e+00,-6.18428e-01,9.21389e-02,-2.37339e-01,-1.79850e+00,-1.44623e-01,-4.46648e-01,-3.62219e-02,2.77410e-01,-5.91700e-01,1.46555e-01,2.80174e-01,5.58876e-02,7.09060e-01,2.67307e-01,4.68943e-01,-1.35778e-01,3.66341e-01,-8.68655e-01,-1.12352e-01,4.28735e-01,1.50940e-01,-9.28892e-01,7.16881e-01,
-1.29750e-02,1.21766e+00,8.22878e-02,-3.03833e-01,9.55449e-02,3.09609e-01,-1.66183e-01,4.42748e-01,-1.47879e-01,5.34128e-02,9.97718e-01,-7.36072e-01,-5.22925e-02,-9.71968e-01,2.81162e-01,-7.11735e-01,-2.71679e-01,-1.06887e+00,-7.10241e-02,-1.88929e-01,-7.33427e-01,-1.29225e-01,-1.26476e-01,7.99967e-01,7.39275e-01,
3.12058e-01,-1.17657e-01,6.14527e-01,2.93506e-01,4.35796e-01,8.02920e-01,-2.88022e-01,1.63802e-01,8.54586e-02,-3.93591e-03,3.71596e-01,-6.87522e-02,1.34014e-01,-3.36825e-01,-2.59860e-01,-3.72462e-01,-8.66483e-01,-2.32126e-01,1.04463e-01,4.31247e-02,-2.03682e-01,2.17955e-01,2.87584e-01,1.32208e+00,6.71207e-01,
2.16963e-01,8.91429e-02,1.89714e-02,-8.77359e-02,-2.11506e-01,9.00530e-01,4.02830e-01,8.09903e-02,3.94533e-01,-2.31298e-01,2.23843e-01,-4.23049e-02,8.24390e-02,3.25453e-01,5.35217e-01,9.11889e-02,-1.36699e-01,2.83753e-01,2.32862e-01,1.55793e-01,1.96383e-01,1.13731e-02,5.49110e-01,6.28982e-01,-5.29375e-01,
-3.57753e-02,2.10824e-01,-5.02176e-01,2.54132e-01,-1.62841e-01,-6.00286e-01,1.79884e-01,2.38008e-01,-1.43175e-01,3.04844e-01,-6.85546e-02,-4.01549e-01,2.36813e-02,4.23832e-01,6.78750e-02,-6.35060e-02,-3.45589e-01,-2.81171e-01,3.35268e-01,-5.79312e-02,-3.14107e-01,2.25179e-01,1.93733e-01,2.41057e-01,3.75946e-01,
3.24764e-01,-1.77758e-01,1.68334e-01,-8.29986e-02,-1.94558e-01,7.22316e-01,3.11064e-01,-2.97724e-01,4.74938e-01,-3.32897e-01,6.87604e-02,3.91173e-01,3.20474e-01,3.61389e-01,2.37250e-01,3.44847e-01,2.52520e-01,3.27477e-01,6.75521e-02,2.75116e-01,1.46611e-02,1.20627e-01,-1.47630e-01,3.33690e-01,-5.72269e-01,
-7.81292e-03,-6.78640e-01,-1.69116e-01,-7.08686e-02,-8.02087e-02,-8.65352e-01,-1.52327e-01,6.45965e-02,1.56636e-01,1.75984e-01,-8.76435e-02,-1.36198e-01,-1.25338e-01,1.77143e-01,3.79310e-01,2.21017e-02,1.48299e-01,3.70211e-01,-6.55321e-02,3.98673e-01,5.69254e-01,2.76688e-02,-4.77963e-02,4.38851e-01,-9.99100e-01,
-7.51271e-02,
-3.47654e-02,
-2.17819e-01,
1.49642e-01,
-1.80602e-01,
-8.54871e-02,
2.79812e-01,
-1.68982e-01,
1.36649e-01,
1.60948e-01,
-1.96890e-01,
1.76859e-02,
1.48115e-01,
2.83112e-02,
-1.80716e-01,
-1.47572e-01,
-9.66207e-02,
1.71611e-01,
-5.62481e-02,
1.67452e-01,
-1.47011e-01,
-2.47217e-01,
2.72784e-01,
-1.09110e-01,
1.00187e-01,
2.07869e-01,2.28807e-02,-3.88039e-01,2.42285e-01,8.48004e-02,-2.21498e-02,-1.25642e-01,6.14719e-02,-4.30233e-01,2.15068e-01,-4.35517e-01,3.66358e-01,-9.31993e-02,-1.89720e-01,-1.24388e-01,6.96713e-02,-5.30996e-01,-9.51382e-03,2.70048e-01,-3.20338e-01,-1.43788e-02,2.18226e-01,-1.35241e-02,3.55852e-01,1.42282e-01,
2.50691e-02,3.07952e-01,-1.66272e-01,-1.26565e-01,-6.44099e-01,6.00727e-03,-1.12770e-01,4.10014e-01,-1.38075e-01,2.49599e-01,-2.38043e-01,-2.37286e-02,2.28866e-01,-1.47950e-01,6.11726e-02,5.05119e-02,-1.34299e-01,-8.94693e-02,5.59049e-01,-1.91696e+00,-1.12615e-03,6.32279e-02,2.09065e-01,2.53381e-01,-2.00934e-02,
2.29697e-01,-7.47548e-02,4.65692e-02,2.84576e-01,-7.93687e-02,2.53637e-01,1.71316e-01,-2.29462e-01,-1.00649e-01,-1.03038e-01,1.46406e-02,-1.08225e-01,-2.29000e-01,7.93764e-02,1.71579e-01,1.06519e-01,-3.34983e-01,-3.41534e-01,-2.22982e-01,-1.52002e-01,-1.58125e-01,-7.60718e-02,-1.79456e-02,-2.87647e-01,-1.55745e-01,
-3.25286e-01,2.72161e-01,-2.46322e-01,1.17832e-01,1.44578e-01,3.42287e-02,-7.57308e-01,3.89837e-01,8.65541e-01,1.50928e-01,1.84494e-02,1.52072e-01,2.27017e-01,1.44166e-01,2.08244e-01,-2.39630e-01,2.13282e-01,-1.62305e-01,3.40225e-01,-2.22523e-01,-1.34296e-01,-2.81054e-01,3.15882e-02,4.11871e-01,3.17772e-01,
2.88979e-01,2.02425e-01,2.68266e-01,6.75293e-02,6.68323e-01,-2.83434e-01,2.48695e-01,1.18207e-01,9.72324e-01,2.25975e-01,4.09920e-01,4.60864e-02,-1.82715e-01,-3.46995e-01,4.71086e-02,5.38678e-01,4.51162e-01,1.30323e-01,9.56065e-02,5.53243e-01,-2.10850e-01,-6.14128e-01,-2.36015e-01,3.85083e-01,-1.54651e-01,
-2.19534e-01,-4.46101e-01,4.44649e-01,4.90893e-02,-4.58820e-01,3.60083e-02,6.46971e-01,1.83366e-02,1.19481e-01,-1.47397e-01,4.67102e-02,2.37999e-01,-1.33155e-01,3.37726e-01,7.23002e-02,2.03284e-01,2.64029e-01,-3.21552e-01,-2.90859e-01,6.73725e-01,2.21072e-01,-1.20045e-01,1.32148e-01,-5.59068e-02,4.43563e-02,
1.78962e-01,9.09901e-02,1.24014e-01,-1.35589e-01,-2.24368e-01,-1.29423e-01,-1.84253e-01,-7.38547e-01,-2.86029e-01,2.96764e-01,-1.73675e-01,2.92412e-01,-7.53223e-02,3.12946e-01,-1.16940e-02,7.28187e-02,1.39341e-01,-4.57086e-02,2.23648e-01,2.79411e-02,1.93051e-01,-8.36238e-03,3.78816e-01,2.39543e-01,-2.77458e-02,
1.49388e-01,-7.74743e-02,-7.58364e-01,4.26397e-01,-7.67181e-01,2.91392e-01,3.01645e-01,-1.46375e+00,-2.22030e+00,4.96045e-01,-1.62973e+00,-2.56014e-01,1.09279e-01,2.65040e-01,1.74423e-01,-6.38139e-01,-2.78387e-01,-2.33466e-02,4.39564e-01,-1.50386e+00,1.39174e-01,8.33853e-01,3.40752e-01,-2.86594e-01,-2.68217e-01,
-8.48367e-02,3.70487e-01,-9.35736e-02,-2.56568e-01,-1.67547e+00,2.05844e-01,-8.38796e-02,-8.45350e-01,-1.97603e+00,3.86222e-01,1.90799e-01,3.76193e-01,-4.87796e-02,7.05741e-02,2.59896e-01,-1.86951e-01,1.87810e-01,-1.02225e-03,1.25225e-01,1.98208e-02,-2.87427e-01,-1.68557e-01,1.59360e-01,-7.40636e-03,1.42116e-01,
-7.58454e-02,-5.24735e-01,-4.43196e-01,2.13838e-01,7.26791e-01,-1.77802e-01,7.71650e-02,4.40468e-01,1.76712e-01,-9.67307e-03,-6.09171e-01,-3.10265e-01,-1.01045e-01,-5.77277e-02,1.48422e-01,-5.04167e-01,-5.23739e-01,1.21111e-01,-2.43686e-01,-9.83403e-01,-3.93050e-01,-4.25633e-01,3.29098e-01,-5.48423e-02,1.06992e-01,
-4.87488e-02,2.55185e-02,5.38674e-03,-1.54618e-01,1.90833e-01,1.73658e-01,2.50359e-01,9.54792e-02,-3.11623e-01,2.53770e-01,-3.08533e-01,-2.47226e-01,1.71587e-01,3.38828e-01,5.30849e-02,-4.65783e-02,8.16815e-02,-2.24176e-01,-3.43426e-01,-2.57365e-02,-1.80418e-01,2.78730e-01,-1.39425e-01,-2.87346e-01,-9.88683e-03,
3.77647e-01,2.88047e-01,6.49259e-02,2.18016e-01,-3.87553e-01,-1.20030e-01,4.74920e-01,7.47642e-02,-4.11412e-01,-3.00436e-01,2.29169e-01,-2.86146e-01,-2.90375e-01,7.32265e-02,5.60543e-03,-1.26565e-01,-1.66775e-01,1.19618e-01,-1.54315e-01,-4.44542e-01,2.65764e-01,6.53605e-01,-3.98466e-02,-2.44524e-01,-1.21271e-01,
-3.96502e-01,1.19675e-01,2.28722e-01,-8.97334e-02,-2.86657e-01,-3.12239e-01,6.87103e-01,4.86741e-01,-4.11158e-02,-1.44039e-01,-3.47397e-01,-8.01813e-03,-4.51851e-02,-1.01943e-01,-2.15128e-02,-4.03027e-02,3.25360e-01,-4.98632e-01,3.07843e-01,-4.15880e-01,-4.21056e-01,3.50291e-01,-1.25760e-01,2.92977e-02,2.07440e-01,
1.50985e-01,-2.74688e-01,-2.41097e-01,-1.31517e-01,-2.92119e-01,2.02275e-01,2.55407e-01,2.55068e-01,4.34626e-01,-2.55219e-01,2.83631e-01,1.84834e-01,1.71157e-01,5.58619e-01,1.58521e-01,1.35106e-01,4.12460e-01,-1.10464e-01,4.98368e-03,3.85934e-01,1.36357e-01,1.48381e-01,1.10807e-01,-9.56990e-02,3.13843e-01,
-2.14487e-02,4.13037e-01,-1.07051e-01,1.70119e-01,3.22713e-01,-1.59481e-01,-3.98144e-02,8.63748e-02,3.87913e-01,2.17072e-01,-1.37106e-01,8.62356e-02,-3.34019e-01,-7.88777e-01,-2.84444e-01,1.62420e-01,-6.46995e-02,1.81305e-01,3.13401e-01,-2.61950e+00,2.17893e-01,-2.89575e-01,-1.15384e-01,2.64078e-01,-1.84184e-02,
3.14071e-01,-2.07474e-01,-5.97827e-02,-2.35780e-01,-8.52946e-02,-1.03825e-01,9.28591e-03,-3.80158e-01,3.03320e-01,-1.03930e-01,-6.84835e-01,-4.98268e-02,-3.14495e-01,9.51316e-02,1.43621e-01,5.74635e-01,7.14120e-02,3.12256e-01,3.43990e-01,2.48792e-01,-2.96088e-01,4.93779e-02,-1.21138e-01,1.31991e-02,3.28067e-01,
8.25047e-02,-1.88458e-01,-8.99235e-02,-1.08659e-01,3.50184e-01,-2.71607e-01,-3.01093e-01,-1.44582e-01,7.32935e-01,2.24989e-01,-1.02256e-01,1.98868e-01,1.50807e-01,5.43778e-01,-1.48800e-01,-7.05613e-01,-1.25763e-01,3.53416e-01,-1.30703e-01,-6.64346e-02,-3.00718e-01,-1.25998e-01,2.91357e-01,-4.56676e-02,-2.18625e-01,
-4.13252e-01,1.29077e-01,2.03852e-01,9.87063e-02,4.23202e-01,1.66136e-01,5.17061e-01,-6.32159e-01,7.59033e-02,1.99385e-01,1.19387e-01,1.98327e-01,8.84444e-02,-4.57626e-01,-5.42522e-02,3.45987e-01,2.33873e-01,1.17047e-01,-6.56172e-01,9.42671e-02,1.32567e-01,-1.90301e-01,-3.54484e-01,-3.73327e-01,-1.69348e-01,
-1.09399e-01,3.16215e-01,-2.48237e-01,-1.38972e-01,1.36985e-01,1.54789e-01,2.85145e-02,-2.15502e-02,3.16838e-01,2.48470e-01,-6.78405e-02,3.79789e-02,3.81484e-02,-2.91910e-01,-3.27173e-01,2.72177e-01,2.12253e-01,-3.28279e-01,-2.49341e-01,-3.30587e-01,-2.61346e-01,-2.07464e-01,-1.10653e-02,2.45520e-01,-2.64408e-01,
-2.01215e-01,3.26548e-01,2.87507e-01,-3.78354e-02,1.97881e-01,6.02508e-02,-1.61466e+00,-5.19194e-01,-3.52249e-01,2.51597e-01,2.34772e-02,-1.23275e-01,2.08390e-01,8.38115e-02,-4.74652e-02,-3.78637e-02,1.98736e-01,-3.20528e-01,-2.79256e-02,2.67641e-01,4.27747e-01,-7.27482e-01,5.11464e-02,4.10351e-01,2.84661e-01,
-1.20896e-01,2.15922e-02,1.72164e-01,2.11261e-01,-1.11132e+00,4.41955e-01,2.09930e-01,1.43517e-01,-3.56953e-01,-1.59353e-01,3.27656e-01,3.29759e-01,-1.02615e-01,1.65573e-01,5.91478e-02,-1.25676e-01,3.31972e-01,1.44302e-01,-3.01762e-02,-4.50083e-01,3.42955e-01,5.01002e-01,2.95085e-01,3.10469e-01,1.87846e-01,
-1.87401e-01,-1.53364e-01,3.84370e-01,-4.09417e-01,-1.40442e+00,-3.33469e-02,4.35489e-01,-4.32822e-01,-1.12322e+00,-4.08866e-02,-7.46405e-02,-7.97714e-02,8.00257e-02,4.62709e-01,9.52824e-02,1.51523e-01,4.75843e-01,-1.67236e-01,2.07890e-01,8.07891e-01,6.73994e-01,-2.14391e-01,-1.22242e-01,-2.56573e-01,-8.58595e-02,
-9.35859e-02,8.10719e-02,2.21829e-01,-6.92124e-02,-5.97146e-02,2.32748e-02,-6.12378e-01,2.01757e-01,5.26045e-01,1.08159e-01,3.96907e-01,3.78729e-01,-3.68933e-02,-3.43242e-02,-2.47179e-01,3.02984e-01,-1.45828e-01,-2.54137e-01,5.37504e-01,9.20993e-01,-2.17804e-01,9.09178e-02,3.27689e-01,1.30379e-01,-5.78854e-02,
4.01408e-01,5.46039e-02,-1.44177e-01,1.05153e-01,-5.57450e-01,-5.10971e-02,-9.21817e-01,-8.55063e-01,-1.50959e+00,2.61923e-01,-6.16907e-01,5.72910e-01,-4.51703e-01,-5.41549e-02,-2.43747e-01,-1.57489e-02,-1.49655e-01,2.45153e-01,3.23275e-01,1.14174e+00,-6.43427e-01,1.74002e-01,-7.03926e-02,4.48422e-01,-4.45750e-02,
-5.84105e-03,8.10197e-02,-2.54370e-01,-2.32574e-01,-3.20620e-01,-1.52121e-01,-2.28998e-01,-1.31562e-01,2.60467e-01,-8.12910e-02,2.53134e-01,-3.08608e-01,-3.30240e-02,-3.44891e-01,-1.30948e-03,-4.09078e-02,-2.71085e-02,-8.00357e-02,6.54620e-02,-3.15922e-01,1.74856e-01,-2.85766e-01,-1.29133e-01,1.06636e-01,-1.02300e-02,
1.05003e-01,
1.68699e-01,
-2.78228e-01,
-1.74696e-01,
-1.49970e-02,
-1.91695e-01,
2.79209e-01,
1.23873e-01,
-4.82873e-03,
3.38271e-01,
-7.54328e-02,
3.31625e-01,
1.76142e-01,
-2.61937e-01,
-2.42161e-01,
1.93522e-01,
-2.54362e-01,
-2.04072e-01,
-1.41055e-01,
-1.97467e-01,
-2.49966e-01,
1.48659e-01,
-2.29419e-01,
-4.68943e-02,
-8.23238e-02,
2.69234e-01,-3.72558e-01,1.59050e-01,-3.64309e-01,-2.97265e-01,-2.02138e-01,7.95841e-02,-2.11978e-02,3.03400e-01,2.44966e-01,1.75257e-01,-1.92038e-01,2.63500e-01,1.19427e-01,-2.15974e-01,2.49732e-01,-2.76765e-01,2.51911e-01,1.47721e-01,-1.62114e-01,-3.49647e-01,-2.35145e-02,-2.38046e-01,-2.82857e-01,1.63346e-01,
-2.12663e-01,-2.92686e-01,-2.65500e-01,-2.94352e-01,-2.11992e-01,-2.81457e-01,2.58617e-01,6.83215e-02,-1.28860e-01,5.49709e-02,2.78649e-01,-6.90097e-02,2.21094e-02,-2.90704e-01,-2.95569e-01,-8.56771e-02,2.25720e-01,-1.05640e-01,1.80962e-01,-1.15433e-01,1.45264e-01,1.78087e-01,-3.25065e-02,6.09997e-02,1.50331e-01,
-3.58193e-01,3.76959e-01,1.01358e-01,-9.39122e-03,3.19149e-01,-1.40133e-01,-1.59334e-01,5.97313e-02,-3.95356e-01,-5.97392e-01,-1.24071e-01,-1.16022e-01,-3.50399e-01,1.64171e-01,-4.57749e-01,1.38733e-01,1.17598e-01,-2.44727e-01,1.06692e-01,-1.74046e-01,-1.49471e-02,8.95861e-02,4.62140e-02,2.92172e-01,1.96134e-01,
8.03185e-03,-9.00236e-02,-2.11982e-01,4.22306e-01,8.20417e-02,-7.00631e-01,-3.77422e-01,4.77901e-03,2.08573e-01,-3.94191e-01,-1.75533e-01,-3.09132e-01,7.95346e-01,8.84311e-02,3.34186e-02,-3.00460e-01,-9.69837e-01,-6.79784e-01,-1.14467e-01,-2.09043e-03,1.55917e-02,2.00739e-01,-2.40375e-01,-1.74272e-01,1.32823e-01,
-1.01537e-01,-2.17773e-01,1.93378e-01,-3.91487e-01,-8.05338e-02,-5.33163e-01,2.63978e-01,-1.99127e+00,2.36628e-01,5.26616e-02,2.66984e-01,-4.26066e-01,2.38685e-01,3.00114e-01,-2.44915e-01,-1.79699e-01,1.51849e+00,1.68943e-01,-3.37994e-01,-1.88380e-01,9.78680e-02,3.97834e-01,-2.96916e-01,-2.11630e+00,-9.88573e-02,
-5.19561e-01,-8.45343e-02,1.64309e-01,6.37551e-01,2.23877e-01,1.08337e-01,5.25903e-02,-2.75944e-03,-6.93454e-02,3.74355e-01,3.15659e-01,1.22658e-01,-3.49933e-01,6.21519e-02,-5.31786e-02,-2.60452e-01,3.11398e-02,-2.49414e-01,-2.48170e-01,7.44057e-02,9.91424e-02,9.60025e-02,-3.03179e-01,-1.51252e-03,-2.61995e-01,
-1.64316e-01,1.23041e-01,-1.91907e-01,-2.51756e-01,1.31194e-01,-1.01038e+00,-1.72532e-01,7.04208e-01,8.27122e-01,-3.98363e-01,-2.98159e-01,-1.41332e-01,6.97082e-01,3.04124e-03,9.44269e-02,-9.31064e-02,-5.92294e-01,-1.13861e+00,3.31757e-01,-1.17417e+00,1.52098e-01,4.64955e-01,-1.44092e-01,-7.87529e-01,2.60001e-01,
-4.63940e-03,-3.79164e-03,-2.42332e-01,7.64638e-02,1.87981e-01,-9.98291e-02,1.61820e-01,3.55588e-01,3.70404e-01,1.17976e-01,-1.59097e-01,-2.15201e-01,-2.23984e-01,-2.77527e-01,-3.31822e-01,3.60371e-01,3.27090e-01,-1.23088e-01,1.79095e-01,-7.98767e-02,8.92121e-02,3.37464e-01,-2.48645e-01,-2.45687e-01,-2.92683e-01,
3.67588e-01,1.99463e-02,1.32728e-01,-2.35687e-01,-5.40565e-03,-1.11919e-01,2.57952e-01,1.81235e-01,-1.03122e-02,-2.08434e-01,2.11019e-01,1.52680e-01,-7.92405e-02,-8.89692e-02,-6.44163e-02,-2.65457e-02,8.72637e-02,1.37669e-01,-1.45942e-01,-3.90982e-02,-1.49205e-01,-1.13711e-01,3.01381e-01,2.23933e-01,-1.27395e-01,
3.45556e-01,2.62906e-02,3.17144e-02,-1.19683e-01,-3.48673e-02,1.82747e-01,2.93849e-01,4.52063e-01,-2.16062e-01,-5.05813e-01,2.72364e-01,1.45632e-02,-1.33193e-01,-6.15868e-02,-1.51195e-02,2.30546e-01,-3.65247e-01,2.38368e-01,1.22554e-01,1.99727e-01,-9.59740e-02,-3.48957e-01,-2.40274e-01,5.24341e-01,2.33083e-01,
3.88553e-01,3.57783e-02,1.50519e-01,-3.41759e-02,5.17135e-02,-8.37890e-02,-2.65008e-02,-2.44720e-01,-1.55643e-01,-5.65579e-01,-1.42363e-01,1.00295e-01,2.76377e-01,-4.76891e-01,-7.48202e-02,3.11234e-01,-4.18360e-01,1.59858e-01,9.97164e-02,6.90769e-02,-2.68922e-01,-2.95830e+00,8.84651e-02,5.00518e-01,-3.88437e-02,
2.20759e-01,1.38813e-01,-2.01143e-01,-2.97126e-01,-1.76443e-01,-2.47030e-01,8.38906e-02,5.86143e-01,5.75050e-01,8.29126e-02,2.96961e-01,1.64634e-01,5.75725e-01,-2.83178e-01,3.81202e-01,-3.42308e-01,-1.99208e-01,-5.29656e-01,-2.83329e-01,-1.63010e-02,1.26301e-01,1.60862e-01,2.67600e-01,1.34166e-01,-1.61985e-01,
-2.30710e-02,3.61950e-02,-3.18601e-01,8.35829e-02,2.94265e-01,-1.05777e-01,-1.00627e-01,2.67264e-01,-7.53254e-02,3.96815e-01,1.27339e-01,-4.09772e-01,3.21661e-01,1.71843e-01,3.28414e-01,-5.87155e-02,-6.83791e-01,-7.15487e-01,-1.71120e-01,8.40341e-02,-3.47672e-01,1.05868e-01,1.24954e-02,-4.57923e-02,-1.60583e-01,
1.01072e-01,5.11405e-01,-1.25951e-01,-1.39974e+00,-3.96352e-01,2.92101e-01,-1.95491e-01,5.81612e-01,3.98397e-01,-2.27818e-01,8.18974e-02,-1.60758e-01,-1.66568e+00,3.65040e-01,-5.59506e-01,1.51685e-01,1.45239e+00,-8.72410e-04,1.51297e-01,-6.97689e-01,1.31149e-01,-3.62207e-01,1.09121e-01,1.87022e-01,-2.47511e-01,
-2.13866e-01,2.81144e-02,3.25826e-02,5.71499e-01,3.31121e-01,-4.71194e-02,2.80830e-01,-5.56810e-01,1.24519e-02,-8.13768e-02,-3.27328e-01,1.23510e-01,-2.75827e-01,-1.90270e-01,-2.80797e-01,-2.59991e-01,-2.09846e-01,8.87122e-02,-1.62174e-01,2.26755e-02,3.02488e-01,1.47542e-01,-3.12506e-01,1.37332e-01,1.45254e-01,
-1.56612e-01,-5.39243e-01,7.22115e-02,1.91123e-01,-1.15337e-01,-1.47485e-04,-3.41198e-01,-7.90902e-02,-8.85481e-01,2.86524e-01,2.25253e-01,3.14015e-01,-5.57558e-02,-4.49216e-02,-3.95487e-02,-1.79374e+00,1.54127e-01,2.80698e-01,1.79591e-01,-2.85834e-01,-1.47822e-01,1.30989e-01,1.19783e-01,3.23484e-02,1.58770e-01,
-3.77725e-04,2.54720e-01,2.45866e-01,-2.25468e-01,1.53174e-01,-3.94724e-02,2.82863e-01,8.84588e-01,3.02436e-01,2.83366e-01,-1.49861e-01,-1.55077e-01,-1.12113e+00,1.00524e-01,-2.80997e-01,2.70724e-01,-1.93165e-01,-4.04584e+00,1.91793e-01,-6.53187e-01,2.56045e-02,-2.51211e-01,-1.89408e-01,5.17261e-02,1.61933e-01,
-1.48816e-01,-2.23053e-01,-2.35906e-01,-5.19266e-01,-5.57887e-01,-1.81642e-01,1.82450e-01,7.38150e-01,1.03032e+00,1.09012e-02,-3.21893e-01,1.34608e-01,8.33211e-01,1.21096e-01,-1.23125e-03,1.18102e-01,5.28339e-01,7.89696e-02,2.18825e-01,1.18891e-01,-6.73759e-01,-2.04547e-01,-1.12382e+00,-1.81593e+00,-1.03696e-01,
-2.07000e-01,2.24710e-01,-3.14966e-01,-1.29313e-01,-3.06057e-01,1.31328e-01,5.87685e-02,-2.95270e-01,4.09245e-02,2.77302e-01,2.89362e-01,-2.56345e-01,1.28148e-01,9.76682e-02,-2.39229e-01,1.75054e-02,-1.04214e-01,2.04602e-01,-7.78374e-03,-2.49222e-01,-2.33660e-01,-2.03340e-01,-3.20152e-01,4.81038e-02,3.15606e-02,
7.81660e-02,1.07518e-02,2.63625e-01,2.12399e-01,3.47528e-01,3.42569e-01,5.60030e-02,1.02089e+00,5.12095e-01,-5.23991e-01,-2.86094e-01,-1.22316e-01,5.60258e-01,-3.96237e-01,-1.92744e-01,1.40567e-01,-6.83564e-01,-7.97699e-01,-5.49085e-02,2.25190e-01,2.61967e-01,-8.77050e-02,-5.24599e-01,2.37126e-01,-1.31271e-01,
1.50448e-01,-1.50590e-01,1.86567e-01,5.58764e-01,-1.70666e-01,-4.67513e-01,-6.11182e-02,3.62751e-02,-1.42098e+00,-2.34005e-01,6.98403e-02,2.95513e-01,-1.59798e-01,-3.28715e-01,-6.99833e-02,-2.75948e-01,-1.29725e-01,-8.07362e-01,2.90017e-01,4.83510e-01,-1.05944e-01,-6.89431e-02,3.17664e-01,-4.19963e-02,1.24939e-01,
8.16006e-02,2.27184e-01,2.19318e-01,-3.21103e-01,-2.35642e-01,4.73632e-01,2.02150e-01,8.50125e-01,9.01392e-02,6.95511e-02,-2.10941e-01,2.78934e-01,2.69789e-01,-2.01385e-01,-6.79289e-02,-2.71669e-01,1.77218e+00,-3.81378e-01,3.44891e-01,-6.52385e-01,1.74890e-02,-1.73562e-01,-8.52204e-01,-1.32300e+00,3.18702e-02,
-2.08287e-01,2.34368e-01,-1.30828e-01,-2.63263e-01,-1.25752e-01,2.34686e-01,-1.41607e-02,-1.02203e-01,-8.52114e-02,-2.59826e-01,3.33939e-02,-1.91126e-01,-1.37336e-01,-9.83686e-02,3.45372e-01,4.85799e-03,-6.41853e-02,-1.85825e-03,1.05075e-01,-2.61750e-01,-3.31588e-01,1.69410e-01,-1.12942e-01,2.92611e-01,3.15281e-01,
-1.08866e-01,-1.84479e-01,1.47173e-02,1.34443e-01,1.38257e-01,-4.93479e-02,1.66898e-01,-5.61142e-01,-3.01753e-01,6.86903e-02,-7.60070e-02,-1.25193e-01,-9.82900e-04,6.19958e-02,-2.74805e-01,6.32626e-02,8.58532e-02,-1.17116e-01,2.82169e-01,1.21498e-01,-3.27451e-02,-4.54552e-02,-6.24867e-02,-1.01643e-01,1.50204e-01,
-3.14760e-01,1.44617e-02,-5.10116e-02,-9.96737e-01,-4.53311e-01,-4.47950e-01,4.02375e-01,2.81581e-01,6.99099e-01,-2.83987e-01,-3.21901e-01,-3.86532e-02,-1.18628e+00,1.59144e-01,-1.24598e+00,2.72441e-01,6.54280e-01,4.99538e-02,-1.69267e-01,-1.37631e-01,1.50013e-01,-9.79672e-01,-1.03212e-01,4.39375e-01,2.40290e-01,
-1.97228e-01,
-2.63557e-01,
2.11307e-03,
3.01289e-01,
3.60453e-02,
-2.15717e-02,
1.27314e-01,
2.66783e-01,
1.25475e-01,
2.88242e-01,
-1.08461e-01,
-5.13289e-02,
1.99522e-01,
1.78351e-01,
3.76363e-02,
1.60349e-01,
2.19731e-02,
7.70895e-03,
-1.79912e-01,
3.33615e-02,
-5.62494e-02,
-1.58545e-01,
-2.20097e-01,
3.65079e-01,
-9.85058e-02,
-2.92049e-01,1.46829e-01,-1.08709e-01,3.52909e-02,-2.26380e-01,6.18744e-01,7.32443e-02,2.13350e-01,3.07890e-01,3.83463e-01,-4.28308e-01,1.80667e-01,-1.35105e-01,3.15032e-01,-4.28685e-01,9.36087e-02,4.04774e-01,6.80434e-02,2.26677e-01,1.29026e-01,-9.06265e-02,-3.91937e-01,-8.31597e-04,1.30425e-01,9.90763e-01,
-1.26714e-01,-3.01605e-01,-9.23323e-02,-4.39514e-02,-6.02064e-02,1.64590e-01,-1.41716e-01,-2.70765e-01,-3.60712e-01,-2.18423e-02,1.08791e-01,-3.00331e-01,-1.60564e-01,3.31844e-01,1.48988e-01,3.30526e-01,-2.76005e-03,-7.77999e-02,2.82683e-01,1.94076e-01,-1.23350e-01,3.59649e-02,2.97242e-01,1.65024e-02,8.10848e-02,
1.10626e-01,2.24119e-01,-3.88527e-01,-1.76092e-01,-7.68521e-02,-9.03744e-02,-7.94675e-01,-8.69479e-03,1.21306e-01,-7.23260e-02,1.54569e-01,1.79234e-01,-4.38669e-01,6.03800e-02,-2.32236e-01,-1.48138e-01,-3.52659e-01,5.73025e-01,2.62871e-01,1.14353e-01,-1.21337e-01,-8.77685e-02,-3.20195e-01,1.64624e-01,-1.80703e-01,
-1.67653e-01,3.02749e-01,-2.08232e-01,2.58160e-01,2.40952e-01,-2.34008e-01,3.42245e-01,2.36044e-01,-2.71010e-01,-3.39381e-01,2.71585e-01,-1.71344e-02,-3.22786e-01,-1.80838e-01,1.16472e-01,-2.91619e-01,1.26977e-01,8.87842e-02,4.03753e-03,2.91665e-02,2.10196e-01,5.95247e-02,-4.35280e-02,-3.40426e-02,4.51114e-02,
-1.77077e-01,2.94403e-01,-2.80521e-01,-2.36179e-01,-1.15668e+00,1.80180e-01,5.37316e-01,-1.37608e-01,-1.23682e-01,9.29781e-02,-1.36030e-01,-2.06205e-01,1.33777e-01,-2.86869e-02,-2.10460e-01,1.88560e-01,-2.68711e-03,-2.22731e-01,1.05234e-01,3.17409e-01,1.34334e-01,-4.99219e-01,1.47091e-01,-6.60657e-02,-2.66217e-01,
-2.22086e-01,2.68286e-01,2.34047e-01,3.28980e-01,3.72852e-01,1.05097e-01,-4.88850e-03,8.33009e-02,1.39485e-01,2.64856e-01,-3.03961e-01,-7.78659e-02,-2.79181e-01,4.56258e-01,-1.43162e-01,-2.58558e-01,2.44400e-01,-3.20010e-01,-2.55430e-01,-3.57413e-01,-3.99156e-01,7.91336e-01,-1.68424e-01,-2.52452e-01,-4.47808e-01,
1.37967e-01,-2.27265e-01,3.16250e-02,-1.37773e-01,1.28457e-01,-2.43487e-01,4.95600e-01,2.02698e-01,-7.58775e-02,-1.40201e-02,1.92749e-01,-2.15824e-01,1.45976e-01,3.18706e-01,4.19372e-01,1.77517e-01,1.61582e-01,-8.65079e-01,-8.77197e-02,1.43025e-01,8.35170e-02,1.05226e+00,2.62644e-01,2.39538e-01,3.01686e-02,
-1.73558e-01,1.47681e-01,3.92703e-01,1.00370e-01,5.84112e-01,-1.33284e+00,7.07114e-01,-1.53939e-02,1.37516e-01,8.97844e-03,4.13164e-01,2.88240e-01,-4.68184e-01,-1.17390e-01,1.01787e-01,2.12326e-01,2.01255e-01,-3.25160e-01,-2.50436e-01,-9.80332e-02,-3.22620e-02,-1.99396e-02,3.58331e-01,-3.45886e-01,-1.20544e-01,
2.74448e-01,4.80933e-02,-4.76923e-02,-6.58429e-02,6.58780e-02,-3.43451e-01,2.25258e-01,2.66108e-01,-4.59599e-02,7.72459e-02,-8.36275e-02,-1.38038e-01,1.77907e-01,2.03436e-01,-1.53962e-01,-7.30954e-02,-3.49277e-01,1.12761e-01,-8.41062e-02,-3.40751e-01,-3.27165e-02,2.39163e-01,-1.49250e-01,3.70712e-02,7.19481e-02,
-3.04036e-01,2.22706e-01,3.49453e-01,-2.57456e-01,-1.41988e-02,2.82575e-01,9.59908e-02,4.78779e-02,-1.12724e-01,9.77680e-02,-2.53282e-01,-6.65163e-03,1.49519e-01,4.73213e-01,-1.45854e-01,1.89730e-02,7.28833e-02,1.53768e-01,-1.63351e-01,2.77372e-01,1.75561e-01,-1.26175e+00,7.37974e-02,-3.25952e-01,5.94895e-01,
-6.17247e-02,1.13692e-01,-1.06607e-01,3.64363e-01,2.87480e-01,-8.84054e-02,4.76157e-01,-2.23704e-02,-1.19563e-01,-1.90124e-01,-1.21011e-01,-1.70010e-01,-4.74077e-01,8.38051e-01,-2.65403e-01,8.71868e-02,-1.94579e-01,-7.00041e-01,3.38089e-01,-3.67408e-01,-8.36234e-01,6.29710e-03,6.91098e-02,1.99458e-01,-1.20053e-01,
-1.07561e-01,-3.26627e-01,-1.75743e-01,1.70633e-01,-1.23231e-01,2.18658e-01,-1.25204e-01,6.31480e-02,7.61596e-02,-2.53660e-01,2.89032e-02,4.91825e-01,1.05538e-02,3.56807e-01,-3.91874e-01,3.13194e-01,-4.01075e-01,3.16888e-01,-7.34413e-03,1.19504e-01,1.39368e-01,-2.12127e+00,1.28880e-01,-2.16797e-02,-6.82082e-01,
-2.67859e-01,1.46067e-01,2.79110e-01,-2.34409e-01,-2.10158e-01,4.37461e-01,-7.11160e-02,1.52461e-02,-1.07516e-01,-2.08984e-02,-1.10818e-01,-1.40576e-02,1.31226e-01,7.92595e-02,-4.49520e-01,2.08547e-01,-4.27382e-02,9.07334e-02,-1.69085e-01,-3.12408e-01,5.54182e-01,-2.88677e-01,-5.56057e-02,-9.60061e-02,-6.42392e-02,
7.51626e-02,-2.79428e-01,1.81693e-01,-2.34238e-01,-6.44876e-02,-1.00745e-03,1.25089e-01,2.27415e-01,-7.80713e-02,2.79932e-01,-4.50268e-02,-1.89600e-01,2.54698e-01,-1.97977e-01,4.16609e-01,1.20628e-01,3.49768e-01,4.47998e-01,3.23777e-01,1.09350e-01,5.86647e-03,-6.52746e-01,3.51641e-02,2.60196e-01,-1.63761e+00,
2.66686e-01,-1.99978e-01,2.22447e-01,-1.69017e-01,1.28141e-01,1.29551e-01,-2.01991e-01,-1.80266e-01,-4.06986e-01,-6.90072e-02,-2.72560e-01,-2.80837e-01,2.03168e-01,-1.27389e-01,-3.25917e-01,2.45241e-01,-3.83387e-02,-1.94514e-01,2.33796e-01,1.56641e-01,-3.22055e-01,3.10088e-01,1.82191e-01,1.73692e-01,-2.57135e-01,
-1.18319e-01,2.37144e-01,-6.02195e-02,-1.22178e-02,-1.10356e-01,-2.76735e-01,-1.31098e-01,-1.15864e-01,-2.29676e-01,-2.56495e-01,3.03544e-01,5.32392e-02,-4.77153e-03,6.96859e-01,4.78922e-02,1.21771e-01,-2.68308e-01,-2.81434e-01,2.54072e-01,7.01631e-02,8.45610e-02,7.03505e-01,-1.47787e-01,-8.85819e-03,-8.81641e-01,
9.85433e-02,-1.02423e-01,3.86029e-02,-3.68306e-02,2.26083e-01,2.32365e-01,8.69618e-01,2.88366e-01,2.19285e-01,1.52384e-01,-2.54792e-01,3.78250e-02,2.77342e-01,4.41739e-01,1.78168e-01,2.14113e-01,3.95741e-02,-9.52153e-01,-1.96694e-02,6.99143e-03,6.23497e-02,1.49305e-01,3.05517e-01,6.32953e-02,8.83525e-01,
3.46401e-01,2.23088e-01,-9.83439e-02,-1.14333e-01,-2.54447e-01,1.91581e-01,1.30062e-01,2.20255e-01,-2.32778e-01,-7.86899e-02,-2.51075e-01,-1.79544e-01,1.68658e-01,-2.79599e-01,2.22967e-02,-1.71060e-01,-2.77523e-01,-6.09124e-02,2.90675e-01,1.57752e-01,3.22007e-01,-1.29590e-01,-1.09664e-01,-8.60568e-02,-1.96378e-01,
-1.60266e-01,-2.12555e-01,-2.96969e-01,-3.28467e-01,-1.47145e-01,1.56462e-01,-8.74476e-02,-1.38078e-02,1.96871e-01,-2.15348e-01,-2.14309e-01,4.95893e-02,-9.74011e-02,4.00458e-02,-2.96887e-01,-1.76605e-01,-2.31094e-01,-6.22818e-02,1.51148e-01,-2.57757e-01,-1.51388e-01,1.52044e-01,1.67571e-02,1.61281e-02,2.37253e-01,
-2.92860e-01,-7.40294e-02,3.20367e-01,1.60057e-01,3.00573e-03,9.99857e-03,2.58004e-01,-1.92975e-01,-2.79220e-01,-2.78891e-01,-1.59478e-01,-2.64627e-01,-2.22090e-01,-3.08603e-01,-1.54535e-01,-3.28161e-03,-2.79250e-02,1.19863e-01,8.57462e-02,-4.66269e-02,-9.63204e-02,9.91243e-03,2.83610e-01,6.89166e-02,2.54265e-01,
-1.20468e-02,-1.01185e-01,1.64518e-01,-4.59145e-01,1.72225e-01,-2.24801e-01,7.82467e-01,-9.48392e-02,-4.32452e-01,1.49089e-01,-3.51573e-01,-5.57624e-01,3.17109e-02,-7.82545e-02,-9.76888e-02,-5.00818e-02,1.66432e-01,4.23592e-01,-3.06531e-01,1.65031e-01,-2.61929e-01,-2.98187e-02,1.00923e-01,-9.97604e-02,-2.50791e-01,
-1.14810e-03,-3.39180e-01,-2.66689e-01,7.44840e-02,-3.56376e-04,-1.05045e-01,7.87410e-03,-2.72902e-01,3.78561e-03,-2.74919e-01,-8.17511e-02,-3.37165e-02,-1.60659e-01,-9.85508e-02,2.00995e-02,3.22816e-01,-2.45639e-02,2.92424e-01,1.99295e-01,4.79355e-02,1.46285e-01,-9.77598e-02,2.63803e-01,1.32738e-01,1.37986e-01,
2.54267e-01,-2.81002e-01,-1.32713e+00,-1.81922e-01,-1.59581e+00,-3.55061e-01,7.49768e-01,2.75078e-01,-9.69599e-02,-2.42795e-01,5.66597e-01,-2.83864e-01,3.50378e-01,5.95001e-02,-1.14097e+00,7.19968e-01,3.19704e-01,-1.31259e+00,2.28738e-01,-3.58532e-01,1.94631e-01,4.48238e-01,-1.86948e-02,-3.37893e-01,4.75900e-01,
3.42575e-01,-1.71814e-01,-4.02525e-01,-2.54335e-02,3.72106e-02,1.01213e-01,2.79924e-01,-2.63362e-01,-2.09915e-01,3.77015e-02,1.69047e-01,-3.00807e-01,-2.16830e-01,-8.89852e-02,1.35362e-01,2.24580e-01,-2.89550e-01,-5.99957e-02,-1.87527e-01,-1.50039e-01,2.08182e-01,-1.90237e-01,-3.62916e-02,5.57053e-02,2.58196e-01,
2.68550e-01,-1.05254e-01,2.49877e-01,2.38259e-03,-2.63729e-03,9.33031e-02,-5.24103e-01,1.73198e-01,1.89283e-01,2.33398e-01,-2.08645e-01,-2.07582e-01,2.46502e-01,1.05487e-01,2.50649e-01,-2.02207e-01,5.54314e-02,1.05735e+00,2.20727e-01,-7.05601e-03,6.22258e-04,-8.35804e-01,-7.72716e-02,3.89730e-01,-1.97857e-02,
4.63377e-01,
-2.15983e-01,
3.12265e-01,
-3.10648e-01,
6.17785e-02,
1.05458e-02,
-3.36850e-01,
-2.72626e-01,
-1.72134e-01,
2.40041e-01,
2.33454e-01,
1.16288e-01,
1.32838e-01,
-1.71736e-01,
-3.65978e-01,
2.12673e-01,
-2.27239e-01,
-2.73855e-01,
-2.64630e-02,
-6.61404e-02,
1.87394e-01,
-1.85894e-01,
2.94354e-01,
-9.78883e-02,
-3.88680e-03,
-3.51235e-01,-5.51174e-01,-1.31955e-01,-5.79179e-02,-1.55259e-01,-1.68382e-01,3.01389e-02,-1.62434e-01,-2.14396e-01,6.52614e-02,-2.76440e-01,2.06136e-01,-2.63119e-01,3.31974e-01,-3.11788e-01,-7.01256e-01,-4.30471e-01,-3.56920e-01,5.94981e-02,3.72979e-01,3.08784e-02,-4.31640e-02,-1.97492e-01,-9.28646e-02,-3.96748e-01,
-2.04039e-01,8.06484e-01,6.41286e-03,-3.45594e-01,1.49979e-01,-1.85190e-01,-1.53228e-02,1.88048e-02,5.02469e-02,-3.32476e-01,1.99169e-02,2.65291e-01,1.91974e-01,3.75802e-01,4.23547e-01,-4.95944e-01,-1.70495e-01,-2.80079e-01,2.96471e-01,1.44705e-01,1.81316e-01,4.27602e-01,-4.24024e-02,-1.90976e-01,-9.39650e-02,
-1.47955e-01,6.77753e-01,3.31753e-02,-3.37246e-01,-3.58436e-01,-2.59930e-01,-3.85907e-01,-5.80725e-02,1.87881e-01,-3.39213e-01,6.29659e-02,1.15661e-01,1.53806e-01,4.49716e-01,3.15568e-01,-8.50013e-02,8.97109e-04,-1.63818e-01,-1.74756e-01,3.69183e-01,1.52273e-01,3.59562e-01,-6.51330e-02,-3.33916e-01,-2.41179e-02,
-2.44805e-01,1.19349e+00,-1.11493e-02,4.36402e-01,3.99599e-01,-1.94379e-02,4.38149e-01,3.43545e-01,1.16098e-01,-5.27774e-01,-2.96189e-02,2.52758e-01,3.56851e-01,3.15609e-01,7.53092e-01,-7.21510e-01,-2.09921e-01,9.98614e-02,-2.06955e-01,5.74973e-01,2.24212e-01,-3.56511e-01,1.09988e-01,3.68591e-02,-1.86527e-01,
2.05842e-02,1.02632e+00,1.66383e-01,-1.05957e-01,2.01266e-01,3.28234e-02,-4.87690e-01,1.15086e-01,-2.58553e-01,-8.70219e-02,4.79171e-01,3.55377e-01,2.36859e-01,3.01084e-01,-7.06625e-02,-6.37398e-02,-1.83963e-01,3.62576e-01,8.74922e-02,-7.71992e-02,1.70170e-01,2.83942e-01,-4.77285e-01,-8.28343e-02,4.48419e-01,
4.96270e-01,
1.65517e-01,
3.56312e-02,
2.90323e-01,
-3.39508e-01,
