// Neural Network File Format by Kyle Julian, Stanford 2016
6,3,5,25,
3,25,25,25,25,25,5,
0,
-56000.000000,-56000.000000,-3.141593
56000.000000,56000.000000,3.141593
-278.628049,0.000000,0.000000,-0.242819
112000.000000,112000.000000,6.283185,17.479225
9.29034e-01,-1.51671e+00,4.13783e-01,
-1.92934e-01,3.00691e-02,-1.37869e-01,
4.45743e-01,4.43641e-01,3.38554e-01,
-1.27550e-01,-3.51485e-01,-9.37603e-02,
-6.30373e-01,-1.80543e+00,-5.38938e-01,
-4.19645e-01,2.96848e+00,3.79232e-01,
-9.70076e-01,-1.89308e+00,-6.31837e-01,
3.37295e-01,7.37053e-02,2.62218e-01,
-2.60274e+00,1.08872e+00,4.02141e-02,
1.50318e-01,3.24023e-01,4.50129e-01,
-9.74840e-02,-2.55462e-01,-2.61859e-01,
2.56883e+00,-1.21655e+00,3.96961e-01,
2.07216e+00,-9.48389e-01,-6.49359e-01,
-3.76426e-05,-6.37608e-01,1.04448e-01,
6.77230e-01,1.63931e+00,6.57219e-01,
-1.01919e+00,-1.53493e+00,1.64378e-01,
3.74538e-01,-9.88562e-02,-3.54128e-02,
1.36178e-02,-5.44445e-02,-4.19113e-02,
-1.41089e-01,-1.14055e+00,3.02583e-01,
1.50388e+00,1.21223e+00,-2.87351e-01,
7.23012e-01,-7.02762e-01,6.60638e-01,
-6.94554e-01,1.46885e+00,-1.68628e-01,
-4.25601e-01,1.02603e+00,2.98950e-01,
-2.38636e-01,2.38030e-01,4.46517e-01,
6.90571e-01,1.02553e+00,-2.04950e-01,
-9.77623e-02,
-1.85024e-01,
1.90352e-01,
1.71687e-01,
-6.68196e-04,
2.74029e-02,
2.78183e-02,
-3.30236e-01,
1.28367e-03,
1.92860e-01,
-2.88664e-01,
5.77289e-02,
1.92906e-04,
7.72378e-02,
-9.32275e-04,
1.71736e-01,
-2.13772e-01,
9.34344e-02,
2.00827e-01,
1.23673e-01,
-3.30431e-02,
1.99449e-01,
3.34523e-01,
6.95747e-02,
5.18828e-02,
-1.57371e-01,-1.30771e-01,-6.46103e-02,-2.44943e-01,2.08826e-01,-1.22320e-01,4.33526e-02,-2.88679e-01,2.13809e-01,1.31140e-01,-2.24986e-01,4.73780e-02,-1.41832e-01,1.70416e-01,-3.22446e-03,2.06887e-02,3.36982e-01,-1.68060e-01,-2.18852e-01,-1.05806e-02,-2.74145e-02,2.70447e-01,-2.94316e-01,2.12533e-01,-8.15862e-02,
-7.85971e-02,3.10975e-01,1.44063e-01,-2.21222e-02,-3.21804e-01,2.76124e-03,-1.04207e-02,1.27480e-01,-3.99024e-01,-1.51974e-01,-1.12951e-01,2.22117e-01,-2.60633e-01,-7.20070e-02,-3.27047e-01,-2.85287e-01,1.51897e-01,2.64687e-01,-3.60897e-01,1.97783e-01,-7.13053e-02,-3.61111e-01,1.18396e-01,3.09944e-01,-6.17375e-01,
-5.66097e-02,2.70289e-01,2.12227e-01,3.33859e-01,3.24464e-01,-4.18237e-02,-2.38938e-02,-2.95446e-01,6.28818e-01,2.61299e-01,1.21493e-01,1.44737e-01,2.15825e-04,-1.40092e-01,-7.95832e-01,-1.43934e-01,2.14120e-01,2.90699e-01,2.49223e-01,1.03323e-01,-3.72518e-01,-2.99156e-01,1.08723e-01,-4.17693e-01,4.58530e-01,
2.47488e-01,-4.41422e-02,-3.03238e-01,3.16787e-01,-7.24983e-01,-2.31203e+00,1.29554e+00,-2.67092e-02,3.10890e-02,-1.84099e-01,-7.05358e-03,9.63263e-02,6.17136e-01,3.03714e-01,-1.38813e+00,2.65796e-02,3.15443e-01,2.17230e-01,-2.23308e-02,5.38569e-02,5.33442e-01,-2.91890e-02,-3.20002e-01,-6.26061e-01,-2.02719e-01,
-3.32754e-01,1.29827e-01,9.56993e-02,1.68344e-01,5.24711e-01,7.00988e-03,2.09824e-01,-3.15475e-01,1.07050e+00,-2.09724e-01,-3.00702e-01,5.74368e-01,5.23447e-01,1.36256e-01,2.59205e-01,2.89795e-01,5.15553e-02,-2.60915e-01,-7.89213e-02,-1.49555e-01,7.02823e-02,-3.10159e-01,1.18875e-01,-4.57210e-01,-5.29739e-02,
-2.66910e-03,-1.79356e-01,2.22446e-01,-2.05293e-01,-3.65108e-01,-5.73390e-01,2.01732e-01,-1.34902e-01,8.94345e-02,2.57035e-01,1.49534e-02,-5.23794e-01,6.58533e-01,-6.72933e-02,-4.28134e-02,2.74293e-01,1.38594e-01,2.39084e-02,2.93619e-01,-3.40556e-01,3.86813e-01,-1.68250e-01,-8.37541e-02,-2.21332e-01,3.56415e-01,
-3.66899e-01,1.42397e-01,1.66726e-01,-4.56019e-02,4.07434e-01,9.22055e-01,2.35849e-01,-3.45802e-01,2.49279e-01,-1.02733e-01,2.56806e-01,5.46966e-01,1.96113e-01,-1.30124e-01,2.53543e-01,2.20124e-01,1.07889e-01,1.77942e-01,-1.40593e-01,-2.31107e-01,-6.81712e-01,6.64733e-02,-1.96902e-01,-1.05291e-02,2.29222e-01,
8.83937e-01,-1.28184e-01,-1.08257e-02,-3.34957e-02,-1.19256e+00,-1.86819e+00,5.58604e-01,-2.51785e-01,-1.72555e+00,2.18643e-01,1.91442e-01,-1.15629e+00,5.26560e-02,3.61675e-01,-1.19703e-01,3.20983e-01,-3.03374e-01,-6.16056e-02,2.45191e-01,-2.74289e-02,3.51759e-01,1.80551e-01,-2.16498e-01,-2.74028e-01,-2.51394e-01,
1.01836e+00,7.96270e-02,-4.08505e-02,-8.46970e-02,-8.94815e-01,7.39856e-02,-5.24337e-01,1.68724e-01,6.10237e-01,-2.28786e-01,3.09126e-01,-2.28572e-01,-6.74627e-01,2.39244e-01,3.15560e-01,2.53499e-01,-3.34165e-01,-3.33633e-01,-5.56742e-02,-3.23720e-01,2.67123e-01,-3.00060e-01,-9.45255e-02,-2.14365e-01,3.64050e-01,
8.21117e-01,-1.98217e-01,4.29762e-01,1.23491e-01,-1.69243e-01,-5.51933e-01,1.87770e-01,-7.66636e-02,-1.04024e+00,2.51721e-01,-2.71864e-01,2.65041e-02,9.72529e-02,2.18397e-01,-2.31323e-01,-5.98999e-02,2.19305e-01,1.93534e-01,3.45600e-01,-1.25768e-01,5.22268e-02,-3.72556e-01,5.82847e-02,-2.00239e-01,-8.75040e-02,
1.42075e-02,-4.06343e-02,-1.94368e-01,2.68701e-01,1.53684e-01,2.42580e-01,-1.74086e-01,7.38340e-02,3.90207e-01,1.77974e-01,2.50464e-01,6.13661e-01,1.26174e-01,2.31660e-01,-1.26261e-01,-2.02269e-01,-2.44928e-01,2.68991e-01,1.30404e-01,2.45535e-01,-4.18865e-01,9.02589e-02,-3.82320e-01,-6.80982e-03,-9.71889e-02,
2.01825e-01,-1.01437e-01,3.34530e-01,-2.35866e-01,3.94505e-01,1.68179e-01,-3.82546e-01,1.95981e-01,6.94977e-01,2.42234e-01,1.07061e-01,-1.86626e-02,-1.20957e-02,-1.92812e-01,-2.73914e-01,2.61592e-01,1.30674e-01,-1.33153e-01,-2.28126e-01,4.40269e-01,7.34812e-02,2.83516e-01,2.24272e-01,-1.46007e-01,5.77842e-02,
3.60536e-01,1.78572e-01,2.74342e-01,3.41393e-01,-1.71013e-01,-5.53586e-02,4.70302e-02,1.14689e-01,-1.18024e+00,1.61664e-01,-1.88203e-01,-2.23669e-01,2.40481e-01,2.80911e-01,-8.58291e-02,3.92060e-01,2.71219e-01,-1.83066e-01,-1.55167e-01,-3.09642e-01,2.68601e-01,3.89404e-01,1.92388e-01,4.39895e-01,-1.36895e-01,
5.65751e-01,3.40597e-01,-2.64780e-01,-8.20459e-02,-1.45829e-01,-4.85460e-01,-1.03646e-01,3.15461e-01,-6.43502e-01,-2.98657e-02,-7.34278e-02,-1.21583e+00,5.29013e-01,2.51190e-01,4.13668e-02,3.15388e-01,2.47023e-01,-1.48788e-01,7.39918e-01,-4.82017e-01,3.77669e-01,2.10480e-01,-3.32127e-02,3.07138e-01,-1.65302e-01,
-3.04432e-01,3.45835e-01,3.17839e-02,-1.42302e-01,-1.26678e-01,-9.30551e-02,1.50280e-01,-3.25420e-01,9.19488e-01,-1.56538e-01,1.93103e-01,-6.09084e-01,4.42944e-01,2.85188e-01,-2.61290e-01,-7.98682e-01,-6.11076e-02,3.90922e-01,-1.69577e-01,3.82558e-01,-7.64353e-01,-2.07089e-01,-1.74084e-01,4.31861e-01,3.67765e-01,
-5.31755e-02,1.46013e-01,2.79927e-01,7.86745e-02,-1.79254e-02,-6.15465e-02,2.89733e-01,6.11921e-02,2.40740e-01,2.34674e-01,2.05035e-01,-1.37976e-01,3.63016e-02,-3.49876e-03,-3.30299e-01,1.23900e-02,3.14710e-01,2.35396e-01,1.09783e-01,-9.37845e-02,1.10926e-01,-1.02448e-01,2.65756e-01,-1.45570e-01,7.09088e-02,
5.84872e-02,8.48587e-02,2.70921e-01,1.36441e-01,7.68615e-01,2.33497e-01,-8.01075e-03,-8.81218e-02,7.69996e-01,-2.26215e-02,2.21801e-01,4.61329e-01,8.17097e-01,-2.78816e-01,3.81790e-01,1.04240e-01,7.22320e-02,-3.04642e-01,3.32659e-01,2.79258e-02,-1.91453e-01,-1.66540e-01,-3.79597e-01,4.27423e-02,-3.89660e-01,
-7.14109e-02,1.53297e-01,1.82392e-01,1.83315e-02,4.98497e-01,9.29540e-02,-3.05675e-01,-2.49019e-01,6.26235e-03,-2.32011e-01,1.73491e-01,4.22196e-01,4.11541e-01,-4.38224e-01,2.03033e-01,2.17674e-01,1.97872e-01,1.53864e-01,1.97313e-01,4.04129e-02,-3.06202e-01,-2.98534e-01,-2.17479e-01,-1.40586e-01,2.02268e-01,
-4.48081e-02,-1.85028e-01,-2.09254e-01,-3.00651e-02,-2.39105e-01,-8.24900e-02,-1.32492e-01,9.85663e-02,-1.83190e-01,2.75136e-01,-2.17125e-01,1.34414e-01,-2.98958e-01,-1.98528e-01,2.24282e-01,-3.06818e-01,-6.21229e-02,-1.37696e-01,2.26571e-02,-2.79783e-01,-2.72370e-02,2.61166e-01,2.42519e-01,-2.18923e-01,-7.01820e-02,
-3.48120e-01,2.71305e-01,2.58089e-01,3.55477e-02,6.07492e-01,5.09187e-01,3.36326e-01,-3.06952e-01,1.32196e+00,-2.58238e-01,2.60726e-01,2.69132e-01,1.36094e-01,1.17316e-01,3.28807e-01,2.30034e-01,-7.11309e-02,-1.75292e-01,-7.54568e-03,3.46596e-01,2.74987e-01,4.00972e-01,2.43413e-01,-5.63321e-02,4.69260e-01,
-2.33946e-01,-2.61532e-01,-1.08012e-01,-1.16768e-01,8.73406e-02,-1.92584e-01,-2.35427e-01,-1.51363e-02,7.61930e-02,1.06802e-01,2.83023e-01,1.33153e-01,-1.16032e-01,-6.00816e-02,-2.34742e-01,-2.81734e-01,1.92862e-01,6.01037e-02,-3.07114e-01,-2.05990e-01,1.19847e-01,1.51767e-02,-3.35041e-01,1.83048e-01,1.97070e-01,
7.36825e-01,2.95425e-01,2.84590e-01,4.00472e-02,8.83702e-02,-3.49252e-01,7.67714e-02,3.35544e-01,-1.49158e+00,-2.35866e-02,2.00775e-01,-6.25492e-01,-3.36336e-01,5.26606e-02,-4.37084e-01,1.70493e-01,1.37615e-01,1.57178e-01,-1.58934e-02,-2.25623e-01,3.16100e-01,3.62857e-01,4.04143e-01,3.58667e-01,2.78255e-01,
1.21096e-01,3.18612e-01,2.26364e-01,4.45319e-02,2.59651e-01,2.21094e-01,-2.95630e-01,2.49121e-01,-1.50228e-01,-4.94784e-02,2.26078e-01,-1.81183e-01,2.76058e-01,3.12049e-01,2.59604e-01,1.42734e-01,-2.55029e-01,3.21415e-01,2.09024e-01,-1.26209e-01,-1.99855e-01,-8.70553e-02,3.19662e-01,1.51737e-01,-1.37195e-01,
4.65706e-01,-1.13128e-02,2.65287e-01,-2.75001e-01,4.13907e-02,-9.26010e-01,7.44882e-02,-2.00193e-01,2.52873e-01,-1.83814e-01,-3.10059e-01,-3.06753e-01,-1.95272e-01,-1.44372e-01,-5.25539e-01,-1.25856e-01,-1.10618e-01,-1.67250e-01,-6.04533e-02,3.88825e-01,2.21648e-01,1.69986e-02,9.50547e-02,1.62213e-01,-5.12809e-03,
1.30854e-01,-4.55040e-02,-6.27245e-02,-2.29352e-01,-7.26886e-02,7.27314e-02,-1.92359e-01,3.10003e-02,-2.51389e-01,1.49585e-01,3.16343e-01,5.89932e-02,2.38133e-01,-2.34435e-01,-3.31375e-02,-3.93809e-02,3.34455e-01,-2.43563e-01,-2.15413e-01,-7.18353e-02,5.90799e-02,-2.00365e-01,-1.97014e-01,2.23840e-01,-2.24273e-01,
2.59625e-01,
3.00670e-01,
3.01181e-02,
2.10784e-01,
1.41884e-02,
4.61287e-02,
-3.77635e-03,
8.34593e-02,
1.75658e-01,
3.45142e-02,
-7.47060e-03,
-1.66534e-01,
-1.68255e-01,
-3.28109e-02,
1.14282e-01,
7.83488e-02,
-3.02194e-02,
6.14514e-02,
-2.73418e-01,
-2.74051e-01,
-1.80475e-01,
-1.01013e-01,
-1.24343e-01,
3.26248e-01,
-2.28722e-01,
2.65426e-01,-1.15460e-01,-1.71900e-01,2.54783e-02,-5.52722e-01,2.85099e-01,-3.34092e-01,7.96849e-01,-2.54744e-01,3.78908e-02,-1.29705e-01,6.94918e-02,9.05824e-02,-1.33603e+00,7.65732e-01,-3.53362e-01,2.40275e-01,-1.16000e-01,-2.17527e-01,6.12068e-02,-7.98649e-02,3.51983e-01,-4.84948e-02,3.28265e-01,-5.31844e-02,
3.32777e-01,4.98157e-01,-9.88270e-02,5.72847e-01,-1.14004e-01,-7.42181e-01,1.84109e-01,3.80193e-01,1.53874e-01,-2.58436e-01,-2.03545e-01,-1.10488e-01,-3.93666e-02,-3.70967e-02,-3.44313e-01,-1.66353e-01,1.00495e-01,7.33460e-02,-2.96973e-01,2.85596e-01,-1.70851e-01,-3.01947e-01,3.43725e-01,-9.99256e-02,-4.62805e-02,
-3.12958e-02,3.47052e-01,-1.91675e-01,9.91153e-02,2.15002e-02,-3.55554e-01,-9.70544e-02,-4.48490e-02,1.31250e-01,-2.71506e-01,1.31514e-01,1.34407e-02,1.12836e-01,3.39773e-03,-1.05360e-01,-1.96258e-01,5.80098e-02,-6.16611e-02,2.84492e-01,5.23036e-02,9.56723e-02,-1.83048e-01,-3.99070e-01,1.73222e-01,-2.45969e-01,
-2.34595e-01,2.53421e-01,-2.35593e-01,-2.66024e+00,-5.91226e-01,3.12672e-02,-1.02814e+00,-9.63586e-01,-4.73005e-02,-1.43933e-01,-3.25566e-01,7.69948e-02,1.71115e-01,-1.98039e+00,4.61097e-01,5.42671e-02,2.74365e-01,-1.16562e-01,-1.44829e-01,-6.15073e-01,-2.26657e-01,1.94515e-01,-1.93230e-01,3.21921e-01,-1.21649e-01,
2.41074e-03,-1.91447e-01,4.41519e-02,-1.08590e-01,1.95657e-01,-8.83264e-03,4.29216e-01,8.28332e-02,-1.43606e-02,-1.17318e-01,3.74273e-01,1.73513e-01,6.31693e-01,2.97175e-02,4.22913e-01,-2.77122e-01,-5.50046e-02,-7.13340e-03,-2.89019e-01,1.26352e-01,-1.46913e-01,5.84712e-01,-3.41282e-01,2.29010e-01,-1.23942e-01,
3.08725e-01,-1.79866e-02,2.67490e-01,-9.31958e-04,-1.42400e-01,1.51200e-01,4.63843e-02,-2.97875e-02,6.72490e-03,1.34278e-01,1.87073e-01,-1.61690e-01,-2.56431e-01,-2.46875e-01,2.78292e-01,3.02899e-01,-9.41367e-02,-1.58600e-01,1.37943e-01,2.42683e-01,9.68109e-02,-1.06217e-01,2.05669e-01,2.15680e-01,3.80728e-02,
-4.52382e-02,2.26703e-01,-1.67965e-01,1.29236e-01,-9.54132e-02,9.78889e-02,1.37611e-01,2.75329e-01,4.89899e-02,-3.14367e-01,-2.85936e-01,2.39954e-02,3.98685e-01,-7.40475e-01,3.85357e-01,2.08708e-01,4.59916e-01,-6.40531e-02,-2.63296e-01,-3.19662e-01,8.37616e-02,3.24411e-01,1.93054e-01,-1.22233e-01,3.23301e-01,
-2.41650e-01,-3.28146e-02,-2.13404e-01,-8.10590e-02,-7.02745e-02,2.36688e-02,-3.48213e-01,1.93447e-01,-7.63278e-02,2.98109e-02,-4.56138e-02,4.49799e-01,4.04086e-01,3.55330e-01,-6.22143e-02,1.79672e-01,6.86748e-03,9.67122e-02,1.68444e-02,1.43200e-01,1.80231e-01,2.81660e-01,-9.67132e-02,-2.39434e-01,1.23469e-01,
1.04601e-01,-2.89697e-01,1.99087e-01,7.79274e-02,2.69070e-01,-7.15672e-02,1.37308e-01,2.47224e-01,-1.19061e-01,-4.17843e-02,-2.47956e-01,3.05010e-01,-7.65755e-02,-3.23335e-01,1.36257e-01,-8.70419e-02,-2.60179e-01,2.66213e-01,-2.12200e-01,-2.68221e-01,-2.68227e-01,-2.65902e-01,-2.87340e-01,-4.00620e-01,3.03706e-01,
8.49561e-02,-2.65287e-01,1.41462e-01,4.16164e-02,-2.35918e-02,2.19710e-01,-2.15642e-01,8.12323e-02,-1.36445e-01,-1.72780e-01,-1.84337e-01,1.37565e-01,-2.21224e-01,-1.77989e-01,5.01418e-02,-1.71110e-01,1.18366e-01,-7.23437e-02,-1.26747e-01,-2.95165e-01,2.84925e-01,-2.22703e-01,1.81163e-02,1.72544e-01,2.11189e-01,
7.32126e-02,-2.53994e-01,2.38214e-01,2.65730e-01,1.95442e-01,-2.29135e-01,1.51775e-01,-3.97099e-01,3.90990e-01,-3.57848e-01,-6.89432e-02,-7.83783e-01,-1.54136e-01,2.53480e-02,1.03829e-01,-3.74187e-01,2.83352e-01,4.27201e-02,-5.11864e-02,-4.46826e-02,7.71343e-02,9.21477e-01,-2.19984e-01,1.30177e-01,6.09293e-02,
-1.47596e-01,1.08604e-01,7.08482e-02,-8.16657e-02,-3.59430e-02,1.26185e-01,8.83446e-03,2.76397e-01,2.63875e-01,-1.26509e-01,-1.63409e-01,-9.21767e-02,-4.15080e-02,5.77310e-03,-7.31568e-02,-2.66079e-01,1.29599e-02,2.72758e-01,-9.38558e-02,1.33278e-01,-2.52890e-01,3.46129e-01,-2.72702e-01,-7.47854e-02,9.45390e-02,
2.36430e-01,-5.43476e-02,3.12250e-01,-4.22328e-01,-4.13852e-01,-1.16414e-01,-5.35650e-01,5.03277e-02,-2.61185e-01,-4.31677e-02,2.83192e-02,2.52972e-02,3.61671e-01,-3.18468e-02,1.44070e-01,1.31729e-01,6.25915e-01,-2.58597e-01,9.12040e-04,-1.49493e-02,-3.35129e-01,3.60187e-01,2.42778e-01,2.86009e-01,1.88686e-01,
-5.65568e-02,-8.52212e-02,-3.22978e-01,-1.86096e-01,8.02292e-02,2.00245e-01,-2.33906e-01,-2.31905e-01,-1.82815e-01,-3.55036e-01,-2.75506e-01,-1.74599e-01,1.60652e-01,1.50216e-01,1.59184e-01,-3.20153e-01,-1.56723e-01,7.50582e-02,-1.41294e-01,-2.43571e-01,3.18150e-01,-8.09096e-02,2.92342e-01,-8.08739e-02,1.36332e-01,
-4.90680e-01,-5.70791e-01,5.84757e-02,-1.56717e-01,-3.06384e-01,5.60679e-01,-7.08946e-02,-5.62699e-02,7.28813e-01,2.08093e-01,1.03480e-01,1.19524e-01,1.71987e-01,4.19277e-01,-2.09926e+00,1.21599e-01,3.31339e-01,1.07044e-01,1.28106e-02,1.13117e-02,-1.18493e-02,2.73004e-01,-9.28436e-02,4.80209e-03,2.20684e-01,
2.18681e-01,-3.03208e-01,4.18167e-01,1.83934e-01,2.30401e-01,1.38820e-01,2.95126e-01,3.35435e-01,2.64435e-01,1.60541e-01,-9.56256e-02,-1.38886e-02,8.65270e-03,8.41365e-01,-4.51366e-02,4.08942e-02,2.34267e-01,-1.95559e-01,2.85505e-01,-3.00956e-01,-1.50962e-01,-1.88883e-01,-1.66928e-01,2.11248e-01,-2.65401e-02,
-1.16873e-01,-3.93331e-01,-3.36461e-01,-1.27595e-01,2.45685e-01,-1.32551e-01,1.54477e-01,4.79717e-01,3.87418e-01,1.66472e-01,9.78235e-02,-2.46526e-01,1.96676e-01,3.52361e-01,-2.83772e-01,-1.28467e-01,-1.61030e-01,3.23015e-01,-2.06249e-01,2.11104e-02,-1.02208e-01,3.13863e-01,-1.32239e-01,6.54802e-02,2.96926e-01,
2.46446e-01,-2.43847e-01,-3.26201e-01,5.47084e-01,-3.50045e-02,1.91314e-01,2.38002e-01,3.28123e-01,2.31068e-01,-1.47060e-01,-3.99216e-01,-1.57582e-01,4.81990e-01,-1.15002e+00,-5.71339e-02,1.03215e-02,-5.38415e-01,4.81827e-02,-1.85815e-02,-1.87057e-01,3.36363e-01,2.84318e-01,1.51969e-01,-3.86288e-01,-3.20932e-01,
-4.05113e-02,1.15043e-01,-1.77347e-03,1.73865e-01,9.49416e-02,-2.09998e-01,3.50996e-01,-6.97894e-01,-1.57812e-01,-7.19667e-02,3.26561e-01,3.70408e-01,-1.10377e-02,1.18635e+00,-5.36912e-01,2.08608e-01,-2.40358e-01,2.67610e-01,1.46827e-01,2.39083e-01,-1.66790e-01,-2.44571e-01,2.74071e-01,8.93216e-02,7.70360e-02,
-1.42187e-01,5.26595e-02,-6.53242e-02,1.40990e-01,-5.18545e-01,-4.01378e-01,8.10260e-02,4.53803e-02,-9.30838e-02,-1.54140e+00,-3.13543e-01,1.18726e-01,2.71231e-01,-1.55306e-01,1.82492e-01,2.15302e-01,1.35717e-01,9.42039e-02,8.88857e-02,3.63558e-01,1.72073e-01,7.92438e-01,-5.77811e-01,4.24288e-01,3.06968e-01,
2.62725e-01,-1.67064e-01,6.27899e-02,3.95555e-01,2.57421e-01,9.30633e-02,3.03273e-01,-1.02645e-01,3.88907e-02,-5.22397e-01,1.35573e-01,-1.25475e-01,7.09608e-02,1.15837e+00,-6.21074e-01,1.05930e-01,-2.14139e-01,-1.87011e-02,2.88872e-01,2.15344e-02,-8.39143e-02,-7.96802e-02,-5.56098e-02,-3.80499e-02,2.32706e-01,
1.29021e-01,2.36241e-02,1.64720e-01,-8.64818e-02,5.38384e-01,1.76136e-01,-4.65665e-02,5.21378e-01,2.45466e-01,-1.63648e-01,-1.78834e-01,2.36295e-01,-3.10306e-01,-1.63896e-01,-1.33766e-01,1.88067e-01,-2.82550e-01,2.24248e-01,-2.16562e-01,2.65667e-01,-3.91935e-02,-2.02159e-01,-2.73788e-01,3.05998e-01,1.07363e-01,
2.52161e-01,-6.87310e-02,-2.37441e-01,-2.07016e-01,3.50590e-01,-2.24624e-01,2.00004e-02,-7.86994e-01,-1.12352e-02,-1.31551e-01,2.33867e-01,2.29070e-01,-8.12614e-02,8.65130e-01,-3.16906e-01,-2.86424e-01,-3.60159e-01,2.17513e-01,-2.68506e-01,1.28112e-01,-7.26759e-02,-1.62216e-01,2.62931e-01,-3.28158e-01,-1.23744e-01,
-3.50031e-02,1.11899e-02,1.51735e-01,-5.80053e-03,1.32484e-01,-1.42756e-01,1.79201e-01,-4.17731e-01,4.33781e-01,-9.88767e-02,6.10247e-02,8.84898e-02,6.52145e-02,5.85504e-01,1.54081e-02,-2.28363e-01,2.26513e-01,-9.30235e-02,1.06371e-01,4.81853e-01,-6.77386e-02,-6.44115e-02,1.62087e-01,-2.60602e-01,-1.90062e-01,
3.73082e-01,1.81375e-01,-2.58446e-01,1.48523e-02,9.12845e-02,-6.98363e-01,4.99083e-01,-5.00452e-01,5.83069e-02,-1.52247e-01,1.32938e-01,3.12050e-01,-4.46149e-02,2.26463e-01,-2.93295e-01,-1.12160e-01,-4.59105e-02,-2.38214e-02,1.03582e-01,4.21466e-01,6.66486e-02,-3.64720e-02,2.88781e-01,8.30576e-02,1.28591e-01,
1.87216e-01,
-4.94292e-02,
3.20983e-01,
1.41517e-01,
-2.27539e-01,
1.74071e-02,
2.42280e-01,
-2.77221e-01,
-1.87139e-01,
-2.00431e-01,
-3.38953e-01,
-2.73812e-01,
7.27980e-02,
1.40246e-01,
-2.95244e-01,
-2.65504e-01,
2.43997e-01,
6.13823e-02,
2.28718e-01,
-1.03820e-01,
1.73060e-01,
-5.64357e-02,
3.41557e-01,
-2.15108e-02,
1.29147e-01,
2.73424e-01,1.49239e-01,-2.71651e-01,3.00666e-01,-2.84225e-01,2.30359e-02,-8.87027e-02,-4.74362e-02,5.61316e-02,-1.05011e-01,3.00972e-01,-2.04056e-01,-1.88136e-01,2.19357e-01,3.71841e-02,-2.41586e-02,-1.63424e-01,2.06803e-02,-2.27671e-01,-1.81297e-02,-1.63448e-01,-7.71846e-02,-4.53205e-02,2.11726e-01,-1.13217e-01,
-3.13246e-01,-7.85942e-02,8.17923e-02,-3.10797e-01,-2.37747e-01,-1.10507e-02,-2.58320e-01,-1.32562e-02,-2.85579e-01,-2.23910e-01,-5.01943e-02,-1.64190e-01,5.11602e-02,1.46045e-02,-2.75779e-01,1.35554e-01,-1.08826e-01,1.12599e-01,-2.28151e-02,-9.52447e-02,-2.70897e-01,-2.14390e-02,-1.50087e-01,2.06138e-02,-3.83463e-02,
2.87293e-01,3.62893e-02,-3.41917e-01,-1.06508e-01,-2.32022e-01,-1.46613e-01,3.38274e-01,-3.13556e-01,1.92220e-01,1.63191e-02,1.25406e-01,-1.82358e-02,-8.23185e-02,-9.35809e-02,3.39059e-01,2.52638e-01,-1.62105e-01,6.55519e-02,-1.02080e-01,1.96712e-01,-3.39879e-01,-3.26107e-01,5.90307e-02,-3.09601e-01,1.57797e-01,
1.60004e-01,-1.10762e-01,-5.44034e-02,1.07644e-01,3.32518e-02,-1.75371e-01,-2.97596e-01,-1.90200e-01,1.94026e-01,-3.27657e-01,1.11466e-01,-2.06498e-01,-8.00198e-02,6.38918e-02,3.00408e-01,1.09779e-01,-2.44614e-01,-2.56509e-01,4.00662e-02,-2.89050e-01,-3.72587e-01,-2.28451e-01,-4.19806e-02,2.59178e-01,1.10051e-01,
1.27211e-01,-1.44851e-01,-6.61964e-02,-2.62594e-01,-2.08859e-01,-3.50128e-01,2.24007e-01,1.57341e-01,-2.56966e-01,7.70663e-02,-2.60815e-01,2.30571e-01,-1.14467e-01,2.31315e-02,2.01542e-01,9.94235e-04,-1.37172e-01,-1.31700e-01,8.56016e-02,8.09977e-02,-2.84220e-01,-2.22987e-01,2.36679e-01,-1.58111e-01,2.70163e-02,
6.50711e-02,-9.13848e-02,1.43076e-01,1.08051e-01,2.36702e-02,1.97368e-01,-2.19885e-01,7.36687e-02,1.95100e-02,-2.37412e-01,5.64124e-01,8.74882e-02,-2.22035e-01,-2.04702e-01,2.67002e-01,-1.15011e-01,-3.06587e-01,5.62978e-01,8.63126e-02,-4.11143e-01,2.40374e-01,-1.46773e-02,-2.43031e-02,-2.92695e-01,1.75194e-01,
-2.54230e-01,-1.00246e-01,9.51383e-02,7.87523e-01,-4.05353e-01,3.01589e-01,4.57057e-02,-5.45194e-02,1.19068e-01,-2.05823e-01,-1.04032e-01,1.91634e-01,3.52423e-01,-1.65223e-01,1.81316e-01,4.21260e-01,1.71362e-01,5.33636e-01,2.73975e-01,5.24067e-01,6.27100e-02,5.61964e-02,2.51438e-01,1.25353e-01,-1.57528e-01,
-2.50046e-01,2.81051e-01,-3.88348e-02,-8.69968e-01,-2.77727e-01,-9.49151e-02,-1.87441e-01,1.38580e-01,-1.87040e-01,-7.85115e-02,-1.18788e-01,-2.85766e-01,-4.26649e-02,1.16328e-01,2.29538e-01,5.79236e-02,2.87722e-01,5.93567e-01,8.76057e-02,-2.83924e-01,1.53674e-01,1.04013e-01,3.71329e-02,8.15882e-03,-4.14065e-01,
-1.72613e-01,-1.03190e-01,-1.11154e-01,-4.76646e-01,-2.21230e-02,3.00220e-01,1.04277e-01,2.23312e-01,3.34625e-01,-5.59834e-03,-3.69958e-02,1.67160e-01,-1.73071e-01,-7.83236e-03,-2.09746e-01,-1.77468e-01,3.10690e-01,3.52900e-01,1.19157e-01,-1.82440e-01,4.71845e-02,-1.52452e-01,-1.47966e-01,-6.36909e-02,-5.01561e-02,
1.02178e-01,-1.83707e-01,2.79091e-01,1.83177e-01,2.65650e-02,1.90605e-01,1.05026e-01,-5.66534e-02,-4.42410e-02,5.58984e-02,1.57429e-01,-1.14214e-01,3.98174e-01,-3.73195e-02,-1.82835e-01,4.42245e-01,-1.38243e-01,-9.00835e-01,-1.99292e-03,-6.72966e-02,1.25031e-01,-5.47285e-03,-1.33591e-01,-4.18458e-02,3.22687e-01,
-6.75204e-02,-2.71670e-01,-5.89802e-03,7.84532e-01,-2.97014e-01,-4.23879e-02,2.25247e-01,3.64527e-01,-1.88674e-01,-1.25415e-01,-6.95255e-02,-2.40754e-01,3.21700e-01,-2.08923e-01,5.39913e-01,9.83840e-02,-2.51561e-01,3.01753e-01,3.50025e-01,2.02349e-01,7.24818e-02,-2.40518e-01,2.13389e-01,1.37875e-01,7.10377e-02,
-1.06296e-01,-1.79536e-01,1.06872e-02,8.07796e-01,1.27540e-01,-4.11864e-01,1.22845e-01,4.17910e-01,1.19898e-01,-3.38548e-01,-1.12747e-01,-2.49834e-01,-6.83303e-02,4.25269e-02,-2.63424e-01,-2.72359e-01,1.20828e-01,-1.20368e+00,1.24289e-01,6.00205e-01,-3.24613e-01,-1.14363e-01,-2.29342e-01,3.76181e-01,2.14037e-01,
5.30719e-01,-1.93765e-01,1.00063e-01,-4.89950e-01,2.74121e-01,-3.43681e-01,3.15931e-01,-1.12018e-01,2.13459e-01,-1.94017e-01,-1.33600e-01,1.84700e-01,5.12798e-01,-3.02871e-01,3.32202e-01,-1.39748e-01,6.75460e-02,-2.12529e-01,-5.13003e-02,5.61584e-01,4.11940e-01,1.83927e-02,-5.90898e-02,2.28747e-01,-2.14801e-01,
-3.73447e-01,2.69025e-01,-1.20695e-01,-2.76876e-01,3.54997e-03,-1.25444e-01,-3.76465e-01,-4.34419e-01,1.97012e-01,-1.22594e-01,3.12467e-02,1.97109e-01,-2.94733e-01,-1.78609e-01,4.88569e-01,-9.15757e-02,8.92869e-02,3.14091e-01,3.34892e-01,-1.40706e-01,1.97696e-01,2.06091e-01,3.29854e-01,-4.95555e-01,3.97010e-01,
-7.28170e-02,-4.44992e-01,-2.41366e-01,-1.39014e-01,-3.70622e-01,-8.00978e-02,-4.07754e-01,-1.52950e-01,-8.91650e-03,-1.85732e-01,1.66352e-01,-3.00424e-01,4.79811e-01,2.72991e-01,1.71440e-02,5.06036e-02,-5.38180e-01,-1.71579e-01,2.44056e-01,-2.35545e-01,3.38460e-01,-2.66240e-01,2.36372e-02,2.66241e-01,9.10054e-02,
-2.17658e-01,2.18526e-01,-2.70489e-01,-1.17504e-01,4.41763e-02,-1.08010e-01,-2.69756e-01,5.72380e-02,2.16420e-01,1.48051e-01,-7.37813e-02,-3.27637e-01,2.73476e-01,1.86611e-01,-3.94301e-01,-1.45912e-01,9.69569e-02,-1.32324e-01,-3.07632e-01,1.83068e-02,-3.38721e-03,1.60012e-01,-2.50889e-02,1.95023e-01,-1.34413e-01,
1.81635e-01,-1.01375e-01,1.22278e-01,3.23564e-01,2.02407e-02,-8.76464e-02,2.38726e-01,-5.80889e-01,-6.84758e-02,2.70484e-01,-1.01470e-01,2.67023e-01,1.41835e-01,-7.64584e-02,6.24732e-01,-1.13796e-01,-2.38120e-01,-5.42524e-02,2.73837e-01,7.04832e-02,8.62136e-02,-2.69402e-01,-1.60916e-01,-1.74990e-01,3.09647e-01,
1.63395e-01,2.46095e-01,-1.89948e-01,9.93601e-02,2.35596e-01,-1.37168e-01,3.02475e-01,-5.47670e-01,5.65245e-02,-2.58833e-01,-2.67227e-01,2.50075e-01,7.86828e-02,-2.73230e-01,3.82795e-01,1.50156e-02,-2.88029e-01,-7.65884e-01,2.11271e-02,7.61849e-02,1.90451e-01,-2.49204e-01,1.43378e-01,-2.45657e-01,3.14433e-01,
3.59687e-01,4.10874e-02,1.89286e-01,3.36841e-01,-9.90066e-02,-3.37536e-01,2.84126e-01,-3.85293e-02,-3.23582e-01,-1.21155e-02,-1.36759e-01,1.82534e-01,-3.35609e-02,1.06155e-01,1.30913e-01,-3.84132e-01,-2.83023e-01,-2.75858e-02,2.94376e-01,-3.34393e-02,-2.28614e-01,-8.06022e-03,-2.98280e-01,-2.27572e-01,4.98602e-02,
-7.14292e-02,-3.63521e-01,8.07286e-02,4.54337e-01,1.63904e-01,1.18838e-01,-2.84256e-01,7.05272e-02,2.34071e-01,-3.83132e-02,9.36437e-02,-2.07191e-01,-2.93935e-01,3.35790e-01,1.71816e-01,-2.52948e-01,-2.53345e-02,-5.92537e-02,9.31904e-02,4.02980e-01,1.71205e-01,2.31727e-01,-1.13303e-01,8.68066e-02,3.80592e-01,
2.98542e-01,3.19729e-01,4.02968e-02,1.94434e-01,2.42095e-01,1.68189e-01,-2.14077e-01,2.76650e-02,2.31239e-01,2.91200e-01,-2.96008e-01,1.06338e-01,1.16203e-01,2.82902e-02,4.40985e-01,-2.84532e-01,-1.97065e-01,-4.71283e-01,5.74789e-02,4.29068e-02,3.47112e-03,-1.32445e-01,2.80459e-01,1.76620e-01,-1.24386e-01,
1.15889e-01,1.90250e-01,-2.54832e-01,6.26815e-01,1.86450e-01,8.79144e-02,-3.96443e-01,7.43729e-01,-1.84214e-01,2.22121e-01,-2.36159e-02,2.67213e-02,2.92122e-01,2.42478e-01,6.35073e-01,-8.83206e-02,-2.64729e-01,4.89033e-01,-3.38001e-01,6.07884e-01,9.54313e-02,3.09058e-01,-1.42896e-01,3.11112e-01,2.28660e-02,
-2.35782e-01,4.96992e-02,-3.21989e-02,3.56904e-01,-8.78284e-02,1.07076e-01,-3.16709e-01,-1.31127e-01,3.16052e-01,3.24888e-01,-3.01580e-01,-2.38000e-01,9.01904e-02,3.12013e-01,4.07023e-01,-1.56861e-01,5.89635e-02,1.80567e-01,3.77966e-01,3.94292e-01,2.43203e-01,-8.71059e-04,1.54121e-01,1.63656e-01,2.07959e-01,
7.79188e-02,-1.75733e-01,2.42232e-01,-7.71636e-01,-6.69171e-02,3.16981e-01,1.06651e-01,2.00371e-01,1.02528e-01,-2.39101e-01,-1.63905e-03,1.01653e-01,-2.65584e-02,-7.94196e-02,-2.04558e-01,-3.07113e-01,9.16148e-02,-1.34143e-01,2.13215e-01,3.55869e-01,5.55637e-02,1.94844e-01,2.48600e-02,2.39238e-01,1.23588e-01,
-7.34058e-03,1.01962e-02,1.79893e-01,2.84255e-01,-3.37995e-01,-1.00799e-01,-3.48305e-02,2.14300e-01,2.09382e-01,1.43363e-01,-3.78295e-02,-5.89513e-02,2.91916e-01,-1.99950e-01,-3.37436e-01,4.36300e-03,-3.28477e-01,8.14152e-02,1.40421e-01,3.29056e-02,-2.92851e-01,-3.12120e-01,-9.06268e-02,-6.73322e-02,-1.04279e-01,
8.28781e-02,
1.01232e-01,
-2.48106e-01,
-1.78721e-01,
-4.96429e-02,
1.19002e-01,
3.59007e-01,
1.82000e-01,
3.23539e-01,
-2.02549e-01,
-2.39028e-01,
4.16667e-02,
-3.77335e-01,
2.07436e-01,
-1.03369e-02,
1.18337e-01,
-4.03200e-03,
-1.80483e-01,
-3.04361e-01,
7.94448e-02,
3.19972e-01,
-2.56895e-02,
-1.47436e-01,
-1.01892e-01,
-2.76690e-01,
1.20967e-02,-3.08664e-01,-3.39397e-01,-1.32836e-01,-9.17360e-02,3.00322e-01,2.18145e-01,5.71102e-02,-7.68409e-02,-2.16011e-01,-1.14117e-01,-2.88732e-01,3.00577e-01,2.63918e-02,-2.26934e-01,1.35145e-01,-9.51143e-02,-4.38932e-02,1.99279e-01,-7.80238e-03,2.00111e-01,-3.42020e-01,-3.56168e-03,2.37333e-01,1.16601e-01,
-2.73734e-01,1.40104e-01,2.10696e-01,1.15010e-02,-3.19791e-01,1.37194e-01,3.70289e-01,-7.25622e-02,3.34335e-01,-1.61361e-01,-1.73206e-01,-2.25198e-01,2.65122e-01,4.41611e-02,5.08792e-02,8.17615e-02,1.48465e-01,-2.23504e-01,-1.61779e-01,2.99394e-01,3.47183e-01,-2.11316e-01,-4.98429e-01,3.21268e-01,-2.85508e-01,
3.41953e-02,1.15227e-01,6.92599e-02,5.23344e-02,6.11246e-04,1.51844e-01,-1.60354e-01,2.39718e-01,-1.40324e-01,-2.28577e-01,-2.46513e-02,-8.02171e-02,-2.79542e-01,4.05406e-02,2.14117e-01,4.50240e-02,3.49810e-02,-1.06445e-01,-6.68531e-02,-2.68664e-01,-3.00778e-01,1.66820e-01,1.76371e-01,-2.81646e-01,-3.10677e-01,
1.98564e-01,-1.42332e-01,-1.90210e-01,-2.60641e-01,-7.25031e-02,1.10630e-01,1.69616e-01,-3.45806e-01,1.84024e-01,-2.27542e-02,-4.90044e-02,-2.05951e-01,7.24452e-02,-2.14085e-01,3.18430e-01,1.13676e-01,-1.21875e-01,2.04351e-01,3.38158e-01,-1.02487e-01,-1.87051e-01,2.91430e-01,1.83786e-02,-8.34715e-02,2.20187e-01,
1.63666e-01,9.64080e-02,-1.43417e-01,1.55133e-01,-3.39685e-01,3.30756e-03,-4.15353e-01,-2.46938e-01,-8.40652e-03,-1.32875e-01,3.57452e-01,-1.52210e-02,2.26272e-01,1.23119e-01,-3.62649e-02,-3.30096e-02,1.89327e-01,-3.44401e-01,6.47229e-03,1.21911e-01,8.74766e-02,1.70484e-01,2.24041e-01,-3.13531e-01,-2.14917e-01,
2.53573e-01,-5.10424e-04,-2.71793e-01,4.87973e-02,-8.10230e-02,2.51119e-01,-2.47991e-01,-7.15823e-02,-9.63858e-02,1.96768e-02,-6.80965e-02,-1.36201e-01,2.99808e-01,-1.00832e-01,-2.18010e-01,-1.54440e-02,-1.72709e-01,-1.92704e-01,-3.03000e-02,-1.23711e-01,-2.14240e-01,-2.22760e-01,2.59246e-01,-1.81434e-01,-1.99355e-02,
2.45047e-01,9.77385e-02,3.09482e-01,-2.60790e-01,-2.60850e-01,-7.70139e-02,6.36011e-02,-1.30320e-01,3.73890e-04,2.19163e-01,-1.09146e-01,2.90746e-01,-4.52221e-02,-5.36373e-02,8.81060e-02,-2.35759e-01,3.81249e-02,2.07549e-02,-1.81751e-02,-2.55998e-01,1.85977e-01,-3.52272e-02,1.93225e-01,8.44726e-02,1.25848e-01,
-2.25376e-01,2.47417e-01,-1.74525e-01,-2.02676e-01,8.36070e-02,-1.45270e-01,4.13297e-02,5.74058e-02,3.01789e-01,-5.03607e-02,3.79565e-01,1.58228e-01,-5.22628e-01,3.04690e-01,-7.76200e-02,-8.07290e-02,-1.26771e-01,1.01276e-01,-3.26454e-01,-2.47573e-03,-1.29853e-01,3.22805e-01,-3.80526e-01,-1.16432e-01,2.18944e-01,
3.28080e-01,-1.96656e-01,1.11917e-01,-5.81264e-03,2.70389e-01,-3.16511e-01,2.03660e-01,-6.91511e-02,-6.72231e-02,2.35344e-01,-4.32671e-02,-4.25981e-01,-1.91649e-01,-4.49727e-01,-7.40297e-01,-1.06993e-01,1.21407e-01,-3.94819e-01,3.35712e-02,-6.09315e-02,3.76223e-01,-6.98793e-01,-4.06349e-02,-7.01762e-02,7.40172e-02,
-3.35051e-01,-2.21165e-03,4.54305e-02,-1.27696e-01,2.32200e-01,8.23306e-02,3.54287e-01,-3.66007e-02,2.41786e-01,1.94260e-01,1.31772e-01,2.35443e-01,-7.84628e-02,2.24143e-01,-2.00583e-01,-1.53070e-01,1.03501e-02,8.32397e-02,-2.34497e-01,-1.61620e-01,2.87722e-01,-1.78248e-01,-2.40126e-01,2.67540e-01,1.40832e-01,
3.59722e-02,-2.43148e-01,2.76368e-01,1.06507e-01,2.28491e-01,-2.89875e-02,2.28946e-01,-1.48177e-01,3.29134e-01,2.34624e-01,-2.39862e-01,2.58116e-01,-3.55440e-02,-1.29264e-01,8.55232e-02,1.73630e-01,1.07414e-01,7.32098e-02,-2.04175e-01,-2.24432e-01,6.16568e-02,3.11060e-01,-2.59109e-02,-2.20113e-01,2.49542e-01,
2.61709e-02,-1.99708e-01,-3.02723e-01,6.00941e-02,-3.08384e-01,2.02684e-02,3.87788e-02,1.36868e-01,2.24584e-02,2.60284e-01,2.64673e-01,-1.33673e-01,9.03864e-02,3.77681e-01,-4.23117e-01,-2.14176e-01,-2.40957e-01,-1.45642e-01,7.64195e-02,-3.54545e-01,-1.41344e-02,-6.25834e-02,9.85217e-02,3.96136e-01,1.36377e-01,
3.05040e-01,1.89956e-01,-2.19669e-02,1.06210e-01,6.63730e-02,-2.87404e-02,-2.82160e-01,-9.31391e-03,-1.37731e-01,-1.82716e-01,-1.77659e-01,2.91436e-01,-2.24752e-01,-2.79332e-01,3.31451e-01,2.60420e-01,-2.82026e-01,-3.04593e-01,-1.46322e-01,-6.34551e-02,-3.11742e-01,-3.37315e-01,2.06384e-01,-2.36120e-01,-1.90132e-01,
1.34277e-01,-1.04450e-01,-8.74892e-03,3.44343e-02,1.22656e-01,-3.65347e-01,-3.60422e-01,-2.26442e-01,-3.92941e-01,-2.13384e-01,-2.70278e-02,-1.54250e-01,-1.52402e-01,9.72191e-02,1.03650e-01,3.50259e-02,1.06863e-01,-1.57097e-01,7.05620e-02,-6.56424e-03,2.73320e-01,-2.05033e-01,1.69606e-01,1.26919e-01,-1.67626e-03,
1.62038e-01,3.66778e-04,2.64647e-01,2.42093e-01,-3.99764e-02,1.78668e-01,1.85127e-01,-8.34018e-02,2.19115e-01,2.77222e-01,1.63693e-01,3.78743e-01,-1.16310e-01,-1.63002e-01,-1.77972e-01,2.81418e-01,7.38025e-02,2.21182e-01,3.46846e-03,-7.24961e-02,-2.14770e-01,8.33867e-02,1.06725e-01,-1.62355e-01,-3.16656e-01,
-8.95338e-02,1.71721e-01,6.18450e-02,3.22021e-01,2.31446e-01,9.06782e-02,-5.63014e-02,5.43995e-02,3.15086e-01,-2.12917e-01,2.64275e-01,1.73540e-01,1.64593e-01,-7.60310e-02,-1.27909e-01,2.65355e-01,-1.41394e-01,2.75445e-01,2.52085e-01,-3.37991e-01,4.41862e-02,2.43043e-01,-1.96079e-01,-3.03859e-02,-1.92964e-01,
-3.53066e-02,1.40610e-01,-1.96850e-01,1.34561e-01,3.29090e-01,8.57182e-02,-2.24034e-01,2.79421e-01,-1.60008e-01,1.46584e-01,2.49136e-01,1.71489e-01,-3.03929e-01,-9.88368e-02,1.62054e-01,-1.06768e-02,2.93103e-02,1.88483e-01,2.89828e-01,1.08929e-01,3.11748e-01,-1.04943e-01,-1.82913e-01,-2.45151e-01,-7.63985e-02,
-5.21081e-02,2.76944e-01,-1.12314e-01,1.04275e-01,-5.87933e-02,8.59607e-02,1.10369e-01,-2.77119e-01,-3.27192e-01,-1.54794e-01,2.58606e-01,5.49399e-01,-1.05402e+00,-6.73090e-02,5.85953e-01,1.69687e-01,-1.38104e-01,1.86735e-01,4.96337e-02,4.90040e-02,-2.43940e-02,2.28808e-01,-6.67388e-01,-1.08632e-01,1.51952e-01,
-1.66013e-01,-1.07264e-01,4.98678e-02,-2.63118e-01,1.28939e-01,-2.26926e-01,-4.85607e-02,1.35978e-01,-7.36647e-02,2.49972e-01,-7.65378e-02,1.44287e-01,5.41537e-02,2.59657e-01,-5.76840e-02,-1.36794e-01,3.11016e-01,5.18008e-02,1.38641e-01,-4.02308e-01,-2.11102e-01,7.92773e-02,8.27893e-02,-1.63144e-02,-3.16116e-02,
-1.08655e-01,1.14528e-01,2.52399e-01,2.97826e-01,2.39946e-01,-5.92519e-01,1.22923e-01,-3.45234e-01,-3.42953e-01,2.51197e-01,-3.76890e-02,-1.00531e-01,5.72255e-02,4.66054e-01,1.34981e-01,-1.91457e-01,1.59756e-01,-4.11074e-01,-1.58780e-01,-1.49551e-01,5.28534e-02,-1.03879e-01,-3.60116e-01,-8.67496e-02,-5.06208e-02,
-2.01264e-01,8.97950e-03,3.34215e-01,-1.38471e-01,5.10277e-02,-3.14413e-02,-1.66167e-01,-4.26216e-02,-6.31066e-02,-2.45056e-01,-1.91962e-01,1.62778e-01,-3.30362e-01,-3.36542e-02,-2.78996e-01,-3.28064e-04,-1.11097e-02,1.98772e-01,-8.63364e-02,2.51025e-01,-1.80064e-01,-2.01084e-01,-1.47322e-01,1.93502e-01,3.01308e-01,
9.91026e-02,1.58560e-01,1.71320e-01,-5.11117e-02,2.94103e-01,-1.85897e-01,1.03039e-01,-2.56112e-03,-7.58187e-02,2.68175e-01,-3.34722e-01,7.88175e-02,2.67006e-01,-2.38501e-01,3.26818e-01,5.45937e-02,5.13661e-02,9.15706e-02,7.80374e-03,6.02793e-03,2.87825e-01,1.83010e-01,-2.15550e-01,1.53515e-01,-3.43024e-01,
-1.37985e-01,-2.28594e-01,6.65418e-02,-1.63695e-02,2.16662e-01,1.11266e-01,-3.72524e-02,-6.68657e-01,2.12868e-01,1.98114e-01,-4.60659e-01,2.38120e-01,-7.55156e-01,-3.78033e-01,4.44627e-01,-1.80084e-01,-1.17356e-01,-1.06345e+00,-8.56072e-02,-8.51513e-01,-4.63243e-02,-2.82234e+00,5.05962e-01,2.84713e-01,3.33095e-02,
-1.49659e-02,-4.23820e-02,-3.45229e-01,5.66661e-02,-4.58345e-02,-1.95894e-01,7.58287e-02,-4.95389e-02,-1.17504e-01,-2.74605e-01,2.67517e-01,-1.80885e-01,-2.92870e-01,-6.64650e-02,-1.50268e-01,1.00564e-01,-3.39134e-01,2.62733e-01,-2.65955e-02,2.40597e-01,1.12938e-01,1.68661e-02,-3.41594e-01,1.01477e-01,3.21384e-01,
-3.38961e-01,1.27022e-01,-8.80655e-02,7.29433e-02,-1.67871e-01,-9.36095e-02,-7.67121e-02,2.74214e-01,-2.81130e-01,5.98984e-02,-2.69948e-01,-2.93774e-01,2.85363e-01,-7.35841e-02,-3.40257e-01,-1.86608e-01,7.78379e-02,-3.31057e-01,-5.49199e-02,5.82299e-02,1.12128e-01,2.18156e-03,-2.30828e-01,-3.16355e-01,-2.36333e-01,
4.17424e-02,
3.07857e-01,
1.70488e-01,
-2.41100e-01,
-2.28691e-01,
1.11870e-01,
2.20011e-01,
-6.39620e-03,
-2.03138e-01,
-6.60296e-02,
3.08573e-01,
-3.22748e-01,
1.00791e-02,
-1.68636e-01,
-5.39149e-02,
-3.51405e-01,
-2.32034e-02,
2.23754e-01,
3.77181e-01,
3.16163e-02,
-3.04749e-01,
5.85218e-02,
1.08729e-01,
-9.96144e-02,
-1.81593e-02,
1.14494e-01,1.88904e-02,-7.49095e-02,3.80245e-01,-2.41611e-01,-9.42837e-02,-2.21147e-01,1.85642e-01,-1.11410e+00,2.90810e-01,-2.42289e-01,-1.06050e-01,2.79694e-01,-1.17449e-01,-1.87031e-01,3.10622e-01,3.27995e-01,1.52951e-02,2.93993e-01,4.73414e-01,-4.23267e-01,3.59179e-01,-6.98589e-01,-1.06891e-01,-2.48467e-01,
-3.03355e-01,2.81420e-01,-1.60619e-01,-1.09862e-01,6.66326e-01,-2.45705e-01,-1.69175e-01,-6.22473e-02,-1.10168e+00,3.69594e-01,3.30154e-01,4.44507e-02,-4.70342e-02,3.13982e-01,-1.08030e-01,2.14344e-01,3.76928e-02,-1.28842e-01,-9.08482e-02,-2.35153e-01,-6.78600e-02,-1.86696e-01,-6.80862e-01,-4.05747e-01,-3.74204e-01,
-3.00733e-01,8.94132e-02,-7.35704e-02,-1.59653e-01,5.25269e-01,3.18421e-02,-3.13256e-01,-6.21801e-03,-9.38502e-01,6.27372e-02,-3.34270e-01,1.16274e-02,-3.14758e-01,2.27057e-01,1.67625e-01,-4.02921e-01,-7.26878e-02,-3.08081e-02,5.48762e-02,1.67519e-01,6.69811e-02,4.39308e-02,-7.11209e-01,2.43244e-01,1.03949e-01,
-7.66857e-02,-5.27609e-01,-4.63416e-02,-2.77343e-01,4.52499e-01,-3.13646e-01,-3.03481e-01,-2.86883e-01,-1.47028e+00,2.66775e-01,2.92405e-01,3.18359e-02,-2.26831e-02,3.01514e-01,-2.24806e-01,-1.17564e-01,3.50647e-01,8.71302e-02,-4.02781e-01,-1.08230e+00,1.18954e-01,-1.43376e-01,-2.88661e-01,-1.77912e-01,-1.72308e-01,
3.34162e-01,2.65857e-01,-4.08767e-02,-2.98776e-01,3.50475e-01,1.52969e-02,-8.61353e-02,5.40726e-01,-1.66339e-01,4.25013e-01,-2.01063e-02,-1.23446e-01,-3.30352e-01,2.72265e-01,1.26919e-01,1.62247e-01,4.50323e-02,2.25647e-01,-8.61300e-02,4.76340e-01,1.59638e-01,1.53043e-01,-4.74020e-01,2.18356e-02,-4.44609e-01,
-1.58342e-01,
-3.94786e-01,
2.13239e-01,
5.40268e-01,
-6.24744e-01,
