// Neural Network File Format by Kyle Julian, Stanford 2016
6,3,5,25,
3,25,25,25,25,25,5,
0,
-56000.000000,-56000.000000,-3.141593
56000.000000,56000.000000,3.141593
-278.628049,0.000000,0.000000,-0.242819
112000.000000,112000.000000,6.283185,17.479225
-2.46061e+00,2.53486e-01,5.78221e-01,
2.61603e-01,8.94159e-01,-7.46764e-02,
5.41602e-01,-5.98997e-01,-6.53582e-01,
1.79962e-01,2.75092e+00,5.98885e-01,
-1.06315e+00,1.14840e+00,7.19374e-03,
2.07084e-01,-1.27716e+00,-2.20535e-01,
7.19127e-02,-1.32157e+00,3.88983e-01,
-1.16519e-01,3.49571e-02,2.86681e-01,
1.85022e-01,-7.68494e-01,6.06859e-01,
1.24479e+00,6.85996e-02,-1.72823e-01,
6.82788e-01,-1.46185e+00,2.70409e-01,
-2.35273e-01,1.65682e-01,1.64561e-01,
1.33832e-01,1.47390e+00,1.85819e-01,
2.44077e-01,-7.45642e-03,-1.47869e-01,
-1.34036e+00,1.54179e+00,-6.64738e-02,
8.25973e-01,-1.29392e+00,-1.70981e-01,
-2.53211e-01,-3.82871e-02,-1.66044e-01,
-1.86117e-01,-1.77727e+00,-5.21447e-01,
-1.33298e-01,-1.54288e-02,-1.27529e-02,
1.52528e+00,-4.98458e-01,9.49625e-03,
1.06333e+00,-5.33585e-01,-5.29413e-01,
3.87806e-01,9.35310e-01,-5.23481e-01,
-1.35745e+00,-1.02276e+00,5.18761e-01,
1.38160e+00,6.71642e-01,3.06476e-01,
-3.70007e-01,3.34378e-01,-1.64049e-02,
4.22036e-02,
6.01899e-02,
-3.61033e-02,
2.76433e-02,
-3.93525e-02,
-1.66026e-03,
1.19356e-03,
-2.40961e-01,
-5.15689e-02,
1.61229e-01,
1.69101e-01,
8.47631e-02,
-2.41973e-03,
-1.98519e-01,
1.53142e-02,
-7.41629e-02,
-3.07648e-01,
5.28510e-02,
-7.45035e-02,
-4.05663e-03,
8.26745e-03,
-1.12076e-01,
-1.02734e-01,
1.32944e-01,
-2.74192e-01,
-2.55787e-01,1.69124e-01,3.54597e-01,3.56617e-02,-3.13896e-01,-4.55445e-01,-1.03628e-01,1.59664e-01,-8.02193e-02,9.19181e-02,3.57294e-01,-2.67846e-01,-4.18227e-01,-1.86875e-01,-4.47852e-01,-2.54626e-01,-3.45878e-01,5.11091e-02,4.99292e-02,2.54753e-01,-3.51898e-01,-1.09847e-01,-4.42223e-01,-4.59157e-02,8.85206e-02,
-1.16638e+00,1.39789e-01,-5.50084e-01,-4.97513e-01,1.51906e+00,1.76294e-01,3.83024e-01,1.40679e-01,-4.61494e-01,-9.15874e-03,4.21294e-01,-3.39992e-01,5.95310e-01,-2.10790e-01,-7.13036e-01,-4.33772e-01,-3.69494e-02,2.60922e-01,-6.62677e-02,9.93544e-01,1.24530e-01,-1.37344e-01,1.41151e+00,1.57218e-01,2.77628e-01,
-3.86453e-02,2.07371e-01,8.04646e-01,7.37361e-01,-2.89582e-01,5.70138e-01,1.77794e-01,1.45198e-01,-1.69135e-01,-2.34740e-01,-2.94310e-01,1.29828e-01,-2.28209e-01,2.16612e-01,6.15173e-01,8.59181e-02,2.66855e-01,-1.01398e+00,2.44893e-01,2.49009e-01,-6.59098e-01,9.07322e-01,2.86290e-01,1.02774e-01,-3.03457e-02,
4.70491e-01,2.44253e-01,-7.42554e-01,-7.27143e-01,-4.85436e-01,-2.03532e+00,1.07267e-01,2.11802e-01,1.37203e-01,-2.23141e-01,-1.76358e-01,-2.91525e-01,-3.59062e-01,4.09421e-02,-3.07854e-01,1.99517e+00,-3.29908e-01,2.04307e-01,2.83201e-01,-2.27264e+00,-6.72680e-01,-1.09915e+00,1.13165e-01,-6.25678e-02,2.30193e-01,
-1.34410e-01,-2.16342e-01,-1.54095e-01,2.05250e-01,-2.36208e-01,-3.37888e-01,-3.28928e-01,-2.39743e-01,3.06226e-01,-9.82632e-02,-2.64629e-01,-2.19463e-01,-2.38000e-01,-1.67072e-02,1.88205e-01,2.72831e-02,1.15086e-01,-3.21118e-01,8.91414e-02,2.08683e-01,-1.06695e-01,1.84429e-01,5.49558e-02,-5.18266e-02,2.58091e-01,
3.46485e-01,-3.15701e-02,-4.90913e-02,2.91805e-01,4.21449e-01,2.84352e-01,-4.76172e-01,-3.45917e-01,2.70430e-01,-2.07560e-01,-3.58812e-02,-1.64265e-01,-1.03154e-01,-5.39208e-02,3.89526e-02,1.49476e-01,2.49654e-01,5.73100e-01,4.23591e-02,-1.08699e-01,1.23097e-01,-4.86718e-01,-2.00377e-01,-6.43954e-02,-2.88618e-01,
-8.44218e-02,2.58724e-01,-1.06099e-01,-4.50096e-01,6.83337e-01,-7.32913e-01,4.25508e-01,2.38714e-01,1.82879e-01,-1.93753e-01,-3.99151e-02,-1.30805e-01,-1.35011e-01,-8.55878e-02,-3.36713e-01,7.07351e-02,-1.31726e-01,3.33856e-01,1.26357e-01,-1.08364e-01,-2.69659e-01,7.42914e-01,-2.30169e-01,1.57473e-01,1.71223e-01,
-2.55491e-01,-3.68660e-01,1.61612e-01,1.31907e-01,6.46521e-01,1.47295e-01,5.39971e-01,3.23876e-01,2.99375e-01,-1.79957e-01,4.60360e-01,1.39453e-01,-3.27337e-01,-2.59144e-01,6.24452e-01,-6.22471e-01,1.25011e-01,8.63685e-02,-1.98470e-01,4.09648e-01,2.12969e-01,2.17485e-01,3.40845e-01,3.92911e-01,-8.58214e-02,
-1.66812e-01,-7.65192e-02,-1.64907e-01,8.50440e-02,3.90262e-01,7.76418e-01,-3.89107e-03,-2.21616e-01,-3.71761e-01,2.11091e-01,-1.73322e-01,6.15623e-02,-1.59183e-01,-2.48350e-01,-3.69472e-01,8.37081e-03,-3.33859e-01,1.20750e-01,-1.39335e-01,1.32601e-01,-1.47830e-01,9.87146e-03,3.39474e-01,1.00092e-01,-1.96669e-02,
3.37749e-01,1.20890e-01,3.32824e-01,-8.46692e-02,2.31235e-01,-5.56005e-01,2.97693e-01,-1.51192e-01,9.38469e-02,-2.93643e-01,7.44771e-02,1.76152e-01,9.10550e-02,-3.42502e-01,-1.02072e+00,-6.15162e-02,2.54546e-01,3.46191e-02,2.63268e-01,1.33907e-01,3.36624e-01,9.78013e-02,1.92276e-01,-7.74858e-02,1.27823e-01,
-4.39348e-01,-1.03303e-01,-3.64549e-02,-3.21651e-02,-1.73995e+00,5.39588e-01,1.09421e-01,1.58882e-02,-7.25953e-01,-3.63919e-01,-1.85492e-02,-2.82105e-01,7.00177e-01,-1.23702e-01,5.76453e-01,2.35573e-01,1.25094e-01,4.23669e-01,5.98924e-03,-3.87204e-01,1.48083e-02,3.72078e-01,-4.48094e-01,-5.69788e-01,2.34756e-01,
3.32777e-01,4.09435e-01,1.96297e-01,3.84751e-01,1.15605e-01,2.89399e-01,-2.06595e-01,-1.18868e-01,-7.84209e-01,1.64039e-01,-9.39750e-02,8.49420e-02,5.17814e-01,6.24716e-02,2.03315e-02,-1.23111e-01,-2.75332e-01,-6.17654e-01,-1.02669e-01,-8.56359e-02,-1.60682e-02,6.94281e-02,-1.87690e-01,-3.86171e-02,8.71054e-02,
-3.64645e-01,4.27040e-02,2.50721e-01,1.65138e-01,-1.18513e-01,-3.44812e-01,-1.05114e-01,6.88023e-02,1.43947e-01,1.47378e-01,-4.42159e-02,-1.66692e-01,2.14911e-01,-4.39519e-02,-1.83626e-02,5.34931e-01,1.39420e-01,-3.45429e-01,2.65385e-01,-2.22417e-02,-4.99359e-01,3.70413e-01,-4.51128e-01,1.33270e-02,1.15410e-01,
3.55961e-01,4.19062e-02,6.95468e-01,5.85058e-01,2.34251e-02,-1.51429e-01,-1.89433e-02,-1.79496e-01,4.24475e-01,-4.37692e-01,2.74628e-01,-2.46519e-01,6.13125e-01,-2.13242e-01,1.08661e+00,8.21523e-01,-3.05884e-01,-9.32743e-01,1.36540e-01,-7.93463e-01,-5.16060e-01,3.86180e-01,8.78016e-02,6.45156e-02,3.32751e-01,
5.73736e-01,1.99215e-01,1.71704e-01,3.74898e-01,4.07276e-01,-3.17199e-02,-3.55582e-02,-3.01943e-01,-2.69156e-01,-2.03602e-01,-9.82365e-02,3.37336e-01,8.94808e-01,-2.83827e-01,-2.98740e-02,2.11855e-01,3.19945e-01,2.68472e-01,1.00702e-02,1.91331e-02,1.19446e-01,9.09166e-02,-1.47565e-01,-8.73435e-02,3.40977e-01,
2.19296e-01,2.24300e-01,-3.40742e-01,3.87444e-01,7.57550e-02,2.45652e-01,1.86018e-01,1.82654e-01,-3.45189e-02,-1.03090e-01,-7.05892e-02,2.48527e-01,2.77528e-01,-1.24438e-01,-1.11298e-01,1.15972e-01,2.79778e-02,-1.47811e-01,1.16377e-01,-1.19979e+00,-2.92769e-01,-8.17122e-01,2.51896e-01,3.20955e-01,5.04285e-02,
-4.52028e-01,1.12801e-01,-3.53135e-02,2.48481e-01,1.93355e+00,-1.71719e-01,2.63235e-01,-4.16315e-02,2.08064e-01,3.89867e-02,-2.48614e-01,8.86244e-02,3.17566e-01,-2.24390e-01,-9.71405e-01,3.60475e-01,-1.54298e-01,3.31360e-01,3.39380e-01,-1.03178e-01,3.51878e-02,2.76757e-01,-7.55156e-02,1.62537e-01,-1.51483e-01,
-2.13989e-01,4.15969e-02,1.84974e-01,-2.99053e-01,-8.77099e-01,-5.41668e-01,3.74442e-01,2.90195e-01,-1.16633e-02,1.36901e-01,-1.81314e-01,2.29080e-01,-3.59312e-01,2.41701e-01,-4.16950e-01,4.14319e-01,2.99024e-01,-3.76437e-02,-3.17697e-01,-3.69402e-01,-2.68796e-01,-6.36667e-02,4.06632e-01,9.45465e-03,-3.15638e-01,
3.29793e-01,-3.93871e-02,7.31112e-02,-1.35376e-01,-1.01927e+00,-5.70795e-01,2.52255e-01,-2.57148e-01,-5.28985e-01,2.91400e-01,-2.45470e-01,1.19291e-01,-2.46285e-01,-3.04707e-01,-1.24629e-01,8.05274e-03,-2.07360e-01,3.82992e-02,-2.44736e-01,-1.95331e-01,4.13954e-01,4.09709e-01,4.50288e-01,-1.65050e-01,-3.04049e-01,
3.60973e-02,-5.99623e-02,-2.61472e-01,-1.68110e+00,-1.14790e-01,2.01793e-02,1.63738e-01,1.13468e-02,9.48417e-02,-1.75848e-01,1.79054e-01,1.96377e-01,-1.52819e-02,-2.39450e-01,4.37142e-02,-3.91675e-01,-1.99415e-01,5.06984e-01,3.88107e-02,-1.91216e-01,1.46047e-01,-3.49198e-01,-1.59671e+00,-4.69096e-01,-1.98206e-01,
-2.92897e-01,-1.83505e-01,1.24569e-01,2.20853e-01,-1.98112e-01,1.53946e-01,-2.08381e-01,9.73108e-02,1.33848e-01,-3.37292e-01,3.00711e-01,-1.24181e-01,-1.54899e-02,2.73447e-01,-4.34299e-02,-9.85608e-02,1.26681e-01,-2.24113e-01,3.07822e-01,-1.01469e-01,-2.13965e-01,-2.31237e-01,3.02781e-01,2.62738e-01,2.51173e-01,
-3.20702e-01,-2.00956e-01,-3.01510e-01,-3.98508e-03,-1.99180e-01,-2.98131e-01,-2.68492e-01,2.34737e-01,-1.80911e-01,-1.23100e-01,-1.08293e-01,2.34451e-01,-2.38982e-01,-3.29014e-01,-6.88932e-02,-3.33978e-01,-7.36590e-02,-1.18446e-01,2.63439e-01,-3.52730e-02,-3.38726e-01,1.08515e-01,1.14137e-01,-2.16708e-01,-9.23308e-02,
3.64312e-01,3.49177e-01,-1.86629e-01,5.51604e-01,2.85311e-02,5.63897e-01,-5.06453e-01,-7.09593e-02,-4.89485e-01,-9.93385e-02,1.43102e-01,4.12975e-01,-6.92754e-02,-2.70096e-01,-7.89110e-01,5.75545e-01,-2.80247e-01,-1.16959e-01,1.60402e-01,-1.87934e-01,-1.30877e-01,-1.84588e-01,-2.42417e-01,3.60568e-01,-2.58497e-01,
1.41754e-01,-8.32730e-03,3.74019e-02,-3.27667e-01,-5.57230e-01,2.80594e-01,1.84005e-01,1.72664e-01,2.68777e-01,-4.23437e-01,-1.23210e-01,-1.21844e-01,3.64393e-01,3.16012e-01,9.03287e-01,-3.52824e-01,3.45579e-01,-1.11640e-01,-2.04884e-01,7.23029e-01,7.25239e-03,8.79013e-02,-4.51635e-01,-3.27730e-01,3.16160e-01,
6.08471e-01,-1.30700e-01,2.35399e-02,-1.43586e-01,2.14523e-01,2.59043e-01,5.37382e-01,9.90248e-02,8.48857e-03,-2.32177e-01,-2.16392e-01,2.56869e-01,1.07761e-01,-1.53851e-01,4.94708e-01,-6.48485e-02,1.40099e-01,-4.47557e-02,-7.85748e-02,1.62294e-01,-4.56189e-02,-1.40489e-01,-1.48675e-01,3.42452e-03,1.95957e-01,
1.29795e-01,
-1.30563e-02,
9.27923e-02,
2.30747e-01,
-8.29039e-02,
-1.75007e-01,
1.10732e-01,
-1.17949e-01,
7.71184e-02,
8.61130e-02,
1.43413e-01,
-4.12957e-02,
1.95704e-01,
2.62632e-02,
-1.41001e-01,
-2.26395e-01,
1.33842e-01,
1.75204e-01,
1.15593e-01,
7.93545e-02,
-3.07001e-01,
-2.17429e-01,
6.69420e-02,
1.51710e-01,
1.36466e-01,
-9.52169e-03,-3.76577e-01,-5.21850e-01,5.14441e-01,-2.54987e-01,-4.69085e-01,3.50623e-01,1.70827e-01,-3.55233e-01,2.01416e-01,-3.88837e-01,-2.22012e-01,-2.63025e-01,-1.87075e-01,3.53129e-01,-2.33681e-01,-2.17744e-01,2.17849e-01,4.71488e-02,3.04989e-01,1.89249e-01,-1.35628e-01,-2.92679e-01,-3.16756e-01,2.31866e-01,
-6.95812e-02,-4.80311e-01,-6.98684e-01,-2.21923e-02,1.93836e-01,-3.81479e-02,-1.74806e-01,4.63195e-01,2.95621e-01,1.93399e-02,-5.03016e-01,5.67827e-01,-1.44934e-01,3.39702e-01,-6.57243e-02,-3.84642e-01,1.82435e-01,-8.88208e-02,1.19173e-01,-5.80351e-02,-8.63721e-02,5.11242e-02,2.49704e-01,-2.02852e-03,6.38240e-02,
2.88850e-01,-4.49709e-01,-4.55125e-01,-1.95392e-01,8.57530e-02,7.43802e-02,-3.14888e-02,3.68081e-01,-2.42700e-01,2.04446e-01,-1.53175e-01,2.45182e-01,1.43125e-01,-4.73784e-01,1.86615e-01,2.73557e-01,2.32649e-01,2.53033e-01,-1.45419e-01,-3.18361e-01,-1.81498e-01,-1.32349e-01,1.41153e-02,3.38451e-01,7.20570e-02,
-1.27210e-01,-7.18662e-02,9.55763e-02,-2.05791e-01,-7.12310e-02,-2.24327e-02,-2.22108e-01,-1.00263e-01,1.31715e-01,-2.51737e-01,6.57406e-02,-2.90402e-01,-2.21773e-01,-3.16616e-01,1.19780e-01,1.76175e-02,-1.80116e-01,-2.47045e-01,2.68731e-01,-9.06330e-02,1.51110e-01,3.33390e-01,7.18460e-02,-9.16118e-02,-5.08410e-02,
-1.08565e+00,4.42868e-01,-1.30648e-01,8.89236e-02,-9.78252e-02,4.16823e-02,-1.12773e-01,1.95743e-01,-3.11748e-01,2.14462e-01,-3.98635e-03,1.74531e-01,-2.45758e-01,1.03624e-01,1.19109e-01,-2.84686e-01,-4.57607e-01,3.33471e-01,4.69055e-01,7.45365e-01,5.64260e-02,-3.24568e-01,9.76268e-02,-1.46296e-01,-1.42476e-01,
-1.82937e-01,-2.45488e-01,-1.71784e-01,-3.97168e-02,-2.24886e-01,-1.13598e-01,-1.85945e-01,1.40726e-01,3.46319e-01,-2.84961e-01,-2.98239e-01,2.40818e-01,1.16437e-01,-2.00217e-01,-2.95181e-01,7.66575e-02,-1.31291e-01,-3.46408e-01,-2.42992e-01,7.34495e-02,-3.20608e-01,-1.40977e-01,-4.22415e-02,-5.05294e-02,1.48575e-01,
1.51905e-02,1.92431e-01,-4.62290e-01,-9.34066e-02,-2.62877e-01,4.57193e-02,3.15967e-01,-6.42303e-02,-1.57759e-01,2.75416e-01,-2.18535e-02,6.21982e-02,5.19011e-02,2.02167e-01,-4.13023e-01,8.90032e-03,2.93634e-01,-1.41729e-01,2.16164e-01,5.26257e-01,6.77606e-02,-2.69232e-01,7.68614e-02,-3.40466e-01,2.02359e-01,
-4.50076e-01,-7.27251e-02,-1.37252e-01,4.44970e-01,1.44182e-01,1.32185e-01,3.33819e-01,-9.42978e-03,-3.96658e-02,-3.31560e-01,-3.48099e-02,-1.46759e-01,1.06598e-01,1.34733e-02,-4.27180e-02,-3.53387e-02,3.02131e-01,3.39789e-01,3.27170e-01,1.45867e-01,1.24072e-01,3.05028e-02,3.84933e-02,-2.06228e-01,3.63304e-02,
1.79289e-01,2.14974e-01,-1.75003e-03,8.59178e-01,3.42503e-01,-5.59793e-02,-3.32263e-02,6.63666e-02,-1.15830e-01,4.35189e-01,2.29087e-01,-5.07785e-01,1.35649e-02,-1.32906e-01,2.00479e-01,3.24456e-01,4.55940e-01,-3.89223e-01,5.67159e-02,1.03028e-01,4.61493e-02,1.05146e-03,-1.33677e-01,-2.11363e-01,-6.38000e-01,
3.08533e-01,-4.60325e-01,6.12797e-01,7.96833e-01,-1.06685e-01,2.02695e-01,1.16098e-01,2.36954e-01,5.24279e-02,2.32443e-01,2.60301e-01,-4.57521e-01,4.97093e-02,-8.18170e-01,-5.25123e-01,-6.11580e-01,2.28875e-01,2.33550e-01,1.55040e-01,-2.23883e-01,-2.66262e-01,2.37688e-01,-4.35353e-01,-2.45547e-01,-1.54523e-01,
-6.80622e-03,-7.70650e-03,7.58401e-01,-3.46241e-02,8.67939e-02,1.15987e-01,6.99141e-02,-2.29892e-01,2.62096e-01,-2.61310e-01,2.04580e-01,-6.68122e-01,-2.80351e-01,-4.83408e-01,-2.92812e-01,-1.52234e+00,8.34207e-02,2.26827e-02,-1.71204e-01,5.59990e-02,1.82075e-01,-1.10003e-01,-3.40046e-01,1.54924e-01,3.61694e-01,
3.52922e-01,-7.97947e-01,8.19508e-01,-3.92339e-03,3.11135e-01,-7.67062e-01,9.94300e-02,1.07550e-01,-1.87271e-02,-3.13657e-01,5.62415e-01,-5.33622e-01,3.52949e-01,-6.82540e-01,2.09958e-01,4.10705e-01,-3.19385e-01,9.45040e-02,-4.60721e-01,-1.45182e+00,-1.76208e-01,3.45514e-01,6.77917e-02,-7.81960e-02,1.56195e-01,
-1.32142e-01,-2.02196e-01,-1.55267e-01,2.01341e-01,2.26236e-01,9.04621e-02,2.04184e-01,3.54328e-01,1.29485e-01,-7.75007e-02,-3.36027e-02,2.31545e-01,2.93768e-01,-8.74828e-02,8.98691e-03,-5.88216e-02,-1.63838e-01,7.01666e-02,-2.01137e-01,-3.71323e-01,-5.76118e-03,-3.31671e-01,-2.18575e-01,1.29630e-01,4.68855e-02,
-5.92650e-02,2.11539e-01,-4.46406e-01,8.37158e-02,3.41619e-01,-5.92444e-01,2.48171e-01,-2.51053e-01,3.27202e-01,-2.05754e-01,7.62824e-01,-1.89750e-01,-3.01845e-01,6.12925e-01,-1.23563e-02,-7.31515e-02,4.45176e-02,-1.92797e-01,-4.13045e-01,8.26133e-01,2.83292e-01,3.16730e-01,5.88787e-01,3.21940e-01,2.83407e-01,
1.41251e-01,1.92921e-01,-4.42878e-02,-1.34780e-01,-5.48345e-02,2.20576e-01,1.17744e-01,-1.32555e-01,7.78111e-02,-4.75995e-03,-2.58815e-01,4.61253e-02,-1.27277e-01,2.25173e-01,1.93695e-02,-3.87790e-01,1.73074e-01,-2.22446e-01,-2.30440e-01,-1.63772e-01,1.09564e-01,3.11609e-01,7.89973e-02,-1.75476e-01,9.46272e-02,
2.67910e-01,-4.78218e-01,3.47775e-01,-1.18076e-01,-3.22188e-01,1.18755e-01,5.06796e-02,-8.26131e-02,3.31110e-01,-4.87696e-01,-6.82228e-01,-7.20553e-02,5.23839e-01,-9.61523e-02,1.23325e-01,-3.98640e-02,7.03400e-02,-1.25810e-03,-5.26063e-01,-3.49648e-01,-5.92457e-02,1.01668e-01,-2.14561e-01,2.79963e-01,6.51426e-02,
-2.63223e-01,2.03971e-01,1.10982e-01,1.55561e-01,-1.46275e-01,-4.24569e-02,8.38555e-02,4.05894e-01,-1.98721e-02,-8.87779e-02,8.53193e-02,2.25025e-01,-1.66111e-01,-1.60375e-01,3.52936e-01,2.92035e-01,-4.52174e-01,7.08806e-04,1.77666e-01,2.22613e-01,1.78512e-01,-8.56248e-02,-3.36709e-01,2.30330e-01,-2.36007e-01,
-2.18422e-01,3.72579e-01,6.51600e-01,-1.07129e-01,3.16616e-01,-2.35886e-01,1.21228e-01,-6.42728e-01,-3.37444e-02,3.10877e-01,-1.33600e+00,-5.41602e-01,1.94546e-01,-2.39510e-01,-4.04608e-01,-2.23959e-01,-2.30346e-01,7.53256e-02,-1.15659e-02,-2.87558e+00,1.49977e-01,-2.99292e-01,5.22866e-01,1.43300e-01,5.02203e-01,
1.58760e-03,3.53188e-01,-1.78583e-01,-2.27141e-02,1.51502e-01,1.16217e-01,1.17176e-01,2.92803e-02,6.29970e-02,4.15482e-02,-3.46324e-01,3.06403e-01,-1.09633e-01,1.47991e-01,-9.37580e-02,1.71855e-02,-8.57027e-02,1.64322e-01,1.68883e-01,3.15550e-01,-8.73445e-02,-6.10943e-02,6.07178e-02,-4.41625e-01,1.09760e-03,
9.99305e-03,6.81555e-02,-4.09795e-01,-2.37197e-01,3.03940e-01,-5.27682e-01,1.94234e-01,3.71326e-01,3.95266e-02,4.65453e-01,-7.53934e-02,6.35626e-01,-1.02394e-01,1.27043e-01,-2.38432e-01,-7.73928e-01,5.45051e-02,-3.14210e-02,-3.97867e-02,6.64504e-01,-5.66304e-02,1.39789e-01,3.75838e-01,-1.02843e-01,1.72326e-01,
2.68915e-01,3.61409e-01,1.52827e-01,-2.83907e-01,-3.60982e-03,8.27806e-02,2.21719e-01,-3.23381e-01,2.81314e-01,9.04846e-02,-1.03570e-01,-2.16539e-01,7.13575e-02,1.40442e-01,2.79597e-01,-6.14767e-02,2.02909e-01,-1.51035e-01,-1.24518e-01,3.75707e-01,-1.97112e-01,2.81720e-01,-2.57876e-01,1.09864e-01,-6.75291e-02,
2.77512e-02,-2.46861e-01,4.61043e-01,7.17587e-01,-2.42588e-01,1.54526e-01,3.55970e-01,1.08498e-01,-2.64798e-01,-6.62164e-02,-5.88668e-03,-2.37703e-01,-1.60541e-01,-5.37522e-01,-5.37057e-01,-5.87377e-01,-3.62542e-02,-2.09124e-02,4.18469e-01,2.72170e-01,2.64057e-01,-3.08226e-01,-5.35141e-01,1.76972e-01,4.06339e-01,
-9.51033e-02,3.54035e-01,-2.47237e-01,-2.73193e-01,5.95566e-02,1.83341e-01,-4.39515e-01,-3.05374e-01,-1.13247e-01,2.31654e-01,4.02899e-01,-7.63182e-01,-2.86125e-01,4.83058e-02,-5.56586e-01,2.75999e-01,-1.79970e-01,-1.40668e-01,-2.38012e-03,5.56577e-01,3.04412e-01,6.05678e-02,2.33228e-01,-1.69774e-01,-1.97345e-01,
-4.96966e-01,-1.71360e-01,-1.18482e-01,4.79118e-01,-1.28638e-02,4.56546e-01,-2.65209e-01,2.25257e-01,-3.24507e-01,1.16634e-01,-1.02575e-02,2.08592e-01,-1.72476e-01,-7.18289e-02,-8.53839e-01,1.28798e-01,-3.76636e-01,1.32054e-01,1.03920e-01,-1.20456e-01,-1.07296e-01,1.96844e-01,-2.75424e-01,3.52627e-01,2.68450e-01,
6.61781e-02,-8.09169e-01,-8.04719e-01,3.56535e-01,-2.82322e-01,-7.38442e-01,2.02153e-01,3.06251e-01,-1.73453e-01,-2.09443e-02,-4.08531e-01,-3.03222e-06,1.49479e-01,-2.92920e-01,4.80184e-01,5.10161e-01,-2.27599e-01,2.04169e-01,3.40701e-01,-8.75507e-01,-1.44795e-01,1.77580e-01,-3.39206e-01,3.75959e-01,-3.48295e-01,
1.42849e-01,
3.02118e-01,
1.25905e-01,
-9.33187e-02,
-4.62367e-02,
-2.00089e-01,
-7.04808e-02,
1.61384e-01,
-1.60586e-01,
-1.38016e-01,
1.11681e-02,
2.74231e-02,
1.12168e-01,
-2.45834e-01,
1.33331e-01,
-4.54166e-02,
1.91204e-01,
-1.03051e-01,
4.54897e-02,
-3.83714e-01,
1.49174e-01,
-8.18579e-02,
2.52926e-01,
1.24760e-01,
1.56166e-01,
-3.04517e-01,-2.95851e-01,-3.61208e-01,2.44463e-01,6.08556e-02,1.84223e-01,1.77227e-01,1.58932e-01,-4.25566e-01,-4.52257e-01,5.42795e-04,7.03109e-01,4.24517e-02,1.76553e-01,1.24218e-01,3.71591e-01,3.10734e-02,6.94041e-01,-2.23816e-01,4.11267e-01,-1.54157e-01,8.45001e-01,3.52797e-01,6.87850e-01,-3.63105e-01,
-4.46004e-01,-2.78808e-01,-2.68737e-01,-9.63874e-02,1.64376e-01,2.23671e-01,-1.35990e-01,4.83712e-02,4.23685e-01,-6.93689e-03,-3.97172e-02,1.98882e-01,-5.85432e-02,4.37449e-01,2.76473e-02,9.18744e-03,-1.06301e-01,3.62501e-01,-1.54532e-02,8.21874e-02,-4.08478e-02,5.43208e-01,-1.21179e-01,8.16841e-01,-1.76406e-01,
-1.59146e-01,-3.97891e-01,-1.43302e-01,-2.50718e-01,5.29117e-01,-2.17945e-01,2.08448e-02,-2.88901e-01,-3.26215e-02,-1.87901e-01,3.73817e-01,9.80498e-01,-2.34834e-01,-2.33321e-01,3.18410e-01,4.45788e-03,3.21501e-01,-6.75666e-01,-2.65913e-01,-6.55677e-02,-1.65573e-02,-5.39591e-02,-1.53852e-01,-1.73551e-01,-1.29340e-01,
3.72217e-02,7.66228e-02,-8.60046e-02,-1.02273e-01,-3.90250e-01,-3.35763e-01,3.62553e-01,1.58184e-01,1.97606e-01,-2.75351e-01,1.22213e-01,3.74915e-01,-2.01404e-01,-2.61057e-01,2.88293e-01,-8.22730e-03,2.18454e-01,-2.69859e-01,3.11097e-01,-3.79797e-01,-2.03298e-01,1.93076e-01,-3.73659e-02,-4.36204e-01,1.02539e-01,
-6.93392e-01,2.04940e-01,-2.98853e-01,-1.73639e-01,-4.10058e-01,1.82900e-01,2.56905e-02,-4.05244e-01,-1.62584e-01,-4.69821e-02,-2.02168e-01,1.45635e+00,-2.25539e-01,-5.45063e-01,2.15441e-01,9.33360e-02,1.42429e-01,3.58711e-01,1.12727e-01,-3.48716e-01,2.33280e-01,-1.16376e-01,4.65088e-01,3.96696e-01,-6.94640e-01,
4.01020e-02,1.31320e-01,9.85764e-02,-2.57286e-01,1.52909e-01,-1.32634e-01,-8.64994e-01,-3.25868e-01,-1.55838e-01,-3.00728e-02,5.24244e-01,-2.22728e-01,-2.33090e-01,-1.40401e-01,-1.76193e-01,-2.97419e-02,3.85372e-01,2.88833e-01,1.34941e-01,3.62546e-01,-5.55003e-02,3.05089e-01,-3.72551e-01,-4.84574e-02,1.32905e-02,
3.47699e-01,1.50903e-01,-1.89031e-01,1.72319e-01,3.40430e-01,3.05809e-01,-7.07080e-02,5.36267e-03,1.95787e-01,-1.49069e-01,3.30834e-01,1.03409e-01,1.78314e-01,3.62225e-02,2.54860e-01,5.83820e-03,-2.24988e-01,-3.11162e-01,-1.96899e-01,1.81710e-01,-3.53129e-01,-6.70088e-01,5.85997e-02,-5.33828e-01,7.10028e-01,
4.55881e-01,1.77961e-01,2.04619e-01,8.89185e-02,-5.15746e-01,-2.85557e-01,2.74053e-01,2.38995e-01,1.73977e-01,-2.47081e-01,-1.09302e+00,3.92037e-01,3.01027e-01,-2.98417e+00,-2.23160e-01,-3.20895e-01,-2.76193e-01,-2.05007e-01,-3.14011e-01,-1.91002e+00,2.99718e-01,-7.49426e-01,-1.08791e-01,-4.35620e-01,3.87409e-01,
-8.41411e-03,3.50046e-01,-2.00399e-01,-2.61253e-01,-8.09510e-03,-9.35065e-02,-6.80459e-01,-4.15289e-02,3.77801e-01,2.99576e-01,6.60275e-01,7.52546e-01,5.38726e-02,-1.12486e-01,2.49299e-01,-1.44836e-01,-2.96167e-01,-2.65145e-01,-2.89029e-02,1.53559e-01,-1.91906e-02,2.53539e-04,1.10576e-01,-1.37510e+00,-1.98101e-01,
-3.71415e-01,-2.80609e-01,-2.51391e-01,-6.71025e-02,-1.14982e-01,3.33520e-01,-3.27501e-02,2.36198e-02,-1.55381e-01,-1.09839e-01,-1.35564e-01,5.08045e-01,-2.43241e-02,1.45560e-01,-1.89498e-01,1.26954e-01,8.51484e-02,7.73298e-01,-2.60525e-04,1.59362e-01,2.35687e-01,9.70926e-01,1.34603e-01,9.22721e-01,-5.64500e-01,
2.59673e-01,-7.22913e-02,1.56200e-01,-1.36235e-01,2.86955e-01,2.42803e-01,2.23016e-01,-3.51097e-01,-1.24699e-01,1.32051e-01,-3.40598e-01,-4.78590e-02,1.35086e-01,8.54286e-02,-3.82982e-02,2.04568e-01,-2.27114e-01,-2.28547e-01,1.06615e-01,2.28023e-01,-1.71858e-01,-2.09476e-02,2.50270e-01,-7.97611e-02,-1.59825e-01,
2.81993e-01,4.39859e-02,2.93195e-01,-3.03611e-01,-2.89269e-01,-2.24993e-02,1.23929e-01,-3.29118e-01,-3.24971e-01,8.03399e-02,2.42954e-01,1.09546e-01,-1.16347e-01,-1.38733e-01,2.76365e-01,1.24938e-01,-3.28237e-01,-2.64720e-01,1.31442e-01,2.28910e-01,-1.85442e-01,-2.31509e-01,-1.61081e-01,-7.29790e-02,-2.73009e-01,
3.60902e-01,-3.48398e-01,1.40483e-01,7.94148e-02,-1.97987e-01,-9.76914e-03,2.82010e-01,-4.04252e-01,-2.45639e-01,-3.94192e-01,8.84911e-02,5.86406e-02,7.87919e-02,-5.59338e-02,4.50181e-02,-1.06514e-02,-5.32393e-01,-1.21996e-01,-3.54415e-01,4.25344e-01,2.33765e-02,-8.63390e-03,3.14907e-01,4.02418e-01,-1.34049e-01,
1.33372e-01,1.10168e-01,-2.26166e-01,-6.53416e-02,6.20256e-02,-1.33696e-01,1.31261e-01,-2.61160e-01,1.53973e-01,-3.04631e-01,-7.47615e-02,-4.80447e-02,-2.94157e-01,-1.66101e-01,-6.15985e-02,3.24509e-01,6.21870e-02,3.06414e-01,1.10276e-01,3.90342e-02,-2.64905e-01,-4.90449e-02,1.58916e-01,-1.80932e-01,3.35937e-01,
-2.19399e-02,7.50368e-02,2.45358e-01,2.53042e-01,7.96719e-02,2.40673e-01,-3.91779e-03,5.53589e-03,-7.07388e-02,-3.84474e-02,-7.95293e-02,-5.17334e-01,2.29080e-01,1.14704e-01,-1.43099e-01,2.65377e-02,5.35763e-02,-1.91983e-01,-6.00755e-02,1.56063e-02,-2.67063e-01,-2.75482e-01,-2.76039e-02,-4.47255e-01,-4.96148e-02,
-3.30746e-01,-1.13724e-01,6.69314e-02,3.21372e-01,1.83312e-01,7.90881e-02,-3.52312e-02,1.52621e-03,-2.39455e-01,3.09923e-01,-1.80060e-01,-1.30065e-01,-3.42415e-01,-1.77277e-01,2.82887e-02,-3.10136e-02,1.16241e-01,-2.74450e-02,-6.03904e-02,-3.44748e-01,-1.08518e-01,3.73879e-02,3.32218e-01,3.20332e-01,-1.94936e-01,
2.45255e-01,-1.74790e-01,1.49968e-01,2.70193e-01,4.68758e-02,1.90987e-01,-1.67623e-01,-2.80354e-02,-1.45652e-01,1.05772e+00,-9.17616e-01,2.86567e-01,2.51284e-01,-1.75528e+00,-4.91448e-02,-6.20455e-01,-1.84038e-01,-2.15500e-01,-4.76222e-01,-1.59891e+00,-4.49372e-01,-1.39933e+00,-5.78237e-01,-1.83166e+00,4.90736e-01,
3.61811e-01,8.92572e-02,-1.92382e-01,-2.28441e-01,-2.81894e-01,-3.00302e-01,2.30015e-01,-2.65677e-01,1.24163e-01,-1.45410e-01,1.15928e-01,-9.02989e-01,-1.56239e-01,-2.61594e-01,-3.77838e-02,-6.91176e-02,-1.13762e-01,5.48408e-02,1.56382e-01,-2.98070e-01,2.16449e-01,4.95359e-02,-7.00508e-02,-2.05892e-02,1.51161e-01,
-6.18713e-02,-1.25674e-01,4.04387e-02,-3.19463e-01,2.02640e-01,7.17472e-02,-1.71180e-01,-1.50916e-01,1.01837e-01,3.26348e-01,2.08031e-01,-2.58584e-01,-7.80877e-02,2.12880e-01,-1.02840e-01,3.10035e-01,2.11715e-01,1.44131e-01,-2.89646e-02,5.50137e-03,-2.72705e-01,1.67420e-01,1.03530e-01,1.37620e-01,-3.59209e-01,
2.08066e-02,7.72620e-02,-6.59630e-02,-5.98473e-02,-5.06790e-01,1.68225e-01,-1.32232e-01,2.35333e-01,7.15541e-02,-1.78105e-01,-1.64641e-01,-6.81220e-02,-1.64500e-01,-5.06410e-01,-2.34563e-02,6.08126e-02,2.94423e-01,1.79695e-01,1.51668e-01,-2.86257e-01,1.71015e-01,2.32384e-01,2.78915e-01,6.80173e-02,3.43145e-01,
1.39462e-01,-3.40488e-01,1.53701e-01,2.38620e-01,-1.80557e-01,-2.72433e-02,2.50255e-02,3.68882e-02,7.59857e-02,-3.21614e-01,8.78374e-02,7.04662e-02,-4.67823e-02,-2.39429e-01,1.98334e-01,2.20881e-01,-3.09783e-01,8.08812e-02,2.74049e-02,-1.35207e-01,-3.48402e-01,2.33193e-01,-1.66926e-01,7.32094e-02,4.52679e-02,
-1.76417e-01,-3.58275e-01,2.45693e-01,1.55383e-01,5.25144e-01,-2.84172e-01,-1.21022e-01,-1.40114e-01,5.94369e-02,-9.92819e-01,-1.34630e-01,-1.26979e-01,1.12857e-02,4.18795e-02,-2.13047e-01,-9.17256e-02,8.24305e-02,-7.86077e-01,2.94978e-01,3.35947e-03,1.71672e-01,-1.19726e-01,2.70602e-01,-9.98696e-02,-5.27618e-01,
-1.47777e-01,-4.59359e-02,-3.91799e-02,8.01586e-02,2.13148e-02,-3.19003e-01,8.53882e-02,2.09337e-01,-4.33474e-02,4.06892e-01,2.43248e-02,-5.02664e-01,1.32014e-01,2.57053e-01,1.17781e-01,-6.46968e-02,-3.70878e-01,-5.77226e-01,2.07154e-01,1.37269e-01,1.63102e-02,-5.12701e-01,-1.55709e-01,5.37312e-02,5.14071e-01,
-1.70216e-01,2.17675e-01,2.55278e-01,-3.18295e-01,3.07729e-02,-1.88375e-01,9.26600e-02,-9.29883e-02,2.05005e-01,-4.80377e-01,-8.46785e-01,4.23580e-01,-1.50397e-01,-1.02444e-01,-2.16917e-01,3.89993e-01,-3.69557e-02,-3.43598e-01,-6.87798e-02,-5.36122e-01,-2.49369e-01,-1.93933e-01,2.55722e-01,-2.02170e-01,5.10543e-03,
-1.37096e-01,-3.04427e-01,-3.57365e-01,-1.70448e-01,-3.04247e-01,2.85194e-01,1.78272e-01,6.20089e-02,1.30484e-01,-3.70592e-02,2.54664e-01,-1.91053e-01,9.69711e-02,-2.92712e-01,3.09818e-01,2.56360e-04,2.08609e-01,8.28691e-03,1.74758e-01,2.34249e-01,-3.26516e-03,3.00296e-01,-2.72381e-01,-6.04968e-02,-1.65190e-01,
1.95303e-01,
2.48508e-01,
1.59539e-01,
-1.28101e-02,
-1.29195e-01,
1.89128e-02,
2.06372e-01,
-1.36810e-01,
-1.05113e-01,
1.03299e-01,
-1.94192e-01,
-1.52392e-01,
1.95197e-01,
-1.18919e-01,
3.23777e-01,
-2.29644e-01,
2.05182e-01,
2.74321e-01,
-2.44836e-01,
-9.88189e-02,
-9.07118e-02,
-1.74274e-01,
4.24233e-02,
1.37736e-01,
-2.70723e-01,
-3.43523e-01,-3.20932e-01,2.24893e-02,-1.09556e-01,7.93699e-02,2.53266e-01,-5.35241e-02,2.61996e-01,3.32163e-01,-7.50297e-02,-6.02806e-02,1.55468e-01,-2.29845e-01,-2.53019e-01,-3.37585e-01,-2.86347e-01,1.56564e-01,-2.51668e-01,-2.18977e-02,3.06713e-02,-1.08914e-01,-2.44257e-02,-7.89409e-02,-1.61693e-01,2.19821e-01,
9.75250e-02,-8.18782e-02,-8.86831e-02,-3.09987e-01,3.30962e-01,2.08007e-01,8.92622e-02,2.28484e-01,-4.88895e-02,8.63715e-02,6.50504e-02,2.42182e-02,-3.11214e-01,-2.99161e-02,1.43598e-01,3.21777e-01,-1.98598e-01,-2.99662e-01,2.15647e-01,-3.19423e-01,-2.80665e-01,3.11784e-02,1.64497e-01,2.17825e-01,6.17663e-02,
-3.21737e-01,1.83874e-01,1.32058e-01,-1.07704e-01,6.76871e-02,3.80308e-01,-2.50021e-01,-1.57918e-01,2.16701e-01,-4.13084e-01,2.39400e-01,2.17038e-01,1.67338e-01,-1.88307e-01,3.24893e-01,2.81864e-02,-3.42092e-01,3.31350e-01,-4.66096e-02,1.06356e-01,1.62731e-01,2.58552e-01,-2.19900e-01,-2.49759e-01,-4.35652e-02,
1.28348e-01,2.43985e-01,-2.56452e-02,-1.11188e-01,7.75718e-02,1.04428e-01,-2.29204e-01,4.49162e-02,-9.13061e-02,-2.02992e-01,-2.29792e-01,-1.62669e-01,1.00670e-01,2.95896e-01,1.63878e-01,-1.90387e-01,-4.36869e-01,-7.36486e-02,2.29862e-01,1.79556e-01,2.63047e-01,4.18048e-02,2.36897e-01,-1.55055e-02,-1.49211e-01,
2.74788e-01,6.78515e-03,-1.67455e-01,-3.24303e-01,-3.11841e-01,4.80908e-03,-2.03458e-01,2.46391e-01,-2.15879e-01,-8.58960e-02,-1.84976e-01,1.87774e-01,3.28752e-01,-6.48253e-02,7.87697e-02,-1.91026e-01,9.28892e-02,8.54351e-02,1.04015e-02,1.51020e-02,-2.02412e-02,-1.75295e-01,3.04451e-01,2.05168e-01,5.13276e-02,
-9.89550e-02,-2.90294e-01,5.09417e-03,-6.61800e-02,-1.56174e-01,-4.11198e-01,1.43200e-01,2.58504e-01,-1.51863e-01,2.64135e-01,1.37936e-01,1.96131e-01,-1.62288e-01,1.90774e-01,-2.60907e-01,-2.04722e-01,-3.20012e-01,1.35912e-01,-3.24130e-01,8.76493e-03,1.89098e-01,-2.23961e-01,1.90707e-01,-7.60126e-02,3.07672e-01,
-3.96649e-01,6.32392e-02,2.98174e-01,-2.08472e-01,-2.85757e-01,1.05881e-01,-2.02939e-01,1.58256e-01,2.50881e-01,1.42643e-01,2.48173e-01,2.23973e-01,1.65554e-01,2.36773e-01,2.82534e-01,-2.03075e-01,3.17924e-01,3.28175e-01,-8.39784e-02,1.81245e-01,-1.39627e-01,-2.94185e-01,-1.98475e-01,7.32256e-02,5.92556e-02,
-1.48158e-01,1.98999e-01,-2.09652e-01,-2.18351e-01,-1.34759e-01,8.62806e-02,-1.00339e-01,8.52319e-01,1.13221e-01,-5.01247e-01,8.44379e-02,1.26855e-01,-4.22607e-01,1.32467e-01,-3.37062e-01,-8.05158e-02,-5.22742e-01,-3.53364e-01,3.80916e-02,1.57210e-01,3.46691e-02,-2.15966e+00,8.02717e-02,7.94652e-02,-2.46677e-01,
1.25933e-01,-2.60687e-01,1.46302e-01,1.20246e-01,-5.87104e-02,7.38752e-02,2.36141e-01,6.91033e-02,-1.91218e-01,-2.34020e-01,7.55099e-02,-3.81637e-01,1.87740e-01,3.12263e-01,2.24439e-01,3.18092e-01,-5.28888e-01,2.30108e-01,-1.31528e-01,-1.86481e-01,1.35750e-01,1.16135e-01,-1.06942e-01,-3.46358e-02,2.53379e-01,
1.41609e-01,-9.70253e-02,-4.67232e-02,9.98950e-02,-2.59644e-01,-3.27778e-01,-1.54150e-01,8.98488e-02,1.17129e-01,-4.06392e-01,3.57969e-02,-2.07850e-02,-2.05357e-01,-1.97415e-01,-2.17193e-01,3.09939e-02,5.51112e-02,2.36291e-01,-1.35616e-01,1.48190e-01,2.06648e-01,3.60822e-02,-3.81950e-01,7.06244e-02,3.00163e-01,
-3.48927e-01,1.68672e-01,-4.28864e-01,1.59900e-02,7.26513e-01,-3.22069e-01,-3.28958e-01,-6.53884e-01,-1.20972e+00,-2.05240e-01,1.27955e-01,-4.47499e-02,4.76366e-02,3.37843e-01,-6.48137e-02,2.47433e-01,6.79851e-01,-2.47435e-01,1.98056e-01,-1.62084e-01,-1.89919e-01,3.90134e-02,2.25964e-01,-3.30843e-01,5.14055e-02,
-2.92519e-01,-1.56170e-01,-2.54997e-01,2.89524e-01,-1.74742e-01,1.56099e-01,-2.67071e-01,-3.34297e-01,1.58897e-01,4.08691e-02,5.00112e-02,1.58480e-01,1.90946e-01,1.56825e-01,2.69356e-01,1.85601e-01,-2.99517e-01,-2.05518e-01,1.49282e-01,-4.95199e-02,-2.11175e-01,5.62003e-03,2.80729e-01,-2.11512e-01,2.56385e-01,
-1.32225e-01,2.03581e-01,-2.52142e-01,-2.28745e-01,1.53581e-01,-2.74297e-02,8.35574e-02,-1.62507e-01,3.00881e-01,2.76633e-01,-1.94867e-02,-1.75068e-01,-7.44795e-02,-1.14501e-01,5.69758e-02,1.74362e-01,2.97162e-01,9.35660e-02,-1.61898e-01,-2.94250e-01,-2.54093e-01,2.43959e-01,1.01787e-01,-2.46251e-01,-3.14521e-01,
-3.45311e-01,-8.75384e-02,9.30571e-02,-4.18821e-01,7.39469e-01,1.79794e-01,2.64725e-01,1.18787e-01,1.95522e-01,5.04847e-01,-2.97618e-01,3.07134e-01,2.89440e-01,-1.32676e-01,-2.36409e-01,1.63221e-02,6.32139e-01,-2.32842e-01,-1.39512e-01,-3.45993e-01,3.31591e-01,3.80625e-02,8.14278e-02,-1.35359e-01,-7.14717e-03,
-3.45337e-02,-1.66139e-01,-1.69451e-01,1.29275e-01,3.09240e-01,-2.56787e-01,1.81592e-01,2.79457e-01,-5.36740e-05,-6.09963e-02,-2.46015e-01,-6.30294e-02,2.05346e-01,-3.01608e-02,-1.14085e-01,1.41804e-01,-1.36714e-01,-2.93286e-01,-3.02919e-01,-1.80932e-01,-1.02079e-01,3.28646e-01,-6.79253e-02,-1.26941e-01,-1.27178e-01,
3.65555e-04,-1.20620e-01,1.09787e-01,-1.02519e-01,-7.05937e-02,-3.04768e-01,-8.63054e-03,3.45676e-01,2.86314e-01,1.45155e-01,-2.09644e-01,2.28294e-01,-1.14866e-01,2.64819e-01,2.80337e-02,7.39938e-02,-2.36271e-01,-2.56284e-02,1.89224e-01,2.95602e-01,-3.18717e-01,-3.28063e-01,1.34267e-01,-1.94792e-01,-7.25760e-02,
1.09045e-01,-1.63362e-02,-2.49996e-02,1.06823e-01,-1.09170e-01,1.32939e-01,-5.17866e-03,2.40944e-01,5.78647e-02,-7.13725e-02,-1.39561e-01,-2.74227e-01,-2.83024e-01,-1.99685e-01,1.56400e-01,3.42954e-01,5.48935e-01,1.02918e-01,7.11858e-02,-9.29202e-02,-5.05211e-02,1.65017e-01,-7.64797e-02,-1.32136e-02,3.19814e-01,
-4.14138e-01,-2.36019e-02,-2.41366e-01,1.76879e-01,3.02541e-01,-2.49464e-01,3.03996e-01,-9.55384e-02,-3.27716e-01,7.29625e-01,-1.76992e-01,-1.93601e-01,-5.52618e-02,7.82261e-02,3.29356e-01,-3.97490e-02,1.03544e-01,6.34494e-02,3.36787e-02,1.07972e-01,-2.52001e-01,3.99559e-01,2.33601e-01,-9.61955e-02,6.11592e-02,
-3.07629e-01,2.21282e-01,-2.39490e-02,-2.70152e-01,-2.62671e-01,-2.29596e-01,2.09591e-01,-8.66327e-02,-7.57545e-02,-2.31504e-01,1.24083e-01,-9.58435e-02,-1.15100e-01,4.21067e-02,6.18646e-02,8.66702e-02,2.63259e-01,-1.93443e-01,2.99254e-01,-2.69235e-01,3.52941e-02,-1.49231e-01,-7.87097e-02,7.71264e-02,2.02735e-01,
-3.06662e-01,-1.80107e-01,-1.29385e-01,-3.44868e-01,1.96434e-01,-2.39776e-01,-2.14431e-01,2.54369e-01,-3.20101e-01,-1.68885e-01,-1.08786e-01,-1.61661e-01,2.67936e-01,-1.58063e-01,-1.51410e-01,2.00797e-01,2.51802e-02,8.51993e-02,1.21152e-01,3.22963e-02,4.76123e-02,-1.52783e-02,-1.27089e-01,9.06805e-02,1.64142e-01,
1.20260e-01,-2.80686e-01,-2.21393e-01,2.64743e-01,-5.64460e-02,2.16843e-01,1.76672e-01,8.92913e-03,-2.39045e-01,-1.07488e-01,-7.72727e-02,-4.39126e-02,3.75156e-03,8.96633e-02,-1.70100e-01,-2.50026e-01,7.00808e-01,-3.05694e-01,1.26197e-01,-9.70715e-02,-1.32122e-01,1.41388e-01,2.42807e-01,-2.23942e-01,-8.45610e-02,
1.61344e-01,2.33333e-01,-2.32793e-01,-1.28150e-01,2.66652e-01,-3.08484e-01,-3.13296e-01,1.81938e-01,3.47749e-01,-1.45846e-01,-2.82089e-01,2.67227e-01,-2.11082e-01,-2.99355e-01,-3.71076e-01,-2.79430e-01,2.40150e-01,1.89588e-01,-3.15892e-02,8.69756e-02,2.95702e-01,-1.28890e-01,-3.58417e-01,1.10977e-01,1.11608e-01,
-2.85320e-01,2.46486e-01,7.76478e-02,-3.22849e-02,2.18620e-01,3.20724e-01,6.36810e-02,-2.85240e-02,3.03794e-01,4.64485e-01,2.06402e-01,-1.95784e-01,-1.78359e-01,-2.08493e-01,3.52341e-01,1.71835e-01,-6.01047e-04,-4.11327e-02,-2.19322e-01,6.03393e-03,1.46553e-01,1.15737e-01,2.27108e-01,3.84585e-02,-2.85971e-01,
-3.71613e-02,9.14086e-02,2.78569e-02,-3.16094e-01,7.34159e-01,3.24256e-01,7.65191e-02,-3.85631e-01,-7.11198e-03,5.76941e-03,1.08537e-01,-1.29231e-01,4.26457e-01,2.61874e-01,-2.23499e-01,2.96810e-01,-1.22927e+00,-2.09620e-01,-3.00600e-01,-3.82048e-01,-8.85082e-02,2.25810e-01,1.41173e-01,-2.00161e-01,1.84071e-01,
-9.91655e-03,-1.66807e-01,1.10524e-01,1.46176e-01,-1.89661e-01,-3.74914e-01,2.93652e-01,-9.71776e-02,6.17045e-02,6.42561e-01,2.51433e-01,1.06364e-01,-2.03734e-01,1.82180e-01,2.12574e-01,2.48064e-01,-4.72209e-01,7.76611e-02,1.15654e-01,2.21072e-02,-2.26568e-01,-3.77951e-01,1.24847e-01,2.48522e-01,2.69362e-01,
-5.67637e-02,
-2.24539e-01,
1.12090e-01,
1.22399e-01,
-3.31562e-01,
1.45607e-01,
1.48706e-01,
2.26641e-01,
1.88951e-01,
2.18369e-01,
2.10858e-01,
-3.39448e-01,
-3.05614e-01,
1.62388e-01,
-1.51991e-01,
-2.03859e-01,
-4.49258e-02,
1.56740e-01,
-2.95853e-01,
-7.16488e-02,
2.13706e-01,
-2.56504e-01,
4.11430e-02,
1.36866e-01,
1.54443e-01,
3.56780e-02,-4.13750e-01,9.12508e-02,1.87957e-01,4.05410e-01,1.92248e-01,-3.74898e-01,-1.23012e-01,1.19418e-01,-2.26714e-01,2.15900e-01,-3.48201e-01,-2.94488e-01,1.18947e-01,2.14062e-01,-2.69948e-01,-1.69797e-01,-3.61119e-01,-8.91441e-03,3.31157e-01,-4.04748e-01,-3.08517e-01,4.18553e-02,-3.53334e-01,-3.40740e-01,
-4.98477e-03,1.97156e-01,3.97260e-01,1.74344e-01,-1.52341e-01,-2.07580e-02,-2.99179e-01,-1.52976e-01,-1.58201e-01,-6.71247e-02,-3.43279e-02,4.06057e-02,3.78137e-01,-1.09401e-01,-2.57714e-01,1.24161e-01,7.13224e-02,-1.11977e-01,1.06111e-01,-4.18477e-01,-1.14570e-01,7.24781e-01,-2.58425e-01,5.06975e-02,2.51916e-01,
3.41698e-01,1.76652e-01,3.76157e-02,-5.66148e-02,3.02534e-01,5.40894e-02,-2.12555e-01,-1.55306e-01,-5.70885e-02,-2.37025e-02,1.01535e-01,-3.13119e-01,-4.95643e-02,-2.90873e-01,9.32607e-02,1.28766e-01,-7.79452e-02,-3.05491e-01,-6.07148e-03,3.66142e-01,-2.47527e-01,6.79252e-01,-3.20070e-02,1.33842e-01,-2.12965e-01,
1.78838e-01,2.20805e-01,6.86605e-02,4.38642e-01,1.81120e-02,2.22420e-01,2.15567e-01,-1.55422e-01,3.29779e-01,2.02372e-01,-4.76647e-02,3.36887e-01,1.58088e-01,-4.26826e-03,-1.04008e-01,-1.71709e-01,-1.35233e-01,-7.92624e-02,2.85756e-01,1.15827e-01,-8.87460e-02,8.92871e-01,4.01200e-01,2.41906e-01,3.51070e-01,
-3.69853e-01,-3.18260e-01,-1.47678e-01,3.11925e-01,-6.56283e-03,-2.24478e-01,-1.57976e-01,-8.81267e-02,-7.30531e-02,2.95722e-01,3.21664e-01,-1.70217e-01,6.00136e-01,-2.64654e-01,2.59615e-01,-4.67674e-02,2.82342e-01,-4.63172e-01,1.51295e-01,7.43681e-03,-2.10814e-01,5.88247e-01,-1.04430e-01,1.36456e-01,-2.68711e-01,
3.08752e-01,
5.93282e-02,
2.79603e-01,
-4.44525e-01,
2.74845e-01,
