// Neural Network File Format by Kyle Julian, Stanford 2016
6,3,5,25,
3,25,25,25,25,25,5,
0,
-56000.000000,-56000.000000,-3.141593
56000.000000,56000.000000,3.141593
-278.628049,0.000000,0.000000,-0.242819
112000.000000,112000.000000,6.283185,17.479225
-7.85731e-01,-2.82819e+00,-6.03185e-01,
3.40447e-01,1.39361e+00,1.54842e-01,
-2.33557e+00,-9.85453e-01,3.81242e-01,
-1.11921e+00,1.40889e+00,1.03419e-04,
1.02695e+00,-3.64269e-01,2.52190e-01,
-2.73168e-01,-3.06584e-01,-2.07356e-01,
-2.45487e+00,1.34039e+00,4.32271e-01,
4.19798e-01,2.44134e-01,2.60539e-01,
1.13012e+00,-2.65789e-01,4.13015e-01,
-1.39406e-01,-2.13251e-01,4.59733e-01,
4.90944e-01,-1.10206e+00,3.41929e-01,
1.43328e+00,1.17948e-01,1.78022e-01,
-2.02090e-01,-7.16829e-03,-3.25171e-01,
8.39314e-01,-1.01530e+00,-5.98762e-01,
-2.37632e+00,1.42400e+00,-5.62892e-02,
-1.96724e+00,-1.44468e+00,2.29096e-01,
-5.45523e-01,-7.74209e-01,6.58709e-01,
-5.93978e-01,1.85237e-01,6.01342e-01,
1.43450e-01,-9.94630e-01,5.22543e-01,
9.67179e-01,-1.17615e+00,2.54915e-01,
-3.50506e-02,-1.33558e+00,-5.38314e-01,
8.79779e-01,1.34834e+00,-3.34425e-01,
-2.75700e-01,7.13052e-01,-3.00788e-01,
-1.26085e+00,-2.02025e+00,-4.15417e-01,
5.09598e-01,8.70134e-01,3.20633e-01,
2.12245e-02,
7.42689e-02,
8.70151e-02,
2.06818e-01,
1.66271e-01,
2.36464e-01,
-2.34347e-03,
1.18687e-01,
-6.94472e-02,
2.76431e-01,
-2.04492e-01,
6.49375e-02,
-3.03766e-01,
1.70120e-01,
-3.94028e-03,
-4.37004e-02,
-1.71563e-01,
9.99567e-02,
-1.38762e-02,
1.33034e-01,
-1.17815e-01,
1.49294e-01,
1.03209e-01,
1.71560e-01,
1.18752e-01,
-8.16401e-01,3.70490e-01,-3.64749e-01,2.71720e-01,2.55576e-01,-2.78454e-01,-6.35704e-01,3.26848e-01,-3.01840e-01,-1.62819e-01,-4.35840e-01,3.40454e-01,-9.26534e-02,-3.24928e-01,3.40218e-01,1.00042e+00,-3.88200e-02,7.62270e-03,-5.93120e-01,-3.17893e-01,1.36484e-01,8.45495e-02,-1.56273e-01,1.43647e-01,2.60587e-01,
-2.30638e-01,1.72725e-01,1.55078e-01,-6.08115e-02,-2.52475e-01,-4.15279e-01,1.63806e-01,2.81034e-01,2.38365e-01,-1.58399e-01,-4.26780e-01,6.81287e-03,-1.05559e-01,2.53777e-01,8.42368e-01,-4.74997e-01,3.72182e-01,-1.54090e-01,-6.74752e-02,5.46462e-02,-5.00762e-02,-2.09723e-01,-3.77360e-01,2.21973e-01,1.56447e-01,
-1.56783e-01,3.00584e-01,-3.70537e-01,-8.71616e-02,9.26113e-02,-1.54480e-01,1.22719e-01,-7.36743e-02,-3.96444e-01,1.06448e-01,3.21014e-01,3.09725e-01,-2.41217e-01,-2.03787e-01,1.41749e-02,7.92132e-01,-1.33402e-01,3.02458e-01,-1.86682e-01,3.54174e-01,4.42704e-01,3.11247e-01,-1.46661e-01,1.04326e-01,1.31293e-02,
1.36455e-01,-2.32946e-01,7.42843e-01,6.13858e-02,2.34884e-01,-6.77760e-02,-1.90718e+00,-4.42330e-03,1.47012e-01,-6.04858e-02,-2.27024e+00,-2.16388e-01,2.69688e-01,-1.44458e-02,-1.01162e+00,-1.62963e+00,9.37466e-01,3.60816e-01,2.94232e-01,-4.71856e-05,-8.88887e-01,1.69271e-01,4.07878e-01,2.49188e-01,-3.60180e-01,
1.15591e-01,9.92429e-03,3.65184e-01,3.52847e-01,-3.36102e-01,2.19777e-01,-4.21161e-01,1.97536e-01,6.82759e-01,3.26502e-01,5.73311e-01,-8.34487e-01,-1.60621e-01,-1.80062e-01,-5.31663e-02,-2.21266e-01,-2.33773e-01,-2.65742e-01,4.42757e-01,-4.94355e-01,2.66535e-01,-4.59574e-01,-2.91284e-01,2.80131e-01,-8.60287e-02,
5.85622e-01,-2.36727e-01,1.97100e-04,2.28438e-01,1.45103e-01,5.93789e-02,3.84080e-01,5.77357e-02,-3.04194e-01,2.58393e-01,3.57066e-01,-1.69120e-01,3.16824e-01,1.45187e-01,6.05704e-01,-3.72583e-01,-8.11585e-02,-2.29535e-01,-1.05911e-01,-2.28864e-01,-5.76636e-01,2.31476e-01,3.14294e-01,-1.22233e-01,1.92193e-01,
-6.13459e-02,1.01364e-01,1.15131e-01,-2.55123e-01,-1.85451e-01,3.17735e-01,-3.27511e-01,-2.26561e-01,5.61956e-02,3.53471e-01,-8.37518e-02,2.72855e-01,1.99255e-01,-3.00153e-01,3.23352e-01,-2.88082e-01,-1.99778e-01,2.49950e-01,-7.94170e-02,3.57685e-01,-1.43650e-02,-1.72432e-01,3.79941e-01,6.18193e-02,1.81640e-02,
9.35150e-02,-1.41321e-01,-2.09091e-01,2.66973e-01,1.17595e-02,8.20644e-02,7.39697e-02,-7.44502e-02,9.06728e-02,2.07514e-02,5.05308e-01,-3.37489e-02,6.70862e-02,-7.97622e-02,1.33422e-01,3.48831e-01,3.18773e-01,-3.77013e-01,-9.59472e-02,-2.52298e-02,-5.06378e-01,-6.34039e-02,-2.34868e-01,-3.65091e-01,4.13728e-01,
-4.09372e-01,8.18358e-02,2.14848e-01,2.45041e-01,-2.27213e-02,9.50859e-02,1.82211e-01,-2.33898e-01,4.34926e-01,-2.92404e-01,8.66670e-01,1.02229e-01,-2.51356e-03,1.92739e-02,6.87166e-01,1.52556e+00,-7.69430e-04,4.40399e-01,1.70207e-02,-3.26461e-01,5.28412e-01,-1.92069e-01,2.06993e-01,-2.70376e-01,-2.30510e-01,
-1.94994e+00,-7.21098e-02,2.04779e-01,9.88704e-02,-1.35921e-01,-2.04368e-01,-6.43456e-02,-5.71290e-02,-1.08130e-01,3.13967e-01,1.22309e+00,-1.61697e-01,-2.62621e-01,-4.97490e-01,8.79920e-01,-1.28700e+00,-5.99098e-01,-6.94372e-02,-2.70107e-01,-1.44572e-01,2.94801e+00,8.15870e-02,2.19807e-01,-4.25354e-01,1.90870e-01,
-1.30808e-01,2.13150e-01,2.70220e-01,-2.61855e-01,-2.84761e-01,-2.87566e-01,-1.86453e-01,-2.89822e-01,-7.12577e-02,2.10015e-01,1.21162e-01,3.44451e-01,-2.04691e-01,1.26504e-01,-1.52524e-01,2.80060e-02,5.58299e-02,-1.45955e-01,-1.72078e-01,2.11000e-01,-2.10396e-01,-2.97016e-01,-5.77289e-02,9.91342e-02,-2.19249e-01,
-5.65623e-01,2.62335e-01,-2.66406e-01,-7.64685e-02,-3.30780e-01,-1.85564e-01,6.17728e-01,-1.72542e-01,1.73819e-01,-2.83762e-02,7.51390e-02,-1.32716e-01,4.90607e-02,-6.96824e-01,5.54025e-01,1.03315e+00,-8.51384e-01,3.27931e-02,5.23486e-02,-4.86925e-01,7.01143e-01,1.04954e-01,3.45145e-01,-4.36457e-01,3.06396e-01,
1.24911e-01,1.09454e-01,-5.25486e-01,-2.57948e-01,2.83199e-01,2.71989e-01,3.93197e-02,-1.62216e-01,9.05243e-02,-1.27653e-01,-1.95044e-01,-1.02013e-01,-3.25816e-01,-1.94766e-01,-2.15487e-01,-9.99717e-02,3.22024e-01,2.26587e-01,8.32275e-01,-4.45917e-01,-2.96967e-01,9.97491e-02,1.27006e-01,-2.06826e-02,2.80312e-02,
2.31722e-01,2.78978e-01,3.10401e-02,3.40763e-01,-3.03957e-01,-1.94070e-01,-1.22863e-01,-2.49470e-01,2.70608e-01,2.87280e-01,-2.97415e-02,-1.52897e-01,-7.33775e-02,-5.35780e-03,-8.66905e-01,1.92705e-01,-2.38532e-01,-3.88089e-01,5.46822e-01,-4.77365e-01,3.65258e-01,1.77948e-01,-1.42247e-01,1.22998e-01,9.37876e-02,
-7.18134e-01,2.46487e-01,5.00779e-01,1.96944e-01,-1.43191e-01,3.41145e-01,-1.15182e+00,-3.82819e-01,6.60034e-01,-1.83057e-01,-5.67158e-01,-2.18264e-01,-1.41909e-01,4.47624e-01,5.38559e-01,-2.27045e-01,-1.68986e+00,2.71120e-01,3.23743e-02,1.12296e-01,2.46416e-01,8.89588e-02,1.00618e-01,-3.70347e-02,-1.80221e-01,
2.44069e-02,3.82125e-01,-6.32408e-01,3.76027e-01,1.68981e-01,-1.98070e-01,1.72837e-01,1.86460e-03,2.98143e-01,2.47051e-01,-5.65485e-01,-1.29065e-02,1.33200e-01,-1.68010e-01,-1.23517e+00,3.47094e-01,1.24229e-01,-5.87667e-01,-9.61686e-01,1.69314e-01,1.23254e-01,1.75547e-01,-2.34323e-01,-2.14110e-01,-1.48501e-01,
-2.45798e-01,2.01082e-01,-3.87301e-01,-2.46526e-01,3.35883e-01,9.44777e-02,9.35931e-02,-5.54650e-02,1.22949e-02,1.74488e-01,-5.43888e-01,-2.12577e-01,1.70241e-01,3.69712e-01,-1.97649e-03,9.27787e-01,-2.79403e-01,1.23441e-01,-4.02014e-01,2.96075e-01,4.05530e-02,2.82960e-01,-3.89718e-01,-4.80747e-02,2.23877e-01,
5.79345e-01,-2.64108e-01,-4.17254e-02,-3.79462e-01,3.19250e-02,-1.23509e-01,7.03625e-01,-2.43324e-01,-2.84495e-01,-5.94881e-02,-1.36330e-01,-2.08662e-02,-2.61200e-01,2.11736e-01,2.89906e-01,-2.17594e-02,5.57185e-01,-5.01633e-01,-4.85737e-02,1.42823e-01,-1.00933e+00,-4.29161e-01,-1.47846e-01,3.75707e-01,-4.72523e-02,
-7.84879e-02,-1.36130e-02,6.69076e-02,-6.45377e-02,2.59953e-01,-7.74394e-03,-5.39388e-01,-4.45743e-02,2.73210e-01,-1.44760e-01,9.32514e-02,1.15914e-01,3.28204e-01,-2.40443e-01,-1.31920e-01,2.32391e-01,-1.12591e-01,3.29559e-01,5.29302e-01,-1.52996e-01,6.76191e-01,-1.01168e-01,1.06393e-01,1.80543e-01,8.65242e-03,
-2.23243e+00,-2.84470e-02,-1.48395e-02,3.10445e-02,4.43441e-01,1.55846e-01,1.69227e-01,1.82991e-01,8.20551e-02,2.84064e-01,9.90110e-02,3.59067e-01,1.28261e-02,-4.76049e-01,-1.96059e-01,1.52130e-01,2.41742e-01,2.72540e-02,-3.39091e-01,-1.35526e-01,-1.77532e-02,-2.31161e-01,-1.70088e-01,-3.25512e-01,1.81078e-01,
-3.38433e-01,5.98170e-02,-2.18189e-01,-7.72328e-02,-2.01656e-01,-1.26425e-02,1.61323e-01,-1.27530e-01,-3.79463e-02,1.25265e-01,1.67897e-01,3.30333e-01,-1.01475e-01,2.05834e-01,-1.78482e-01,5.18387e-01,-1.09876e-01,2.93172e-01,5.40627e-02,-3.29492e-01,5.18757e-01,-1.57309e-01,4.07073e-03,-2.68086e-01,-3.18945e-01,
-9.99891e-02,-1.30347e-01,-1.18732e-01,-3.09676e-01,1.64760e-01,1.39003e-02,-2.23559e-01,2.65871e-01,-6.27132e-01,2.68288e-01,1.18142e-01,3.08908e-01,-2.69022e-01,-1.81050e-01,1.10938e-01,-1.48027e-01,9.76015e-01,-1.82768e-01,-1.22932e-01,4.79365e-02,-4.65910e-01,-2.02494e-01,-2.70447e-01,3.76293e-01,1.94815e-01,
1.10681e-01,-6.09920e-01,-2.20452e-01,2.63893e-01,-2.87372e-01,3.13436e-01,5.98937e-01,-4.14625e-01,-4.38582e-01,1.22798e-01,4.52824e-01,-3.14986e-01,-1.30019e-01,1.80603e-01,4.84968e-01,3.10437e-02,6.53091e-01,3.03229e-01,4.72311e-01,-1.81297e-01,-1.74471e-01,-6.40251e-02,-2.27714e-01,4.14152e-01,-3.92623e-01,
2.35700e-01,6.23574e-02,1.42825e-01,-2.63915e-01,-2.54805e-01,1.38561e-01,-2.25287e-01,1.21371e-01,-4.78675e-02,1.53393e-01,7.62968e-01,1.09813e-01,-1.33173e-01,-9.60070e-02,2.70374e-01,3.98208e-01,4.30823e-01,8.28576e-02,-2.04644e-01,3.59458e-01,4.74771e-01,2.20364e-01,2.85433e-01,2.64950e-01,-1.99115e-01,
2.41663e-01,-4.65169e-01,3.79926e-01,-3.42800e-01,3.87588e-01,1.29642e-01,-6.10328e-01,2.61346e-01,-2.31706e-01,-8.04502e-02,7.31404e-01,3.57787e-03,1.96378e-01,-1.29788e-01,-1.12061e-01,3.57574e-01,1.22083e+00,-1.65616e-01,-1.66767e-01,3.63444e-01,-1.42194e-01,-3.88714e-01,2.91647e-01,4.13367e-01,-8.80926e-02,
2.30325e-01,
2.10839e-01,
-9.54261e-02,
-1.26139e-01,
1.59462e-01,
7.89372e-02,
5.86436e-02,
1.85592e-01,
9.57630e-02,
1.45331e-01,
-3.09298e-01,
1.88186e-01,
8.49043e-02,
2.41725e-01,
-1.09772e-01,
5.60019e-02,
-4.73320e-02,
1.75342e-01,
1.11022e-01,
-8.07788e-03,
2.95560e-01,
2.58396e-01,
-1.20078e-01,
-2.42289e-02,
-1.33565e-01,
1.65276e-02,-3.87666e-01,-2.36890e-01,-4.57548e-01,-6.70175e-01,1.52972e-01,2.95826e-02,2.83118e-01,-2.79836e-01,-7.98854e-01,-5.69589e-02,-5.64665e-01,4.47838e-01,3.59366e-01,-1.05533e-01,-7.55334e-01,-1.47857e-01,1.82265e-01,3.11679e-01,1.61890e-01,9.21744e-02,1.98991e-01,-4.96044e-01,2.71620e-01,-4.34399e-01,
3.42055e-01,-2.34663e-01,1.81393e-01,-2.70524e-01,-5.89346e-01,-2.49421e-01,-2.40495e-01,4.29237e-02,3.16878e-02,2.97328e-01,1.40151e-01,-1.17063e-01,2.96098e-02,-3.49214e-01,2.76826e-01,4.32103e-01,5.70980e-01,-2.29100e-01,4.61306e-02,-1.73955e-01,3.69576e-01,2.97193e-01,-1.23127e-01,1.70632e-01,-4.53724e-01,
-1.55420e-01,1.35283e-01,-3.86834e-02,-2.11274e-01,-1.02912e-01,2.90243e-01,8.56888e-03,3.18260e-01,-2.24273e-01,-3.07412e-02,1.28854e-01,-5.45685e-01,2.71400e-01,1.13890e-01,-2.01298e-02,-7.96154e-01,3.82260e-01,3.35033e-01,-1.29433e-01,-7.20686e-02,-1.68364e-01,1.99185e-01,-3.11794e-01,-1.78990e-01,-2.31078e+00,
2.53815e-01,-3.39327e-01,-2.05594e-01,7.05033e-01,3.50859e-01,1.16764e-01,5.34475e-02,-2.53246e-01,2.89978e-01,1.99192e-02,-4.64309e-02,6.24251e-01,-5.56548e-02,1.39169e-01,7.94726e-02,-9.23326e-02,-1.09266e-01,-2.21261e-01,2.86103e-01,2.28740e-01,-3.02905e-01,3.19912e-01,-3.52414e-01,3.40753e-01,4.76040e-01,
-1.18096e-01,-2.98748e-01,-6.38329e-02,2.74741e-01,-1.92954e-01,1.83059e-01,-2.99464e-01,2.79753e-02,-2.02379e-01,-3.92886e-01,-4.54013e-02,4.07593e-01,1.80237e-03,6.78667e-02,3.60292e-01,-3.67030e-01,1.52678e-01,-2.51925e-01,2.92791e-01,7.77459e-02,-3.33099e-02,1.80376e-01,6.33837e-01,-3.42003e-01,3.95301e-01,
1.31810e-01,-2.91984e-03,-8.55061e-02,-6.99124e-01,-7.00761e-01,4.72967e-02,2.08652e-01,-2.32925e-01,2.25431e-01,1.95773e-01,2.75322e-01,-3.69693e-01,-1.44868e-01,-2.87029e-01,-9.42403e-01,9.92686e-02,3.38915e-01,3.42654e-01,-3.80764e-03,3.20767e-01,-2.28791e-02,7.74734e-02,-8.06351e-02,-1.49417e-01,-6.53717e-02,
-5.96602e-02,2.13889e-01,-1.12446e+00,-2.11452e-01,-4.32763e-01,-8.45216e-02,1.70428e-01,-1.81301e-01,-4.43370e-01,-2.77925e+00,-1.82149e-02,-1.54485e+00,1.52005e-01,-2.92573e-01,-2.94281e-02,-6.02445e-03,3.74343e-02,3.45301e-01,-1.15171e-01,-1.41095e+00,-2.56086e-01,2.88565e-01,1.69995e-02,1.48088e-02,-2.22985e+00,
1.89858e-01,1.57294e-01,-1.06950e-01,7.01141e-02,2.49576e-01,2.44975e-01,-2.52246e-01,-1.83469e-01,-3.13799e-01,-3.79653e-02,-2.93350e-01,-2.24551e-01,-2.51439e-01,-1.84394e-01,-2.93141e-01,9.04697e-02,3.47805e-03,-3.30556e-01,-1.57159e-01,-4.07296e-03,1.13025e-01,3.20578e-01,-6.07338e-02,-2.73052e-01,7.77207e-02,
2.92048e-01,-1.13411e-01,1.06426e-01,3.55238e-03,-1.24216e-01,1.64838e-02,-1.57201e-02,1.42736e-01,-5.98306e-02,-5.51306e-03,2.64705e-01,-1.81202e-01,2.92290e-01,3.13063e-01,-2.12268e-01,1.06490e-01,2.67395e-01,-1.73598e-01,2.30830e-01,-8.32708e-02,-3.33420e-02,-4.29383e-02,2.00672e-01,-2.55256e-01,-3.55303e-02,
-3.18082e-01,2.18118e-01,9.25162e-03,-1.92023e-01,2.57413e-02,3.00479e-01,2.40667e-01,2.07912e-01,-3.34876e-01,-3.88407e-01,1.38328e-02,3.73358e-01,-8.19567e-02,7.15476e-02,1.68959e-01,2.44479e-01,1.68299e-01,-1.27410e-01,-3.53564e-01,-1.28330e-01,2.57854e-01,1.06457e-01,-1.23282e-02,-2.19949e-01,6.76633e-01,
1.07446e-01,2.22683e-01,5.38719e-01,5.69007e-01,3.27836e-01,2.02776e-02,-6.09509e-01,-4.27035e-01,1.23085e-01,3.90294e-01,1.61445e-01,-6.98283e-01,1.62540e-01,1.22582e-01,1.58729e-01,-2.07000e-01,-2.64941e-01,-6.70147e-01,-7.71727e-01,2.70134e-01,-4.77727e-03,-4.23456e-01,-6.40110e-01,1.05750e-01,-2.32137e-01,
1.37861e-01,2.57946e-01,-3.73152e-01,1.52912e-01,-2.94181e-01,-3.42851e-01,7.18169e-02,-2.37232e-01,-3.07233e-01,1.55608e-01,-8.47462e-03,-6.16033e-01,2.10649e-02,-4.19064e-01,2.81090e-01,3.98924e-01,1.83540e-01,-2.41348e-01,2.05707e-01,-2.57406e-01,-1.39744e-01,-1.36770e-01,2.65438e-01,9.52935e-02,-3.66614e-01,
-1.27098e-01,-1.67149e-01,1.86418e-01,-5.79930e-01,-2.14224e-01,6.90579e-02,-1.08707e-01,-2.48545e-02,2.51851e-02,2.52436e-01,2.06157e-01,-9.85318e-02,1.25129e-01,2.46558e-01,2.19457e-02,5.75311e-01,9.45296e-02,7.51206e-01,1.21556e-01,4.81909e-01,-1.63437e-02,-2.04010e-01,1.98526e-01,-3.50445e-01,2.62585e-01,
-2.31445e-01,-1.91659e-01,4.60847e-01,-5.14289e-02,-1.69458e-01,-3.92428e-01,-7.56569e-02,-9.61916e-02,5.09168e-01,-7.17546e-02,1.94868e-01,2.12281e-02,1.09694e-01,-4.66674e-01,7.73772e-01,-7.81386e-02,1.30252e-01,5.00284e-01,-2.06686e-01,9.40792e-02,1.36410e-01,1.89687e-01,-2.48634e+00,-2.60399e-01,2.56018e-01,
-3.04841e-01,4.05460e-01,2.45595e-01,-1.12669e-01,1.72091e-01,-4.02440e-01,3.23840e-01,4.02686e-01,-1.23471e+00,3.17145e-03,-1.27003e-01,-9.53948e-02,-7.36093e-01,-2.06671e+00,-1.46687e-01,1.34770e-01,1.24295e-01,-2.86663e+00,-2.59160e-01,-4.70744e-01,1.39521e-01,1.01137e-01,1.56361e-01,-7.51433e-02,-3.14048e+00,
3.48423e-01,1.02982e-01,-1.39794e-01,2.10227e-01,-6.18445e-02,-5.02558e-02,2.62719e-01,2.28219e-01,2.26113e-01,-3.44425e-02,2.43073e-01,-6.86458e-02,-5.85170e-02,1.92042e-01,6.48483e-01,-6.55719e-01,-2.56841e-01,-5.67891e-02,2.80296e-01,-1.63723e-01,1.02599e-01,-2.47396e-01,-3.53930e-01,-6.42601e-02,-9.36388e-02,
1.08364e-02,1.96770e-01,-3.42553e-01,4.09837e-02,-4.00734e-01,1.41583e-01,2.81589e-01,3.36135e-02,-4.89761e-01,-2.64191e-01,3.27442e-01,3.34254e-01,-2.11647e-01,-2.85530e-01,3.06421e-01,-1.20129e-01,1.83944e-01,-4.21650e-01,3.60372e-01,3.36329e-02,2.10816e-01,3.26268e-01,2.51270e-01,1.46871e-01,-1.68166e-01,
3.19968e-01,-9.54237e-02,2.81552e-03,2.35028e-01,9.73521e-02,2.81468e-01,2.38343e-01,-1.67272e-01,3.15888e-02,1.83030e-01,-1.85758e-01,-7.84285e-02,-2.31079e-01,1.34443e-01,2.83413e-01,1.38708e-01,2.28786e-01,-5.76187e-03,-1.89636e-01,1.69794e-01,2.48003e-01,2.33222e-01,-1.96219e-01,2.31224e-01,-2.82585e-01,
4.20586e-01,-1.66439e-01,-2.37653e-02,-2.03297e-01,-1.15267e-01,-2.80694e-01,-1.12432e-01,3.02101e-01,-3.52460e-01,1.53764e-01,-2.45916e-01,-3.55020e-01,-2.50693e-02,2.62718e-01,-1.82282e-02,4.19395e-01,9.66221e-02,-7.65472e-01,1.27651e-01,-1.35556e-01,1.35019e-01,1.07037e-01,8.18345e-01,-4.14656e-01,-2.60683e-01,
-2.51271e-01,-1.84407e-01,-3.19590e-01,1.65779e-01,-2.59222e-01,-3.38410e-01,2.52117e-01,-9.30206e-02,-2.66952e-01,-1.80626e-01,3.35298e-01,8.51251e-02,9.84028e-02,-5.68422e-02,2.41067e-01,-1.21542e-01,1.41762e-01,-3.43195e-01,-3.45221e-01,-1.03195e-01,1.47511e-01,1.66750e-01,-7.17560e-02,8.58757e-02,1.69512e-01,
-2.44311e-01,-6.49091e-02,-1.21397e-01,-8.63421e-02,-8.68448e-02,-3.24445e-02,2.32616e-01,2.46170e-02,1.44849e-01,1.57882e-01,-2.39040e-01,-5.77817e-02,1.70461e-01,7.52007e-02,-1.74131e-01,1.46025e-01,3.74638e-02,4.83617e-01,1.99962e-01,2.40081e-01,1.68565e-01,-4.29761e-02,1.29812e-01,2.20423e-01,3.23694e-01,
1.95289e-01,-6.40415e-02,-2.39313e-01,1.59651e-01,-2.06026e-01,9.88672e-02,-3.04829e-01,-1.03228e-01,2.70286e-01,6.05133e-01,-1.11992e-01,-5.53203e-01,8.93273e-02,-1.12702e-01,2.76008e-01,-1.98015e-01,2.83288e-01,-4.27858e-01,8.84790e-02,2.96246e-01,1.78328e-01,-2.81009e-01,3.62216e-02,-3.17239e-01,-1.58614e+00,
3.50243e-01,3.74291e-02,-7.38390e-02,-4.45535e-01,-3.78976e-02,2.81492e-01,-2.83638e-02,2.34817e-01,-1.75100e-01,-6.90095e-02,-1.34991e-01,-1.87763e-01,2.20763e-01,3.07721e-02,4.71562e-01,-3.93712e-02,2.49979e-01,-7.05521e-02,-2.92183e-01,3.34521e-01,-2.55880e-02,-1.50790e-01,1.49137e-01,-3.02738e-01,1.99516e-01,
4.12989e-02,5.97672e-01,1.83992e-01,-1.88861e+00,3.50845e-01,-5.34121e-01,2.07072e-01,1.49198e-01,-2.09349e-01,-3.21204e-01,1.42115e-01,3.12004e-01,5.43239e-02,-2.59706e-01,4.74555e-02,1.12235e-01,6.43336e-02,-8.67526e-01,3.36214e-01,2.59207e-01,-8.47494e-02,2.95284e-02,3.12131e-01,-6.06059e-01,-2.99300e-01,
5.92049e-02,-3.24647e-01,-1.10884e-01,-6.30611e-02,1.74318e-01,-3.16054e-01,-1.96203e-01,-9.53652e-02,-1.73752e-01,3.00825e-02,2.19687e-02,1.46635e-01,-2.34926e-01,3.97367e-02,8.00815e-02,-8.05286e-02,-3.28675e-01,2.78132e-01,-2.96415e-01,1.07116e-01,2.26025e-01,-1.69412e-01,-3.42390e-01,1.44306e-01,1.86083e-01,
-1.72851e-01,
-7.03537e-02,
3.13270e-02,
-2.91042e-01,
7.25675e-02,
1.17428e-01,
1.77689e-01,
-2.87479e-01,
2.97540e-02,
2.03293e-02,
6.75556e-02,
3.16239e-01,
-1.15017e-01,
2.92364e-02,
-1.23629e-01,
2.42861e-02,
3.66624e-02,
1.68427e-01,
1.88938e-01,
-3.04652e-01,
7.92982e-02,
2.66955e-01,
-8.16476e-02,
-2.33081e-01,
-3.02953e-01,
1.18885e-01,-8.74611e-02,7.60415e-02,-1.82800e-01,1.46649e-01,-1.78565e-01,-4.52340e-01,-3.20870e-01,2.26946e-01,1.55219e-01,-8.11362e-02,1.71678e-01,-4.53527e-02,1.56489e-01,-5.34855e-01,6.37964e-02,2.76555e-01,-6.91749e-02,1.94557e-01,2.83131e-02,-1.28281e-01,3.32800e-01,-5.29210e-01,-2.03223e-01,2.61058e-01,
-7.80553e-01,-1.03433e-01,2.54351e-01,-5.69276e-02,2.82689e-01,3.49911e-01,3.58115e-01,-8.35670e-02,3.85596e-01,-3.29599e-02,5.54843e-01,-2.81658e-01,-2.20195e-01,-5.04053e-01,6.78673e-02,-7.54899e-02,2.33209e-02,-1.48696e-01,1.44444e-01,-1.54735e-01,-3.63495e-03,-3.40676e-01,-1.46403e-01,3.13038e-01,1.86404e-01,
-1.01423e-01,-3.72162e-02,-7.91246e-02,1.35333e-02,5.24132e-02,-1.55103e-01,-1.22608e-01,1.92533e-01,-1.88908e-01,5.96348e-02,8.66914e-03,-1.35905e-01,9.64395e-02,2.11218e-01,-4.97673e-03,-1.91811e-01,-1.68421e-01,1.81563e-01,2.05210e-01,2.82812e-01,8.13093e-02,1.42338e-01,-4.43891e-01,4.54894e-01,3.77859e-02,
-2.99450e-01,6.11600e-01,-2.09926e-01,8.74189e-02,7.70930e-02,5.49435e-02,7.12093e-02,-5.34006e-02,1.53870e-01,-9.08255e-02,7.26794e-01,-3.55098e-01,-4.76624e-03,-4.93102e-01,4.29853e-01,6.77370e-02,-2.47529e-01,1.15570e-01,-2.06663e-01,-3.04973e-01,-3.06080e-02,-3.08485e-01,3.49280e-02,-2.94006e-01,1.02429e-01,
-1.40362e-01,1.71820e-01,1.68083e-01,-3.24017e-01,-2.21537e-01,1.38173e-02,-1.01383e-01,-1.04296e-01,-4.08168e-01,-2.99413e-02,2.06171e-01,-1.27502e-03,2.47565e-02,-3.32194e-02,2.87197e-01,-2.68672e-01,-2.46006e-01,-1.17628e-01,-4.54965e-02,-7.64261e-02,-6.82699e-02,5.60697e-02,2.40575e-01,-1.59298e-01,1.10595e-01,
-2.88930e-01,1.93445e-01,-3.52518e-01,-3.67710e-01,-1.74946e-01,-2.51650e-01,2.53772e-01,-2.20932e-01,2.59375e-01,-2.43560e-01,-1.67744e-01,1.46370e-01,-3.34510e-01,5.89299e-02,-1.97670e-01,-2.94124e-01,-4.15501e-01,3.18673e-02,-3.09569e-01,-2.88779e-01,-3.32842e-01,-1.82086e-01,1.88785e-01,8.06921e-02,4.76138e-02,
2.95520e-01,-7.83075e-01,4.06922e-02,-6.85633e-01,-1.55112e-01,-6.58173e-01,-8.37134e-01,-1.48625e-01,2.88452e-01,-3.00676e-01,-1.22054e+00,7.01989e-01,2.14169e-02,-2.43605e-01,8.73000e-02,2.24554e-01,-3.95740e-02,1.03822e-01,4.44447e-01,-1.55825e-01,7.56252e-02,3.55436e-01,-4.56612e-01,6.66377e-01,3.27364e-01,
1.39357e-01,3.37656e-01,2.53609e-01,1.41174e-01,1.39623e-01,1.61083e-01,-2.60241e-01,6.62100e-02,-2.99639e-01,-2.81245e-01,1.95611e-01,-2.49097e-01,-5.69900e-02,9.00829e-02,-8.28128e-02,1.96688e-02,2.15217e-02,-2.11961e-01,-9.20250e-02,2.47449e-01,-2.15982e-01,-2.04586e-01,-2.01844e-01,3.32955e-01,-1.89407e-01,
5.49725e-01,-3.85087e-01,-1.23536e-01,4.30387e-02,2.26418e-01,-2.90763e-01,3.76725e-01,5.32050e-02,1.29164e-01,1.16520e-01,-1.02428e-01,7.82900e-02,1.43334e-01,4.93167e-02,3.16333e-01,-7.20318e-03,3.73121e-01,2.56738e-01,8.97349e-02,2.84175e-01,4.89809e-02,2.72976e-01,-1.47941e-01,4.27676e-02,8.51542e-03,
3.98006e-01,-4.80457e-01,-3.66639e-02,2.91189e-02,-5.38035e-02,-2.63140e-01,-2.40255e-03,9.57801e-02,2.35138e-02,-2.98781e-02,-7.89251e-01,3.36548e-01,3.62962e-01,-2.01218e-02,-7.57354e-01,3.34145e-01,2.40810e-01,3.51766e-01,1.82579e-01,-6.32221e-02,4.02784e-02,-1.96603e-01,3.61311e-01,1.75298e-02,-2.34092e-01,
1.26421e-02,-1.71371e-01,-3.01801e-01,-2.77577e-01,2.11691e-01,2.54541e-01,1.98335e-01,-7.65331e-02,-1.47680e-02,-7.61638e-02,-8.38570e-02,-2.69093e-01,-1.33623e-01,-1.26269e-01,1.08378e-01,-2.51155e-01,-3.23449e-01,-6.12632e-02,2.64498e-01,1.73547e-01,8.27909e-02,2.50168e-01,-3.02960e-01,-1.13948e-01,-3.24740e-01,
-7.29855e-02,1.91889e-01,3.13795e-01,1.84593e-01,-2.38935e-01,3.06164e-01,5.42307e-01,-2.01425e-01,-1.86144e-01,1.08872e-01,5.51872e-02,2.77247e-02,1.91475e-01,-3.89180e-02,1.23967e-01,1.96329e-01,1.15754e-01,1.64221e-01,-2.75630e-01,-2.20935e-01,2.49273e-01,-1.80837e-01,3.46326e-01,-2.70160e-01,-2.83999e-01,
7.14626e-01,-2.39301e-02,1.79349e-01,5.75094e-02,-1.76512e-01,-1.57011e-01,-8.54719e-01,-1.65506e-02,7.39834e-02,4.99351e-02,-1.82037e-01,1.09637e-01,3.00367e-01,-3.74141e-01,2.14575e-01,2.88644e-01,2.61339e-01,-4.57943e-02,-2.30801e-01,2.57917e-01,-3.28054e-01,1.39103e-01,4.22137e-01,-1.12213e-01,3.37941e-01,
2.35818e-01,4.48048e-03,1.15695e-01,-1.77685e-01,1.40886e-01,-7.41766e-02,6.67737e-01,-2.06120e-01,-2.68523e-01,1.99518e-01,2.58086e-01,1.28715e-01,1.26849e-01,6.41264e-02,3.37181e-01,2.58044e-01,4.26335e-01,6.85486e-02,2.16568e-01,-3.01025e-01,-1.29829e-01,1.14241e-01,1.04254e-01,-2.10767e-01,-5.22082e-02,
-4.59138e-03,-2.70324e-01,-3.02741e-01,-2.32523e-01,2.10962e-01,-1.43374e-01,2.75775e-01,1.90379e-01,-3.23960e-01,3.20018e-01,4.76793e-02,9.74879e-02,-8.09467e-02,1.23148e-01,-2.56395e-01,1.06867e-01,-3.68760e-01,-3.43252e-01,9.98498e-02,-1.09968e-01,-1.32298e-01,1.53861e-01,1.51008e-01,-2.16078e-01,1.44661e-01,
8.79116e-02,-6.45621e-02,-2.36523e-01,3.44540e-02,2.77376e-01,-8.88648e-02,-2.54904e-01,-1.91830e-01,-1.48054e-01,6.11450e-02,-8.24060e-02,-2.41080e-02,4.80057e-01,-3.72840e-01,-3.15518e-01,-2.35013e-01,7.50343e-02,6.76377e-02,-2.23160e-01,4.69045e-02,-2.12249e-01,1.26549e-01,1.11404e-01,-2.73432e-01,1.91710e-01,
-6.49355e-02,2.67496e-01,1.44478e-01,-2.62568e-02,-4.64412e-02,1.60722e-01,-3.73496e-01,-5.12402e-02,1.37508e-01,4.02262e-02,-4.49225e-02,-2.25135e-01,-1.64592e-01,5.20488e-02,-1.24060e-01,2.38784e-03,-3.15748e-01,1.79757e-01,-5.17390e-02,1.39171e-01,2.23268e-01,-1.31613e-01,1.74290e-02,9.64044e-02,-2.26640e-01,
-3.02908e-02,-9.12726e-03,1.66973e-02,-2.48175e-01,-2.79494e-01,-3.15696e-01,-4.74073e-02,-2.36383e-01,-1.66488e-01,-3.14425e-01,1.54049e-01,2.47108e-01,1.83645e-01,7.92456e-02,4.47790e-02,-1.64290e-01,-8.49751e-03,-2.96704e-01,-1.80464e-01,-1.18269e-01,2.28503e-01,4.00131e-02,-2.18209e-01,-1.92708e-01,2.55065e-01,
7.24682e-02,-1.26282e-01,-3.12383e-01,1.15309e-01,-2.10966e-01,1.84054e-01,-7.98934e-02,1.09683e-01,4.62258e-02,2.54351e-02,-2.57324e-02,4.15983e-02,-1.18456e-01,-2.05349e-01,-3.03105e-01,-2.97477e-01,-1.15967e-01,-2.68518e-01,3.36278e-01,2.55150e-01,-9.24051e-02,1.70186e-01,-3.28779e-01,-1.96193e-01,2.49434e-01,
2.37924e-01,-6.40275e-01,-4.30271e-02,-1.32660e-01,-1.10975e-02,-2.83212e-01,5.11709e-02,7.68351e-02,2.21630e-01,2.68661e-01,-4.37046e-01,3.90802e-01,-1.48629e-02,4.62408e-02,-9.27263e-02,1.04540e-01,2.98982e-01,3.47812e-01,1.38584e-01,2.48820e-01,2.00997e-01,1.12577e-01,-9.52202e-02,4.47566e-02,3.14214e-01,
-1.13454e-01,2.63639e-01,1.23774e-02,-2.17858e-01,4.67005e-01,-1.38489e-01,5.19428e-01,-1.82634e-01,7.46356e-02,-2.69049e-02,2.01158e-01,1.51836e-01,-9.82355e-02,-2.13971e-01,2.00245e-02,-6.59533e-02,2.26781e-01,1.07235e-01,-4.25163e-02,-1.25974e-01,1.11506e-01,1.26273e-01,1.35359e-01,2.70723e-01,2.88618e-01,
1.54037e-01,1.23680e-01,-6.23048e-02,5.89320e-02,7.04179e-02,-2.92467e-01,-1.38472e-01,3.38551e-01,2.59770e-01,-9.72671e-02,5.04189e-02,-2.80083e-01,9.41682e-02,-3.32833e-01,3.07637e-01,-3.13386e-01,2.47289e-01,-1.73694e-01,-1.97646e-01,-1.92135e-01,-1.50765e-01,2.25180e-01,-2.89730e-01,-2.05197e-01,-3.45532e-01,
1.41933e-01,-6.47939e-02,1.32440e-01,-4.91780e-02,-2.05117e-01,-1.95503e-01,8.05405e-02,3.37693e-01,8.83026e-02,2.92767e-01,-1.07836e-01,1.71294e-01,3.40753e-01,-3.40740e-01,-2.17135e-02,2.57701e-01,2.52019e-01,7.03988e-02,-1.68426e-01,4.36008e-04,2.20440e-01,-2.82304e-01,4.91853e-01,6.97671e-02,-1.51806e-01,
3.25505e-01,-8.08459e-01,-3.08471e-01,-5.23900e-01,-1.00533e-01,-1.10254e+00,2.96109e-01,1.83227e-01,3.68327e-01,1.33534e-01,-5.90355e-01,3.57183e-01,-4.07772e-01,1.84556e-01,-1.54605e-01,6.96395e-02,1.96929e-01,-8.77884e-02,4.22104e-01,-1.47521e-01,-9.64249e-02,-1.66489e-01,-2.92197e-01,5.84774e-02,2.84314e-01,
3.05466e-01,-9.79135e-01,6.71824e-02,1.73544e-02,1.07368e-02,5.73895e-02,-1.15879e+00,-8.01902e-02,3.19743e-01,5.44208e-02,-8.42335e-02,-1.70963e-01,1.00879e-01,1.11977e-02,-1.59118e-01,3.44396e-01,-2.65608e-01,1.25005e-01,2.00569e-01,1.50892e-01,-2.08485e-01,4.56544e-01,3.71399e-02,-1.70793e-01,-1.89275e-01,
7.35730e-02,
2.72449e-03,
1.99276e-02,
2.50158e-01,
5.73367e-02,
2.24114e-02,
-2.13026e-01,
-1.29218e-01,
-2.00665e-01,
-2.15410e-01,
-8.86558e-02,
-6.59009e-02,
-1.61050e-02,
-1.70654e-01,
1.11507e-01,
1.42816e-01,
2.73587e-01,
-1.83989e-01,
-3.28309e-01,
4.08338e-01,
-1.29639e-01,
-4.69777e-02,
-1.07382e-01,
-5.31007e-03,
-1.56327e-01,
-2.57789e-01,3.82116e-02,2.21722e-01,-2.97442e-02,-6.42211e-02,-1.80071e-01,1.14424e-01,3.02264e-01,1.40301e-01,1.06229e-01,-2.17184e-01,-9.89395e-03,3.10678e-01,8.27988e-02,4.94538e-02,-3.29152e-01,-2.64154e-01,2.70860e-01,1.74472e-02,-2.89647e-01,-2.11347e-01,-3.14600e-01,1.68158e-01,-4.96512e-02,-1.43179e-01,
-2.69847e-02,2.22998e-02,1.26065e-01,1.32656e-01,-1.52584e-01,1.56579e-01,-2.78263e-01,4.64375e-02,-7.09497e-03,-9.39521e-02,2.65941e-01,7.27402e-02,7.28165e-02,3.57161e-01,-3.13247e-01,8.36847e-03,2.24358e-01,1.17429e-01,3.34576e-01,3.20602e-01,-1.30205e-01,-4.56298e-02,-2.91468e-01,-1.16037e-01,-1.00261e-02,
2.83818e-01,-1.36565e-01,-2.74437e-01,-1.89216e-01,-5.94484e-02,2.45561e-01,1.02925e-02,-3.15588e-01,-1.96124e-01,-2.58062e-01,1.17611e-01,-2.30528e-01,-2.00248e-01,4.56407e-02,-7.00317e-02,-1.25847e-01,-2.57036e-01,8.22572e-02,2.54595e-01,-2.72158e-01,-2.00915e-01,1.84094e-01,1.72264e-01,-8.77554e-02,2.32747e-01,
1.37870e-01,-2.27107e-01,-1.79347e-01,2.49967e-01,-1.63763e-01,-2.22054e-01,-8.19058e-01,6.08293e-02,2.19552e-01,-2.49804e-01,-9.90499e-02,-8.07470e-03,-2.91904e-01,1.65521e-01,2.76450e-01,1.92995e-02,-7.92398e-02,1.47559e-01,-2.03403e-01,-4.77047e-02,6.32828e-02,-4.36522e-02,3.09176e-01,6.56450e-01,-1.91733e-01,
-3.19368e-01,-2.19655e-01,4.61890e-02,7.68578e-02,3.36954e-01,7.23923e-02,2.05909e-01,2.28541e-01,-2.73764e-01,-4.02916e-02,4.34705e-02,1.54398e-01,-1.67966e-01,1.35467e-01,-3.14208e-01,-1.82476e-01,-1.02454e-01,-7.65172e-02,-1.05473e-01,-2.28691e-01,3.08025e-01,9.04604e-02,1.92330e-02,4.50408e-03,-2.10112e-01,
-1.95418e-03,-1.39574e-01,-1.22421e-01,4.99358e-02,-2.94615e-01,2.70174e-01,9.13195e-02,-1.62227e-01,-1.23354e-01,3.22466e-01,2.80329e-01,-2.74400e-01,1.80170e-01,-2.04018e-01,1.56297e-01,-2.66895e-01,5.24904e-02,2.00467e-01,2.78739e-01,-1.82262e-01,3.60282e-02,-3.82338e-02,-3.14771e-01,4.44723e-02,1.09766e-02,
-9.99148e-02,8.91174e-02,1.12406e-01,-2.49036e-01,-2.66021e-01,-2.27576e-01,-1.33534e-02,-9.63461e-03,-8.25880e-02,-1.85861e-01,2.95873e-01,-1.55209e-01,6.54230e-02,1.53201e-01,2.63949e-01,-2.29995e-01,-1.50143e-01,2.51802e-01,-2.15290e-01,-1.83277e-01,1.31734e-01,-2.33878e-01,-2.10908e-01,5.70214e-03,3.43959e-01,
2.06146e-01,2.01808e-01,1.68937e-01,-1.27311e-02,-2.31670e-02,-3.31177e-02,5.15337e-01,-3.24746e-01,-2.85067e-01,-9.13539e-02,-2.91198e-01,3.12783e-01,2.39669e-01,1.48377e-02,1.26692e-01,2.04580e-01,4.21353e-01,-1.88710e-01,5.22884e-02,2.51869e-01,2.30639e-01,-6.08086e-02,-5.84342e-02,-1.16717e-01,-2.20098e-01,
2.51118e-01,1.11788e-01,-5.33374e-02,6.55869e-02,7.20664e-03,3.06584e-01,-8.07479e-02,-1.30524e-01,2.30174e-01,-8.20588e-02,4.69640e-02,-1.34692e-01,-5.95334e-03,-4.37967e-02,-7.14999e-02,4.30112e-02,2.55639e-01,4.13534e-02,3.26475e-01,3.43797e-01,-2.70668e-01,5.59965e-02,1.77366e-01,1.21379e-01,1.17297e-01,
-2.65553e-02,-4.88032e-01,4.18784e-01,-4.28671e-02,-1.78110e-01,-2.19787e-01,3.53547e-02,9.78023e-02,1.21971e-01,-4.01754e-02,2.41409e-01,4.06416e-01,-2.62857e-01,1.43437e-01,-1.02086e+00,3.87201e-01,-1.92964e-01,-2.07834e-01,-3.32474e-01,-9.71042e-02,-3.70750e-02,-8.96317e-02,4.81031e-01,-9.52983e-01,-2.23800e-01,
-1.28338e-01,1.84474e-01,2.16576e-01,-3.00971e-01,1.39769e-01,-1.83367e-01,-1.73982e-01,2.15955e-01,-1.41903e-01,-3.14827e-01,-2.03744e-01,1.66773e-01,1.11697e-02,-6.22792e-02,-2.46555e-01,3.38126e-01,-2.24999e-02,-3.04932e-01,1.35616e-01,-2.12508e-01,2.54514e-01,1.88393e-01,-1.49941e-01,4.16654e-02,1.50596e-01,
-1.98408e-01,-9.67246e-03,2.47233e-01,4.21815e-03,-1.74925e-03,-1.62952e-01,8.29085e-02,-2.53502e-01,7.99931e-02,5.47081e-02,2.24944e-01,1.35895e-01,-2.31185e-01,2.75732e-01,-2.48570e-02,2.22016e-01,3.61525e-01,2.69195e-01,-3.46407e-01,1.08926e-01,-3.11417e-01,-3.52292e-01,-1.17657e-01,-4.10052e-01,1.33086e-01,
1.59073e-01,1.05813e-01,-6.88914e-01,3.70860e-02,2.38708e-01,6.78006e-02,-3.37809e-01,1.00760e-01,1.66882e-01,2.33275e-01,6.13425e-02,-5.19673e-03,-5.91600e-01,7.03011e-03,-4.69964e-01,2.58476e-01,-2.68419e-01,-3.13916e-01,7.83503e-03,-5.67507e-02,3.51440e-01,-1.25530e-01,1.96587e-01,6.84085e-01,-6.05921e-01,
-4.87233e-04,2.15931e-01,-2.65184e-02,-2.34520e-01,-1.15998e-01,2.16039e-01,-2.96513e-02,2.89159e-01,1.77990e-01,5.08074e-02,1.56329e-01,2.97242e-01,2.88114e-02,2.59974e-01,1.17165e-01,1.14631e-01,2.24660e-01,-2.55804e-01,9.30132e-02,-7.67147e-02,9.52490e-02,1.23104e-01,1.11982e-01,-3.52616e-01,-1.01427e-02,
-2.62988e-01,2.67414e-01,9.91528e-02,-6.02514e-02,8.94571e-02,-3.21678e-01,-1.17007e+00,-1.42626e-02,6.41408e-03,3.30792e-02,-2.14877e-01,3.74906e-01,9.65949e-02,-4.11009e-01,3.58119e-01,-1.69951e-01,-4.71195e-02,-1.46430e-01,3.35195e-01,3.16813e-01,2.21663e-01,1.92887e-01,-3.25644e-01,6.97249e-01,3.17927e-01,
-2.00459e-01,1.79905e-01,2.31145e-01,8.34795e-02,-2.00434e-01,2.18420e-01,-2.50065e-01,2.63232e-01,-2.25474e-01,-8.26326e-02,-3.33255e-01,2.16738e-01,-1.78478e-01,6.79481e-02,9.41523e-02,-2.15771e-01,2.68779e-01,2.78267e-01,-2.91287e-01,-2.54913e-01,6.60020e-03,1.66201e-01,-3.33124e-01,-1.76230e-01,-6.12768e-02,
-2.00652e-01,3.95785e-01,-9.10900e-02,-5.75395e-01,-3.90081e-02,2.73688e-01,5.01799e-01,4.23533e-03,-4.05322e-01,2.42688e-01,-1.87504e-01,-3.90421e-01,1.17573e-01,1.77287e-01,-7.14664e-02,-2.62334e-01,-7.55356e-02,-2.62040e-01,2.69007e-01,-4.60966e-02,-2.22716e-01,1.84025e-01,-4.47748e-01,4.60518e-02,-2.78651e-01,
2.19200e-01,-1.86521e-01,1.44155e-01,2.32583e-01,-3.16573e-01,2.51473e-01,-5.56756e-01,-1.85925e-01,-1.90192e-01,-3.00545e-01,-2.50506e-01,-2.80610e-01,-4.01679e-02,-2.16411e-01,1.83150e-01,-1.72189e-02,2.09070e-01,-7.75506e-02,1.37046e-01,2.66967e-01,1.40078e-01,1.91551e-01,1.90693e-01,-3.73305e-01,-1.81986e-01,
-2.67720e-02,1.28147e-01,8.77685e-03,2.60141e-02,1.13788e-01,-2.56009e-01,-3.30451e-01,-5.17605e-02,-3.03008e-01,-3.28328e-02,2.10097e-01,-1.26824e-01,1.14510e-01,-7.43111e-02,1.71142e-01,-3.47363e-02,2.09341e-01,2.37542e-01,1.70392e-01,-2.79664e-01,-2.68723e-01,-2.98151e-01,-3.95997e-01,3.01247e-01,-1.46171e-01,
3.23617e-01,-1.53048e-01,1.07883e-01,-1.16197e-01,9.63004e-02,1.85344e-01,4.20164e-01,-1.81050e-01,3.82128e-01,3.42210e-01,-1.09084e-01,-3.30049e-01,8.44367e-02,5.43620e-02,-3.39399e-01,1.01730e-01,-1.66579e-01,-2.64934e-01,-2.04165e-01,2.51275e-01,-2.27066e-01,3.41387e-01,-8.92855e-02,3.92332e-01,-9.69987e-01,
2.38863e-01,-1.94972e-01,-1.48909e-03,2.56669e-01,2.84482e-01,3.05300e-01,-2.79171e-01,-2.22762e-01,-1.60785e-01,8.54718e-02,-2.06432e-02,-3.75907e-02,2.66850e-01,-1.76394e-01,-4.40794e-02,2.72122e-01,7.94301e-02,3.18992e-01,1.05446e-01,-3.65697e-01,2.71073e-02,2.52354e-01,-2.05615e-01,2.71917e-01,-1.01374e-01,
-4.29581e-02,-1.56332e-01,-1.98686e-01,-4.24045e-02,-5.51210e-02,1.36455e-01,6.88470e-01,2.89803e-01,4.08448e-02,2.25794e-01,-7.27143e-02,1.99315e-01,8.78719e-02,8.54283e-02,-4.00748e-02,-3.13563e-02,-9.84142e-02,2.50384e-01,3.31322e-02,3.46067e-01,1.39434e-02,-1.31017e-02,-1.73268e-01,-1.25186e-01,1.45530e-01,
-2.54680e-01,1.02411e-01,1.03881e-01,-2.44519e-01,-2.17616e-01,-1.20807e-01,5.50724e-01,-2.80997e-01,2.60469e-01,1.28210e-01,1.96554e-02,-2.49683e-01,1.40385e-01,1.07410e-01,2.77884e-02,-2.30888e-01,-5.99883e-02,-5.66901e-02,-3.02788e-01,1.74167e-01,1.39809e-01,1.46698e-01,2.90211e-01,6.17636e-01,-2.00229e-02,
-2.26011e-01,1.73281e-01,-2.14526e-01,-5.48249e-02,-1.18196e-01,-1.54018e-02,-1.60747e-01,2.70925e-01,-1.03733e-01,2.08002e-01,9.43683e-02,2.01689e-01,1.22694e-01,-1.06152e-01,1.62697e-01,-8.46094e-02,2.02233e-01,-1.28480e-01,1.83751e-01,-6.13045e-02,-5.75607e-02,-2.48944e-01,-4.55015e-02,2.36001e-01,-1.55036e-01,
-1.74445e-01,-1.62464e-01,5.49710e-02,-2.82227e-01,-3.61046e-01,2.52792e-01,1.70987e+00,3.42478e-01,-9.68211e-02,3.42403e-01,-3.24668e-01,-3.89112e-02,8.46176e-02,-3.46880e-02,2.49402e-01,1.21210e-01,2.34125e-01,-2.24132e-01,-1.98110e-01,4.01248e-02,2.87668e-03,1.56416e-02,7.70468e-02,-1.13818e+00,1.21470e-01,
-2.99807e-01,
-1.32062e-01,
-1.67445e-01,
2.31062e-01,
-2.03660e-01,
8.44088e-03,
1.61534e-01,
6.86742e-03,
-1.61982e-01,
-1.50391e-02,
1.09806e-03,
1.20573e-01,
2.47836e-02,
-2.64983e-02,
6.58464e-02,
-1.25845e-01,
1.83179e-01,
3.67187e-01,
1.10551e-01,
-2.24704e-01,
-2.40762e-01,
3.59745e-02,
1.64615e-01,
-2.03793e-01,
-6.93745e-02,
-3.39648e-01,-2.66174e-01,-4.33056e-02,2.35286e-01,7.84224e-02,9.78831e-02,3.31543e-01,-3.08581e-01,-2.43759e-01,-1.83152e-01,-4.42588e-01,3.39576e-01,-1.73068e-01,3.16569e-01,-5.05454e-02,1.15548e-01,4.38029e-01,1.86909e-01,2.51511e-01,-5.62937e-01,-1.02782e-01,2.63525e-01,-1.04156e-01,-2.49671e-01,1.81181e-02,
-1.37512e-02,1.92910e-01,-2.12826e-01,-3.78523e-02,1.23008e-01,-1.20819e-01,-3.38243e-01,-1.60762e-01,7.31131e-02,-1.09564e-02,4.27417e-01,-1.07574e-01,-7.47270e-03,2.11781e-01,7.21275e-02,1.77619e-01,4.43257e-01,7.70895e-02,2.07644e-01,-5.30182e-01,7.78511e-02,-1.83358e-01,-1.38110e-01,-1.20041e-01,1.99887e-01,
-1.92640e-01,2.00318e-01,-1.90374e-01,-3.68070e-01,-2.00867e-01,9.02943e-02,-9.55828e-02,-4.80225e-01,-2.32827e-02,2.13814e-01,-3.28906e-01,-4.68314e-01,-1.70401e-02,3.66758e-01,-4.58561e-02,1.92781e-01,1.05157e+00,3.99381e-02,1.70699e-01,-4.20875e-01,2.40041e-01,-4.07326e-01,-2.13874e-01,9.33315e-02,1.48560e-01,
-2.85827e-01,4.04394e-01,2.40419e-01,3.33400e-01,-1.97860e-01,-3.78762e-01,4.32906e-02,-8.24162e-02,3.41259e-01,-2.41138e-01,9.63580e-02,6.84765e-02,2.94753e-01,2.63574e-01,3.97296e-01,2.64282e-01,1.95176e-01,3.86690e-01,3.50008e-01,-3.02279e-01,4.40087e-02,-1.38083e-01,-1.85625e-01,-2.76379e-01,6.62967e-01,
3.91209e-01,2.20555e-01,-3.32464e-01,-2.40025e-01,-9.18777e-02,-1.48880e-01,-9.90398e-05,4.11976e-01,2.59622e-01,-1.74262e-01,-3.00755e-01,2.21291e-01,-3.54544e-01,1.86962e-01,-9.26249e-02,2.26686e-01,1.43935e-01,2.81862e-01,1.53265e-01,-3.28449e-01,2.13826e-01,1.90495e-01,4.54463e-02,-1.29222e-01,-1.59009e-01,
-7.87562e-02,
5.56774e-02,
5.63671e-01,
-5.59222e-01,
-5.53037e-01,
