// Neural Network File Format by Kyle Julian, Stanford 2016
6,3,5,25,
3,25,25,25,25,25,5,
0,
-56000.000000,-56000.000000,-3.141593
56000.000000,56000.000000,3.141593
-278.628049,0.000000,0.000000,-0.242819
112000.000000,112000.000000,6.283185,17.479225
7.13895e-01,-1.42501e+00,-1.02438e-01,
1.42342e+00,1.19925e+00,3.06314e-01,
-1.45502e-01,3.50985e-01,1.74686e-01,
3.92498e-01,1.90991e-01,3.37540e-02,
-1.69312e-01,2.56638e-01,2.49675e-02,
-1.24712e+00,1.83488e+00,3.37049e-01,
1.27944e-01,1.64001e-01,2.24064e-01,
3.17971e-02,-1.66367e-02,-8.32003e-02,
1.56604e-01,1.83917e-01,-2.39584e-02,
-5.33676e-03,2.58995e-01,-5.34353e-02,
5.10263e-01,-5.92940e-01,-3.50581e-01,
-7.26442e-02,-1.08929e+00,5.01050e-01,
-3.05117e+00,-1.86230e+00,-6.63396e-01,
-1.09213e+00,1.97333e+00,-5.49881e-02,
1.28152e+00,6.47025e-03,-1.98182e-01,
-3.78107e-01,-1.07711e-01,-1.35019e-01,
-2.12877e-01,-3.70438e-01,-3.76976e-01,
6.09404e-01,1.59919e+00,5.45871e-01,
8.82167e-01,-2.16791e+00,-6.76667e-01,
-5.64652e-01,-2.18795e+00,5.00545e-02,
-2.22388e+00,1.86609e+00,2.41757e-01,
8.20264e-01,1.96798e+00,-2.86274e-01,
-2.58585e-01,6.84849e-01,-7.80044e-01,
6.56912e-01,1.47207e+00,5.13997e-01,
-6.17367e-01,-1.72662e+00,-2.99347e-01,
-1.47147e-01,
3.21216e-02,
-2.76670e-01,
-3.33468e-01,
-1.65731e-01,
-2.63821e-02,
-2.24723e-01,
-3.17647e-01,
-1.54294e-01,
-2.16139e-01,
-8.88941e-02,
1.77788e-01,
1.41424e-01,
2.98134e-02,
1.98672e-03,
-3.17825e-01,
-4.08252e-01,
4.79687e-03,
-1.74814e-04,
1.20914e-02,
6.22473e-02,
1.81170e-01,
3.97152e-02,
-5.48838e-02,
-7.66336e-02,
-2.65197e-01,-6.24606e-02,-3.44166e-01,1.77913e-01,4.47176e-02,-1.45544e-01,-3.26025e-03,1.51229e-01,-2.29954e-01,2.27520e-01,2.78466e-01,-8.37954e-02,-8.00508e-02,2.23827e-01,-1.90545e-01,2.07967e-01,1.64731e-02,-2.67693e-01,-9.06717e-02,-1.80505e-01,-5.16517e-02,-3.08552e-01,-1.28882e-01,2.41964e-01,1.08674e-02,
-1.20696e+00,1.08394e-01,-9.29407e-02,5.81299e-02,-1.31299e-01,2.34188e-01,-8.87379e-02,-2.75138e-01,-1.66519e-01,2.43467e-01,-6.03600e-01,2.47815e-01,5.55928e-01,-1.31695e-01,-8.99961e-02,2.04306e-01,-1.74123e-01,2.75445e-01,-4.37043e-01,-1.64649e-01,4.29187e-01,-9.94566e-02,4.93431e-01,2.18861e-01,1.36132e-01,
-1.86470e-01,-6.11092e-02,1.34777e-01,-2.72794e-01,7.77791e-02,8.16827e-03,-1.65276e-01,-2.92603e-02,2.70213e-02,3.08473e-01,-7.02613e-02,-3.60500e-01,1.84308e-02,-2.45888e-01,-1.61832e-01,-2.92684e-01,3.21017e-01,4.29309e-01,2.23680e-01,2.91088e-01,-4.15961e-03,1.63609e-01,-3.07769e-01,-3.50052e-01,-9.76285e-03,
9.61500e-02,-3.64875e-02,-2.85537e-01,2.40561e-01,-1.87542e-01,2.40374e-01,1.29708e-02,7.34709e-02,2.99920e-01,-3.10816e-01,1.52407e-01,1.04798e-03,-1.95138e-01,-3.42860e-01,1.79439e-01,3.45372e-01,1.79269e-01,-2.75076e-01,-1.42121e-01,-1.41456e-02,-9.11696e-02,2.39603e-01,-6.39303e-01,1.55768e-02,-1.71493e-01,
3.00553e-02,-1.83304e-02,2.32202e-02,-1.85135e-01,1.12546e-01,1.85711e-01,-2.42463e-01,-9.76365e-02,-1.60169e-01,3.27452e-01,-1.11365e-01,2.03655e-01,6.37051e-02,-4.24794e-02,-8.59762e-02,-2.74866e-01,-8.85263e-03,2.81916e-01,-3.45070e-02,-6.83012e-01,8.53231e-02,1.26552e-01,-7.20112e-02,-5.51709e-01,-5.07550e-01,
-5.38145e-01,1.77574e-01,-1.18472e-01,1.79018e-01,-1.47455e-01,5.94621e-01,-2.63443e-02,-2.61590e-01,4.35059e-02,8.66631e-02,8.60382e-01,2.12136e-01,-1.47827e-01,2.75104e-01,-1.84005e-01,4.10384e-03,2.27558e-01,-3.39971e-01,-3.78138e-01,-1.78791e-01,-2.75611e-01,1.99588e-01,-3.27706e-01,1.87518e-01,6.08192e-01,
-2.60146e-02,-9.92048e-01,4.27149e-02,-3.28544e-01,2.14184e-01,-9.55366e-01,3.15649e-01,2.59127e-01,-9.02468e-02,-4.27373e-02,6.00385e-01,9.49525e-02,3.47365e-01,7.06877e-01,-1.56479e-02,-3.05100e-02,2.20191e-01,8.45324e-01,-4.16249e-01,9.01622e-01,5.55104e-01,-1.20236e-02,2.10500e-01,3.46468e-01,-6.98155e-01,
9.99503e-02,-2.60751e-01,1.95339e-01,1.73289e-01,-2.10425e-01,-5.24189e-01,-1.29783e-01,3.32647e-01,2.67313e-01,-3.11172e-01,3.10051e-01,2.12052e-01,2.62781e-01,2.67962e-02,3.05440e-01,-3.10547e-01,-2.31896e-01,-1.29793e-02,-1.43034e-01,-1.59670e-01,2.26549e-01,-2.35740e-01,-1.46854e-01,-6.62797e-02,-3.35906e-01,
-1.09492e-01,4.28654e-01,3.39522e-01,-2.08618e-01,3.32131e-01,-8.07036e-01,-1.29633e-01,3.00412e-01,-2.49725e-01,2.14793e-01,-6.66030e-02,3.89955e-01,-5.23998e-01,3.20315e-01,-6.30760e-01,-6.05445e-02,-2.84546e-01,-6.52984e-03,2.57299e-01,-9.39557e-01,-4.67271e-01,1.11067e-03,-5.77977e-03,-6.15439e-02,-1.02815e-02,
1.38145e-02,9.82011e-02,1.25409e-01,-2.29401e-01,8.27094e-02,-6.12021e-01,2.49802e-01,-2.37774e-01,-3.21076e-01,-2.66163e-01,6.24165e-01,-1.94703e-01,-1.48816e+00,2.22792e-01,3.78205e-02,-3.28244e-01,1.50706e-01,5.08317e-02,-2.42911e-01,2.31819e-01,-8.30388e-01,2.34875e-01,1.93956e-01,-3.38330e-02,-1.25621e+00,
-5.87495e-01,3.10608e-01,2.90817e-01,-2.52474e-01,9.75669e-02,-3.96111e-02,-2.57757e-02,-2.51280e-02,2.80180e-02,-7.40617e-02,-5.03962e-01,-3.70077e-01,-5.39465e-01,-4.70347e-02,3.33374e-01,2.89775e-01,1.04761e-01,-2.23186e-02,5.18382e-01,3.60388e-01,-5.28581e-01,-1.63770e-01,-1.60648e-01,-1.79133e-02,-3.19980e-01,
1.03832e-01,2.71819e-01,1.42955e-01,-2.44734e-01,1.40556e-01,3.87970e-01,9.70251e-02,-1.94492e-01,-6.42990e-02,-1.35708e-01,-3.62260e-04,1.45311e-01,3.43923e-01,-8.57598e-03,-1.06993e-01,1.10452e-01,-1.80583e-01,-2.13908e-01,1.09112e-02,4.64092e-02,-2.63979e-01,-3.12580e-01,-2.47750e-01,5.37975e-01,-6.86995e-02,
-5.84833e-02,-5.63689e-02,3.41935e-01,2.98855e-01,1.14749e-01,-3.67462e-01,-2.40873e-01,4.37568e-02,-2.29708e-01,1.07916e-01,-3.85114e-01,-3.40685e-01,2.99628e-01,-3.75079e-01,3.35190e-01,-3.32578e-01,-1.65097e-01,-6.00543e-01,1.98935e-01,-6.22570e-03,-8.04285e-01,-1.91906e-01,-3.04645e-01,9.20785e-01,1.17719e-01,
-2.65368e-01,4.21797e-01,-4.21560e-03,2.36098e-01,2.73139e-01,-1.12270e+00,-2.52735e-01,2.23214e-01,3.40547e-01,-2.73841e-01,-5.99963e-01,5.14458e-02,4.94809e-01,5.00554e-01,-1.47013e-01,1.17940e-01,1.07016e-01,-6.33288e-01,1.53066e-01,6.90780e-01,4.09693e-01,-6.17674e-02,1.92080e-01,3.40761e-01,-5.87514e-01,
-2.24582e-01,5.73566e-01,2.80875e-01,-5.53277e-02,-2.54207e-01,-1.22340e-01,6.99661e-02,2.99316e-02,-2.35970e-01,1.08727e-01,5.78188e-02,-3.70767e-01,-7.76273e-01,-3.61595e-01,-8.00129e-02,-4.61426e-02,-1.55515e-01,-3.52316e-02,1.31682e-01,-9.05314e-01,3.69466e-01,5.14100e-01,-1.20737e+00,-3.13796e-01,1.82929e+00,
-6.12087e-01,-1.59640e-01,-3.33328e-01,2.71042e-01,-1.93732e-01,2.06871e-01,1.82898e-01,1.60351e-01,-1.34480e-01,-2.94760e-01,-2.42248e-01,-1.06640e-01,-3.44536e-01,-4.19541e-01,4.34596e-01,-9.99318e-02,-1.87389e-01,6.37775e-01,4.97816e-01,-1.94463e-01,2.45722e-02,-1.07467e-01,-1.70192e-01,4.62140e-02,4.31775e-01,
-3.94135e-01,-3.48057e-01,1.79310e-01,1.90353e-01,3.59328e-02,-1.13100e+00,2.53419e-01,2.45327e-01,1.71752e-01,2.21429e-01,-1.08299e+00,-1.62910e-01,4.72659e-01,-1.23130e+00,3.97492e-01,-6.51964e-02,-5.32366e-02,-2.65058e+00,3.32598e-01,-7.26589e-01,-6.03820e-01,-4.77595e-01,1.42373e-01,3.33278e-01,-3.70893e-01,
-6.66962e-01,-8.46334e-02,-2.46770e-01,2.06483e-01,8.95126e-02,2.87917e-01,-9.79054e-03,-2.95135e-01,-3.02603e-01,-2.77038e-01,-6.09766e-02,-3.79080e-01,1.08304e-01,2.34615e-01,1.31110e-02,-2.27137e-01,-2.10387e-01,-1.62133e-01,4.61183e-01,5.39303e-01,-5.14093e-01,-2.64341e-01,1.03325e-01,9.17020e-01,-8.28774e-01,
-3.05291e-01,2.18165e-01,1.40961e-01,-1.22796e-01,7.51714e-02,-5.77639e-01,2.18412e-01,6.89881e-02,-2.33543e-01,1.89912e-01,3.70691e-01,-2.61951e-02,-5.16706e-01,-8.01519e-02,3.55417e-01,-7.10210e-02,1.82086e-01,2.71301e-01,1.41222e-01,-6.76742e-01,6.64973e-01,1.66352e-01,-1.25386e-01,1.25306e-05,-6.49374e-02,
-1.42422e+00,8.22492e-02,4.07071e-02,3.19249e-01,3.11468e-01,1.12789e-01,-2.92816e-02,6.13097e-02,3.16047e-01,-3.44321e-01,-9.91031e-01,1.87071e-01,9.71319e-03,-1.14042e-01,3.68830e-01,-3.08444e-01,-6.87556e-02,2.45236e-01,9.54040e-01,1.50022e-01,1.91049e-01,1.20256e-01,7.29949e-01,-2.13447e-01,-2.49198e-01,
-2.27707e-01,-1.44906e-01,8.56375e-02,1.71707e-01,-1.92059e-01,1.85051e-01,3.36485e-01,4.59897e-02,1.38015e-01,2.44942e-02,-1.67734e-01,-2.68512e-01,4.98489e-01,-1.71718e-01,1.62243e-01,2.32256e-01,-3.95077e-01,2.88662e-01,2.51463e-01,4.44575e-01,-1.06993e+00,-8.22166e-02,8.91020e-02,2.29971e-01,-6.71665e-01,
-2.42742e-01,-5.94427e-01,5.17152e-02,8.38895e-02,1.90474e-01,-2.55145e-01,1.76316e-01,2.02393e-01,3.46760e-02,1.41556e-01,-3.58679e-01,-1.71882e-01,-1.64280e-01,3.44527e-01,-1.13495e-01,2.41139e-01,6.73941e-02,1.17824e-01,-4.07678e-01,7.25304e-01,3.29547e-01,-7.59405e-02,5.45911e-01,4.61262e-01,7.85306e-02,
4.37031e-02,-2.68365e-01,-1.94896e-02,8.75367e-02,-9.55392e-02,1.01487e-02,2.42519e-01,2.73284e-01,2.16703e-01,2.11327e-01,-1.93897e-01,-2.23996e-01,1.19425e-01,1.77178e-01,-3.27363e-01,1.61257e-01,1.62649e-01,2.40035e-02,-2.38815e-01,-8.09924e-02,-1.59391e-01,1.89239e-01,-1.79889e-01,1.67924e-02,-1.29610e-02,
-3.69459e-01,-3.83815e-01,3.03465e-01,2.38234e-01,1.07739e-01,1.30319e-01,1.95009e-01,2.12160e-01,-1.19748e-01,-1.02356e-01,2.62572e-01,-1.64475e-01,1.66506e-01,-3.78297e-01,-1.11808e-01,-2.83982e-01,-8.50354e-02,-1.05389e+00,-1.41958e-01,4.24593e-02,-1.97957e-02,5.76751e-01,2.50114e-01,3.64831e-01,-2.60837e-01,
-9.55636e-01,3.25263e-01,2.90880e-01,-1.39600e-01,-5.94274e-02,9.02080e-01,-3.18521e-01,-2.68918e-01,-2.52283e-01,3.26875e-01,-4.94574e-01,2.13437e-01,5.04892e-01,-4.91275e-01,-2.50681e-01,-8.13622e-02,1.04573e-01,-1.03240e-01,7.75612e-01,-2.74099e+00,-4.26815e-01,2.61628e-01,-7.63706e-01,4.72580e-01,7.14014e-01,
-2.77779e-01,
-3.92544e-01,
1.02854e-01,
1.96299e-01,
6.21147e-02,
1.62792e-01,
-1.06861e-01,
2.61847e-01,
-3.36151e-02,
-2.64457e-01,
2.05766e-01,
1.51433e-01,
1.35451e-01,
-1.96256e-01,
2.11343e-01,
2.32574e-01,
1.73276e-01,
1.96548e-01,
1.22089e-01,
4.97745e-02,
6.40328e-03,
1.25892e-02,
-1.30180e-01,
-1.38071e-02,
-2.38337e-01,
-2.48225e-01,6.26801e-01,2.90610e-01,3.97445e-01,-2.14901e-01,-3.94721e-02,-2.55986e-01,-4.51873e-01,1.66770e-01,1.83484e-01,3.28949e-01,-3.78354e-01,1.46047e-01,-3.07776e-01,2.62854e-01,2.64121e-01,6.73010e-01,-3.49254e-01,9.26875e-02,1.79624e-01,2.18975e-01,-1.44157e-01,-1.74591e-01,-8.00412e-01,3.12064e-01,
1.61885e-01,2.81749e-01,-4.29577e-01,-1.93036e-01,-3.11080e-01,-3.58429e-01,1.47805e-01,-1.60741e-01,1.44086e-01,-1.69967e-01,-1.14532e-01,-7.23629e-02,-3.41749e-01,-1.85296e-02,-7.19478e-02,3.54048e-02,2.61973e-01,5.51185e-02,-2.32315e-01,-6.44529e-02,-1.05232e+00,-2.00429e-01,5.38198e-02,-2.50297e-01,2.12586e-01,
-2.90728e-03,2.95992e-01,-3.01433e-01,-4.13137e-01,-4.04119e-02,-2.31251e-01,-5.18556e-01,-3.49947e-01,4.93558e-01,-1.23524e-01,2.52394e-04,8.33614e-01,-6.37963e-01,-4.54151e-01,-2.02792e-01,-4.28411e-01,-9.27222e-01,2.12847e-01,-4.09771e-02,3.87726e-01,2.49635e-01,2.97666e-01,-2.56206e-01,4.12015e-01,-4.49567e-01,
-2.59208e-01,-3.33936e-01,-1.59501e-01,-2.85296e-01,-5.54696e-03,-3.04736e-01,-2.11418e-01,-2.85483e-01,-6.05670e-02,-1.67523e-01,1.25242e-01,-2.91264e-01,2.84669e-02,8.49196e-02,-4.97148e-02,3.26697e-01,1.41069e-01,2.37216e-01,-2.08545e-01,-2.50250e-01,-2.64795e-02,6.50919e-02,3.45760e-01,2.92581e-01,-2.31494e-01,
-2.04465e-01,1.38190e-01,1.80119e-01,-2.34312e-01,-2.83465e-01,-4.07933e-01,8.54052e-01,-3.00171e-01,-6.64313e-01,-4.19422e-03,-2.94181e-01,-2.91388e-01,-1.48916e-01,-1.37597e+00,9.64995e-01,-1.69136e-01,3.56848e-02,-4.81686e-02,4.80156e-02,-1.27933e-01,2.17064e-01,7.11791e-01,3.40818e-02,-2.53671e-01,-2.35538e-01,
-3.04844e-01,1.49628e-01,-2.96589e-01,-2.06333e-01,-6.67191e-03,-1.68205e-01,-3.64281e-01,-1.07138e-01,4.69108e-02,1.72772e-01,-2.89188e-01,2.96429e-01,2.96688e-01,-1.75742e-01,-1.77986e-01,-2.84182e-01,-1.26101e-01,-2.29958e-01,-2.36580e-02,-2.42620e-01,2.81520e-02,-2.18216e-01,1.33711e-01,-2.65044e-01,3.34517e-01,
-3.23904e-01,2.78848e-01,1.15548e-01,-5.19753e-02,5.75575e-01,1.61765e-01,-1.01883e+00,-1.81208e-01,5.73922e-01,2.78733e-01,-3.25147e-01,4.20207e-02,-1.10260e+00,2.09859e-01,3.74917e-01,-8.27069e-02,-1.36888e+00,-6.05872e-01,3.58959e-02,-3.90706e-01,1.75102e+00,8.85206e-01,2.57973e-01,2.50092e-01,-1.21863e-01,
9.76225e-02,-4.34734e-01,-4.17274e-01,-3.23473e-02,3.32992e-02,2.82634e-01,4.17858e-01,-1.84907e-01,-7.49332e-01,-1.80017e-01,1.69721e-01,3.62570e-01,1.98702e-01,6.14914e-01,2.89117e-01,1.38429e-01,-3.56625e-01,2.62442e-02,3.38573e-01,-1.46798e-01,1.86870e-01,2.74576e-01,2.05538e-02,-3.20936e-01,-2.31993e-01,
-1.05438e-01,-3.22458e-01,3.68138e-01,2.28937e-01,6.11555e-02,-1.14710e-01,9.67225e-01,1.82743e-01,-4.68450e-01,2.04951e-01,3.41543e-01,1.22308e-01,7.09208e-02,-1.57891e-01,8.48894e-02,2.58885e-01,1.31424e-01,4.06377e-01,-1.26787e-01,1.29203e-01,7.13933e-02,-4.57088e-02,1.81499e-01,-2.00091e-01,-3.69355e-01,
3.17523e-01,4.35409e-01,-1.41059e-01,-3.34992e-01,1.35075e-01,-4.66351e-01,-3.73171e-01,3.49926e-01,3.79513e-01,3.32394e-01,-1.58527e-01,-3.79756e-02,-4.48415e-02,-1.87489e-01,5.75553e-01,-4.16327e-01,1.57389e-02,1.47128e-01,-3.64332e-01,-8.75477e-02,3.20921e-01,-3.31800e-01,1.30649e-01,9.96533e-03,3.07376e-01,
-6.64622e-02,-1.60837e-01,2.20821e-01,2.16176e-01,3.96966e-02,-3.34918e-01,2.39264e-01,-2.31352e-01,-2.79416e-01,6.16856e-01,-9.82149e-02,4.43778e-02,-1.07789e-01,-9.96651e-02,-1.18245e-01,2.64302e-01,2.20846e-01,3.38322e-01,3.18982e-01,-1.38940e-01,-2.76691e-01,9.84790e-02,1.23314e-01,2.80844e-01,-3.66238e-01,
-5.54763e-02,-3.15932e-01,2.05692e-01,4.57854e-01,-7.03791e-02,1.91261e-01,-1.94129e+00,-1.42587e-02,4.16919e-01,-1.65050e-01,-7.19891e-01,2.94602e-01,-6.17753e-01,-1.17344e+00,-2.36570e-01,-1.96960e-01,6.60305e-01,-9.71778e-02,-5.11458e-01,-1.77454e-01,-2.21680e+00,1.32770e+00,6.35884e-02,9.71907e-02,6.95866e-01,
-1.67286e-02,-2.52153e-01,7.01943e-02,-1.45138e-01,1.70129e-01,3.05440e-01,6.39691e-01,8.94877e-02,-1.44192e-01,6.43739e-01,-1.69494e-01,-2.03062e-01,1.35664e-01,4.13857e-01,-9.53544e-02,1.20849e-01,-3.50083e-01,-1.66040e-01,-2.05198e-01,1.93483e-01,1.72155e-01,2.09918e-01,-1.26159e-02,-3.94333e-01,-2.42578e-01,
-1.60780e-01,-1.98770e-01,-5.79784e-02,9.08764e-02,2.43101e-01,3.27477e-02,2.71803e-01,3.87115e-02,-1.05542e-01,9.24676e-02,-6.28500e-02,-7.32538e-02,3.23904e-01,2.40901e-02,-6.98071e-02,-2.91179e-01,-1.77369e-01,-2.83418e-01,4.47378e-02,-1.93954e-01,-3.93932e-02,-3.21980e-01,1.06803e-01,-3.35986e-01,-3.56878e-02,
1.82463e-01,-2.45907e-01,-2.46862e-01,-2.45272e-01,-2.56362e-01,4.53393e-02,-2.40337e-01,1.01657e-01,-2.56224e-01,2.70399e-01,-9.17486e-02,-2.57518e-01,2.62570e-01,-5.46884e-02,1.41153e-01,5.88438e-02,2.69294e-01,1.53681e-01,-1.42758e-02,1.50913e-02,-4.75309e-02,-1.77833e-01,1.56278e-01,1.65049e-01,-1.09405e-01,
3.14669e-01,-2.29068e-01,2.31802e-01,1.45052e-02,2.05786e-01,-3.23721e-01,1.09441e+00,-1.40913e-01,-3.10987e-01,1.88619e-02,2.46749e-01,-2.55221e-01,-1.23409e-02,1.84550e-01,7.58067e-02,4.30424e-01,-1.54283e-01,9.14203e-02,1.96565e-01,3.72735e-01,2.33125e-01,-2.29917e-01,-8.79451e-02,-1.70517e-02,-1.49419e-01,
-3.17709e-01,4.91026e-02,-4.88180e-02,-2.90870e-01,1.29307e-01,-3.71705e-01,-3.41571e-02,-2.84830e-01,1.55644e-01,1.74715e-03,-3.74982e-02,-6.72719e-02,-1.04807e-01,2.62550e-01,-5.28316e-02,1.23109e-01,-5.54814e-03,-1.07620e-01,3.57888e-01,2.69179e-01,-1.98249e-01,-1.85741e-01,4.81885e-02,1.08051e-01,7.71167e-02,
1.21108e-01,-5.51675e-01,2.30387e-01,2.97818e-02,-3.69098e-02,1.89882e-02,-1.25712e+00,2.80073e-01,3.22707e-01,5.04500e-01,-3.43164e-01,-4.00399e-01,-6.91092e-01,1.25424e-01,-4.67820e-01,-4.03808e-02,-9.79033e-01,3.28355e-02,1.85736e-01,-2.86101e-01,9.50648e-01,4.66065e-01,-6.88833e-02,5.10464e-01,-8.58703e-01,
1.99537e-01,-5.89041e-01,2.56056e-01,-9.24238e-02,1.15272e-01,9.01016e-02,1.35595e+00,-7.24232e-02,6.16128e-02,2.87972e-01,4.47309e-01,2.88928e-02,4.30757e-01,4.14953e-01,1.83238e-01,-5.08520e-02,4.09497e-01,1.58764e-01,1.74802e-01,7.58342e-02,-1.41409e-01,1.06057e-01,-1.74668e-01,-2.46632e-01,6.82137e-01,
2.59404e-01,-1.75530e-01,1.04925e-01,-5.69398e-02,3.64017e-01,-3.08195e-01,6.99054e-01,4.31424e-01,3.47352e-01,3.78018e-02,5.56735e-01,-1.25619e-02,-7.97421e-02,1.41517e-01,-2.52531e-01,3.98773e-01,5.85620e-01,4.72425e-03,-1.98684e-01,3.81625e-01,2.13706e-01,-4.71170e-01,-2.09754e-01,7.01392e-02,-1.19869e-01,
1.29802e-01,6.93443e-02,-1.37068e-01,-3.56366e-01,2.66757e-01,2.46161e-02,-2.84953e-01,-3.18237e-01,2.77047e-01,-6.04422e-02,2.94083e-02,-3.79203e-01,-7.71727e-02,4.63210e-01,1.59841e-02,-1.82740e-01,-1.75917e+00,-1.90132e-01,3.74432e-01,-2.75892e-01,3.49410e-01,-1.37784e-01,-2.30914e-01,-3.04425e-01,4.90776e-01,
-3.85005e-02,-2.19620e-01,3.96881e-02,1.37577e-01,1.95111e-01,1.19342e-02,3.52097e-01,3.55634e-02,-1.25046e+00,-1.99166e+00,-8.23730e-02,4.07207e-01,1.44135e-01,3.81475e-01,3.12585e-01,1.79597e-01,1.02837e-01,-1.23583e-01,-5.84530e-02,6.12326e-02,3.62977e-01,3.17010e-01,-1.42803e-01,-2.94730e-02,-2.10364e-01,
1.42506e-01,-7.73442e-02,7.54454e-02,-2.46207e-02,-2.14092e-01,-1.03908e-01,-3.85830e-02,2.43467e-01,-3.76606e-03,3.44040e-01,1.79124e-01,-2.46615e-02,-6.98795e-01,-1.88943e-01,-1.88273e-01,-1.76483e-01,-9.54266e-02,-1.78172e-01,-1.34131e-01,3.08664e-01,1.08014e-02,-3.36445e-01,8.89759e-02,2.44560e-01,3.44261e-01,
-2.19222e-01,3.27266e-02,2.87185e-01,1.19583e-01,-2.64689e-02,-1.36865e-02,-2.70672e-02,-1.18163e-01,-3.20311e-01,2.30791e-01,2.92473e-01,-1.02010e-01,-7.49867e-02,2.08820e-02,6.97100e-02,-3.17689e-01,9.78987e-02,-1.27972e-01,-3.34974e-01,-2.23000e-01,-1.84739e-01,-3.12002e-01,-3.42781e-01,1.50367e-01,2.15717e-01,
-2.05140e-01,-2.33532e-01,2.21779e-02,2.50633e-01,1.45714e-01,2.28172e-01,8.05423e-01,7.56428e-02,-1.00331e+00,-1.12432e+00,-2.03211e-01,-1.87702e-01,2.05071e-02,-3.57194e-01,7.44276e-01,-1.32222e-01,-6.90445e-01,-5.57446e-01,1.08091e-01,3.17048e-01,7.58201e-01,5.70606e-01,8.13516e-02,-2.29153e-01,-2.42930e-01,
-5.94112e-02,
-7.61939e-02,
-9.15275e-03,
-2.89400e-01,
2.77568e-01,
5.39168e-02,
2.30912e-01,
1.20909e-01,
3.42377e-01,
7.19346e-02,
1.50020e-01,
6.25360e-02,
1.53049e-01,
-2.45339e-01,
-3.30318e-01,
-1.64423e-01,
2.04026e-01,
1.47006e-01,
-8.52262e-02,
-2.55698e-01,
2.01652e-01,
-3.16072e-01,
-3.31961e-01,
-2.01138e-01,
8.16450e-02,
2.79951e-02,1.37680e-01,-1.24282e-01,-1.05478e-01,1.18017e-01,7.21456e-02,-6.83075e-03,-1.39152e-01,-3.81507e-02,-1.95080e-01,2.27307e-01,2.82909e-01,-5.79105e-02,2.73005e-01,4.44612e-02,-8.71332e-03,3.16766e-01,2.60069e-01,-2.52657e-01,1.84856e-02,2.67681e-02,-1.09656e-02,1.54617e-01,1.31427e-01,-9.00835e-02,
1.22456e-01,-3.01877e-01,1.01668e-01,3.41771e-01,-1.36209e-01,2.64916e-01,-9.19357e-02,-6.49328e-02,-3.21059e-01,1.00530e-01,-2.91529e-01,-2.95949e-01,2.29275e-01,-2.16781e-01,-2.91649e-01,-1.82486e-01,-2.93062e-01,-3.47033e-02,1.03484e-01,-1.21092e-01,2.41970e-01,2.81873e-01,9.86356e-03,2.26713e-02,-1.50251e-02,
-8.57898e-02,-2.38169e-01,2.71626e-01,-1.96997e-01,-8.36762e-02,-3.25925e-01,1.90604e-01,1.29963e-01,2.11350e-01,2.78313e-01,1.44468e-01,-7.90249e-01,3.27513e-01,1.89398e-01,-2.12332e-01,-4.05441e-01,1.63885e-01,-8.74213e-01,-6.16542e-02,2.51724e-01,1.35075e-01,-3.38101e-01,3.57899e-02,2.21868e-01,3.63620e-01,
5.64167e-02,-5.46890e-02,1.39053e-01,1.18424e-01,9.86780e-02,-2.18654e-01,3.07069e-01,-2.13943e-01,-3.06250e-02,5.61812e-02,-2.31568e-02,-2.64925e-01,-7.41657e-02,7.99328e-02,-2.41683e-01,2.57514e-01,1.32229e-01,-3.36188e-01,-2.41781e-01,1.15330e-01,2.08220e-01,2.58980e-01,3.40269e-01,6.14355e-02,1.89680e-02,
1.49970e-01,-1.92185e-01,4.03669e-01,-1.29390e-01,6.29078e-01,-2.94277e-01,9.07739e-03,-1.02340e-01,-5.75923e-02,-1.89509e-01,2.47666e-01,-6.59140e-01,-4.38880e-02,-1.20486e-01,-3.34056e-01,-5.33921e-01,2.53034e-01,-3.12984e-01,-2.42971e-01,3.83988e-02,1.50773e-01,-2.46693e-01,1.92967e-01,1.98272e-02,-1.38354e-01,
-1.28785e-01,1.19437e-01,1.17200e-01,9.89258e-04,1.01638e-01,1.51511e-01,-2.95643e-01,8.66784e-02,-1.82003e-01,-2.58640e-01,2.95328e-01,2.00835e-01,-5.91913e-02,-2.11286e-01,1.02056e-01,-2.80688e-01,5.70711e-02,1.83378e-02,-3.33950e-01,-1.63788e-02,-2.04541e-02,-2.54042e-01,-2.65748e-01,-3.00988e-01,-2.94261e-01,
-5.63468e-02,-2.31295e-01,9.14165e-01,-1.19843e-01,-1.48362e-01,3.38116e-01,2.95672e-01,4.11146e-02,-2.29578e-01,6.28987e-01,1.12889e-01,-4.55752e-02,8.78546e-02,2.27721e-01,1.19665e-02,-6.17712e-01,3.08944e-01,2.22763e-01,2.65957e-01,1.70105e-01,2.19437e-01,-2.68243e-02,1.64749e-01,3.41866e-01,2.64413e-01,
3.57782e-02,3.27189e-01,1.25437e-01,-1.60082e-01,5.30680e-01,2.32353e-01,-7.25512e-01,3.56495e-01,-3.03402e-02,-9.46647e-01,1.71629e-03,-3.80198e-01,-1.67358e-01,-3.11325e-02,2.56221e-01,2.08166e-01,1.46455e-02,-3.99019e-01,7.30782e-02,1.93024e-01,4.08192e-01,2.61110e-01,2.61486e-02,1.61456e-01,3.52733e-01,
2.27230e-02,6.66132e-02,2.09141e-01,-2.14593e-01,2.28213e-01,-3.21492e-01,-5.22159e-01,3.92792e-01,2.91036e-01,-6.42737e-01,3.38528e-01,-1.03886e-01,-1.37554e-01,-2.59401e-01,-2.62456e-01,-1.25005e-01,4.81168e-03,-5.05867e-01,2.48374e-01,-1.46317e-01,-3.53005e-01,-1.95390e-01,-2.72283e-01,-1.31328e-02,-4.90853e-02,
6.12761e-03,-2.31044e-01,8.00214e-02,1.04538e-01,1.66969e-01,-5.66324e-02,-6.28377e-01,-2.98647e-01,2.08138e-01,2.54252e-01,1.98073e-01,6.54281e-01,1.93960e-01,-2.70019e-01,8.18706e-03,-1.33673e-02,1.92395e-01,-4.13024e-01,1.28861e-01,-2.97548e-01,-3.65322e-02,4.98109e-01,-6.96512e-02,-3.97810e-02,-2.84701e-01,
8.90727e-02,2.80194e-01,7.76375e-01,2.25537e-01,5.60537e-01,-2.78097e-01,-3.55383e-02,1.76725e-01,3.10641e-01,3.65717e-02,1.52919e-02,-1.25181e+00,1.98159e-01,-3.19380e-01,1.43877e-01,-3.54437e-01,1.17802e-02,-3.06415e-01,3.16979e-01,4.27116e-01,-3.97819e-03,-1.46464e-01,-7.69080e-02,-9.10067e-02,1.73274e-01,
5.24377e-01,-2.52857e-01,4.89717e-01,-2.96613e-01,4.71811e-01,-3.20412e-02,4.86817e-01,3.35056e-01,1.60154e-01,6.80607e-01,3.12762e-01,-1.40810e+00,8.76803e-02,1.72679e-01,2.52140e-01,-1.26652e-01,-8.58358e-02,-1.05139e-01,2.29069e-02,3.92553e-02,-1.41615e-01,-1.84016e-01,3.54595e-01,2.78792e-01,-8.67764e-02,
2.73768e-01,-2.16486e-02,4.70874e-01,-2.58236e-01,2.24418e-01,1.69041e-02,1.97925e-01,-1.20516e-01,5.04168e-03,2.13065e-01,3.46566e-01,1.87273e-01,7.63273e-02,-2.10668e-01,-2.96209e-01,-3.68514e-01,-1.60143e-01,-1.37926e-01,2.42313e-01,7.61638e-02,-2.30621e-01,2.06462e-01,-1.36286e-01,2.28159e-01,-1.78452e-01,
-1.97082e-01,3.47756e-01,-5.63202e-01,-7.60931e-03,3.90195e-01,-2.89431e-01,5.29229e-01,1.95740e-01,-2.79204e-01,-4.26237e-01,1.10991e-01,6.04040e-01,-4.86906e-02,-6.55562e-03,4.37316e-02,5.02457e-01,-1.00411e-01,5.73149e-01,-3.12845e-01,-2.73625e-02,2.98321e-01,2.67584e-01,-2.52100e-01,2.47015e-01,-2.16983e-01,
2.36265e-02,-2.00869e-01,7.23606e-01,1.86032e-01,-4.22871e-01,-5.88689e-02,-2.93860e-03,2.57445e-01,-2.45579e-02,4.28315e-02,-2.68347e-01,-5.71212e-01,1.14848e-01,1.13014e-01,-2.97697e-01,-2.68267e-01,2.17026e-01,-4.02373e-01,3.35193e-01,-5.12293e-01,1.75969e-01,-1.45682e+00,-1.77954e-01,1.52950e-02,-1.29643e-01,
-6.88895e-01,1.53518e-01,5.31801e-01,-1.62917e-01,1.37883e-01,-3.13461e-01,3.29653e-01,1.95574e-01,1.62811e-01,-3.63429e-01,1.02589e-01,-6.72232e-01,-3.81458e-01,-1.88429e-01,-1.08286e-01,4.59258e-02,-1.25889e-01,3.29768e-01,4.22758e-01,2.25265e-01,-1.21795e-01,-4.94708e-01,-5.19583e-02,-2.48938e-01,8.47080e-02,
2.08313e-01,-2.88384e-01,1.50288e+00,-2.11293e-01,3.16891e-01,9.31713e-03,-3.38411e-02,1.95078e-01,-6.04436e-02,8.04770e-01,-3.59250e-01,6.92943e-03,1.50388e-01,-4.54275e-02,-2.94038e-01,-6.51087e-02,-4.02359e-01,-3.42445e-01,1.01039e-01,-3.89105e-01,-1.33204e-01,-5.06901e-01,3.30397e-01,1.87301e-01,3.98442e-01,
-1.94889e-03,7.10519e-02,2.82352e-01,3.55793e-02,-1.46922e-01,1.22626e-01,1.01552e-02,-2.01158e-01,-3.34412e-01,3.42245e-01,-1.72366e-01,-1.76876e-01,-4.45404e-02,2.82651e-01,-5.79172e-02,-2.62145e-01,-2.62975e-01,-1.02060e-01,-2.16209e-01,-1.49465e-01,-2.33554e-01,3.36941e-01,1.04560e-01,-3.34022e-01,7.46542e-02,
-1.73437e-01,8.53350e-02,3.38874e-01,-1.98795e-01,2.40874e-01,7.44469e-02,-3.32894e-01,-8.41936e-02,-3.08379e-01,1.15823e-01,9.88705e-02,4.13493e-02,-1.45151e-02,2.44967e-01,3.03886e-01,1.85386e-01,-1.86276e-01,-2.64578e-01,-1.24938e-01,-2.57660e-01,-2.64719e-01,-4.37844e-02,4.39299e-02,1.76746e-02,-2.63300e-01,
-2.82600e-01,-1.17692e-01,-3.26638e-01,-3.35064e-01,-1.30873e-01,-1.77105e-01,-2.72708e-01,-3.18650e-01,-3.01969e-01,-2.67191e-01,2.18234e-01,2.34941e-01,-7.85065e-02,-4.49699e-02,2.91039e-01,3.15239e-01,-2.74153e-01,-7.77629e-02,-4.76730e-03,-2.21699e-03,2.57709e-01,1.06501e-01,-7.77521e-02,7.70176e-02,2.12504e-01,
-1.18877e-01,1.49702e-02,-3.72308e-02,-1.93844e-02,-1.52008e-02,-1.16762e-01,-1.13857e-01,-2.25790e-01,2.09770e-01,-3.78062e-01,1.35145e-01,1.09229e+00,8.30381e-02,-1.35549e-01,1.99250e-01,3.52352e-01,-4.47928e-01,2.20992e-01,2.16745e-01,-4.55165e-02,-1.35668e-01,-1.51172e-01,-2.03369e-02,2.71676e-01,-3.05612e-01,
-4.40099e-01,2.18713e-01,8.74374e-01,2.93482e-01,3.47360e-01,1.40555e-01,1.66992e-01,1.41645e-01,7.27631e-02,-2.96159e-01,1.32013e-02,-5.03279e-01,1.69879e-01,4.99822e-02,2.27710e-01,-1.17518e-01,-6.89670e-02,-4.34877e-01,3.58597e-01,3.18222e-01,-8.07899e-02,-2.19771e-01,-6.94382e-04,-3.21024e-01,-2.70409e-02,
-2.32996e-01,7.48897e-02,1.43101e+00,1.85462e-01,5.81012e-01,1.53021e-01,2.25254e-01,1.81812e-01,2.87629e-01,1.66280e-01,-1.74777e-01,-1.60364e+00,7.15399e-02,-6.34363e-02,-2.09108e-01,-1.68841e-01,1.53151e-01,-8.09723e-01,2.82541e-01,6.29300e-01,4.20909e-01,-2.36550e-01,-8.60817e-02,1.76264e-01,3.71900e-01,
-4.55170e-01,3.11073e-01,1.69698e-01,-1.08758e-01,6.16500e-01,2.12857e-01,-1.48981e-01,-9.76367e-03,-1.39542e-01,2.02874e-01,-1.42495e-01,-6.66999e-01,1.08090e-01,2.64279e-01,-1.42264e-01,1.10229e-01,-3.49629e-01,4.46021e-02,2.57496e-01,-1.66451e-01,6.69013e-02,2.75695e-01,-2.17716e-03,2.33353e-01,-2.72625e-01,
-4.90765e-02,-2.19144e-01,-4.47460e-01,-2.58497e-01,-4.36193e-02,2.00618e-01,-1.27558e-01,3.98621e-02,6.28951e-02,-5.46537e-01,8.34980e-02,-3.36887e-01,-9.70817e-03,2.94698e-01,3.34596e-01,1.60108e-01,9.91364e-02,-2.95248e-01,2.98809e-01,-5.53048e-01,-3.27607e-01,2.56630e-01,-9.97118e-02,2.45483e-01,1.10469e-01,
-2.90564e-01,
-5.52890e-02,
-2.32037e-01,
-2.38549e-01,
9.97513e-02,
-2.80594e-01,
1.26361e-01,
-1.72235e-02,
3.14010e-01,
5.10557e-02,
3.82067e-02,
-2.73462e-01,
1.61770e-03,
2.88065e-01,
-1.46645e-01,
-1.17112e-01,
-1.93799e-01,
-3.10751e-01,
-1.19906e-01,
3.58061e-02,
1.56105e-01,
-1.55603e-01,
2.00201e-01,
1.50408e-01,
1.26600e-01,
2.68601e-01,3.76887e-02,-2.25177e-01,-1.35504e-01,-5.38759e-01,2.15593e-01,2.85354e-02,-1.22973e-01,1.26534e-01,1.67570e-01,2.23851e-02,2.42263e-01,-4.51429e-01,-8.34354e-02,-4.18540e-02,3.92149e-01,7.12244e-02,-2.78736e-01,-2.46310e-01,1.68842e-01,4.29582e-01,1.68241e-01,-9.56285e-02,-2.10892e-01,-4.88001e-02,
-1.96704e-01,-7.15654e-03,-1.47783e-01,3.46788e-01,-4.59550e-01,-1.26317e-01,1.58223e-01,4.29529e-01,-1.49878e-01,1.32351e-01,-1.98372e-01,-3.30998e-01,1.86990e-01,-1.43707e-01,1.69766e-01,2.40449e-01,2.99681e-01,3.22525e-01,-9.14550e-03,-8.43244e-02,-2.92646e-01,-1.73585e-01,1.78934e-01,4.87544e-01,2.48618e-01,
-1.11810e-01,-2.47888e-01,-2.18114e-01,1.53628e-01,-3.64847e-02,2.77884e-02,-1.18497e-01,-3.03363e-01,2.51976e-01,1.27289e-01,-1.78547e-01,-1.00943e-01,-3.92004e-01,-2.73620e-01,-3.00780e-01,-1.05513e-01,6.57673e-02,1.46432e-01,2.40396e-01,-1.00296e-01,1.77523e-01,-2.06706e-02,1.44288e-01,-3.27626e-01,-2.86829e-02,
-4.67626e-03,-1.89818e-01,1.07955e-01,1.92203e-01,-1.02743e-01,-2.18224e-01,9.64105e-02,1.82899e-01,2.85616e-01,3.29841e-01,-3.11822e-01,3.49835e-01,1.78596e-01,3.69444e-01,-1.77370e-01,-2.95795e-01,-3.19203e-01,8.56634e-02,-3.45977e-01,-3.11325e-01,-2.60135e-01,-1.59150e-01,6.48662e-02,3.61490e-01,2.44705e-03,
2.02865e-01,1.62550e-01,2.61041e-01,-2.86931e-01,2.95652e-01,1.99637e-03,9.65061e-02,-2.96228e-01,1.94130e-01,4.63195e-01,9.08374e-02,2.82053e-01,8.80481e-02,-3.93142e-01,-3.15437e-01,1.01250e-01,2.45201e-02,-2.45543e-01,-9.56115e-02,6.63121e-02,4.05476e-03,2.81120e-02,9.54383e-02,-3.85303e-01,1.21854e-01,
-2.62898e-01,-1.40894e-01,-9.35886e-02,1.77220e-01,7.42049e-02,-9.32324e-02,3.18330e-01,-9.32087e-02,3.49382e-02,-8.21077e-02,-2.28400e-01,2.59990e-01,1.27033e-01,-1.10254e-01,-3.03175e-02,2.74959e-01,-2.47742e-01,-1.46929e-01,-5.31286e-02,-2.81361e-01,-2.09007e-01,-1.58632e-01,-2.88298e-01,-6.84962e-02,1.55204e-01,
-1.97910e-01,-3.40338e-01,4.01005e-02,-1.91383e-01,3.03195e-01,-3.18379e-01,-2.46391e-01,-1.64539e-01,3.96783e-02,-2.91363e-01,-2.73581e-01,-2.14671e-01,-2.46426e-01,2.57991e-01,2.05679e-01,-2.73400e-01,6.76931e-02,2.04023e-01,-1.73705e-01,-1.99796e-01,1.57455e-01,-2.57328e-01,1.67055e-01,3.32095e-02,3.94613e-04,
-1.92738e-01,-1.61612e-01,-1.28486e-01,-3.36614e-01,2.55931e-01,-7.77589e-02,-5.04252e-01,-5.60030e-04,1.92972e-01,5.53632e-01,-2.06433e-01,2.65070e-01,-1.82296e-01,-3.23945e-01,-1.37854e-02,-1.88792e-01,9.81209e-02,-8.26642e-02,3.28906e-01,3.12882e-01,-8.17842e-02,6.15572e-01,-2.89259e-01,-1.59136e-01,-2.43293e-02,
2.56524e-01,-3.13238e-01,4.77866e-02,-7.87448e-02,3.37106e-01,1.55804e-01,-3.00343e-01,-2.79382e-02,1.61410e-01,9.19655e-02,3.06636e-01,-2.57953e-01,-1.66963e-01,-2.67627e-02,1.94426e-02,6.40022e-02,-1.44660e-01,8.96671e-02,2.13444e-01,-1.44043e-01,-3.28692e-01,6.88270e-02,-1.94033e-01,2.42195e-01,8.93754e-03,
-8.37575e-02,-9.25389e-02,-7.77414e-02,-2.55248e-01,-1.41998e-01,2.07072e-01,-1.52683e-01,-5.53347e-01,3.68128e-01,-2.03030e-01,3.68353e-02,2.04863e-01,-1.79108e-01,3.03811e-01,-2.47416e-01,1.19328e-01,-1.50660e-01,-6.09208e-02,3.38569e-01,2.83040e-01,-3.19972e-01,3.33542e-01,2.83133e-01,-1.14153e-01,3.95886e-01,
-1.24913e-02,-1.81175e-01,-6.29733e-02,7.21852e-02,-2.38302e-01,7.10908e-02,-5.25375e-02,-1.48611e-01,4.33447e-02,-2.80251e-01,1.77402e-01,-1.24212e-01,2.14196e-01,3.96279e-01,1.12230e-01,3.28460e-01,8.19374e-02,1.45897e-01,2.05401e-01,2.77930e-01,4.86030e-02,3.58205e-01,-1.68098e-01,-2.93535e-01,1.94421e-01,
-5.27208e-02,-3.73861e-01,-3.13017e-02,8.37311e-02,-1.72595e-02,3.14630e-01,-6.07011e-02,-5.23698e-01,2.96227e-01,3.14670e-01,2.99056e-01,-3.27359e-01,1.43300e-01,7.70397e-02,-4.53698e-01,1.48264e-01,4.44506e-01,-3.06619e-01,3.00401e-01,-3.10524e-01,2.30986e-01,-2.40777e-01,5.12099e-02,-4.00364e-01,1.47195e-01,
9.82562e-02,2.13043e-01,1.84079e-01,2.33066e-01,-6.17127e-02,-8.34108e-02,2.96227e-01,5.46847e-02,-7.81777e-02,-4.63441e-01,2.73884e-01,-4.40250e-02,-1.15080e-01,-1.62456e-01,-5.99069e-02,5.97645e-02,-3.63706e-01,-6.42562e-02,-6.47700e-02,-1.76784e-01,-3.53034e-01,1.26791e-01,1.36985e-01,-2.18736e-02,-3.82206e-01,
9.86314e-03,-1.75891e-01,2.69516e-01,-8.00717e-02,-9.14145e-03,-6.39831e-02,2.08748e-01,2.33318e-01,-3.11467e-01,3.03847e-01,7.54796e-02,-6.43488e-02,3.37867e-01,-2.54672e-02,-1.97555e-01,2.62674e-01,-3.21821e-01,-1.50617e-01,1.46603e-01,1.97147e-01,-2.28186e-01,-2.53002e-01,-3.23015e-01,-2.48646e-01,-6.92666e-02,
2.43333e-01,2.16775e-01,2.35668e-01,-2.30600e-02,8.86539e-02,-7.58025e-03,3.13046e-01,-2.11419e-01,1.25765e-01,-6.20439e-02,7.57737e-02,-1.07481e-01,-2.21551e-02,-6.82646e-02,2.48091e-01,-1.98048e-01,-6.86021e-03,-5.60391e-02,9.01715e-02,6.16786e-03,2.73633e-01,-9.50090e-02,-2.36491e-02,1.16406e-01,-1.42276e-01,
-1.30339e-01,-2.23205e-01,-4.25786e-02,-7.35551e-02,-1.52444e-02,7.89919e-02,-2.92262e-01,-1.88886e-01,-1.16134e-01,2.16662e-01,2.71164e-01,-8.12949e-02,2.14518e-02,-3.42752e-01,-1.83093e-02,-3.19650e-01,1.02531e-01,-3.26906e-01,-2.50586e-01,-2.28074e-03,-2.17532e-01,-2.70986e-01,-3.16511e-01,1.60964e-01,3.08590e-01,
1.39296e-01,1.27155e-01,2.45288e-01,-6.03980e-02,-1.09099e-01,3.03984e-01,3.76496e-01,8.45474e-02,-6.70450e-03,-5.23478e-01,2.42411e-01,-2.48377e-01,1.10562e-01,2.30944e-01,1.07685e-02,1.39117e-01,-3.14889e-01,-1.65797e-01,-2.44343e-01,-1.48079e-01,-1.05196e-01,-5.61482e-01,4.21046e-01,-6.10242e-02,-2.61380e-01,
1.05340e-01,2.69511e-01,-4.66287e-01,-1.35598e-01,6.82057e-02,4.63083e-02,-3.09102e-01,-2.25798e-01,2.86868e-01,4.59200e-01,-3.71867e-03,3.94463e-01,1.45702e-01,-1.32702e-01,1.50754e-01,-2.80408e-01,3.41893e-01,-2.63489e-01,-2.99863e-01,2.35815e-01,2.79817e-02,7.71301e-01,4.74465e-02,-6.57450e-01,2.25820e-01,
-3.26922e-01,1.88401e-01,-8.47554e-02,3.22764e-01,-1.55556e-01,-1.66042e-01,2.38190e-01,-2.64696e-01,-3.03378e-01,1.61358e-01,-1.86042e-01,-2.08231e-01,-7.29354e-02,-3.10682e-01,-1.68882e-01,-8.68728e-02,2.24167e-01,-2.78659e-01,-5.95707e-02,-3.27132e-01,-9.55783e-02,-2.09268e-01,-3.00076e-01,-1.51228e-01,1.04165e-01,
-1.90353e-01,2.50133e-01,1.45829e-01,1.60743e-01,1.87228e-01,6.01232e-02,1.46780e-01,-3.33601e-02,3.98026e-01,2.70115e-01,2.52165e-01,-2.02907e-01,1.02825e-01,-1.53131e-02,9.07711e-02,9.67111e-02,5.75779e-02,-1.88820e-01,7.51268e-02,-2.16677e-01,2.56137e-01,-6.14708e-01,3.80660e-01,-1.40908e-01,2.22104e-01,
1.13791e-01,-3.15621e-01,1.35550e-01,-2.88466e-01,-2.36352e-01,-1.37500e-02,7.17911e-02,1.95867e-01,-1.11192e-01,-2.13257e-01,2.61017e-01,2.84107e-01,2.13433e-01,-1.75650e-01,1.22311e-01,-5.32435e-02,-1.37884e-02,-1.91426e-01,-9.22998e-02,3.32068e-01,-3.14602e-01,-1.67634e-01,-2.65315e-01,-2.49505e-01,1.52721e-02,
-6.80652e-02,-1.71284e-01,-1.46527e-01,1.15227e-02,-4.17425e-02,2.21805e-01,-3.39679e-01,2.12575e-01,-3.12987e-02,1.80024e-01,1.17675e-01,-3.78335e-02,-5.33940e-01,2.94686e-01,3.00525e-01,-2.45719e-01,-1.22330e+00,2.80080e-01,-2.73022e-01,2.78002e-01,-5.13821e-01,-1.34501e+00,-1.30384e-01,-2.32538e-01,-1.95060e-01,
2.44458e-01,-1.01265e-01,-8.52705e-02,3.04825e-01,2.92193e-01,6.39395e-02,-3.28257e-01,1.29080e-01,-4.62586e-02,-3.69446e-01,-3.13094e-01,-3.30516e-01,2.06318e-01,1.63136e-02,7.04274e-02,2.23647e-01,-3.35971e-01,-2.20881e-01,-2.01741e-01,-9.63354e-02,1.79584e-01,-1.61702e-01,9.21381e-02,1.04549e-01,8.58954e-02,
1.72084e-01,-2.88125e-01,-7.50551e-02,3.18664e-01,-2.24180e-01,-3.64882e-02,-4.40938e-02,1.58118e-01,8.90567e-02,-2.52417e-01,-3.30210e-01,2.80283e-01,-3.53681e-02,2.11960e-01,-4.43207e-02,-2.08109e-02,1.70534e-01,2.14908e-01,-1.22456e-01,1.10598e-02,2.95023e-01,6.83685e-01,-1.32051e-02,-2.43648e-01,4.50968e-02,
9.93128e-02,-2.84836e-01,2.01975e-02,1.30846e-01,-2.25759e-01,-2.14025e-01,-1.50187e-01,5.70555e-02,-3.24437e-01,-7.87712e-02,2.03782e-01,4.96941e-02,1.07421e-01,3.37816e-01,-1.18172e-01,-1.53340e-01,-1.31279e-01,4.04399e-02,-2.79486e-01,1.48107e-01,-3.39848e-02,-2.58602e-01,-2.57805e-01,1.90341e-01,-3.44896e-01,
-7.37880e-02,
1.13036e-01,
-1.87161e-01,
3.28404e-01,
-2.88423e-01,
-8.45723e-02,
-3.04461e-01,
1.92059e-01,
-2.77302e-01,
-2.88771e-01,
2.32124e-01,
-7.57459e-02,
-3.18002e-02,
-2.02848e-01,
3.66800e-01,
-6.97204e-02,
1.16209e-01,
-7.91561e-02,
7.00797e-02,
-1.51415e-01,
-2.74914e-01,
1.19675e-01,
-1.92027e-01,
1.08009e-01,
-2.58931e-01,
-1.71428e-01,-1.38613e-01,7.71353e-02,1.26595e-02,-3.33548e-01,3.76400e-01,-6.17589e-02,-6.12113e-02,3.37448e-01,1.60628e-01,1.50757e-01,4.22073e-01,1.88559e-01,-3.85236e-02,-9.51154e-02,-3.21031e-01,7.95832e-02,1.65177e-01,-3.52256e-01,3.54717e-01,-1.55363e-01,-9.89099e-02,-3.07919e-01,-3.41876e-01,-2.52179e-01,
1.24985e-01,3.08975e-02,6.40503e-02,-6.78371e-02,-2.87164e-01,-1.94349e-01,-2.16083e-01,2.56829e-01,3.60673e-01,4.31372e-01,-2.41949e-01,1.38207e-01,-5.75361e-03,-3.78903e-01,1.08592e-01,-5.50538e-02,1.07063e-01,1.51993e-01,4.30043e-01,1.08706e-01,3.28595e-01,1.15806e-02,7.95586e-02,-3.67015e-01,4.09319e-01,
8.29836e-02,4.52534e-02,-8.45482e-02,1.30560e-01,-3.57861e-01,3.15322e-01,3.03166e-01,1.52459e-01,-3.20476e-01,2.58723e-01,-2.09541e-01,2.13500e-01,-1.19431e-01,-9.88863e-02,4.52662e-01,2.78368e-01,2.40367e-01,5.12130e-02,3.19591e-01,2.18668e-01,3.58121e-01,5.61223e-02,3.63014e-01,-1.96331e-01,3.05040e-01,
2.85934e-01,6.45808e-02,4.27504e-01,-1.47247e-01,-3.24244e-01,3.23904e-01,2.13481e-01,-1.27050e-01,1.79403e-01,6.64770e-01,-3.87003e-01,4.00511e-02,3.42618e-01,-2.01119e-01,-1.18310e-01,-9.45064e-02,-2.19226e-01,3.56997e-01,-1.68152e-01,-1.44731e-01,5.55430e-01,9.54260e-02,3.31213e-01,-5.61151e-01,-5.63303e-02,
-1.02951e-02,1.06171e-01,-1.70609e-02,-2.21509e-01,1.45953e-01,2.77539e-01,-2.04336e-01,1.01836e+00,-1.42465e-01,1.78193e-01,1.06482e-01,-1.40952e-02,-5.87372e-01,3.98948e-01,-1.20855e-01,-2.42070e-01,4.46188e-01,-1.77213e-01,-4.36094e-01,1.55176e-01,5.51237e-01,3.34463e-02,1.23980e-01,-3.70074e-01,-5.94369e-02,
-3.61518e-01,
-1.40398e-01,
-5.48819e-01,
3.55027e-01,
-1.37649e-01,
