// Neural Network File Format by Kyle Julian, Stanford 2016
6,3,5,25,
3,25,25,25,25,25,5,
0,
-56000.000000,-56000.000000,-3.141593
56000.000000,56000.000000,3.141593
-278.628049,0.000000,0.000000,-0.242819
112000.000000,112000.000000,6.283185,17.479225
1.63865e+00,-5.02580e-01,1.27777e-01,
-3.51166e-01,7.42786e-01,8.43980e-01,
-3.51391e-02,-2.27969e-01,-1.80463e-02,
-3.48573e-01,-1.85452e+00,-4.20346e-01,
-7.24893e-01,6.73484e-01,-7.83227e-01,
2.29906e-01,7.43520e-01,4.10861e-05,
-1.21211e-01,-2.52414e-01,-2.38928e-01,
-1.25557e-01,-4.18121e-01,-1.98610e-01,
8.73269e-01,-2.67777e-01,4.76958e-01,
-8.08085e-01,-1.28774e+00,4.15514e-01,
3.11402e-01,2.85382e-01,-3.07458e-01,
-2.86782e-01,8.12749e-01,7.52512e-01,
2.91615e-01,6.15242e-02,-6.98556e-01,
-6.14623e-01,-1.04991e+00,-2.28319e-01,
-7.35511e-01,-1.71313e+00,1.32725e-01,
1.47786e+00,-1.15227e+00,-8.63880e-03,
-1.29492e+00,-1.37940e+00,-8.17531e-02,
1.18375e+00,-8.10968e-01,-8.89085e-02,
-3.05472e-01,9.82081e-02,-1.98342e-01,
3.62176e-02,1.68963e+00,1.09932e-01,
-5.00199e-01,7.92399e-01,2.64381e-01,
-1.40831e-01,-4.02810e-01,-1.51766e-02,
-1.26992e-02,1.40583e+00,3.56298e-01,
1.28178e+00,3.82353e-01,1.49717e-01,
-1.46379e+00,-1.76226e+00,2.46883e-02,
2.11985e-01,
5.20637e-02,
-1.37586e-01,
6.12392e-02,
1.23129e-01,
1.13236e-01,
-3.20780e-01,
-3.38638e-01,
-1.97347e-01,
3.08104e-02,
1.83750e-01,
-4.55188e-03,
-1.77331e-01,
-1.42694e-01,
3.07474e-02,
-4.01015e-03,
-5.23073e-02,
-3.33824e-02,
2.51798e-01,
1.99992e-02,
1.80463e-01,
-2.32965e-01,
4.11065e-02,
-6.35791e-02,
3.80990e-03,
2.61537e-01,6.39524e-02,1.74845e-01,-2.38386e-01,1.01890e-01,-1.43163e-01,-1.49043e-01,-7.85228e-02,2.44071e-01,5.54525e-03,2.57795e-01,-5.24248e-02,1.60424e-01,6.08143e-02,-2.23748e-01,-4.22007e-02,-9.28049e-02,-1.05745e-01,-2.66813e-01,1.75052e-01,-2.89459e-01,-4.04629e-02,-2.51191e-01,-3.12747e-01,1.47573e-01,
-3.39114e-01,-6.40290e-03,2.41353e-01,-4.14518e-01,-2.64531e-01,3.91206e-01,1.06897e-01,-2.22764e-01,-3.13818e-01,6.74502e-02,3.33479e-01,6.33988e-02,3.76441e-01,6.27990e-01,-8.48494e-03,1.48030e-01,3.05200e-02,1.84298e-01,3.54364e-01,-1.46929e-01,3.27249e-01,-2.39647e-01,2.52261e-01,-2.44342e-01,1.18909e-01,
-7.26722e-02,1.75355e-01,2.64481e-01,2.72539e-01,-2.74365e-01,-3.20276e-01,-2.68437e-01,-1.58984e-01,1.13826e-02,-1.62660e-01,1.78681e-01,-1.47615e-01,-3.48747e-01,-1.79949e-01,-5.69489e-02,-2.86213e-01,-2.75381e-01,-1.49898e-01,-2.28316e-01,2.22900e-01,-2.41519e-01,-1.22269e-01,-2.68679e-01,1.07338e-02,-3.23984e-01,
-1.87784e-01,3.46181e-01,-6.65748e-02,6.29097e-02,-3.35341e-02,3.85133e-02,-2.88282e-01,8.87353e-02,2.48014e-01,-5.87691e-01,-2.34186e-01,6.12879e-02,2.82747e-01,-1.07157e+00,1.78796e-01,2.27551e-01,-6.35096e-01,-4.99510e-01,8.91542e-02,-3.83756e-01,4.23417e-04,-2.39852e-01,1.08257e-01,1.38880e-01,2.72556e-01,
1.10623e-02,-1.91500e-01,-2.08392e-01,1.21566e-01,2.28357e-01,1.53907e-01,-1.23424e-01,1.55062e-01,-2.31756e-01,-2.60307e-01,-1.42796e-01,3.15543e-01,-9.78510e-02,-8.50341e-02,6.94262e-03,-1.26851e-01,-3.27494e-01,2.45472e-01,-3.35703e-01,1.51342e-01,-3.15854e-01,2.08449e-01,-3.53116e-03,-2.87963e-01,1.04396e-01,
-4.13107e-01,3.90956e-01,-3.45134e-01,-4.76879e-01,1.48655e-01,-1.59643e-01,2.54121e-01,-3.43177e-01,-2.46646e-01,1.49751e-02,7.54089e-02,-2.70055e-01,5.67575e-02,-1.28390e-02,1.77160e-01,8.34163e-01,4.99633e-01,-2.41567e-02,-1.59057e-01,-1.66236e-02,3.90188e-01,-7.80804e-02,-1.89596e-01,-1.73069e-01,4.55324e-01,
-3.81903e-02,-9.28635e-01,-6.79518e-02,1.64285e-01,-4.84101e-02,-2.33611e-01,-1.27828e-01,4.26520e-02,1.17322e-01,1.87350e-01,2.25030e-01,7.14429e-01,-4.55493e-01,-1.06886e-01,1.06338e-01,5.13866e-01,2.95333e-01,-1.10854e-02,3.96438e-01,-4.50237e-02,-4.54534e-01,-2.18512e-01,-5.81917e-01,-4.23166e-01,3.32053e-01,
1.50946e-01,5.80914e-01,-1.22313e-01,-2.98443e-01,-5.18128e-01,2.96988e-01,3.43511e-01,2.62387e-01,-1.04980e+00,-1.31988e-01,3.62858e-01,-2.72395e-01,4.85915e-01,2.84154e-01,-5.67977e-01,1.50375e-01,6.69771e-01,1.45865e-01,2.58109e-01,1.22017e-01,-1.83563e-01,2.36029e-01,6.65879e-01,-5.98072e-01,6.00730e-01,
1.40663e-01,3.39823e-01,1.91400e-01,-1.29895e-01,9.64915e-02,1.15887e-01,-8.73787e-02,-3.05147e-01,-1.93745e-01,-2.57426e-02,8.97914e-02,1.58271e-01,3.18758e-01,2.57244e-01,2.67704e-01,-1.05445e+00,5.54362e-01,2.61555e-01,1.78679e-01,-2.14503e-01,-1.30035e-01,9.10941e-03,-2.09279e-01,2.39023e-01,-8.49480e-01,
3.30056e-01,2.17590e-02,1.21129e-01,4.90166e-02,2.74014e-01,7.08045e-02,-2.94552e-01,-1.27583e-01,-2.05930e-01,1.94613e-01,-2.75005e-01,-3.54428e-01,4.32749e-01,-1.24248e-01,1.98073e-01,-1.50412e-01,-5.97544e-01,1.34472e-01,-3.65123e-01,1.13506e-01,-2.75248e-01,2.96097e-01,1.13242e-01,-5.30388e-01,-6.43291e-01,
-3.34955e-01,-3.04030e-01,-7.37015e-02,1.82709e-01,3.83759e-01,5.91601e-02,-2.12294e-01,-3.45915e-01,2.40457e-01,-7.01209e-01,-1.46562e-01,2.46432e-01,3.20849e-01,-8.98841e-01,-3.70461e-01,-1.05352e+00,-1.32860e+00,-7.08649e-02,1.01188e-01,1.77860e-01,-4.88071e-02,1.09240e-01,2.52129e-02,-1.05199e-01,6.67930e-02,
4.31601e-01,-9.87316e-02,-1.45805e-01,-5.17914e-02,-1.81646e-01,-3.33361e-01,-1.64550e-01,-2.89732e-02,-1.40513e-02,-4.94246e-01,1.82225e-01,2.15400e-01,-2.50626e-01,-7.18168e-01,-4.23304e-01,-4.62879e-01,1.14913e+00,-2.55113e-01,-2.97824e-01,-2.32801e-01,-2.79700e-01,-1.77865e-01,1.20418e-01,1.16393e-01,7.73833e-02,
-4.68967e-01,2.10985e-01,-6.17084e-03,-3.16597e-01,2.90906e-02,-3.69441e-01,2.94092e-01,3.28109e-01,1.62497e-01,-5.59654e-02,-1.95691e-01,-6.47827e-02,6.35873e-02,-2.21660e-01,-1.65632e-02,1.54643e-01,-8.52318e-01,-2.19714e-01,1.56798e-02,3.15139e-02,-3.03671e-02,2.88927e-01,-2.92634e-01,-3.54335e-01,-1.49321e-01,
-2.13523e-01,-3.67563e-01,9.30581e-02,8.24669e-02,1.20121e-01,1.19868e-01,2.28336e-01,-9.32762e-03,-1.15137e-01,1.33879e-01,-3.31102e-01,7.85701e-02,-1.52384e-01,-3.71677e-01,-6.24478e-01,7.95269e-01,1.44828e-01,-3.80298e-01,-1.47039e-01,3.97435e-01,-2.24663e-01,3.10255e-01,1.10091e-01,-1.06752e-01,7.82936e-01,
-1.09545e-01,1.99895e-01,-1.53749e-01,1.41302e-01,3.49480e-01,3.96196e-03,-7.14902e-02,9.81888e-02,3.90217e-01,5.39226e-01,-6.47358e-02,9.46306e-02,3.48510e-02,-8.81002e-01,9.49850e-02,-9.31919e-01,-5.52718e-01,7.32708e-01,1.27224e-01,-3.40348e-01,-1.00153e-01,-2.06642e-02,-1.55401e-01,3.08558e-01,-4.29300e-01,
-3.77989e-02,5.91415e-02,-4.46906e-02,-1.84156e-02,2.64794e-01,1.82123e-01,-1.78390e-01,2.47202e-02,3.60364e-02,-2.87394e-01,9.89689e-02,3.74507e-01,-1.19338e-02,-1.82740e-01,1.25143e-01,9.97485e-02,-3.44908e-01,-7.13761e-01,2.07960e-02,-3.99980e-01,-1.20006e-01,-3.00282e-01,-5.19604e-01,6.39205e-01,4.28472e-01,
2.29471e-01,-4.77833e-01,2.29182e-01,3.32860e-01,3.31643e-01,1.71991e-01,-7.20682e-02,1.09326e-01,4.31386e-01,3.38504e-01,1.61003e-01,9.73828e-01,-4.65151e-02,3.27204e-01,2.38745e-01,-2.29432e-01,-4.51958e-01,1.23393e-01,-6.63789e-02,-1.16655e-01,-2.99022e-01,-1.40561e-01,-3.84931e-01,-5.54807e-01,3.09396e-01,
2.80828e-01,-3.26090e-01,-1.66199e-01,2.20801e-01,8.61408e-02,2.34804e-01,-1.37623e-01,-1.11149e-01,1.54133e-01,-2.91534e-01,-6.74987e-02,4.10290e-01,-1.92432e-01,-1.29968e+00,1.11908e-01,-7.42025e-01,1.46000e-01,1.09649e-01,5.96973e-02,-3.15206e-01,-2.41846e-01,3.24853e-01,3.10566e-02,-2.09976e-01,-4.95586e-01,
4.16399e-02,2.46044e-01,1.68714e-01,-2.17689e-01,4.78118e-02,-1.39802e-01,-1.46615e-01,3.32530e-01,-2.00182e-01,-1.85224e-02,-9.62013e-02,5.24837e-02,3.63118e-01,2.56698e-01,3.64593e-01,2.44516e-02,4.64172e-01,1.37937e-01,1.05988e-01,-1.15431e+00,3.67513e-01,1.26925e-01,-1.36624e-01,1.52482e-02,1.10353e-01,
7.45107e-02,2.30802e-01,-2.44237e-01,3.04320e-01,1.79846e-01,-3.46030e-01,2.44894e-01,-3.33995e-01,-2.82513e-01,-2.35128e-01,1.83940e-02,-2.04385e-01,1.80316e-01,-1.09961e-01,-3.35598e-02,8.67936e-02,1.65265e-01,-1.33356e-01,-1.27898e-01,1.43390e-01,-2.22665e-01,1.20970e-01,3.04516e-01,1.25447e-03,-2.08112e-01,
-2.87519e-01,-7.87823e-01,-3.28104e-01,1.80396e-01,5.22045e-01,4.23991e-02,-6.88028e-03,-4.90516e-02,-2.14243e-01,2.57605e-01,3.35206e-01,9.14597e-01,-6.16666e-03,1.69714e-02,-9.97993e-02,6.84717e-01,-5.89664e-01,-7.25084e-01,-1.99345e-01,2.27989e-01,-1.01266e-01,1.93321e-01,-3.10899e-01,2.22812e-01,7.50754e-01,
-2.62870e-01,1.90216e-01,-2.74513e-01,-1.03049e-01,7.68124e-02,-9.47249e-02,-7.04545e-02,2.91267e-01,1.39683e-01,-8.86647e-02,-2.47367e-01,-1.40836e-01,-2.24177e-02,2.77746e-01,-5.94878e-02,-1.77527e-01,9.92763e-02,-8.27006e-02,-3.31341e-01,-2.41299e-01,-3.60888e-02,1.33653e-01,9.11954e-02,7.10166e-02,1.76477e-01,
1.18609e-01,-3.54034e-01,2.97206e-01,-1.71559e-01,-8.09421e-03,2.72108e-01,-5.78929e-02,-2.91058e-02,-5.47682e-01,-1.31357e-01,1.10752e-01,3.09428e-01,-1.67181e-01,2.70593e-02,-3.56121e-01,4.68378e-01,7.12208e-01,3.91903e-03,1.23564e-01,3.19465e-01,2.87217e-01,-1.08661e-01,-9.68495e-02,-8.81513e-02,4.44021e-01,
4.05094e-01,2.83950e-01,3.45169e-02,-2.61640e-01,-3.05603e-01,-1.88854e-01,1.09575e-01,1.82377e-01,4.39720e-01,-4.18558e-01,-1.13372e-01,2.67970e-01,1.38411e-01,-4.55760e-02,9.72299e-02,-3.33262e-02,2.80871e-01,-8.92563e-01,-2.93335e-01,-9.89436e-02,2.26965e-01,3.44702e-01,-4.05607e-01,1.71976e-01,-2.52698e-01,
-2.37459e-01,9.16428e-02,-2.85088e-01,-1.15749e-01,-9.34480e-02,-2.31474e-01,-1.51780e-01,-2.34110e-01,-8.26446e-02,1.25704e-01,1.64453e-01,-1.85514e-01,-1.60015e-01,1.76943e-01,2.30687e-01,-1.95891e-01,-2.20088e-01,-2.00915e-01,-2.31970e-01,7.21563e-02,-2.87636e-01,2.77657e-01,-3.27249e-01,-3.27253e-01,-1.46150e-01,
-1.98301e-01,
-6.91011e-02,
7.59293e-02,
1.60161e-01,
-4.75648e-02,
9.31379e-02,
-1.40448e-01,
-2.40171e-03,
3.68112e-02,
1.35321e-01,
-1.56672e-01,
1.94570e-01,
1.85370e-01,
2.61501e-01,
8.02005e-02,
6.02391e-02,
-3.07156e-02,
1.34092e-01,
-2.21205e-01,
-2.95593e-01,
-1.88405e-03,
-1.65074e-01,
1.10980e-01,
-2.64405e-01,
-2.31611e-01,
-2.18339e-01,6.41411e-02,2.54516e-01,-3.33890e-01,3.04808e-01,1.22524e-01,1.36415e-01,-2.65169e-02,-2.23378e-01,-2.31626e-01,1.76187e-01,-3.17616e-02,-1.44160e-01,-2.22379e-01,3.60876e-01,-7.99013e-02,2.06164e-02,2.29137e-01,3.56614e-02,3.38235e-01,-7.29933e-02,-9.70443e-02,-2.70954e-01,-1.72188e-01,1.03932e-01,
2.73376e-01,2.67143e-01,-1.75446e-01,-1.63272e-01,1.45091e-01,1.10723e-02,3.50009e-01,1.33559e-01,3.46170e-01,-5.63820e-02,-2.82846e-01,1.75471e-01,2.64011e-01,-6.34172e-02,-2.16063e-01,2.72783e-02,-3.84545e-01,-3.61866e-02,-1.70638e-01,-9.49917e-02,1.93794e-01,-1.10140e-02,-4.16552e-02,2.08328e-02,-3.27500e-01,
5.41353e-02,-2.30984e-01,-4.56441e-02,-1.71895e-01,-7.95421e-03,3.04283e-02,-1.53513e-01,1.12372e-01,-3.40323e-02,2.61339e-01,4.11150e-02,2.04131e-01,-1.68134e-01,7.84521e-02,4.15325e-01,9.70175e-02,1.38198e-01,2.19344e-01,-1.26774e-01,-1.04501e-01,-6.21169e-03,-1.37831e-01,1.96122e-01,3.26982e-01,1.72984e-01,
2.18867e-01,1.58575e-01,-2.22350e-01,9.38905e-02,-2.03602e-01,-1.33061e-01,5.17026e-02,-5.38696e-02,2.17863e-01,1.27578e-01,-5.25161e-01,-1.71850e-01,5.11326e-01,-2.12636e-01,4.01214e-01,-3.25802e-01,-9.76905e-02,9.06770e-02,-7.99752e-01,-5.09402e-02,1.89707e-01,-2.96966e-01,-7.83964e-02,6.47370e-01,-2.21454e-01,
-5.11764e-03,3.68920e-01,-2.93382e-01,1.79635e-01,2.05959e-01,5.82911e-01,-1.46414e-01,-5.18343e-01,7.85139e-02,-3.37273e-01,-1.12138e+00,-1.78999e-01,3.93402e-01,-2.02926e-02,1.49256e-01,3.96948e-01,3.57235e-01,3.39112e-01,-2.07293e-01,2.05433e-01,3.11338e-02,-2.17726e-01,-3.28401e-01,-1.92085e-01,-2.27283e-01,
-4.12671e-02,-3.53250e-01,-3.31194e-01,5.33078e-02,-2.26429e-01,2.33245e-01,1.83263e-01,2.84661e-01,-6.05035e-03,7.60172e-02,-3.13405e-01,-3.29102e-02,2.36138e-01,-5.27589e-02,-1.34907e-01,-2.66609e-01,-2.60385e-01,1.21040e-01,-3.04335e-01,-9.67086e-02,2.97246e-01,2.60089e-02,-2.51956e-01,1.39893e-01,-8.41788e-02,
3.12674e-01,-5.50916e-01,1.50410e-01,3.64553e-01,-1.30117e-01,2.10801e-01,4.24490e-01,2.27784e-01,-5.10175e-02,4.32717e-01,2.75337e-01,4.26258e-01,-2.22320e-01,9.76986e-03,2.37738e-02,1.77470e-02,-3.93742e-01,-1.29818e-01,2.78237e-01,1.41791e-01,-7.40387e-01,7.33694e-03,-1.24486e-01,-1.14807e-01,2.87291e-01,
8.25675e-02,-2.35987e-01,-2.52712e-01,7.91296e-02,1.81083e-02,6.52555e-02,-3.91341e-01,-1.02062e-01,1.28088e-01,-6.41389e-02,8.84733e-02,-1.30809e-01,-3.91156e-01,-3.88825e-01,-2.21620e-01,1.92333e-01,-2.93102e-01,-1.91029e-01,-1.82736e+00,3.32854e-01,4.07577e-01,1.07283e-01,-2.20518e-01,2.72835e-01,2.15799e-01,
8.18988e-02,1.18955e-01,-2.95663e-01,1.73258e-01,-4.82257e-02,-4.42893e-02,-2.29281e-01,-9.77969e-02,1.19300e-01,1.67868e-01,-2.56128e-01,8.89405e-02,2.12792e-02,8.62890e-02,1.00776e-01,-2.68435e-01,2.62953e-01,-3.59903e-01,3.47855e-02,-2.41664e-01,-5.38542e-02,9.52286e-02,1.04114e-01,1.69987e-01,6.13419e-02,
2.60207e-01,-2.06397e-02,-1.60617e-01,-2.74107e-01,-2.17623e-02,-1.10913e-01,2.43377e-01,-3.05334e-01,-1.21216e-01,-2.38041e-01,6.59258e-02,-1.47639e-01,-1.08758e-01,-2.49582e-02,1.89211e-01,-2.85078e-01,1.81566e-01,-9.14423e-02,-2.44071e-01,1.03258e-01,-1.75801e-01,3.03566e-01,-2.45416e-01,3.44069e-01,2.28811e-01,
-1.38540e-01,2.09760e-01,2.90422e-01,-1.67064e-01,-2.45387e-01,4.03702e-02,3.73701e-03,3.78549e-01,8.89355e-02,-3.32626e-01,7.83241e-02,1.95039e-01,7.18739e-01,-4.83213e-03,-4.19838e-01,-3.04296e-01,1.87152e-01,-1.96381e-01,-2.03835e-01,-1.74756e-01,-7.88350e-01,-1.81063e-01,6.48163e-02,1.82538e-01,-1.44663e-01,
1.76738e-01,-2.68062e-01,1.76742e-01,7.87126e-02,3.44339e-01,-7.67873e-01,-2.03157e-02,-2.11619e-01,1.21782e-01,-7.87063e-02,8.88029e-02,1.74058e-01,-7.28034e-04,-3.40039e-01,2.94354e-01,1.91849e-01,2.64220e-01,3.15247e-01,3.31073e-01,1.28914e-01,-5.04395e-01,-6.04298e-02,-2.02952e-01,3.63661e-02,-1.03785e-01,
-4.07197e-02,-1.24764e-01,3.28074e-01,-1.31070e-01,-1.79624e-01,-2.13694e-02,-7.31005e-02,3.18904e-01,2.13639e-01,3.11109e-01,2.30268e-01,-2.08005e-01,2.60210e-01,-1.79034e-01,3.42695e-01,2.34200e-01,-2.39327e-01,-5.09846e-02,-8.66314e-02,-2.80288e-02,-2.78905e-01,2.65814e-01,-1.80105e-01,-3.40281e-01,3.86908e-02,
-1.24052e-01,-4.54176e-02,-3.12239e-01,-6.41122e-02,-3.91690e-02,-3.20048e-01,4.20614e-03,-3.81559e-02,-2.94304e-01,-1.27084e-04,9.20745e-02,-3.22876e-01,1.86355e-01,-1.45338e-01,1.36409e-01,1.88286e-01,3.16739e-02,-2.76992e-01,2.19310e-01,-3.82984e-02,-3.10240e-01,-1.07955e-01,2.34803e-01,-1.12411e-02,-1.24247e-01,
-8.95300e-02,-1.33674e-02,1.77111e-01,-2.29981e-01,2.49104e-01,-3.28097e-01,5.29882e-02,-2.71648e-01,-5.79629e-02,-9.84400e-02,-1.20189e-01,3.22823e-01,-4.82798e-02,-8.36990e-02,7.75933e-04,-2.85424e-01,1.04059e-01,-2.50627e-01,-1.20275e-01,2.57655e-01,-2.90218e-01,-2.49776e-01,-1.17168e-02,-2.90129e-01,-1.41108e-01,
-1.22867e-01,3.56099e-01,7.99261e-02,-3.33839e-01,-4.51740e-02,1.16132e-01,-7.17371e-01,3.73330e-01,-9.97476e-02,4.61114e-01,-5.77120e-01,-1.65309e-01,1.90935e-01,-2.30431e-01,1.91628e-01,-2.62893e-01,1.05273e-01,5.11773e-02,-1.37402e-01,2.25849e-01,-3.14642e-01,-2.46982e-01,-2.54245e-01,-1.66201e-01,-7.57144e-02,
1.92308e-01,2.18699e-01,2.94110e-01,-2.10003e-01,2.39573e-01,1.92100e-03,2.72505e-01,-1.39896e-01,-3.29977e-01,1.44280e-01,1.55621e-01,4.53524e-02,-5.81680e-01,-2.05673e-01,4.16478e-02,2.15613e-01,-2.92618e-01,-3.64305e-02,-3.39101e-02,2.39074e-01,-1.63237e-02,-1.62760e-01,-3.19200e-01,2.52066e-01,9.09195e-02,
-2.14830e-02,3.31497e-01,-1.14453e-01,1.50761e-01,-1.21152e-01,3.24332e-01,-3.01690e+00,1.69352e-01,3.87961e-01,-7.99549e-02,-6.22557e-02,-1.64492e-01,5.52957e-01,-1.69249e-01,2.98096e-01,1.95574e-01,-3.17834e-01,-3.12250e-01,-6.02438e-01,-2.32782e-01,4.03592e-01,-3.33306e-01,-2.31422e-01,-4.63792e-01,2.37743e-01,
1.68183e-02,-1.87337e-01,-1.10806e-02,2.20695e-01,2.02483e-03,2.21901e-01,-3.17265e-01,8.54837e-02,-1.87795e-01,2.87295e-01,2.55265e-01,2.61508e-01,8.74874e-02,1.00072e-01,-1.68659e-01,1.62608e-01,3.36549e-01,2.80725e-01,-2.02903e-01,3.08287e-01,3.85385e-03,2.77750e-01,-7.10528e-02,-9.32685e-02,-3.94568e-02,
2.91056e-01,5.67193e-02,1.18237e-01,-4.72179e-02,-2.15932e-01,1.44074e-01,8.22156e-02,-5.68581e-02,-4.60317e-01,4.51231e-01,5.12315e-01,2.45111e-01,1.43727e-01,-3.92366e-01,-2.73740e-01,-6.67735e-02,1.41975e-01,4.79935e-02,9.62087e-02,3.41255e-01,-7.63893e-02,3.05181e-02,-1.32888e-01,1.29358e-01,2.87720e-02,
3.33156e-02,-2.31314e-01,7.38235e-02,-3.77801e-03,2.13088e-01,-1.81934e-01,3.01634e-01,-1.69788e-01,1.29685e-01,-2.97316e-01,2.79508e-01,-6.16127e-02,-9.32518e-02,-2.33342e-01,8.48140e-02,-1.17215e-01,1.65334e-01,2.05894e-01,-3.10995e-02,1.57094e-01,-3.25015e-01,-2.56324e-02,2.15599e-02,-2.53730e-01,-3.13176e-01,
3.32404e-01,-8.51284e-02,-1.73021e-01,1.33700e-01,-1.64984e-01,-9.56739e-02,5.65940e-02,1.16737e-02,-7.00752e-02,-6.27614e-02,1.52797e-01,-5.09100e-02,9.54563e-02,1.48987e-01,-4.11836e-01,2.21108e-01,-1.87920e-01,2.39888e-01,-4.85664e-02,3.19356e-01,3.95622e-02,2.80518e-01,1.25046e-01,-6.46391e-02,-1.85269e-02,
-3.01729e-01,1.22474e-01,4.10803e-02,1.64765e-01,-1.29937e-01,7.70198e-02,1.45894e-01,4.19426e-01,-1.93175e-01,1.30996e-01,-6.40194e-01,2.02021e-01,1.01045e+00,1.72225e-01,1.68109e-01,-1.77134e-01,-3.57949e-01,-1.55271e-01,-5.42180e-01,7.28279e-02,5.86029e-01,-1.79659e-02,-1.23372e-01,-5.58454e-02,-1.42995e-01,
2.50912e-01,3.16937e-01,-2.67592e-01,3.72787e-02,2.21903e-01,-1.44758e-01,-2.84581e-01,4.56537e-01,-3.02924e-02,-7.71479e-01,1.09148e-01,-4.68513e-03,4.43983e-01,-1.74243e-01,5.59357e-04,-2.67901e-02,-1.94709e-01,5.84825e-02,-1.89419e-01,1.69152e-02,-6.85444e-01,1.31743e-01,3.28678e-01,-7.17381e-01,1.62138e-01,
5.25731e-02,-2.83423e-01,3.39236e-01,3.38123e-01,1.45923e-01,-1.74549e-01,4.01747e-02,-9.54729e-02,-3.41841e-01,-1.31897e-01,3.17697e-01,-5.20488e-02,1.65332e-01,1.43693e-01,-5.69536e-02,2.75882e-01,-3.14491e-01,-2.70974e-01,-3.12816e-01,-1.62234e-01,1.09464e-01,-2.71222e-01,-2.83641e-01,4.76916e-02,8.86029e-02,
2.50236e-01,
1.94789e-01,
-1.33720e-01,
-1.08301e-02,
-3.92430e-02,
-1.21424e-01,
-9.81084e-02,
2.02896e-01,
-1.26618e-02,
-8.51273e-02,
-1.04666e-02,
-1.21974e-02,
-1.95073e-01,
1.24219e-01,
-2.11949e-01,
1.18204e-01,
2.00566e-01,
-6.31232e-02,
-5.39661e-02,
1.54502e-01,
-2.46212e-01,
5.78175e-02,
2.27126e-01,
-1.96020e-01,
-2.89168e-01,
-4.09671e-01,-2.75449e-01,-4.31280e-01,2.06770e-01,3.67180e-01,-7.97917e-02,-9.02164e-02,-2.79475e-01,-1.51289e-01,-3.15028e-01,5.99404e-01,1.51983e+00,-6.03889e-02,1.05202e-01,1.94835e-01,-3.90373e-02,-2.22270e-01,2.49150e-01,-5.55421e-01,2.21478e-01,-9.76877e-02,-2.55412e-01,-3.31769e-02,1.10282e-01,-2.64558e-01,
-8.76733e-02,-3.38046e-02,-3.55805e-01,-3.16679e-02,5.72653e-02,-3.55969e-02,-5.39298e-01,-4.08245e-02,-2.11205e-01,3.93506e-02,5.92795e-01,-6.91491e-01,-2.39702e-01,3.35390e-02,2.46941e-01,2.11023e-01,-2.00801e-01,1.24816e-01,-1.42541e-01,1.73019e-01,1.35129e-01,1.68518e-01,3.23176e-01,-2.15597e-01,-2.23643e-01,
2.28998e-01,1.11069e-01,7.45277e-02,-9.45638e-02,2.23437e-01,-1.00629e-01,-2.22890e-02,-8.53724e-02,2.67038e-01,-3.16390e-01,-1.23713e-01,-1.15076e-01,-1.57385e-01,1.84365e-01,2.56258e-01,1.54403e-01,5.94128e-02,3.03741e-02,1.23239e-01,9.60903e-02,-2.61395e-01,-1.17325e-01,2.00184e-01,7.14049e-02,-4.64113e-02,
2.89950e-02,2.83637e-02,-1.01070e-01,3.40421e-01,-1.88087e-01,2.56132e-02,-9.54098e-02,3.04968e-01,1.82809e-01,-3.42804e-01,-2.37599e-01,-2.33047e-01,2.19457e-01,1.16646e-01,3.16740e-01,-1.53607e-01,1.25199e-01,-2.48704e-01,3.25328e-01,-3.42220e-01,3.10647e-01,1.54738e-01,-1.12452e-01,-4.62012e-02,-2.27152e-01,
1.24285e-01,3.02366e-01,1.35630e-01,4.74466e-01,-2.77758e-01,2.80327e-02,2.01977e-01,-2.33558e-01,1.94431e-01,1.13265e-01,-4.45639e-01,6.55110e-01,4.25656e-02,-1.90901e-01,2.90871e-01,4.09680e-01,-8.80191e-02,-4.03208e-01,-2.63485e-01,-4.33927e-02,3.44460e-01,-3.05118e-01,2.61600e-01,-1.09302e-01,-2.34375e-01,
-9.07061e-02,-5.91090e-02,3.09556e-01,-2.22708e-01,1.56307e-01,1.70546e-01,-1.92589e-01,2.39188e-01,-1.97874e-01,-3.34582e-01,-6.87212e-02,-3.14918e-01,1.60934e-01,2.51333e-02,-1.11422e-01,4.32467e-02,-7.65636e-02,-3.84007e-02,-3.27339e-01,6.64751e-02,-3.83600e-02,2.35818e-01,-2.92245e-01,-2.10298e-01,-1.85541e-02,
1.08487e-01,1.18916e-01,3.33680e-02,-3.41045e-01,2.58437e-01,-3.28279e-01,5.80678e-02,-2.20947e-01,-2.11203e-01,2.34679e-01,1.35939e-01,2.37079e-01,-2.53646e-01,5.97744e-02,-3.22269e-01,1.58921e-02,1.44215e-02,-3.11341e-01,-3.38575e-01,-1.11603e-01,4.78037e-02,-2.57102e-01,2.03177e-01,-8.74677e-02,-2.84883e-01,
-2.96672e-01,1.77602e-02,-1.52548e-01,-6.98971e-02,2.49004e-01,-7.47732e-02,-4.56410e-01,-3.13464e-02,-2.04797e-01,-2.24246e-01,-2.22211e-02,-3.21151e-01,-2.68408e-01,-2.92156e-01,3.29229e-02,-1.85393e-01,5.98499e-02,2.55359e-01,2.25028e-01,1.68550e-01,-1.16594e-02,-9.92049e-02,1.95249e-01,-1.13187e-01,-3.63166e-02,
7.71835e-02,-7.84310e-02,-2.14777e-01,5.47752e-02,-3.28075e-01,2.17483e-01,-1.28465e-01,9.40582e-02,2.11707e-02,2.79814e-01,-1.42777e-01,-1.33281e-01,-1.50569e-01,-1.21872e-01,-3.07851e-01,-1.60357e-01,3.12667e-01,-2.99137e-01,-1.58164e-01,3.16257e-01,7.76817e-02,-3.21273e-02,-3.43834e-01,-2.43333e-02,-2.03464e-01,
-2.23554e-01,2.83803e-01,1.82630e-01,2.28842e-01,4.90592e-01,1.41062e-01,-3.14272e-01,-2.19814e-01,-2.28813e-01,2.18233e-01,-2.73970e-01,2.68009e-01,-1.19959e-01,2.35878e-01,-3.49912e-02,-1.97624e-01,-1.13839e-01,3.85922e-01,-2.29142e-01,-2.21355e-01,1.22824e-01,3.53161e-01,1.58733e-01,6.17539e-03,-9.35758e-02,
-1.94551e-01,-3.43880e-01,-4.05768e-01,7.04079e-02,6.81245e-01,-3.20239e-01,6.20317e-02,-4.27338e-02,-1.67284e-01,3.41552e-01,1.67399e-01,-2.12641e-01,2.04078e-01,-2.29043e-01,1.90836e-02,-2.01892e-01,2.10371e-01,4.52338e-01,1.76207e-01,-4.38162e-02,1.10749e-01,1.78793e-01,9.59013e-02,1.44806e-01,2.03051e-01,
-3.26801e-01,-1.87601e-01,1.56645e-02,-4.66534e-01,3.03349e-01,-2.48606e-01,-5.82817e-01,-5.19486e-01,2.23848e-01,2.96348e-01,9.08877e-01,-5.88287e-01,1.00525e-01,-1.43585e-01,5.81844e-02,-1.28864e-01,2.12387e-01,1.20614e+00,3.25250e-01,4.48745e-01,1.87518e-01,1.23598e-01,-4.01239e-01,-3.25799e-01,2.38247e-01,
1.72746e-01,1.87678e-02,-2.02590e-01,9.53792e-02,-1.66724e-01,2.46274e-01,1.73774e-01,1.30564e-02,-1.75081e-01,3.79406e-02,-1.01576e-01,4.71539e-01,1.19792e-01,-6.22614e-02,6.00001e-02,3.88087e-01,-1.51692e-01,-3.43269e-01,2.00884e-01,1.76012e-01,-9.25384e-02,-4.77749e-02,1.67863e-01,-1.83122e-01,2.76258e-01,
-2.22224e-01,-5.46432e-02,-1.15495e-01,-6.12580e-02,-2.28081e-01,1.14514e-03,8.37576e-02,1.58322e-01,2.39685e-02,-2.84317e-01,-2.11673e-01,-5.31921e-02,-7.53312e-02,-2.05849e-01,-2.45720e-01,-1.90832e-01,1.49543e-01,-3.03322e-01,9.00917e-02,1.03895e-01,3.34620e-01,-2.93059e-01,8.52563e-02,1.92576e-02,4.18377e-02,
-3.00587e-01,2.79821e-01,-1.38543e-01,-1.52020e-01,-1.50576e-01,3.17559e-01,1.68984e-01,9.27009e-02,-1.38067e-01,-2.69512e-02,-2.58284e-01,2.90766e-01,-2.29572e-01,2.24536e-02,1.28674e-01,-2.57992e-01,-1.90464e-01,1.33139e-01,1.18130e-01,2.79093e-01,-1.86970e-01,2.68848e-01,-3.12253e-01,3.09696e-01,9.59608e-02,
-1.38949e-02,-2.07064e-01,-2.39472e-02,2.54749e-01,-2.14330e-01,1.54301e-01,-2.73931e-02,1.99593e-01,-2.63681e-01,-1.21693e-01,1.33391e-01,1.25774e-01,2.62532e-01,-3.47090e-01,1.98864e-01,-3.45674e-01,2.20192e-01,-1.27470e-02,-1.80589e-02,2.15139e-01,-3.08385e-01,-3.77383e-01,-2.59499e-01,-5.27501e-04,-2.62070e-01,
-3.20954e-02,-9.67759e-02,3.30543e-01,5.20194e-02,-2.51963e-01,1.56873e-01,-4.69987e-03,-3.59732e-02,1.61272e-01,1.58173e-01,-2.45233e-01,-4.10859e-01,3.03266e-01,5.47864e-02,2.47343e-01,-3.73177e-01,-1.36227e-01,1.43500e-01,5.24846e-02,1.69125e-01,1.74986e-01,1.76989e-01,-1.65354e-01,2.04709e-01,1.48130e-01,
3.31554e-01,-2.56694e-01,-5.81438e-02,4.34133e-01,3.89277e-01,2.97626e-04,1.83318e-01,-3.25475e-01,1.33849e-01,2.25965e-01,1.68547e-01,-4.65011e-01,-8.02394e-02,1.87775e-01,7.76426e-02,-9.26820e-03,1.47954e-01,-5.33435e-02,5.49339e-02,-3.76300e-01,-1.02791e-01,9.43973e-02,3.03775e-01,4.81863e-03,-1.99934e-01,
-3.23691e-01,-2.83121e-01,9.46419e-02,-2.92675e-01,1.91379e-01,-1.38963e-02,1.08735e-01,-5.85989e-02,-2.91947e-01,2.78535e-02,-5.69241e-02,2.63814e-01,-7.81870e-02,-5.81347e-02,1.67959e-02,2.82290e-02,-1.27365e-01,-2.21805e-01,-2.01086e-01,-1.47243e-01,-4.12937e-02,-1.76027e-01,2.60749e-01,-5.85060e-02,-3.24054e-01,
-1.45489e-01,3.48205e-01,-2.42277e-01,2.47081e-01,5.47615e-01,-2.52787e-01,-3.82090e-01,-1.35435e-01,4.83991e-03,1.96851e-01,-1.72976e-01,5.55649e-01,1.83310e-01,-7.71483e-02,1.43273e-01,-5.29519e-02,6.98749e-02,1.23914e-01,3.19150e-02,1.75205e-01,3.05006e-01,-7.80823e-03,4.18896e-01,8.81251e-02,-2.22844e-01,
2.74319e-01,3.31929e-01,-9.56380e-02,2.50437e-01,-1.84153e-01,-1.41560e-01,-2.40991e-01,3.35029e-01,1.25281e-01,1.69455e-01,-8.69768e-02,3.02537e-01,2.46946e-01,-1.42626e-01,2.82851e-01,-1.86627e-01,2.70486e-01,-3.89351e-02,2.67950e-01,1.77695e-02,-1.59965e-01,-3.32908e-01,-1.75546e-01,1.77227e-01,-2.25413e-01,
-1.66491e-01,-5.87005e-02,-2.28604e-01,2.96724e-01,-1.17015e-01,-1.37662e-01,7.33058e-02,1.70663e-02,6.43638e-02,-2.32580e-01,-5.26522e-02,5.30823e-01,-8.35290e-02,-2.45635e-01,-1.06857e-02,-6.32462e-02,-1.23502e-01,-1.13889e-01,7.73870e-02,1.16405e-01,-2.98305e-01,2.54550e-01,1.31523e-01,-3.01063e-01,-7.93132e-02,
3.83404e-02,2.94852e-01,-2.45298e-01,-3.21321e-01,-4.20026e-03,1.90569e-02,-2.94383e-01,3.06356e-01,-2.81437e-01,1.00282e-01,2.19331e-02,-5.79364e-02,1.50201e-01,-1.90512e-01,3.32934e-01,6.52756e-02,2.16238e-01,-1.87823e-01,1.73057e-01,1.01663e-01,-1.13836e-01,2.09512e-01,-6.25197e-03,1.24938e-01,2.82997e-01,
-1.20861e-01,1.33088e-01,1.80489e-01,3.03080e-02,3.79521e-02,-1.68698e-01,1.34844e-01,2.46042e-01,6.89051e-02,-1.78854e-01,-4.17527e-01,2.66768e-01,8.61936e-02,1.62501e-01,2.92590e-01,1.24546e-01,2.05475e-01,-1.30480e-01,-2.82403e-01,-2.71522e-01,3.00088e-01,-1.75063e-02,-1.21197e-01,1.61093e-01,2.11260e-01,
5.75422e-02,-2.28259e-01,3.53173e-02,-1.65450e-01,-1.08661e-01,-2.14408e-01,3.27865e-01,-2.17876e-01,-1.73880e-01,2.70174e-01,-9.46662e-03,9.48581e-02,2.80085e-01,-2.82836e-01,2.31233e-02,2.63115e-01,3.33829e-01,2.74788e-01,2.58340e-01,2.30410e-01,1.02361e-01,4.20415e-02,-2.11635e-01,1.83706e-01,-3.14044e-01,
1.72056e-01,
-1.04479e-02,
-2.72042e-02,
-1.12859e-01,
2.28464e-01,
-2.46757e-01,
-2.48073e-01,
1.66977e-01,
-2.48409e-01,
4.05920e-02,
1.90578e-01,
1.89877e-01,
-1.38361e-02,
2.19835e-01,
-1.88570e-01,
5.06433e-02,
2.19506e-01,
-6.89673e-02,
-2.73952e-01,
-1.74035e-01,
-2.45328e-01,
2.13284e-01,
1.61939e-01,
2.74867e-01,
-1.71291e-01,
-1.05471e+00,3.05414e-01,-6.43123e-02,1.10593e-01,9.87807e-02,2.75316e-01,-1.20770e-01,-1.98388e-01,-3.18245e-01,-4.12224e-01,-2.12523e-01,-5.61959e-01,-9.50260e-02,2.16723e-01,4.78286e-02,3.39021e-01,-3.50485e-01,3.01443e-01,2.07671e-01,9.13331e-02,-1.60284e-01,-6.81247e-02,-2.43169e-01,-3.21199e-02,1.91064e-01,
3.59455e-01,2.68640e-01,2.09931e-01,1.57858e-01,3.31148e-01,1.23738e-01,1.65556e-02,-2.40911e-01,3.40674e-01,-1.87809e-01,8.38758e-02,3.80257e-01,1.72365e-02,3.96519e-02,-3.66179e-02,3.35254e-01,2.34630e-01,9.21817e-02,-2.27384e-01,-1.37108e-01,-3.35431e-01,-8.69100e-02,7.28993e-02,-1.32682e-01,1.30681e-02,
1.84048e-01,1.12985e-01,-6.21043e-02,5.06034e-02,-2.25832e-01,3.05414e-01,1.33464e-01,1.16351e-01,3.42078e-01,-2.81646e-01,-2.13837e-01,-2.52323e-01,2.30030e-01,1.23363e-01,7.28782e-02,-1.91028e-01,-2.34018e-01,-1.62704e-01,1.65260e-01,2.46946e-01,-3.29915e-01,-1.54774e-01,1.66887e-01,1.87242e-02,2.05937e-01,
-3.43126e-01,1.80367e-01,7.18352e-02,3.11608e-02,-2.51553e-01,9.93001e-02,2.79322e-01,1.62425e-01,3.32297e-01,7.32553e-02,-2.42264e-01,-1.26745e-01,-1.19744e-01,1.92293e-01,2.86527e-01,2.78725e-02,2.36167e-01,6.04791e-02,-2.43054e-01,1.53989e-01,1.22989e-01,1.56110e-01,6.18564e-02,1.21227e-02,-2.64472e-01,
-1.18620e-01,-1.25865e-01,-1.22797e-01,3.21672e-02,2.98581e-02,-6.68225e-03,2.87455e-01,-5.45630e-02,1.90093e-01,-9.53710e-02,2.02075e-01,2.40025e-01,-2.24206e-01,-1.25493e-01,-3.20842e-01,2.55745e-01,5.94801e-02,1.27672e-01,-1.82662e-01,-1.04123e-01,-2.80616e-01,-1.74821e-01,-1.42739e-01,-9.59648e-02,3.13268e-01,
1.04021e-01,-1.59778e-01,-1.41660e-01,7.36461e-02,-1.09082e-02,-2.78320e-01,6.52667e-02,-1.28192e-01,-2.47585e-01,1.48119e-01,8.47704e-02,-1.84950e-01,8.83034e-03,1.06612e-01,-1.82750e-01,-2.83756e-01,3.43007e-01,-2.54452e-02,3.23753e-01,-3.04641e-01,1.83252e-01,-2.51844e-01,-2.72375e-01,2.93139e-01,-2.33650e-01,
-1.23192e-01,3.62484e-01,-1.87772e-01,-2.95303e-01,3.75794e-02,-3.15184e-01,-1.81604e-01,1.58768e-01,2.51187e-01,2.48088e-01,-1.78053e-01,6.08882e-01,-3.19921e-01,5.31485e-02,-1.58353e-01,-1.10602e-02,-7.82503e-02,3.80176e-01,2.15385e-01,4.17860e-01,-2.38730e-02,-3.45294e-01,-2.15304e-01,-1.16125e-01,1.27628e-01,
-1.67737e-01,-3.14646e-01,1.43115e-01,-2.58197e-01,-3.66463e-03,-1.16040e-01,1.55623e-01,-1.38407e-01,-1.96969e-02,3.69399e-03,2.39258e-01,1.21567e-01,-2.18434e-01,-1.03192e-01,2.90895e-01,2.51084e-01,1.10282e-01,-9.94964e-02,1.47087e-01,-1.31421e-01,-2.67610e-03,-6.40202e-02,1.55233e-01,-4.32708e-02,-3.11803e-01,
4.72438e-01,1.01218e-01,-1.50803e-01,9.17134e-02,-3.50046e-02,-2.79940e-01,-1.83580e-01,1.96057e-01,-6.55654e-02,-5.66863e-02,-2.39538e-01,1.17640e-01,-4.61714e-01,-6.47110e-02,-2.49059e-01,7.58672e-02,-7.93519e-02,1.38950e-01,2.05829e-01,1.86505e-01,-5.77029e-02,-9.95637e-02,2.29183e-01,2.32119e-02,3.21838e-01,
-2.77511e-02,-1.74823e-01,-1.97472e-01,-8.90452e-03,2.60982e-01,1.84268e-01,1.45897e-01,-1.16132e-01,8.32281e-02,-7.42545e-02,-1.91483e-01,-2.47693e-02,-2.46950e-01,-1.08429e-01,5.70937e-02,1.19888e-01,-2.59145e-02,2.68372e-01,-3.31815e-01,-7.62689e-02,3.13775e-01,5.07459e-02,5.26578e-02,-3.12229e-02,1.21385e-01,
5.37296e-01,-1.29659e-01,2.58298e-01,5.02109e-02,1.87384e-01,-3.38235e-01,-2.48429e-01,2.29359e-01,1.82613e-01,3.56488e-01,6.94463e-02,-1.79064e-01,4.06491e-02,2.79269e-01,2.64046e-01,-1.86983e-01,-2.47195e-01,3.02880e-01,4.83614e-02,-5.37134e-01,3.14996e-01,2.81174e-01,2.13634e-01,3.70915e-01,2.91479e-01,
-4.08665e-02,-1.00940e-01,4.71820e-02,1.96022e-01,-1.73445e-01,-6.52671e-02,2.04022e-01,-2.19815e-02,-1.01538e-02,2.82232e-01,7.69186e-02,4.11254e-02,1.44732e-01,1.64311e-01,-3.35517e-01,1.48158e-01,-6.11373e-02,1.21409e-01,-1.88925e-01,-4.66639e-01,-2.85184e-01,1.28557e-03,2.84635e-02,2.57106e-01,1.79099e-01,
-2.28441e-01,3.25671e-03,-1.35427e-01,6.82407e-02,-3.00089e-01,-1.96908e-01,-1.42821e-01,-1.18116e-01,3.00328e-01,-1.77253e-01,1.53761e-01,1.77222e-01,3.08621e-01,3.38077e-01,-5.80886e-02,-1.25263e-02,-2.73657e-03,2.72835e-02,1.13862e-01,5.82844e-02,2.57807e-01,-2.05108e-01,1.16521e-01,3.06002e-01,1.32770e-01,
3.81489e-02,-2.88075e-01,-6.64921e-02,-1.62162e-01,1.67277e-01,1.15945e-01,-2.81476e-01,1.18575e-01,1.25199e-01,-1.27472e-01,-6.02128e-02,2.98279e-01,1.15327e-01,4.76422e-02,-1.21735e-01,3.01654e-01,-7.02230e-02,-1.34909e-01,-1.91550e-01,4.62951e-01,-9.10359e-02,2.46422e-01,-1.22549e-01,4.42010e-02,-1.22389e-01,
9.72785e-02,-2.26234e-01,-1.82185e-01,1.75580e-01,2.64778e-01,-3.27180e-01,1.20476e-01,-1.62416e-01,-3.01276e-02,-3.28294e-01,-2.93297e-01,-7.78443e-01,1.98742e-01,1.55925e-01,3.33830e-01,3.27860e-01,3.18282e-02,-1.17923e-01,9.41455e-02,-2.54929e-01,3.15963e-01,1.74574e-01,-7.74091e-02,6.79039e-02,-3.32031e-01,
1.55120e-01,1.31565e-01,-2.44555e-01,-2.48131e-01,-2.00792e-01,2.55218e-01,-1.15705e-01,-2.36960e-01,1.98089e-01,-1.56916e-01,-5.38689e-03,-3.22900e-01,-3.36458e-01,1.12284e-01,1.06171e-01,-2.66493e-01,-1.87836e-01,-1.43091e-01,-2.28210e-01,-1.96306e-01,-2.57929e-01,2.54732e-01,-2.87860e-01,-3.23475e-01,-2.30735e-01,
8.58576e-03,-1.59265e-01,-1.28879e-01,-1.28625e-01,3.25197e-01,1.51216e-01,-1.27186e-01,3.17927e-01,3.19612e-01,-3.68110e-02,2.02628e-01,-1.26688e-01,1.41296e-01,2.70615e-01,1.55978e-01,2.28295e-01,2.87288e-01,-1.18205e-01,-2.21804e-01,-1.47763e-01,4.57326e-02,-2.51291e-01,2.99813e-01,8.78752e-02,-1.89800e-01,
-9.49111e-02,-2.01523e-01,9.89839e-03,7.58829e-02,8.73281e-02,-2.36872e-01,3.16668e-01,-8.10330e-02,-2.74189e-01,-2.91329e-02,-1.72702e-01,-2.56973e-01,1.70258e-01,-5.05003e-02,-2.98418e-01,3.90991e-02,2.92726e-01,2.25602e-01,2.22966e-01,2.69858e-01,-2.28452e-01,-2.22542e-01,2.22136e-01,-5.65701e-02,1.26589e-01,
-9.37145e-02,1.24086e-01,1.23237e-01,-2.82134e-01,-3.63474e-01,-2.52533e-01,1.17995e-01,1.75138e-01,-1.37261e-01,-3.46566e-01,-3.59244e-01,5.05528e-02,-8.11145e-02,-2.07593e-01,2.68488e-01,1.99667e-01,1.43821e-01,1.76150e-01,1.77876e-01,2.56532e-01,-2.68265e-01,9.39566e-02,-2.97466e-01,2.45304e-01,2.87563e-01,
1.72425e-01,2.64960e-02,-3.15265e-01,2.94217e-01,-8.71574e-02,1.12306e-01,-3.07371e-01,7.23706e-02,2.94824e-01,2.00104e-01,3.38307e-01,-6.87569e-04,-4.56228e-02,1.80597e-01,1.36432e-01,2.02790e-01,3.37465e-01,6.14420e-02,-4.88112e-02,-1.25734e-01,-4.57491e-02,-1.28040e-01,-5.78595e-02,-2.77348e-01,-3.40397e-01,
-1.33647e-01,2.80860e-01,-3.18658e-01,-6.84705e-02,-7.38220e-02,3.17563e-01,-3.06145e-01,-1.47810e-01,7.33164e-03,1.09651e-01,9.49898e-03,-2.84380e-02,-8.26880e-03,2.05457e-01,1.67140e-01,-1.58567e-01,-4.05586e-03,-2.02076e-01,7.16924e-02,-2.87840e-01,5.67880e-02,-2.04316e-01,4.86147e-02,-1.48334e-01,3.82958e-02,
-3.30016e-02,-2.35160e-01,-2.22959e-01,-1.66516e-01,-4.51174e-01,3.43110e-01,-2.61518e-01,1.30343e-01,6.91150e-02,-3.97261e-01,-2.30875e-01,2.87935e-01,-1.29698e-01,2.46295e-01,-3.39258e-01,5.96191e-02,-1.10689e-01,-5.86843e-01,-3.28137e-01,8.21652e-01,9.66567e-02,1.02260e-01,-2.57407e-01,-2.28495e-02,4.37408e-02,
-6.25751e-02,2.72501e-01,1.36846e-01,2.31623e-01,-1.23928e-01,-1.15562e-01,1.70883e-01,2.19478e-01,-2.21149e-01,-1.47214e-01,4.74570e-02,2.65831e-01,2.35554e-01,-9.44852e-02,3.01129e-01,2.71175e-01,8.83128e-02,-1.65743e-01,2.65045e-01,-5.08829e-02,-1.19791e-01,2.84629e-01,4.19341e-02,2.10547e-01,3.11682e-01,
-7.88152e-02,2.54242e-01,2.71535e-01,2.86378e-01,1.24367e-01,8.52130e-02,-2.29853e-01,3.01942e-01,9.59020e-02,1.52420e-02,6.53445e-02,-2.91281e-01,2.02076e-01,-9.01545e-02,1.92557e-01,-1.32902e-03,1.10660e-01,-3.57952e-01,2.82416e-01,-2.53037e-01,-2.74911e-01,6.76264e-02,-2.06924e-01,-2.08420e-01,-3.15797e-01,
9.28676e-02,1.46715e-01,8.58389e-02,-2.77711e-01,-3.05401e-01,1.13376e-01,-2.20066e-01,-2.13075e-01,1.01235e-02,4.82412e-05,2.84207e-01,7.94859e-02,1.11451e-01,8.78011e-02,2.84109e-01,2.46103e-01,7.06500e-02,1.29966e-01,-1.81121e-01,-3.11513e-01,3.05365e-01,-3.89999e-01,-1.59604e-02,1.78364e-01,2.67153e-01,
1.54267e-01,
-8.27725e-02,
3.60876e-02,
-3.14216e-01,
-1.52513e-02,
-1.94707e-01,
8.32024e-02,
1.28801e-01,
-4.79713e-02,
1.23561e-01,
-1.23075e-01,
2.27761e-01,
-3.42679e-01,
-3.83508e-02,
-6.66928e-03,
2.85178e-02,
3.21551e-01,
-2.82403e-01,
2.91775e-01,
-3.07707e-01,
3.63138e-02,
2.67209e-01,
2.16914e-01,
3.16770e-01,
2.92402e-01,
2.70401e-01,1.53126e-01,-8.52812e-02,-1.13529e-01,7.91544e-02,8.74448e-02,7.11608e-02,1.50155e-01,-2.51972e-01,-3.19327e-01,-1.78498e-01,-2.80254e-01,-2.97514e-01,-2.62212e-01,-3.13226e-01,1.91667e-01,1.94849e-01,3.49423e-01,1.93598e-01,-4.19429e-01,2.10656e-01,-1.10090e-01,-3.32257e-01,-1.81208e-01,-1.65650e-01,
1.50365e-01,1.93856e-02,5.52050e-03,7.92606e-02,-3.84638e-02,-4.04573e-02,-5.07795e-02,-1.38889e-01,2.13387e-02,-2.10266e-01,-3.05852e-01,2.08315e-01,3.75719e-01,2.03887e-01,-9.32366e-02,-4.42837e-01,-2.56854e-01,-8.73371e-02,-3.47902e-01,2.67681e-01,-3.82921e-01,1.57647e-02,-3.98808e-01,1.67931e-01,8.86263e-02,
1.41493e-01,-1.50272e-01,-8.76998e-02,-2.24214e-01,-4.27361e-01,-3.22047e-01,-9.80492e-02,2.47129e-01,2.00451e-01,2.82567e-01,2.87851e-01,-8.43751e-02,-3.77988e-01,4.49525e-02,-1.32888e-01,-3.24157e-01,-3.44177e-01,-3.37267e-01,-8.95707e-02,-2.54664e-01,-2.91571e-01,1.18989e-01,3.83665e-01,2.33886e-01,1.60083e-02,
4.34303e-02,1.14831e-01,-1.07610e-01,3.57231e-01,-2.55735e-02,-3.24428e-01,-1.68739e-01,2.61491e-01,-1.57904e-02,-2.40882e-01,-2.79647e-01,-9.02187e-02,2.47433e-01,6.22873e-02,7.94111e-02,3.38876e-01,-4.20915e-01,-2.73729e-01,-3.44670e-01,3.83350e-01,-5.68207e-02,-1.49954e-01,-2.60743e-01,-2.19413e-01,-3.70828e-01,
-6.25039e-02,2.80630e-01,-3.21912e-01,-1.83473e-01,-1.32810e-01,-4.28051e-01,1.06823e-01,1.99829e-01,-3.29207e-02,-1.14796e-01,4.40028e-01,2.01369e-01,7.88042e-02,-2.15912e-01,2.74581e-02,3.88754e-01,3.66884e-01,1.61377e-02,2.32652e-02,1.80777e-01,3.94613e-01,6.86642e-02,1.63978e-01,2.62088e-01,-7.43854e-02,
2.52145e-01,
3.30604e-01,
-1.10694e-01,
6.51500e-01,
-5.69643e-01,
