// Neural Network File Format by Kyle Julian, Stanford 2016
6,3,5,25,
3,25,25,25,25,25,5,
0,
-56000.000000,-56000.000000,-3.141593
56000.000000,56000.000000,3.141593
-278.628049,0.000000,0.000000,-0.242819
112000.000000,112000.000000,6.283185,17.479225
3.51042e-01,-1.02860e+00,-5.17662e-01,
3.51727e-01,-9.03390e-01,-5.75279e-01,
2.12676e+00,-2.48583e+00,-7.72664e-02,
8.07301e-02,-6.14646e-02,-2.21889e-01,
-1.22856e+00,-2.19412e+00,2.78581e-03,
1.78216e+00,-2.28239e+00,-2.62443e-01,
-4.87904e-01,-1.11746e+00,-1.91584e-01,
-2.55783e-01,-1.14708e-01,1.98926e-01,
9.01400e-01,6.13492e-01,-4.26040e-01,
1.28778e+00,2.53965e+00,1.39678e-01,
-4.11811e-01,1.08618e+00,-6.76483e-01,
3.14484e-01,-4.82466e-01,6.48647e-01,
1.09896e+00,1.79605e+00,-3.86131e-01,
-2.34928e+00,2.84535e-01,-4.02216e-01,
-1.47976e-01,-1.51466e+00,4.03998e-01,
-2.28621e-01,-1.02428e+00,-6.98597e-01,
-3.00651e+00,2.18837e-01,-2.15244e-01,
7.53882e-01,1.26964e+00,3.77518e-01,
1.74594e+00,-1.82799e+00,1.47017e-01,
1.74084e+00,7.19024e-01,-2.51152e-02,
1.55655e+00,-4.15902e-02,3.17591e-02,
1.78752e-01,-2.78232e-01,1.35642e-01,
1.60048e-01,-2.20266e+00,-5.49581e-01,
-4.98311e-01,7.67060e-01,-1.67542e-01,
-4.99181e-01,-2.38224e+00,-1.76668e-01,
3.04833e-02,
-3.61603e-02,
2.10599e-01,
-2.72084e-01,
-1.11000e-03,
2.40376e-02,
2.23604e-01,
-2.62263e-01,
2.64225e-01,
1.28561e-01,
-1.31252e-01,
-9.27227e-02,
-8.97344e-03,
-4.60168e-03,
-3.03577e-02,
1.12837e-01,
1.27358e-01,
-2.03547e-01,
1.49636e-01,
4.07467e-04,
2.42321e-01,
-2.39374e-01,
5.97957e-03,
1.36063e-01,
1.64528e-01,
1.21608e-01,-7.20289e-01,9.27755e-02,7.25065e-02,-6.03873e-02,4.38996e-01,1.10643e-01,1.04846e-02,1.32331e-01,3.19744e-01,-3.76509e-01,-2.06752e-01,1.50184e-01,-1.04548e-01,-6.43219e-01,2.46996e-01,-4.78185e-01,-3.54034e-01,1.20226e-01,-2.91661e-01,-2.75837e-01,3.41827e-01,-4.65729e-01,3.19647e-01,5.01246e-02,
2.06866e-01,-7.55327e-01,2.61371e-01,2.92600e-01,4.29826e-01,9.28091e-02,2.02417e-01,-1.40957e-01,-1.79733e-01,-4.92692e-01,-1.85430e-01,-3.31006e-02,2.08090e-01,7.33078e-02,3.50058e-01,-2.92993e-01,-8.42579e-02,7.35384e-02,3.17385e-01,8.92462e-01,-1.96395e-01,2.67040e-02,3.70545e-01,-2.59711e-01,2.30321e-01,
-1.73574e-01,2.12305e-01,3.38261e-01,3.40496e-01,4.39539e-01,-4.27394e-01,3.25234e-01,9.49453e-02,2.28306e-01,7.94332e-02,7.05524e-02,-3.70155e-01,-1.71754e-01,6.21194e-01,-2.64760e-01,-8.93302e-01,-7.55239e-01,7.26237e-02,-1.43850e-01,-1.08372e-01,1.32977e-01,-8.49712e-02,-5.85115e-02,2.51964e-01,-1.40709e-01,
3.41960e-01,-3.20102e-02,3.55283e-01,2.06729e-01,3.03370e-01,1.15095e-01,3.32750e-03,2.64885e-01,-2.65812e-01,-3.53463e-02,-5.91250e-01,1.72681e-01,-1.81571e-01,-2.01280e-01,-3.08810e-01,-7.71389e-03,4.28782e-01,2.79046e-01,2.39224e-01,-3.70760e-01,-8.95070e-02,2.05228e-01,3.12962e-01,3.41591e-01,7.91036e-02,
-9.23126e-02,1.27940e-01,2.67529e-02,8.32954e-02,8.57361e-01,1.25250e-01,6.38880e-02,-5.43374e-02,-2.94630e-01,-6.28854e-01,3.18903e-01,1.13050e+00,-6.00885e-02,2.56951e-01,-4.02694e-01,3.04314e-01,4.03062e-02,-6.58042e-02,-7.23350e-01,7.37242e-02,-3.00426e-01,1.19604e-01,5.02655e-02,-1.16341e-01,-2.99206e-01,
-2.96928e-02,-3.98046e-01,-3.79225e-02,-9.21818e-02,1.64575e-01,2.37993e-01,-3.12293e-01,-1.05281e-01,-5.00993e-02,5.17648e-02,6.37357e-02,4.01768e-01,3.79073e-02,1.47532e-01,2.65350e-03,2.50337e-01,-1.51695e-01,-7.32635e-01,-5.94621e-02,3.51665e-01,-2.45510e-01,-1.33863e-01,5.67621e-02,-3.06802e-01,-3.18600e-01,
1.53493e-01,-5.15666e-01,1.27453e-01,-3.26102e-02,-1.19323e-01,3.52622e-01,2.43728e-01,-9.29380e-02,-3.10397e-02,-1.35689e-01,2.14514e-01,3.50878e-01,-3.60984e-01,-3.97593e-02,-1.00443e-01,-3.66225e-01,-1.00593e-01,3.74403e-01,-3.00783e-01,2.23982e-01,1.33203e-01,1.27429e-01,-2.41368e-01,1.17034e-01,7.43491e-02,
7.19116e-01,-6.85063e-01,2.13090e-01,-1.20409e-01,-1.38920e-01,-2.35486e-01,3.67444e-01,2.74729e-01,5.39039e-02,-1.08861e-01,6.22824e-02,4.70183e-01,-5.10598e-01,-2.13938e-01,5.21564e-01,3.08324e-01,2.35568e-01,7.50785e-01,-5.32129e-02,-1.11134e+00,-9.38407e-02,3.59029e-04,4.62396e-01,-3.95576e-02,7.96819e-02,
1.33028e-01,7.36070e-02,-7.57650e-02,-2.93435e-01,7.86577e-02,5.54008e-02,-3.56849e-01,-4.35982e-02,-1.12578e-03,5.75283e-02,-7.38677e-01,4.90364e-01,3.99291e-01,-9.71172e-01,-6.52470e-02,5.60741e-01,1.00670e-01,-6.02926e-01,4.31556e-02,3.04123e-01,1.91699e-01,2.72517e-01,-6.11416e-02,-8.40283e-02,-1.42841e-01,
3.95360e-01,-5.34051e-01,2.98968e-01,-7.08355e-02,-2.33623e-01,-5.13151e-01,1.21995e-01,-1.22467e-02,-4.00626e-01,-3.15891e-01,1.23678e-02,6.46427e-01,-1.08213e-01,2.99339e-01,2.89886e-01,3.36678e-01,-7.82684e-03,5.03474e-01,2.56374e-01,-1.20616e-01,2.18257e-01,-2.03213e-02,2.73522e-01,-6.39604e-02,2.77335e-04,
3.57419e-01,2.61698e-02,-8.27937e-02,3.40011e-02,6.58741e-01,-2.16183e-01,1.71402e-02,-1.34454e-01,1.60827e-01,1.50160e-01,-7.00207e-02,3.81635e-01,-2.31374e-01,4.46177e-01,-4.54177e-01,1.99869e-02,1.87142e-01,1.59891e-01,-1.30474e-01,-2.88050e-01,-4.75899e-01,-1.00189e-01,-1.69079e-01,-1.20647e-01,2.53587e-01,
-5.79151e-02,-5.06721e-01,-4.37227e-03,-2.32619e-01,-2.05367e-01,-9.53574e-02,1.94713e-01,1.54110e-02,-1.27845e-01,1.84867e-02,1.48718e-01,-3.33256e-01,-1.59635e-01,3.40475e-01,1.54147e-01,-7.38878e-02,1.92682e-01,9.02473e-01,2.28649e-01,-7.92562e-01,1.88579e-01,-1.29647e-01,-3.76798e-01,-1.03032e-01,4.91229e-02,
-2.71129e-01,2.01374e-01,6.15379e-02,3.45066e-01,7.99435e-01,5.16447e-01,2.03474e-02,-1.55782e-01,-2.78777e-01,2.65398e-01,9.31894e-01,8.49259e-02,1.49584e-01,-4.75869e-01,4.48314e-02,-3.96189e-01,-2.16850e-01,-1.29608e-01,4.61524e-01,-1.38655e-01,2.50910e-01,-3.09344e-01,4.66372e-01,-2.17450e-01,4.52290e-02,
7.45170e-01,-2.12887e-02,3.53378e-02,1.27395e-01,-7.36515e-01,-2.87843e-01,-1.74488e-01,2.54991e-01,-1.02185e-01,-2.37943e-01,5.21838e-01,-3.83606e-02,5.67226e-01,-4.59432e-01,-4.20207e-02,2.60087e-01,6.27342e-01,-2.37660e-01,-1.27584e-01,7.31499e-01,-3.96042e-01,3.02130e-01,3.16724e-01,9.48227e-02,2.51112e-01,
1.68628e-01,-8.86075e-02,3.23321e-03,1.75310e-01,1.06574e+00,2.57648e-01,-1.06320e-01,2.04598e-01,-6.59987e-02,9.90716e-04,3.19083e-01,3.83941e-02,3.64761e-01,7.67519e-02,1.53288e-01,-3.23203e-01,-6.16401e-01,-6.88471e-01,-1.47714e-02,1.19685e+00,-1.77219e-01,-8.21296e-02,-6.48220e-03,-5.16112e-02,-2.55422e-01,
-1.07300e+00,7.10535e-01,-3.18622e-01,-3.25403e-01,-1.06103e+00,2.10171e-01,2.77406e-01,1.04676e-01,-1.88809e-01,4.25951e-01,7.78018e-01,4.91330e-02,-8.58059e-01,2.22809e-01,-1.39367e-01,-1.80943e-01,1.06844e-01,-1.50543e-01,-1.21901e-01,-2.21199e-01,2.91267e-01,1.79186e-01,-1.43819e+00,3.06962e-01,-3.52343e-01,
-2.21583e-01,-3.25810e-02,-6.58406e-02,2.19940e-01,1.80105e-01,-5.41695e-01,-2.13360e-02,-3.20578e-01,1.91246e-01,4.29447e-01,1.57277e-02,6.55148e-02,1.42864e-01,4.53984e-01,6.58239e-02,3.39357e-01,2.74829e-01,-9.45007e-01,-4.85788e-01,6.05082e-01,-3.08395e-01,2.61823e-01,-5.37015e-01,8.61127e-02,-2.02021e-01,
1.88629e-01,1.34587e-01,-2.93323e-01,4.20082e-02,8.32756e-01,-6.37079e-01,2.23896e-01,-1.46813e-01,-1.05518e-01,-3.11124e-01,2.21449e-01,4.25858e-01,-1.20026e-01,4.54248e-01,1.64305e-01,-2.50283e-01,4.83951e-01,1.01439e+00,-3.36615e-01,2.67995e-01,-2.99470e-01,-2.89936e-01,-2.13161e-02,-2.09084e-02,1.90002e-01,
6.34508e-01,-2.71717e-01,4.83970e-01,3.37781e-01,4.27690e-02,-6.24644e-02,1.29157e-01,-2.33057e-01,-8.33229e-02,-2.18670e-01,-5.30208e-01,3.53528e-01,-5.74436e-01,-2.64908e-01,-3.71097e-01,2.33465e-01,-3.19140e-01,-2.74426e-02,4.69979e-01,-5.64939e-01,-4.56981e-02,1.87490e-01,2.92156e-03,-4.02813e-03,3.58725e-02,
-3.93756e-01,4.95945e-01,-4.57712e-01,9.44720e-02,1.06746e+00,1.62473e-01,4.24576e-01,1.33398e-01,-7.36354e-02,1.25992e-01,2.98217e-01,4.16926e-01,-1.49373e-01,3.27157e-01,2.78654e-01,-1.13545e-01,4.45054e-01,-5.32539e-02,-4.02646e-01,4.11041e-01,-9.19034e-02,-3.32028e-04,-2.64216e-01,3.44593e-01,-1.98336e-01,
-3.93924e-01,1.53187e-01,1.29444e-01,2.02554e-01,-6.14733e-01,-9.02084e-02,1.19530e-01,-5.15333e-03,1.50889e-01,1.75859e-01,1.38502e-01,-2.70670e-02,-2.48892e-01,-1.29421e-01,1.56121e-01,-1.24382e-01,4.89170e-01,-4.91311e-01,1.14506e-01,-5.68849e-01,-4.90565e-02,-2.04194e-01,-1.95240e-01,1.41229e-01,2.59584e-01,
-9.28716e-02,-1.51436e-01,-2.45232e-01,-2.17557e-01,-2.17257e+00,2.60792e-01,-2.84330e-01,-1.25570e-01,-3.58371e-01,2.03222e-01,-2.87511e-01,2.29616e-01,-5.31973e-02,4.86216e-01,1.13385e-01,3.52342e-02,1.39981e-01,-4.42224e-01,-1.05228e-02,-1.70129e-02,-3.41152e-01,-1.53420e-01,1.13301e-01,2.61811e-01,2.43564e-01,
9.31108e-02,-3.13635e-01,-2.45518e-02,-3.33151e-01,3.93549e-01,2.24080e-01,1.67036e-01,-1.05582e-02,2.47168e-01,2.96854e-01,-5.51109e-02,-3.65969e-01,-1.55489e-01,-1.15987e-01,-6.28618e-01,-3.52499e-01,-5.87380e-01,2.27397e-01,1.15562e-01,8.22986e-02,1.63046e-01,-4.03120e-02,-2.95342e-01,-3.66275e-01,3.17516e-01,
-6.84554e-01,-4.34019e-01,-5.65947e-02,2.07661e-01,1.54663e+00,-5.99766e-01,9.00022e-02,-1.73746e-01,-5.74049e-02,-1.30081e-01,-6.66393e-01,-5.08277e-01,-1.30570e-01,1.20992e-01,-4.62219e-01,4.84052e-01,-6.20068e-02,5.76270e-01,-1.80040e-01,-2.77279e+00,1.47904e-01,-6.40565e-02,-6.33115e-01,1.75651e-01,4.99484e-01,
6.11078e-01,-8.02931e-01,2.77239e-01,-2.38240e-01,5.87323e-01,1.37676e-01,2.19992e-01,6.28434e-02,2.96858e-01,-2.42525e-01,1.03196e-01,-2.24790e-02,7.53365e-03,5.54866e-01,-2.00473e-01,3.41135e-01,-4.07824e-01,4.24569e-01,3.40170e-01,2.62521e-01,1.36402e-01,1.20040e-01,2.43473e-01,-7.02769e-02,-3.44121e-02,
1.09657e-01,
1.96328e-01,
-8.37461e-02,
-1.63043e-01,
1.64909e-01,
3.00315e-01,
1.81871e-01,
-9.16757e-02,
-4.67986e-02,
2.16346e-01,
-2.42933e-01,
1.99286e-01,
-1.40714e-01,
2.58864e-01,
2.22910e-01,
2.93697e-01,
8.05484e-02,
1.57842e-01,
2.95284e-03,
-7.38897e-02,
1.07876e-01,
2.24718e-01,
2.67514e-01,
-7.77884e-02,
-9.56085e-02,
2.08675e-01,2.64604e-01,-6.32223e-02,5.13826e-02,-3.14205e-01,3.21106e-01,-2.56712e-03,-1.26103e-01,1.93521e-01,1.93123e-01,-1.42000e-01,1.27842e-01,-5.85937e-01,-2.51616e-01,3.40659e-01,-2.36649e-01,3.26957e-03,8.56532e-01,6.04381e-02,-3.06836e-02,-1.56775e-01,-3.82708e-01,1.76840e-01,-3.82287e-01,2.77426e-01,
3.99938e-01,6.75506e-02,6.43158e-01,-2.54185e-01,-1.30708e-01,1.61793e-01,-1.20674e-01,-7.41135e-02,2.52887e-01,1.16676e-01,-4.79195e-01,1.28863e-01,2.74864e-01,2.83248e-01,-4.50138e-01,2.75156e-01,-2.55201e-01,-6.53326e-01,-2.21241e-01,-3.03516e-02,2.67414e-01,-1.83998e-01,3.22541e-01,6.62745e-01,1.63299e-01,
-1.33868e-02,1.77195e-01,-1.63524e-02,-1.03153e-01,3.12080e-01,-8.62857e-03,2.85285e-01,-3.18799e-01,1.85865e-01,-2.12365e-01,-1.23930e-01,-1.10654e-01,1.18302e-01,1.80407e-01,1.30628e-01,-1.53108e-01,-1.68004e-01,-5.97198e-02,-2.01437e-01,3.20753e-01,-2.74933e-01,-8.72329e-02,-3.45188e-01,-1.94867e-01,-1.27290e-01,
3.72323e-01,-8.08944e-02,1.91855e-02,-2.82186e+00,2.33074e+00,1.56010e-01,3.13170e-01,-4.13560e-01,-7.26390e-01,-2.19591e-01,-4.97029e-01,1.91634e-02,2.91694e-01,-1.47205e-01,3.95806e-01,4.78668e-01,6.43379e-01,1.04998e-01,-2.59361e-01,-1.89370e+00,3.46912e-02,2.52828e-01,3.47992e-01,6.86883e-01,-1.78364e-01,
3.07178e-01,-1.61679e-01,-3.71301e-01,-1.73581e-01,-1.28843e-01,-1.11094e-01,3.24378e-01,-2.00077e-01,7.07713e-02,-3.44919e-01,3.38853e-02,-3.64286e-02,4.55955e-01,1.35123e-01,9.57211e-02,3.23590e-01,5.36176e-01,7.81644e-01,1.59349e-01,-2.23820e-02,-3.57351e-01,2.74816e-01,-1.01064e-01,-3.85694e-01,-8.02702e-02,
5.24787e-02,1.14001e-01,9.95796e-02,6.20539e-01,2.88536e-01,2.65888e-01,1.09460e-01,-6.37678e-01,9.99832e-03,-1.71964e-01,-4.61059e-02,-4.39702e-01,-5.27225e-01,-1.39515e-01,5.21185e-01,-1.93572e-01,5.92638e-02,5.27865e-01,-3.11826e-01,4.04638e-02,-4.62851e-02,9.62683e-03,1.03879e-01,-5.86361e-01,-4.22437e-02,
-1.16309e-02,-4.02514e-01,-1.90161e-01,1.38012e-01,-2.20175e-01,-2.88467e-01,-2.78519e-01,4.37076e-02,1.21989e-01,-3.14904e-01,3.08523e-01,-3.85528e-01,2.53343e-01,1.39139e-01,-2.31389e-01,-2.75885e-02,-3.17596e-01,-2.30857e-02,-1.68463e-01,-2.35887e-01,6.46618e-02,2.22046e-01,-3.91835e-01,-5.36734e-02,1.84371e-01,
-2.46775e-02,8.74295e-02,3.89773e-01,-2.15307e-01,6.41311e-01,-1.99849e-01,3.37356e-01,-1.40307e-01,-1.89510e-01,-1.91851e-01,-1.26960e-01,3.40165e-01,-8.97314e-02,-1.34541e-02,-2.08302e-01,1.31853e-01,-2.87909e-01,-4.17736e-01,-6.58498e-02,-1.08482e+00,-1.80974e-01,-3.56117e-02,2.47040e-01,-3.87962e-01,-1.08818e-01,
1.78099e-01,-1.63677e-01,3.38486e-01,-4.92131e-01,-7.23131e-01,2.80212e-01,3.52539e-02,2.16111e-01,7.75001e-01,2.80874e-01,-5.09088e-01,-2.09014e-01,1.40574e-01,-2.10655e-01,-5.03689e-01,-1.22274e-01,-2.30689e-01,-5.57005e-01,2.23738e-03,1.02285e+00,5.06479e-02,1.82634e-01,4.99157e-02,2.64392e-01,1.48924e-01,
-4.96437e-02,4.77661e-02,-1.45962e-01,-1.24365e-01,-3.09566e-02,1.46192e-01,2.29949e-01,1.90043e-01,-4.90423e-02,-2.29752e-01,-4.37366e-01,2.00082e-01,-1.65988e-01,-8.08695e-02,6.65000e-02,1.47430e-01,8.50348e-02,7.83323e-01,4.14998e-01,-3.83507e-01,-2.17130e-01,-1.13035e-02,-2.02783e-01,-1.55113e-01,8.84414e-03,
8.36441e-02,-1.15033e-01,-1.47105e-01,-4.21973e-01,3.43983e-01,-2.84848e-03,-8.47311e-02,3.38636e-01,1.03372e+00,3.67833e-01,-2.81529e-01,2.02747e-01,-3.21897e-01,-3.01847e-01,-4.95070e-01,-4.59337e-01,-4.19205e-01,-8.71279e-01,6.47375e-01,1.01453e+00,5.40328e-03,-3.35512e-01,-3.69679e-02,6.97980e-02,2.15455e-01,
-6.88096e-06,-4.61840e-01,-2.10581e-01,-2.00941e+00,-1.49301e+00,-2.27814e-01,-6.54027e-02,1.28624e-01,-1.71278e-01,-1.20637e-01,-6.57259e-02,2.13904e-01,3.86831e-01,-2.05877e-01,-8.13361e-01,1.48511e-01,1.43322e-03,-1.44856e+00,3.68927e-02,-1.36460e+00,3.60351e-01,-1.13850e-01,-2.63720e-01,-8.31473e-01,-4.04834e-01,
-2.19937e-01,1.14763e-01,9.19314e-01,-4.22324e-01,1.35177e+00,3.02348e-01,3.11836e-01,2.73912e-01,1.04804e-01,1.68612e-01,-5.38414e-01,2.64494e-01,4.70229e-01,-4.19746e-02,-5.42808e-01,2.04409e-02,1.27750e-01,-1.48820e+00,-1.65685e-01,1.46204e-01,3.50680e-01,-2.21739e-02,-1.56506e-01,3.98527e-01,-2.59654e-01,
-2.98270e-01,-2.38728e-01,-1.73008e-01,1.82324e-01,2.46760e-01,-1.02626e-01,-1.89503e-01,1.53540e-01,3.87592e-01,-2.75560e-01,-5.06238e-01,-5.38359e-02,2.54203e-01,-2.93765e-01,1.49570e-01,-3.40089e-01,1.39458e-01,-6.73476e-02,4.38390e-02,-3.60980e-02,-1.05085e+00,-2.71038e-02,-2.85528e-01,-1.41101e-02,2.11153e-01,
4.61768e-01,-1.86189e-01,-8.22378e-03,8.78527e-01,-8.26846e-01,-3.72848e-03,3.70237e-01,-1.82635e-01,8.59735e-01,2.84337e-01,-2.61978e-01,-2.42750e-01,-4.31681e-01,-1.53236e-01,-2.39104e-02,-2.10361e-01,4.13934e-01,-7.85031e-02,-3.91124e-01,3.95198e-01,-8.00286e-02,-4.44382e-01,4.81649e-02,-1.77244e-01,-2.50412e-01,
1.79718e-01,-2.27983e-01,-2.97246e-01,-8.17555e-02,-3.22519e-01,-1.76271e-01,-2.07213e-01,-3.41754e-02,7.81199e-03,2.57576e-03,-2.01268e-01,3.18696e-01,-1.58785e-02,-6.22804e-02,4.59358e-02,-2.24931e-01,-2.84101e-01,6.17703e-02,-2.04253e-01,1.81107e-01,-2.47739e-01,1.76031e-01,-2.55878e-01,1.18796e-01,1.95508e-01,
2.14632e-01,-3.59986e-01,-8.56284e-01,2.77146e-01,-1.37172e-01,-1.03507e-01,1.34034e-01,-1.40367e-01,-2.21336e-01,-1.59961e-01,-1.52309e+00,-2.97308e-01,7.30576e-02,-2.28987e-02,9.46118e-02,8.78466e-02,-6.62855e-02,-6.59171e-01,-2.21660e-01,3.31200e-01,-8.41466e-04,-3.00012e-01,2.85809e-01,5.61126e-01,1.99366e-01,
2.51856e-01,3.61166e-01,3.00743e-02,-5.40356e-01,-4.10508e-02,-4.42118e-01,3.11168e-01,4.77129e-01,2.00117e-01,1.24947e-01,-5.12010e-01,5.60101e-02,-2.74344e-02,2.38512e-01,-3.88143e-01,-2.99511e-01,-3.74405e-01,-1.52198e-01,4.83057e-01,6.62215e-01,-6.33176e-02,2.06975e-01,1.75673e-01,2.26823e-01,3.13295e-01,
7.98777e-02,8.55613e-02,-4.14126e-01,-8.48396e-01,-1.14723e+00,9.92050e-02,-3.33633e-02,4.63219e-01,1.00686e-01,2.65358e-01,4.06686e-01,-3.98265e-02,-2.50352e-02,1.02829e-01,-3.79166e-02,2.16767e-01,-3.22782e-01,-3.40339e-01,2.13715e-01,6.78433e-01,1.26068e-01,1.81311e-02,1.29094e-01,2.83784e-01,2.21840e-01,
6.66780e-03,2.47725e-01,-4.02404e-01,1.17768e+00,-1.10885e-01,-1.90749e-01,-2.04766e-01,-5.17410e-01,6.56970e-01,2.71188e-01,-1.75369e+00,2.58047e-01,-3.07302e-01,-5.90170e-01,5.11260e-01,3.68101e-01,-1.02186e-02,-1.64542e-01,-3.72727e-01,-3.42136e-01,2.42181e-01,-4.58167e-01,-2.13104e-01,8.47514e-02,-7.14106e-01,
1.58836e-01,-2.87460e-01,4.45461e-01,-1.60299e-01,-3.47756e-01,3.36880e-01,-1.17504e-01,-1.25556e-01,-4.08412e-01,3.85242e-01,-4.35891e-01,-8.28104e-02,-2.65357e-01,4.33068e-02,3.09494e-01,-5.58782e-02,-7.10435e-02,6.64692e-02,1.95923e-01,4.43052e-01,-8.23507e-02,-9.51825e-02,1.96974e-01,-1.87834e-02,4.71479e-01,
4.87908e-02,-2.70455e-01,-3.33049e-01,-4.58696e-02,1.33676e-01,-1.48603e-01,-8.42471e-02,-1.51284e-01,1.06539e-01,1.63069e-01,3.81047e-01,-6.40166e-02,-1.40097e-01,4.22139e-01,-5.11244e-02,5.76800e-01,1.08591e-01,-2.51602e-02,-3.16020e-01,-5.38687e-01,-5.48270e-03,8.54473e-02,-8.03675e-02,2.52060e-01,-6.80464e-01,
2.54011e-01,-1.29665e-01,-1.52654e+00,3.73349e-01,2.03522e-02,-1.04911e-01,-2.96583e-02,2.07124e-01,1.20479e-01,-4.33288e-02,-9.53291e-02,1.97299e-01,-1.40134e-01,7.09858e-02,4.03658e-02,-2.28556e-01,1.85208e-01,1.07658e-01,1.07281e-01,-9.35769e-02,3.93112e-01,-2.74036e-01,2.22105e-01,-1.80859e-01,-3.19177e-01,
-1.72360e-01,4.08898e-01,-6.67893e-01,-5.05276e-01,-1.98561e-01,8.96890e-02,2.73915e-01,7.53426e-02,7.01648e-02,1.40662e-01,-1.14410e-01,-9.02098e-03,-7.30172e-01,2.67497e-01,3.52810e-01,3.89601e-01,-5.09413e-01,1.45525e-01,3.90876e-01,7.81260e-02,9.79235e-02,-1.34168e-01,1.88763e-01,4.87294e-01,6.53381e-02,
1.13212e-02,3.86924e-02,-6.04967e-02,-7.96912e-01,-8.81695e-02,3.09608e-01,-2.49210e-01,-8.52367e-01,4.45416e-01,-2.76933e-01,-6.23877e-01,2.30560e-01,5.59515e-02,-5.44569e-01,4.37334e-02,5.35655e-01,4.15600e-04,1.16569e-02,5.22574e-02,6.77490e-01,-3.02438e-02,-1.07516e-02,3.89318e-01,-1.58134e-01,8.77819e-02,
-4.22110e-02,
-9.74840e-02,
-3.69923e-01,
-2.45188e-01,
1.94917e-01,
2.10824e-01,
-3.37312e-02,
1.73184e-01,
1.35135e-01,
1.67425e-01,
1.52923e-01,
2.43905e-01,
-3.40268e-02,
-3.44013e-01,
2.98751e-02,
-2.91119e-01,
2.60349e-01,
7.58464e-02,
1.00471e-01,
1.01804e-01,
-1.87270e-01,
-6.23721e-02,
8.47396e-02,
-2.71976e-01,
-3.88923e-02,
2.85049e-01,1.55939e-01,2.84510e-01,-9.82043e-02,-3.33807e-01,6.09804e-04,8.90981e-02,-1.06217e-01,4.89187e-02,-4.21398e-02,2.54826e-01,1.05182e-01,-3.00627e-02,-1.47594e-01,-2.16335e-01,5.94101e-02,-4.03851e-01,-2.78430e-01,7.31167e-02,1.91774e-01,5.95098e-01,2.43687e-01,-1.84527e-01,-1.07521e-01,3.41051e-01,
3.01980e-01,-1.08031e-01,2.22371e-01,-4.79121e-01,-2.32072e-01,7.28615e-01,1.42872e-01,-3.54392e-01,-5.26985e-02,-4.11927e-02,3.11043e-01,-6.39809e-01,-4.70077e-01,-2.56838e-01,1.63572e-01,-2.05904e-01,-1.09251e-01,2.43310e-01,3.31759e-01,-6.96575e-02,6.11572e-02,3.35583e-01,1.78568e-01,4.79720e-01,-1.81451e-02,
1.41747e-02,1.74956e-01,2.88736e-01,-3.81757e-02,7.16310e-02,-3.55401e-01,-1.87158e-01,4.77635e-01,2.62980e-01,2.62062e-02,-9.05542e-02,-5.47390e-01,-3.07375e-01,-6.85389e-02,2.19495e-01,2.44449e-01,1.12417e-01,5.91204e-02,-4.19102e-02,-1.80440e-01,-2.05372e-01,-1.34819e-02,3.29454e-01,-3.00132e-02,1.03372e-01,
1.87607e-01,-2.16280e-01,-8.10168e-02,3.14949e-01,-4.80580e-03,-9.31440e-02,-8.00582e-02,2.38977e-01,-2.33750e-01,1.72640e-01,2.25362e-01,-1.53798e-01,8.34282e-02,-6.05681e-02,-1.71598e-01,1.24993e-01,-1.05703e-01,-1.80700e-01,-1.48495e-01,-2.64993e-01,3.44513e-01,1.32477e-01,-1.48493e-01,-1.42617e-01,-3.06405e-01,
2.93104e-01,7.07724e-02,-1.91129e-01,-3.42031e-01,1.72439e-01,1.64959e-01,-1.61305e-01,1.93267e-01,3.00801e-01,2.66002e-01,-1.42252e-01,-2.56364e-01,-3.79984e-02,8.93210e-02,1.69446e-01,-2.02521e-01,-6.28941e-01,-3.75877e-02,2.67775e-01,2.04252e-01,-2.20430e-01,2.32394e-01,-2.17338e-01,-1.04712e-01,-5.93344e-01,
-1.83937e-01,2.98087e-01,2.79888e-01,-4.65544e-01,2.05508e-01,-3.59123e-02,-2.00728e-01,2.21999e-01,1.10304e-01,-1.22277e-01,-2.30087e-01,1.11840e+00,3.47394e-01,-8.72993e-02,3.19635e-01,-2.84984e-01,2.57820e-01,-4.11961e-02,2.61791e-01,-3.00919e-01,-4.56255e-01,-3.60966e-01,-3.04490e-01,-1.32600e-01,-5.30888e-01,
3.09978e-01,1.62774e-01,2.24001e-01,-3.94038e-01,1.52860e-01,-4.03931e-02,-2.18736e-01,-6.29755e-02,7.15780e-02,4.09991e-01,-1.52149e-01,8.03747e-02,2.86872e-01,7.39711e-02,-1.40362e-01,1.06401e-01,3.72692e-01,2.42723e-02,2.45000e-01,3.79124e-02,-3.46723e-01,-2.86436e-01,3.44416e-01,-3.60276e-02,-5.06269e-01,
7.12098e-02,-2.42170e-01,1.25895e-01,5.58498e-01,3.98587e-01,1.50473e-01,-2.21089e-01,-2.48731e-01,1.85972e-01,1.17013e-01,3.04386e-01,-3.73819e-01,-1.23920e-01,7.72336e-02,-3.87886e-01,-2.87129e-01,-9.86243e-02,-9.46699e-03,-1.93886e-01,-3.30795e-01,-6.19662e-02,2.67886e-01,-1.30250e-01,-3.54847e-01,8.26493e-01,
-1.62716e-01,6.50971e-02,5.17601e-02,3.07255e-01,1.32588e-01,-2.86894e-01,-2.63950e-01,2.04133e-01,-1.42875e-01,2.25250e-01,-5.98544e-01,3.83040e-01,-2.82319e-01,-4.18484e-02,-3.61789e-01,4.31619e-02,2.19382e-01,-1.84343e-01,-2.64039e-01,7.03332e-01,5.80161e-01,6.01380e-01,-1.74210e-01,-2.40532e-02,4.94272e-01,
1.46910e-01,-1.16498e-01,1.72422e-01,-1.45344e-01,-1.58948e-02,1.68947e-01,-5.97248e-02,4.86697e-01,4.60839e-02,1.06288e-01,2.58520e-01,-1.04023e-01,-4.88516e-01,-7.78681e-02,1.73190e-01,1.78830e-01,-5.69526e-01,1.77352e-01,1.39159e-01,2.87852e-01,-1.44881e-01,1.82046e-01,3.01957e-01,5.07654e-01,2.95161e-01,
2.20700e-01,-3.52471e-01,2.51270e-01,5.62977e-01,2.92761e-01,-1.58832e-01,-2.53488e-01,-4.01968e-02,1.70437e-01,-2.80286e-02,9.87918e-02,2.47636e-01,-2.31599e-01,5.20417e-01,-1.68407e-01,3.09160e-02,-5.32255e-01,-3.53707e-02,-2.18287e-01,-1.68565e-01,-1.59720e-01,2.27947e-01,4.14693e-02,6.50399e-02,6.02289e-01,
-1.04012e-01,2.97492e-01,-3.17376e-01,1.68630e-02,-1.61219e-01,-5.83843e-02,-2.41589e-01,1.45971e-01,-1.52997e-01,-2.71553e-01,-2.04530e-01,-8.14620e-01,5.76239e-01,2.05463e-01,2.81690e-02,-2.27530e-01,1.90169e-01,1.35413e-01,-1.84867e-01,-1.52095e+00,1.51702e-01,7.65818e-02,5.66913e-02,-5.44030e-01,-6.14783e-01,
1.49537e-01,-2.96161e-01,-2.94582e-02,3.06185e-02,5.39418e-02,1.24748e-01,1.75665e-02,5.62232e-02,-3.41919e-01,3.41031e-01,-2.63070e-01,-1.10442e+00,2.28606e-01,-3.14599e-01,2.80098e-01,-7.90856e-02,-2.19540e-01,1.84551e-02,-8.55003e-02,-1.78243e-01,-2.70906e-01,-7.41202e-01,1.39067e-01,3.59879e-01,-3.75558e-02,
-3.06483e-02,2.05979e-01,1.77713e-01,-3.13355e-01,1.25519e-02,2.53617e-01,3.35929e-01,3.37668e-01,-3.30827e-01,-2.10084e-01,-2.73737e-02,2.14330e-02,2.19233e-01,-1.99285e-01,3.50813e-02,-3.22403e-01,-3.69495e-01,-3.35275e-01,-3.33601e-01,-1.93821e-01,1.40968e-01,-8.71132e-02,-3.18653e-01,-2.93783e-01,-3.35813e-01,
3.87567e-02,2.50499e-01,1.58554e-01,-1.71958e-01,8.69455e-02,-4.93519e-02,1.72899e-01,-1.75355e-01,-3.50971e-01,-2.42555e-01,-1.80499e-01,2.58958e-01,2.34496e-01,1.11115e-01,3.02789e-01,-3.15169e-02,-1.78998e-01,8.24774e-02,-2.65482e-01,-2.14322e-01,-2.36859e-01,-1.93253e-01,1.24709e-01,-2.15676e-01,4.72223e-02,
-1.46311e-01,3.37810e-01,-2.25618e-02,-1.68006e-01,-4.80454e-02,-3.04885e-01,-2.52013e-01,1.78579e-01,1.03472e-01,1.11080e-02,4.24668e-02,-6.14477e-02,-1.16630e-01,-1.21117e-01,-1.38869e-01,-1.90342e-01,1.66977e-01,-3.35518e-01,-2.19001e-01,-2.15726e-01,7.34304e-02,-4.41628e-02,-2.01622e-01,-2.48194e-01,-2.32974e-01,
4.44088e-01,8.24248e-02,-8.91177e-02,-8.21258e-01,-9.91360e-02,2.01784e-01,2.08525e-01,-2.61528e-01,5.32623e-02,3.15252e-01,5.19925e-01,-8.90409e-01,-4.49480e-01,-4.68930e-01,5.57532e-01,3.83590e-02,-3.31901e-01,3.30543e-01,3.91658e-01,-2.85370e-01,3.40229e-01,5.84038e-01,7.73777e-02,7.86641e-03,-7.74343e-01,
1.71864e-01,8.93320e-02,1.02051e-01,1.64877e-01,3.10341e-01,-3.70206e-01,1.52232e-01,-8.10386e-02,1.67876e-01,-1.20746e-01,2.35336e-02,-6.58180e-01,-2.52416e-01,4.35080e-02,-1.49026e-01,1.34441e-01,3.58571e-01,-6.51798e-02,-1.60431e-01,-1.45225e-01,-1.31998e-01,-1.10394e+00,1.44877e-01,-3.36167e-01,4.60772e-01,
-1.67365e-03,-1.80696e-01,-1.23528e-01,5.75350e-01,3.15384e-01,-5.99508e-03,5.17540e-03,2.49262e-02,-2.78975e-01,2.40489e-01,-4.91248e-01,-1.16770e+00,2.68957e-02,-2.32015e-01,-5.65069e-01,-3.19562e-02,2.50987e-02,-1.63937e-01,2.63599e-01,-4.02978e-01,1.48255e-01,1.54994e-01,1.69863e-01,-1.05940e-01,3.59403e-02,
1.63343e-01,6.47115e-02,2.37440e-01,3.22754e-01,1.61616e-01,-4.99354e-01,-2.04849e-01,5.69609e-02,-3.24225e-01,1.38676e-01,-7.49189e-01,-1.61437e-01,7.19567e-02,-2.64069e-01,-5.90776e-01,1.41654e-01,2.39709e-01,-3.19573e-01,-3.04593e-02,4.48672e-03,2.48629e-01,4.35644e-01,-3.66993e-02,-3.67743e-01,2.32362e-01,
2.18399e-01,1.21100e-01,2.93569e-01,3.01091e-01,3.95235e-01,-6.67422e-01,-1.65564e-01,2.82019e-01,9.13518e-02,6.02747e-02,-1.61101e-01,-7.08543e-01,-5.81425e-01,2.16578e-01,1.10622e-01,1.05662e-01,1.68911e-01,-3.36087e-01,-2.79531e-01,-6.52597e-01,1.99809e-01,2.06605e-01,3.61795e-02,1.77096e-01,-7.50355e-02,
1.37532e-01,-1.46733e-01,1.77169e-01,-2.12185e-01,-1.10901e-01,1.37697e-01,2.42397e-01,2.14687e-01,4.01720e-02,8.00391e-02,3.11219e-01,-3.38437e-02,-2.79932e-01,-8.14056e-02,5.20948e-02,-2.32751e-01,-2.85585e-01,8.73247e-02,1.33467e-01,2.83515e-01,6.81250e-02,1.88675e-01,-1.82125e-03,1.96637e-01,1.08297e-01,
4.34389e-02,1.09803e-01,-1.75169e-01,1.14790e-01,-4.16254e-03,3.31920e-01,3.68092e-02,-6.55523e-02,1.70032e-01,3.38202e-01,-2.80420e-01,-9.10401e-01,3.35114e-01,-3.67144e-01,3.74965e-01,-3.13850e-02,-7.85668e-01,-6.19798e-02,3.70845e-01,-5.15946e-02,-1.78790e-02,7.05489e-01,1.33795e-01,-1.49177e-01,-5.00225e-01,
-1.39804e-01,-2.29552e-01,3.16345e-01,4.57667e-02,3.60297e-01,4.22700e-01,-1.86007e-01,-8.77149e-02,4.09129e-01,1.13754e-01,1.06057e-01,-4.46794e-01,3.60051e-02,-3.98234e-01,-1.34651e-01,3.39150e-01,3.82192e-01,9.91775e-02,3.55060e-01,-2.66951e-01,-1.93089e-01,-2.49894e-01,1.99773e-02,-3.85217e-01,2.28398e-01,
-2.66059e-01,4.58159e-01,1.64102e-01,-2.19280e-02,-1.28827e-01,2.15024e-01,-1.63217e-01,-1.43212e-01,2.25042e-02,1.84438e-01,-1.55996e-01,7.55717e-01,-4.39669e-02,1.28884e-01,2.88299e-01,-2.70115e-02,-6.58948e-02,-1.21583e-01,2.94126e-01,-4.08771e-01,-3.26136e-01,-1.57650e-01,4.22925e-02,5.25526e-02,-1.17766e-01,
1.79176e-01,
-9.35524e-02,
3.95755e-02,
-6.57496e-02,
1.18422e-01,
2.54166e-01,
-2.26777e-01,
8.68501e-02,
8.71779e-02,
-1.48604e-01,
2.25776e-01,
1.80144e-01,
1.80499e-01,
1.19076e-01,
-1.74371e-01,
-1.29781e-01,
-1.62556e-01,
2.11033e-01,
-6.78396e-03,
2.87181e-01,
1.42031e-01,
3.44180e-02,
-1.86105e-01,
-9.86544e-02,
2.94826e-01,
7.29959e-02,-3.68940e-03,4.84593e-02,3.32922e-01,1.64940e-01,-1.65936e-01,1.68097e-01,-2.81085e-01,-5.70043e-01,2.64548e-01,3.04069e-01,-1.71244e-01,1.40553e-01,-2.26541e-01,-3.05739e-03,-1.62958e-01,1.72344e-01,1.73915e-01,4.63721e-02,4.02920e-01,-4.39163e-02,9.39550e-02,7.06503e-03,-3.14212e-01,-5.67408e-03,
2.38913e-01,3.26053e-01,1.44278e-01,-8.11172e-02,2.77593e-01,1.87716e-02,7.64399e-02,4.50900e-02,4.26499e-01,1.62781e-01,4.53618e-01,-1.94737e-01,1.97457e-01,-1.67715e-02,-9.21481e-02,-1.34526e-01,3.77356e-01,-9.02936e-02,-2.40464e-02,3.21827e-01,-3.24918e-01,2.60081e-01,-1.63554e-01,-1.28553e-01,-2.16199e-01,
2.19944e-01,1.80508e-01,2.35598e-01,-3.10319e-03,1.40111e-01,1.27852e-01,-2.17520e-01,2.17009e-01,-5.72393e-02,-4.34764e-02,-1.58777e-02,-4.32450e-02,1.77111e-01,-1.10700e-01,-1.07261e-01,-1.41078e-02,3.52213e-01,-1.10095e-01,2.14064e-01,7.45924e-03,7.49883e-02,2.53796e-01,-2.52620e-01,7.96346e-02,1.88885e-01,
-3.05959e-01,9.03539e-02,-3.21254e-01,-1.66520e-02,-6.69335e-02,-3.39070e-02,6.13557e-02,-1.40666e-01,6.76374e-02,2.98858e-01,1.33538e-01,1.50622e-02,-1.66327e-01,-1.57273e-01,-8.31278e-02,6.82469e-02,-7.86474e-02,1.84783e-01,-9.99795e-02,2.69702e-01,-1.21018e-01,8.52366e-02,-2.09418e-01,-2.86636e-01,-1.63083e-01,
3.15466e-02,5.55773e-01,-5.43337e-02,-2.56852e-01,-1.02577e-01,-2.81781e-01,6.20414e-03,5.05212e-02,9.63347e-02,4.50937e-01,2.51858e-01,-7.65090e-01,3.46062e-01,6.73592e-02,-2.21203e-01,-1.51560e-01,2.84358e-01,-6.48703e-02,-5.91962e-01,7.54768e-01,5.61738e-01,1.32833e-03,-2.95267e-01,-2.40408e-04,-2.74229e-01,
-3.29619e-01,-4.30162e-01,2.75838e-01,2.67446e-01,2.73959e-01,-6.30129e-02,8.92956e-02,-3.20696e-01,5.67291e-02,-6.20380e-01,1.92193e-01,-2.13867e-01,-8.06874e-03,2.96910e-01,2.90540e-02,-1.53634e-01,9.14002e-02,-1.51422e-01,1.45700e-01,-4.75169e-01,-6.77518e-01,-2.39796e-01,2.53261e-01,-2.93602e-01,3.50649e-02,
-4.60674e-02,3.06096e-01,8.16500e-02,3.11961e-01,4.33348e-01,-1.11614e-02,-8.09037e-02,6.29869e-02,8.95435e-02,2.46939e-02,-2.30121e-01,4.75834e-01,1.30690e-01,-1.93019e-01,1.86179e-01,-1.23555e-01,5.49381e-01,6.57593e-02,2.37455e-02,4.89099e-01,-1.09409e-01,-2.10928e-01,2.37445e-01,2.49814e-01,1.36053e-01,
7.89087e-02,3.11755e-01,-2.45274e-01,2.79222e-01,2.08978e-01,-4.83102e-02,3.12708e-01,4.63600e-02,4.33023e-01,3.24064e-01,4.39942e-01,-1.22456e-01,-1.81856e-01,-1.07342e-01,1.48193e-01,-4.25684e-02,4.84328e-01,-7.27222e-02,-2.48687e-01,4.06337e-01,-9.82413e-02,-7.58354e-02,4.13760e-02,1.82505e-01,-3.56445e-01,
9.13367e-02,1.47381e-01,-8.66912e-02,3.69002e-02,-9.67660e-02,3.32870e-01,2.76422e-01,2.05459e-01,2.36674e-01,-1.61346e-01,-7.86015e-02,-3.05283e-01,8.79457e-02,-2.22297e-01,-1.11995e-02,-1.62215e-01,6.24483e-01,-9.92462e-02,3.92001e-01,1.14677e-01,-4.23858e-01,2.35043e-01,4.84387e-01,2.06946e-01,-1.71641e-01,
2.63945e-02,1.00064e-01,-1.07519e-01,9.47687e-03,-4.04950e-01,2.23304e-01,1.65587e-01,5.96445e-02,-2.54789e-02,-1.43911e-01,2.40476e-01,-1.47654e-01,-2.18199e-01,-7.45029e-02,1.70430e-01,-2.17580e-01,2.45857e-01,-6.46386e-03,-3.70920e-01,7.25715e-02,3.94771e-01,-9.55658e-03,4.95493e-02,-1.00630e-01,-4.94233e-03,
6.27293e-02,1.66708e-01,1.86594e-02,-9.81961e-03,3.14027e-01,3.23687e-02,9.09517e-04,7.38349e-03,1.21388e-01,-3.00487e-03,-6.21308e-02,-5.63544e-03,1.36549e-01,-7.98999e-02,2.48349e-01,-1.11426e-01,3.78264e-01,-2.09380e-01,-2.79152e-01,2.51306e-01,2.36141e-01,4.30331e-01,-2.00609e-01,3.26016e-01,1.41986e-01,
-2.36029e-01,-2.68179e-01,9.65640e-02,-1.65747e-01,3.58561e-01,3.15639e-01,-4.33104e-02,-2.13770e-01,-2.25230e-01,9.72733e-02,1.66102e-01,2.30117e-01,-3.29844e-01,7.85770e-02,3.29944e-01,2.52828e-01,-1.43470e-01,3.45704e-01,5.74796e-01,-3.68924e-01,-8.63431e-02,-2.50994e-01,2.49191e-01,9.44960e-02,2.09106e-01,
2.12429e-01,4.50945e-02,4.30501e-01,3.20982e-01,-7.12621e-02,-3.56883e-01,3.57962e-01,-6.95181e-01,-1.77007e-01,4.01266e-02,3.06639e-01,-8.97928e-01,5.14164e-01,-1.14422e-01,-3.01271e-02,-1.18283e-01,4.26964e-02,-6.74143e-02,2.19127e-01,2.53343e-01,1.56713e-01,2.20348e-01,-1.15582e-02,-1.85003e-02,-2.61597e-01,
-1.93091e-01,-1.39105e-01,1.85772e-01,-3.41721e-01,8.51305e-03,-1.97207e-02,-4.11263e-01,-2.77946e-01,-1.01221e+00,-1.83261e-01,1.42130e-01,5.46275e-01,-2.57708e-02,-3.51042e-02,1.07901e-01,-9.17593e-02,-1.68316e+00,-2.02280e-01,-8.34191e-01,9.13708e-01,1.17373e-01,8.93185e-02,-1.09414e+00,1.00835e-01,7.16465e-02,
-5.72639e-02,5.30212e-01,1.78948e-02,-2.26120e-02,2.55043e-01,-2.39393e-01,-1.07542e-01,1.90875e-01,1.48874e-01,2.25187e-01,4.02260e-01,1.43400e-02,-1.07986e-01,1.71074e-01,-8.69383e-02,1.18672e-01,5.22127e-02,2.45825e-01,-5.53490e-01,7.15395e-01,5.41160e-01,-1.25175e-01,-9.50072e-02,-2.05960e-01,-1.69079e-01,
3.10418e-01,-2.03576e-01,-3.88131e-01,-2.71231e-01,1.77559e-01,-2.05931e-01,-4.31545e-02,8.45889e-02,4.37844e-01,-5.83304e-02,3.00731e-01,-4.45768e-01,1.33687e-01,-1.49731e-01,-2.05440e-01,-1.91302e-01,-3.27222e-02,4.59840e-02,-3.01785e-01,-2.35649e-01,1.20722e-01,-9.37700e-02,9.30609e-02,3.91084e-01,3.76558e-01,
3.74311e-02,-1.39314e-01,2.98256e-01,-1.82392e-01,2.65130e-01,7.91900e-02,2.59119e-01,1.34257e-01,1.20932e-01,-2.65006e-01,-2.35626e-01,2.75186e-01,2.84224e-01,1.85852e-01,2.90519e-01,2.68909e-01,-1.08567e-01,2.24555e-01,5.61533e-01,-4.11782e-01,-3.13424e-01,4.05547e-01,-6.48837e-02,-2.82597e-01,2.21388e-01,
-5.32644e-02,-4.95461e-01,2.20369e-01,3.40986e-01,-5.71827e-02,2.15276e-01,-5.41440e-03,-8.26345e-01,-1.69557e-01,-5.31035e-02,-2.91957e-01,1.08735e-01,-4.86666e-01,-1.31904e-01,1.71016e-01,4.58840e-03,-4.65948e-01,4.33641e-01,-2.46869e-01,-1.09696e+00,-1.96488e+00,-1.46048e-01,2.06335e-01,-8.91906e-02,4.68611e-02,
1.63567e-01,9.48498e-02,3.60774e-01,1.95847e-01,2.43496e-01,9.16444e-02,1.59645e-01,-2.82410e-01,2.04626e-01,-2.36993e-01,1.71739e-01,-4.01470e-02,1.91206e-01,2.38264e-01,-1.18453e-01,-2.86948e-01,1.20081e-01,-1.69065e-01,2.37041e-01,-4.01262e-01,1.77098e-01,1.71392e-01,-9.02105e-02,7.67434e-02,1.51474e-01,
3.42074e-01,-4.28714e-01,3.34015e-01,3.43343e-01,-2.20793e-01,1.64435e-02,1.07110e-01,-1.35184e+00,1.02280e-01,-3.44626e-01,2.63590e-01,2.91462e-03,-7.18879e-02,1.26112e-01,-2.80196e-01,-1.78982e-01,-5.49921e-01,2.89494e-01,-3.10482e-01,-1.18389e+00,-1.19520e+00,-1.78061e-01,1.18881e-01,3.95608e-01,4.41950e-01,
-3.85082e-02,5.30349e-02,1.23797e-01,1.82216e-01,-1.62323e-01,-4.47231e-02,-3.33913e-01,-4.05718e-01,-9.99327e-01,-1.69919e-01,4.40386e-01,2.79028e-01,1.54780e-01,3.11249e-01,-3.27978e-01,1.92030e-01,-4.10452e-01,9.96245e-02,-8.57028e-01,9.58904e-01,-5.01961e-01,1.22684e-01,-8.75585e-02,-1.22545e-01,-9.28713e-02,
-1.42493e-01,-5.85403e-01,1.54733e-01,-6.74575e-02,-3.09513e-01,4.34580e-02,-1.99041e-01,-1.75638e+00,-1.09327e+00,4.04838e-02,2.94379e-01,1.63228e-02,-3.45495e-01,1.70844e-01,-8.65150e-02,3.12375e-01,-3.41561e-01,7.18360e-02,1.66953e+00,-1.43152e-01,-2.70974e+00,-1.24754e-01,1.12824e+00,-1.81297e-01,-8.46183e-02,
5.96316e-02,3.26645e-01,1.02750e-01,-3.24073e-01,2.53472e-01,-3.53351e-01,2.51424e-01,1.27028e-01,2.72898e-01,-1.62251e-01,1.03771e-01,1.26195e-01,-3.98897e-01,-1.12479e-02,-2.34484e-01,3.18260e-01,6.19931e-02,3.55390e-01,2.96122e-01,2.50056e-01,2.98948e-01,-3.47332e-01,6.65329e-01,-1.33117e-02,-2.14364e-01,
1.55848e-01,-2.04938e-01,2.46898e-02,-1.17895e-01,-1.51149e-01,-4.83055e-01,-5.91921e-02,-3.91579e-02,1.56929e-01,-1.05271e-01,9.88412e-03,-2.34816e-01,2.21949e-01,1.48268e-01,2.13856e-02,-1.72676e-01,-1.24514e-01,-2.40268e-01,7.59038e-02,1.17411e-01,-4.75466e-02,-1.62919e-01,3.00240e-01,-2.44755e-01,7.82450e-02,
-3.40252e-01,2.77790e-01,-2.76355e-01,-2.27678e-01,-2.11458e-01,-2.54194e-02,1.12884e-01,7.37688e-02,1.87452e-02,-8.94523e-02,-3.89914e-02,-1.85422e-01,2.28482e-01,-3.03927e-02,2.51344e-01,1.02275e-01,2.06603e-01,-3.19180e-02,-2.59072e-01,2.76542e-01,7.98781e-02,2.62211e-01,-4.44432e-02,2.75933e-01,-3.91006e-02,
1.69610e-01,
1.26130e-01,
1.87090e-02,
-2.46611e-01,
-3.91858e-02,
3.06417e-01,
-2.63543e-01,
-9.56881e-02,
-1.30855e-01,
2.60599e-01,
1.70439e-01,
3.43445e-02,
2.07118e-01,
8.45233e-02,
2.81597e-01,
2.44248e-02,
2.37188e-02,
3.04670e-01,
-1.18699e-01,
2.24280e-01,
1.48039e-01,
3.16290e-01,
9.67408e-02,
1.20404e-01,
6.81689e-02,
5.78788e-02,4.81631e-02,-4.04095e-01,-1.41098e-01,-2.97533e-01,-2.67538e-01,-1.28369e-01,-1.40346e-01,1.26379e-01,-1.19335e-01,2.99807e-01,-1.03153e-01,2.18622e-01,-5.57552e-01,1.92913e-01,-7.91287e-02,-1.69904e-01,-5.58354e-01,-2.83974e-01,-5.62324e-01,1.05295e-01,-5.13800e-01,1.29314e-01,-2.26778e-01,3.48628e-01,
2.97655e-01,1.36539e-01,-1.14477e-01,2.25639e-01,-1.67170e-01,4.08578e-01,1.23472e-01,-7.59264e-01,2.28602e-01,7.92742e-02,4.53163e-01,-3.22239e-01,1.20456e-02,-5.33225e-01,3.86402e-01,1.81663e-01,-2.51748e-01,-6.98647e-01,-4.67056e-02,-5.08560e-01,1.11307e-01,4.79265e-02,8.62408e-02,1.20951e-01,-1.32704e-01,
4.89803e-02,3.20639e-01,7.66107e-02,2.29266e-01,-4.15412e-01,-6.05603e-02,2.72259e-01,-2.80202e-01,-2.35579e-01,1.69141e-01,1.08213e-01,-1.63029e-01,3.11638e-01,-8.17839e-02,2.45575e-02,1.74481e-01,-2.80813e-01,-6.69168e-01,-2.50225e-01,-4.17512e-01,-2.26956e-02,-2.35644e-01,1.38035e-01,-2.27629e-02,2.25794e-01,
-1.08397e-01,2.89817e-01,3.39286e-01,1.29105e-01,-5.42755e-01,-1.91531e-01,-5.06819e-01,-2.18805e-01,1.43886e-01,1.47953e-01,2.13571e-01,8.98936e-02,1.04095e-01,-8.28915e-01,4.34060e-01,-6.53569e-02,1.61850e-01,-5.69526e-01,9.90898e-02,-2.72571e-01,-6.58786e-01,-8.01224e-01,-5.21579e-02,2.77918e-01,3.62764e-01,
3.60742e-02,-2.48328e-01,2.83723e-01,4.20394e-01,-4.72150e-01,-5.96099e-01,6.97419e-01,1.65927e-01,-1.88023e-01,4.51109e-02,-3.68276e-01,-2.73334e-01,5.11654e-01,8.49272e-01,3.09889e-01,3.31393e-01,-4.82383e-01,-6.54335e-01,-1.56622e-01,-1.52892e-01,2.19501e-01,-2.95376e-01,-2.60570e-01,2.28003e-02,-8.83423e-02,
-6.08459e-02,
-4.43529e-01,
-2.85929e-01,
-5.77277e-01,
3.61012e-02,
